3013 100
Helvetica -0.28670904 0.41407546 1.2872478 2.1358008 -0.9217499 -0.95986366 -2.176072 1.7859601 -1.3307414 0.91660976 -1.6953174 0.36383304 0.70959157 -1.4137179 0.23859061 -0.5183087 -0.21033666 0.20003274 0.5557935 -0.30178 0.04578428 1.1563481 1.4439853 -0.40904227 -1.8409684 0.3132088 -1.4492782 -1.0679115 -1.5685551 -0.9238722 1.4976344 0.7946923 -0.11072433 -0.5386484 -0.52096915 1.0723524 -0.51405257 -0.36541465 0.5781761 1.49091 -0.66156167 -0.21771868 0.9854529 0.09163709 0.78717643 0.7786618 0.31665334 -1.9520844 1.3377175 0.47018993 0.74063015 0.98216724 -2.3579373 -0.06712356 0.6410878 0.8736403 0.47910818 0.269333 1.621349 -0.69255024 0.09080066 -0.41101068 -1.2210953 -0.59001184 0.54267764 0.9921871 -0.5078299 -0.51389396 1.1090146 -0.27833372 -0.5280179 0.50404525 -0.47477615 -0.4478518 -0.2748255 -1.0340046 -1.6216115 -3.162507 -0.5426965 1.0613495 -0.31588435 0.12789427 -0.11321292 0.24070878 0.572004 0.7625926 0.576667 -0.0349861 0.14811157 0.078552864 -0.30700177 0.25685862 -0.5812806 -0.8866357 -0.019658413 2.2780507 0.33245894 1.5813758 -0.007159949 0.32630506
expandedcolortbl -0.15936328 -0.48633966 2.854589 -1.5275251 -0.52766967 0.5826513 0.85580355 0.39559376 -1.6536144 -1.6056315 -0.5270079 -0.47005722 0.86191934 -0.68325305 -0.7007677 -0.7010008 0.448295 -0.22456399 -0.58816 -0.08002396 0.29426533 -0.21920735 -0.13954851 -0.027863862 -1.1311822 0.11208955 1.6649513 -0.9387346 0.8598143 0.13978632 1.3783271 0.08066107 1.4933661 0.6427389 -1.3144869 -2.3297682 0.38509884 0.8122417 0.8854832 -0.3317692 0.507769 0.04620061 0.18668203 1.5303699 0.9256053 -2.398195 1.0485984 -0.4532542 -0.11596988 1.1614224 1.02652 0.5146806 -0.091063105 -0.938673 -1.594112 0.8179747 1.6443332 -0.6200241 0.65882874 -1.1226877 0.4165688 -1.5010537 1.5680271 0.7015277 -1.8848411 0.8776234 0.7677023 -1.3275614 -2.672211 1.5710164 -0.1391954 -2.095393 -1.2696579 0.91715527 -0.29398632 -1.7191885 0.7149434 -0.21933924 -0.027140662 -0.0039153034 0.29015738 -1.8478276 -0.51235867 1.8239092 -0.8341739 0.027223036 -0.99893117 0.6128391 -0.39508638 0.52709705 1.7940975 0.33852175 0.011258552 0.23144251 -0.69497776 0.22661917 -0.66587514 0.45859075 -1.5088645 0.6837794
Magali 1.4387187 0.13107744 0.6931352 0.19901137 -1.0897025 -0.4381877 -1.0420426 -0.40998656 -2.0283563 -1.5197482 0.19190456 -0.65814793 -0.52488816 -0.23463592 0.28326073 -0.7203359 1.0127256 0.5985301 -0.6638927 -1.6842704 0.031125924 0.60207236 0.6148821 0.3429003 1.1139905 2.6067038 -1.3843906 1.1538141 -0.6970404 1.265783 0.8619968 -0.65912074 -0.5135773 1.1768892 0.81982285 0.12163609 -0.5041614 0.52000177 0.19061239 -0.6956599 -0.6546176 -1.0897584 0.020434987 -0.85605234 -1.4809313 1.2686872 0.674948 -0.54202265 0.71418464 -0.55123705 -0.5318247 0.5639485 -0.056509353 0.35455936 -0.5785225 0.21466872 -0.9535732 0.0107365735 1.2462126 -2.6895773 0.9647299 0.1862699 0.5284705 0.33121118 -0.08664755 -2.0192165 0.77491117 1.081316 -1.1628895 0.19666187 -1.4388049 -2.562703 -0.08053515 0.44296265 -0.80656934 -0.48048082 -0.10252217 -0.2572604 -0.5780916 -1.5045938 0.45982897 0.7359011 2.183842 -1.2682288 -1.0085764 0.6499977 0.0037820924 1.1717445 -1.5585433 0.888203 -0.15159832 -2.0458646 1.070435 2.6715994 -1.1605737 -0.1546761 -1.4224347 0.18034232 0.68735915 -0.9623081
et -0.20412976 0.046615783 0.9940053 -0.46036372 -0.805499 -0.5715174 0.9096817 -1.4390327 0.5864534 0.88791746 -0.5343406 -0.7011088 -0.9144779 -0.24654776 0.058256842 -0.7977804 0.72881734 -0.054792676 -1.2758908 0.7911562 0.120120406 0.21232986 0.2546001 -0.49589956 -0.6008417 0.48655158 0.8059181 0.058338955 -1.0380803 0.31571114 0.08218004 -0.49722382 -0.5238219 0.15728593 -0.91300386 -0.20738143 1.24628 0.27119797 0.42479566 0.6101657 1.4594816 0.53314465 -0.96673477 -0.6835679 0.69906414 -1.7741034 0.15754762 1.9652872 1.4054307 -0.41203293 -0.81826246 0.8581352 -0.21190608 -1.030601 -0.4582858 0.62077415 1.9753002 -0.20134969 -1.1569517 -0.9215452 0.8004405 -0.77724844 0.6345311 0.5978169 1.0681586 0.26593456 -0.26819292 0.36941534 0.07385538 -1.2314776 0.04011062 0.17476714 0.20995498 -0.6879571 0.29746023 0.14840208 1.2152032 0.27068886 -0.5271947 1.2499262 0.015220154 0.7382703 0.23156646 -0.29702365 0.5836789 -1.4346591 -0.6923919 0.65480644 0.46722552 -0.3005381 -0.79895025 0.19608581 -0.79963535 0.9480535 -0.2843628 -0.3456748 0.5237172 0.35360357 -0.20474693 -1.2155621
le 0.73786825 -0.022253245 -0.37405363 -0.13430643 0.076835945 -0.2514275 0.10929546 -0.010483888 1.1621631 -1.7623245 0.26748937 -0.05343934 1.6046534 -0.32003525 1.3798798 0.27557188 -0.22109228 -0.89686114 -0.87054557 -0.5711446 0.63082296 -0.9844787 -1.2610769 -1.2882788 -1.6564972 -0.02721761 -0.6351737 0.31791547 -0.014619335 -0.50973123 0.62561125 0.07785948 1.213415 0.3696755 -2.0671065 -0.18227337 0.8296309 0.72373164 -0.37991717 -0.07458404 0.34806073 0.42653072 -0.332334 0.15134564 1.8601735 -1.193895 -0.47257385 -1.1707047 0.41752574 -0.73516035 -0.18599285 0.2367688 -0.85772246 0.73008883 -0.08779355 -0.48695952 -0.5198722 0.8883235 2.0987694 -0.9346527 0.85247284 0.40430257 -0.43270075 0.09472886 -0.021521166 0.5946926 0.073724166 1.9139354 0.093221106 1.0806665 0.3280282 -0.5134437 0.4665981 -0.21380995 0.20913756 -0.6078556 -0.7972977 0.21800604 0.14328186 -0.4809806 0.8961624 -0.5513067 0.3586131 -0.92457336 0.038575634 -0.534653 0.47074687 0.91855395 1.140458 1.1648617 -0.36246422 0.082530804 0.9665499 0.7456119 0.37694842 -1.3190632 0.20069027 0.083628915 1.0403674 -0.014151092
pain 0.6646821 -0.7521989 0.003537791 1.301595 -1.323369 0.87067753 0.21666051 0.8486055 0.6091091 1.9009789 -0.84268737 0.080199756 0.08316783 0.3957716 0.21859159 -0.4284566 -0.018659016 1.1124998 0.17877339 0.3735153 0.1436895 -1.5420185 0.1258829 -0.39143592 -0.06780446 -0.5175073 1.0554886 0.08925458 0.20533277 -0.65795887 -0.7141788 1.6032845 0.88035893 0.8024609 0.9860984 -0.9845084 0.9324119 -0.51996994 -0.18770666 -0.30326477 0.67216057 -0.4539218 0.76922214 -0.7024602 0.008839228 -0.29341093 0.61815065 0.19268149 0.23428118 -1.0872575 -0.46746933 1.0965648 -1.0152276 -0.2125113 -0.7434935 1.413212 -0.29894105 -0.5256968 -1.5404332 0.13207723 -0.8754394 -1.7269374 1.3112023 -0.16939472 0.5521221 0.958326 1.5317175 1.0769873 -0.04762086 -0.6880355 -0.6363004 -0.88836265 -0.6581358 -0.5109669 0.058736615 0.6191475 1.1760794 -0.44810963 -0.7643748 -0.5965368 0.92011267 0.43921995 0.02310958 -0.8929209 0.047227215 0.017162101 -0.07596728 1.2078987 -0.8331518 0.95814586 1.090436 -0.095323 -0.15294977 1.3520803 -0.693767 0.45470574 0.69622016 0.5290812 1.4724385 -1.5313237
de 0.49168876 -0.09472267 0.82352406 -0.21258804 -1.6781703 0.5653351 -0.29169455 0.36821204 -0.96690214 0.34356824 0.05803914 0.15637179 0.8992668 -1.0490897 0.65987337 0.18446916 0.29197904 -0.019915419 0.7953848 -0.87167656 -0.34336266 0.17042671 -0.61149836 -0.29398817 -0.23153688 0.48617277 0.07550184 0.36963946 0.10018894 -0.31312737 0.83556944 -0.40439457 -0.016940674 -0.1210678 -2.1294196 -1.0566983 0.62046456 0.24359229 -0.27513877 -0.2618324 -0.79160273 0.9302099 -0.9503298 -1.0931935 -0.04912215 -0.81418896 -1.3578213 0.042491734 0.14618468 -0.42869362 0.17310767 0.1359043 0.46980822 -0.40144542 -0.67632604 1.1796749 1.1234069 0.05699522 -0.09403778 -0.6768969 0.74879664 0.4295578 -1.3500013 -1.9815351 0.89574313 -0.60316956 0.9905336 0.6700014 1.7509274 0.4059021 -0.731931 0.23806967 0.2158617 0.13883129 0.73799396 -0.19634071 0.26263735 0.92080045 -0.6023961 -0.05247796 -0.31344664 0.40332976 -0.4894651 0.21650873 -0.19639538 -1.3681347 -0.42162913 -0.3515904 0.69243574 0.36531246 0.5492843 0.037155535 0.7760933 1.904355 -0.75036824 -0.73174787 1.2286738 0.75333285 -0.80057096 0.94845116
kg -0.7781169 -0.15455313 0.77422804 -0.34832695 -0.031151162 -2.2234905 -0.68125147 -1.093413 -2.2285109 0.09041274 -0.5501714 0.14722587 -2.267819 1.2160991 0.2101546 0.92309946 -0.14088091 -1.36323 2.1192431 0.81265044 -0.7228954 -0.25067422 -0.123396456 -0.21081719 -0.23739384 -0.39091238 0.19578439 0.5733477 -0.62192863 -0.8381183 -0.6637102 0.21051413 -0.2973456 -0.06323807 0.3300612 -0.37642154 1.3038932 0.56420153 -0.9307539 -0.6100396 1.235768 0.5156981 1.0105251 0.52769035 1.034414 0.5658239 0.94367945 -0.48676175 -0.815928 -0.7772195 0.5217799 0.34698105 -0.8467309 -1.7478333 1.3468387 0.05279641 0.68743813 -1.4742626 0.31716838 -0.6904661 1.1662325 -2.6197872 -1.2958736 -0.33308548 1.2387786 -0.45840007 0.501807 -1.8066115 0.4685995 -0.09795256 1.3457674 -0.28616622 0.75301045 0.3680539 -0.47127795 -1.5060768 0.31130192 1.1110187 -0.31668404 0.83056056 -0.6853657 -0.1824935 0.076958306 -0.4791228 0.846486 0.2257512 0.42353767 -0.46334884 0.0761554 0.71702206 1.2080376 0.027837794 0.10745748 0.26226404 -1.3567644 1.3305002 1.775846 0.6002194 0.29911172 -1.3923513
m 0.6670906 -0.6555392 0.562168 0.6547172 -0.7249141 -1.0863318 1.0182484 -0.2243023 0.12984148 -2.198483 1.1081929 1.9991659 0.6173351 1.022032 1.8217558 -0.5756356 -1.4245589 0.89076203 1.1144899 0.0031019808 -1.0991064 1.8260372 1.2431815 -0.221165 -0.87424713 -0.8346943 1.1800635 -0.6290015 0.91976535 0.4560607 -0.92049783 -0.023101898 0.82418674 0.12695771 0.3498303 -1.397741 1.1660058 0.59830636 0.36643416 -1.1852359 -2.3369377 1.4325092 0.3363998 1.056306 0.4833121 0.37992543 -0.7075219 0.4790971 -0.52942705 -0.060271002 -1.1802758 0.68803865 -0.6807928 0.13792449 -0.39821497 -0.1272034 -2.722194 -0.15612169 1.3575228 1.3497137 1.0532798 0.6383671 1.219289 -1.1992464 1.1313095 0.014231973 0.23644738 0.4760198 1.1173046 -2.2374957 0.9055155 -0.09614305 -0.73451614 1.025302 0.90985847 0.5842681 -0.8804338 -0.2682085 2.1203647 -1.3859054 -0.3829372 -0.31025562 -0.34137112 2.68543 -0.75075424 -1.8223276 1.3139502 -0.18220563 1.1485021 -1.0280776 -0.31594 2.174867 1.4007385 -0.48231536 1.523372 -0.89372 -0.8969654 0.89373016 0.033937123 1.1220503
La -0.6621695 -0.89045 1.2581419 -0.59297144 -0.050360307 -0.26298368 0.61161476 -0.32195383 -0.8655644 1.3703747 0.026462872 -1.4892867 1.0806457 -1.1781505 0.5839487 1.5775461 -0.356571 -1.8807377 -0.6280505 0.02481109 -0.58515185 1.3784503 0.36146247 -0.44594985 -1.3799174 -0.51211095 -0.84049034 -0.47007445 0.091347195 -0.13903289 0.1684122 0.28056192 -0.06036476 0.6376008 -0.5075405 0.3817776 0.98896927 -1.8818241 0.46282774 1.451002 0.11413599 0.17829221 -0.19584702 -0.5985987 -1.2619773 -0.17925012 1.025581 -0.21066158 0.6270047 -0.23272517 -0.13059716 0.6145039 0.07409898 -0.7888059 0.48221564 0.23986371 0.72450995 -0.15433061 -0.42137805 -1.5303484 -0.83110553 0.4701392 -0.43494862 -0.73561376 1.6630703 -1.5041671 0.3110584 -1.0333478 1.1151052 -0.4070722 0.035205524 -1.0598346 -1.5881555 1.3011391 -0.6322929 -0.96750706 -0.43624914 0.20247827 -0.3579581 -0.06844183 -0.41814718 0.9874876 -0.9567778 -1.0399121 0.46637124 -0.40558738 0.35464156 0.76857245 -0.38842356 0.37449592 0.6331355 -0.4856195 1.0020989 1.1158099 0.54959434 -0.39005673 0.08542442 -1.7273631 0.8881287 0.1894225
aucun 0.51391965 1.1963379 0.1473067 0.8911048 0.93648255 -1.7851958 0.83231175 0.43934923 0.5765324 0.8925273 -0.6417649 0.034482613 -1.2190858 0.69478834 -0.9091496 0.40243688 -1.2953843 0.5619711 -1.1813531 1.1022725 0.4581597 0.6673302 -1.4501584 -0.48700657 -0.45588204 -1.9795469 -1.0618824 -2.0362167 -0.65747744 0.28485355 -0.43754065 -0.77018195 1.064734 0.2884603 0.03325476 -0.6998243 -0.75107145 -0.45485255 -1.334178 1.0547885 -0.7177641 0.91878307 1.7677882 -0.7965956 1.1457264 0.7244945 0.78178895 0.64075303 -0.07700079 -0.4851169 -0.18894058 1.4991221 -1.4207492 -1.8265803 -0.83653986 -0.10991659 -0.1540063 -0.9803745 -0.063404284 0.42336094 -0.6431473 -0.46280527 -1.6056012 0.7802785 1.1373266 -0.25528353 0.2102114 0.3341955 -0.7070062 -0.3109605 0.516251 -0.36572942 -2.0557346 -0.1331564 -1.334189 0.5238334 -1.5694882 0.42994392 1.0563551 -1.1493025 1.2874492 1.4624689 0.6689539 -1.8281705 -0.45575553 -1.0020374 0.41460657 0.37883255 -0.9631145 -0.050719257 -1.4593767 0.16740805 -2.4082305 0.13476379 -0.07685634 1.2675375 0.24932261 -1.0146073 -0.49595362 -0.5733049
boulanger -0.28698385 0.64083326 0.14447802 0.73101294 -0.051421404 -1.1816962 1.0778883 0.26009062 -1.1833622 2.0411348 -0.771712 -0.3195414 -0.3492237 -1.4071015 0.23608235 -0.39785406 1.3858031 0.34710187 0.051790036 -0.38155475 -0.74439573 -2.1039274 -0.7164142 -0.78116244 0.28147936 -0.98546183 0.26794532 0.63319874 -1.0761133 -2.3847241 -0.06949079 -0.0070838607 -0.7825306 -0.39014158 -0.67323154 -1.0396148 -0.35077962 -0.004142341 -0.47794157 1.1303694 0.42492226 -0.32982498 -0.48454186 -0.3692568 0.96199584 0.5159976 0.15090463 1.9278133 -1.8244563 -1.1797187 0.34691182 0.7925046 0.28208634 -0.6657108 -0.4115458 -1.6087574 -1.6725358 -0.31789532 1.5126927 0.10899251 -0.43630654 -0.84535104 -1.1534885 -1.114294 -1.4206161 -0.70952475 -0.05760999 0.013669966 -1.0003388 1.0020806 1.303912 0.68219423 0.55885226 -0.5924788 0.63916934 0.74213284 -0.06576552 0.868057 0.9709577 1.5711174 -0.19739167 -0.21721162 0.16487345 -0.66170824 -0.012661568 -0.27418947 0.1157157 0.045400597 0.29486883 0.1750272 0.73133284 -2.6449792 0.20626052 0.8558982 0.6964387 -0.2236213 0.5545698 0.15616897 0.24441008 -0.51923496
ne -0.57036585 -0.28303498 -0.069235966 1.0514933 -0.64102155 -0.97947073 0.52365315 -0.27868196 -0.91687953 -0.31841174 -0.4126017 -0.72580737 -1.0628 -0.07899331 0.2799382 0.7292927 1.0324997 -1.5294122 0.41208786 -0.44747514 0.8246608 0.20153536 -0.78244084 -0.1387397 0.719096 -0.3617019 0.04324291 -1.707657 0.7287477 -2.2920861 -0.96417195 0.65768194 0.32315508 -0.25280017 -1.0228621 -1.1268016 0.08763014 0.40409923 0.004896854 -1.5349299 0.33651847 -1.1181182 0.7437705 -1.0694461 0.08419117 0.035242643 1.2982591 -0.33682758 -0.18469156 0.36498868 2.3388593 -1.0186702 2.1142993 0.65732956 -0.34593385 0.33090138 -1.3948224 0.4521173 0.92144746 -0.4684672 -0.37149522 -0.19573122 0.33968022 1.2372175 0.021181066 -1.2178075 0.6959971 0.86228186 0.7839208 0.38088748 -0.5326286 -0.10940492 1.3139644 -0.86022365 1.161341 1.703636 0.88434505 0.5318772 0.8662197 0.18843916 0.5476036 0.5997325 1.479311 0.19482231 -0.3370831 0.51262015 -0.71868247 0.34709427 0.92218703 -0.04546884 -1.6801698 0.6849408 -0.23034221 1.7316239 0.7292698 0.15739426 0.44568613 0.21181281 -0.7284424 1.3417315
la 0.18701102 -0.46174482 -0.6488114 -1.1450224 0.16696335 0.8267681 -0.18194044 -0.08621677 0.0033607672 -0.39615327 -1.1147206 0.7400801 -0.4466551 0.79361737 1.6196414 0.67674875 0.9324477 -0.79346055 1.0186713 -0.8683698 0.5858604 0.02159164 -0.44203025 -0.37084144 -0.19663712 -0.5479281 -0.79810673 0.5604366 -0.74538106 -1.4866374 0.04530324 0.52035975 0.07680452 -0.32780397 -0.88823014 0.21845594 0.20394552 0.5792759 0.41669995 0.18733601 -1.3607315 -0.58818036 -0.9125469 -0.6312252 -0.21450973 -0.5868962 -0.551944 -1.0797244 -0.56152475 0.22167987 -0.7778647 -0.54892075 0.25121352 -0.2039959 0.51026094 -0.36780676 -0.9295497 0.43556106 0.35254967 0.09947206 0.8218319 0.10872022 -0.67808026 0.4833334 -0.31820482 -0.49298155 0.785218 0.168661 0.21839146 -0.20487404 -0.3866326 -0.4790277 0.7690318 0.87535644 -0.12245316 -1.1420888 -0.77315974 1.3678637 -0.32615924 -0.008138468 -0.19656032 0.4268025 0.5223463 -0.03510383 -0.61691505 0.23060563 0.34305915 -0.26704282 -0.3613649 -0.77557063 -0.08954921 0.0020797914 0.11560604 0.20811638 0.8699562 0.13608833 0.18366656 -0.19635141 0.16376017 -0.8460103
manque 0.98308533 1.7212665 1.1322467 -0.52392715 0.67767996 -1.2569536 -1.4275367 -0.9734666 -1.5502785 0.55978143 1.9590164 0.40052107 0.09080867 -0.17681599 1.2796504 -0.04315887 -1.7576082 0.24819927 -0.44785708 -1.5633236 0.22641234 1.9356844 0.5248197 0.34264576 -0.8460967 0.969314 -1.7067333 -1.7716734 0.87125415 -2.9680731 -1.2446779 0.32401472 -1.0319825 -1.7551107 -0.68865263 0.30293152 1.2584409 0.6910279 0.90150374 0.600721 -1.1850337 -1.1923859 0.8031039 1.9928436 2.041291 0.54495835 -0.24145544 0.37685835 -0.6364707 -0.4741334 0.8944014 0.054402675 -0.3074474 0.61755824 0.3212353 0.32193562 -1.2177218 0.4073522 -0.1936585 0.9798157 0.7698694 -0.7027059 1.0481826 0.2973905 -0.07485916 0.4507951 -0.011112328 1.0687422 1.0508288 -0.60362846 0.0651624 -1.5912633 0.6768529 0.6363056 2.522466 -0.0019129273 1.1532272 -0.12643154 0.32630342 -0.5600649 0.21149251 -1.3662982 0.18979208 -0.65654033 0.19266713 -0.7079096 -0.2824413 0.8329985 0.7397441 -0.1687594 -0.44314903 0.6164376 0.7270966 0.52444273 -0.84614253 -1.5646718 -0.014968042 -0.5824182 0.9202853 1.9756116
Et 0.2978916 -0.26108843 -0.9353055 0.9896905 -1.1832607 -0.5365237 0.6810345 -0.8045832 0.31721509 -1.0482156 1.1647972 0.54919755 0.7007753 -0.073020406 -1.8821324 1.8178737 -1.1329194 -0.73848134 0.89832675 1.6729019 0.28552926 0.29133672 1.3515512 0.7775361 -0.8075937 1.0709071 0.33637694 0.60068005 0.11482421 0.9245145 -0.25381383 0.6239757 -1.1947916 -1.1361105 -0.07487696 0.32690316 0.1606107 -1.1034725 0.5397184 -1.5096477 -0.87831265 0.9520495 0.6395352 -1.6008418 -1.1478603 1.2732292 0.54756004 0.40887237 -0.066639155 0.04363121 -0.080716565 0.058827743 0.9011874 1.2306963 0.0013435588 0.7769815 0.9459772 -0.1828132 -1.0848882 -1.5196489 3.082091 1.5609471 1.0676823 0.8997127 -0.8582382 -0.30358154 -0.31744906 -1.3589026 -0.22922257 0.8574233 0.4116345 0.7848516 0.47263578 7.864399e-05 -1.0696362 0.45729208 0.028947879 0.73015696 1.2475408 0.34375426 1.3222809 0.541919 -0.88777417 0.740078 1.1154902 -0.66310215 2.4524157 -0.00451117 -0.89242357 -1.1717852 -1.589269 -0.3491374 1.1989466 0.12181638 -0.036640964 1.249913 -0.72314614 0.26082504 0.40948257 1.0008185
chacun -0.8057671 -1.7038244 1.4083402 -0.13626763 -0.4062035 0.13809402 0.71207273 0.029053692 -0.6516122 1.2171385 -0.061013944 -0.541375 -0.4947037 1.767805 1.3058151 0.12912937 0.30779067 0.96412194 0.17998686 1.3490741 -0.28331938 -0.47938925 0.13276261 -1.013311 1.3026841 -0.5387978 -0.3439141 0.584718 -1.620161 -1.1746571 0.34870562 -0.85548395 -0.9286678 -2.0327723 -0.70344067 0.29431465 0.21354352 0.13091876 -0.060485218 -0.704325 -1.104726 0.5161408 0.34389773 -0.6183636 -0.22560199 -1.4098446 0.35256574 0.62994856 1.3161621 0.13934368 0.75492287 0.23528586 -0.2360651 0.98882365 0.12157164 0.4012895 0.13196899 -1.6447086 0.48672682 -0.6713226 -0.8738769 0.05734952 1.589189 1.0095108 -0.16912255 -1.4408038 -1.342804 -0.8570685 1.3670287 -0.8026723 1.0169744 0.44601926 -0.6705971 1.6659844 -0.6176195 -0.5713845 1.8313392 0.3692809 0.76886964 -0.44679475 0.6051493 -0.082984805 -0.46732023 -0.2435788 1.5810865 -1.454394 -0.59135336 0.7432042 1.2865081 -1.0049509 0.03394557 0.36313272 1.0907544 0.42647752 0.29764274 0.03865508 -0.46299905 0.96011174 -0.49188024 -0.24801512
ses -2.0282943 0.66362566 -0.5633199 1.1229578 -0.60413074 1.4051954 0.28615713 1.6926203 0.8397472 0.70146835 -2.1339352 -0.13261591 0.4125559 -0.508876 1.2206929 -1.4029443 0.036297277 0.048534516 -0.67804766 -1.5093611 -1.0669384 -1.8127182 0.6779221 0.25292864 -0.72058946 -0.4432987 0.022656757 0.6228898 -0.122705095 0.8565699 -0.62482667 0.37484533 0.077875756 0.85181963 -0.44854507 0.5912033 0.64848256 -0.69249016 -1.159326 0.41781452 1.0817379 1.0338063 -0.0458597 1.1599832 -0.96140283 -0.15009038 -0.23034249 -1.390331 -0.77377385 -0.5859658 -1.0338975 1.3230001 1.1115416 -0.3535692 -0.21552952 -0.060256295 1.123536 0.0362514 -0.8955851 0.9165606 -1.1006967 -0.031240549 0.65086955 -0.7580409 -0.88703823 -0.23967433 -1.3691101 1.4729278 0.12156626 0.43100554 -0.68347687 0.74319804 0.3710005 -0.5129299 0.3944286 1.1624552 0.15216795 0.6996561 2.5762124 1.0468345 0.97293854 -0.44856286 0.33532813 -0.20761453 0.66811395 1.5547012 -0.018796595 0.046904877 0.7928137 -0.75631773 0.99278 0.867733 -0.70998853 -0.24352443 2.030159 1.055594 -1.9427831 0.703431 -0.39485005 1.7725306
cuire -1.6525593 0.50277525 -0.49846968 0.082305 -2.1566381 -0.089429095 1.0262558 -0.33653274 0.12673633 -1.35881 0.731865 -2.4591055 0.6896216 0.57908493 0.6614141 -0.20853253 0.661277 0.92084783 0.348017 0.023252176 0.036130346 0.41392785 -1.25446 1.7871568 -3.265404 -0.4604521 -0.09836203 0.43936384 0.24940261 -0.64939624 0.27283782 0.080620766 0.43962896 -1.0427613 -0.53496337 0.35028833 -1.2936821 0.110506594 0.8252785 -0.8811493 1.0879458 0.9716263 -1.8986641 -1.0545249 -0.37224394 -1.0012501 -0.06458079 -0.42420036 1.4638462 -0.562365 0.7287332 -1.3969022 0.5309932 -0.27393883 0.9373683 -0.6372061 0.22988206 0.80384386 -0.67685926 2.03996 -0.9116565 0.29720312 -0.31298283 0.7488263 -0.48472324 -0.70393497 -1.324297 -0.16782586 -0.34880623 -0.5567915 -0.692606 -0.30702704 0.3953684 -0.26122567 0.09552461 -0.27645692 -1.6657994 -1.385394 -0.18164173 1.5526769 0.6574014 0.43050963 1.5055152 1.1748688 1.3441236 1.740858 0.9127908 0.5694393 0.36386642 -0.1202161 -0.52909416 1.1067212 0.34455538 -0.5289665 0.13808891 0.8552003 0.45725212 0.2849683 -0.2716333 -0.7095097
bon -0.9607776 0.47049764 -0.13085869 0.27521965 1.1376597 1.4810859 1.3448256 -0.7820051 2.0078523 1.3412971 -1.6402891 -0.39800364 0.09514232 -0.43282017 0.6742123 0.16606787 0.66273725 2.0415745 -0.47498718 -1.0163467 0.76528525 -0.3601065 -0.13208514 0.6842692 -0.21996526 -0.89865667 0.4876396 -0.9384077 0.06192332 0.14957364 -0.44837284 -0.92500776 -1.1007689 0.40214497 -1.0678391 -0.27106392 0.0354978 -1.0145736 -0.3244333 1.1273315 -1.1283481 -1.2825077 1.7819655 0.29944336 0.22358416 0.3873914 -1.0662265 -0.7853921 2.3462684 0.45065522 0.9463372 0.16288058 0.17632696 -0.22020745 -0.8798819 -0.70337397 0.48785582 -0.050096206 -1.9161016 0.4481905 1.8479935 0.8365809 -1.321835 2.195555 -0.30708802 -1.2041172 0.11955869 -0.9851903 -1.6410136 -0.32309842 0.9409654 1.1271652 -0.5811505 -0.98683715 0.47433808 -0.9585485 0.5163983 -1.8974321 -1.836061 1.3089833 0.75426024 0.6503128 1.1023735 -0.63675934 -1.9027525 0.016375605 1.415188 0.9843777 0.8763819 -0.5020834 1.1093115 1.4854149 -0.4077277 0.9567081 -0.17635776 -0.9754753 0.032218874 0.959576 -0.1226658 -0.58180726
Chez 0.3814502 0.75947714 0.10344231 0.4769044 -0.3479461 0.16973886 0.7108266 -0.25392935 -0.02902587 -0.10075189 1.7074412 -0.38692752 -0.3199973 -0.12685001 -0.24676757 -0.64730805 0.39891335 -0.54647756 -0.9780394 0.14058326 -0.29582778 -0.93246293 0.83599496 -0.29534397 -0.18392316 -0.7247329 1.2873073 -1.2807177 0.51639444 -0.8557158 1.9425759 -0.26720536 0.23458612 1.8956445 0.35963917 -0.50063294 -0.4979986 -0.20907156 0.1545474 0.06113044 0.3529023 -0.22015347 0.2768291 -1.0497315 -0.032501165 -1.2916348 0.47080496 0.92749983 1.4212607 -0.5992731 -0.0709232 -0.39173037 -0.7921055 -0.121854 1.4458405 -0.69690293 0.13729043 0.008068903 0.46571875 -0.6618395 0.0800684 -0.698709 -0.023873959 -0.61104596 -0.5948729 0.32421273 1.470155 1.7688463 0.27583933 -0.5173932 -0.19577667 1.6161466 -0.6404932 -1.8883475 0.13594109 0.4892117 -1.8602301 0.27801824 0.4355888 0.42994422 0.05929172 1.2771581 0.055746287 0.87184846 0.9861836 -1.3515508 0.13994655 2.4300387 1.0436172 -0.13218465 -0.4751939 -0.8077458 -1.3953115 1.4715002 0.48552167 -1.2735894 -0.47914788 1.8644863 -0.75420713 0.9529273
Devriendt -0.7598917 -0.6286931 0.028436787 1.0543383 0.8717098 0.73663086 0.26205906 0.8257039 0.024678143 -0.91244125 -0.7891926 0.7486916 -0.85004795 0.5115065 0.596935 -1.4031146 -0.3789467 -0.41317326 -0.40097654 1.6764153 0.5071845 0.30946943 -1.5410944 -0.0013580271 -0.99277365 0.02374501 3.3690572 1.5137503 0.9887866 -2.400541 -0.037932552 0.81850785 -0.298106 0.015953869 -0.09002307 0.1991936 -1.2775555 1.0771656 0.68379545 1.6078801 -0.87922317 0.76213086 -0.11567399 0.11215056 -0.5759357 1.2405546 0.9476903 0.7350132 0.5860994 -0.90799797 -0.65534014 0.70895356 -0.23277237 -0.9626041 0.20063794 1.0764376 0.4591177 1.6989046 1.1508265 -1.8158674 -0.5440329 -0.57146966 -0.24147736 0.739631 -0.81288904 -0.18098281 0.12294441 -0.21873967 0.28574255 0.714802 1.6843883 0.32809827 0.31657967 0.5112041 -0.41351277 1.534372 0.04685475 0.5395605 0.10075556 -0.46480826 -0.085855365 0.63006777 0.36128348 -1.380922 0.9828155 1.331952 0.012847625 -0.3597121 1.4043705 -1.1923708 -1.0999544 -0.16601431 -1.1949912 -0.47486106 0.34410977 -0.005814812 -1.6573792 0.06989409 0.7493035 -0.3591086
les 0.9705254 0.134541 -1.1677446 -0.5100466 -0.5728222 -0.069052 0.18641876 0.39995864 -0.11376232 1.1699866 1.4017609 0.44042864 -0.29306504 -1.0134847 0.41615343 1.0759798 -0.3222924 -0.96777713 0.59004766 0.69182223 0.030926 0.14993663 -0.19836815 -1.3035332 -1.3458334 -0.9185828 0.50033325 0.5077232 1.7769915 -0.1686128 1.0099977 0.8917634 1.5032461 0.52507406 0.21695744 1.717273 2.4514916 -0.35097018 -0.27590704 0.42184475 0.5747403 -1.3816333 -0.29339713 -0.016697342 -0.48185298 0.26605594 -0.124134995 -1.1744941 -0.21198341 -0.05420238 -0.08532002 0.9139942 -0.638204 0.030625569 -0.9959668 1.3910117 -0.101190224 0.25234014 0.33316156 -0.5124406 -0.28860503 -1.147865 -0.32859075 -0.6680072 0.6625123 -0.54230505 0.4814647 1.3273075 -0.45347956 -0.022098552 -1.0329341 -1.4146113 1.3553303 -0.24151225 0.13579194 1.4592689 -0.62325966 -2.739756 -0.57401675 0.9081344 -0.57643676 -0.4871441 0.48689297 0.26308495 -0.93541205 0.22056109 -0.87551826 0.029187184 1.5518421 -1.7107135 -1.0315855 0.3203778 -0.14338352 0.23146148 -0.9186542 1.1609617 0.29283538 0.16195685 -0.122855 -0.39085442
clients -1.4470539 0.6428738 1.1007657 1.2749193 -1.0430111 -1.486215 0.28210494 0.8588419 0.94824135 1.1085904 -1.7327906 0.35633838 0.28010535 -0.7742236 0.58266795 -0.5776585 0.2723065 0.013110626 -1.6097326 0.7074437 0.16522796 0.23364939 0.16145463 0.59807247 -0.17756726 1.5322858 -0.08551862 0.15492211 1.0074049 -0.8630426 -0.4899171 -0.0034948816 -0.923808 -0.89959097 -1.7905014 -0.94038945 -0.14926557 0.37832803 -0.3114309 1.5806819 -0.3064905 -0.9729115 1.465841 1.0500532 2.611294 -0.532603 0.19001727 -1.757946 0.5071222 -0.39512107 0.35184875 1.3341584 1.096299 -1.2783765 -0.38907084 0.34803927 -0.018069008 0.35817626 0.1502007 -0.57857615 0.69572055 1.1217657 1.6337526 -1.579923 0.1448137 1.9416869 0.96668595 -2.3205688 0.9137295 -0.17193945 -0.6505629 -0.80186087 -0.6491876 -0.956542 0.3254428 0.41438246 0.14573674 1.4983442 -1.5644058 0.7810942 -0.3677935 -0.40211543 0.24743532 -1.1157485 0.934748 -0.8860227 -0.07368056 1.7077445 -0.697293 -0.56885266 -0.5740263 1.7692481 -1.3693924 0.5080369 -0.43629217 0.30720878 -0.34051573 0.6685805 1.1897252 0.69617504
ont 0.76189196 0.16611668 -0.7021722 -0.17929055 -0.11273487 0.65780354 -0.15111192 -0.37667206 0.2644179 -1.3892826 -0.46371162 0.46589288 -0.08273282 -0.7702712 -0.44252393 -0.49642453 -0.53487563 -0.99008095 1.381685 1.0829434 -0.5474391 1.8898264 1.5227174 0.259517 -0.3480949 0.18450524 -0.33664727 -0.20773515 -0.50331116 0.7209311 -0.01806809 0.15061773 -0.17331503 -0.5340183 -0.04673111 -0.5969111 0.82910985 1.5122951 0.030448187 1.1954486 -0.74360824 1.5065727 -1.0966884 0.16683578 -0.3474705 0.7520971 1.4638331 0.6545105 0.054855555 -0.16127926 -1.0474538 -0.22598974 0.0030710455 2.0299323 -0.12089818 -0.24043536 0.068547875 0.7974477 0.2207898 -0.28458533 -0.013843033 -0.023530643 1.1834742 0.26604047 0.54501253 -0.0706643 1.6158118 0.8141925 1.1016449 0.14733998 -0.9850157 -0.12487591 -0.54761136 0.5209706 0.3240946 -0.84108555 -1.2085706 0.46995443 -0.4862038 -0.8118735 0.034441236 1.1859324 1.5509597 -0.62556595 -0.11590147 0.6469852 -0.84316784 -0.30149385 0.51622415 0.089408174 -0.76863426 0.54249895 0.96003366 0.06958649 -0.34741357 0.5306826 0.13169862 -0.39241907 0.87288123 -0.84976006
des 0.6339426 0.009209204 0.9696079 0.39731172 0.418971 -1.8307475 0.69907033 -1.1353835 -1.8426476 -0.08615628 -0.38288096 0.32161844 0.4488646 -1.8463728 -0.7011075 0.8257474 0.1546123 0.4157351 0.5362059 -0.11741225 -0.35717303 -1.2661973 1.5946705 -0.56784314 0.85246617 0.08209526 -0.50982493 0.30311322 -0.4870935 -0.506754 -0.17485674 1.7748007 -0.509479 0.99613017 -0.12754682 0.37016273 -0.5211213 -0.3520692 0.36442608 0.1659512 -0.3157136 0.67940336 0.06980364 -0.08027273 0.82477945 -0.85448426 -1.6055231 -0.42354307 0.46345377 -0.6899969 -0.18263775 1.1093495 0.917267 -0.14419438 -0.59967065 0.5354156 0.8456959 -0.32985017 -0.9818862 -0.71685255 -0.79395485 0.6370168 0.7161306 -0.53229773 -0.09285894 1.1771703 -1.2196691 1.1298527 0.085387826 0.61778814 -0.6535902 0.34075367 0.60093063 1.0630105 -1.3077348 -0.54860187 -0.348264 -0.39776605 -0.10152718 -0.04538987 -0.5711124 0.7498376 0.6440881 0.26979023 0.5102485 -0.29921058 1.2122152 -0.34367847 0.42175323 -0.85257 0.6816828 0.25648987 -0.58688647 0.36986122 -0.85610735 0.45233518 0.35371548 0.10989125 -1.2000707 0.9619489
petits -2.8457959 -0.3193595 -0.31322348 -0.6138015 -0.3049491 -0.16160735 -0.5869369 1.0293651 1.7397816 0.9860045 -0.38123983 0.22141223 -0.26053634 -1.3912879 1.1677574 0.15003048 -2.2008772 0.99982435 0.65845495 -0.86778456 0.06123386 -0.019093731 -1.7092524 1.3895475 -0.031114656 1.3508556 -1.3264644 0.84470856 -0.38343692 -0.2187975 0.20299041 0.32127303 -2.1955419 0.8279827 0.8085969 0.06454582 -1.3217267 -1.4630829 -0.7874952 0.83618236 0.7115169 0.89709824 -0.997897 -1.1477387 -1.6233695 0.18900008 0.19610234 -0.76311016 1.3453736 -0.6182236 0.23429035 -1.2621316 -1.0273612 -1.0486027 0.13846858 0.7513106 -1.6778256 -0.4438277 1.0614762 -0.41288957 0.6055162 0.28338 0.5729559 1.1225351 1.4821304 0.15565683 -1.2257096 -0.041666493 0.7872472 -0.5817741 -0.45074365 1.0612234 -1.0149266 -0.02401476 0.044320974 1.2572025 -1.0194145 -1.1944577 -0.47728485 0.16832569 0.812954 -1.1667969 -1.0894691 -0.8436758 -1.8410546 -1.8412672 -1.5727551 0.62206435 0.4331943 -0.2463801 -1.3023076 0.32746288 -0.27048695 -1.0936302 0.23166355 -0.54456556 -0.09822643 0.59151465 0.5664472 -0.35186273
pains -1.6359133 -0.5565538 -0.5279163 -0.7378599 0.055312555 -0.3746838 0.21539345 0.91260546 1.7348065 1.164159 0.48058957 -0.7681182 -0.48009798 -0.30260035 0.47641945 0.8185465 -0.88162607 1.6915159 -1.1024346 0.49995178 0.200724 0.95942175 -0.16099307 1.9321469 -1.0638931 -0.6374182 -1.9094316 -0.31020197 0.33128953 0.32081553 0.60750735 0.03132677 0.13967633 -1.5212619 0.52069765 0.091808595 -0.23756632 0.4129847 -0.40590638 -0.641096 0.03946916 -0.05465179 -0.23723689 -1.309858 -0.046182502 -0.67078257 -0.031576958 0.30524966 -1.2218145 -1.183532 -1.4538829 0.02811156 0.9746052 -0.4329516 -1.1633188 0.19231106 1.0749009 0.20407347 1.3680896 -0.4099681 2.0089166 -0.8927963 -0.5200112 0.66712326 0.17192718 0.21001197 0.062164202 1.9993396 1.3157885 -0.65099907 0.17848709 -0.66249746 1.3775213 -0.16783166 -0.037030447 -0.8315077 -0.12446221 -0.7129885 1.4565111 -0.42082366 0.22065525 -1.1262907 1.7079114 -0.95383596 1.2959138 -1.5334259 -0.15054046 -0.12756404 -0.42701718 -0.85699475 -0.05552731 -0.30277497 0.82631725 0.16755868 -1.5427642 1.6647038 -1.0413923 -0.60862315 -1.8435851 0.6698042
offerts 2.410121 0.50844216 -0.92565995 0.18736966 -0.6290009 0.51515824 0.67481935 -0.5456156 0.78410864 -1.5587119 0.8242841 -1.1106185 -0.45015493 1.084458 1.8414634 -1.2664399 -0.36344054 -1.0336688 0.99936926 -0.6503271 -1.0643901 1.4093162 -2.2537549 0.18900746 0.08384152 1.3710467 -0.29272634 -0.9671775 0.40710667 -0.5781536 -0.4412888 -0.42808878 0.3100776 -0.028665582 0.8285805 -1.43675 -0.97668296 -1.2991761 0.15191238 -0.3789882 0.60896176 -0.6853777 0.44991872 0.18590917 0.039236795 -2.5880396 0.07927234 1.1750752 -0.15565108 -0.4398839 -0.7604708 -1.3594126 -0.8435892 1.1014777 -1.7045596 -0.8776774 0.39960635 1.6136739 -1.4241289 0.9350544 -0.35240746 0.7739736 -0.6795362 -1.0307509 0.07964192 -0.34904286 1.3838308 -0.5563919 1.1412895 -1.0883268 -0.46801642 -0.7036011 -0.26696688 -0.99870205 -1.1088251 -0.8758831 0.6413954 -0.2041237 1.1985856 0.188461 0.7790323 -1.0679699 0.120690085 -1.4843527 -0.41757458 0.9076938 -1.1671416 1.4474849 0.3297833 -0.22993945 -0.38777003 -0.17068681 1.0267015 -0.59473747 -1.4723457 -0.69950616 3.9614465 -1.7076731 -0.5923843 1.1587783
en 0.8039995 -0.11595499 -0.5370137 0.38997158 -1.2625929 -0.27045515 0.34430206 0.23123011 0.04178568 -0.5882175 0.025405103 0.5807153 -0.7986507 -0.87331814 -0.5158369 1.0725677 0.4844053 -1.3525125 0.024519868 0.683177 -0.40339017 0.77047837 0.28472313 0.6145189 -0.016203914 -0.504918 0.41631415 -0.19922888 0.030044647 0.10499699 -0.8520908 0.70814294 0.031018157 -0.47142652 0.55836695 -0.12721202 0.9702372 -0.1155447 -0.111872785 0.28860003 0.3123831 -0.0995186 -1.1235697 -0.7957339 0.08026988 0.37433782 0.4280826 0.24862966 -0.056634717 0.43499094 -0.41617376 1.6909013 0.27651364 -1.2177496 0.26636323 -0.3964165 0.4897415 -0.36170065 -0.57996345 -1.5003759 -0.73178643 0.62134653 -0.11518069 -0.06147398 -0.25898474 0.31372347 0.08529777 1.2047676 0.7322391 -1.3764029 0.71743864 -0.26256272 -0.60297394 -0.117517084 0.98497605 -0.204067 -0.4543545 0.24879214 1.1712488 -0.4226093 0.5622254 -0.65698665 1.3907995 -0.3360841 0.10061578 -0.81406635 0.75580126 0.7828119 -0.013902443 0.8217697 -1.2310337 1.4990299 0.8003432 0.17427059 -0.56728494 0.3070885 -1.0166485 0.9812806 -0.3120159 1.105018
l 0.009058035 -0.7157286 0.15906073 -0.3284962 -0.28259084 0.81502044 -0.6357065 0.16256413 0.105976075 -0.49789405 -0.71670794 -1.0518672 -0.3035993 -1.4184417 -0.39014354 -0.8141285 1.3738031 -1.1008561 0.88925815 -0.18372433 -1.2069491 -0.8801965 0.11646499 -0.8473288 0.48961452 0.72416025 -1.035008 -0.13518992 0.31857988 -0.8355803 0.43426707 -1.7861551 -0.32378295 -0.85661733 0.40447778 0.2919549 0.20017958 0.046680745 -0.034006175 0.6124034 -1.1795279 -0.84500307 1.0673124 1.2253475 0.5319449 0.13529958 -0.91603047 -0.7336829 -0.95947695 1.4314708 0.5825575 0.7953926 -0.18594445 -0.2312521 -0.46716923 0.4648332 -0.16252436 -0.34046322 -0.22387242 -0.5948176 0.74290156 0.9015919 -0.45254084 -0.24055581 0.8390737 0.9241124 0.0077183642 0.09743397 1.027275 0.21210472 0.15614311 -1.042911 0.4321703 0.7272118 0.124028325 0.23490734 0.33890003 0.1559725 -0.2846757 -0.89670527 0.63664836 0.40100124 1.1244656 1.7045659 -0.66590416 0.4992191 -0.9297641 -0.2777601 0.9190806 -0.17473349 -0.02915238 -1.2231833 0.38474035 0.539564 0.43499613 0.5041132 -1.5371156 -0.8123288 0.8627837 -0.79107
il -0.3179638 1.6015244 -0.3835545 0.75498396 -0.25635 -0.7205925 0.2605633 -0.71898836 -0.42952543 0.0006328742 0.13563901 -0.40240094 -0.16614681 -1.5743971 -0.12538984 0.62451816 -0.71238905 1.3143716 0.93091154 0.5273898 -0.73822784 -0.08859915 1.2673552 -1.1159791 0.4914289 0.23257893 -0.6328604 0.8488898 -0.74512476 -1.4425684 -1.9811151 1.8880802 -0.92981935 1.4054604 1.0498899 -0.87616456 0.5368662 0.3093483 1.6990982 0.8176269 1.3463721 -0.43471405 -0.2738083 1.0377923 0.106962755 -0.5561161 0.44201252 -0.9877704 -0.040635683 0.6461769 0.5624625 0.44938612 -0.092913784 -0.72511524 -0.35916954 1.0318838 0.294668 -0.017524326 0.6698017 -0.14430733 -0.42206535 0.5991604 -0.8603291 1.4594221 0.48556364 -0.8230019 0.2003857 0.38694122 1.427771 0.48648247 1.418719 -0.7125353 0.27510837 0.32087076 0.059329025 -1.522673 -0.6540015 0.46993104 -0.79195374 1.0366433 -2.0717387 -1.6812528 0.28442767 -1.5769285 -0.24300888 -0.5804156 -0.4496482 1.2370646 -0.08594309 -0.051084828 0.36031502 2.4075425 0.62209076 -0.18242536 1.1083176 0.6405183 0.73285264 0.502255 0.63275766 -0.59093964
sur 0.75789165 -0.2254647 0.3506268 -1.4818449 -0.7997082 1.3197227 -0.18955614 0.25462604 0.10240256 -1.377822 -1.2029568 -0.5368242 -0.7963717 -0.34655818 0.0039222776 -1.0276618 -1.7845775 0.8595828 -1.111102 -0.17770347 -0.23624258 -0.042492826 0.7509659 0.74551666 0.07414649 0.89654875 0.23262216 0.40403458 0.5070008 0.5233512 0.100321084 -0.44846138 1.4990479 -0.863615 -0.9004808 -0.25442585 1.1583736 -0.7682775 -0.56975347 -0.685501 0.022199772 -0.318232 -0.63709563 0.879638 1.8088485 -0.50684035 0.6388063 0.8409945 -0.986579 -0.60346895 1.2734 -0.13019535 0.72321063 -0.42110193 -0.38758904 0.30888292 -0.5864739 0.19289422 0.43063122 -0.5518697 -0.8541823 -0.6884362 1.5214905 0.6596207 -0.8090291 0.023329707 0.7815187 0.63931555 0.913211 -0.0485848 2.1246474 -0.4524292 0.01752264 -1.259166 1.1140969 -0.08389244 -1.2398348 0.6634089 -0.35661846 -0.24736428 -1.185544 -0.32812843 2.0529003 0.7264731 0.6660886 -0.4292965 -0.8297695 -0.8871019 -0.18498327 -0.22003533 -0.8768311 0.6199407 -1.0619898 0.4282878 1.628291 -1.4520521 0.836422 0.026397357 0.47347426 -1.7456812
miches 0.9996458 1.2857074 -0.23615061 0.30108038 1.4253292 -1.2887539 0.7784144 -0.6292963 1.6002407 -0.16354337 -0.1664706 1.0591724 1.8135788 -1.5503231 0.318428 -0.7659654 0.09158574 0.38048798 -0.3462174 0.27832815 0.5925984 0.32113984 -1.0884845 0.21395797 0.68263173 1.2098422 -2.2181242 0.035117578 1.6922427 0.5577655 2.0265098 -0.15954708 -0.119278364 -1.3682148 -0.06253035 -0.85165465 0.6140415 -0.54747283 0.048171625 -0.42412585 0.98108566 -0.80399096 1.1295402 0.17981386 0.4585486 0.46516618 0.75427544 0.32195035 1.0668243 -0.20911424 -0.15533558 1.0026993 -0.8711392 0.03094562 2.5774972 0.21187583 0.4524553 1.3441031 -0.8825297 -0.49135202 0.053464573 -0.7428585 1.4067124 -0.4191882 -1.984485 -0.69184726 -1.3320326 -1.4423337 1.5071906 0.410874 -0.11763311 0.18733144 0.4053877 -0.5380886 -0.80979997 1.5199798 0.4175487 -0.34525985 -0.42692006 0.09307583 1.7373452 -0.5652794 -0.98944694 -1.254206 -0.4879932 -1.8953542 -0.29460087 -0.8570634 0.9019829 -0.2649676 0.35869595 0.024790227 1.0791717 0.67911303 -0.30057684 -0.52627957 -1.7380859 -1.622035 -1.4817114 -0.3072227
couleurs 1.4224275 -0.37457344 -0.26328227 0.017169172 0.18003915 -0.16609938 -0.8773766 1.1433249 1.2881007 1.2653972 -0.73420286 0.5429744 -0.88853663 0.4007691 0.45658806 1.3350922 -0.1310915 -0.6125444 0.68673396 -1.2682126 -0.42660958 -1.0025325 0.750647 -1.0502481 1.4048684 0.1398686 -0.62825197 0.16555901 -0.35757026 -1.0944206 2.63575 0.24556369 -0.58036745 0.0013833604 1.6545326 -0.5174912 0.20153841 1.4470776 1.0891184 -0.59289515 -0.7300327 -0.4742141 0.07447834 1.3595232 0.45267192 -0.007397537 0.021796186 -1.0722572 0.68977594 -1.0793839 -0.9695712 0.4811823 0.38206694 -0.5501156 -1.0445868 -0.040775046 -0.8165591 -0.8839583 1.885373 -0.024796464 0.2636376 -0.35684103 0.6350589 -0.2586404 -0.27583566 -0.30172265 -0.011713672 0.3255318 0.12064925 -0.6796705 0.7065381 -0.5564701 -0.57302326 0.2911991 0.7275584 -0.8324925 -3.1058385 0.48560533 0.21003672 -0.033871017 -0.0005543559 0.13742052 -0.13834213 -1.637392 0.831082 0.48161146 -0.08913222 -0.16210823 0.3371803 -0.52431935 1.9335946 -0.21526355 -0.15598619 -0.6142851 -1.094378 0.62925 0.272378 1.8075703 -1.4068944 0.41771594
du 0.1845892 -0.20162913 -0.0971215 -2.4515305 1.0777481 0.4890446 -0.9690499 -0.7630821 0.20034175 -0.031560637 -0.29633424 -1.1093768 -0.18547513 0.32024124 0.088078424 0.7787545 0.036300298 0.38386238 -0.39500004 -0.724956 -1.4656959 -0.4928783 -0.49027753 -0.6999619 -0.15310593 0.95897883 0.12163848 0.16521308 0.26077387 -1.054741 -0.9647089 0.5026832 -0.29060972 -1.173466 0.9662836 -0.46702754 0.03747826 0.37434337 -0.62205386 -0.8781502 0.18197587 0.63815016 1.3367106 -0.7898054 0.6404902 0.5447182 1.4330829 0.002405913 0.30726734 0.35540816 0.06444012 1.6424857 -0.09069787 0.17198315 -0.018263144 1.8706168 0.1073703 1.28402 0.26373968 0.18783915 -0.03205365 0.59075636 -0.026286846 0.4119611 -0.29745933 -0.61802614 0.23719656 1.24504 -0.85227823 0.14633486 1.0383404 -0.60012454 0.23992297 0.44155782 0.12943828 -0.3373728 0.010535884 -1.2746398 1.1342808 0.6235876 1.7470573 0.2944954 -0.7485808 -0.106985666 -0.19213772 -0.2634939 -0.6171212 1.4590414 -0.7389443 2.0288205 0.006201836 -0.0019476414 -0.0029538907 -0.5643356 0.28979 0.0067663835 1.2095463 0.6646531 -0.8167135 -1.4756306
monde 1.0418648 1.0240536 -0.17741881 -0.8353121 -0.2951197 -0.5209 0.6200294 0.569993 0.6933232 -0.7353895 -0.515887 1.5783348 0.52822804 2.3825834 0.423239 1.3064336 0.42977566 -0.03133558 -0.71971124 -1.3813568 -0.8779311 -0.75569415 -0.23783231 0.6525067 -0.4928863 0.86641526 -1.6220417 1.092017 -1.247743 -0.34592307 -0.17957862 -0.7293719 -0.34287226 -1.0220143 -0.7596658 1.4632703 -0.01124679 0.5722638 0.5461716 0.37150905 -0.6738317 1.7809135 -0.3521117 0.17227396 -0.43427426 -0.5785654 0.84655154 -0.6276388 -0.94788575 -0.087064385 -0.40540907 0.2705521 -0.8257398 0.28159055 -0.70955634 -0.25809923 -0.386205 -0.70462257 1.2759728 0.100671545 0.24482356 1.7576162 0.18055387 0.878035 0.2714593 -0.021617686 2.043681 -1.4880284 -1.50339 0.19389516 0.20256135 -0.13924904 -0.44399345 -0.15287635 -0.8324486 -0.5850039 -1.6499075 0.80422467 -1.3231161 -0.6362525 -0.13999783 -1.2012938 -0.97405535 0.50389755 -1.9731892 -0.7832743 -1.3916357 -0.7943909 -0.39809343 -1.3452832 1.0692945 0.17642319 0.74387676 1.7421418 -0.9028609 0.124063775 -1.0151086 -0.0556637 1.4869229 0.23718557
Malyk -0.94876057 -0.46296132 0.24827448 -0.06804355 1.8171008 0.0055635003 -1.4018824 1.3664821 -0.16292356 -1.0652333 -0.371134 1.0385486 0.54012084 1.3690581 -1.0046321 1.0451423 -0.03300125 -0.1200536 -0.73437214 1.0856036 8.838969e-05 -1.6392851 0.34255245 0.670579 0.2668572 -0.5946477 0.8019793 1.1325705 -0.4969863 0.4257353 0.894084 -1.1494166 0.09456686 -0.7777668 -0.4213587 -0.38359174 0.75936514 -0.15163289 2.0093503 -1.42752 1.0740833 -0.80089307 0.7779832 -2.0105302 -0.25785014 -0.5641802 -1.7186066 1.5678048 1.2436757 -0.2944041 0.40258718 -0.5031978 0.045363218 2.1358998 -0.38202238 0.13992333 -0.41636473 1.3325524 -0.0032306253 -0.5052217 0.7990731 0.12496392 -1.3315679 0.47895277 -1.1045405 -0.303767 -0.31060007 -0.030810498 0.61683756 0.19389883 1.2119737 -0.15681726 0.2495165 -0.5547244 0.7536266 0.73138255 -0.062033918 -0.91493034 -0.48938987 1.1090394 -0.6845213 -0.34465617 -0.58353245 0.18998307 -0.9481771 0.5139132 -1.2471229 -0.7577418 0.24743868 -0.115921244 -0.14079809 1.1822574 -0.95183486 2.7647066 0.84047467 1.7857262 0.7688627 0.34055328 -0.9644104 -0.866305
on 1.6264747 -0.51931965 -1.6426154 -0.5821712 0.44118956 0.7996939 0.16731596 0.67907035 -1.417955 -0.48772082 -0.117516436 0.6991104 0.49068767 0.015735552 -0.44528368 1.0099586 -0.6189181 1.3486017 0.51082844 1.00073 -0.14092296 0.54464924 -1.3809607 -0.81659055 -1.7217336 -0.6131593 -1.1238018 1.8184148 0.77601856 -0.106518894 0.84206915 -1.194407 1.2137458 1.1068903 0.57724226 0.08679475 -0.69735384 1.250196 0.020324241 1.6887628 1.6012919 0.7179122 -0.5166184 -0.9345026 -0.13568422 0.28997576 0.9295965 -0.2108873 -1.053062 -0.2561928 -0.5306997 1.4863765 -0.21300703 -1.0800377 -0.22743233 0.188227 -1.616425 -0.7256524 -0.41582933 -0.10326924 -0.08578183 -0.1040645 1.4717438 0.5516324 -1.2949308 -0.010870942 0.86587346 -0.09904798 0.9856105 -1.4862086 -0.4677029 0.40409052 -0.7160023 -0.8024575 -0.6424183 -1.7540585 0.5930751 0.34575 0.98538625 1.823983 -1.4224402 0.5176727 0.55745375 -1.1616939 0.14236583 -0.31876191 1.3631724 -0.52825314 -0.33520162 0.386397 0.6811747 1.2249836 1.0282004 -0.50972813 0.03573792 -0.44507512 0.57860386 2.6349096 -0.8991779 -0.3526886
a 0.62328285 1.365566 -0.38563275 -1.0754985 1.707102 0.08919992 2.4148135 0.49446097 0.3840537 0.5045602 0.47132677 0.47594136 -0.8993456 0.6073773 -0.035508234 0.58494633 -1.3954933 -0.32812595 2.0041656 0.9752859 -0.01694408 0.07845146 -0.55063486 -0.0736004 0.4200521 -0.394723 -1.051332 1.0394361 0.19525753 -0.13630031 0.0937719 -0.4019277 1.3620352 0.60142213 0.81614405 -0.66240764 0.07394832 -0.16498557 -1.1852665 2.6767387 -1.0304383 1.3716971 0.92821187 -0.78252757 -0.8624967 -0.98143786 0.17104658 -0.10277335 0.061076984 -0.20839106 -0.5730563 -0.2361934 0.5152731 0.32475486 -0.23506185 0.377907 0.882894 1.1576514 0.7298666 -1.0609324 -0.30509678 -0.1945142 0.5551073 0.040143296 0.4693213 -1.0073546 -0.52011657 0.39101103 1.0769538 0.76187646 -0.675509 -0.4289112 0.6419757 -0.43521154 -0.13887675 -0.29302084 1.4310764 -0.8715045 -1.2770573 -0.32473293 1.720013 -0.88469696 -0.33839354 0.6760641 1.6430724 0.04363968 1.0519514 1.1260413 -0.26057363 -0.469203 0.62722296 1.0944263 1.135072 0.90888566 -0.5993634 -1.1325545 -0.3706592 0.96292746 0.356492 1.2043014
d 0.8352126 1.0578799 1.8071219 0.032253664 -0.9150281 -0.7153182 -0.20711024 0.40730518 0.60224795 0.04111117 0.12846556 0.26382145 0.30308187 -0.8540298 1.1943864 0.19757585 0.5959344 -0.30428272 -1.1822557 0.46068913 0.28259754 1.8466401 0.07013536 1.1030166 0.5471841 -1.0668324 -0.4036738 -0.7717995 -0.5966862 -1.4664613 0.12668234 -0.549528 0.4563648 1.2958012 -0.47972792 0.47685578 1.1133282 1.8776643 0.3994244 -0.011992323 1.2562332 -1.3621541 0.10827477 -0.3149873 -0.95506275 0.9695831 -0.9780773 0.46330455 -1.5411869 -1.6839379 0.7229316 0.51880527 0.26605758 -0.60462093 -0.066300154 0.59285414 1.910776 1.5850108 -0.89164567 0.4259247 0.87110025 0.1860954 0.70981693 1.1798465 -0.30615106 -0.7365123 0.0005063524 0.27743477 -0.32273084 1.1420846 -0.27765426 0.37842515 0.6749397 -0.69734436 -0.74245864 -0.88943446 -1.0934827 -0.91460687 -0.88954246 0.11319132 1.4281166 -0.2499656 -0.9794112 -0.3850568 0.27789742 -0.8930336 1.2536024 -1.425729 -0.18004203 1.4149523 -2.6008432 0.102147646 0.8009668 0.48858407 -0.5229101 0.6743914 -0.33060026 -0.92704886 0.38036677 0.255039
adresse -1.5563555 -0.970914 -1.6596844 -0.504909 -0.5258355 1.4119122 0.5139833 -0.017014481 0.06527773 -2.222751 1.7305285 0.6240616 0.8800675 0.4680859 1.3696913 0.8118435 -0.8306724 1.5014931 0.86561525 -0.8262446 -2.471966 -0.039618764 0.2026258 -0.5624889 1.4515083 -0.16606943 0.54300827 -0.43089768 -1.2979953 -0.8405522 1.3662189 -0.15019368 -0.47893846 0.32338172 -1.0942217 2.7667463 -1.0123554 -1.2767411 -0.5599337 1.0291632 0.09852821 1.4200722 -1.3891124 0.932455 0.084163204 1.739072 -0.38109645 -1.1664274 0.13709292 0.25980312 -0.5822104 -0.84593576 -0.59279746 -1.804941 0.94627374 0.7736705 -1.3449323 -0.032152213 0.6136783 -0.23976639 -0.90059835 0.7799683 -0.7053849 0.5912428 -1.0941896 0.8274913 -1.4010965 -1.3296677 0.028341532 0.92343575 -1.4210418 1.3707316 0.18518578 -0.75597894 0.96313494 0.21696168 -1.3326107 1.5135962 -0.80848634 -0.3021461 -0.8855574 -1.7043173 0.85463583 -1.0903218 -0.22576307 1.120576 -0.284535 0.081592456 2.0663881 0.3093171 -0.32996058 0.050785173 -2.3353155 0.16512677 -1.7668599 0.695444 0.102993146 -0.49772128 -0.19251795 0.5084475
pour -0.7752742 1.0182462 -1.3164876 -0.716368 0.793936 0.5371179 0.49715814 -0.86175185 -0.35948145 0.6294401 -0.18858685 -0.9316116 -0.3054679 -0.2570577 -0.68792313 0.37314525 -0.27341098 0.13847551 -0.26280704 -0.07299137 -0.51259726 1.4429004 -0.15453646 -0.5218302 -0.68939495 -1.9613132 0.523907 -1.4758619 0.9662582 -0.41669363 -0.081550255 -0.65639716 0.48305348 -0.30582163 1.3605981 -0.7304499 -1.3333932 -0.4281828 0.27856493 0.19013025 1.1799276 0.45163056 -1.5712395 -1.225422 -1.1680385 -0.2834816 -0.68443984 1.2584083 0.56846213 -0.5527409 -0.2701128 0.31839085 -0.85558176 1.1031518 0.8411119 1.1069709 1.1073947 1.4282454 -0.43489078 -0.490503 0.38211992 0.42963243 -0.7161822 0.6890171 -0.3632701 0.124523945 0.04743254 0.5715201 -0.5595991 0.2142237 -0.27881458 -0.8699503 0.1290334 -0.8451069 0.15992592 -0.56369513 0.5270578 -1.322304 0.9546452 0.46566916 -1.0126846 -0.3620772 1.0632991 -0.13216096 -0.008632018 0.21493256 0.22802696 0.2799145 -1.1901295 -0.7067854 0.69526434 0.25259382 -0.8160184 0.03766642 0.013104702 1.1385325 1.4027886 0.07776517 0.19708328 -0.20143217
enfourner -0.21184772 -0.8015897 -0.31931096 0.011629759 0.8335724 0.41346648 -1.0982839 -0.44934177 -0.091436535 1.0678501 -1.3956796 -0.088887036 0.22373685 0.7869437 -0.60159284 -1.4439974 -0.4310556 -1.8595281 1.3029822 0.54555935 0.4208333 -0.56796503 -0.49956632 -0.8707145 -0.2665621 1.215424 -0.074269995 0.5086174 -0.006923196 -0.9229092 -0.28832868 0.64675474 -0.57165056 -1.241984 1.2021623 -1.5041286 0.5613874 -1.6959264 1.8243613 -0.8596724 0.9152898 -1.3541505 0.7821879 -1.2756691 0.464237 -0.6468849 -0.7323451 1.5224909 -0.89749765 -2.134146 0.57617295 0.5513005 0.7506599 -0.36567083 -0.27960956 0.13466996 1.0316675 -1.2966812 0.98804474 -0.7870867 -0.9077475 -0.1285163 -9.48701e-05 -0.9145202 0.7115127 1.602654 -0.7194921 -3.1049085 -0.32598722 0.5042543 -1.6593016 0.28221166 1.3205526 -1.7394022 -1.2242553 0.34676644 0.6586413 0.604162 0.87526685 0.7340815 -0.10527862 -1.2613343 0.015617995 1.2624195 0.06488364 -0.13988695 0.0027200058 -0.5553287 0.4068069 0.4012134 -1.3770845 1.2173368 -0.51328677 0.13673864 -1.1787426 -0.9617885 0.2089581 0.59403664 1.626276 -0.46849895
sol 1.676181 -0.75884306 -1.3831383 2.1548345 -0.4053294 0.16796951 2.208994 0.32006824 0.45571733 -1.0210823 0.8943109 -0.7793412 0.37007746 -1.355673 0.1229299 -1.6216832 -0.601966 0.5709016 0.24952525 1.6321299 0.20027462 -1.0730692 -0.004513355 -0.51710176 1.0325608 -0.48738536 -0.5084237 -1.1897994 -1.5248461 -0.29702955 0.8349075 -0.11049172 -2.220315 -2.3539214 0.5960819 -0.42722484 1.1630746 0.25720382 0.47218293 -0.85457987 0.7334774 -0.11699495 0.6162772 -0.24247216 0.17420077 -0.066792704 0.71783024 -0.32708964 1.8394308 0.22831531 0.30436486 -1.8580935 -0.40914115 -0.8843089 0.58168626 -1.6295506 -1.6624935 0.70734155 -1.5157286 1.1959796 -0.23171392 -1.2769507 -0.46927464 -0.34824267 1.8470091 -1.3896443 0.8367183 0.75450945 0.78491336 0.82956684 0.25016993 -0.23389514 -1.3917193 0.8491165 -0.20981434 -0.19253053 -0.2307417 0.67120874 0.602141 0.8400971 1.9500148 0.9130443 1.7917128 0.40598541 2.037148 -0.5734956 -1.1986727 1.4567318 0.8241905 -0.81139994 -0.25731543 0.5244457 -0.4413433 1.7876128 -0.040768594 -0.5403858 0.5786518 -1.4076985 -0.7071355 -0.98835504
pierre -1.3939524 1.2339801 1.0309694 -2.4907575 -1.5770779 -0.04678619 0.408347 1.3662322 0.5206031 -0.528865 -1.2125832 0.75497466 0.68984425 1.2368851 0.6254233 -0.82430667 0.45365408 -0.5384864 1.0433302 -0.17226395 0.5995775 0.6178838 -1.335358 0.10516639 -0.071571454 0.49849024 0.9411768 -0.44223866 -0.8690808 0.30060232 -0.5056025 -0.66643405 -0.89925766 0.4413395 -0.057879288 -1.0702252 1.1742033 -0.058322676 -0.05376421 -0.33658168 -0.4983436 1.0358796 0.23206557 1.3678983 0.6617132 0.99871033 -0.38903332 0.89654106 1.2516916 0.053916894 0.54942864 0.73898923 -1.0461473 -0.25069642 0.07590856 -0.2615309 -0.5141904 2.3161962 1.7318685 0.32134816 -0.7568331 0.6182946 0.82629585 -0.7891253 0.5324937 0.126361 0.035398822 0.77000976 -1.0762546 0.33003852 -0.9386588 0.008350009 -1.1922551 0.5986694 0.19836865 -0.054977957 -0.07484992 -0.10441539 0.30875438 -0.36388785 0.29785597 -1.2070843 0.65160584 -0.23656383 0.1275874 -1.6314056 -0.5751322 0.8661137 1.1392586 0.1395003 1.0090022 1.0853947 0.7974748 0.0715819 0.21441817 -0.108362235 0.86584795 -0.0010016483 0.44322264 1.039144
un 0.896557 0.8551345 -0.2458833 0.540344 -0.969594 0.17826504 -0.6815276 0.30495012 1.0744203 -1.2592994 -1.0864944 -0.38358566 0.5654516 0.61264545 -1.2774494 0.7182069 -0.4565846 -0.121605195 -2.1137226 0.47661033 1.2031939 -0.71477544 -0.34062764 -0.5335037 1.4851631 0.27066335 -0.07280823 -0.24745628 0.33047795 -0.62752324 -1.0128368 0.025502708 -0.39883932 0.025497759 -0.12881677 -1.0739692 -0.4645897 -1.2139807 0.5846325 0.8228571 -1.114988 -0.38649517 0.45096922 0.011787686 -1.3965273 -0.9180534 0.54488015 1.1996658 -0.017253518 0.3719166 0.76966095 -0.86471623 -1.5906483 0.6631594 0.1233469 -0.4438672 -0.9400739 0.12524535 -0.720097 0.33411586 -0.34757861 1.0341067 -0.12918572 -1.1881777 0.30983973 0.8417262 1.2986257 0.92718023 -0.22301199 -1.0325792 -1.0798162 -0.8925708 0.71657103 1.591975 0.14346784 0.5083566 0.027461816 -0.08670512 -1.006609 -1.1405373 1.6068581 -0.12159147 0.25064597 1.7686903 0.6818585 1.4053632 -0.15697433 1.486624 -1.3520489 -0.12655401 0.19954827 0.87456036 0.5456192 0.46307006 1.2424736 -0.3720365 0.2766729 0.57031494 1.209253 0.53841746
four 0.6466491 -0.3583787 -1.3803054 1.3969172 0.4765925 -0.01857643 -1.3475099 -0.5511778 0.15698022 -0.4622149 -1.4380181 -0.9615001 -1.6525384 -0.22164942 0.12089427 0.92369825 -0.9371659 -0.23868093 -1.59121 0.9228505 -0.2141078 0.18907996 0.123102985 -0.82912475 0.46284327 -0.70817506 0.4684242 -0.67264247 0.36824197 -0.27655303 -0.47885624 0.57789856 1.6502141 0.7077672 0.078131884 -0.66419286 0.6449338 -1.0026927 0.90300906 0.29128253 -0.66887945 0.0756786 -0.49740106 -0.51880497 -0.004095619 -0.22855291 -0.9489598 0.18968245 -0.5620021 0.8062709 -0.7405823 0.21912226 0.81835246 0.56371766 0.9086241 0.7469329 1.7358521 -0.3631586 -1.7970926 -0.1658026 -0.87594277 2.0606828 0.36402816 -1.4647735 -0.65675956 0.93084913 0.07893249 0.6414795 -0.81527555 2.2515993 0.6942021 0.33957422 0.92263913 -1.108512 -0.35400808 0.16879359 -0.075967856 0.06763161 -0.4031804 -0.66511214 0.4523654 1.0662105 -1.3670471 0.010091791 0.042658694 0.037334166 0.08634958 1.2559402 -0.6084018 -0.06253501 -0.17573959 -0.8452182 -0.024522819 0.9424968 0.81746763 -1.4525874 -0.2315004 -0.5142615 0.36006618 0.35021576
traditionnel 1.3159353 -2.5027852 -0.034624226 1.5749065 1.6630635 -1.3074046 -0.58358765 -0.5846119 -0.6659065 0.59625196 2.534006 0.08118336 0.044089556 0.832951 0.07540743 -1.1147903 0.77696997 0.24863525 -1.7246125 -1.9275802 1.2713817 1.1298567 -0.57618856 -1.5526816 1.4042748 -0.079402514 -0.43666494 -0.47799692 1.5147123 0.47113016 -1.4748433 0.8871806 -0.25165206 1.0594835 -2.2033505 -0.7751977 1.3525323 -0.6452811 -1.3386068 1.7005355 -0.3978357 0.48755872 -1.7859359 1.9027462 -0.78148985 0.92990476 -0.26279795 0.7342715 -0.3336725 -0.63601196 -0.44409424 -0.5758771 0.14310814 -0.5514527 -0.4081886 -1.1596563 -0.31492344 -1.9537628 0.76504475 -0.74065214 -0.14363433 -2.1229277 0.15231445 -0.38839296 -0.6521486 0.83513975 -0.20072222 -0.14427677 0.39975765 -0.47796234 -1.1536106 -0.9782566 0.84753203 0.25111744 1.9329053 0.8119328 0.81808174 -1.630482 -0.379849 -0.7566951 -0.053230103 0.43931657 -0.4074873 -0.8521595 0.5327164 -0.26966134 -0.11528647 0.1916943 0.1291279 0.98291963 -0.053395975 1.2698879 -1.7092912 3.0968482 0.080260724 -0.09652577 0.32438868 1.1430502 0.08304376 -0.06094244
deux 0.6123837 1.1187991 1.6052433 0.4483592 0.14267889 -1.1512381 0.15949002 0.7035616 -0.6503553 0.4148073 -0.9648045 0.25527057 -1.0393646 -1.120554 0.4788272 -0.53096855 0.9709022 -0.6586914 -1.3759705 -1.3302283 0.7151455 1.8319163 -1.2798846 -0.6764229 0.18426743 1.553915 0.07384692 1.2906361 0.11487097 0.05373036 0.5976499 0.3057812 -0.18385752 1.3424835 0.17115948 -0.13018796 0.6297245 0.6172661 -1.6402698 0.4481987 0.82794386 -0.7627949 -2.0116034 1.0801716 0.17093141 2.0200682 0.9910005 -1.1693091 -1.161649 0.42031324 0.3207146 -1.458653 -1.0264394 -0.05011239 0.706503 -0.509286 -0.59839904 -1.1765591 0.22444417 0.31672898 0.7479671 -0.16316545 -0.54159635 0.70793015 -0.9340424 0.809339 -1.4083852 -0.26775452 -0.145042 0.23078561 0.27500278 -0.66544455 -1.353819 -0.44501758 0.92619884 1.1960865 -0.4452385 -0.46663475 -0.64993453 0.7279602 0.4562438 -2.0644517 -0.74439186 0.3304816 0.9817744 0.4802475 -1.1298655 0.03990854 1.3420439 -0.087967426 0.057513464 -1.0221304 -0.19842269 -0.13074157 -1.2583193 1.6177331 -0.7098586 0.15291679 0.9809328 -0.33937305
mesurant -1.1300404 -0.7271131 0.6678579 0.78716373 -1.6645278 1.369046 -0.20640631 -1.0841707 0.9706978 -1.0211622 1.1796242 -0.84318644 -1.2013613 -0.41306672 0.9681607 -1.5516942 0.62116325 1.251929 0.110986546 0.538589 -0.7033991 -0.17390482 -1.3712593 0.090061985 2.2598114 1.2642988 1.0035988 0.22954659 -1.4834399 -0.35357744 -0.4889815 -0.24167913 0.17554945 0.5453799 1.7004946 0.5130899 -0.030651249 -0.5638756 0.5933279 -0.33905226 1.1667001 -0.4507298 0.70790607 0.48796004 -0.07029736 -0.8757769 -0.32432824 -1.7646047 0.48029003 -0.42203066 1.0276517 0.1700346 -0.49601707 -1.0148606 0.5436802 0.42829075 -0.11225028 0.22652674 -1.6855934 1.2771634 0.8616188 -0.35514218 -1.4268568 1.9007585 0.65266466 2.8210745 -0.3672495 0.0955891 0.093228646 0.22074278 0.2901451 -0.5881195 -0.46747145 0.4431447 0.17488132 -1.181619 2.2717316 -0.21750623 -0.40202597 1.1643205 0.7591286 0.70677775 -1.6877065 -0.8288639 -0.8850501 -0.50024825 -0.6953478 -1.1170236 -0.2550025 -0.6258863 -0.6874879 -1.370089 1.5508404 -1.0286477 1.7315196 0.4807736 1.4177679 -0.17050415 -1.1172582 -0.14303716
Dame 0.5010108 0.49643773 -0.7743562 0.1300631 1.0725675 2.197999 0.98679113 0.14727437 0.004850083 1.2796912 -0.15521565 0.7841661 -0.18234412 1.9144372 -0.49879992 -0.30172828 -0.60903305 -1.9672135 1.0190089 -1.2908772 0.11712402 -0.3774912 -0.6011574 1.1456542 -0.99086124 0.68389696 1.6511835 -1.7536794 0.99214816 0.9006205 -0.22779597 0.56564957 -0.47869244 -1.2260804 0.029791478 1.4698526 -1.4886869 -0.44649377 -0.9932396 -0.29049417 0.15833007 0.94545734 0.9214457 0.82475233 0.42846248 0.29395655 -1.125924 -1.050136 0.2736647 -1.0219408 0.7937679 1.0220916 -0.38224137 0.4319658 -0.4181251 0.8245341 -1.6775734 0.3336599 -0.1428506 0.5585028 0.3526906 -0.7221443 -0.25102544 -1.2808981 -0.5815878 0.2680905 -0.5834892 1.1455147 -0.36083952 1.0256237 0.02964451 0.3169217 -1.5644531 -0.646256 -0.57724357 0.21307668 -0.8853089 1.499369 -0.071330994 -0.3023809 -0.4647906 -0.63179654 -1.1853139 0.5517857 -0.2321774 1.7328986 1.4077811 0.50997806 0.71134216 -0.8874925 1.0547329 0.08566589 1.5830777 1.0390233 1.146683 1.5433278 0.1999993 -2.338549 -1.5875903 -1.2242368
cache -1.2736226 0.2994433 -1.5609592 -1.6076397 0.09644774 -0.36007643 0.99984145 0.5051932 -0.6871856 -0.16482845 -1.4156575 0.89072895 -0.18961307 0.009114007 -0.5510629 0.49368143 0.26294407 0.4951126 -0.5616711 -0.9425076 1.0215254 -1.0868093 -0.63207334 0.08202331 1.3954372 1.0118814 -0.7895339 0.3887307 -0.84909636 1.4870365 0.7126876 -0.057806082 -0.011604781 1.7416116 -0.9919307 -2.183177 -0.51046276 0.54240716 0.19425432 1.1461049 1.7958211 0.19992127 1.2076676 0.5946619 0.48174998 -1.1911064 0.45879504 -0.69573754 1.7183394 -0.78091305 -0.12474463 -0.34455913 0.82344437 0.23627205 -0.49547318 0.40618476 1.1221237 0.8893275 0.3414856 -0.7648797 -1.1265149 0.3661826 -0.0077010444 -0.8748752 -0.09125561 -1.3444568 0.21796389 0.8108929 0.04961541 -0.52679926 -0.47230777 -1.2906628 -0.36311972 -0.7694881 0.4661332 0.031971373 1.4288789 0.93953127 -0.7389188 -0.4166209 -0.36634493 -1.248644 2.0700884 -0.27239406 0.70628345 1.9459467 1.0566117 -0.94271475 -0.534602 -0.18504164 0.9619012 0.7674966 -0.28649 -0.07850145 -1.8642749 1.6851699 0.054430984 -0.7198614 -0.0054535256 -0.40090695
pas -0.955605 0.46014416 0.24683735 -1.0298665 0.16456968 1.3532659 1.2561342 2.1549954 0.3344449 1.4901497 0.23669426 1.2398447 1.0828413 -0.57586133 0.17601563 -0.3664705 -0.34503606 -0.40734348 0.070834495 -0.52310395 0.4869103 0.27947778 -1.0393975 -0.98759484 0.7081874 -0.639128 -0.08381845 -0.93365395 -1.4541712 0.84382975 0.5451711 0.7424906 0.31967857 0.07178513 -1.3052685 0.7487627 -1.7035187 2.0292532 -0.30951506 0.13891357 -1.5633655 0.06237287 0.8732918 1.9897964 -0.7945436 0.29515597 0.03694022 -0.10430234 0.23034072 0.1782039 -0.4300984 0.4372751 1.7319891 0.022484364 -0.08152721 1.6190382 0.25224847 -1.2192297 0.47069144 1.0815147 0.45144686 0.40813944 0.3868563 -0.39461744 -1.2598778 -0.19781971 -1.1862093 -1.5010779 0.6956885 -1.0608764 -0.72095543 0.4569033 0.24819022 -0.4993124 -0.32777035 0.88658106 -1.6092277 -0.56553197 -0.68199646 0.167812 -0.31769907 1.6133363 0.20445673 0.5426607 0.47792986 -0.28407532 1.4507557 -0.85639715 -0.34483436 -2.849681 0.12977365 -0.081887886 2.9039311 0.39545056 -0.6272766 -0.24249177 -0.9464667 -0.8870676 -0.3348352 0.9706873
sa 1.3413217 1.6053058 1.3466403 -0.865135 -1.5367818 2.609637 1.6303948 0.48650706 0.6933018 0.9648506 0.49276266 -0.16509813 1.219255 -0.18271919 0.33052602 -0.31605542 -0.428217 -0.5347625 -0.43216714 1.0006487 -0.48577577 0.9755465 -0.44763798 -0.47433347 -0.56163245 -1.2362016 -1.5193231 -1.3650305 0.31126732 -0.0773674 -0.28636393 -0.20980929 0.47763097 1.3047328 0.4857411 -1.2095405 -0.19409199 -0.6038772 0.9543241 -1.1828091 -0.43796507 -0.7644344 0.29959586 0.47836268 0.25963652 1.1777343 -0.041011736 -0.04567836 0.2532828 0.16744521 -0.47634453 0.90481997 1.2770009 -0.065668404 0.026264703 1.5706434 0.77906984 -0.52401423 -1.0899101 0.45307747 -0.593153 -1.44245 0.52192855 1.113817 -0.38350272 -0.13823855 -0.04980486 -0.7869224 -0.23907083 -1.9315325 -0.9645843 -0.2668051 0.55027366 0.56259495 2.4530451 -0.44397736 0.118211694 0.6957262 1.7540622 -0.27050853 0.81554717 -0.1867474 0.27503526 0.683665 1.0091802 -0.02595802 -1.7131112 -0.37987623 -0.8080063 0.42488363 -1.7291555 1.4668823 0.14087044 0.091871485 -0.7787319 0.91286945 0.085810386 0.9484957 -0.22164166 -0.90066326
surprise -0.73615295 -0.009867586 -1.1898303 -0.024278251 0.7642709 -0.13929498 -1.6046319 0.20925926 -0.62577325 0.6253391 0.3820811 -1.0417877 -1.2403872 1.3041259 0.10319698 0.4803198 -0.36929056 0.74935573 -0.95225453 0.9048452 0.75917536 -0.2973658 -1.0598966 -0.07562973 1.1860195 2.4734366 0.21744812 0.7479883 0.7788908 1.9397565 -0.9444766 -0.47285825 0.35023215 -0.28281596 -0.37908024 0.74810654 -0.73958236 -1.7963575 -1.8671366 -2.1235528 -0.42808497 1.3780383 1.1393856 -0.028080232 0.36272722 0.4092487 0.18336801 0.5998297 -0.115990154 -0.61680406 -1.2877163 0.24960451 0.36770484 -0.28283763 0.48437595 0.16295601 2.631891 0.39704376 0.2652805 1.8963944 0.66568744 1.1419034 -0.17262928 1.6919571 -0.7365032 0.56653005 2.1221435 2.400932 0.09342402 -2.5007641 -0.3599143 -0.26875794 1.9082526 0.65190816 0.8734963 -0.9756041 1.1864555 -0.0789862 -1.6412815 1.3746371 1.1335156 1.3107492 -0.022865366 -0.36800754 0.7553703 -0.967504 1.7873955 0.6256827 0.9586291 -0.97370297 1.9616275 -0.5100763 -2.303286 1.086623 -0.38706166 0.91136104 0.6553674 -0.20033146 -0.34638342 0.12296593
car 0.0804743 -1.3272525 -0.8225845 0.34436956 -0.046032462 1.3306923 1.1104023 -1.2314743 -0.18554653 -0.012403452 0.35012007 -0.3076942 1.4309567 1.462926 0.47932202 -0.4736774 2.3917763 -0.57757604 0.3212113 1.1933582 0.43948352 -0.3336565 -0.2057171 -0.23827858 -0.8562143 -0.3307084 -0.56748 -0.73616827 0.24516624 0.19056177 1.0937817 -1.3255286 1.0016627 -0.29001755 -0.45136917 0.81136054 -0.8162649 0.44036165 -0.52065164 -1.3550438 0.6447315 -0.9087571 0.26418304 1.0502343 -1.3365868 -0.18828386 0.6881749 1.0492568 -0.22232454 -0.07783075 -0.40046635 0.47822458 -0.42624813 -0.53794545 -0.294735 -0.60130984 0.18740511 -1.2194809 -1.123465 -0.6313628 -0.9404198 0.39222816 0.24750774 1.3018892 1.5832598 -0.6752519 0.4598069 -1.4305264 1.4800777 -2.2578592 1.3866053 -0.8212785 1.9608445 0.6430375 0.20780124 1.3920316 2.1702 -0.9267083 -0.5336582 0.1289967 -1.045331 1.1044244 -0.6719462 -0.7185843 0.5424262 1.4022523 0.6412893 -1.988167 -0.24059488 -0.7330837 1.4460084 -0.5271298 1.4694912 -0.42712474 0.53047925 1.632425 0.9108046 -0.0695288 -0.16980678 -0.833646
dans -0.22087862 0.5449157 1.256755 0.1255034 -0.25675026 -1.7728672 0.85808975 -1.3380798 0.49242935 0.43824977 0.5678943 0.5077497 -0.24397342 1.3457927 0.79743165 -0.52426904 -0.77522635 0.8355937 -0.7040496 -0.49499074 0.1020993 -2.174522 0.82081664 -0.46568477 -0.2759834 0.11154817 -0.6795443 2.550539 -0.3801671 0.2061134 0.14395148 -0.8110376 -1.1864893 -0.32246882 0.18153654 2.94334 -1.1228352 0.31055468 0.30031478 -0.9701745 0.29838493 0.108639106 -0.3790972 -0.14794225 -0.7594329 0.9837713 0.9036951 0.72220665 0.23675594 0.3769956 -0.5460326 1.0855689 0.21294712 0.6189691 0.15249772 -0.5006638 -1.5187142 -1.0914785 -1.126061 1.5007851 -0.34497374 -0.35716504 -0.20121627 -0.5435975 0.7666792 0.65114576 0.1680687 0.63904953 -0.7559585 -0.45369288 -0.24663657 0.59555906 -0.72738683 1.2110465 -0.89551884 -1.2439508 -0.6861851 -0.13827981 -0.6513733 0.8058332 -0.5167828 1.0993421 -0.27713716 -2.003825 -0.27811638 -1.0924429 -0.748696 -1.13137 0.61837053 0.5559716 0.47128305 0.23885852 -0.18701847 -0.40565014 0.07781218 -0.20764229 -0.48416483 -0.9126275 0.7394192 0.37647587
chacune 0.4552246 -0.31373423 -1.6840267 -0.40590712 0.5040397 0.8291098 1.6617211 0.13304123 0.09336213 0.70767343 -1.1724813 -0.5683833 -0.63705033 0.22491387 -0.8774373 0.74821174 2.4190025 -0.8008677 0.12624614 -1.3387606 1.548735 -0.76796967 -0.18549518 -1.3070014 -0.004327466 -1.7711657 1.0928777 0.07301527 0.3988487 -1.1095754 -1.084403 0.91531724 -0.20486586 0.3338399 0.833133 -1.6670119 -0.6704381 0.560158 -0.027981699 -1.471074 -0.7508608 1.6979507 0.515486 1.9766473 0.47202113 1.1879011 -2.5113862 -0.20239821 -2.040116 -0.7612606 0.21774423 -0.0397364 -1.1408533 0.018469177 -0.94315505 -0.7859371 -1.2779095 -0.21848586 0.57170963 -0.8680225 -0.542557 -0.51610655 -0.059519485 1.633826 1.6096224 -0.71739656 0.63521093 -0.0852413 -0.45841733 0.09439933 -1.5795738 0.8639353 1.8553215 2.0459704 0.43347606 -0.77305055 -0.09451887 -0.3011744 0.63872594 -1.4732802 -0.28557208 -0.05926333 0.27159053 -0.27439553 0.15193045 -0.03928635 0.03752043 -1.2453345 0.39384434 -0.3421779 -1.1704533 -1.031977 -1.5808204 0.6102103 1.182582 -0.0031059303 -0.3794701 0.3821372 -0.123046905 1.8980113
vitrines 0.78992814 -0.81091803 0.100172155 0.21610747 1.2693247 1.0001795 -0.23376124 -0.82545066 0.9246057 -1.6514457 -0.89467114 0.054424055 1.2213608 -0.44429603 -0.56585205 0.16187425 -1.3375163 0.29289657 -1.234044 0.43800166 -0.2686034 1.5562606 -0.4482692 1.0322955 -0.39985055 0.02755363 -1.3752996 2.4933171 1.393034 -0.47065932 -1.9709436 1.8979068 2.7020154 0.07495058 -0.8626124 0.9433844 0.5920196 -0.101628765 -0.21007839 -0.037325427 0.05623269 1.4248877 1.4127507 1.2897409 -0.97170246 -1.8753905 0.23108079 -1.647023 0.15419063 -2.7378895 1.3582469 -0.28074744 -0.52899575 0.17935032 1.0143734 1.4040669 -0.09430366 0.51070994 1.9569577 -1.7716953 -0.0547914 0.88257134 -1.1169902 -1.4231304 -1.0368028 0.00787596 0.007851806 -0.30361202 -0.055670876 0.51101696 0.9938098 -0.17830753 1.7879214 -0.87527263 1.4456367 0.84742045 1.5465531 -0.18190613 0.8488593 -1.0927428 0.15799968 -0.6352729 -1.0630493 0.9412246 -0.303603 -0.47616783 1.3675953 -0.28593066 -0.4417933 -1.4612482 0.38598612 0.35434344 0.33805993 0.17382468 0.78585744 -0.16730702 1.6171613 1.1811345 -1.554338 -0.2603468
rue 0.85318446 0.4887877 0.20828064 -0.15621541 -0.2985997 -0.7615293 1.0757805 0.5745012 -0.19108412 -0.37896687 -0.37362975 0.2803311 0.024103494 -1.7933811 -1.448116 -1.1406888 -0.5067879 -0.9157955 0.61244875 0.16984035 0.7366192 -0.36257997 -1.3245525 0.040333334 0.12375136 -0.20776738 -0.2600776 0.2756353 0.006136295 -0.9692227 -0.9838851 -0.07630044 -0.79431975 -0.56833774 -0.3240911 0.31354678 0.73184276 -0.48982888 0.93393546 -0.5700312 1.7357241 0.59462106 0.42150518 -0.9688357 0.3303145 -0.19607744 0.850198 -0.3402292 0.588485 0.14765587 -0.6861734 -1.0862725 0.6255044 1.0632166 -0.6843395 0.80643135 -1.3162342 0.4196179 -0.7252914 -1.4407969 -0.7187613 0.49192515 0.3524196 -0.6881534 -2.3669236 -0.035299674 0.50529873 -0.995208 -2.0777166 -0.3490772 0.49560496 -1.0313781 1.3756535 -0.2329165 1.0211449 -0.0727935 -0.68644524 -0.4784677 -2.063122 0.6866707 -1.2189817 0.6896578 -0.7793821 -0.43248817 -0.07742924 -0.116778605 -0.6283476 -1.3187485 0.7861513 0.5781117 -0.94308674 0.14439684 -0.023067458 -0.43564793 0.022853853 0.9738961 0.7445607 -1.4041418 0.28262895 -0.8175169
Sarrail -0.7665211 1.3609468 0.6486221 1.4532652 -1.1520929 0.31469882 0.024761887 -1.1714367 0.990572 -0.52252865 0.07877397 0.36538345 -0.3482113 0.1821717 1.7967644 -0.71958536 1.8614216 0.2663732 -1.1792966 0.26086652 1.8277752 -0.9850173 0.08698359 2.0537546 -1.8477076 -0.85947686 -0.93728834 1.2955314 1.688113 -0.33533278 0.30248308 -1.6121776 -1.14605 1.127053 1.6738816 0.6121261 1.1921992 -2.375561 1.8220229 -0.98083854 0.79063106 0.7734023 0.1630294 -1.0958506 -1.0272748 -0.41286218 -1.0971373 -1.2369363 0.5080641 -0.261543 -2.792123 -0.90211654 0.20128612 0.053364858 -0.5543265 1.8551337 -1.8503587 -0.9057083 -0.41312146 -0.072713576 1.1027251 1.3120538 0.25956637 -0.44580775 -1.6615057 0.8017481 0.32116947 -0.60130864 -0.12150616 0.54608387 -1.1385043 -1.5623078 0.99087507 -0.090575576 1.5187813 -0.3943327 0.6526817 -0.19070719 0.76547456 0.19057216 -0.50928664 0.15499052 -0.37015802 0.3659897 -1.7312957 0.052211203 -0.07867789 0.22822295 0.062551826 -1.9116566 -0.60774744 -0.29408097 1.0667336 1.5572652 0.8972742 -1.1787233 -0.5783035 1.0091981 -0.7882681 1.6770744
ou -0.16951144 0.8008017 -0.8416131 -0.28841144 -0.030781856 0.61436343 -0.8010903 -0.20793578 -1.1581488 -1.1045208 -0.10089561 1.0183538 1.4144648 0.34761718 0.3765617 0.91940916 -1.0789853 -0.5806206 0.8112418 0.123158075 0.8115397 -0.992819 -1.1992854 -1.2838929 0.65569043 -0.584182 0.22307725 0.101773754 0.6614983 -1.299073 -0.24814656 1.0797914 -1.7319236 -0.8476932 -1.2581444 1.1656691 0.058615748 -0.9675027 0.6051231 -0.9671875 -0.9203697 -0.06844975 0.36190578 0.13875319 0.3745301 0.45013013 -0.9947434 -0.19692354 0.9529768 -0.68781966 0.13766152 1.5472295 0.9838411 -0.16390574 -0.00029162655 -1.0329186 -0.47018197 -0.5689892 0.12135884 -0.1312662 -1.029381 -0.65781254 -1.0511159 0.17417349 -0.27021337 0.09499392 0.22644201 -0.7388862 0.4825364 -0.9569656 0.5185893 0.43880394 -1.7240727 0.18259001 0.8557973 0.4947756 1.1391395 1.2493628 0.031370692 -0.5870641 0.37955853 -0.9501954 -0.07182694 0.017379671 -1.1871248 0.10520727 1.6918203 -0.28809294 1.2656326 -0.092537604 0.5812615 -0.36376897 1.4345295 -0.24105763 -0.34202296 0.5273777 0.84164387 1.1212485 0.17398776 0.88246775
De -0.71396786 1.2164999 -0.9751964 0.14426091 -0.6873463 0.07886294 -0.4933442 -1.0311191 -1.1751717 -0.44086817 1.0329189 -0.7062385 -1.1638476 -0.106263965 -1.9975564 -0.15246885 -0.9467103 -1.506956 -0.8259139 0.07250053 0.063062124 1.7368504 0.13714957 -0.41485718 -2.827333 2.1539357 1.7050561 0.37817907 -0.7638746 0.24405263 -1.1214035 0.38242123 0.055462282 -0.55386096 -0.4983984 -1.5939183 -2.3947852 -1.3169447 0.026263475 1.0862478 -0.734748 0.48074105 1.0486491 0.44834587 -0.01716271 -0.80888516 -1.1876322 0.9237432 -0.3440222 0.24537982 -0.3035422 -0.034572653 0.123207696 -0.5772514 -1.4282311 0.32106224 0.5076114 0.46190682 1.8244333 -1.4462085 -0.7723545 -0.053976264 0.37690693 0.24828269 0.6480611 -0.215431 2.6164792 -0.017382756 0.34529907 -0.30505094 -0.21210578 0.4255386 0.585056 -1.1609889 -1.9049547 -0.5652188 0.3349042 0.63650566 1.031017 2.0204353 0.0008686221 0.20177856 1.3956993 0.47123483 0.094742544 1.414919 -0.70690835 -1.02321 -0.8238886 -0.86110234 -0.64354455 1.3946807 0.18028997 1.7036077 -0.07913873 -0.13681662 -0.10599611 -0.98602116 -0.7159611 -0.60608655
Gaulle 0.5437115 -0.54192394 0.31924608 -0.22623286 -0.21628481 -0.64460176 -1.579624 -0.8512115 0.42476138 0.7245314 1.4899561 -0.26739445 -0.0207562 0.9114818 -0.92741543 0.1945086 -0.45560375 -0.62064266 0.32348332 0.858344 0.78808653 -0.27374396 1.5336318 1.3921032 0.6238524 -0.09718221 0.937021 -0.4765685 0.5730103 0.9465124 1.5466893 -0.87877417 -2.6908445 -1.4476609 -1.0237256 0.9620009 -0.034595843 -1.4787794 0.41213924 -1.9248155 -0.08422412 1.866201 -0.5784843 -1.4710252 -1.1216501 0.030448582 0.20560557 -0.53046674 -0.7502358 -1.0490066 0.6413237 -0.4394826 0.4094674 0.82906705 -1.7947676 0.8142308 -1.7576947 -0.24522014 -0.62312615 1.7487891 0.12499109 -0.14906079 0.38638324 0.40664864 0.39618 0.6495977 -1.2643704 -1.57716 1.0949013 0.07242188 -0.8559504 0.5672967 0.8498801 0.4930602 -0.6943562 1.1483115 0.0034284124 -1.2234367 0.2522312 1.5787734 -0.53625876 -0.4390854 -1.1105766 1.1192362 0.52607113 -1.105479 -0.75338656 0.13925329 0.2553431 -0.99486494 0.28303775 1.3180635 -0.96173006 -1.8933058 0.79544073 -1.4567116 -0.7127175 0.017335527 -0.101014845 1.673924
cette -0.6915719 -1.4207255 -0.37254146 1.108552 1.6054763 -1.8238807 -0.75667286 -0.13586923 0.4192183 -0.68091697 0.9509784 0.4934168 0.9953669 -0.022359146 0.18631701 0.4275402 1.0400015 0.2531623 0.33404556 0.7659845 -0.37967345 -0.77464586 -1.1642597 -0.95666397 -0.6637623 -0.13321245 -0.4666194 1.4185101 -0.804316 0.49098897 -0.7933341 -0.040080402 0.7577034 1.2595168 -1.2510743 1.1112267 0.11853665 -0.02985352 -0.9352871 -0.35968667 0.10895952 0.081956826 -0.064167 -0.8389596 -1.8665552 -0.9447115 -0.17237316 0.03082979 0.79399526 -1.0655334 -0.23796995 0.43521336 0.095248856 -0.16380635 -0.8123717 0.33827272 0.084465586 0.19329429 -0.6201678 0.64419717 -1.2339344 -2.0940287 1.0000664 1.6961366 0.70874995 0.2726559 0.34061357 -0.007976541 -0.07422781 -1.8135636 1.305904 -1.5198485 0.14860359 -0.6384606 -1.4167988 0.4985072 -1.0261018 0.09212142 -0.9429088 -0.39777339 -0.838968 -0.047655754 0.32743335 0.046472926 0.11109237 -0.16984569 0.4058197 0.6622294 1.074505 -0.05916851 1.6617118 -0.8319755 0.7508843 0.5704537 0.20835502 -2.0649698 0.6790945 -0.27097964 -0.3914972 -1.9583776
taille -0.003490019 -0.4486308 -1.4605064 1.4054818 -0.12350812 0.35856122 -0.4265792 1.4683944 0.49230066 0.07826149 0.3683796 -0.5656657 0.6473729 0.79964846 0.63787 -0.42105645 0.9719409 -0.45470846 -2.4408805 1.3732259 -1.5959404 -1.2346635 0.70505714 1.1465777 -0.5287052 0.3309633 1.2159299 0.1326754 0.18716456 -0.61680955 0.8181124 0.24749392 -0.16359238 -2.710626 0.5400726 -0.18890247 -0.024725426 -0.013553289 2.491569 -0.90443623 -1.3626944 -1.5561703 1.7934489 0.2034906 0.26218274 0.17150414 -0.67977655 0.879761 -2.776491 0.1453865 0.17935401 0.9561893 -0.45850307 1.0805632 0.35970554 0.7206092 0.03839744 -0.40911597 0.026084084 1.3534746 -0.039790433 0.001986714 -0.8582842 1.1078376 -1.1301175 -0.172748 -0.10324947 2.0744236 -1.7321076 -1.0762964 0.48936218 -0.83991945 -0.4597066 -0.6135222 0.30969942 -1.3877007 0.37801823 1.1274532 -1.5533109 0.6131874 -1.1173103 1.4646114 2.1485338 -2.0159817 -0.019988341 -0.14972101 -1.7191823 0.4105814 -0.11854707 -0.111431494 -1.2701278 -0.8700016 -0.55310684 0.9010481 0.73140997 -1.0110986 0.43467522 -0.42280555 -0.20308858 0.19437502
impressionne -2.250657 -1.9252784 -1.3393693 0.16278128 -1.4085153 1.3406056 -0.34919176 1.5428782 -1.5527734 -0.39765468 1.0454742 -1.854338 -0.2891021 -0.044408523 -0.7226263 0.11127332 -1.4150453 0.8753068 -0.027140968 0.782852 -0.6150462 1.9515777 -1.6163692 -0.052157495 0.5736859 0.13900608 -0.8235109 1.3838627 1.034737 0.9627648 -0.17020364 -0.23151217 -1.159536 -2.0300477 -0.18288614 -1.1235567 -1.0291538 0.62012154 0.5365468 0.36899263 0.35586613 1.0780216 1.4619926 -0.12529108 0.11426674 1.2181822 0.64058167 -0.3697371 -2.3298628 -1.6260626 -1.2232019 0.4073002 -1.3488679 -0.22353616 0.43023407 0.022979848 0.4307449 -1.1810589 -0.34605002 -0.16494821 1.0664792 -0.16031101 1.2561922 1.2429898 -3.470264 -0.9666303 -1.1161934 0.25270075 0.8717388 -0.1666704 -0.23314346 0.17366031 0.6046715 -0.23813634 0.36689022 0.67353934 -0.0639181 0.44219857 -0.11851054 -0.4286886 -0.32597893 0.5120079 0.5479107 0.4761807 0.80395377 -1.8047328 1.6576347 0.3018877 -0.38189366 1.1732435 -1.2012107 -1.4613024 0.5313552 1.270874 1.0340514 -2.046619 -0.786134 -0.25497705 0.14823459 0.048471533
mener -0.46628293 0.3136553 0.68155414 0.39542887 -0.5673139 -1.3894696 -0.9529334 -1.5129393 0.43790993 0.40102488 -0.79536706 0.12922764 2.101768 -0.6559039 0.63179296 0.73997176 -0.22630285 -0.5294867 -0.54663473 -0.030218216 -1.5065182 -0.90121543 0.5909601 -0.73940086 0.029780302 -0.88627875 -0.22160178 0.78069043 -0.048512887 -0.14226094 -0.34388277 -0.7567507 -1.2824872 0.8470285 -0.7943356 -1.1881695 -0.19218566 0.13452058 0.32236418 -0.43306896 0.2973335 0.059054572 0.7588894 -1.4322227 -0.7608877 0.4186646 1.0493858 -0.44995502 0.8778385 -1.2929913 -1.4803118 -0.3934614 -2.7337747 -0.67563444 0.13861918 -0.15327917 3.4106603 0.043740947 0.30461934 -0.6511573 0.2784257 0.655931 -0.10036622 -0.031109368 1.5483235 -1.4404655 0.21585463 -0.061245978 -0.97521985 0.18469341 -0.6515871 0.13759872 1.5702981 -0.85892373 0.41514546 -1.8701352 -1.2471595 1.0023239 0.06384791 -0.512871 -1.7949371 0.7586555 2.1985612 0.7857893 -2.7702453 -1.9507568 3.1797042 0.3918757 -0.32022727 0.11873976 -0.95283103 0.13020943 -0.49275392 0.17371993 0.92736876 1.124052 -0.7651455 -1.6491133 0.29779223 0.34997758
avantde -0.63650227 -0.17502183 1.714055 -0.48432454 0.6943077 -0.65920466 -1.1299762 1.520965 0.24452335 -1.5336242 -1.4796536 -0.1912783 -1.6297742 -0.49219877 1.163162 -0.5759598 -0.8527521 -0.6575892 -0.45635685 1.680038 0.75552607 0.5986733 0.38439763 -0.12427644 0.10296206 0.79548484 0.38805085 0.1518867 -0.23598136 -0.39595792 1.3291082 0.25349605 1.8880454 -0.4527657 0.921097 -0.3719535 -0.034533996 -1.4220606 1.6589746 1.2168149 -0.33270845 -2.3432183 -0.31954533 1.0334586 -1.3849146 2.4134312 -1.1506332 0.21790873 0.7831928 -0.5303221 -1.7620393 0.64143515 0.4455192 -0.2079492 -1.1552125 -0.25871858 1.2542481 0.03453365 -1.124271 -0.2235096 -0.68662775 1.4814901 -0.6467174 0.30712554 0.9847381 -0.72672224 -0.37376994 0.5098427 -0.39869025 0.5692219 1.0567893 1.5481884 0.09829414 -0.4403508 -0.39680737 -0.60507005 -1.5227495 -0.14968665 0.8558359 0.7499324 -0.043324064 -0.017133635 0.95421183 0.45467257 -0.21114288 1.0530545 0.28367248 -0.21073657 0.56149256 0.8642994 -1.7350183 1.324652 -1.00328 0.70493037 0.6804682 -1.5518509 1.2190516 0.3308568 0.6810513 -0.05796519
exposer -0.14729992 -0.41761392 1.0439922 0.83328635 0.546108 -0.6262269 -1.0623506 -0.8037167 0.56067544 -1.4803443 0.79847807 1.4112829 -0.5322761 1.9851546 1.2416843 -0.17449869 0.52246225 -0.01707112 0.110061646 0.16611879 -0.540892 0.13362354 -0.71274036 0.222658 0.35081846 1.0478153 0.6280347 -0.09555567 -0.22772288 -0.017917572 -0.0071585113 -0.44387075 -1.0401385 -0.0731291 -1.4421985 1.8125423 0.7311701 1.3146107 -0.15759046 -0.44348356 0.96214837 0.41048825 0.17821252 0.24325188 -0.7186674 -1.0418351 0.44172817 -1.0951142 0.40688276 -2.3238273 1.14713 -0.50609833 0.68249494 -0.23746543 -0.0047252886 -0.95963925 -0.6384867 -0.4292727 1.4444572 -0.55230504 0.023492951 1.1567415 -1.0873632 -1.0630043 -0.5265018 -0.65992904 0.25369024 0.3265444 1.2190125 -1.3753453 0.73970497 0.1497003 0.08558703 -1.240589 -2.1581733 -0.38480267 0.5914574 0.25433978 0.37185907 1.0896082 1.0411917 0.05509133 -1.08446 -2.0254447 0.8516811 0.15738416 -0.3534692 0.5180337 -1.0321584 0.79752177 0.0704949 0.7593713 -2.333057 -0.7634583 -0.88623893 -0.6066772 -0.36157507 0.29824272 0.7803133 1.0840206
n -0.39464736 0.6091847 0.56076306 0.60219437 -0.06098262 0.66711485 1.1373693 0.3199818 -0.30721068 1.0566559 -1.0483093 -0.03343239 -0.13562204 -1.2184678 -1.0038974 0.1575248 0.52366275 -1.0691355 1.2084955 1.4098117 2.1963162 0.9928563 -0.34993845 -0.5639571 -0.07223374 -0.097223304 -0.9003963 0.3036309 0.543134 0.81004065 0.79964495 -0.08147859 0.8860615 -1.1591055 1.2621782 -0.23845646 -0.054208517 -0.9236467 2.9365966 -0.83729166 1.0734191 -0.55530024 0.75368005 0.62216777 -0.8708291 0.20745714 0.064026095 -1.20548 -1.7967801 -0.31961495 0.09286039 -1.2407478 -0.63996685 0.21952122 1.0029893 -1.0959623 -0.8065727 -0.2609524 0.34979466 -0.9201959 -0.04172573 -0.27369565 -0.40401697 0.93670195 1.535588 -0.2415907 0.9675786 -0.31017068 -1.8621025 -0.86662793 0.083905466 -1.4947226 1.360331 -0.30079 0.59106654 0.9000661 0.5432816 0.21896836 0.2495192 0.74356145 0.55593646 0.73378086 -0.370538 0.78768444 -0.14172575 0.2013365 -0.904894 0.50261027 0.21218029 0.30624285 0.5520564 0.17062147 -0.25680727 0.27840072 0.17564347 -1.4438394 -0.017770628 0.33754444 -0.007259192 -0.6408115
aura 1.1538295 0.8183977 0.83317405 -0.60062766 -0.24113199 -0.97644645 0.22704613 -1.2779441 -0.6613915 -0.4017954 -0.67919016 0.15848245 -1.0669713 0.21722537 -0.7773897 0.35704732 -0.889397 1.1576581 1.2345427 -0.4474475 -0.39056176 0.7363247 -0.58514017 1.8626139 -0.3834359 -0.06780215 -1.2710588 -0.7860569 0.90684813 -0.1028232 -1.7678117 1.154597 -0.6610786 0.7510272 1.178258 0.5021299 -0.27211386 -0.5183747 -1.3839521 -1.8439107 -0.59024614 0.56809783 -0.49182707 -0.8968509 0.34432754 -0.9158759 1.1314348 -0.11436685 -0.2290938 0.12143714 -0.10741822 1.230611 1.1508297 -1.1722698 0.45482177 -0.029098593 -0.4140419 0.3284286 -0.83829397 0.3125475 -0.9839394 -0.49502945 0.2140402 1.049068 0.78597367 1.6035062 0.18621606 -1.1337237 2.141067 -0.1915619 1.4161321 1.708227 -1.1814971 0.332644 0.5536065 0.9202448 -1.1065944 0.37380612 -1.5835476 -0.62239635 -0.869954 0.06791193 -0.4811814 0.46164533 0.7585476 0.31919625 -0.7610079 1.8869301 1.4498326 0.1444391 0.37591186 0.8591328 0.6181466 -0.42502812 -0.77610797 -1.4374756 0.87499493 -0.5250063 0.8709046 0.62033117
fallu 0.30563384 -0.5968545 -0.9658821 2.4595397 -0.58407104 -0.5604288 -0.09218114 0.6452668 -2.6031833 -0.9908162 1.0402061 2.0568156 1.3816557 0.38983637 0.81508666 -1.3348224 0.67951655 1.3564283 -1.0085235 0.6513158 1.7076658 0.1567553 -0.06898222 1.5531446 -0.081472926 -0.19401969 -0.3768925 -1.9226178 1.644507 0.5641495 -1.38283 -0.46722096 0.5128206 -0.8683898 -0.29338872 -0.88788676 -0.66397554 1.5134716 -0.2719763 -0.029946271 1.9571698 -0.5624817 -2.2237115 0.10238274 -0.4708969 -0.6036619 0.19638674 0.4842316 1.9382464 0.1591577 -1.2319303 0.6354524 -1.6806246 -0.5516513 -0.34794337 -2.1787446 0.066875614 -0.41171384 -0.11097556 0.8367228 -1.3361049 -0.58401793 0.10232027 -0.18906584 -0.29360887 -1.7270013 0.1310048 -0.8985899 -0.057388905 -0.10398447 -1.0453551 -1.5419922 -0.4449582 0.6581847 -0.48208573 -0.26788658 0.113267444 -0.34269664 0.22191803 -0.2830343 -2.1109016 -0.87619865 -0.7064087 0.03348752 1.6655892 -1.9788955 -1.062023 -2.1840446 -0.00391044 -0.23750122 0.36414528 1.2885392 0.4145012 0.49700788 -0.35368085 0.7683698 0.9110002 -2.010495 2.019799 -1.2736263
moins -0.028074328 1.8063107 -1.0919609 -1.1107913 -1.5196013 -0.116922885 0.4137193 -1.5001271 -0.48881376 1.4094162 -0.93312883 0.7389576 -0.25167823 1.4563073 0.25627348 0.47134495 -0.4390524 0.82230353 2.013156 -0.30940282 1.1649641 -1.2750168 -0.5507057 0.9839289 -0.41305593 0.6581275 -0.13463129 1.0058876 -1.7979788 -0.824784 1.5513387 -2.1430843 0.32868284 -0.031945527 2.3181078 0.44927812 2.0779982 0.06541355 1.0110177 -0.82397974 -1.9602056 -0.86975306 0.07580934 0.7903394 -0.11130674 0.97076845 0.89233357 -0.082017295 -0.2845342 -0.21978289 1.1013829 -0.46988794 -1.3187754 0.30512923 -0.15130207 1.5293931 0.5510317 1.1742553 1.2882782 -0.99571055 0.1473587 -0.67490995 -0.21212986 1.2802293 -0.6320803 -0.09020485 0.017526815 0.28822392 0.015314177 1.3101507 -0.23024613 -0.18970604 0.26068005 -1.5800108 0.62020874 -1.0644623 1.1614985 -0.07933469 0.7180926 0.5743109 -1.0238281 -0.2687958 0.5168868 -0.969799 0.00894531 0.1197789 -0.85993826 0.98267734 0.76649344 0.15692557 -1.2944678 -0.66728544 0.28533652 -0.29893467 0.15622659 -0.44490716 0.38441727 -0.23099647 -0.10832989 -0.07954347
heures 0.41671252 -0.2242762 0.5415273 -1.3738887 0.9515412 1.5095079 0.06958615 0.8040668 -1.160657 -0.37731078 -1.6290501 0.15155861 -0.23650338 -1.5027907 -0.39314646 -0.54556185 -1.7621579 -0.5295213 -0.7551366 0.6512243 -2.0424569 0.75273526 -2.6013076 0.7231485 -2.0415313 -1.4174321 0.40905663 -0.0014537799 -0.9531932 -0.0055071386 0.03495529 -0.14401913 -0.44487822 -0.07835291 0.3933987 -0.7825949 0.8743328 0.7023134 0.39907184 1.368544 1.0299131 0.76899827 -0.6364925 -0.9322159 -0.250291 0.23171853 1.4617155 0.58503985 -0.5281034 -0.47882828 -0.96675223 -0.84979826 -0.37364456 -1.4477369 0.51735693 0.6344421 0.25905332 -0.6946837 -1.3749804 -0.12686242 -0.5557513 -0.011863086 0.86210865 0.34396255 -0.780893 1.1550074 -0.72277206 -0.8163766 -1.1018085 0.43252206 0.452573 0.13244848 -0.073226534 -0.34308732 -1.2278106 0.89975834 0.9826838 0.740277 -0.639265 1.5429896 -1.0780222 0.23385632 1.3533901 -0.8234963 0.28683528 0.105798684 1.3607286 1.7300515 -0.48969254 0.058954142 0.81724656 0.39958912 -1.8038043 0.16873729 0.4371717 1.3634162 -0.7800501 -0.1617848 0.12311479 -0.32620004
cuisson 1.4273497 0.04104876 1.658645 -0.087305695 -1.2742788 0.85693735 1.0602574 0.24389614 -0.04698951 0.5597899 -0.3251789 -0.384304 -0.14909117 0.1478646 -0.17037772 0.7639138 -0.9702149 0.83234423 1.0005484 -0.6337107 -1.8790544 -2.86358 -0.21679634 -0.59758705 -1.3233005 1.2214544 -1.0472364 2.1249797 -0.54471934 -1.2330964 -0.7559408 -0.8309496 0.40168324 -0.7024076 0.08118585 -0.1054436 -0.47125527 0.541576 0.6645339 0.67108196 -1.309732 -1.2282773 0.02692994 1.1823274 -0.13755164 -0.16747956 -1.2773361 -0.2456369 0.16566913 2.3842957 0.60941154 -0.80906576 0.5074804 0.7457281 0.00995871 -2.1517134 0.9349733 1.0678896 -0.6005953 0.96547794 -0.8810584 0.16611724 -0.628082 -0.79547864 -1.2696025 1.1307937 0.96196884 0.05489954 -0.31709975 0.724031 1.5805954 -0.4185224 1.0819317 -0.02485197 -1.0022627 0.27675 0.4156198 1.9627542 -0.7818379 0.9878512 1.636821 -0.7251476 0.99021226 0.432788 0.30867168 -0.058974158 -0.28329235 -0.075541854 0.36477682 0.45954627 0.71789277 1.0924714 1.8805623 1.0789183 0.9825873 -1.0771604 0.7040616 0.6289882 -1.524608 0.79646075
avec -0.9603529 0.097335264 -0.7875359 0.501851 -0.98964936 -0.74900883 -1.0055237 1.3434396 -1.6679295 0.11212152 -0.9683363 -0.3199402 0.24914154 -0.7597884 -0.4985671 -0.57657754 0.33653978 0.5906002 -0.3823953 0.68335706 0.5578155 0.3013972 -0.5682171 -0.05603098 -0.8956054 0.9235543 1.3341365 -0.20720005 1.4089398 0.16910017 -0.58250046 -0.40750256 0.18954827 1.1426864 -1.7150006 -0.14964911 -1.1544496 -0.9252526 0.047149878 1.5900061 -0.43910363 0.620434 -2.8256853 0.98023176 -0.5110169 -1.7577534 0.34371936 1.0463287 -1.3256103 1.0860423 0.36888412 2.0417132 1.1321278 0.504674 0.307413 0.12242513 0.017189754 0.1381063 -0.9843931 0.74302804 -1.0446358 0.11255796 -1.0673686 -1.7420735 1.31033 -0.93904 1.5816756 -0.08428641 0.66485846 0.08334485 0.5856032 -1.5469687 -0.115393214 -1.0290585 -0.6282028 -0.17396119 -1.389151 0.33416614 -0.58062184 0.15967578 -0.24245076 0.7694036 1.505871 -1.5399723 -0.9927046 0.17713767 -0.14940196 0.13113193 -1.2082759 0.50135463 1.5145459 0.7559012 1.1342932 -0.25059885 -1.4945173 -0.35082522 1.1905562 -0.10512752 1.1291074 -0.2573758
une -0.9391527 0.9378218 -0.8651847 -0.13550217 1.8572824 1.5419605 -0.5122632 0.60276914 0.4863308 -0.38130182 0.08827704 0.9511959 -0.67646813 0.3616895 0.6380279 1.3467755 -0.29510313 -0.515905 -1.2614003 0.5144377 -0.62336683 0.13132635 -0.4818649 -0.75578976 -0.14994967 -0.15270284 0.06267477 -0.61513776 0.21291152 -0.19080208 -0.28318366 -0.020438438 1.2435113 1.0908852 0.88346 0.62418675 -0.52198154 2.7659175 0.36319217 -0.72155434 0.046935447 -0.40253463 -2.506869 -1.01311 -1.8285966 0.524151 0.27145943 -0.18460393 0.74503905 0.07518687 -0.23604564 -1.0233699 0.18664533 -0.27028233 0.0072480873 0.18634246 0.6787231 -0.97169554 -0.14987993 -0.9910536 2.0371108 -0.3745255 1.082964 0.22037221 -0.364541 -1.0317314 1.1001827 0.04274052 -0.6128901 1.0805224 0.054732613 0.5847441 -0.41873616 -0.010702107 0.82341015 -0.17517124 -0.6438194 0.34717754 0.30104423 -0.6864091 -0.5519841 -0.7693226 0.7643159 -0.2822137 -0.6320368 0.99222136 -0.23621035 0.30503792 0.43694186 1.1096915 -1.4142687 -0.10213485 -0.59696394 0.06655074 -0.027458504 -0.22239886 0.5636311 -0.19311538 0.6048478 -0.38403678
surveillance -0.092336066 2.1270857 -0.37632963 1.2477592 -1.3558229 1.659682 -0.6127078 -0.61122036 -1.3678172 -0.98578656 -1.2374061 0.8082889 0.022024414 -1.4377958 -0.97040397 -0.6448496 -0.7179635 -0.5438392 0.8979111 0.76648027 -1.2718071 2.1809871 -0.979453 -0.60010856 -0.5046493 -1.2597518 -0.14296792 -0.30836728 0.50626874 -0.09776633 -1.654249 -1.2330061 0.51226854 0.71933293 0.1349282 -0.27691188 -0.47300354 1.177406 -1.3523562 -0.877023 -0.019587114 0.8154748 0.06792215 0.403114 -1.084937 1.0834635 0.74914813 0.5355451 -1.3866059 0.43314722 1.9908674 -0.97686434 1.0240372 0.0032576877 -0.45088995 0.35277304 -0.7495985 0.35025933 -0.4814677 2.2232943 0.9501691 2.2996447 -0.045045916 0.6321578 1.9367199 -0.8234982 -1.6676579 0.38574836 -0.9000022 -0.47810653 -0.51663184 -1.2639705 0.76939136 0.69230324 0.7409836 -0.84780765 -0.14009036 -0.60985 0.655248 0.8984084 -1.0200131 0.79512924 -1.1997854 0.5419216 0.46391618 -0.7026673 1.1626388 -1.7581109 -0.39761046 -1.6815283 0.16612843 0.32357842 1.4392477 1.2177106 1.3037215 1.3425808 0.13038267 -0.4823694 1.0867566 -0.19532283
chaque -1.6569625 -0.07485382 -1.9848124 1.7255508 0.7060909 -0.6436918 0.3464348 -0.8191041 0.06762157 -0.24091996 -0.8747832 1.1446092 0.9512413 -1.2808266 1.2420621 -1.7150294 1.4605365 -0.44578716 -1.5429397 0.37697533 0.33705053 -0.31987575 0.58376896 1.3935597 -1.1934627 0.44940746 -0.38773757 -1.0828266 2.2270262 -1.8690476 1.384348 0.085796356 -1.3270723 -0.5590569 -0.7848247 0.8056755 0.16967045 0.33520103 0.77109456 0.06798526 -1.0230808 -0.7619529 0.29390365 0.18224418 -0.7549445 0.7461925 -0.41621625 -0.17933878 -0.55720645 0.8944299 0.35164368 0.73990166 0.30673712 1.4565363 0.15927538 -0.19528528 0.009811504 -0.6833574 0.76670545 0.80706924 2.163849 1.0335789 -0.31748617 -0.6387353 0.007633274 -2.2478225 -0.64898723 0.9102141 -0.735757 1.5625641 0.26471847 -0.06830273 0.23829691 0.3944964 -1.2462028 0.047213428 -0.08894326 0.038417593 0.21016304 0.022438826 0.6166866 0.052910075 1.6576027 -1.21842 -1.1723441 0.91217816 0.023595238 -0.05539324 -0.14386009 -0.30379602 -0.89878035 2.143023 0.0025267925 0.99692124 1.1260473 0.057319995 -0.23588476 -2.2904046 -1.1612127 0.8145903
instant -0.3377771 0.44580805 0.18096745 1.5742972 0.93223137 1.5518544 -0.17875801 0.039958887 0.6635597 0.88364977 -0.9823083 -0.28962234 -0.8741347 0.24914947 -0.20159017 0.7441845 -1.8220483 0.40808433 0.21714813 -0.20805755 -0.83144325 0.98228484 -2.3335135 0.64964056 0.6909283 2.6423705 1.4457016 1.79083 -0.22465187 -0.7165836 -0.40880167 -0.5212472 -1.1857791 -0.21307603 -0.6408189 -0.8585385 1.9499197 -1.5578736 -1.0669411 1.2587568 0.5924464 -0.8533046 -0.018323915 0.47146907 -1.2525638 0.23206477 -0.07771048 -1.5488576 0.4569774 -0.90644526 1.4154905 0.49083275 1.7702224 1.0496237 0.658756 -0.5484142 -0.3823876 -1.1993232 1.0941032 0.4122638 -0.092818 -0.9535781 1.5877123 -0.73924905 0.5191153 0.726491 -0.7929036 -0.23380195 -1.4837605 0.35140604 0.41722995 0.05495939 -0.39949143 1.6616818 0.3256541 1.7026507 0.4088741 0.35377836 -1.1542103 0.811895 2.050236 -1.5678823 0.0058879615 0.3735331 -0.5439104 0.55702376 -0.10866514 0.028159209 -1.1429478 -0.117881685 -0.28278694 -0.51859796 -0.64784557 0.3257268 0.27040857 -1.28787 1.0709449 -0.095642045 0.19694453 -1.6918186
que 1.3519213 -1.3625252 -0.06932702 -0.892459 -0.14569391 0.5115296 0.61463374 -1.6813216 -0.36939338 0.8053186 -0.25802046 0.4221257 0.76996434 -0.6135699 -1.8987175 0.5575655 -0.1602935 0.24329436 -0.727918 0.15010498 1.0089655 -0.82706773 0.5007482 -0.6501653 -0.21298687 0.32847425 -0.9739396 -0.34502515 -0.8574175 1.7439209 0.60486466 0.17227867 -0.03949888 -0.79769814 2.0490055 0.23302285 -0.2900132 0.9601365 0.5245513 0.5031391 0.85215306 -0.90564674 -1.3688304 0.122277915 0.73853 0.10329655 -0.08777417 -0.2938113 -0.21248391 0.08714237 -1.6278731 -0.49199468 -1.4230142 -0.06713832 0.92822254 -1.6474829 0.71734154 0.2932106 -0.30795854 0.94184923 0.80265534 0.2880774 0.3925996 -0.8090583 0.24961333 0.72723246 0.37666655 1.3031093 -2.2179942 -1.3151281 0.38541785 -0.20601892 -0.010218195 -1.2187576 0.7775228 -0.07371444 -0.22241198 1.029499 -0.19858691 1.343167 -0.88566345 0.52030617 -0.024542386 -0.5350688 -0.044593543 1.2725781 -0.368579 0.8785221 -1.9584874 -1.174229 0.5676779 -1.1249787 0.06452659 0.9269149 0.64475995 -0.10833486 -0.6341783 1.0654377 0.6869051 0.83434856
levait 0.6116401 -0.15714946 1.1582243 1.9347163 2.373036 -1.835324 0.8935627 0.28591895 -0.1624874 0.023921642 -2.9707444 -0.70931923 0.6464789 0.5804864 -1.1569992 0.75175804 -0.22281787 0.19350637 0.7890612 0.3533499 0.14075279 -1.0247397 -0.24142009 1.0078373 0.06459487 0.97459966 -0.62134904 -2.0380757 1.7382917 -0.9310875 -0.934885 -0.3798479 -0.76162916 -2.750128 -1.8571364 1.4043713 -0.18081306 1.0352207 -0.12071578 -1.423473 0.24485765 -0.9248311 -0.1561402 0.72893864 0.7568286 1.3642626 0.69048977 -0.3440075 -0.4661275 0.48420787 0.56718147 0.06250634 -0.25318244 -0.059314687 0.02438501 0.23576619 0.6727917 0.9822581 1.4318846 -0.795919 -0.7293401 -0.28189674 0.24144569 0.3872783 -0.34760725 0.96598876 0.9223334 1.6091764 0.78264844 1.5930413 -2.061546 1.6943682 2.0196903 -0.9857809 1.0784767 0.21671413 0.38846493 -0.30080578 -0.5706607 -0.7307554 -0.46561757 1.3286649 -0.07783281 -1.9358658 -0.75437486 0.16969073 0.27979586 -0.34343883 0.72660714 -0.40613028 -0.78077877 0.65375614 -1.3197888 0.36141297 0.88433915 -0.2905228 -1.5372012 0.9811158 0.3336998 0.6384032
correctement 0.46526614 0.7889711 -0.122413196 1.9142201 -0.6499654 -0.24267478 -0.6929512 1.5148436 -0.44866717 0.6675925 -1.6677246 -0.21189822 -0.2592533 0.8458886 -0.28083384 0.9692431 -2.2780037 0.22517495 0.7495583 0.881718 0.6079738 1.1151658 0.24509834 -1.9161919 -0.6020508 0.17333338 0.63812566 -0.20869115 0.7206893 -1.942133 -1.5268893 1.2985134 -0.3565027 2.4135966 -0.5940759 0.9890874 0.050966952 -1.3900406 0.052928064 -0.009007267 0.6585563 1.6064075 -0.40540296 0.8992285 0.27113324 -0.704383 -0.92736655 1.2627429 0.4183763 0.35895297 0.31404278 -1.4261215 -2.244357 -0.44484508 -0.1961459 2.6872709 -0.4437836 0.35714194 -0.7532911 1.1074951 0.004704949 1.0814093 -1.9103699 0.16016504 0.2536245 0.7910169 -1.1053977 0.6372109 -0.8293048 -0.93966436 0.18378054 1.6775975 -1.4353895 0.8957791 -0.5534602 -0.21452272 -0.8635981 0.97543025 0.8758682 -0.3070062 -0.46130687 -1.571486 0.038342852 0.99296415 -0.39791077 1.7892216 -0.42341563 -0.6568655 0.32694423 -1.8172873 -0.97974277 -1.7889822 0.5245652 0.52749646 2.5086436 -0.80033326 0.31252462 0.002313258 0.38910955 -1.6212673
prenant -0.0093320785 0.7044552 0.027685566 2.648296 -0.13215655 0.15605763 -0.017683143 -1.2826656 0.9952309 -0.9126382 -1.1014429 0.41121107 1.1733375 -0.78306353 -0.37821153 -0.5744056 0.75424236 1.1703861 0.47579256 -0.9365973 -0.5976582 -0.18078727 1.4372035 -0.024596598 0.8021577 0.21408144 0.8099415 -0.922944 0.84902054 -0.57872695 2.0344431 0.3879221 1.2062649 0.15467033 -0.8641755 0.6420144 -1.1172785 3.1344612 0.90014565 -0.2847299 0.025931861 -1.9553212 1.1535531 -0.03430257 -0.0784862 1.1625549 0.90762776 -1.0624405 1.0085235 -0.11492767 0.42177153 -0.7186758 0.20003378 -1.2191566 -3.3297124 0.7828595 -1.7227224 -0.35554644 -1.1056275 1.6213802 1.0289342 1.1038777 0.216745 0.17982766 0.24284743 -0.42802405 -0.15352862 -0.8723452 -0.15299994 -1.1897858 -1.8095007 -1.4577856 0.475437 -0.28104767 1.1709815 0.62128115 1.9194595 0.284549 -0.33556134 -1.6265857 -0.6429743 1.9446706 1.0536659 0.42508316 -0.32187942 0.37931147 -0.4388428 -0.18421115 0.62260085 -0.37042704 -0.92566687 0.11386567 -0.835454 -0.17864573 -0.6856387 -0.18615985 -0.48574275 -0.05760802 0.008351758 0.029551577
belle 1.4855742 0.52161664 -0.47786665 0.3001228 -1.3360254 -0.23685499 1.6086075 0.29114965 -1.3653963 0.674824 0.14846212 -1.3087825 -0.030517658 0.59394115 -0.123502396 1.4359155 -0.054914795 1.4728112 0.58312804 0.065487854 0.033462703 -0.66532546 -0.8538233 0.2351573 1.0384357 -0.14129029 -0.9743062 -1.2484162 1.1471685 0.04536293 1.0910378 1.6763197 -0.13511519 -0.2536015 0.062532105 -2.141706 -0.2871673 1.4149948 0.6464614 0.39473674 0.88295555 0.26798695 1.0641093 0.13880515 -0.07844742 0.056712028 -1.728832 -0.7431001 1.6334378 0.6597828 -0.90490097 -0.78931385 1.2792876 -1.264335 0.16953154 0.77062315 1.081637 0.8163821 0.0637716 0.17323825 1.7064255 0.7758861 1.4683648 0.84409976 1.0915387 0.5178553 -0.77454877 0.1645568 0.14178327 1.7140216 -0.6410087 -0.14128084 -0.75902843 -0.49184126 0.5811779 0.8930831 -1.6300853 1.5156059 0.0773366 -0.52407646 -0.37986502 0.09322923 0.12577198 -0.3650494 1.284639 -0.72879374 0.098983355 -0.65612835 0.3762212 -0.58033115 0.026273573 0.42985526 0.0036249715 0.40489146 -0.77181727 0.1324301 -1.1181921 2.6938157 0.79607767 -1.1113666
teinte 0.47219613 0.960462 -0.691491 1.9579315 0.27697384 -1.6087674 0.86440194 -1.5095024 1.9605383 -0.5875751 0.15642558 1.0751663 1.5022633 -0.9849927 -0.011741823 -1.6151069 -0.31180605 -1.144636 -2.0422885 -1.3221779 1.0685365 0.3865129 0.12988369 -1.4548358 1.9483603 0.26924857 0.2172836 0.33368483 1.5775529 0.32601747 -0.64225286 -0.8159404 0.717726 0.5161147 -0.06189552 -1.4716561 0.09584258 -0.8149379 0.9146473 0.2702238 0.32566288 0.594582 0.32619923 0.35303184 0.9696133 0.52071315 -0.7079785 0.11379771 1.7198405 0.7999039 0.4693751 -2.4654691 1.4043056 0.07741955 -0.64638263 1.1565229 1.4203651 -2.2575254 0.16555113 0.122759126 0.0589527 -1.5685784 -1.8324977 -0.60154516 -0.8797604 2.580143 0.4662255 0.80553263 1.2644802 2.9478133 -0.20144184 -0.41734633 -0.988123 0.18391001 -0.5351841 0.68635625 -1.6013901 1.1772921 -0.4389478 -0.08072333 -0.43937075 -0.3664454 -0.7599416 -0.8893906 -0.62908226 0.6925875 0.8457812 1.6482937 -0.8535791 0.619371 0.68746847 -1.3760688 -0.060328994 -1.5014831 -1.8603079 2.1287282 0.7305865 0.17572288 0.0124336835 1.2607982
crofbte -0.2563745 -0.7514383 0.21228242 -1.5213646 0.41319242 0.7253799 -2.1173203 1.5101041 -0.431246 0.5404815 0.28000537 -0.029052543 -1.2524936 0.5738406 -0.11779918 -1.3741676 -0.96652895 0.09861475 1.6027993 0.9744378 -0.9384226 -0.63908917 -0.9887676 0.62913465 -0.5588877 0.69273585 -1.0618149 -0.23838188 1.8530043 -0.16559799 2.1973386 -1.5911341 -0.14635079 0.5804115 -0.13375114 3.3098006 -1.1944212 -0.15005313 -0.39089888 -0.34552786 0.5251861 0.22654644 1.8845084 1.0512325 -0.5561196 1.274963 -0.13834363 1.5828981 -0.26315004 -0.74033993 0.34185284 0.4089257 0.30932164 -0.31462175 0.01924328 0.068322845 -1.8594686 0.97576916 1.202635 -0.985531 -1.1875653 0.6060302 -1.9402725 -0.99848616 1.4696854 0.4301159 -1.056659 1.1730617 0.3844451 0.103310265 0.25552183 1.331465 -0.377379 0.49955824 1.2066269 0.33124393 1.2550404 1.6900722 -0.5289186 -1.6112276 2.0557163 -0.14891517 0.19222409 0.083249606 -0.51479423 -0.5431765 -0.0623643 -0.2303274 -1.2149961 0.19924697 2.2969067 1.4788269 -0.3059194 0.22746423 1.0196918 0.5262502 -0.5352803 -0.5611501 -0.7525462 -0.13699827
boulange -0.36597162 -1.0574046 -0.32096234 0.24171127 1.4395068 0.48748115 0.19147366 -0.03687331 -0.34767804 0.56625444 -0.69417256 -1.0374688 0.4851646 -1.3583515 -0.10508341 2.8171554 0.63964766 0.95445013 -1.8663796 -1.2889847 0.49434003 -0.7159956 -0.26422918 -1.2013243 0.24353327 -0.3746836 1.5974658 1.7325357 -0.8462608 0.45121944 -1.0992028 -0.67236954 -0.0017077262 0.20377986 -0.64682347 -0.36516353 -0.34259596 0.07305682 0.945788 -2.2707574 0.9395795 0.32017708 1.4494084 0.3452722 1.7877694 -0.9348039 0.3059151 0.22175615 0.6104872 0.36258125 0.47884858 1.6737627 -0.05694938 -0.45167747 -0.40242815 1.6277038 0.43697485 1.9779602 -1.4120252 1.105299 -0.72526973 0.64465374 0.8036057 -0.7818059 0.9576292 -1.1255416 0.6396609 -0.49997497 0.8214506 -0.55929136 -0.37870282 -1.1161758 0.50656545 0.92163813 1.3813883 0.7159633 0.27142867 -0.53521705 1.6357899 -0.22842069 -0.42957613 1.0412723 -1.3580625 -0.38025424 -0.40092927 -0.16626993 0.00981114 -0.18048893 -0.317158 -0.14955041 -0.24652532 -0.26276588 -0.88964015 -0.49951863 0.97431964 0.115529485 -0.123578124 -0.50427926 -0.510884 1.3989515
