100 100
0 0.6179276 -0.92846847 -2.2770934 -0.052223723 0.35447478 -0.45890808 0.24175029 -0.43870336 -0.7251086 1.2008768 -0.9963122 -1.7854333 0.37784666 1.1823472 -0.7297716 0.34825358 -0.27996325 -0.062032063 -0.62906164 0.76505435 1.4770439 0.8276939 -0.31687063 -0.16219556 0.33235386 -0.50238913 -2.2800438 0.38660297 1.2151587 -0.16610205 -0.44768536 1.0965055 0.1391291 -0.59534734 -0.49494898 -0.3996039 -0.19920029 -0.17337857 0.24850127 0.039387744 -0.6173041 -0.2719184 -0.79378146 -1.1274915 -1.967256 -0.16560644 0.029050807 -0.69779706 0.9338638 -0.5303046 0.7211854 0.63617414 -0.53961647 -0.6866157 1.5962616 0.46052173 0.7202652 -0.45088047 1.4716343 -0.9243895 2.0586846 -0.89655197 1.6291685 0.038051415 0.64406735 0.72234195 0.06761996 -0.95894927 -0.84598094 0.3237125 1.3034593 -0.2908159 0.81302214 -0.3345411 0.9640306 1.6181304 0.67579764 -0.37639293 0.7244682 -1.774016 -0.079728514 0.515987 -0.10403843 -0.40614772 0.4655097 -0.1511886 -1.1652439 1.5925146 -1.180379 -0.71926373 0.054360636 -0.10771578 -1.0532075 -0.4168221 -0.675422 -0.18225208 1.1961964 0.44248605 -0.31951898 -0.755987
1 -2.3420608 1.0019137 1.1395254 0.59017485 0.5981026 0.45219767 1.0238549 -0.0007619466 -0.99828357 1.0215935 0.21641451 0.877992 0.35635385 -0.3050665 -1.7970452 -0.4403655 -1.710777 -0.33681318 1.4217845 1.6101938 -0.10070928 0.5637764 -0.42484358 0.44906583 -0.12017544 -0.26562622 -0.8086981 1.2227317 0.39231962 0.90950704 -1.1559857 -0.4987752 -0.3705715 0.626323 -0.44709978 0.6838104 0.62151927 -1.6843697 -0.1898239 -0.104393475 -0.3855069 -0.9704614 0.44554064 0.059754726 0.8635791 -1.1448152 -0.1612063 0.7805773 -2.2921333 -0.5128008 -0.4229977 -0.3157245 0.3603584 -0.3275173 0.71619886 -0.5088247 -0.19481616 -0.645311 -0.37571484 0.9014691 1.055562 1.7482282 0.6237711 -0.72015345 1.1918935 0.71099323 -0.5314411 -1.6445222 -1.2846125 0.16786373 0.4011076 -2.0868828 -2.1002715 0.98594564 0.8567735 0.2451699 0.7910013 1.0731593 -0.6249683 -1.4891123 -1.371187 0.23963408 -2.1428835 0.6526394 1.9094683 0.42657036 0.3254819 -2.196289 -0.18983427 -0.04838833 0.047394834 -0.23704503 0.9235534 -0.020404942 0.71077245 0.8422214 -0.45320883 1.6947834 -0.37363842 -1.6764796
2 1.2653905 0.39518577 -0.71443975 -1.2090436 0.20271835 -0.4410709 0.53861964 -0.9768804 -0.5567438 0.5842293 0.04794495 0.08105562 -0.80544406 2.2599406 0.4176393 -1.3454536 0.229163 0.6602915 -0.02386641 -0.17103687 -0.5117475 0.45254 -2.4156868 0.07874997 -1.2740649 -2.6555595 -1.5721982 -0.77466595 0.12515084 0.6529748 0.922111 -0.41803342 1.0896193 -1.1057761 0.67457956 -0.10373358 -0.47442126 -0.40201622 -0.810418 -0.14493199 -0.20459273 -0.42516655 0.5319981 -0.43600196 1.1664896 1.8609754 -1.4054657 -1.3222628 -0.9766453 -1.328541 2.7093914 -2.3672838 -1.2819337 -0.16795397 0.17697659 0.3883165 0.42730203 0.36360264 0.08982042 0.053447276 -0.23898247 0.11719591 1.1265019 -2.7895527 1.5050876 -0.573037 0.6062819 0.82505256 2.012434 -1.3748401 0.0086580515 0.15802683 -0.62449056 0.72709537 -0.91438425 0.29710776 -1.043133 -0.012865138 -0.9711578 1.3225331 -1.2801279 -1.3098435 -0.0881066 -0.04929051 -2.330457 -0.07540692 -2.2355034 -0.5852392 0.9719379 -0.7500618 -0.091642365 -1.9185866 0.35550556 -1.3278538 -0.30341223 0.9228721 1.0765256 -0.36028615 1.2973247 0.24716058
3 0.17905729 -1.4993942 -1.0363047 -0.46585897 1.9159664 -1.6988217 -0.5122636 -0.7830938 1.2967601 0.19735208 -0.3990896 -0.7455402 -0.42030185 -0.2539535 0.04940813 -0.07396436 0.4620509 -0.99757135 -2.0492632 -0.7514118 1.640084 -1.2279706 -1.0834124 1.8066783 -0.8856598 -1.2793852 0.39116812 0.021704664 0.10614552 -1.1174543 1.316878 0.46422258 0.8197692 -0.5703243 -2.279652 1.2619444 -1.0497084 0.22272243 -0.1779449 1.1862282 0.7284949 0.73653144 -0.6735544 0.9368087 1.0434995 -1.7185522 -0.13217439 0.02027003 -0.18720931 1.4413908 -0.26603207 -0.6935166 0.29474214 -1.0610604 0.1124959 -0.53299975 1.1235157 -0.2630918 0.017510986 -0.43927637 0.12773992 -0.19009452 -0.67182577 -1.5063365 -0.21818049 -0.20353098 -0.62011737 0.6087487 1.4773421 1.7477636 -1.27339 0.57075363 -0.27243406 2.2685132 -2.201882 0.012475886 -1.4689595 0.5223469 0.015843151 0.80337733 0.6896537 -0.3528507 1.0892587 -0.05276652 -0.10081609 -1.7031735 2.0420053 -2.1820598 -0.31100276 -1.5368693 -0.827949 -0.55365855 0.3255888 0.3376688 -0.24246506 -0.7156848 0.34277624 0.29566655 0.3882684 0.32120568
4 0.66295975 0.93048334 1.1713188 -1.1819845 1.2151808 -1.1612431 0.8205122 -0.030028371 -0.03772565 -0.38968873 -1.0265172 -0.48728284 -1.0043291 0.77017766 0.3190625 1.9776707 0.70939285 -0.2799005 -1.7317392 0.61312854 -0.8827301 1.4057205 0.1790334 0.21522027 0.11686971 0.3878831 -1.7659354 0.16493262 -1.1094615 -0.58852464 -0.45502472 -0.35849422 1.3822814 2.9242418 2.1241322 0.6856294 0.30850494 0.37685585 0.36205518 -0.041317634 -0.9172843 0.012627147 -0.45544115 -0.4473703 -0.24317878 -1.3532542 0.37282583 0.033585556 -0.4815195 0.9886492 -1.4948978 0.2309701 -0.83381724 -0.21146354 -1.7956169 1.3758849 -0.1046952 -0.26547652 -1.4722841 -0.25576404 -1.106765 -0.2882949 0.65571195 0.05954356 -0.09647603 0.17426027 0.62501544 -0.364845 1.011697 -1.9429225 0.9067713 0.33781162 -0.29223788 0.74913543 -1.2727302 2.0272155 -0.32047945 0.33570182 0.28209877 -0.79192233 -0.809884 2.2704225 0.5042095 1.0276867 -0.64698106 0.18865086 -1.1794857 -0.121808656 -2.0171156 -0.23512934 0.1365479 0.51751494 1.5004115 -0.015093067 0.51626986 0.6873808 -0.71112525 0.78949964 -0.49346584 0.70821947
5 -0.7681616 0.4939761 1.2245171 0.12431218 1.1166054 0.038869508 -0.2313099 1.4824035 -2.0007083 -1.7506883 1.1793686 -1.371616 0.35762703 0.7006026 -0.9938216 0.07303745 0.3961816 -1.5074084 0.47937828 1.3412708 0.67709845 -0.39220887 0.19004013 -1.6587207 0.43705297 -0.37152937 0.27227893 -0.15286858 -0.07462087 0.8109287 -0.32739326 0.5790219 0.57512474 1.3548566 1.1727232 -0.12796937 -0.5769945 -0.6929699 0.41103953 -0.8701661 0.20135137 -1.4524086 -0.032139916 0.23103575 -1.0417008 -0.19178486 0.014047638 -0.6025082 -0.80988574 0.040963452 0.5338876 -1.9119985 0.34067488 1.3943932 -0.105925806 -0.9973765 1.6081234 2.988423 0.0025757072 0.35231695 -0.54342276 -0.8024168 -1.3484621 1.0480669 -1.2455372 1.15091 -0.9529483 -1.5567479 -0.007962337 -1.6757767 -0.12846683 -0.7279792 1.110084 0.16250241 0.21124242 -0.86498773 0.38728854 -1.5561879 -0.63923687 -0.03394592 -1.3354915 0.043210253 -0.75931215 0.23581602 1.1467398 0.44039163 2.0267048 -2.4607754 -0.14605576 -1.0299357 1.31168 -1.9178637 1.2700264 1.3351114 -0.52530086 -0.4282319 1.0531261 -0.45758736 0.06655594 3.2807226
6 -1.358083 0.7264782 -0.8833317 0.064571075 2.6888356 2.6054945 -1.4688551 0.40031096 -0.4807626 1.049699 2.1858754 -0.14522123 0.765879 -0.7584498 0.7760199 -1.2771622 0.41102356 0.6257749 0.67128956 -0.18928212 0.001204101 0.7187919 1.3929647 0.02748914 1.5144149 1.2374854 2.2466528 -1.066781 0.0011259849 -0.383913 -0.55488575 0.12276799 -2.6823213 -0.965889 1.4588182 0.48964503 0.9975507 0.9649857 1.9428773 0.33814073 1.1195152 1.071428 0.1848886 0.69709873 -0.3041316 0.16699831 0.3034272 -0.8568594 -0.058058947 -0.73811054 0.70671093 -0.3302143 -0.48134282 0.4439553 -0.97396386 -1.3731545 -0.5503628 -0.049278393 -1.5167179 -1.4875212 -0.19414796 0.19820333 0.6137863 -1.4492214 0.25575173 2.1772645 -0.37465253 0.7240165 0.9504512 -2.4673815 0.39344272 1.2570294 -0.5807582 0.14878573 -1.0982827 0.16291496 0.95871943 -0.16865322 1.9881446 -0.730239 0.35331774 -1.7915785 -0.9623194 -0.5009973 0.52720433 -0.82469976 -1.0642626 -0.32958165 1.5474703 -0.53516895 -0.17083885 0.6655418 -1.449879 0.98130786 0.5293703 -1.77249 -0.7755679 -1.1522723 -0.041015375 -0.007570715
7 -0.59724665 2.204727 1.4923178 -0.9948055 1.2674013 0.40248454 -0.9937514 -0.49326375 1.5576531 0.37781113 -1.0257976 -0.7205986 -0.27188805 1.9718775 0.61433804 1.3932384 1.1570864 0.59484774 -0.38778266 -0.18344194 -0.63925946 -0.19804192 0.30312556 1.9320868 0.6032852 -0.57079846 0.6422752 0.6762577 -0.26684752 -1.8065312 0.48410818 0.7153822 2.0719123 0.5884705 -1.1049674 -1.8112955 -0.44651583 0.84687006 -0.98451275 -0.53897804 0.115083925 0.304999 -1.1919678 0.42589313 -1.811879 0.28904203 1.107402 -0.36714864 -0.15704574 1.8960544 -0.7173493 -0.056741912 0.6283594 1.3183806 0.7314325 -1.0795128 1.1442137 1.1594423 -0.84416336 1.3754811 0.6143893 -0.67137873 -0.3320969 -0.023484204 -3.2266507 -0.0952051 -0.36256096 0.9199422 -0.1598794 -0.38818374 -0.94827545 -1.9957721 -0.3409114 -1.6996598 -0.2756263 1.0779977 -0.85304916 -0.25798842 0.34394404 0.37094107 -0.6573851 0.024781855 2.0789392 -2.1707914 -0.78224915 1.1193172 -1.4811428 -0.5229116 0.28714594 -0.08808893 0.5483521 0.501151 0.7302064 0.13236524 0.11203273 0.009482536 2.9195127 -2.215487 0.18002838 -0.4239919
8 -0.60119665 -0.51734316 -1.0759388 -0.59966 -0.25993106 -1.7826315 1.6247066 -0.46825907 -0.14192659 -0.1933149 -0.09833129 -1.2487016 -0.2905859 -0.22919205 0.77665555 -0.6158951 -0.10772169 -0.29715824 -0.89772123 0.29631472 -1.1713827 -0.8784587 -0.14705501 -2.1799664 0.51404923 -0.8187978 -0.26016906 2.2892969 0.36381045 0.4369213 -0.48259032 0.2681214 -1.4064627 -1.8634152 0.96075165 -0.14906242 1.2005224 -0.82578576 0.040544376 -1.0366104 0.16059467 -1.2254508 0.52026457 -1.4828492 -0.8607267 -0.6740379 0.08126391 0.545158 1.3235154 -1.8996695 1.122081 -0.13709502 1.0096143 -0.69437826 1.1555282 -2.3405461 0.3106105 -0.7836478 1.5889906 -0.02978012 -0.82609034 -0.91017425 3.0949755 -0.6526228 2.1906228 1.9094435 -0.24406385 -0.40137818 1.0551002 1.7071903 -0.7065536 0.031808034 -0.45425624 0.6208311 0.37781817 1.2841333 0.43835634 1.8761213 -0.46392903 1.3074352 1.1762419 -0.60123515 -0.33018526 0.526299 1.1010078 0.36784422 -0.86717576 0.32547176 -0.30625117 -2.0783238 0.34503433 -1.5590004 -0.35557473 -0.30203483 -0.9383181 -0.20496516 -2.202832 0.17194818 1.0525668 -0.45729128
9 1.0293183 -0.74144745 -0.99018985 1.4507115 0.4014158 0.4768121 -1.203482 1.4563365 0.024603762 0.27881032 -2.0336134 2.0622072 1.8653182 -0.8655575 0.3709067 1.007692 -1.0536802 0.2708119 -2.7783532 0.020739578 -0.6760303 2.4471583 1.1662078 -0.09709347 0.937715 -0.7200376 0.24552394 0.22989225 -0.65984285 0.6215503 0.5287615 -0.30029225 1.3023007 -2.5574918 -1.6261052 -0.33975163 0.7802908 -0.41794366 -0.72435284 0.77716833 0.3381459 0.026647583 -0.76984805 0.95729774 0.118502796 0.6865078 0.25949404 -0.2406741 1.0958569 -0.6710011 -0.008135482 2.1078568 0.025606804 0.5141197 0.02439761 -0.008658958 -1.1406846 -1.7801507 -1.8587296 -0.85331243 -1.6030105 -0.00033573786 -0.8901421 0.9090458 -0.74033076 -0.611108 -0.53857327 -0.08279009 1.6216081 -0.7947101 0.8110833 -0.9620374 0.34617332 -0.2390606 0.030715775 -0.53663355 -0.651088 -2.5819745 -0.69113284 -1.6410972 -0.93440515 -2.370397 1.1374607 1.5911622 0.23708959 -1.5077581 -0.4433607 -0.72895783 0.4876042 -0.30516982 -0.8666588 -0.8691018 1.0405967 -0.38680795 -1.0544428 -0.49455905 -1.549693 1.0635093 -0.21623865 -1.6467308
10 -0.018679604 -1.2454946 -1.1667304 0.7545276 0.6169776 1.6492584 0.7722425 -1.2634186 -0.05029596 -1.6891097 1.7907106 1.0019834 1.677769 3.8143022 -1.0229888 -0.97633773 0.84088236 -0.35149726 -1.9474595 0.6073161 -1.3527057 0.5537945 -1.2671891 -1.4470471 0.8471777 1.1450987 -0.3966943 0.5803249 1.3265674 -0.06644813 0.26092032 1.0957762 0.92109454 -0.05097489 0.89889866 -0.2590562 0.09411192 0.6383798 0.8109874 -0.7069735 0.081654504 -1.3145473 2.3476107 -1.0489347 -0.24203835 -0.7807431 -0.24861489 -0.45152748 -0.88130844 0.5693792 1.703945 0.80418056 -0.795599 -0.60063875 0.9611635 1.2221653 0.83745056 0.9661279 2.3715057 1.9851229 0.6457105 1.0485713 0.39766523 1.8018434 0.46846074 0.35762858 -0.14853233 1.5097047 -0.30044755 0.17740776 -0.7765287 -0.8335195 -0.80260676 -0.33493602 0.39641708 -0.25236177 -0.14162672 -0.970318 0.5841781 0.22878054 -1.0974101 -1.6944753 -0.3971244 -0.29716808 1.6204846 -1.2271403 2.1793163 1.0372208 1.7114668 -0.30429 -0.008643477 -1.5752587 0.18860061 2.7341967 -0.35657933 0.773139 -0.09717713 -1.0628823 0.71258044 1.3908633
11 -0.8036703 -0.89151305 0.41394264 -0.19462496 0.4080718 0.27822453 -0.6239165 0.9343166 -0.44566098 0.79966384 -0.07316986 -1.2774814 0.82246375 0.9475048 0.40466556 0.33344126 -0.91935307 -0.29045394 0.6079421 -0.7294407 0.52885044 0.06473582 0.55977553 1.6009312 -0.043642677 0.6824412 -0.12180834 -0.284136 0.87028027 -0.13916484 0.7593944 1.9157181 -0.9019936 1.4599885 -0.23251158 0.80062497 -0.42162916 1.2940251 0.6295622 0.1591144 -0.18844649 0.7383316 -0.076403044 0.34618533 -0.74365264 -2.0248482 0.86985517 1.8129916 -0.20828757 -0.76655865 -0.5911538 -0.9962732 0.50743574 0.74998313 0.13542223 -0.29467472 -0.22021268 0.32498488 2.2874963 -1.5663813 0.21440093 -0.008274812 2.025482 -1.6049743 0.2977058 0.3423309 1.2313832 0.089016125 -0.06870218 0.68219537 0.5882137 0.523838 1.4542788 -0.48648822 -1.1605932 -0.53168964 -0.6442245 -1.0346118 0.35239014 -1.4804798 -0.66464376 0.47669283 -0.34839872 0.2911682 0.15593982 1.8994161 0.7732956 -0.27400514 0.4190504 -1.1335793 0.11723963 0.68788695 1.2702948 -0.7036944 -0.59582365 0.0696773 -0.72514266 -0.20748602 -0.5572535 -0.075927734
12 0.86621016 -1.2889416 -0.34122387 -2.7479203 -0.9100561 1.1855997 -1.798491 0.494215 0.8560353 -0.28602397 0.45607817 3.0347822 -0.6682064 1.0617658 -0.73029983 2.4395852 0.93990266 0.0120649 0.9380336 0.24524242 -0.6739639 1.2754462 0.68337536 0.10564212 1.6945951 0.7737343 -0.6874651 1.7149417 -0.5282806 0.48430127 1.4480965 -0.47536808 0.48003173 1.5443972 1.4901705 1.6948779 0.20613112 0.7266837 -0.5865662 0.08716513 1.2173823 -0.2417458 -0.22827569 0.12608434 -0.2341577 0.81952685 0.6912782 -1.1206673 -0.35081267 -0.20418116 1.1065903 -0.051430933 0.538978 -1.0557624 -0.92805374 0.89551723 0.9418446 0.6736327 0.45966113 -1.7097328 -0.5353925 0.5382066 0.28837442 0.47924495 0.6818211 0.1451028 -0.31141734 -0.19152099 0.11791224 -0.4495565 0.24095874 -1.2294462 -1.447488 0.74439985 -0.93743485 -0.4255767 -0.51021194 -0.15617602 0.81831425 0.38716286 -0.43181548 0.8194083 -1.1583011 -1.3447685 0.26117614 -0.039638214 -0.20353302 -0.292756 0.2131854 0.06067985 1.485537 0.8627708 0.39222205 -0.5735331 -0.17788516 1.2831223 -0.2558465 0.6643956 -0.41903007 -1.1148092
13 0.059762187 0.58937615 -0.64582795 -0.2996846 -0.36615843 0.38272142 0.21052149 -2.727755 -0.084181964 -1.3954523 -0.1690231 -0.78545624 1.273486 -0.56847996 -2.0309565 0.6595344 1.4129003 1.0053566 0.9312913 0.47703704 -1.1259482 0.37673876 -0.92514575 -0.93460107 0.46327806 1.5613997 0.73002654 0.12836094 0.9115677 -1.257424 0.03425386 0.597176 -1.8923157 -0.03119421 -1.6923553 0.11057848 -0.63306224 0.90524167 1.5201633 0.1889805 1.9932997 0.9441396 1.2280034 0.8479465 0.74068254 1.6074779 -0.20122808 -0.4307623 0.9637224 1.5046283 -0.5481748 -1.1313568 1.3698294 -0.61231935 -0.26659876 0.07832045 -0.10960972 -0.9196184 0.6950527 -1.6635524 -1.5705425 -0.8149193 1.8178471 -0.19252692 -0.57474476 -1.5970649 0.8723008 -0.6909654 -1.9951109 0.12148325 0.10781318 -0.575291 -0.06134162 1.0602645 -0.74450624 -1.1080325 0.50190336 -1.2383013 0.76352024 -0.3521866 -1.0693986 2.210721 1.0317581 -0.3625829 -0.51251316 -0.6659602 0.3701028 -0.019255709 -1.3715844 1.7108922 1.3536283 -3.1281676 1.7612238 0.3862582 0.8295152 0.26573387 -1.066442 0.20267054 -0.03309095 -0.7849519
14 0.037840605 0.7056167 1.8300939 -1.033614 0.39375892 0.9293516 0.7843299 -1.4337496 -2.5811918 -0.431143 -0.6656033 0.09688225 0.5366141 -0.13323815 -1.06114 -0.29885677 -1.590932 0.52487195 0.025099162 0.635357 -2.0400345 -0.5464542 -1.0712447 -0.5254582 0.51743686 0.2398002 -0.33198714 -0.15016556 -0.18362865 -0.54207855 -1.0301905 1.9471761 -0.42733142 -1.4030193 -0.72192013 1.0055658 -0.41841227 -0.16995966 1.9071813 0.6107809 1.8339632 -0.5879438 -0.26881653 1.2898426 -3.495915 0.30726928 2.797615 -1.0945425 -0.5040783 1.1382957 2.105363 0.24682647 1.0069103 -0.086016096 1.1133399 0.48430884 0.35527033 0.15004584 0.6021013 0.44216225 0.4593864 -0.31839272 -0.066646725 -0.8203657 0.79523873 1.7217535 -0.75854 -1.1439338 0.12498928 0.16296946 -0.91099495 -0.6198708 -1.42607 -1.4360988 -0.73453164 0.20868573 0.4214996 -0.36924517 0.37078193 3.024868 -0.19437297 -0.9543283 0.15273033 0.89691544 -2.4699333 -0.93012923 0.21931912 1.6098863 -0.1680454 -0.6592048 0.7305717 -0.6423008 0.034684073 0.59667414 1.2744381 -1.4434426 -0.5161509 0.80539775 -0.6145302 0.49284115
15 0.5972157 1.3840034 1.2595218 0.5211013 -0.13064574 1.2491453 1.2582642 0.05106699 0.9661937 -0.10598147 -0.79110223 -0.002207358 -0.9574353 -0.1355282 0.2003328 1.148693 -1.5619459 1.322668 -0.02852644 -1.0248358 0.5272199 -0.15023766 -0.8638321 0.21908727 -0.36438048 0.3986222 -0.4861163 -1.4638776 -0.77950597 1.6847061 1.1983092 0.92083657 -1.1927269 0.1458791 -0.2491187 0.15831693 -0.8419945 0.7861501 -0.31664693 -0.8348762 0.32531103 0.2340203 1.5772398 1.4308374 1.5192515 1.4565283 -0.3224388 1.0888351 -1.0777943 1.4284612 -0.5457737 0.3981291 0.043459415 -0.8254261 -0.048233483 -1.6154658 -2.098039 0.8373671 0.42978853 1.0254033 -0.1924249 -1.1852092 1.5244329 1.6036088 0.72210485 -0.37640846 -0.28578138 -0.0977169 1.0674742 -1.033494 1.4614568 1.215127 -0.044580374 -1.1400459 -1.3511462 -0.555854 -0.9161738 -0.7396835 -0.25988895 1.7322398 -0.74790037 -1.1856829 -0.031695005 0.85847807 -1.4704705 0.3999026 0.4817377 0.3466491 0.06263939 -0.21722777 -1.0621586 -0.22741763 0.20745502 0.38512278 0.29459453 0.352908 1.3479872 0.15844421 -0.103954226 -1.9610136
16 0.0048689325 -1.5144693 -0.15496367 0.27987054 -1.6201369 -0.039179143 1.3732661 0.4975725 -0.31130102 0.870817 -0.67707497 -0.66768706 -2.5383956 0.2843538 -0.6198492 0.47231188 -0.86812913 -1.5219318 0.6945764 -0.32609904 -0.43225166 -0.9206355 1.2310811 -2.2157092 -0.31767035 0.32107157 -0.3003876 0.062822856 -0.01882495 0.65950793 -0.08327505 -0.3410496 -0.9331364 1.0771093 -1.6034528 0.93454856 -0.26238844 -1.1871226 0.53863925 0.78898984 0.41336864 -0.37288564 1.5578061 -0.29447928 -0.72473305 1.2480526 0.78626114 -1.4308839 1.8311306 0.028704965 0.35221428 -0.26592177 0.835736 0.0008381934 0.7384983 0.5269365 0.6819229 1.1778885 -2.1825507 1.022898 1.7039093 -0.2478576 1.2390988 -0.21254405 1.080427 0.3518969 -0.43491712 -1.0283194 -0.7917794 0.12254842 0.7487988 0.9431317 -0.5409427 0.6445975 -0.11130569 -1.0804665 -0.38174215 0.291797 0.6956549 -0.3843885 -0.40172207 0.90900457 0.016291019 0.19357574 0.46714842 0.59475434 0.020279836 1.0498232 0.7275653 0.5184495 -1.0187215 -0.98160475 0.35910347 1.576308 0.19896698 -0.9599899 -0.9618799 -0.32902396 1.1382966 -1.4291075
17 0.85744447 0.22064538 0.6032601 -0.71071446 3.254092 0.5009357 -0.7902692 -0.9410527 -1.1904715 -1.0282682 -1.6095471 -1.8879257 -0.084289335 1.0979315 -1.5990952 -0.7521335 0.9454942 0.5377213 -2.8708615 -0.7918164 1.8525918 0.43756875 -0.6735169 -1.3577198 2.069745 -0.14252505 -0.12106992 1.7718441 0.0950437 -1.3509408 1.5624273 0.36731896 -1.3162267 0.46811032 1.8903884 0.6768075 0.71805173 1.0712085 -1.8201411 -0.2209646 -0.018025085 -0.16899869 0.7620357 -1.8999747 1.4397614 -1.450942 1.6837417 -0.49812943 -0.6537595 0.493732 1.7197446 -0.13320225 -0.8368622 -0.2654637 0.14517495 0.74678665 -1.9879293 1.9620296 0.644351 -1.671985 0.9068598 2.1684706 -0.2713282 0.42500687 -1.0918701 0.4731151 -0.46435514 0.053408735 -0.9449831 -0.66299075 -0.70183057 -2.7518115 -0.08260952 -0.21657145 -0.32139245 -0.31345588 1.102093 0.0074230074 -0.67229676 0.1910517 0.6087405 0.24478546 0.65237784 0.73000354 -1.0030363 1.8372784 0.5007296 -1.5604596 1.294363 1.0601953 -0.70265055 -0.91711354 -0.6050292 0.87332535 1.3702773 -1.1249171 0.21351555 -0.10768237 0.98472226 -0.31692973
18 -1.1559765 -2.0341299 -0.15318553 0.17712505 -0.37989834 -1.349532 0.22967528 -1.2425346 -1.5859029 0.40946826 0.93516546 -0.81195986 -1.1011928 -0.040918585 2.210139 -1.009227 0.04148785 -1.3235041 -0.63237673 1.5796098 2.1095006 0.45115712 -0.3569763 0.111147135 -2.202988 -0.79617566 0.28022048 1.114097 -1.3418677 -0.1975155 2.8351452 -0.40862095 -0.23698516 -0.07848193 -0.22541216 1.7132101 -0.94927 -1.5231699 0.13989377 -1.1897227 0.85107577 0.29336125 -0.968315 -0.09552857 -0.629111 -0.88525903 -0.38238907 0.5262605 -0.11158929 0.15811403 0.6332323 -1.1658535 -0.36067158 -0.21127726 -0.44379672 0.49745053 -0.18263392 -0.71565264 -1.05123 2.8013344 -0.20208332 -0.4264713 -0.8756126 0.95387405 -1.5131088 1.0528841 -0.023952696 0.6197661 0.9827132 1.1992422 -0.18734783 1.5135856 -0.33496836 0.48970434 0.9374583 -0.5524004 -0.6516803 -2.479422 -0.4063606 -1.0387357 0.3013203 2.435435 1.6141448 -0.17084458 0.75867546 -1.2162585 -1.2794715 -0.10397381 0.21282512 -0.5255605 1.5745934 0.0027560908 -3.045755 -0.6868174 0.39616078 -1.2416502 1.1451336 -0.84443295 -0.3314906 0.5678865
19 -0.5053271 -0.49941283 0.5029413 1.1533715 0.16658285 0.07371772 1.2659594 0.31487575 -0.5575243 -1.4843907 0.34594277 0.017926276 0.50573224 -1.1418014 1.1926564 0.7139866 1.901542 -0.4665944 1.3469118 0.78270864 0.42574304 0.113296546 -0.004879193 1.0002106 -0.6283549 -1.7955364 0.44005567 0.1620354 -0.060667552 0.23564377 1.899956 0.31163022 -2.0195594 0.2510185 -1.2463722 1.7256494 -1.4214782 -0.7384675 -1.6370237 -0.8326324 -0.921519 -0.083726116 1.3640738 0.31384084 1.4430188 1.4067825 1.953028 -0.9168209 0.24269125 -1.0099378 0.5059726 2.0396802 0.6703939 -1.9208494 1.076688 -1.1853185 0.12568066 1.6018245 -0.4198351 -0.60752505 0.3630509 0.62121236 -0.13396259 0.059951816 0.6925414 0.8074633 1.0913857 -1.3635015 -2.0125186 -0.53735715 -0.49825454 0.8565598 0.13287292 0.16252437 0.057536043 0.71001834 -0.20970078 0.6895988 0.3571751 -1.5146435 0.18448293 1.9297944 -1.6200064 0.97176266 2.2196927 0.16736472 -2.0698638 -0.42407474 0.620316 1.4197482 0.7028994 -0.043807432 -1.4957322 -0.9666177 -1.5750873 -0.19488753 0.50486094 -2.2741435 -0.15484053 0.59726083
20 -0.5732243 -0.9131713 0.47639441 -0.78379846 -2.4327784 -0.7863312 0.33661443 0.21663666 -2.4240754 0.9230941 -0.21428153 -0.56661874 -1.1871504 -0.32773578 -0.65024513 -0.23747347 0.9909317 -0.46782085 2.3841252 1.7772777 0.32838488 -0.11081167 0.6935469 -0.6631968 -0.11909636 0.20604034 0.33216745 -1.1478043 1.1607357 0.13888374 1.1083568 -0.25722122 -0.18798873 -0.100890644 -1.1508871 -0.43129212 0.30066377 0.6041229 0.35879102 0.23425415 -0.85828084 2.1203294 0.28241783 0.5367765 0.04738429 0.76666707 -0.08681492 0.3928299 0.1333257 0.25114805 -0.5383818 0.7875602 -1.9979814 1.8860697 0.43326908 -0.32287362 0.35970432 -3.2491672 -3.0161462 -0.58198327 -0.7560273 -0.14654641 0.7221879 -0.34864247 1.4253514 0.87369657 1.9897466 -1.0335772 0.16991954 1.401668 0.018229436 -0.44425416 -0.4114714 -0.8351077 -0.7942327 -1.3557893 -1.150247 1.9176055 1.4836361 -0.7229919 1.6800389 -1.2283616 0.78460395 -0.27728486 1.5284913 -0.3819542 -0.12216229 1.2040666 -0.8420553 1.4201871 -0.7974166 1.1016898 1.1269301 0.21935329 0.32487246 1.1760108 -0.12722166 -0.8328216 -0.7828442 0.17937183
21 0.14343207 0.49787524 -1.1977679 -0.9779158 0.69876075 -2.470766 0.56157064 -0.79543513 -0.30789196 0.5888721 0.6535187 0.4083161 -0.50159466 1.9458194 0.61199486 1.0458584 0.98116946 0.49083096 -0.7740659 -2.2505786 -0.16277188 1.5315474 -0.82951593 -1.251958 0.7126707 -1.7994229 -0.5074211 -0.20548496 0.79408723 1.5737439 0.20152813 0.67968 1.5974491 -0.31773016 0.10842844 2.7709115 -2.5731494 -0.4226926 -0.27320382 0.87823576 -0.057604842 -1.696798 0.17952433 -0.6883651 0.7494119 0.7737654 -0.4273372 -1.472763 0.594036 -1.4148936 1.0682181 1.4403179 0.20259921 0.7803219 -0.8861829 -0.223458 -0.63667 -0.98846805 -0.7781812 0.060759455 -3.292363 1.1647018 0.31418592 1.8370471 -1.1028888 -0.59483945 1.2653266 2.1441357 0.031165143 0.6397941 -0.07912441 0.86639744 -1.9244027 -1.6687688 -0.6231469 -2.390124 -1.0404009 -0.44854087 -1.5394179 0.83763975 -2.2878866 0.71696746 0.3192076 -0.4741288 -0.7844541 0.2952752 0.08405656 -0.5905686 2.5235314 -0.52988815 -0.48730838 3.761114 1.1553651 -0.4799647 -0.49060884 0.20230924 0.37618732 0.045542292 -0.575617 0.3523474
22 1.0625917 0.46323267 -0.26165706 -1.3168349 0.3072251 0.020557895 -0.65790105 1.3546884 -0.38117927 0.5338765 0.13640037 -1.5160865 -0.514754 0.12548697 -0.6759742 0.8918772 0.39491004 0.63916737 0.45603284 -1.4018794 0.07236177 1.1982036 0.31963822 1.9581935 1.5928736 0.4694551 0.30673432 -0.09992393 -0.29173204 -0.6608638 0.30591133 -0.25678873 -0.47634858 0.098353975 0.4946123 0.25131446 -1.0523341 -0.36058393 0.6827928 0.36811996 0.4670341 -0.3791233 -0.90178424 0.70490557 0.30189034 -0.19182855 -0.28414348 0.9924786 -0.52200663 0.55349463 2.5650272 -0.8272267 -0.68548024 -0.20138101 0.015689122 -0.46168163 -0.7938554 0.6803628 1.358283 0.18643288 -1.4745786 -0.7512532 0.29053214 0.035876885 -0.6881067 0.29164812 0.4182123 2.632767 -0.25016868 0.22519678 0.015768437 -0.18387826 0.10902737 0.8101385 -0.54321 0.44315058 -0.8262424 1.0570228 -1.672692 -0.6590288 1.4514834 -0.6526291 -0.0534332 -0.064693846 0.12454693 0.8857216 -0.9881646 0.8648017 -0.114427805 -0.86934185 -0.6996259 -0.63888377 1.9105289 0.36362633 0.101721115 -0.21473984 -0.19842725 0.85200834 -0.41855028 -0.5117682
23 0.42021915 0.40499642 0.64179313 -1.0437975 -1.4062489 2.115068 -2.1896536 -0.31415015 -1.3377459 0.6475754 0.1184587 -0.69672364 -0.8021592 -0.7216771 -1.4535551 -0.06402492 -0.5013583 0.5066934 -0.8311462 0.042556785 0.23480873 0.30187243 -2.0121114 -0.23935403 -1.2668576 -0.3343674 -0.0022203329 -0.6641873 0.9622581 0.9604302 0.05801654 -0.36780596 0.17555453 -0.29829642 -0.83763003 -0.23398301 -1.4374067 1.335126 0.6871977 -0.42919815 -1.38418 1.6424981 0.63211924 -1.6035712 2.1309578 0.1521164 0.5252828 -0.76344794 1.085361 0.26380882 -0.3822673 0.02470129 -1.1651754 0.8723556 -0.14917119 1.7485192 -1.1162804 0.7684228 -0.5243764 -0.61267084 1.5634798 -0.6737138 -0.86352235 1.3663204 0.33849764 0.74353385 1.7827535 -0.56408405 0.7602934 0.763939 2.2774098 -2.255442 -0.8975274 0.76557326 -1.0615608 0.2491321 -2.7692723 -1.7412202 -1.4381967 -1.8997027 0.6874209 -0.41365096 0.6643044 -2.1410112 0.86807805 0.04331015 -0.9820787 -0.9700573 -1.3336428 -0.6763366 0.73576814 -1.816061 1.000891 1.9477984 -1.5447612 1.4090561 -1.2350066 0.9714543 0.520765 -1.3541616
24 0.45066693 -0.8725784 0.9990585 0.55411696 0.7285616 -1.9903383 -0.7019321 0.21500844 0.30180106 2.1027095 -2.0650206 1.9182283 -0.50456685 -0.49069503 -0.4008478 0.12673047 -0.839731 0.31825292 0.20401868 -0.8079549 2.0959706 -1.9385252 -0.19346553 -0.16404189 0.95634615 1.0688174 -0.46668372 0.92270553 0.28034076 -2.0015397 -0.42120102 1.1088934 0.017566597 0.6623032 -0.51768124 -1.2755066 -0.47697183 -1.2835199 0.4051712 -0.6323542 0.9477735 -0.33681932 0.5471576 -1.296135 -2.6326175 -0.9949764 0.10573344 -1.284623 0.6090105 1.1073471 -0.49788243 0.34732953 -1.0362952 -0.1636701 -0.41573596 -0.7128358 -0.23486748 -0.43184587 0.7032632 -0.7836138 -1.859572 0.48149952 -0.39625204 0.35886362 0.1992351 0.43156937 -0.6715486 -0.47487542 -0.21445753 -0.57078123 1.0681688 0.6396773 -0.035924666 0.6598427 0.55606556 0.1354735 -0.58554596 -0.7243944 -0.19264199 -0.9168702 0.116971135 0.008574702 -0.79411936 -1.1891603 0.56335104 0.51821476 0.65749097 0.9572001 1.5000004 0.7625855 0.5921637 0.102680184 -1.1715828 -0.659045 -1.2380811 -0.5459562 1.0404272 0.8216169 -0.02979108 -0.30636212
25 0.90764827 -0.92615026 0.43533108 0.8203283 0.8442339 -0.15290971 1.4645982 2.0319314 -3.1121325 -0.13659824 0.38365522 0.6707203 0.8595878 0.42598763 -1.1899339 -0.8726609 0.4410384 -0.13616508 0.82639146 -0.12261824 0.7642155 -1.4388545 -1.0772892 -0.49948883 0.7941737 -1.3589891 0.35561803 -0.050621197 0.6624225 -0.7031 0.23120955 0.6830226 0.622972 0.74121237 1.7597617 -1.1541716 -1.8903294 -0.23349953 -0.2361129 0.04103199 1.0282811 -0.6643154 -0.40152243 -0.16457391 0.74288267 -0.7668691 -0.9793323 0.156663 -1.0806749 -0.51132846 -0.77556777 0.20377894 -0.6038734 0.44922382 0.39995274 0.6021719 0.67733395 -0.27945638 0.97444236 -0.44708827 0.36754364 -0.076955356 -1.2406985 1.325677 0.679162 -0.1852848 0.84368956 0.33593252 -1.0035125 0.75738674 0.62448925 0.90290076 0.97838 -0.045240108 1.0057876 0.6746624 0.04800294 0.3937686 -0.61279005 0.7763404 -1.0191565 0.2607563 -1.2622689 0.7255953 0.2771283 -0.94845295 -1.1498342 1.120072 -3.080986 0.075669914 2.5316644 -2.3705964 -1.942866 -0.87190795 -1.0941485 -0.9289358 -1.9459251 -1.9526443 -0.06880673 0.87371165
26 0.829498 0.047671188 0.29349372 1.4331944 0.6840598 -0.8213359 0.16230421 -0.3782337 1.7117512 -0.041938607 -1.7775499 1.0842178 0.6325643 2.42056 0.3004987 -0.9015934 -0.85637873 0.56436414 -1.6756241 0.25138605 0.25987467 -0.31041348 -0.38183028 0.8532569 -1.1500322 -1.3272258 0.5601292 0.9009756 -0.33298054 1.9087374 0.7929282 -0.60757154 0.22190166 1.1924255 0.5563806 -0.12826626 -0.8063337 -1.8385952 1.4497614 1.3395122 -0.6934066 -0.14848468 -0.23951674 0.14436455 0.342762 -1.7110059 -0.20037264 1.5647452 -1.0872993 1.1825076 -1.2920939 -0.48353833 -0.83468246 0.038041215 0.06799379 -1.5891333 -0.29837763 1.1991162 0.06441341 -0.31652048 0.6596177 -0.30843133 0.8236309 -0.772941 0.15748136 -1.0584253 1.1789972 -0.0963774 0.39523473 -0.660081 -1.2366238 -1.2341163 -1.0064898 1.8863637 0.5216251 -0.113895334 -1.4939705 1.7100443 -0.31855592 0.6627012 0.400825 1.6098491 -0.57398796 1.2921087 0.99921316 -0.55612826 0.5752781 2.127502 -1.1722108 0.38539183 0.44336402 0.49152726 -0.13792016 0.23635653 -0.82620907 2.407169 -0.08979777 1.5496044 1.4076986 -0.2649369
27 -0.6682919 0.848667 -1.590512 1.2215611 0.8712776 0.826042 -0.13586494 1.2427188 -0.28876743 0.9366511 -0.48704565 -2.4853625 0.9799897 -2.2518322 0.41132438 -0.17496513 -0.0914352 -0.9911876 0.35823572 -1.1803106 0.13738158 0.5339367 -2.8123279 0.20675185 0.4063142 -0.5575591 0.31120002 -0.79373044 -1.7448847 1.3309319 -0.98751307 -1.192286 0.6720664 -1.4446293 -0.66034174 -0.0996641 -0.31490415 -0.9771731 0.40301543 1.5489601 -0.07256122 0.3111674 0.08985572 1.2460957 0.5893766 1.0562139 1.6940856 3.0162144 1.1209553 -0.7660569 -0.67455304 1.128488 1.9204092 0.07431978 -1.1296978 1.3934447 -0.68682444 1.8275723 -0.06070307 -0.8181016 0.1060619 1.5220963 0.7762617 -0.1930965 -0.044990677 -0.11164783 1.7573016 -0.42343384 0.47244436 0.97469497 0.7002146 0.22509952 -1.0037339 -0.51608807 -1.9303962 0.9720803 0.6275297 1.3679475 0.7506855 -1.1492053 0.5750562 0.47534195 1.1542617 -0.80034727 1.4028391 -0.75558287 -0.2822827 2.3550692 -0.19587566 0.49276084 0.5761088 -0.82878447 -1.959397 -0.14085773 0.85412097 -0.00225005 -1.8335041 -1.5511457 0.20524766 -0.8007764
28 0.6874112 1.2607509 1.1131036 0.0505202 0.9766295 0.243141 0.03338419 -0.530906 -0.14452322 1.7924836 0.5905108 -0.23814812 0.28709778 0.077640966 -1.0453445 0.31276903 0.56861746 -1.4904581 -0.60639054 -0.53287894 -0.60330063 0.6589955 0.6730943 1.2266182 0.58341074 1.677367 -0.1991846 -0.01772587 -1.0638776 -0.049530894 0.62758094 0.6027315 -0.51194745 0.31007922 1.6084185 -0.016098686 1.429972 0.08169162 -0.34864488 0.8360964 -0.69988996 -0.48432902 0.86727095 0.09229178 -0.6554912 1.0305549 0.7166342 -1.1825068 -1.857079 -0.56715506 -1.3892318 -0.21231933 0.17573605 0.6556984 -1.8624574 -0.5688567 -1.4551924 0.25834128 -1.7168471 -0.34217918 -1.093887 -0.7264184 0.2687824 -0.8561585 -0.3425349 2.3224635 -0.08036171 1.7807354 -1.6495394 -0.6547623 0.112280734 -0.39948514 -1.1004297 -0.88813865 -0.648986 -0.6773589 0.24329849 -1.1824776 -1.0308269 1.6122972 0.49157843 -0.4901586 0.39910337 -0.2791803 -2.34606 -0.06261197 -1.7582814 -0.20648114 1.4705762 -0.214136 -1.4733516 0.47307596 -0.65965295 -1.2696869 -0.061397403 -0.2955715 0.8489455 1.2079848 -0.47131062 -1.0586505
29 0.50668204 1.7419327 -0.72836316 0.36820042 -1.2262337 0.3576267 0.99562055 -0.3276538 -0.19691318 -1.2307 -1.3013129 0.66839164 0.18873999 0.4774087 -1.1930238 0.6253191 1.0632045 0.9682915 0.15104799 -0.7336987 1.4538656 -1.1844314 -1.0722339 0.35261822 0.7142517 -0.19881512 0.21548663 -2.5007474 1.3705894 -1.5485879 0.29349783 -0.91581327 0.26737005 1.2348695 0.3424312 -0.55219233 0.90021616 -1.7005631 1.5877522 0.2297452 0.6273513 -0.0028738766 0.16510108 0.30044642 -1.5760819 -1.4309658 -0.32796785 -0.13500954 1.6689163 0.21250989 1.3495711 -0.7527069 -1.6501724 -0.11190734 -1.058694 0.7802195 -0.22635594 -1.1766226 -0.58663785 -0.679845 1.1184138 0.8298016 -0.2819948 0.5159806 -1.8288237 0.9085922 0.665337 0.15626803 0.61955327 -0.23623255 -0.20282948 -0.03550777 0.63506705 -0.35609657 -1.3997649 -0.09341961 2.0696616 -0.500304 -1.7300401 -0.58241737 0.61332256 -0.29047868 -0.8045857 3.1703048 0.4500207 -0.012336515 -0.9483075 -1.0970731 -0.97710896 1.3012952 -0.67871904 -0.5043335 0.6823166 -2.7970533 0.9611057 0.7574768 0.3795232 0.49426427 1.5989676 -0.13063511
30 -2.7457337 -0.6111858 -0.56572616 0.36935493 -0.6322529 0.04089835 -0.58572376 -1.1708986 0.9657417 1.4930937 -0.45489347 2.1014779 1.1369449 1.4848759 -0.90489185 0.021323116 -0.6397402 -0.0228249 0.96798104 0.36672083 0.223312 0.54884213 -0.32896942 -0.39160654 -2.5424037 0.5864248 2.2911425 1.44725 -0.8169292 0.21730211 -1.6772703 -0.6156918 1.1749254 0.53863364 0.92496675 -0.2519632 0.87900734 -0.4816962 0.8178088 -0.6744229 0.98072135 -0.5058924 0.6015264 -0.42443937 -0.76781416 1.707467 -0.29187408 0.14453359 0.18722785 0.951164 1.1544877 1.3816011 -0.5476427 0.4543846 0.04147082 0.18007186 0.57175595 0.07805068 0.8232002 1.6105258 -2.455564 0.07011674 -0.67547256 -0.62998974 -2.1793213 0.21796076 1.7768074 -1.0753117 0.23848814 -2.1146824 -0.45733255 1.0023457 0.6822382 -1.3100302 1.1641569 -0.5209552 1.2316226 1.0161172 -0.25579152 0.7364753 -0.43357927 0.4469114 -0.097462416 -1.5358956 -0.6726361 0.09921859 1.2439125 0.11351914 0.935148 -0.6084275 -1.8640264 0.6206291 0.5327869 -1.2167981 -1.1412601 0.057134204 2.041351 1.1129844 -1.3565129 -1.5584446
31 0.48366967 -1.3423582 -0.0968343 0.4066063 -0.9002142 -0.14925759 -0.25261027 0.31126064 -0.92845786 -2.2840052 -0.5410796 -1.0002865 2.044565 -0.9760664 0.015626485 -1.4572048 -1.4116114 0.15644392 1.4575846 -0.24350221 0.3490668 -0.99354684 1.6198872 0.81623966 -1.248698 -0.24913158 -0.047206074 0.74917144 1.8607658 1.3083733 0.29892808 1.2031096 -1.7249779 0.23938797 -1.0438284 0.4812284 1.6190763 -0.24840863 -0.8766958 0.7439373 -2.204458 0.2892572 -0.19031873 1.2827163 0.91572696 -0.9614213 0.15794091 -0.08470429 1.0656103 0.40825772 0.3813162 0.5996468 -2.0036938 0.31308275 -0.3644644 0.97783524 -0.19426847 -0.37436822 0.19855462 0.23870878 0.87360054 0.15449569 -0.7333141 0.18518601 0.37319162 -1.312973 0.8694868 0.36244544 -0.3157355 -3.3938043 0.6757566 0.164428 1.0834967 -0.2845499 1.3849266 -0.83001226 1.7471441 -0.92157686 -0.043842714 0.91665435 -1.7188928 0.9375612 -2.1047373 -0.95871997 0.64323115 1.2218757 -3.2935247 0.92619604 1.0284858 -0.41255608 0.19459641 1.4005247 0.07399518 -0.28174916 -0.461588 -0.11032242 -1.0555463 -0.11567862 -0.42287496 0.7082623
32 -2.131104 0.9988986 -1.1965969 0.12638593 -0.030709537 -0.40649617 0.5746364 -0.26309645 0.100132 -0.4600129 0.4847843 -0.2410092 -0.95653397 -0.73503953 0.115915276 -0.6309137 -1.0153883 2.4645703 -0.5297215 0.13781911 -0.8282279 -0.39767075 -0.8423865 1.0959585 -1.1017613 2.6726854 2.2447722 0.1903543 0.61850256 0.18569763 0.7466421 0.27363145 0.9011681 0.54925835 -0.43590188 0.8465854 0.507701 0.130524 0.62539923 0.62592524 1.5206715 -1.2048022 2.4880443 0.3047172 0.79793817 -2.066473 -1.5199245 -1.3635943 1.085937 -0.9626298 -0.2785937 1.1673304 0.21117309 1.022432 0.034912445 -1.1035104 1.5228608 0.2918454 0.8241 -0.12951665 1.5580163 0.9790258 0.5341836 0.29989442 -1.098325 -0.008962916 1.0296241 1.664369 0.26816452 -0.1643613 -0.30420962 -1.8859203 -1.1040004 0.5108345 1.1514125 -0.22959809 -0.59696215 -1.4226043 1.6998054 -1.2149972 -0.9752529 -1.0229949 1.7159989 -0.2018519 1.7347672 -1.0084714 -0.886073 -0.2240987 0.94313276 0.18723658 -1.5958903 1.501287 1.2713064 0.336668 0.12995844 -0.61848605 0.38004628 1.0756899 -0.049692027 -1.1564451
33 -0.3680435 -0.46447563 0.12877634 -0.6107488 -0.31254235 0.7212129 -1.2649617 0.9447076 1.3957267 0.009305547 -0.05641972 -0.12065204 -1.570575 -0.9799333 -0.12907538 0.6828551 -1.8282671 0.5570859 -1.1529725 0.30435976 -0.076633394 0.9712027 0.6225377 1.2792048 -1.6945218 -0.34066582 -0.5805629 1.5751098 0.32211292 0.5996882 1.7357026 -0.45065278 -0.3481649 -0.4187153 0.93120784 1.781306 0.8550028 -2.5550468 1.7837262 -0.20909642 -1.0228643 -0.521121 -0.68313104 0.7541162 -0.5944429 1.7346283 -0.1228405 -1.5129913 -1.8490784 1.118215 1.3245118 -1.4388179 -2.6881495 -0.010656642 0.61641335 0.56233466 0.07208873 1.3455725 -0.34454104 -0.07186237 0.5663185 -0.7499858 1.2164551 -0.43846872 1.0206681 -2.4691722 0.146262 0.05206395 0.9360313 -0.84345406 0.42894506 -0.86615723 0.39776182 1.2193387 1.500782 -1.593878 -0.7950977 1.85679 -0.9726855 -0.24210277 -0.23326667 -0.88349265 0.8954119 0.27535233 -0.8115709 -0.5284032 1.972377 -1.8984194 1.4751197 -0.32059595 -0.8386916 -1.4151931 -0.03941143 -2.011609 0.92935216 0.6771733 0.7163783 0.31118587 -0.40725437 0.3159534
34 -0.2687856 -0.063096575 1.3821917 -2.2322693 -0.8251414 0.5190338 0.47690615 -0.13666587 -0.5395596 -0.41643953 -0.515336 0.09562902 -0.31101248 -0.71607375 0.21271911 -1.4399319 0.62777376 1.4567682 -0.3842953 -0.6867638 -1.4987733 0.6708623 0.7891548 0.059883676 -0.83379304 -0.5383962 1.4283149 -0.14574434 -0.0925125 -0.63364947 -0.4352491 -1.3567845 0.36925128 -0.86816126 -0.45470694 -0.19520622 0.5378297 0.69091547 1.5822073 -0.9100251 2.6585226 -0.80815804 1.064068 -1.4712338 -0.71657753 -0.058853615 -0.48744854 -0.53803074 -2.334865 0.7199823 0.14026585 0.7525537 1.2606416 0.041305218 -0.20654488 0.01989367 0.421916 -0.16787358 -1.1684759 -1.5688812 -0.8580288 -1.0980686 1.3639357 -2.154113 1.5153036 0.6547614 0.76515734 -1.0513572 0.939704 -1.9841578 -1.248078 -0.8579043 -0.30234024 -2.1722412 -0.8919129 0.6782667 1.0103381 -1.3870742 0.67088556 0.1305262 0.41543707 0.78594893 -0.9118089 -0.27829057 -0.026853075 -1.6968495 -0.5027654 1.5552083 -0.021560414 0.54304415 1.6123013 0.25855508 0.7682545 -2.8342564 0.7675807 -1.1385133 1.2211835 0.0814455 -1.0156013 0.06967782
35 -0.16647744 0.50064045 -0.1760761 0.50319403 0.70855415 -0.1648275 0.16649613 -1.0855483 -0.08553428 1.0285267 -0.62596196 1.8433588 -0.050638873 -2.1939056 0.41603354 0.77328277 2.4752886 -2.1690397 0.39822832 -0.2367477 1.3292738 0.30124912 -1.1177608 0.84102607 -0.5194522 0.1570723 -0.26364678 -1.5507566 -0.9783896 -0.7799872 1.0085075 0.9829424 -0.43436128 -0.56848097 0.5396953 -0.43450725 0.6892991 0.017664451 -0.14119434 -2.0184937 2.5487268 -0.94704914 -0.9118282 0.52035505 -1.4641511 0.5486124 0.067928 -1.4387813 -0.9947372 -0.041068163 1.4450997 -0.8602559 0.70214355 -0.7585597 -0.73694277 -0.49985376 -0.41953534 2.3538523 -0.90168846 -0.19374964 1.4878852 -0.33699656 -0.6455039 -0.6230596 1.0066024 -0.14379191 -0.59262276 1.336144 0.31620854 1.4738464 0.08859881 -0.33634165 2.2757385 -0.83768207 0.48541808 -0.5141091 -0.14104004 -1.2083821 -0.7809899 0.72570807 0.40563625 -1.1042427 0.64105725 0.25303197 0.4772968 0.77404064 -1.1828556 0.0029292237 -0.70734805 2.4155753 0.8760091 0.4126988 -1.9970292 -1.1604445 0.23207396 -1.733346 0.36943766 0.6407705 -0.6490638 -0.26277786
36 0.2094673 1.2387815 -0.37960213 1.8709915 -1.0167567 0.95067453 -0.09240357 1.2191801 0.21577643 -0.20679916 1.4183081 0.72399366 2.1579404 0.5622786 -0.037140664 1.1902494 2.2028365 2.1803033 -0.16857289 -0.48287717 -0.77842116 -0.16885294 1.2039461 -0.7876897 1.5568812 -0.76423526 -0.11195732 0.21893229 -0.15633506 -0.81690145 -1.0285454 -1.3166198 0.09272473 0.45571974 0.47801805 0.3404738 -0.64568067 -1.4654381 -1.0240477 0.70858306 -1.267671 -0.81161565 1.3611494 -2.2849581 -0.63931054 0.24686357 -1.1678436 -1.0290962 -1.449694 1.8833008 -0.14392024 -0.33345646 1.1334385 -1.6562432 -0.2810844 1.5644383 1.3469484 1.5819796 -1.1212256 -1.2396023 -0.14285041 1.6390576 0.11205645 -1.2146995 0.48319498 0.10691882 -0.07172181 1.7509059 0.97281915 0.85308725 0.5148359 -0.32770392 -0.37547034 -0.05139829 2.1874232 1.4625202 -0.1581909 0.3270913 0.45936278 -1.1081772 0.44488582 0.15786693 0.82573277 -0.25582755 -0.59342015 -0.7877977 0.80918187 0.5631878 0.7307557 0.30987525 -0.66626275 -1.1182158 2.0440385 0.31390315 -1.0685749 0.56926966 -1.1915383 -0.3149476 0.43746907 -0.6882079
37 1.6289715 -0.6072204 -0.62715846 -0.5680519 -1.045207 -0.6753578 1.1891263 1.6259828 -1.0718645 0.94209194 -0.8903851 -1.3020265 0.0307593 0.3792548 -0.52641565 0.39785564 -2.4520144 -0.4708797 -0.33051926 0.3155198 0.7618482 -0.2881428 -1.0213766 0.88541424 -0.7608684 1.3773277 1.4611852 -0.06052078 0.9946679 -0.3392277 -0.8672826 -0.060359966 -1.059308 0.48968583 -0.9600859 -1.0139359 0.8692963 0.49769616 0.6046288 -0.5461462 -0.65048903 -0.7008495 -0.27683917 -0.30204007 -1.4156218 -0.86934215 1.5623 -2.4364786 -0.50648654 0.031832524 -0.6616692 -0.32025075 0.41674584 1.6809325 0.40019408 -1.1296954 -0.2819982 1.2573658 -0.8082797 -0.9734477 0.11498356 -2.121644 0.5009701 0.40729323 0.17753273 -0.8155986 -0.08215055 -0.3613888 -2.115262 -0.8413164 1.0283214 -1.0917895 1.4686902 -0.23120654 0.38447058 0.45545742 -0.83245254 -0.645388 -0.4646847 0.007116439 -0.11278263 -2.1572843 -0.20961806 0.57029575 -0.89867765 0.5457852 -0.543348 0.020872714 0.108640976 0.40070596 0.6206261 2.8013954 0.21452704 0.1422198 0.7656589 -0.17152618 0.031149283 -0.13506949 0.32222405 -2.1377077
38 1.1284462 0.8685446 -0.47620454 1.1204154 -1.0350437 0.7188301 0.45033514 0.4859015 0.62597346 2.2555761 0.22400273 0.36808807 0.3460567 1.2728019 -1.0906608 1.2365688 -0.05195071 3.4806364 0.11239455 0.8425933 0.19353169 0.4565394 -1.0272611 -1.2239307 -0.5352178 -0.01767029 0.2636459 0.4144636 0.21486251 -0.5225699 -2.0196016 -0.8526773 1.5751605 0.3048195 -0.09454574 -1.1184961 0.24370651 1.0996786 0.14477193 0.30156398 0.35239366 0.0669886 0.6558175 -0.64787644 -0.85312426 -0.99995214 0.005640979 0.45140272 -2.506636 -0.014507814 -0.469769 -0.41848156 1.2673512 -0.59069484 -0.5249632 -1.9046034 0.7581415 -1.3028262 -0.5524546 -0.48240587 -0.4412737 1.187212 -2.3177085 0.6033057 1.6900359 0.2543567 0.40935156 0.17126709 0.14805919 -0.46723488 -0.40645126 -0.21669106 1.5284374 0.5971674 -1.0479572 -0.44693553 0.9332904 -0.9712813 -0.25036025 -1.362639 1.529239 -0.20444939 -0.2283867 -1.1098313 -0.00061575504 -0.81038475 0.12218385 -0.86480755 0.751655 -0.8340571 -1.0276729 -0.8309802 -0.8322465 -0.703521 -1.0783883 1.4624095 -1.444043 0.06263961 0.23299053 -0.65703046
39 1.134069 1.6549605 -0.41553843 -0.7554359 0.64724976 1.4225163 1.1292294 -0.38913292 0.9842763 0.6396768 0.91882443 -0.6110365 0.95252085 -0.9899899 -2.2475448 -0.12712115 1.1750011 -0.14142546 0.431311 -0.08013716 0.39242536 -0.038968705 0.087007076 -0.7415519 0.40967086 -0.15251625 -1.1503769 0.9330454 0.74104667 0.3037593 -0.6074185 0.20957701 1.0073882 -0.6809576 0.44395572 1.027287 1.0442476 0.18313478 -0.17510667 -1.252091 -2.3309782 -1.2752553 1.2822754 -1.0138745 0.43318775 -0.52673835 0.7097714 -1.1572696 0.3175483 -1.1416253 -0.25175858 0.39805275 0.654739 -0.5427237 -2.1823745 -0.091757834 -2.0504863 1.2855449 0.8234695 1.9021825 -0.67708087 0.8377412 0.13199145 0.15630995 0.71648294 -0.366733 2.3487387 0.3587349 0.33517206 1.1756217 0.5794015 -0.95306945 -0.67920965 0.099704824 0.42823887 0.46241483 0.0011407692 -0.60550946 -1.1955888 -1.2560381 -1.3884442 1.1554037 -0.35577643 0.36143446 0.57173425 -0.34972516 0.5397644 1.271137 0.9014355 1.7252239 -0.40622258 0.7110879 0.68793464 -0.7915358 -1.0745956 -0.13212357 0.9139805 0.071461014 1.0193087 -0.60077685
40 1.2002256 0.31286693 -0.054327857 0.5834533 -0.13998939 -0.6559401 -0.4093958 2.833914 -1.4223316 0.48064283 0.14718065 -0.4450082 1.3215729 -0.7277732 1.8706647 1.0939795 0.71368814 -0.8988927 -0.4201914 1.0242305 -1.9966706 -1.0005692 -0.71106607 1.4748101 0.9596266 0.5895081 -2.025471 -0.8472696 -1.5812652 -0.45756084 -0.6130188 1.914438 0.60037017 -2.5776112 0.6782608 0.5722283 0.6122941 0.51157045 -0.4794252 -3.80276 1.890063 -0.29612893 -0.18115044 0.15938038 0.10669243 -0.06395531 1.7287952 -0.52614766 0.27013668 -0.21899289 -0.659111 0.63586104 -1.1378648 -0.14773296 1.3823781 -0.8079219 1.239538 -0.13361205 -0.4203205 -0.972569 0.72278494 -0.6866279 -0.4580396 -0.7748176 -0.020674048 0.109259106 0.31554192 0.35260436 -0.5031785 1.1891072 -1.3459246 0.5401351 -0.23070547 -0.6310439 0.24110207 0.036787704 0.039176222 0.50501484 -0.4609449 0.3200042 0.56186324 0.6100007 0.6415582 -0.12679125 1.0483059 0.37545916 -0.08064109 -0.5437602 -0.051069584 -1.1745404 -0.07684704 -0.3238755 0.4874336 0.7240749 -0.9316267 -0.56217533 2.6076972 0.005199799 -0.398571 -0.480896
41 -2.0767646 0.13602914 0.78708 0.6449995 -0.17212433 -0.024264643 -2.2799144 -0.5837762 0.43913975 0.16793004 -0.583578 -0.5223844 -0.24842335 2.1741521 -0.2393262 0.26192135 -0.067446604 -0.6458993 0.7672728 0.2913187 1.3600029 1.3550198 -1.0055786 0.81005937 0.5670003 0.18807903 1.346499 -0.7082991 0.741844 0.006071614 -0.4872186 -0.7294605 -1.6220801 -0.004837413 0.89700586 -0.79582936 -1.3207971 0.06980652 1.0571489 -0.23207241 -1.6354352 1.6447828 0.11632992 -0.35585573 -0.8763464 -0.6295303 -1.3867695 0.47702435 0.6743484 -0.22799928 -0.21090007 -2.0853944 -0.47853407 -0.8897669 0.47988 -1.0825634 1.1686691 0.9613215 0.49796838 -1.3591936 0.60298413 -0.64375466 0.8088901 0.17852604 -0.2870097 -0.799896 0.5361162 -0.07866378 -1.628154 0.30524176 0.56699425 0.839294 0.55098724 1.3506845 -1.3148721 -0.30967283 -1.0842507 0.111064665 1.6214339 -1.374196 0.24668665 0.59162194 1.9307848 0.4400046 -0.87461394 -0.67073584 0.22762007 1.7736216 1.60463 -0.55890644 -0.22069237 -0.56206226 -1.3801193 -0.26037756 1.4546708 -0.896638 0.36793917 -1.462274 -1.3516403 -2.3110693
42 -0.42300192 -0.4714079 -0.5824549 -0.49715742 0.5376045 -1.1384226 0.6034381 0.9524307 -0.47515413 -1.1702815 1.6187294 -1.8204414 -2.2420032 -1.0472404 0.5294743 -0.454417 -0.51328194 0.22001849 1.3203728 -1.7443963 -0.13582838 -1.8172762 1.5191914 2.377751 -1.9089351 -1.1305529 -1.9167012 -1.3914986 0.065816335 -0.60055965 1.504004 -0.07077373 -1.3645222 1.1570299 0.17060001 0.6025166 -0.1566755 0.555204 0.19863433 -0.61745405 0.5315076 0.46205005 1.4640782 -0.55213666 0.41629323 -0.19829798 0.7418621 0.81038123 -1.1032194 0.2441758 0.5673155 0.17332986 1.0141865 -1.6442882 0.25826308 -0.8157061 0.66297215 0.35879922 0.056939818 0.36309332 0.18445125 -2.397918 -1.1370844 -2.5489058 0.9955913 -0.7723504 1.8013504 -1.0400335 -2.0504277 1.9680341 0.7728179 0.30161995 -1.0806956 -0.26152813 -1.3059615 -0.22350563 0.88771975 -1.4614662 -0.9669932 0.93754363 -0.8807017 -0.9528144 -0.38399792 0.49515098 1.2387913 -0.865085 -2.089605 -0.35397804 -1.9338487 0.99705434 1.7130971 2.360206 0.9568361 -1.2481284 0.19841617 2.0222957 0.29999775 -0.16536212 -1.812733 0.59171754
43 -0.47566605 -0.43200627 -0.5533587 -0.20170203 -0.5124308 -0.07227174 0.2541934 -0.7909261 -0.18806762 -0.7128939 1.6072214 -0.96829885 1.3226451 1.5542156 -0.86062753 0.9790772 -0.3967333 0.25905287 1.3155209 -1.1408255 -2.3722968 0.6002726 0.4621706 -1.0376256 0.35572425 -0.66021246 1.8378717 -0.30176592 -0.66513973 0.7899608 -1.1318789 1.3822327 0.11507701 -0.55394906 0.2530423 -0.8764216 -0.84621143 0.78481644 -0.7024719 0.010815566 1.2209361 2.2013876 0.07279133 1.2444779 0.66515535 1.4026693 1.3152555 -0.8019125 0.5475563 -0.308292 -0.47469908 -0.478792 0.39902952 0.6451919 0.33921713 0.93033475 -0.46135542 -2.02722 1.240943 -0.0873186 0.95651263 2.5820892 -0.9951051 0.55552155 -0.5004661 -0.14584601 -0.47449085 -1.2991439 -0.04630589 -0.83458316 -0.24217854 1.2370887 -1.5658985 -0.06558496 1.2955185 -0.4100524 1.1549175 -0.072189614 -0.12314809 0.11241686 -0.39867908 -0.2491673 0.6185221 1.2361972 -0.3289571 0.11503871 -0.25534815 -0.41700116 -0.30121306 1.9640727 -0.46673003 -1.9192811 -1.3366826 -2.2257023 0.35646367 -1.5354257 0.37316304 -0.26095176 1.2747251 -0.2784208
44 0.21600354 -1.6216035 -0.85225755 0.5035169 1.3269933 0.04233938 -1.8964047 -1.1488224 3.7248993 -0.8599186 -1.5333637 -0.07700233 -1.2478493 -0.105885155 0.9006856 -0.77360916 1.3733591 0.19410598 -0.2542318 0.6185331 0.9757485 -0.036151372 0.48635188 -1.40203 -0.82419693 -0.6022305 0.8654812 0.7433061 0.4733156 -1.1425807 0.97204036 -0.2675065 -0.95131254 1.12266 -0.8201319 -0.06630469 -1.6078577 1.672125 -0.01682979 -1.2115296 0.2985131 0.92538494 -0.14946036 0.4510296 -0.533261 0.025305707 -0.09435819 -0.44199502 -0.05307542 -0.17949025 -1.0513542 -0.36174506 -0.6025209 1.3797971 1.2550154 -1.9055411 1.1813745 -0.32129866 0.120134786 -0.1596298 -0.039435014 -1.588386 -0.80139434 0.20827647 1.6042167 -0.26224476 0.6701302 0.040541716 0.19881369 1.8071892 0.21029815 -1.4232321 0.287708 0.7261056 -1.1259952 -0.6801731 0.20552333 0.029175544 0.8179833 -0.5875142 -0.735889 2.4457903 0.26176903 -0.6468393 0.64279807 -0.09480147 0.7051401 -1.0672898 -1.0885677 -0.914012 1.3412919 -0.42378515 -0.33878842 0.36887318 1.63515 -1.5363897 -0.98126924 1.6036249 -1.3171781 0.49347004
45 1.7756258 0.3537943 -0.24304113 0.07476674 1.50544 0.038181767 0.832686 -1.0515164 0.3765866 0.6208257 -1.895656 -0.48495412 -0.3418926 -0.70649195 -0.6416075 -1.2913387 -0.1250359 -1.2564558 0.97779804 -0.21884339 -1.585165 0.8107833 0.040947806 0.352287 0.15522309 -1.3042358 -0.65037185 0.522696 -0.078720465 0.41740552 -0.62260514 -0.106832325 1.5104831 -1.108401 0.43379754 -1.3028601 -0.25600508 -0.519248 -0.4639604 0.3756596 -1.1304277 -1.9340271 1.2209476 1.2812549 1.8635967 0.47901914 -0.2943133 -0.016721688 -0.45939577 -1.1352018 0.8193236 1.506848 0.010647737 -1.5412536 0.70656586 0.86253774 0.11299623 -2.3861616 -1.4978142 1.3948938 -0.07437293 0.9247119 -0.9061338 0.48211917 1.8006177 -0.2530015 1.417546 0.45127928 -0.13115764 0.51743376 -0.5616497 0.72842884 -0.40457666 0.214369 -0.80419344 -0.6404172 -1.1436043 0.14621134 -1.0158823 1.2565997 0.22832441 -0.057164386 0.6733531 0.63658965 0.072781876 1.1895276 1.2492508 0.4026725 -0.014231245 -1.1866605 -1.3168238 0.6746898 0.19530755 -1.5819752 -0.7933207 0.7188656 0.4603288 -0.3698626 1.491587 0.23681732
46 1.5314109 0.7610309 -2.096181 0.9549138 -0.3466146 -0.58532196 -0.64088047 -0.6222556 -1.0648097 0.85751814 -0.3591338 0.6194214 0.41656047 -0.002602098 0.7723124 -1.1809212 0.6205719 -1.1704221 -0.655467 -0.8334303 0.5420507 -0.35677722 -0.75140375 0.9537487 1.8369521 0.03222029 0.91260225 -1.2698087 -0.0094450675 0.21687959 -0.39600825 -0.15910594 1.4281485 -0.83996904 0.12749748 1.0928543 0.84358 0.9563786 0.7150027 0.25599137 1.3018918 0.035282772 0.3061924 -0.3763538 0.5111329 0.9034923 0.03360172 0.4156169 2.2588608 0.14954628 0.87597203 1.7151076 0.07816136 -1.0137403 1.3782097 1.62239 1.1134472 0.5525637 2.8423383 1.9373132 -0.674601 -0.440613 -0.41758755 0.47921258 0.8714314 -0.21122687 0.32448196 0.61739963 -0.40925545 -0.6005665 -1.221758 0.95867383 0.9106568 -0.17561795 0.16089894 0.7767388 -2.1698873 0.032956354 -0.79118526 -0.02316655 1.0455453 0.11717421 -1.903138 -1.319847 -1.2523234 -0.40037745 0.06720148 0.8463347 -1.3731364 1.1674652 -1.2726332 -0.81925416 0.19963312 -0.0001295522 0.9962453 0.3425129 -0.9568837 1.2105901 1.5405661 1.6438314
47 -0.42217854 -0.80626345 0.74660426 -1.2529571 0.84309185 -0.2806926 1.1204234 -0.39719003 1.0795231 -1.5504733 -0.47996575 -2.4877553 -0.15055846 1.9201499 -0.00890022 0.28810674 2.6728997 -0.15439837 2.5011866 1.7543911 1.5160316 0.18916726 0.6188001 -0.80562836 0.34209263 1.0572784 0.15111966 0.5801801 1.6450601 -0.75038767 0.251878 0.7689507 1.0656163 -0.17286062 -0.7411042 0.24533625 -0.48832712 -1.0415453 -0.28596416 -0.012401079 -0.17359866 -0.50195295 0.6108515 0.68910515 -1.1614709 -0.87709713 0.9475382 -1.1383151 -0.8526724 -1.1616733 -1.231638 0.65044665 -0.4265403 -0.13116594 -0.19343711 1.5828258 2.664696 -1.1992874 -0.72472054 1.7379259 -1.4226912 1.1605513 0.10723321 0.14006242 -1.1877508 -2.5656688 -1.2767712 -1.1174924 0.8164671 -0.7666119 -1.4403641 1.0293 0.007553343 0.45091763 0.5783992 0.9418466 0.48026395 -0.90252507 -0.5693416 0.4618049 1.1828479 0.02323128 0.7258995 0.6044598 2.0392873 -0.20627213 1.9216 0.9711241 0.6326006 -0.56874704 0.6626208 -0.6575246 -0.10668537 -1.4256942 -0.7645147 -1.2164042 -0.1576926 0.15550226 -1.2934262 -1.1901536
48 0.5544408 -0.23650652 -1.8342232 1.7722998 0.46122944 0.34503493 1.5573496 2.5902576 -1.4207559 0.74341166 0.39765844 -0.1442516 2.211911 -0.33158574 -0.8814457 1.2074761 0.30843315 2.184893 1.3306358 -0.13204975 -0.85314375 -0.8825638 0.7627153 -1.1200377 -1.4776851 -0.7455683 0.92908776 0.1058266 -1.097047 2.425959 -0.22999541 -1.4420155 0.31664038 0.013170344 -1.4461064 0.31834015 0.13672057 0.5454015 -0.97068936 0.8049639 0.30089366 0.84729695 -1.2156309 -0.59960353 -1.7151347 0.30726352 -1.5101948 0.846953 0.20785755 0.8519902 1.188551 -0.48812917 1.0673892 -0.24418293 -0.8380127 1.0800017 0.45981255 0.94331264 -1.0253953 -0.55559754 -0.70136094 1.1937374 0.53047436 1.0890723 2.3341904 -0.6201723 0.9472122 -1.8696425 -0.53150535 -0.28542045 0.49659175 0.43631876 0.22530262 -1.6414626 -0.19179323 0.7015855 -0.6988275 -0.5384944 -1.384315 0.36834088 0.65985346 -0.22778617 0.27247626 0.67940426 -0.5657983 0.59178954 -0.54230136 0.36848757 -0.29877695 0.99020755 -0.43103087 -0.041169446 1.031953 -1.5324173 0.6311817 0.07547697 1.08059 -0.18089844 0.989584 0.5024521
49 0.8423543 0.5163346 1.1083286 -0.30050868 0.63813287 0.7100543 -0.3687653 -0.6362143 -0.089781284 0.61646855 0.4525693 -1.8323717 -2.7887807 -1.2291408 -0.24327944 -2.195682 2.7643752 0.13544956 -0.04331413 0.061966486 0.17421013 -1.4007975 -0.6961862 -0.41624495 0.32028106 -0.27447608 2.4704018 0.43734396 0.43705085 -0.16307157 0.15926866 1.8086591 -1.3793644 -1.1798958 0.91204935 -0.2671301 -1.0158398 -1.396979 -1.5626032 0.41922176 -0.44323835 2.3538125 0.28359017 -1.4480369 0.22154835 -0.036236007 -1.1045301 -0.06720566 -0.1024398 -1.463894 0.9201977 -0.9944389 -0.20492385 1.8644112 1.7016114 0.32497936 1.7563599 0.11669684 0.33776605 2.453167 0.29719514 -1.7610432 0.13185652 0.80814296 2.747801 -0.7475536 -1.294385 -1.7332916 -1.0750608 -0.09342667 -0.62116545 0.82929707 1.0776502 -2.153475 -0.25343367 -1.0465654 -0.66964513 1.5702382 0.38404128 0.6810611 -0.6875202 0.98176426 -0.51949984 0.3591669 1.792748 -0.6925827 0.57044554 0.45746472 -1.3772125 -0.78590775 -0.9726577 -2.5981164 -0.2907126 -1.3898734 -0.01756389 1.7891618 -1.2833062 0.042384427 0.21599218 -0.9263613
50 -0.62491596 1.7102413 0.016008869 -0.25872576 -0.6588861 -2.3348684 0.20872562 0.3958652 1.366954 0.5301552 -1.6945115 0.9110728 -1.7820756 0.15323287 0.60279703 -0.46551058 -0.1972702 1.3248099 -0.20383897 0.9135705 0.6216164 0.5208046 -1.4362059 0.05876626 -1.2296069 -0.41916397 1.592228 0.49512315 0.5424618 1.1551999 -0.8716876 -1.4818205 0.8624012 1.6771238 0.17926627 0.39781117 -0.48400742 0.5241072 -0.27066946 0.13549411 -0.07221167 -1.115662 0.26716423 0.5032976 -0.21454118 -1.9586908 -0.6135386 -0.8091329 0.49261 1.9614649 1.0645189 0.63225687 -0.46395215 -1.0702718 -1.1752886 0.88425374 0.7803398 -1.6812594 1.2057186 1.3390158 0.0039494494 0.3930654 1.1351589 -0.55693996 1.5011787 -1.3208228 -0.7293418 -0.63856673 -1.7842605 1.276495 -1.2091602 0.52940726 0.5990741 -0.24591926 0.92333734 -0.2466611 -1.5454988 0.6858566 -0.08509212 -0.6016705 1.450997 -0.37934774 1.593264 -1.6159426 -0.80124253 0.5676341 -1.3345858 -0.69517654 -1.4639064 -1.7274196 0.121794686 -1.3280835 0.8393937 1.1265893 0.2615151 -1.7264204 -2.5078182 -0.15438268 1.4952812 -0.33463797
51 0.9735284 0.8346361 0.9950109 -0.8291886 -0.60850644 1.3694383 0.8574921 -0.6807103 0.7523383 -0.6296394 -0.37284887 -0.58314085 -0.2800013 0.35091582 -0.68313247 -1.5433282 -0.8967619 -0.65124005 0.28967252 -0.13721311 -0.45818853 1.8273203 -0.6517695 -1.6717213 0.39473113 -1.6108732 0.57204396 -0.6127039 1.3258339 1.4166745 1.8935789 1.0878125 1.0330656 -0.12173528 0.15767366 -0.9316122 -0.056837697 -1.1546376 -1.6883242 -1.7731564 0.023445345 0.4634522 -0.62338996 -2.0895095 -2.3148108 0.61797225 -0.6710712 1.7191615 -0.7357944 -1.4944748 -0.049386762 0.7634212 -1.564852 0.19613375 -0.26724514 0.4508112 -0.65863794 0.30122587 0.011200412 -0.23390153 -0.40115654 0.787931 1.9467524 -0.4293896 1.9273098 1.4574856 1.4006528 1.3464655 0.6120587 -0.18115357 -0.55395705 0.95891887 0.053669997 1.996649 1.2794354 -0.9203715 -0.0978951 -0.8501882 -0.43220294 -0.62743974 0.004600321 0.89158565 -0.97426784 0.017994456 -1.5355483 -1.0566659 0.32357505 -0.2801766 -2.3729575 -0.40961117 -0.7303629 0.22712931 0.5081622 -1.3444116 -0.19246699 -0.12939118 0.64938366 1.2154523 0.0055985665 0.53302664
52 0.43169054 -0.10757588 -0.11861774 -0.46374464 -2.606724 -1.4711981 -1.4020866 1.2251817 -1.12894 -0.8204378 1.2925106 1.0423638 -0.3581728 1.3043811 1.1872903 -2.2101321 0.42034876 0.13122049 -0.002290743 0.49835423 -0.6235601 0.7230749 -1.5083138 0.38318285 -1.2927728 -1.9974296 1.6863111 0.1584081 0.21244085 -0.12787326 0.3481691 0.86143816 0.5921576 -0.5273093 0.53362817 0.27962923 -0.5510329 -0.9052382 0.7938481 -0.5753646 0.096078366 0.21438733 0.6596868 -1.345898 -0.8461036 -0.5969691 0.32869065 0.28264502 -2.1392272 2.1276248 0.73328954 -0.42333677 0.7402407 -0.9664354 -2.8413823 -0.8613845 -0.2808471 -0.83119285 2.0384424 -0.88235325 1.8811411 0.29948437 0.84804827 1.236848 -0.54413766 0.6312483 -1.3610188 0.36184463 -1.2763064 -0.90472746 2.019918 0.91125923 0.9137473 -0.69588786 -1.0391637 0.73906446 -0.13870205 0.7111973 -0.022489676 0.08464721 -0.66147 -0.35558504 0.15814881 -0.501972 -1.4616927 -1.0176963 0.82645196 0.52071005 1.0455797 1.2379217 2.481364 -0.84344053 -0.3872527 -1.4996264 1.0844005 1.3924403 -0.40406573 -0.03504494 1.1027906 0.8457001
53 1.5300195 -0.22522771 -0.5691807 0.2270498 0.004087095 -1.1003244 -1.3015872 1.5636516 -0.5969959 0.34162214 -0.29233447 0.9307116 0.3232854 -0.039611217 -0.02920895 -0.3917968 0.7157651 2.4603634 -0.7890426 0.9719885 0.21161999 -1.6140488 0.9337891 0.7773629 -0.23127672 0.56651366 -1.000332 -0.4598282 1.085044 -0.29951224 -0.47358835 -1.2682441 0.28282356 1.3875196 1.5969743 -0.556921 -0.050460383 -0.7700335 0.0033944978 -0.0053754277 1.0951216 -1.6424505 -0.32599643 0.661715 -0.8391875 0.82049805 0.38225198 0.18618457 -0.87478125 -1.3531133 -1.7950772 1.4552721 -0.07336885 1.0101599 0.43608582 -0.9684095 -0.3913982 1.970643 -0.5824194 0.27203044 0.12045418 -0.589425 0.93359816 0.48160878 0.89373064 -0.038243994 -0.013080866 -0.82758975 -0.15504381 1.1978332 1.1282165 0.8053586 -1.8838986 2.46547 0.84405446 -1.16362 -2.1626487 0.41299474 1.9717311 1.2443206 0.02018828 -1.1692524 0.021179495 0.35039496 -1.4816294 -2.5640213 -1.5698931 0.8509353 0.9964853 -1.3575901 0.2406088 1.0765932 0.22015595 -0.21831574 -2.062935 0.53983116 -0.6433247 -0.30123177 -0.6879577 -0.95387304
54 -0.80768913 -0.17713384 0.03097344 0.87662286 0.5596171 0.18066318 -1.5099213 -0.058451608 -1.059105 0.56183124 0.933037 -1.5115355 -0.65633565 1.246803 -1.7512624 -1.4522916 -0.06466103 -1.0211788 -0.38033497 -1.188772 0.60609406 0.014500902 -0.029964862 -1.4960413 0.5284869 -0.7072828 -2.3877418 -0.90694803 -0.52488697 0.17767477 -0.75011647 -1.7695658 -0.24635449 0.87033373 -1.1138368 -0.5213797 0.03208075 1.3229353 -1.9759582 -0.06797126 -1.7068145 -0.8118248 2.462799 -0.054335356 0.6813944 -0.44157258 0.3618491 1.2304847 -0.3615458 1.7175422 -0.33323896 -1.3433293 -0.89604914 -0.7924477 -0.04932608 -1.2887068 -0.276597 0.21818946 1.2288156 0.6916488 -0.38586953 -0.3625833 0.8711747 -1.112252 0.110098645 -0.16062884 0.31165415 0.18748039 0.7726772 0.9207995 -0.2476934 0.25614747 -0.88998497 0.554329 -1.5744395 -1.1519737 0.27792856 0.30671504 0.41019416 0.12874249 0.114427134 -2.4782643 0.08230525 1.0479504 0.82084054 0.4419192 -0.42872047 -0.1639303 0.28757107 0.59975564 -0.28774402 -0.85512394 1.0706713 -0.7367205 -0.35318482 0.94306785 -0.09494842 0.78356165 -0.84293413 0.47756723
55 2.5811105 -0.63649136 0.5730745 0.74834335 0.7869117 -0.8139535 -1.0797211 0.046886843 -0.6864499 0.4254723 -1.2926823 0.15707326 1.7089137 1.7436473 0.4061918 0.09394313 0.3090935 -1.3799253 0.42850822 -0.09342633 0.07303932 -1.8432827 -0.015099282 -2.03446 -0.75526464 1.0948871 0.28483823 -1.9002175 0.11452757 -1.90158 1.433612 0.15165661 0.8012114 -0.52902424 -0.772414 1.4330297 -0.5446378 -0.4157653 -0.06943005 0.62973887 0.3744824 -0.061947893 -0.5085944 -1.442691 -0.77308697 0.789606 -0.5400964 -2.0316377 0.23322286 1.059247 -0.35720873 -0.68205196 0.30495402 0.4448366 -0.14923473 0.19704553 -0.35046858 -0.36190757 -1.7808131 -0.2364199 0.54503286 -0.5058505 0.29494178 2.0443244 -0.9444377 -1.9377677 -0.21493554 -0.3099744 0.6722856 0.40649515 -1.5302057 -0.578198 1.041454 0.29176864 0.28057343 -0.6696029 0.2985431 -0.38086018 0.360658 0.54383564 0.3150261 -1.6844219 0.24530886 -0.46761152 -0.84001637 -0.5635849 -0.6724361 -0.9877721 -1.149046 0.87584275 -0.31500253 -0.38067365 -0.22000079 -0.6395609 0.34040034 -0.0143653825 -0.09659463 0.7319534 1.3313442 0.009935142
56 -0.5780346 -2.3483303 1.4113077 0.25170967 -1.1946902 1.0472026 0.82354975 1.7606659 -1.5180483 -0.7505005 -0.6158861 1.1427695 0.38681346 0.87531626 -1.3425965 -1.3711305 0.6621361 0.40350688 -0.76069003 1.9874187 -0.7243484 0.46654937 -2.4835575 -1.7380931 0.36778274 0.05029781 -0.9322066 1.803018 1.1885221 0.1966763 0.67495555 2.0874233 -1.461262 2.2175403 -1.8004007 -0.99323356 1.0662067 0.043996267 0.65844166 -1.04832 0.19751632 0.31616083 -0.9559694 -1.0571 -1.1899456 2.1219606 -0.6278027 0.8416078 0.23574904 -0.34967086 0.8585323 0.67036265 1.0632112 0.8141771 0.053222258 -1.155903 -0.25430995 -0.19536507 2.5936549 -0.03206737 1.007262 1.3080313 0.5287879 0.84779644 -1.083236 -0.22340222 0.38617322 0.55946505 0.1761846 0.17104974 1.0467504 2.0164788 -0.12278574 0.75945586 -0.9405581 0.3907251 -1.6197542 1.3972926 -2.5552542 -0.29598278 -0.7199016 -2.4079845 0.089558095 -0.7312982 -0.2146041 0.5882665 -0.1586766 -1.0015973 0.50799114 1.3133476 0.5848303 0.4474108 -0.13650778 1.7624205 0.29334962 -0.6291195 -0.0784747 -0.9096014 -0.30898258 0.5046134
57 -0.4533658 1.0807135 -0.50550926 -0.538375 -0.36203617 -1.2571218 -0.39785177 0.021716377 0.50929683 1.0485313 0.06335636 0.097890794 0.92672896 1.1989185 0.36463973 -1.4841238 0.11887889 2.03909 -0.84832805 -0.26693198 -0.22447187 2.3557775 -1.8710271 -2.0553439 -0.27211437 0.7780082 0.72227377 1.2510726 0.651346 -0.2728039 0.42647123 0.26945147 1.1221825 0.6254893 0.3122239 0.7305883 0.095960744 -0.5525099 0.17828783 0.40048492 0.6157778 1.0626072 0.20004936 -0.45536733 -1.2578319 0.27875784 0.29997975 0.8283077 -0.13646604 -0.22374535 0.2413622 -0.057428867 0.22767462 -0.47593272 1.5942116 1.1026249 0.29365012 0.56468856 -0.30697447 1.3345382 -0.9392259 -0.1761454 1.3212818 0.71095973 -0.30804417 -0.91840625 -0.006691408 0.78893757 0.1159864 -0.6103034 1.084556 -0.9249561 -2.2023067 -1.0632278 -2.2071269 -0.82288945 -0.08528693 -1.4550028 0.73317814 -0.31501907 0.5059042 -0.43010554 -1.0254323 -2.384797 0.87940913 -0.101150654 0.77801067 0.23481718 2.1138349 -0.9237338 0.854254 0.5100622 1.0025887 0.52825165 0.05476929 -1.9270735 -0.05480933 -0.41294253 -0.7201896 0.39551255
58 0.5733294 0.41610295 0.736411 -0.2729248 0.9822608 0.26124012 -0.00019185922 0.87572825 -0.5518557 -0.58434224 0.970518 -0.9565363 -0.2313533 0.27802962 -0.47541732 0.43737593 0.7979004 -0.24623439 -1.171944 1.2511442 0.70104873 2.0711238 -0.8257752 2.0354266 -0.6096252 -0.5995766 -0.066617526 -2.644212 0.43535474 -1.3624074 1.0299997 -0.91390914 -1.3879131 0.19714901 -1.512987 0.81748676 0.39776793 0.37696522 -0.03866201 -0.8492351 -0.83226043 0.7379853 0.7566075 -0.67283624 -0.54705364 0.112289496 0.6018696 0.67932636 0.980452 0.46961686 0.3759802 -0.6808042 -1.2403232 0.15644284 0.75234145 -0.8466609 1.0216453 -0.27206445 -0.7467764 1.243963 1.8419378 1.3275723 0.54973286 -1.1738147 0.21935283 1.3890707 -0.48736057 -0.76231223 0.50048465 -1.3632485 0.082098 0.4233949 0.2044034 -0.08453075 0.62087864 1.0485862 -0.57579637 -0.90103346 -0.78606427 -0.8064118 -1.2829524 1.3757392 0.2920352 0.47742128 -2.2709816 -1.7961117 0.09321202 1.1115886 -0.7769811 0.48981985 -1.3129222 0.7965055 -1.9300256 -0.5093714 0.11391423 -0.5629126 -1.756583 0.68336576 1.1323665 0.65863436
59 1.3617191 -0.38366413 0.7672409 0.3336385 1.5588566 -1.0198381 -0.30284593 0.72028464 -0.25825712 1.6713927 -0.3146305 1.5158497 -0.7368379 -0.3994811 0.7506108 0.70105624 -0.3548365 0.016546857 -0.84966 0.18146412 0.9349299 -0.041907687 -1.255898 -2.8973424 -0.25091368 0.55478436 2.2142255 1.7771385 0.50462055 0.62403643 -1.4748204 -0.43463787 0.91129905 1.9906539 -0.31997317 0.45415998 1.9478234 0.28066817 0.50183004 -0.9897078 -1.038295 -0.13579291 0.22742721 -0.42441297 1.4851365 -0.09295165 0.8340684 -1.4463428 0.98748237 -1.5360572 1.7338306 1.242263 -0.22352952 -0.7475139 -0.016881613 -0.5394116 0.46531835 -1.5070837 0.9905196 0.18257177 -0.45252696 1.0426217 -2.0157452 -0.4975359 0.25766397 -0.7703926 0.85199 0.7660371 0.9168386 0.07605127 -0.82200724 0.7682044 0.50674504 -1.0216428 -0.070092164 -1.8105012 -1.4086362 -0.8138232 -0.67876065 0.9122829 1.0729492 0.9949424 1.1674914 -0.5422659 0.58865774 -0.72631174 -1.4501636 0.74554276 0.30219436 -0.19487086 -0.9607226 1.4344925 0.37880737 -0.14932431 -1.274971 0.008113633 0.06505411 0.99798954 -1.6600991 2.2303808
60 -0.7185767 -0.2560619 -0.4925488 -1.6834085 0.5383075 1.796893 -0.504118 -0.67946887 0.71350604 1.8980986 0.6710028 1.515097 0.047165506 0.75042206 -1.5117888 -0.5032182 -1.1526226 1.2770083 -0.2613236 0.36823496 -0.12979294 -0.76709807 0.48730874 0.2697297 -1.0643387 -0.16638342 -0.37837934 -1.8149794 -0.33129078 -0.703218 0.9742235 -0.13254918 0.48748612 0.17708188 0.8782933 -1.3208497 -1.2186174 0.29619774 1.6233816 0.16010682 -0.24356936 1.4025259 -0.8023584 -2.1574013 0.8748437 -2.0791035 -0.7930292 -0.2658469 0.5009694 0.9973331 -0.44666874 -1.7462767 1.2166742 1.0491382 -0.44626376 -0.5322602 0.74176335 1.6125717 -0.12086497 -0.195916 -0.0016387275 -0.25418058 0.69676775 -0.26081532 1.9568634 0.79763055 -1.3664409 0.44369304 2.481389 0.8053665 2.1167817 3.157698 0.6078768 -1.5451626 -0.7773679 2.5375254 -0.49776956 0.52268296 -0.5006208 0.038015876 -1.7767327 0.9999848 0.9543345 -0.8257321 0.7695977 1.7063135 1.0371784 0.61940193 0.55673933 0.08241737 0.8082376 -0.66554934 0.14591044 0.7452663 0.9165111 -0.045068067 -0.3545231 -0.43021727 0.9957597 -1.1205468
61 0.74350536 0.14324017 0.032495327 0.99256676 -1.2395546 -1.0190207 0.42394978 1.5225667 0.5546273 -0.65523094 0.9500563 0.6329465 -0.20719768 -0.59786457 0.0018586821 1.5592781 -0.38533756 0.02054711 0.15955757 -1.4209111 -2.1577635 0.84376043 0.13324098 -0.78588927 -0.0026691312 -1.4098796 0.75454146 0.14913112 -0.7894449 -0.2704065 -0.8227288 0.5780119 0.64232004 0.5875236 -1.0181389 -0.93282795 0.28513613 0.58368236 -0.8720797 -2.3377438 0.2561054 1.4279838 -0.3795544 -0.17951678 0.5453446 -0.053391986 -1.5544198 0.68415534 -0.04032211 -0.19616489 -0.33303952 0.38578922 0.7702382 -2.0657716 0.5865309 -1.6555756 1.2864481 -0.79843736 0.490923 -0.7408507 -0.72908396 0.18276437 0.4260272 -2.0205572 -0.99489015 0.2609726 0.11010236 -0.70090526 1.2309792 -0.21151549 -0.0038512647 1.7634966 -0.7162798 0.80557805 -0.23989463 -0.11732592 0.8158168 1.1226572 -0.35988748 -0.37479684 -1.8902293 0.086053014 -0.373824 1.0210276 -0.9694707 0.9719898 1.2213427 -0.27450344 0.5954873 1.241963 -0.10169986 -0.42545938 -1.323858 0.9605925 0.15001969 0.18320903 0.49205804 -0.6758687 -0.13096528 1.4702733
62 -0.31761247 2.126587 -0.29504752 0.9311707 0.804156 -0.6906535 -0.47211722 -2.1723034 -1.8028094 1.5309818 -1.5391166 -1.3168736 -0.10180773 -1.5954016 -0.40004244 1.7290186 -0.5241164 -0.5463004 0.86654484 -1.3320173 0.96430707 0.8715124 -0.27579662 -0.97135454 -0.82403886 -0.24454665 -1.2650144 0.7160995 -0.69044167 0.2306671 -0.59481895 0.658769 -0.061874915 2.0333257 -1.2226393 0.40609944 -0.11519825 -0.96935767 1.085391 -0.031726558 -0.677965 0.11795471 0.38154182 0.5284305 0.41268352 -1.5954598 -1.9055759 -0.0004682534 -0.081310734 -0.555077 -1.6400065 -1.4316458 -2.1524749 -0.5082887 -0.09871403 0.29740912 0.7394602 0.42939824 1.1290122 -1.6606363 -0.2952189 1.2178254 0.54582906 -1.2202682 0.932919 -0.19725214 1.4200265 0.6905311 0.11771608 1.8672811 0.8862971 -0.5385261 0.6458204 -1.3795742 -0.8313332 -1.2693027 -0.22459945 0.27573034 -0.679602 -0.49135658 1.0515598 -1.1571243 2.3554447 -0.040429693 1.638334 0.090372354 0.2628197 1.36804 0.034803268 -1.3755938 1.4967096 0.31423733 -0.29591233 0.015103377 1.170063 1.0937883 -1.777619 1.5233306 0.23188326 -0.22962539
63 -1.6787738 1.342668 1.1709671 -0.51200044 0.98317766 0.25658813 -0.60047424 -1.7372687 -0.82265085 1.4485527 1.5921979 -1.1581581 1.8119503 1.5618191 -1.106429 -1.7104704 -0.5621132 0.4895245 0.7146336 0.22281232 0.5652729 0.7736617 -0.045258105 -2.4271474 -0.7686126 1.6989573 -0.38691142 -0.26641104 -0.781007 0.12614626 -0.26540434 0.7673158 0.95737374 0.28659573 0.03313628 -1.3216358 0.10120412 0.73924667 0.47785327 0.11638453 -0.84021133 -2.0413237 0.39459315 -0.85158145 0.8117618 0.23926482 -1.5265365 1.3338075 0.40186417 0.8505199 -0.302157 0.3275642 -1.2375453 -1.3847803 -0.9743892 -0.119526714 1.7801704 1.2247282 0.13896544 0.889207 0.22927123 0.48924845 -1.8150564 0.7162883 -0.44598445 -0.18208043 0.12010015 0.71837294 -0.58352625 1.1540793 0.5647844 0.9899826 -0.11691761 -0.65473825 -0.6993242 -1.4817479 0.6736028 -0.019534843 -2.6954434 -0.1425934 2.2736676 -0.46660647 -0.9964101 -1.5360783 2.2989662 -0.5320147 -0.38010854 0.89011693 -0.04627431 0.20738144 -0.42469028 -0.9794358 1.1660529 -0.15953697 2.2651327 -0.38023886 0.99459743 -0.078629605 -0.06328581 -0.37083894
64 -1.3873999 -0.21575591 -0.044043746 1.9696045 -0.3997426 0.788383 0.25575653 0.93232566 -0.18003698 -2.0202417 -2.145411 -2.1196353 -0.2153123 -0.48458275 0.9657542 -1.6579185 0.7148192 0.83128095 0.21438828 -0.6035607 -0.95569456 1.9226035 -1.342585 -1.2650414 1.4471221 0.18031491 1.0400578 0.9143597 -1.4691008 -0.26170203 1.2350742 0.3473343 -0.6090027 0.6104824 -0.49635175 1.5188332 0.5771919 -0.28668335 -0.62187934 -0.15311204 -0.79923606 1.7378196 0.77436405 -0.4550338 -0.18147817 0.012767899 2.1242657 0.7041612 -1.317179 0.45977706 0.1705309 -0.6747347 0.28806108 -1.0729873 -0.48393342 -0.42462426 0.16759813 -0.260397 -0.043120954 -0.0070365756 -1.2119747 0.23186967 1.0920068 0.024193194 -0.1982137 1.0914736 1.0475292 -0.98618007 0.5725508 -0.3637548 0.052996907 -2.5311785 0.53778917 -1.1966842 -0.3637498 -1.4762588 0.5003496 -0.72819924 1.5101694 -0.66538244 0.029046753 -1.7665961 1.7468641 -0.8855732 1.4720263 0.7924135 0.5957858 -0.80200905 -2.7363148 1.4054828 1.2760966 -0.07865157 0.22610235 -1.3235826 1.3982699 1.9606727 -1.0250566 2.0536668 -0.8491466 -0.022563487
65 -0.018454414 -1.763251 -0.5645143 -0.028713921 -0.21875072 -0.99435437 -1.4952602 -2.4179955 -0.88707876 -0.77595615 -1.2699124 -1.8553815 -0.865908 -1.0149173 0.0031528 0.8891582 0.42745668 0.72836465 -1.1653378 1.0093526 1.1996741 -1.5149157 -1.4249687 0.63662446 -1.3453811 1.0970769 0.39631674 -0.72890544 -0.38990316 0.38452694 -0.5320555 -0.59946233 -2.2313178 1.647887 -0.96755886 -0.5950395 0.46565673 0.48424026 -0.35146856 -0.09084896 0.6468262 0.30712795 -0.23512428 0.9023642 0.6654975 1.3512725 1.2723488 0.24077874 -0.744789 -0.17351982 0.46553418 1.5306107 -0.3841834 -0.3553415 1.6879102 0.65320057 -1.3333722 1.0921735 -0.29823148 1.4987367 -0.7951879 0.65267104 -0.52233946 -0.62496555 0.34187153 -1.5811837 -0.3966021 -0.3616747 0.60578436 -2.6685379 -1.1098529 0.4215903 -1.0240905 -0.7737302 -0.6712767 -1.6598934 0.2721073 -1.2381088 0.5681497 -0.10479148 1.2514628 0.52859724 0.18477279 1.035665 1.5749649 0.113499336 1.4957815 0.16095467 -0.30459294 0.7504018 -0.07065364 -2.411934 1.0832072 0.23046367 -1.3233683 0.04910943 0.024329437 -0.32422984 -1.4268463 -2.3728848
66 -1.1533237 2.034242 0.099842705 0.7686935 -0.3797579 0.11345642 0.5563451 -0.7987461 0.29728422 -1.0804756 0.21894248 -1.3881075 0.14096937 1.7489704 0.6199978 0.38494477 0.8240573 -1.1564378 0.7252764 -1.3931736 0.11229373 -1.0744832 -0.8646473 1.2126954 0.23346935 -0.97042876 0.2913054 0.11505312 0.13239726 -0.25667086 0.59691346 0.91799515 -0.9020279 -0.6210505 -0.48101783 0.43292826 -0.8827312 1.1373311 0.32158342 0.69160914 -0.8409096 0.11659244 -0.10469519 0.46304667 -0.27365974 -1.3609685 -0.22858325 -0.07293299 -0.040929392 -0.083087526 -0.41778034 -0.40352663 0.10152579 -1.0748763 0.5524607 0.8199586 -1.0887078 0.2894764 1.4736569 -0.80229306 -0.32821888 0.04999142 0.17991203 1.1287614 0.80383396 0.5598206 1.9863045 1.2800051 -1.2733555 0.40168774 0.958035 0.57576156 0.3035146 -0.063199446 1.568598 0.09077993 -1.781272 0.36392578 -0.022981245 1.0762986 0.32239434 2.7244143 -0.30417836 1.958879 0.86344784 1.8788328 -0.059309557 -0.6917946 -0.08067412 -1.0341141 -0.187279 -0.5816677 -0.12494951 -0.8065262 0.7010589 0.22619674 0.0020180629 0.44752643 -0.80646783 0.30356687
67 -1.7400882 1.2867779 0.027652074 -1.234956 0.311634 -1.0834275 -0.7631088 0.865818 -0.58700144 -0.8661343 0.80651236 0.28832915 0.46047363 -0.20516396 0.54663765 -0.101327226 1.7297515 0.8779371 -0.5292447 -1.4072107 -1.0359526 -0.19100054 -1.1790338 -1.6665531 -0.05645768 0.26767558 0.047687285 0.96679795 -0.65891284 -0.06391678 -0.30558246 1.0259109 -0.8026569 0.21401298 0.45398977 0.97774434 1.1206714 0.26889196 0.502955 -1.2233942 -0.7820908 -1.3598287 -0.96100247 -1.202559 -0.72692174 0.9541906 -0.34847656 0.19099912 -0.25256443 -2.1460922 -0.41343734 -0.2946924 0.18119252 -0.7278117 0.3439618 1.0430185 0.45914692 2.1010418 -0.08603693 -0.019665653 -0.09972296 0.92630833 0.51227295 -0.6029985 1.2935724 1.3372916 0.75926435 -0.8860145 -0.00817362 -0.030452795 0.47175083 1.6721236 1.2310683 0.26887554 0.1481014 -2.1453028 -0.40763554 0.18507929 0.25717974 0.24569865 0.21317086 0.97622246 -0.12972245 -2.3564196 0.8260222 1.4209876 1.2503904 -0.030741392 -1.8659073 -0.40175432 0.30323395 -0.24598578 -0.8122443 0.4581166 1.1054941 -1.6257688 0.71160406 -0.7801366 0.45706773 1.5362765
68 -0.14958294 0.20843495 1.909712 1.5176666 1.7583264 2.0686877 -0.8379638 -0.8223031 -0.78561234 0.10316801 -0.7220643 -2.507581 0.65668243 -0.37082383 0.20001364 0.03382076 -0.99377626 -1.2285149 -0.21234234 -0.9093007 0.5009616 0.109648004 -2.3526318 0.3035441 -1.2959623 -0.4687635 -0.23607697 0.83355767 -1.1505269 1.5829608 -0.077181764 0.7192878 0.0015947713 0.48732284 0.063136905 0.7162379 0.78512776 0.87491643 0.78755873 -1.8309746 0.20222376 -0.20935342 -0.1348169 -0.7265788 -1.870047 1.1180004 -0.5730567 -0.2165094 0.027128436 1.2074775 -0.41300806 0.7445106 -1.1331116 0.048638005 0.857971 -1.2450526 -1.5193198 0.627702 0.312677 0.7544861 0.50352126 0.10513607 -1.4047121 0.61617774 -0.6642519 0.9253017 -0.35938475 1.8487704 -1.6894234 -1.8294709 0.87179816 1.0725576 -0.336088 -0.91137046 -0.26793396 0.55500454 -0.025269447 -0.860228 -0.17778595 1.3069623 -0.42228806 -0.27234784 -1.5110313 -1.3910432 -0.63392216 1.7390715 0.1315241 -0.86432177 0.085989386 -0.63380706 0.8868522 -0.21077223 -0.9827441 -0.80672866 0.36433002 -1.1456493 0.61402017 -0.6690611 -0.49527267 2.4777641
69 1.5457681 0.26128805 -1.2147862 -0.85944515 0.09773704 -1.4381908 0.34663692 -1.0002697 -1.640208 0.9171242 0.8679554 -0.5221906 0.4222366 -0.37434512 0.9000756 -0.93472236 -0.47268248 0.84504044 2.5518115 1.5451126 0.41511256 -1.1028843 1.3455667 0.68427587 -0.33055812 -0.55839026 2.750107 -0.9204316 -0.84817487 0.10664957 0.24878955 -0.62165815 -1.5213209 -0.24287914 -1.6346374 0.15034422 -1.2173313 0.6877657 -0.21147777 1.4963659 -0.49163294 -1.8041605 1.9882778 -0.9431599 -0.20438872 -1.3426492 -2.7618117 0.5962221 -0.055265643 -0.06346553 -0.82895845 -1.8590552 -0.16730706 -0.8752716 -0.40373987 1.3361689 -0.48461935 -0.035613637 -1.4651157 -0.77253073 -0.5837609 -0.6820139 -0.25829807 1.2897333 0.5272845 0.40636593 0.057313476 -0.52236074 1.872863 -0.05053158 1.2057691 0.8168574 -0.41973588 0.6442762 0.55576336 0.18122965 0.80849934 -0.43533778 -1.3770021 -0.676537 -0.20129828 0.4080196 -1.4989421 -1.8676496 1.4536542 -0.5341618 -0.70175874 0.34854093 -0.20568554 0.30998787 0.007792158 -0.21005955 -0.50965226 -1.6454401 -0.33673662 0.8435496 -0.5178621 0.29918087 -0.8320144 1.31591
70 -1.366975 0.99504703 1.0672504 -0.17309552 0.9433587 -1.4205886 -0.34125322 -1.0958623 -0.8148222 0.7671454 1.2482121 0.20487486 -0.33306238 1.4221259 0.3682806 -0.38124466 -0.073436685 -0.7691954 -0.9143601 0.99908334 -0.38285065 -0.35909224 1.2103157 0.9287948 -0.5043516 -0.44436106 0.0455524 -1.179467 0.84072274 0.79767215 0.20564969 -0.2595081 1.0674931 -0.1967611 -0.38425002 -1.4722477 -2.216895 -1.3791037 0.66795206 1.5546144 0.7397069 0.31858742 -0.077746816 -0.31459334 -1.4432657 1.2055427 -1.3787997 -0.92670214 0.6851817 -2.004348 -0.5921921 -0.4213436 0.00832068 0.28181615 -0.36275575 1.3047768 0.23024565 -0.39386994 -0.70544434 0.75711596 1.0266132 -0.9201864 -1.0389619 -1.3557302 -2.0379393 -0.5171261 -0.8509219 0.48313537 -0.043475743 0.7118828 -0.99189925 -0.23003745 -0.2691205 0.85579586 -1.3877078 0.58232176 1.4583817 -1.8651791 -0.57387054 0.21966435 0.047075566 -0.51487195 0.47699022 0.64318025 0.9460397 -0.729152 0.53649694 -0.52077717 0.5784916 0.08670943 0.97489655 -0.6152865 0.34911895 -0.6201121 0.6464263 -1.4356414 1.9357661 0.554125 -0.3283159 0.6237888
71 0.7196188 0.7818979 1.0010307 0.040754545 -0.053893484 -1.5685661 -0.9377608 -0.7526353 1.5138795 -0.9603398 -1.9359294 1.8438015 0.29872203 1.5410185 0.06983511 0.746398 0.53502643 0.7963542 0.32052997 0.85394615 -0.04915292 1.0355537 -0.5599235 -0.1704566 -1.586454 -0.3335703 -0.032303505 0.047824275 -1.1423937 1.2709339 0.23848715 0.067374766 -1.6125449 2.0508816 -0.10362606 -0.9113409 -0.1898798 1.4187926 -0.7178829 1.2847552 -0.37141326 1.6261635 -0.13421997 0.55143094 -0.54759115 -0.9252884 0.12735602 -0.35411957 0.53119576 -0.18055108 -0.33932176 0.32917184 0.13015035 1.3983538 0.7875733 0.46536312 1.2021906 -0.78209525 -0.2262904 -0.5297637 -1.1071187 -0.30834308 -0.62550974 0.65535206 -0.53872544 -0.26760584 -0.5132437 0.16862747 -0.7612309 -3.5059958 -1.5412835 -0.8497571 0.28021228 -1.4223807 1.2808458 -0.017485784 -0.74886006 -0.3379957 1.0530772 0.17044424 -0.9343812 0.031202065 0.516244 0.35347864 1.3684349 -0.6903529 1.3549056 0.4162922 -1.6095412 0.29225466 -1.5281929 0.7442587 0.38418135 -1.4265409 -0.22941864 1.0960457 0.9021672 1.2745763 -0.006838292 1.3992245
72 -0.8367558 -0.16200788 -0.7021369 0.61330813 -2.2447512 -0.41979352 1.7465564 -0.24787182 -0.18860866 0.46701026 0.66600233 0.030040797 1.3817381 1.1858592 -0.67412764 -0.6048308 -1.3187493 -2.0554745 1.8805188 0.22895086 -1.588462 0.56850445 -0.17597324 2.3093853 -0.2811063 0.6928275 -0.05024931 -0.012373891 -0.31792375 -0.076204255 -0.58038026 0.41459504 0.12153485 0.13293302 0.25184736 -0.4675678 -0.86351484 -2.548285 0.028533775 0.68066484 -0.06406637 2.5370448 -0.0015454158 0.7343979 1.0147336 0.19122197 -0.2834677 0.0990322 -1.3876609 0.2707624 -1.430439 -1.3074791 0.15425098 0.169104 -0.6639376 -0.55198056 0.7106694 0.934666 -0.8622867 0.06356715 -0.7445276 2.0778148 -0.07403004 1.9255784 -1.2386795 0.8748703 -0.28658962 -1.179822 -0.53267205 0.8507194 -1.002593 -0.1637155 0.13775231 0.039620668 2.0381002 -0.3876056 -0.054961503 0.8063198 -0.1534836 0.70937914 -0.2819861 -0.55112267 1.1622747 -0.55882037 -0.6411142 -0.32654437 -0.04004958 -0.65699524 0.7356411 0.5075505 -0.11464991 -0.5410841 -0.5055293 1.6734059 -0.43754536 -2.1783032 -1.0777425 0.82219833 -0.23690884 1.5043051
73 -0.5237725 1.5729388 1.7392915 0.40007466 -0.106064186 1.6379554 1.7373105 -0.86126447 0.12804122 0.5040051 1.1594357 1.3324094 1.2347835 -0.14153388 2.4315603 -0.29195294 0.9272602 -0.5168068 -1.2294137 0.57535607 -1.5366172 -0.84437066 -1.172878 -1.1601992 0.46368432 -0.15473896 -1.2037369 -0.85862255 -0.9082522 0.97483885 0.15001899 0.59277004 1.8737605 0.36148575 -0.88755846 1.8687099 -0.2252567 -0.17874087 0.18841557 -2.258809 -0.24968734 -0.78992385 -0.4685128 -1.3660746 0.025724137 0.5618486 0.87643385 -0.3375878 -1.6182792 1.0695086 -0.1672949 1.2588484 0.9307593 0.11118761 0.89867634 -0.071523294 -0.4887457 0.796771 -0.8353219 -1.6891403 0.9767478 1.0975636 -1.7758069 -0.62074023 0.99070656 0.34183884 0.48100066 -0.971218 0.6373732 0.25681698 1.6230412 -0.156776 0.55453444 0.8785763 -0.24617891 2.8023217 -0.6103524 0.6289209 0.052733615 0.07574447 -0.7058369 -1.9479179 0.35712045 0.5478065 -0.09068895 0.020835534 0.7785189 0.009561135 -0.28312704 0.52249026 -0.13460216 -0.3564185 1.1279562 -0.8074043 0.41516435 0.4897826 2.0190413 1.6648117 0.33026302 0.77464765
74 -0.99148893 0.3710745 -0.6605384 -1.0835104 1.090158 -1.1134071 -0.9609854 1.3300235 0.39520708 1.9487854 0.91168875 -0.07142418 -1.185683 -0.5713524 -0.071230255 -1.7199831 0.45924148 -0.16497305 0.8010921 0.7456714 -0.09784622 1.3113784 -0.28551313 -0.26584652 0.48956606 0.60419005 -0.8996802 -0.8314368 1.2586465 -0.02464164 0.801051 -0.5584816 0.34472114 -0.383185 -0.036049426 -0.77887547 0.34334067 0.7232068 1.5513098 1.412413 1.3543488 -0.21459463 1.0967468 -0.83499396 -0.968773 -0.8672905 1.0933528 -1.219238 -0.2517375 -0.33967143 0.17871217 0.17854148 0.85584724 -1.4624714 0.5993891 -1.5993637 0.8027635 0.44690487 -2.1195366 -0.7390851 -0.27416337 -0.23897281 -2.222623 0.20411164 -0.408624 -0.28005427 1.6115466 1.1225744 0.25141934 1.5559199 -0.6794408 1.4273621 0.21575403 -1.2358884 -0.47815004 0.0083006555 0.7788477 0.22885512 -0.984469 -0.39836246 -0.67403775 -0.41740933 0.3167285 1.8710514 -1.476633 -0.9241137 -0.3580341 -1.1228442 -0.20147343 -0.48139015 -0.8457507 0.36164588 0.66400546 2.4413846 0.5393094 -0.57703614 -2.0193667 -0.090982094 0.850707 1.2754301
75 -1.142584 -0.04991217 -0.10410922 -0.73004276 -1.7365078 -0.13856696 0.5653747 -0.21008377 0.06349373 0.18705235 0.16845024 1.0801467 -0.28355017 0.8498581 0.39433658 -0.6358707 0.9288496 -0.2020037 -0.15413246 -0.22243197 -0.6246714 -0.4154076 0.35193858 -0.37591812 1.1246573 -0.028238613 0.38040003 0.39337423 1.033348 0.6627998 0.5564378 -1.2821982 -0.7032569 -1.2147889 0.51450634 1.783712 -1.1974396 -1.4052874 -0.34401628 0.20711417 -0.5291064 -0.5046538 -0.1275968 0.4202529 -0.37949476 1.7114638 -0.12156806 0.8405766 0.6448356 0.36619797 -0.32886127 0.8967923 -0.22867748 -0.22151391 0.4765601 0.15351057 -0.77054256 0.68988025 -0.98875946 0.96920276 -1.1684911 0.9328472 0.86819637 0.7027713 0.5675564 -0.30105406 0.23771977 0.32708308 1.1356283 -1.0640727 0.73448557 0.35791314 -0.28656137 -0.50440896 0.7855198 0.6935112 -1.7296762 0.1710636 0.03456906 1.2660258 0.1521663 0.10410795 -1.0217454 0.80910105 0.80642325 -0.2780569 0.918002 0.39337903 1.1858994 1.1997244 -0.041633558 -0.7043613 1.124153 0.6592087 1.3735486 -1.985848 1.3617004 -0.04812778 -0.27098772 -1.4027269
76 -1.4384905 1.3083018 -1.3648046 -0.63483435 1.3833728 1.2233994 -0.44901258 2.015376 0.23507258 -1.1610614 0.89567256 -0.55693305 -1.7915366 0.63147074 0.63181615 -1.1145467 0.3015479 -1.9722979 -0.28927523 0.19884564 -0.030760787 -0.17673807 -1.5111464 0.24513315 1.2554609 0.14954473 0.49681658 0.16358487 0.8095159 0.8406686 0.5248184 0.061503842 -0.24165587 -0.0116448775 -0.3235775 -0.007814099 0.8187525 -0.11650632 0.07657886 1.9008512 -0.29098064 0.23878838 0.6647326 -0.06000089 -1.0045611 0.5703566 -2.7258487 -1.0992239 -0.7226946 0.82233244 -0.6065305 1.5080698 -0.39356652 0.22084552 0.3584984 0.008719449 -0.27536213 -0.9991707 1.4816679 0.22875698 -0.40635026 -0.6998863 -0.19817056 1.1464608 -1.0067645 -1.1825324 -1.4916155 -0.6390807 -0.18988894 0.24594232 0.12844782 -1.4584999 1.0749314 0.42590582 0.59506273 1.1163297 0.37370154 -0.76789 0.500407 1.2740777 0.016010938 -1.6247479 -0.6503192 0.935675 -0.24331978 0.04804318 -2.7061691 0.2762024 -0.6385954 -0.35815513 0.608511 -0.54786485 -1.3111653 -1.122045 0.7428768 -0.5549552 -0.5540482 -0.7241844 -0.31908685 0.31436515
77 1.6884532 -0.8302236 1.5899647 0.32801986 -0.7510092 -0.613808 -0.48931047 0.69365096 0.11189554 2.5021813 0.55261767 0.18031217 1.5145988 1.4253728 1.1650931 -0.2140553 1.2421046 0.40918908 0.7564602 -0.041003764 0.9321059 0.9305612 -1.7515075 1.9597464 2.0588844 0.6539019 -0.17989372 1.2140366 -0.33964524 1.0216776 -0.6987096 0.23252207 1.8857845 -0.6593 1.3278166 0.031578418 0.39659443 0.029664483 -0.8609937 1.8395629 0.63480425 0.90823174 -1.3744316 2.167177 -0.3218842 0.7065953 -0.012637884 -0.20998156 0.40639833 0.4392572 -0.5597076 1.0652736 0.49396256 -0.34024557 2.575556 -1.5381514 2.363285 1.0371448 -0.5457194 -0.28619203 -0.106772915 -0.26827273 1.0452615 -0.16625334 -0.0022524795 -1.5467356 -1.0284601 -0.7050693 0.37204048 -0.26075318 -0.11270103 2.2017732 -0.7533966 -0.4897017 0.19322592 0.33290207 -0.108827196 -0.66183496 -1.2828108 1.2609763 1.5224007 0.64604735 -0.037396815 -1.8385577 -0.21694879 -1.0491446 -0.8666938 -0.21027936 1.4957999 -0.6177236 -0.0062404783 -1.401707 -0.12514395 0.09766619 -0.6068922 1.4457284 -0.23385109 2.1195188 0.13381714 -1.5903882
78 0.48265764 0.20849374 -0.17525074 -0.9069881 0.20527872 0.6777519 1.8773346 0.78416103 0.16913843 -1.139308 0.5651728 -0.31396288 -2.6313424 -0.87184477 0.46820316 0.2698483 0.5222804 -0.7125038 -1.1460391 0.50532335 0.14548972 0.27809355 0.031977165 -2.400225 1.5879667 1.2828492 -1.8460644 1.0803615 -1.9094656 0.55975574 -0.4940272 -1.2568256 0.4168046 0.29237324 1.3910972 -0.08958343 0.65539145 -1.1396815 0.28433216 -1.2194018 0.0103546 -1.436662 -1.7510266 -0.86254275 0.5688415 0.47376847 0.85124975 -1.6621056 -0.56173384 0.40285906 0.36079282 0.43367848 -0.53806996 -0.66429424 -2.0061893 0.75595695 0.06745496 -0.49509287 0.6535696 2.9921787 -0.8439614 1.9992341 0.46109018 -0.87984914 1.8213812 -0.93364364 1.0154597 -0.13826732 0.7760273 0.5368468 -0.36982477 1.5368494 1.2613492 0.98560965 0.2122926 2.314166 -0.67262113 -0.8559256 -0.018726284 -0.13553472 0.10332758 0.3909903 -0.74880564 0.28796917 -1.1203786 -0.7198992 0.27079496 0.69341725 1.236579 -1.0987225 0.4083136 1.9058977 -0.4548714 1.0967684 1.5073291 -0.16735974 1.213616 -1.5293369 -1.4838821 -1.3431118
79 0.17974205 -0.9899682 -0.050734635 -0.6266961 0.32158574 1.1635206 0.17578329 -0.29351193 -0.16029494 -0.69124025 -0.1768088 0.59017664 0.008039582 0.50570315 -0.5924078 0.039651636 -0.71065754 -1.0003071 0.9615583 -1.8256222 1.3331038 0.40387872 -0.4188891 0.5970655 -0.4144256 0.08317086 -1.9824378 0.23437175 -0.2143851 1.1483985 0.53531176 1.2040975 0.23054369 0.43792892 -0.93124735 1.1724411 -0.24978615 1.0182912 -0.7949604 0.16421889 0.10531322 1.9051224 -0.8074391 0.57084614 -0.20913158 -1.068695 -1.8444765 -0.12142 0.4674258 0.10785789 0.9333316 0.6190471 0.5632596 0.2202674 0.53615934 1.1243035 -0.40978244 0.38271198 1.2903957 1.857541 -1.6038371 0.34297505 0.65881884 1.404043 0.26638412 0.7768439 -0.1683874 0.9935939 -0.807223 0.43811396 -1.8868704 -0.21862788 -0.66611886 -2.5175455 0.43268597 -1.3818598 0.31216985 -1.2904286 -0.50501466 1.591467 -0.6897106 0.70404875 -0.14748487 -0.16303661 0.5421353 0.43046954 -0.8700305 -0.4401513 -1.2492429 -1.2497699 2.6923563 -0.7149551 -1.6393087 1.678488 0.74884653 -0.6330859 -0.2017662 -0.5398551 0.9147142 0.7058586
80 -1.5410353 -0.99512845 -0.34326878 -0.21438657 0.13000372 -0.19704041 1.7957253 -0.60592633 0.31480336 0.087840594 0.14987022 0.48462775 0.18687928 -1.1418742 -0.9777792 0.19422922 0.26099867 1.5180725 0.115771815 2.183438 0.18745616 1.4040711 0.63659316 1.5151274 2.0753458 -1.014947 0.06220888 0.881544 0.28121504 0.58503443 0.50965714 -0.06667967 -1.3726013 -0.23076573 -1.0313228 -0.92018956 0.16461807 -0.41564688 1.426593 0.04338218 -2.5892348 -0.63804966 1.539061 0.13881366 -0.7957701 0.2448817 -1.2549019 -0.7742714 -1.0890859 -0.17771517 -1.0164707 -1.5755445 -1.6119936 -0.027385274 -1.7448317 -0.8633848 -0.20308504 -0.48858452 -0.028668677 0.23419882 -3.3190334 1.3083667 -0.34080598 1.2176057 1.3042133 -0.3249126 0.11266349 2.8585737 -1.672915 0.4042797 -0.81578183 0.39120254 1.1861002 0.7696071 0.8736571 0.6385628 -1.0393983 -0.96012354 -0.9352218 -1.0417328 0.8365308 -0.7462697 -1.0804944 0.6336763 -0.03243295 0.97657645 0.45577547 -1.5712671 -1.1404403 -0.28699 0.6977133 0.37747648 0.07443134 -0.96609604 -0.2719668 -1.6582673 -1.1707366 -0.5783884 -0.6988577 -0.1081541
81 -0.50723046 -0.13818589 1.523807 -0.2867773 -0.4323046 0.18487471 -1.033923 0.57343704 0.7843977 0.60549814 -0.10625182 0.4573351 1.5181289 -0.28310147 -0.14170866 -0.08130881 -0.858512 -0.6960584 -1.1478795 1.0958598 -0.6200788 -0.96334815 -0.89409757 -1.2258195 -2.3351521 -0.96626407 0.44949147 0.5266488 0.19502178 -0.028454583 0.26497424 -0.42441997 -0.0026566493 -1.7222515 -0.024085594 -0.3595734 -0.783069 1.2514501 -1.1244239 1.1636922 -0.38569188 -1.0523546 -0.6642772 -2.256743 -0.21104358 0.47657442 0.887783 -1.182032 0.31341618 1.3745489 -0.43597856 0.35354346 0.1314141 1.1063695 0.88208604 -0.33184135 0.51059574 -1.8322599 -0.009971594 -0.4529426 0.25883657 0.53307 -0.060758445 0.63173246 -1.9048193 0.5038729 -0.054176718 -0.56816936 0.5048091 -0.8638297 -0.17305687 -1.4701813 0.6279974 1.1693815 -0.5990058 -0.6746194 -1.924953 0.16244547 -1.0998052 0.577592 1.2479339 0.18220341 0.09936347 1.747529 0.42794824 1.9865129 0.3483608 0.65830034 0.39777023 -0.8957516 0.070487976 1.0083122 -0.16718839 0.3097204 0.5673973 0.057506125 -0.7640554 -0.21973433 0.33356786 0.3037068
82 -1.0462167 0.44965845 -0.56217766 -1.0442786 -0.05331514 0.838639 1.0616819 -0.32646626 0.61310303 0.12296685 0.26486626 0.52744997 -1.3705328 0.199519 -0.5050504 2.7087023 0.27315703 -0.7644002 -0.38430586 -0.878725 -1.9003441 1.0717155 -0.46050096 -0.54024845 -1.2712045 0.26496068 0.0036971704 0.9792422 0.71181893 0.53072333 2.2252617 -1.138751 0.19584137 -0.61810774 0.6838069 -1.5492831 0.97611904 -0.20048866 -0.81804186 1.2330943 -1.913525 0.030299142 0.08492552 -1.2361581 1.7060614 1.8746724 -1.2526125 -0.582783 -1.6557568 -0.82374555 0.07136374 0.85643774 -0.26063815 -0.68437207 0.31083128 -0.027684357 0.112523995 0.48698026 -1.52256 -0.067852445 2.1821659 0.96194434 0.27187434 -1.3653497 0.6429001 -0.96712285 1.0407035 2.818467 -0.022068094 -1.2603625 1.1215352 0.8805299 -1.930384 -0.55132496 -0.47730294 -0.76645154 1.9301877 -2.2919204 -0.18291976 1.1041557 0.2828484 0.050675876 0.37327492 0.28606412 1.2021726 -0.72498465 -0.38937452 -1.4769745 -0.009409588 -0.7645526 -1.6846493 0.46554852 0.24934964 0.5602354 -0.25641 -0.2694899 0.24135987 -1.8298515 -1.3056697 -0.2663866
83 -0.37527502 -0.33791554 1.0095706 0.80208135 0.09840484 1.7049938 1.1883361 -1.0137151 -0.8183569 0.14605032 0.441463 0.7730132 0.82691234 0.97169554 -1.4289488 -0.052742228 0.01302589 -1.2500608 -0.8519662 1.8656477 0.7662 2.4227295 -1.2463133 0.6932238 1.1421578 -0.418625 0.5117616 0.34337142 0.92221767 0.84248257 0.45335457 0.656285 1.3392264 -0.58098483 0.30197442 0.5812672 0.22395381 0.5452138 -0.7462888 0.33509743 0.46888942 -0.9044699 0.25019792 0.99521595 -0.3368511 0.9508692 -0.72231615 -0.13989736 -0.22797327 0.6148854 -0.39014268 1.1580586 -1.6033419 0.5395306 1.5080135 -2.335257 1.4146562 -0.6300307 1.7493607 -0.24121001 -0.16860649 0.36241478 0.008874767 -0.33749285 -0.096894994 -0.539065 -2.11881 1.0954112 1.0156951 1.2666128 1.1039517 0.65213907 1.2162917 0.7691069 -0.42960632 0.6714754 0.9879563 -0.94236386 -1.2415396 -1.9577796 1.0902028 1.121132 0.702227 0.64520854 -0.9666473 -0.64263016 -0.76285696 -0.41134912 -0.24995758 0.27986044 1.7920097 -0.13031402 -1.1084254 0.7261541 0.39696777 -0.56047624 -0.039151046 0.3691771 -1.1397123 -0.6892669
84 0.08330941 -0.2763144 -1.8643109 -0.22484869 0.023694964 1.5257636 1.1374719 0.76958 1.0708779 1.5029985 -2.081851 0.07836034 0.950201 0.16889685 -0.9137769 0.362033 -0.2046146 -1.9444407 -0.32340834 -1.0094904 -1.0164438 -0.32288498 0.14186333 1.2221842 -0.7641627 0.8056061 -0.7177567 -0.93502074 0.8525617 0.25403842 -1.3015252 -1.0975621 2.4701834 -0.15259989 0.3099764 -0.28538644 -1.918748 -0.78623474 0.5580371 0.8537447 -0.2322506 -0.14836554 1.4128807 1.3198621 -0.33502302 0.2108563 -1.6437607 0.13976423 0.85268366 1.6944662 -0.5463137 -1.4487021 -0.71611524 0.7010383 0.5572234 -0.33831653 0.5949843 0.57694006 -0.5713526 -0.48206908 0.98119056 -0.44495863 -0.3686464 1.3674557 0.83689016 -0.7697222 -1.3869417 1.3917546 1.3110447 0.62270474 0.54136837 -2.2555923 0.56832606 -0.33238178 1.7523646 0.6578657 0.27662548 -0.060900033 1.5081798 -0.91056675 -0.32662427 0.30234146 0.1828851 -1.3122228 -1.0224677 -0.8955664 -0.7234067 -0.99284744 1.4449241 0.52029014 -0.96793145 -1.1364218 -0.4833242 0.37133813 -2.5410247 -0.18391497 0.32987484 0.06343587 0.07500668 1.5581893
85 1.3269871 0.42046678 0.05939923 0.6083849 0.86908996 1.2811239 0.7710424 0.08072318 0.7018591 -0.11423315 -1.4488811 1.9024659 -0.6404642 -0.8044891 -0.7909995 0.96342844 -0.32141793 -1.6740222 -1.3921256 -0.56602246 -0.931357 0.18379192 -0.24986178 -0.44658205 0.21441936 1.8080901 0.6834963 0.70609504 -0.6719865 -0.43422562 0.45962194 1.1396776 0.04059335 0.6774085 0.8013652 0.62564266 0.03886305 -0.12508814 -1.3011949 0.78092784 -2.544103 -1.0374982 0.49922538 -0.605126 0.42676634 0.058409963 -0.7916731 -1.3288306 -0.9492588 1.775088 1.2902184 -0.78112566 0.6575828 -0.8234499 -0.40053776 0.23294818 0.43863812 0.30734143 -0.03321321 -0.28484488 -0.09935969 -0.59892917 -1.6912901 0.5376201 0.9246541 0.37741563 -1.1210883 -0.9773164 0.45702383 -0.5843999 0.41324496 -0.84381175 -0.68441963 -0.7069665 -1.4590845 -0.38896206 -0.65877604 -0.23121937 -1.5584022 0.7517446 -0.7891336 -2.2906137 -0.7107304 -1.9487647 -1.6947141 -1.9692476 -0.15208572 0.4421382 -1.0733771 0.17754152 0.8428989 -0.71373713 0.8644314 0.61993915 0.94118094 0.8443418 -0.21492423 -1.1503987 0.27372745 -0.76326305
86 -0.6157371 -1.0917488 0.23050746 -0.3253558 0.61152613 -1.3877997 -1.216973 1.9745655 -0.0734794 -0.47002268 -0.9543061 -1.3650882 -0.64341205 -0.5276164 0.6965717 -0.2167391 1.1415976 1.1328987 -0.22444917 -0.9020172 0.2715606 -0.7266332 -0.053785022 -0.66969675 -0.54448813 -1.1672447 0.26414213 1.1653302 -1.0780165 0.4395766 0.2605857 0.098599516 -2.3549414 -0.31809917 -0.2836542 -0.22253175 -0.48217693 0.14810106 -0.5595969 0.7374999 -0.29861617 -1.7449671 -0.61334896 2.0185416 -1.3311443 -0.6468448 0.110068925 1.705815 -0.27781117 -0.20181073 0.20145608 -0.7899126 -0.44183984 0.12668133 -0.4409221 1.1537769 -0.26598087 0.22440642 -2.3113475 -1.389309 -2.038587 -0.20834409 -0.43833414 1.3066604 0.45884845 0.6939994 -0.43286926 -0.032744333 0.68121815 0.37548998 -0.8693378 0.24438556 -2.2756586 -1.1153048 1.3696345 -1.3858966 -0.8552978 2.2384818 -0.7489374 0.62825835 -1.0091873 -0.15911192 -0.067979746 1.67415 -1.9037027 0.24056311 0.2596115 1.3266373 -1.6525848 0.2951773 -1.0735571 0.7148108 0.11880209 2.560046 2.0430434 -0.2487956 -1.1739008 1.303274 0.9398408 -1.2702341
87 -0.18910038 1.0258937 -0.848501 0.7042965 -2.0385082 0.29066032 -0.69227976 0.8781092 -0.3198612 -0.7823252 0.9571159 0.1847883 0.47490796 1.7175146 -1.5507047 -0.74436873 1.6936133 0.38646737 0.13907208 -0.59156984 -0.33787972 1.5940316 1.0610622 -1.1603521 -1.2261404 1.9152386 -0.3180427 1.795164 -0.5473867 -0.5129586 1.2988418 -0.022532161 -1.0508691 -1.1182426 0.13467067 0.8962335 -0.9806003 1.1354213 1.3513926 -1.9630712 0.4446591 -1.1480652 -0.30661604 0.96936166 0.11422881 0.8301044 -0.7433373 1.1053773 -0.2730425 -0.014186365 1.5418942 0.2302793 -0.61003995 0.41970563 -2.3854928 0.66662353 -0.36387244 -0.66832906 0.23071611 0.4012536 0.60875124 0.59531796 0.9399352 -0.5727697 -1.2122763 -1.6214492 -0.4245896 1.3856683 1.3335487 -0.6849523 1.0857353 0.27042297 -0.4260739 -0.45507953 0.9780908 -0.7184845 0.509609 1.1823689 -1.7181768 0.72442126 0.41337326 0.08953554 -0.6542453 0.76140195 -1.8363013 -0.00095939095 -1.7760614 -1.0307597 0.582405 0.52173036 -0.45939702 -1.463926 0.8678721 -1.3056593 3.209333 0.19086114 -1.2497293 -0.59891754 0.15264253 0.08811674
88 -0.37505123 0.28623888 -0.4911355 0.70052826 1.1784513 -0.30769694 -0.0478831 1.2841828 -0.79154843 0.2327573 2.4634626 -1.6427042 -0.15599282 0.070349924 1.1368389 -0.35568663 -1.6128787 0.47474313 -1.1821238 -1.7534065 0.35512266 -1.086398 -0.68789744 -0.040794335 0.49776316 1.1732545 -0.32324335 -1.2365397 0.6063417 0.02682169 0.20779416 2.3767476 1.4936824 -0.8737606 -0.65184575 -0.3861256 -3.143245 -0.04360865 -0.6416696 1.5573434 -0.09715964 0.2574708 -1.9095075 0.65773785 -0.97814125 -1.253371 0.23677084 0.0977911 -0.46382937 -0.8514274 -1.0351228 2.0399506 -0.11384986 0.6693103 0.072259516 0.2523035 0.19404319 -0.4346259 -0.68478626 1.0498539 -0.83526564 -0.38289213 -1.1128601 0.6657738 0.17358063 1.2263921 0.55624676 -1.7747066 -0.88004404 1.0928687 0.4142885 0.9793427 0.4634714 0.023514526 -1.4307859 -0.3093939 -0.6546685 -0.22743754 0.2894959 0.29611817 0.8294942 2.3632557 0.018453326 -1.5682068 1.7235091 1.4906924 -1.5032866 1.5162612 0.12991759 -1.0948188 -0.55293596 0.8845743 0.910585 0.6733328 -0.08529125 0.1319451 0.637494 -2.0622776 0.1275737 -0.17773144
89 -0.24294205 0.68674576 -0.49766764 -0.20008306 -1.0708661 1.0900316 0.76827425 2.023422 0.9690506 -1.2233642 1.0534286 -1.8896402 -1.745132 1.4898158 0.89159507 -1.0380081 -1.454711 -0.7918367 0.7026919 -0.37836128 -0.844243 -0.021060938 0.035589833 0.50538677 0.24837695 0.6302921 -0.3269935 -0.669728 -0.554005 -0.46664163 -0.49799886 -1.0379571 0.26707366 -0.5235737 -1.1622243 0.09160383 0.8089062 0.5178725 0.932437 0.74071306 -0.5457939 -1.0195546 0.35729486 -0.36440486 1.6558698 0.27275774 0.67519855 -0.2319532 0.49030533 -0.038172588 2.219448 -1.0413227 1.6375635 1.1305759 -1.6770029 0.84678376 0.14301857 0.07577736 -0.5961191 1.5947052 0.42278802 -0.68598676 -0.8014083 0.006136484 -1.9043462 -1.2102001 0.44145948 0.42814726 -0.25955456 -1.2431725 0.6295047 0.33403352 -1.4151806 -0.22339852 0.24278522 1.0777406 0.8139123 -0.89730513 2.270892 -0.23300193 -0.5377679 0.29836175 0.6043062 -0.10810826 -0.65538365 0.09776757 0.9847339 -0.6548536 1.5965655 1.6214051 -0.3860558 -1.3228664 2.651825 -0.2598035 -1.246764 0.13336894 -0.6181165 0.06955703 -0.2312469 -1.0196332
90 -0.34809557 1.2586672 1.1291888 0.10765778 -0.7148139 0.38643438 -0.7422653 0.098873004 0.13080283 0.148534 0.14860682 -2.000614 -0.84351563 0.94067377 -0.5541857 0.8862967 -0.1676718 -0.83064884 -0.5977399 -0.32059574 -0.052715667 0.92837584 0.6544983 1.146928 0.33572486 -0.017192565 -2.4400141 -0.45900097 -1.2566215 1.3362784 1.0319681 0.14182125 -0.6087241 0.14744519 0.87632674 0.5329397 -0.022593427 0.50226176 0.9672188 -0.037000053 1.6606417 -0.16708815 1.081051 0.12735948 0.35917112 -0.15625954 -0.4756327 -0.8996268 -0.8586192 -1.6628596 -0.5809489 0.07111513 -1.2443609 -0.9546727 -0.27551624 -0.49585575 -1.9829075 1.0055617 0.9921408 -0.9050223 -0.054468896 -0.103347495 0.51189363 -0.20134853 0.2707534 -0.5057266 -0.11044651 -0.31541246 -0.3492525 0.9025073 -0.5228538 0.8123538 0.0910304 2.6237323 0.031379648 0.1699638 -0.3040014 0.057639997 -0.38205218 -0.4917417 0.7905184 0.83660716 -1.4361852 0.49139124 1.2100972 -0.26464045 1.3525567 1.1602266 0.012983308 0.9059699 0.15528707 1.4251785 -1.1339839 0.51397234 0.6279012 2.0071712 0.4533041 -0.32088035 -0.36040387 -0.95493823
