263 100
Helvetica -1.5255959 -0.7502318 -0.6539809 -1.6094848 -0.10016718 -0.6091889 -0.97977227 -1.6090963 -0.7121446 0.303722 -0.7773143 -0.25145525 -0.22227049 1.6871134 0.22842517 0.4676355 -0.6969724 -1.1607615 0.6995424 0.19908163 0.8656924 0.24440393 -0.66291136 0.80730826 1.1016806 -0.17593604 -2.2455578 -1.446458 0.061155282 -0.6177445 -0.79806983 -0.13162321 1.8793458 -0.07213178 0.1577706 -0.7734549 0.1990565 0.045702778 0.15295692 -0.4756788 -0.11101983 0.29273525 -0.15784515 -0.02878714 2.357111 -1.0373387 1.5747981 -0.6298472 -0.9273917 0.5451415 0.06628026 -0.43704012 0.7626006 0.44151092 1.1651385 2.0153918 0.13741246 0.9386447 -0.18600109 -0.6446393 1.5392458 -0.8695876 -3.3311536 -0.74787223 -0.025502462 -1.0233306 -0.59618515 -1.0055307 -0.2106063 -0.0075475276 1.6734272 0.010342831 -0.70395666 -0.1852658 -0.9962351 -0.83125526 -0.46102202 -0.56008244 0.39557618 -0.9822771 -0.5064866 0.099775404 -0.6539734 0.7316937 -1.4343859 -0.50081307 0.17163314 -0.15999313 0.2546335 -0.5019573 -1.0412 0.7322672 -1.0483401 -0.4708772 0.29113635 1.9907043 0.6614453 1.1899205 0.8165339 -0.9135236
expandedcolortbl 1.3851457 -0.81384623 -0.92757654 1.1119633 1.3352057 0.6042736 -0.10344208 -0.15121692 -2.102083 -0.62002194 -1.478231 -1.1334175 0.8737963 -0.5602594 1.2857845 0.81682384 0.2053041 0.30510718 0.535687 -0.431185 2.5581384 -0.23336388 -0.01347213 1.8606348 -1.9804063 1.7985829 0.10181159 0.340006 0.71236455 -1.7765073 0.35386458 1.1996132 -0.3029974 -1.7618417 0.6348446 -0.8043591 -1.6111118 -1.8716129 0.5430836 0.6606786 2.2952116 0.67490596 1.7133216 -1.7942734 -1.3632672 -0.9832196 1.5112667 0.64187074 0.4729638 -0.4285901 0.55137074 -1.5473709 0.5181121 0.10653535 0.26924077 1.324768 1.7460191 1.854969 -0.7063691 2.5570862 0.4175343 -0.2127186 -0.839958 -0.42001787 -0.6240363 -0.9772961 0.8748428 0.9872814 0.30957633 1.52069 1.2052339 -1.815591 -0.40346155 -0.9591451 -0.005207704 -0.07886314 0.8436543 1.1657013 0.5269322 1.6192533 -0.96397626 0.14152038 -0.16366096 -0.35822257 1.7222793 -0.3035756 0.2388742 1.3440012 0.10322569 1.1003542 -0.3416802 0.9473389 -0.56851596 0.8375962 1.7836607 -0.19542466 0.5149161 -1.8474776 -2.9167426 -0.5673299
Magali 0.07982543 0.36051682 -0.7943681 0.783143 -1.1927546 -0.7012718 0.9852856 0.10945726 0.91045505 1.0997788 -0.660173 1.76688 0.39669666 1.9140252 1.9722413 1.3703686 -0.5948614 1.1454092 1.0725459 -0.6725621 0.6796677 -0.5684179 1.2770718 1.0999559 1.475413 -0.90956014 -0.066458166 -1.1668702 1.2978486 0.8966638 0.2156111 0.8580541 -0.2827454 0.16316211 0.9757526 -1.2719284 1.1891233 -2.6579576 -0.61252636 0.35998085 0.68370545 0.68509096 1.6987242 -0.88617945 -0.6516015 -0.66841877 -0.18491563 0.57590914 -0.012242123 -0.084795505 -0.22031319 1.4794469 -0.10174803 -0.73572344 -0.68876064 0.24276443 -1.3578968 0.8788256 0.4755955 0.88334465 1.9502928 1.0384657 -0.08839078 -1.8618878 -1.2380371 1.4604242 -0.79996777 0.6578721 -0.7479575 2.0411823 -0.7621117 -2.2764518 -1.1994827 -1.195538 0.85628074 -0.18482596 -0.097128816 -0.14829929 0.8584208 1.1218561 0.7893462 -1.5527511 -0.389239 -0.3393163 0.32621777 1.130162 0.6712509 -0.39831614 -0.117028296 -1.1011994 0.45066786 0.05362888 -1.5112922 -0.94620085 -0.43455842 -0.08353007 1.4809904 -0.3360947 1.6067724 0.34536028
et 0.5722216 1.0511076 -0.29980785 0.55892545 1.036811 0.14121799 -0.19724138 1.6017187 -0.85517335 0.36168763 0.3879915 -0.6483219 -0.26470748 0.62026304 0.31455076 0.44788253 0.5258767 -1.9020926 -1.1445806 -0.838813 0.044184897 -0.7470465 -0.18541573 -0.29595894 1.4018947 0.5039834 -0.4367233 -0.4317585 1.002323 0.08601674 -0.7247525 -0.072072215 -0.5809902 0.75180763 0.37783998 0.98864096 -0.77103835 -0.2588053 -0.5000817 0.044371344 0.4387059 0.182838 0.22166963 -2.0224154 0.5266981 0.5074176 0.70097584 0.72846794 0.31435826 0.23580284 -0.433485 -1.007976 0.11809921 0.8125739 0.40344113 -0.90943927 -0.65034574 -1.4083879 1.4069133 -0.14514378 1.0436231 -0.34701014 -1.3743069 0.29214695 -2.4513934 -0.26020202 0.152468 1.1475927 -0.9754887 0.26597625 -0.43501678 -1.3772907 -0.52905023 0.8340751 0.82914865 -0.77161115 1.0193368 -0.34445992 -0.34503388 0.10848556 0.7545366 -0.022051595 -0.94819593 1.0559158 -0.7193561 0.2370146 1.0176847 -1.1735171 0.7221071 -0.8138722 1.0312711 0.35394034 -0.059855144 1.8250062 0.026543368 0.09178297 -0.36206385 -0.43442598 0.0029609334 -1.5585333
le 0.2721033 -1.0719552 -0.9012897 -0.28251648 -0.2838052 0.11170472 -0.36816853 -0.048230812 -0.7368362 0.86864614 0.18858585 -0.67216486 -0.63549036 -0.2575025 -0.42148954 0.20998849 -0.5175605 0.473715 -0.18653762 -0.07024473 -0.85759336 -1.8277385 -0.9124727 0.1002135 -0.009620493 -1.3730782 0.24778773 0.42831382 0.11312044 0.5868893 0.228055 1.8822703 0.89698344 1.1649706 0.88535935 -0.18909788 -1.2215252 0.33773282 0.23679064 0.10720434 1.0697879 -0.06259109 0.036095984 -0.6759403 0.27494878 -0.46913353 1.2554258 -1.2861849 -0.26334116 0.11057568 0.33691296 0.032648504 -0.24845299 1.1531843 1.085411 -0.5059256 0.5087269 -0.10879114 -0.66951597 0.62450784 -2.447259 0.13107134 -1.313544 -1.3611999 0.77603084 0.8835143 0.78015983 0.97352284 0.8603211 -0.04621536 -0.05114802 0.4720442 -0.4854893 -0.17189631 0.064640254 -0.74247104 0.038109202 -0.44996345 -0.9854737 0.49512896 0.12226758 -0.06666386 -0.3398289 0.036123812 0.85694754 0.72891855 -0.6640507 0.20274384 -0.83918023 -0.4621064 -0.9297201 1.2578539 -1.7184072 0.2885641 -0.47451976 -1.5228131 -0.75004864 -0.06902353 -0.077363886 0.6417658
pain 0.39469838 -0.1730677 0.047106765 -0.39252508 1.1758405 0.7730245 0.41879612 0.69425815 -0.82310927 0.76132685 0.23067167 -0.59429103 0.0007042203 1.0597849 -0.19161 0.03007601 -0.12722445 0.34311295 -0.35709253 -1.1456056 -0.25055122 1.0381593 -1.7157841 0.26504433 0.45055866 0.6203224 -0.47308266 -0.17979291 0.2504577 -0.5841474 0.2648417 0.8325504 0.36760888 1.3568666 0.020736242 -0.21963812 -1.069247 0.13655455 1.2408206 -0.31852528 -1.5502816 0.5179808 0.6801545 0.20572929 0.7415774 0.71628183 0.044234164 -2.0724814 0.8172745 -0.34665146 0.8617245 -0.0838523 -0.749775 1.4645107 0.42683047 -0.80361015 -0.6169885 1.9512808 0.8800906 0.47434807 -0.22769755 -1.0235928 1.0449182 -0.53871477 1.0219924 0.96298283 -0.14198178 -0.13161674 -0.50158006 0.3381344 -0.82501614 0.4488687 0.836745 0.9707955 0.79837334 0.70566195 -0.4793706 0.5005269 0.45142686 0.08371089 0.2617853 1.0768099 -0.8718573 1.1284027 -0.63209385 0.68429804 1.5798273 -0.93814015 -1.6888516 -0.61004496 0.409593 -1.634545 0.41493964 -0.88080376 1.2908871 -0.6213358 0.041784666 0.68554336 0.3466308 2.7516863
de -0.68651223 0.13531369 0.06718955 -1.536758 0.5091333 0.06972847 -0.16976745 -0.11744261 0.11437396 0.029345812 0.46707547 -0.46338257 -0.2836708 -0.5066625 0.28669518 -0.9057322 -0.28356194 -1.2318599 -0.122147486 -0.66982925 -0.250436 0.12964375 -0.5788919 -0.68839073 -0.5736233 -0.45116204 0.10225481 -0.86633074 -0.57139707 -0.21602473 1.0272572 0.30321977 -0.15466495 1.4964516 0.6617589 0.04448078 -0.28287897 0.91041464 0.42528626 0.29248223 0.6674413 -0.39730024 0.8060256 -0.46028477 0.8899202 -0.05990987 -0.069081075 0.11457245 0.3538316 0.27120802 0.93049103 -0.93479705 0.5324696 0.8578348 0.13446581 0.8585504 0.5209374 -0.88322747 0.57277167 0.28664917 -0.17546287 0.73107976 -0.122911215 -0.21571337 -0.9026738 1.1628492 0.14429054 0.51409185 0.034117617 0.76641613 -0.23953824 0.19735174 0.16944972 0.5920071 0.3928987 -0.31116492 -0.2654834 0.27446824 -0.40423724 0.17179282 -0.043131582 -0.44355154 0.58119714 0.63280416 -0.4059145 -0.10310352 -0.9898187 0.55518144 -0.0021147635 0.102243215 0.36890796 0.2176123 0.16851191 -0.14805837 -0.20966582 0.0902216 -0.21054097 0.05216366 -0.73602 -0.55422586
kg 0.6101164 0.7241511 0.41273415 0.020677045 0.82776755 0.18272227 0.34795597 -2.488386 -1.2280735 -0.19081195 -0.9055911 0.43086392 -0.7649005 0.86034214 1.8477043 -0.22325242 1.5411476 -0.4775865 -0.047419 1.2788117 -1.9909431 -0.66683 1.3491346 0.06934074 -1.2436746 0.8098957 0.4142652 -0.22573291 -0.2424854 1.7860659 -0.079577856 0.00555094 0.34039766 1.5868506 -1.2034066 -0.7572126 1.5893112 0.38191676 1.1144046 0.5310282 0.109020166 -0.16940153 0.9792839 1.1488124 0.74799615 -0.20390683 -0.7467727 -0.90109074 -0.5078113 0.473449 -1.1257794 -0.89295024 0.9184657 0.23522812 0.83858556 1.9583496 -1.7278954 -1.2473034 0.29179814 -0.9968818 1.2981454 0.6066389 -0.6045728 1.2407707 1.3454546 -1.103586 0.93946266 -0.70341396 -1.1309963 0.29775077 0.47721878 -0.17781232 -0.0427509 -1.5896428 -2.338724 -1.0296777 -0.36297733 1.673904 0.48589435 1.3039348 0.025473688 -0.9867311 1.0607989 -0.111602254 -0.20954035 -0.006493086 0.2083225 -0.07825609 1.2850965 -0.43791386 0.1413986 -0.08191625 -0.23241758 -0.74834955 -0.31664962 -0.32553622 -2.0381577 1.0898411 0.17985693 0.890652
m 1.7145175 -0.26394486 -1.2381536 1.1540549 0.115750514 -0.703712 -0.91552925 0.49794668 0.79260296 2.3974597 -0.48134944 3.6896389 -0.73886836 0.28906995 1.3941182 -1.8507135 -1.6842488 -0.98745114 -0.72659284 -1.1546481 0.9171713 -0.9404454 -0.0912722 1.4366504 -0.55083877 2.5358145 0.93432194 0.44141218 2.1412225 1.5031629 -0.33791244 -0.93487084 -0.16989347 -0.24116795 1.8062272 -1.3349483 -1.2467784 0.12913992 1.1626513 -1.8320286 -1.6242932 0.5946517 1.0512288 0.15057214 -1.9890128 0.16196826 0.2022095 0.026033178 0.5493338 1.6580667 0.18460464 0.55903655 -0.08980672 -1.340276 0.056375507 1.1374079 0.57224363 1.4611943 0.6607908 0.20880537 -0.36416373 0.28549582 1.009257 -1.2622497 -0.7361142 -1.3674507 -0.8386583 -0.11032732 0.75722784 -1.4355514 -0.103975415 1.2163745 -0.46783775 -0.9902025 -0.19652419 0.2677884 1.2614864 -0.7185295 0.49800983 1.0338591 -0.8754786 -0.40945077 0.1564156 1.9334273 0.5908341 -0.040639363 -0.8949771 0.38882738 0.07171427 -0.89554477 -1.4849623 -1.0247146 -2.3107748 -0.44354406 1.4591813 1.5663033 0.9696882 1.4131322 -0.68467593 -1.0859444
La 0.5936222 0.42145312 -0.3346926 0.075768165 -0.28187957 1.1621752 -0.03820377 0.5135447 -0.46169817 -0.9878269 0.83277076 -0.3155015 -1.380753 -0.7718165 1.0178795 0.8917535 -2.1934817 1.586359 -0.3409152 0.46630827 -0.7663878 -2.5074358 0.08950774 -0.9963679 -1.2707866 0.70925725 -0.8867897 -0.9046448 -1.6555665 -2.2458408 -1.606845 -0.3344565 0.8977037 0.358397 0.94180036 0.08686267 -1.5494521 0.9748211 -0.1650558 -0.34924975 0.96669966 -1.4145172 -1.2132546 -1.1544379 -3.3882992 0.88858086 0.47426993 -0.7034625 0.67989385 0.90134734 -0.7444561 0.19568835 -0.2180584 -0.07795245 0.05350386 0.7284872 -0.23735453 -1.8318329 -1.5827787 0.7748332 1.0096593 -0.07985836 0.41908598 -0.19087352 -0.6772676 -1.6867694 -0.87246263 0.5839271 0.041612007 0.47300547 -0.26384073 0.04860999 2.1653876 1.0740771 0.9176234 0.3680417 0.07215528 -0.719738 -0.28635335 1.2440811 1.2707539 -0.22601834 -0.954765 1.3354609 0.61587584 -0.015146322 1.5460567 -0.58545506 0.46546137 1.0405128 -0.058751747 -0.3071199 -1.2945925 -0.22112346 0.39738694 0.51763135 -0.57561564 -0.25835294 -0.32891136 0.19097154
aucun 1.1009319 0.4624559 0.817462 2.7464828 -0.048984416 -0.068616174 -1.0578607 1.6761336 -0.15779804 0.4127819 -1.8480408 3.2381933 2.6447058 -1.7101653 -0.40962645 0.099295415 -0.553116 -0.024605505 -0.61704516 1.7711788 -0.023989106 -0.18590078 0.8738303 1.4018273 1.1370025 -0.8763954 -0.0816054 -0.53274393 0.091693886 -0.6389567 0.5940867 -0.5968346 -0.6957441 -0.30773288 -1.2938972 1.0096968 0.020973867 -0.9719894 0.43782437 -0.6507074 -0.7308717 -1.7154899 -0.47688916 2.1540184 2.125828 -1.872439 0.20097746 -1.5359324 0.10959576 0.31052896 0.28879145 0.5959323 -0.9229463 -0.38676357 -1.480094 -0.15247181 1.1144929 -0.44799134 -0.7616703 0.97004426 1.1620898 -1.5406835 0.24558224 0.8013436 0.21555035 0.62655604 0.2616265 1.4894193 0.20426998 -0.17923447 -0.487344 -0.247765 0.5890493 -0.7716588 -0.043500844 0.027749734 0.87734276 -2.303911 0.5784271 1.054262 -0.30961886 -0.62088114 -0.15559596 -0.26787046 -0.41410932 -1.1687565 0.73463833 0.5573434 0.88679343 -2.3970501 -0.9460247 -1.3894805 -0.4090105 -0.3335807 1.498903 -1.4128591 0.3834333 0.9436243 1.5621451 0.15579039
boulanger -0.48896003 -0.5129879 1.2882116 0.35062006 0.38617367 -1.9100374 -1.6631444 1.5401334 1.1553061 1.4655824 0.3267482 -0.9716113 0.37040147 -0.4526006 0.06475871 -0.39681718 1.8921238 -0.046038024 0.25846922 -0.570889 1.2228023 -1.3057635 0.93119764 1.1737398 0.8120885 0.93693155 0.28580773 -1.4997977 1.9036745 -1.6982179 -1.6027575 -0.84332806 -0.16078296 -0.2879814 0.25873977 0.27407578 -2.2657168 -1.7022254 0.60654056 -0.18420382 -0.38141724 1.4624009 2.0129464 -0.9988418 -1.4983588 1.3271608 0.6913357 1.5301775 -0.09393899 1.3658004 1.880155 -0.51638365 0.83836925 0.3255262 0.74797976 0.105491966 -0.73159355 0.77675825 0.34103948 -0.37451893 0.40450445 -0.51129377 -0.5503634 0.8326437 2.09442 0.01836847 0.39312935 -0.7008302 0.04830075 0.7189272 -0.86404413 0.5125079 1.3852139 1.0520784 -0.12323953 0.011133835 -0.5896332 -0.366428 0.24819969 0.40659553 0.4113472 -0.03831483 -1.1859058 -0.96641326 -1.6644101 -0.21636826 -1.597222 1.4344379 0.98595047 -0.7886947 -1.8139696 -0.4392603 0.3050673 1.8049521 -0.5824311 -0.9057908 -1.8784453 1.1756766 1.1075054 -1.5139741
ne 0.77672595 2.2154794 0.84488636 -0.0744098 0.77252936 0.16647384 0.39702016 0.4842818 1.0344099 1.4462296 -1.2232164 -1.669064 0.5566294 -0.04571193 -0.5888129 -1.4255105 -0.06737734 0.13064067 -1.246658 0.25279638 -0.65756553 0.21998876 0.49368656 0.6470458 -2.0572884 0.7781458 0.82336414 -0.05020729 0.92598665 0.4093839 -0.65603364 -1.6246363 -1.8530668 0.5730918 -0.4464387 0.7184732 -0.32789266 0.9249938 0.24891715 0.30106497 -0.5129783 0.4741234 -1.7946668 0.42283386 1.0456798 0.86727047 -1.3519645 -0.9436511 -0.33075857 -0.8304173 1.6681538 -0.5399151 -1.1084598 -0.8813032 -0.49062023 0.6778097 0.15314288 -0.3049498 -1.4622065 -1.4337586 -1.4722534 -0.31567645 1.3728592 1.7837917 1.4520333 0.41739732 0.03399041 0.16133471 1.1326684 0.8769531 0.40270615 0.220334 -2.9228745 -0.82358205 2.2470746 2.5455475 0.7040819 0.40053385 -1.2238545 1.1297781 -0.9477831 -1.4474982 0.37116146 -0.7687931 0.92138964 -1.1694568 -1.547323 0.98471487 0.5089782 -0.43369126 -1.2097354 -0.66233194 -1.1075618 0.9278083 0.14547998 -0.89731944 -0.38603774 -0.7924506 -0.41959026 0.09699287
la -0.3270362 -0.12483743 -0.8394135 0.76060176 -0.09961725 -0.86549693 1.6354736 -0.27865186 0.81578845 -1.0463667 1.328184 -0.098294795 0.41890317 -1.6203952 -1.0449097 1.1984751 -0.47043663 0.9877256 0.36671302 0.39923686 0.77971405 -0.38868856 -0.03234368 -0.595444 0.28546315 -1.2070923 0.38214862 0.30271727 -0.37737808 -0.47893932 0.7238467 -0.4015795 0.27447623 1.0725175 0.6921071 -0.65778476 -0.8349437 1.0384542 0.4905378 0.058715034 0.50755614 -1.0470911 0.56309247 0.99472845 0.21079515 -0.15219846 0.030530388 -0.88888586 0.8964348 0.58425283 -0.37483057 -0.12022094 0.31427386 0.016444016 -0.62630033 0.4650046 0.5625391 -1.150825 -0.668078 -0.4545893 0.6599023 -1.4514952 0.089342855 -0.3215303 0.56487143 -0.74905 1.4380188 1.7208589 -0.51184815 0.9412605 0.19393355 1.8122007 1.863709 0.30538037 -0.51249635 -0.2539268 -1.566227 0.49288696 -0.0021848253 1.3147038 1.0159688 -0.41703108 -0.5492655 0.35728237 0.24141341 0.99417865 1.188405 -0.6908277 -0.48621234 0.19552165 0.42973837 0.5706234 -0.4335071 -0.3418831 -0.2469702 0.03320113 0.409464 -0.09446597 0.9099072 -0.73600525
manque 0.72455937 2.6215792 0.048448768 1.370415 0.20818838 0.9580427 0.024848033 1.0671468 -0.8049728 -0.38543636 0.19139451 1.5088427 0.031013697 0.30001163 -0.30093336 -0.2653524 -0.24429053 -2.0074613 -1.0490994 0.7525598 0.36412746 0.5440357 -0.2639673 -1.0070281 0.85103333 -1.4971607 0.94234294 -1.893861 1.4591498 0.8597581 0.018166324 0.34987646 -1.0466908 0.11079338 -0.47585988 0.61966306 -0.24342692 2.4345913 -1.1493057 0.23590721 0.70849854 -1.0144688 -1.8273549 0.12554735 -0.18707769 -1.305991 -0.32087642 -1.2325975 1.6020457 1.0508462 0.23771352 -0.16833203 -0.23303287 0.5245814 1.0505042 -0.03346897 1.4434917 -0.014663422 -1.0112838 0.012861835 -0.78505695 0.81453097 -0.2809732 -2.3689382 0.5405897 0.3049078 0.17217506 -0.15781823 1.3131504 0.75933164 1.5852829 0.5008943 -0.4882361 0.53874296 1.6276876 0.3482161 -1.3371894 -0.42596895 -0.22934107 0.36808443 2.4722724 -0.63749045 -1.0262346 0.20334844 0.15857577 0.663113 0.16430499 1.1483177 -0.645978 1.3263379 -1.2410065 -0.8407182 -0.51079106 -0.74931175 -0.9832267 0.67271626 0.04051764 0.73560745 -0.27637035 1.3602425
Et 1.3169297 1.3553388 1.0528145 0.80485505 0.7652857 0.7999432 1.1224593 -1.8576957 1.0700464 1.2122164 -0.6152794 -0.32618958 0.99843526 -1.2191099 0.05129617 0.87486863 -0.8908741 -0.2868978 0.25387904 0.9988987 1.0998176 -1.2430865 -0.43507603 -1.0161766 0.20328723 0.26939934 -0.7856428 -0.97579557 -0.73216224 1.0404077 -0.01348944 0.54585814 1.1996834 2.0843155 -0.07909609 -1.6194663 0.9700381 0.15123712 1.4076731 1.6056266 1.0046101 0.795066 0.56039876 0.37331322 0.5777124 -0.9146058 0.7988371 1.0617746 -1.158348 -1.498852 0.18345796 -0.9804071 0.52975434 -1.2192724 -0.23326798 -0.10478685 1.0669672 -2.0232182 -1.584431 -0.24444723 0.58779776 0.75375605 -0.5163701 -0.75525063 -0.083024025 0.6154203 -0.21416223 0.4338362 -2.3402994 -0.8381273 0.011570005 0.09466033 0.3990176 -0.47368798 -1.2746838 2.3434772 -0.24553706 0.4734954 0.27748784 -0.8761782 -1.1383699 -0.12370282 -0.45484883 1.601285 -1.1390737 -2.690353 -0.30955082 -0.05689143 1.6476215 -2.125389 1.843791 0.6258487 -0.9855368 -1.1386778 1.0814391 -0.17184356 -0.6198701 -0.81114364 -0.5744848 0.8600083
chacun -0.1728482 -1.112203 0.5143434 1.3869022 -1.5229431 0.35139164 1.4795265 -2.2659564 1.4212278 -0.03437784 -0.1680488 2.2779772 0.8534522 0.8582376 -2.258314 -0.91142094 0.27894115 -0.9490556 0.60300815 0.1798121 -0.5813745 0.27088907 0.14264363 1.3047304 1.444763 1.7921317 -0.8568657 -0.24409986 -0.44983467 -0.8225345 -1.203972 1.5791042 0.21081458 0.5990752 0.39102226 -1.3457667 0.08227538 -1.5999773 -0.2795633 -2.2129076 1.2756618 -0.99790686 -0.17881499 0.102666155 0.91874295 1.3584629 -0.1851588 -0.8033448 -0.36515898 0.775095 0.23909193 -1.4301832 1.8757448 -0.14184405 2.1305156 -0.54342777 -1.3816975 0.7565583 -0.1773211 0.45740706 0.8555041 -0.4255823 0.022557326 0.4243529 0.9186796 -1.3957955 -0.5763524 -0.59659094 0.14386685 1.6291924 -0.63066167 -0.78675145 1.0864518 0.18217093 0.4750587 1.1904846 -1.2524856 -1.5490518 0.11167673 0.40896788 0.38683516 -0.31136033 0.4703881 -1.5332416 -0.51191413 1.0565319 0.2600048 0.082190506 -1.0636084 1.3004233 1.7866634 -1.889408 0.4392399 0.26732823 0.3190875 0.3620993 0.9562414 -0.07601446 0.57342255 -1.7385194
ses -0.28835094 -0.2604645 -2.202499 -0.88424784 0.6075839 -0.26317215 0.08937552 0.620493 -0.100237526 -0.9370482 -1.0241972 -0.32720697 0.87842524 -0.69072515 0.33832785 0.5982827 -1.8716872 -0.6806335 -1.4408499 -0.44979414 -1.4161257 -1.7393657 -0.48902777 0.094719514 -0.68636453 -0.957043 0.53917736 2.6799364 -1.140653 0.22396739 0.015416131 1.993827 -0.56406873 0.8130047 1.2676014 0.7087928 -0.91748655 0.31179935 -0.5969941 0.8498121 -0.16821054 -0.16387692 0.8704659 -0.5025778 0.65118027 -0.3026065 -1.1220206 1.7838992 1.2272635 -1.1667877 0.53559834 0.37880984 -0.5315814 -0.82660425 -0.97075844 1.9372216 0.9203329 -0.6640586 0.47480553 -0.7700085 -1.9725186 0.10219938 0.471216 -1.0816206 -0.7864334 0.31795633 0.065460615 -1.1390197 -1.2349916 -0.8457057 -0.26273543 -2.8878083 -0.5208597 -0.045901477 0.25925222 0.6899615 1.9455986 0.9099954 -0.3769322 -1.818015 0.063359156 -1.0104518 -0.14496396 1.5962291 -1.0419366 0.61513156 1.8628671 -0.20876092 -1.4372689 0.24890195 0.19069134 -0.9555086 0.14758076 -1.119049 0.09883528 0.6294999 0.61592454 0.11815135 -1.3361958 -0.63799554
cuire -0.80714154 -1.9369825 1.3404592 -1.4169477 1.2057214 -1.4437958 1.0993471 -0.7863349 -0.5333369 -0.14119019 0.6621442 -0.6354704 0.15596718 -0.45605686 0.6231466 -0.03837242 0.97875524 -1.0767065 -0.32096773 -1.1614127 1.7426835 0.068115786 2.1620579 -0.26262045 -0.6321997 1.3323182 0.48741567 -1.2236307 -0.99252784 -0.026578888 -0.76675 -0.15746026 0.7511578 -0.30063468 0.2659192 0.97953665 -2.314299 -0.43289992 1.5662465 1.2093452 1.2530595 0.07913117 0.7938462 0.26497263 0.33139944 0.82659304 0.57554436 -0.5219285 1.1152865 -0.3541911 -0.8099843 0.36156595 -1.0730889 -2.0522168 0.22295348 -0.674871 -1.6367506 -1.0788853 -2.0909936 0.54805285 1.1865221 0.4649558 -0.17729904 0.13097686 -0.92440385 -0.42372105 -0.2338922 1.0192993 -0.5096553 1.6425734 0.16907501 0.40708798 0.1671002 0.017848525 -0.113628075 -1.5647123 0.8259744 -1.5240271 2.4113731 0.24661048 -0.1738487 -1.253048 0.9240324 0.59257686 2.8650656 -0.51810896 0.40523273 0.3989173 -0.06336286 -0.5065235 1.2484487 0.21314368 -0.7401968 -0.22368021 0.6400595 1.2136182 -0.02373823 0.9305899 0.5939215 -0.31788722
bon -0.09713596 -1.4623746 -0.95477533 -0.24316818 0.095694765 0.045980573 -0.065329395 0.62369347 0.15058061 1.2669832 0.058798984 -1.5005289 -0.5349634 -1.2584879 0.3303494 -1.4872371 0.4868966 0.658238 -0.83135 -1.0942751 0.028672181 -0.40286916 1.1389529 -0.5213253 -0.059384663 0.33707196 -0.20795521 0.7006213 0.6353374 0.32801905 0.37407476 0.59605026 0.18185619 -0.971896 0.52490693 -1.2944278 -1.309455 -1.067305 -0.7330971 0.07319681 0.22936021 -0.218393 0.34442037 -1.9143435 2.1612346 0.23230505 0.07170085 -0.14060892 -0.59691083 1.2330486 0.38142255 -0.012193763 -0.7157156 0.62685055 0.3862002 0.16886517 0.14364651 -1.3054029 -1.473778 0.7694848 0.12929368 -1.2101221 0.028881995 0.69387287 -0.8922996 -1.260025 -1.4927266 -3.0137806 0.40780088 0.65897167 -0.61683404 -0.69764256 1.2078431 -1.9661533 -0.469202 0.35668135 -1.8899004 -1.2590125 0.21363908 0.93402344 -0.19357271 -0.042032886 -0.68745923 0.990713 0.45284778 0.0723155 0.80692464 2.4564683 -3.1307144 -0.85208017 0.32145944 -0.18685715 -0.7814283 0.2310458 2.4211435 -1.4765416 1.2190778 -2.398018 0.6665433 1.3268214
Chez 0.20033327 -0.6454157 1.2993567 1.1179945 -0.8240341 2.7946522 -0.69542307 0.019413207 0.6765339 -0.47721595 -0.3263304 0.652268 -0.42106268 0.5011509 0.58816785 1.6447223 -1.0489584 0.4318126 0.29549158 -0.20239148 0.42207932 -0.7491951 -0.3791101 1.7767705 -0.1944405 0.89783067 1.1273876 -0.109032474 1.3980478 -0.0013648539 -0.04337204 -0.9513028 1.2039347 0.27104554 1.834928 -0.87738484 -0.14279445 1.913612 1.973273 0.15065695 0.46539247 0.47025898 1.1518397 1.0546998 -0.8603301 0.34590036 0.3570782 -0.18601891 -0.08270883 0.07305795 -1.6574229 -1.644877 1.3904597 -0.12502734 1.5190526 0.016184578 -0.8944028 -1.7506967 -1.5938505 -2.7913048 0.4799695 0.29681522 2.7409523 -0.89586765 0.17494255 0.9112539 1.5371319 2.0952218 0.39932337 0.32614177 -1.4804236 -1.8810223 0.4175468 -0.3972629 1.9502141 -1.3961323 -0.32946396 -0.39584932 1.2591841 -0.4124771 -0.35480434 1.2105229 0.5170811 1.0520604 0.28824735 -2.1129053 -0.6159452 -0.32244316 -0.4035582 1.0429565 0.83386666 1.9005709 0.80941325 -2.4000144 1.9802475 0.64757836 0.9809294 -1.6092719 -0.38035792 -0.30704683
Devriendt 0.047456596 -1.2332022 -1.8267313 1.5932173 1.7492571 0.37608704 -0.31522945 0.98291796 -0.59378886 0.49834973 -0.6395742 1.2681559 -1.7623618 -0.19398767 0.6397325 0.16479 -2.047213 -0.9489343 -0.86895883 -0.09097218 -0.7671382 -0.45568255 -0.9927991 -0.33181044 1.1672634 0.6004107 -1.4057679 0.5291264 -0.8378322 0.08364696 0.32184947 0.6020806 -1.1451018 -0.5315635 -0.5738752 -0.5481184 0.71515435 -0.17750593 -0.07668195 0.32862827 -0.22897613 -0.9411906 -0.6855543 1.5258704 0.1551137 -1.9024447 1.3090312 0.59385884 1.4136244 1.3410615 0.9494927 0.0060164896 0.49978298 -0.9250097 -0.47302485 -2.4574525 -0.7217546 -0.033239637 -1.0278089 1.1344241 0.39912912 1.1034657 -0.50234514 -0.7802425 -0.4760527 0.24490882 -0.8309506 -2.6447406 0.38980445 -0.14127444 -0.5067194 -0.53441995 1.099842 2.446064 -0.60389537 -0.2687296 -1.181652 1.1414557 -1.0735439 -0.7802355 -0.15866065 -0.33539164 -1.3791404 -1.3005191 0.007582154 0.9301989 0.01500192 1.5978886 0.36183944 0.70380986 -1.0986942 1.0981673 0.07797038 0.16284406 0.21366149 0.2773735 1.1293814 0.010325217 2.2803373 1.0115979
les 0.8957667 0.8145777 -0.74233145 0.0891741 -1.4772506 1.549098 0.6421684 0.9447478 -1.9393779 1.1922671 0.99361473 0.9904513 0.73165137 -0.68410957 -1.4165015 -0.32611817 -0.6571554 -0.844777 1.3939286 -0.120040126 1.9234473 1.2800381 -0.00040016056 -0.4696204 0.12664908 0.8520436 0.14716505 0.29788983 0.33150604 0.32214248 2.7063632 0.32796738 1.2674514 -0.723208 1.3474345 -1.2480251 -0.92548156 -0.16491854 1.5811466 0.92759305 1.2025408 1.3749086 0.7251154 0.5351802 0.56994724 -0.11701336 -2.4115615 -0.37964004 1.1700196 1.8391868 -0.39860547 -0.6913486 -0.7348285 0.5121994 1.6071286 -1.2496692 -1.0488518 0.7599006 -0.7824217 -0.7832663 0.5464689 0.28278458 -0.82880837 0.8242331 -0.6669955 0.2266017 -1.4439672 0.65175766 0.49601838 1.0765421 0.8151651 0.51584256 -1.0612327 -1.9401437 -0.43299705 -0.7593307 1.3029559 -1.5528848 0.2456721 -0.08984539 0.4595249 -0.26345313 1.2582903 0.664022 0.20059507 -3.0600994 0.56680024 0.33695093 -1.7972231 -0.11262356 -1.1822535 1.0203241 -0.033931836 -1.6283609 1.1332592 1.462855 1.2737308 -0.38965812 -0.8975013 0.31132254
clients -1.3882649 1.1155798 -0.7507602 -0.53564245 0.84921867 -0.7576149 0.1359961 0.22999604 1.0399137 -0.8302468 -0.6849097 1.9465284 0.1823438 1.3027921 -1.9416922 -0.94064057 0.30635273 -0.15474717 -0.5584582 -0.8751358 -1.1251091 1.3431917 0.5754581 1.7307818 -0.9150796 -0.97717506 -0.9627351 0.3434585 -0.6632565 -1.0851465 0.7083272 1.6277717 -0.13801329 0.12042537 1.0809473 -0.7675121 0.92512476 0.6142123 -1.1034999 0.9012592 0.29425895 -0.5669557 -0.30704987 1.0430508 -0.9367909 0.012917192 -0.56913096 -0.37967345 -1.0236377 1.2183634 -0.5028396 0.5151721 0.6065987 -0.37414083 0.030106638 -0.95376045 -0.96741444 0.26034534 -0.6268643 -0.6136085 1.6010815 -2.125511 -2.4189913 0.9876575 1.1369935 1.0235165 -0.6053441 -1.5203313 -2.640013 0.045713246 0.49014997 0.15990627 0.61045927 0.7658979 -0.6973038 -1.2641135 0.6572042 -0.37354133 -0.25096467 1.047483 2.8465674 0.68376505 0.8497345 0.46211833 1.0157043 0.20777555 0.35003743 -0.3111045 -0.72453696 -0.61634475 1.4808681 -0.45861992 2.0449877 -0.09736585 -1.5965703 0.39774477 -1.3060669 0.8341062 0.45880473 0.22569516
ont -0.26784483 1.3644896 1.3467113 -1.7312654 0.5353551 0.46568555 -0.19280925 -1.3187155 -0.62624204 0.7788967 -0.90004057 0.1824777 1.6716565 -0.46604398 -0.0043437597 -0.026311478 0.38222754 -0.5094804 0.52502173 -0.07306352 -1.382017 0.7989987 -0.5600997 -1.7588431 0.22142157 1.3622849 -0.24841692 1.4893059 -0.7771078 -0.855608 0.09719119 1.3308545 1.8606747 1.3484867 1.0785861 -0.7261157 -0.24982128 0.37000507 0.13758163 0.15391205 0.81325316 -1.0321807 1.0323224 -0.30147254 0.15704608 -1.3546841 -0.9276268 0.15171018 -0.3848034 -0.80681974 0.8547539 1.1059502 0.15508974 1.402461 -0.62117565 -1.8863714 -1.1204286 0.6965045 0.8398165 0.008337517 0.7387421 1.805261 0.08525793 -2.0897212 -0.6973886 -0.81313217 -0.87471944 0.70799637 0.2641136 0.9277272 0.170212 0.5914401 -1.9108492 1.1417352 1.1216758 0.83945864 1.1050419 1.1124243 0.07362389 -0.031144321 -0.076148175 1.5078073 0.04047363 1.7678419 -0.87125397 -0.6467844 0.12976068 0.28146198 -0.050704267 -0.88867676 0.36707285 -0.17782736 0.350009 0.6062309 -1.1839968 -0.5803186 1.7229404 0.33138534 0.3337188 -0.24078241
des 0.9967626 -0.587216 -1.3848053 -0.30962554 0.7581624 1.3440789 0.21354884 -0.9382338 0.48095053 0.10399416 -0.7389631 -1.5157366 0.21753822 -0.81345767 -0.17290407 -0.23692253 -0.92565596 -0.5654731 0.8785462 1.3042387 0.6414098 0.31126726 0.23280123 0.5278895 -0.15638 -0.17714967 0.67332023 0.2990013 -0.39431652 -0.8640376 -1.1938767 0.18661161 0.47483662 0.16422279 -1.7202073 -0.20406991 0.83558416 0.8119406 0.7854165 1.1025062 -1.1582642 0.7653217 -0.3667974 -0.12908149 -2.3097568 -0.005713924 -0.7338513 1.123995 -0.48550302 -0.30048904 -1.6550688 -0.19677612 1.1328814 -0.1247185 -0.26493475 -1.4276931 1.6021839 0.18479984 0.030485105 -0.123422585 -0.8296341 -0.6581125 0.43226933 0.24874884 0.08372949 -0.69965243 0.13871242 0.872107 -1.2927654 0.17945898 -1.233895 -0.11916178 -0.07248397 -0.52393144 -0.19701687 0.58306944 0.5841394 1.7832218 0.2512859 -1.979099 1.4366434 -1.0901593 1.7104597 0.19961675 -0.4247127 0.2836209 -0.3315268 0.435292 -0.6730318 -0.30328682 0.6038569 0.35749733 -1.4005753 -0.74679637 0.024467604 -0.5391641 -0.55200994 -1.013003 -1.0495263 0.24371958
petits 0.08345755 0.42315343 -0.37435672 -0.5286307 -0.94476783 0.5572501 0.3441616 -0.6816848 0.84402275 0.06650312 -1.1290903 -2.4533064 -0.71190715 -0.9354852 0.27404183 -1.2293154 -1.4424722 0.32346156 0.8762727 0.088383764 0.24030891 1.678933 -0.5865632 0.44380528 -1.1303169 -1.219782 -0.108623065 0.5864714 0.6930015 -0.61135423 -0.16935672 -2.0284638 -0.036162615 -1.3286903 1.1710382 0.6041863 1.6994908 -0.48196182 -3.4071567 0.34557012 -0.6430246 -0.7165343 -0.1399311 0.5689923 -1.7048126 0.32792643 -2.163393 -0.7434962 0.60124207 0.07935447 0.19434305 -0.029437458 -0.79492676 0.49046424 -0.4193134 1.5540272 0.081999354 0.07814472 -2.2865016 1.7940304 -0.30475697 0.09445704 0.82864535 1.47943 -0.16237447 -0.23701726 -0.53076935 -1.7667279 -2.4573352 1.2725927 -1.5994136 -0.2724632 -0.5140871 0.09381709 1.1508976 0.65216905 -0.074145645 0.09334129 -0.20215812 -0.6209822 -0.84855133 0.13517901 -0.56988084 0.11863456 -3.485006 1.269435 -0.48559457 1.9436958 2.1508849 0.22779004 -0.44362113 -0.4206277 -0.91113955 0.060141634 0.33198178 2.008792 -1.3174354 -0.64918715 0.7930665 -0.57210255
pains -0.9729682 -0.2162055 -1.5063831 1.3724282 -1.1377964 2.8591464 -0.5570295 0.9801288 -2.218742 0.03371309 2.2022269 -0.9587411 -0.6348658 1.5797938 -0.25788277 0.18425983 -0.7771101 -2.4072163 0.3813091 -0.14385417 -0.40317598 -0.63477504 0.33231997 -0.907889 -0.49069926 0.05571293 0.17555292 1.0686295 1.016787 1.90772 -0.7885977 -1.5028038 -0.054785743 -1.5586158 1.8067443 0.81384724 0.6255864 -1.1206837 0.30302036 -0.5701947 0.17012314 1.1291881 0.23611742 -0.76663375 0.43430206 1.9542307 -0.36087018 -0.5103548 -1.1427246 -1.3655419 -2.018295 1.6283946 0.24493666 0.794029 -1.3060067 1.0969238 1.1925579 0.9062944 0.22713995 0.55821496 -0.8339542 -0.18964492 -0.6167821 0.05581575 -0.00093446655 0.28697768 1.5890868 -0.2936726 -1.1677647 -1.9934624 -1.5101659 0.25540522 -0.36410213 -0.8326512 -0.14773068 -1.8896986 0.7910353 -0.82840806 0.4530675 0.37532723 0.25541574 -2.0798826 0.02887365 -1.3024684 1.6120398 0.92497057 0.62328553 -0.16920619 -0.46978998 1.4319369 -0.43916893 0.57408077 0.7866993 -0.7547666 -0.15281792 0.260005 -1.8787749 -0.52756727 1.0214906 0.32272515
offerts 0.95901597 -1.2770066 -1.169164 0.4209194 1.406221 0.13561784 -1.4112346 1.0238874 -0.34673032 0.6580456 -0.3909228 0.14076504 1.3823307 1.2630423 -0.24350871 1.4763712 1.381697 0.46228054 0.4184984 -1.7024966 -2.4899178 -0.7448774 0.9336753 -0.4237479 -0.81418407 0.6386417 -0.3283928 0.15224078 -0.5638355 -0.24979202 1.7127037 1.3821989 -0.004975059 0.9817723 1.3351648 0.101092994 0.027194422 0.2650921 0.19317932 0.17312932 0.3443419 -1.0094588 0.38793603 0.5867532 1.811034 0.034123115 1.9071934 -0.1527274 0.5429913 -0.24384075 -0.45333168 0.7770361 -0.19602597 0.64257616 0.46577314 0.011903668 -0.33696106 -1.1475792 -0.23155825 -0.6571529 0.34362 0.12821971 0.51417464 0.96592087 0.23182817 -0.1084495 0.8742442 0.21209443 1.0349754 -1.3462722 -1.0709393 -0.011882122 -0.088336356 0.9615773 -0.25470382 -0.1864931 -2.395542 0.40010715 -1.2344029 -0.558393 1.8318423 -0.22167405 0.1843841 -0.01391547 0.72448903 1.3336115 0.5954509 -0.3154239 -0.47664252 -0.2303547 0.95085084 0.96402645 -2.5059836 -2.4926457 -0.27099064 0.6126326 -0.28484523 -0.082332574 -2.2682796 0.1887348
en 1.0691136 1.0021497 0.38663882 -1.5712653 0.6538278 0.36759725 0.20353162 -0.69789326 -0.2330979 0.42708382 -1.3974849 1.6142713 0.4299912 -0.7867323 1.3384081 0.2635616 0.67125595 0.065740034 -1.4174515 -0.118146494 0.4179298 0.12174427 -0.49535832 0.16083102 0.21973623 -0.21958324 -0.00500032 1.5883234 -1.5198779 1.8992741 -0.42796475 -0.26050353 0.1711147 -0.48706764 0.5456689 -0.44554937 0.788211 -0.81472254 -0.21674708 -0.7649094 0.68522143 0.6364177 -0.78403103 -0.9867709 0.9524069 -0.28636944 -0.3109707 1.0652947 0.2586329 -0.046870016 -1.0689543 -0.4023393 -1.0904374 0.047496334 0.31296617 0.6954771 -0.2637541 1.0057327 -0.15416834 -0.3261554 0.72036 -0.123134576 -0.56523776 -0.6874181 1.0554974 0.6148075 0.00815521 -0.4593607 0.38274384 -0.1950767 -0.36330745 0.17236124 -1.0863861 0.8375704 -0.25526807 1.125454 0.09852511 0.11148496 -1.1809179 -0.7822271 -0.4662651 0.64266795 -0.3967629 -0.034817167 1.105009 0.29590106 -0.070457295 1.3723722 0.21677811 0.91929686 0.84255755 0.12645875 -0.8781614 -2.1622741 -0.10113267 0.64457375 -2.1598167 -0.3569747 1.0776742 -1.040069
l -0.66564155 0.59245217 0.39273354 -0.36323875 0.38609532 -1.6954921 1.0565429 -0.5597025 0.00025376934 2.147523 -0.060787994 -0.181735 -0.09811928 -1.1194161 0.053007413 -0.32675976 -0.31348175 0.33134654 0.061304845 0.0705088 -0.30551988 0.8126114 -1.0643953 -0.9671152 0.8921808 0.6375253 -0.70605344 0.41600022 -0.92928183 0.86868584 -0.7259142 -0.15891473 -0.7711388 0.79717153 -0.38929778 1.1631424 0.73899317 1.0655967 0.050871007 1.6914042 0.11269082 -1.873977 0.18670617 0.8977304 -0.93819463 -0.0416667 0.58866477 0.7935604 -0.13731243 0.48722017 0.9178489 -0.8403478 0.37353677 0.40623 -0.25207302 0.07576609 -1.1606851 -1.6602404 -0.562099 0.1186592 -0.462175 -1.9481333 -0.70778686 -0.2064183 1.5933307 0.2963564 -2.0360105 -0.19158493 1.1089299 0.79414725 -0.49074197 1.2461503 -1.0992947 0.07589165 0.5752054 -0.6440149 0.61115396 0.70384747 -0.559645 0.5012044 -0.4566494 -0.551821 0.16827917 1.1606613 -0.6890651 0.67278695 -1.4248511 -0.5398979 1.3331286 0.20710453 0.8693529 0.39719504 -0.19419281 1.2619737 -0.32153258 0.44970477 -0.32395038 -0.017083524 0.14556335 -0.6818946
il 0.37865472 0.19610588 1.1838037 -0.82891 0.39061907 -0.5357531 -1.5591733 -0.8384473 0.7977032 -0.9355024 -0.060886048 -1.3089889 -0.819566 -1.2383871 -0.20263757 0.2619425 0.96601504 1.3661132 -0.04693733 -0.11348944 0.294779 0.9364003 -0.6060311 0.64565206 -0.04546129 -0.31015477 0.6268047 -0.9417847 0.7015705 -0.45993426 -0.5491795 0.56029665 1.0946742 -0.37736928 -0.65038526 0.0746338 -0.7267948 -0.32696295 -1.5572764 1.0459372 -0.79889184 0.24011245 1.2897532 -0.0964644 1.1178414 0.18799087 -0.3565726 0.65994495 0.3962462 0.76770806 -0.93130875 -1.4182782 0.9405199 -0.41822824 0.9436616 -0.1492453 -0.5582272 0.49888965 0.9477589 -0.44681248 0.35459256 1.7884057 -0.6666596 -2.2293093 1.5622476 1.4636075 0.32438493 -0.3727492 0.42772698 0.81744033 1.1090833 1.2882587 0.6799422 -0.6386325 -0.55226207 1.2714952 0.26755774 -0.34276006 -0.8275025 0.41573077 -0.12695174 1.1334629 0.106837064 0.2584756 1.4630134 -0.5742386 0.39259818 0.27964294 0.31513444 1.2047256 0.25275165 -0.53821146 -0.7810382 0.71230257 0.9760511 -1.2216368 0.22323994 0.013423144 -0.25772458 -1.9778991
sur 1.0220213 1.1457435 0.751681 -0.89239025 0.2524832 0.1710418 -1.7629694 -1.7642492 0.18483192 -0.93956006 0.9572185 -0.5352289 0.8764792 0.4874721 1.162935 -0.67176574 0.5945892 -0.05729576 0.0022288563 -0.3189438 -0.9790339 0.5972461 -0.585398 0.9552546 -0.23265244 -0.10823071 1.1719761 1.6435758 0.47450015 1.3652159 0.36864814 0.22032079 -1.4226313 0.47937855 -0.99032044 0.27266163 0.08535327 1.123583 1.1765865 0.051755767 -0.2787299 -0.50441384 0.7784419 0.10582605 0.5512347 -1.481667 -0.49511236 -0.6330033 -0.34579247 -0.61821353 -0.4294104 -0.78798354 -0.22894457 -0.2107016 -0.072774164 -1.6377829 -0.16721386 -0.19000939 0.56319267 -0.4426467 -0.783971 0.6903639 0.28067517 -0.7750532 -1.9739358 0.43612358 -0.15185796 0.41400284 0.73968214 0.39403558 -1.0493265 -0.082292706 0.16024694 0.69179195 -0.1378038 -0.6393851 -0.8198001 0.7003395 0.952941 -0.35145384 -1.0965166 0.6220202 1.1323638 -0.674567 -0.07297417 -1.6459056 0.53469896 -0.6257264 -1.8664929 -1.2383134 0.63865215 -0.34078446 1.3019036 -0.28059927 1.3334817 0.764893 -0.4602303 -0.10338541 -0.7160501 -1.1775204
miches -1.0404061 -0.7329561 0.3316991 -1.7437453 0.08421315 0.7233949 -0.25279132 1.5209459 -0.3032081 -1.6208278 0.19606398 -1.3224173 -0.7378283 -0.2887319 1.0926871 1.2011294 -0.8974128 -1.1393721 0.051700927 0.1769987 -1.6337793 0.40687764 0.07558436 1.4856557 -0.15930547 1.9872022 -0.15927732 -0.8640299 0.19911653 -0.026232885 -0.09612464 -0.5779953 0.9446619 -0.518627 -1.1337866 -0.7774423 0.14165244 -0.8866399 0.21012226 0.22107409 1.8492426 1.6748043 -0.050247848 0.08032963 1.2854716 -0.2319495 -1.743956 -1.6401669 1.3811632 0.91872 0.07978442 1.0754584 -0.8085825 0.94859 -0.49406388 -0.37085125 2.235199 -0.34107107 0.57568073 0.57561314 -0.67879075 0.4478476 -0.0316022 -1.0044595 1.7987918 -0.008061729 0.73585206 -1.1257808 0.23536983 0.09213366 0.45262885 1.6474136 1.6737374 0.007975503 -0.44947872 0.48840633 -0.0536802 1.511563 0.6318958 -1.0101999 -0.73618215 0.46424514 -1.9774557 0.8001321 -0.036968984 -0.10904846 -0.72372085 0.71173227 -2.6018093 1.2504766 -0.3033818 -0.26529607 1.0646317 1.1274403 0.03766625 -1.5017889 -1.040598 0.43947673 0.17596705 -0.8236056
couleurs -0.32651103 -2.1729772 0.5630151 0.6450822 -0.007257679 0.052873574 0.48970294 -0.983888 -0.9375091 -1.012642 -0.25417864 -1.3203702 0.8709483 0.9665982 -0.112797655 0.104027934 0.42105338 -1.3820826 -1.0602286 -0.91134834 -1.6315006 -0.048103523 0.33467725 1.5313877 -0.7240228 -0.78622526 -0.6883466 -0.4014258 0.6458276 0.83549225 -1.2384152 -0.23745339 -0.79416984 -0.43724814 1.0053488 -0.7945838 0.16854602 -0.33334723 1.7202413 -0.13861804 0.67068636 -0.55421853 0.26623026 0.32515472 -1.2946845 1.1920921 -0.38225728 -2.156388 0.92734826 1.2874728 -0.8928519 1.2971679 0.0050146594 -0.7010242 -0.9696871 0.4106358 0.48903304 0.44264457 -0.26437587 1.373227 0.7326284 -0.93741757 -0.40646714 -1.0947951 0.93073153 0.7328694 0.4041934 0.4150502 -0.7223454 1.263283 1.451038 2.116082 -0.74040633 0.9267177 0.55269796 -0.9540485 1.3335547 -0.17936775 1.1894655 -0.44494635 0.8510155 0.06244383 -0.2986428 -1.1294764 -0.03368744 -0.40265828 0.8478751 0.33182967 0.15217105 -0.6740712 -0.14690095 0.3289457 1.4871885 0.81264335 0.3262662 -1.1816478 0.37781087 0.08592726 -0.02828556 -0.19186427
du -0.6414071 0.32254726 0.010146985 -0.6745027 0.76302993 0.6218806 -0.2811383 0.026256433 -1.0287185 -0.7957184 -1.2028898 0.47586536 -1.1337142 1.4502354 -1.3495246 0.023403091 -1.9862912 1.2374518 -0.049883418 -0.5926521 -0.021603074 0.91624945 -1.2488033 0.6358652 -0.37475568 0.69713044 -1.700016 0.5375939 0.37829503 -0.26777175 0.47785512 0.008741425 -0.9566147 0.5500189 0.18261908 -1.0514709 0.35277086 0.3145688 0.1716089 0.65331 -0.33794317 2.67261 1.5885237 0.75469023 0.34286246 0.34505367 1.3143293 -0.39000586 0.3028271 -0.6248887 0.29033077 1.0887992 -1.604663 0.25525105 2.2544737 -2.3482492 -1.0969977 0.9386505 0.76739186 0.8456173 0.83206075 0.6158001 0.8183804 0.3089936 0.57035923 -0.8406711 -0.08117878 0.48361298 0.29097986 0.17378671 0.3272653 -0.36980313 -0.2042418 0.4184825 -0.17458208 -0.85611326 0.4450528 0.87530315 -0.16505918 0.76560146 1.4630847 -0.9125442 1.0908233 0.99994546 -0.3563527 -0.38917544 -0.9649237 -0.6843656 -1.2277024 -0.8694549 -0.26327318 -1.5535576 0.30276072 0.17283042 -1.2459961 -0.5164502 2.1620345 -0.34776455 -0.8291152 0.053372733
monde 0.75551105 0.01680856 -0.76780444 -0.12567092 1.1281075 0.27857605 0.007862104 -1.9578532 0.027410893 -0.13554157 -0.08006346 0.19931793 -0.07417932 -0.09917462 0.65205395 -0.39948398 0.034077577 0.37822443 -1.5745678 -1.6008804 -0.8187271 0.34592634 -0.5279802 0.32976386 0.6844122 -0.2362783 0.022576079 -1.0385206 -1.961695 -0.5008398 -0.55232894 1.7437973 -0.7368952 0.5395496 1.0219321 -0.09993504 0.3998838 0.5938202 1.2166733 -1.1199075 2.4206975 0.58462554 -0.77699935 0.19735102 -0.73597777 2.0821881 -0.81815064 -0.017329706 0.09276145 -0.014139475 1.6060619 -0.47702885 -0.11715822 1.066366 -0.31400308 -1.547111 0.45733094 -2.9444692 -0.6270987 -0.77863806 0.5033215 -0.030172786 0.92994565 -1.0863882 -0.20112762 1.1917368 0.14713281 -0.9178662 0.098537944 0.09342418 -0.10498435 2.1087594 -0.50155634 0.969479 -0.00771774 0.9523838 0.40972865 0.16292848 0.9947864 -0.5126468 -0.5953493 -0.8166511 -0.7528087 -0.069014534 -0.75264984 1.323475 1.3415662 1.1498077 -0.6368392 1.5576957 -0.031716842 -0.14266863 0.13267499 -1.0476302 -0.76970994 -0.3292484 -2.0401044 -0.21426634 -1.0155889 -0.08224022
Malyk 1.7352862 -0.8760992 0.58775514 1.0409975 -0.9968974 0.050335642 0.11273352 -1.7890505 -0.36460274 0.46248996 -1.5296649 -0.020038465 -0.7153306 2.1148922 -1.8980856 -0.17912048 -0.84674215 0.890761 0.30554885 0.7308042 0.6616672 1.2836975 0.14503202 -0.30100724 0.23683015 1.7457709 0.8589757 -0.4378085 -1.4362483 0.31761166 -0.3395614 -1.1469969 -0.11822374 0.18502657 -0.22985119 1.3572545 1.8803753 -0.8860955 -0.47480202 0.038088113 0.014813022 -0.33435386 -0.06801486 1.8962342 -1.4268385 -0.707168 -1.2075208 -1.0164771 -0.047108352 -0.33105183 -0.48885357 0.99723554 -0.721097 0.5659317 1.195542 0.6525349 -0.17557365 0.76775783 0.8740022 -0.22921391 2.6565464 2.0088181 1.1071535 -0.24295865 0.65148306 -0.25566593 0.38522553 1.0196261 -0.51116526 0.16561075 -1.9704894 0.43690598 -0.4253213 -0.18550235 0.7674796 -1.4745504 0.08229322 0.13296752 0.9954045 -0.7487258 1.2493364 -0.31870925 -1.0680487 1.0747273 -0.3250558 -0.70420474 0.24172562 -1.2196476 0.3799724 -0.006112114 0.011386795 0.6999313 -0.30931008 0.103910424 1.1272988 -0.27797684 -0.012073394 -0.39376232 -0.9453074 -0.5886411
on 1.8453326 0.5746702 -0.95320356 -0.3889909 1.4187579 1.5628296 0.7793453 0.96941036 -0.6257182 1.5940117 0.31366017 -1.6318294 -0.17459197 -0.3478537 -1.837074 0.009889426 -0.16080469 2.286427 0.71436465 -2.2624347 -1.8546283 0.611722 0.33527616 -0.53054696 0.33300307 -0.8096463 -0.36540526 -1.0119054 2.1073835 0.8272757 -1.128728 0.006938353 -0.4337768 -0.98356134 0.2662326 0.4094586 -0.9598645 -0.19042237 0.25988537 0.38156107 -0.05414119 -1.0667386 -1.1493318 0.18672012 -0.535816 0.051505543 1.2588547 0.09989572 -0.3752378 -0.05746012 0.954602 -0.2123637 0.048503533 -0.1235145 0.10333649 -0.42460665 0.081071146 0.8944513 0.38626722 -1.3358674 -1.4886152 -0.43462735 -1.0973442 -0.5522581 -0.19862609 1.0791198 -1.6350694 -0.2955315 1.1668842 0.23925221 1.8676591 -0.19206916 -0.2782941 0.33234775 -0.88043934 -0.8556564 -0.5703614 -0.3526384 -0.36880183 -1.0058029 -1.0154694 -0.8072001 -0.9882418 0.80639327 -1.4846578 -0.8900442 -0.035632703 2.0253704 -0.5565554 -0.87685657 2.1292672 -0.21348596 0.5504718 -0.73237437 -0.12363392 0.41024256 0.067358546 -0.4546253 0.14166246 -0.15202542
a -0.22432916 0.05697013 -0.6481069 -1.2307146 0.4277869 -0.5942625 -0.66167194 0.2504225 0.25499842 1.0827723 -0.8572982 0.38612026 0.9124166 0.3067489 -1.2775563 -0.49421263 0.5065961 1.2346475 -1.6166173 1.8860021 1.0184636 0.5450869 -0.11128145 0.8409752 -0.291496 0.27520192 -1.2948736 -0.82088965 2.883601 -0.20900849 -0.9950268 -0.51032704 0.40066516 -0.36892095 -0.65421504 0.9501001 -1.2658668 -0.32783157 -0.33637205 -0.86223036 0.91105765 -0.86140424 0.082252145 0.61478764 1.2698842 0.69737846 -1.3865575 0.884852 -0.4890775 -0.5727486 0.86296576 -0.1276465 -0.12542833 -0.26564878 1.1841544 -0.9579787 -1.1196654 1.3355793 -0.6781889 0.4827148 -0.59537774 -0.26093614 -0.5763584 -0.66387546 -0.9543772 -0.06321962 -0.6368242 0.21017009 0.3954113 0.12567905 -1.9326367 -0.5591486 0.046850193 -0.14406614 -1.0001023 1.7330812 0.1331943 -0.34984285 -0.14389022 -0.31095868 0.4299589 -0.05330505 -0.656533 0.7052006 0.7940826 -0.4054271 1.0232252 -0.6960484 1.2980547 -1.1696489 -0.84289396 -0.5084412 0.749296 -0.39234895 1.2107468 0.69016904 -0.64807314 -0.74914604 0.77112895 0.6269528
d 0.3138779 -0.19611216 -0.18443587 -0.46145624 -0.3346969 1.0326493 -0.07067961 -0.3411373 -1.2141073 0.3106025 0.08262445 -1.4194154 1.7604903 0.35989833 0.8586063 0.99626255 -0.8302797 -0.46444488 -0.07911828 0.3019592 -0.06279687 1.0790367 0.46845084 -0.34659955 -0.95102936 0.17415558 0.03812381 -0.41430706 0.25257698 1.4251482 -0.8490909 -0.057986654 -0.16420412 -1.143991 0.50865954 -0.7593759 0.7786713 -0.32211754 -1.3281513 0.81610805 1.2219602 -0.058733594 -0.30528688 0.18178102 0.14102136 1.1196809 -1.4203024 0.7850013 -0.6064697 0.4610874 0.48542285 1.9475213 1.8513614 -1.0581912 0.5613075 -1.04737 -0.5901051 1.2209574 0.102700375 -0.03411245 -0.9637597 -1.4294189 -0.75814676 -1.4856808 0.078415796 0.29099375 -0.054647744 -0.06239836 -0.9457371 -0.22314626 -0.19511913 1.5916569 -0.35854352 1.5209324 -0.05626208 -0.132085 -0.48223314 -0.36123127 0.69845814 1.2269881 -1.1545181 0.111195214 0.3014637 1.6699979 -1.63209 -1.381288 -1.1894066 1.6321667 -0.170835 1.5310558 0.21976927 0.93907475 -0.4019214 -0.76413286 -0.41761073 1.9375745 -1.4005836 -0.12696005 0.21376957 -2.0493267
adresse -0.37072787 -1.608576 -0.34932604 1.2738612 0.2971525 0.9964788 -0.53574276 -2.0870264 1.1306262 1.2445593 -1.3072075 -1.9123865 0.022060797 -0.14413805 0.68556106 -1.1492326 1.1734568 0.9155109 0.6159137 -2.2736313 0.6368512 -0.82012147 -1.4023039 -1.3187263 -0.101131886 -0.05765996 -1.2391914 0.6690586 0.7792552 0.9539306 -0.39842865 2.1406527 -0.3573049 0.40625086 -0.28320813 -1.388616 -1.0511652 -1.0347584 -0.69648963 0.5342406 -0.35016453 1.1404558 -1.0070031 -0.7364667 0.4418142 -0.51719654 -0.61097616 -0.28098264 -0.014714127 -1.0119047 1.1776079 1.3035868 0.109390065 0.41637293 -0.2281092 0.28738356 -0.33705753 0.5049874 0.9489039 -0.40949026 0.73029333 0.60243315 -0.7241359 0.6287119 1.0124638 0.8377251 -0.3462434 -0.3637493 -0.53387225 0.33594987 1.1162678 -1.2901251 -0.9373134 -1.2362214 0.19570428 -0.7631192 0.5188872 -0.02784362 -0.23564573 0.4831628 2.1821282 -0.95937693 -1.1097872 -1.594667 -1.3552957 -0.7575021 0.4740653 -1.5136348 0.14606069 -0.4097296 -0.76573527 1.0308033 -2.5018785 -0.42275742 0.071404606 -1.4622529 0.8206579 -0.5129977 -1.4653374 0.61915106
pour -0.052901965 0.07544586 0.67437315 1.5893164 0.4184438 -1.275312 0.1748732 2.0560384 -0.4044086 -0.0952321 0.96583575 0.5168636 -2.2498748 -0.32692036 -0.7081152 0.21898076 -1.05056 -0.7684225 0.5720212 0.6151369 -1.0924252 -0.00462903 2.5266943 0.9635323 0.2230609 1.257096 -0.30281568 0.29813004 -0.53860164 0.3627918 0.06167102 0.3132656 -0.44202632 -0.56160897 0.86172736 -0.0145315975 1.1188185 -1.1830807 -1.0124362 0.45210308 -0.40397388 0.9634906 -0.19410591 0.39183396 -0.24185608 -0.7779295 0.055589475 -0.3979623 -0.9521481 0.11911268 -0.61307055 0.9732665 -0.26567155 1.0091656 1.9450592 0.08342298 0.24323986 0.3402333 0.23498417 -0.46885213 0.15792134 0.29468566 0.72715247 0.12319077 0.02067931 0.16977203 -0.3445 2.7093658 -0.8995199 -0.7606255 -0.66369313 0.3375443 -1.186588 0.32483098 0.59360844 0.2787373 1.0360768 0.074698724 0.56863123 -1.9720999 0.16761236 0.07719525 -0.08493667 0.26675764 0.1756934 -0.077020876 -1.3374318 0.40980175 -0.10512216 1.1033022 -1.4480846 -0.08012201 -0.014714331 -0.7078442 -1.6692694 0.09154908 -0.13459826 -0.2829869 -0.5834298 -0.0044873524
enfourner 0.9267326 0.72389823 -0.51918507 0.7592531 -0.41509154 0.45246813 0.028164001 -0.8517728 -0.38047844 1.7405603 -0.88302773 0.6414636 -0.4411085 -1.2051094 0.71283764 -1.2355725 -0.4194463 0.2803694 -0.8783135 0.8678349 -0.20570035 0.6400188 -0.15046355 -1.8091838 0.71014774 -1.0945668 0.44221976 -1.4410636 1.2189686 0.6416691 0.463228 -0.7119343 1.3411026 0.9148242 0.0496557 1.6446414 -0.53875744 0.40658075 0.83647996 -1.0287462 1.1402258 -0.55086297 0.8722236 2.941304 0.37137696 0.54017437 0.40239912 -0.3353804 1.0394282 -1.1526768 0.7375422 0.8526096 -1.4094458 -1.217825 -0.8064208 0.33498853 -0.6356185 -0.9583057 -0.2701479 1.0462197 1.6418186 0.5280628 0.72964084 1.2714351 -0.09036832 -1.3386208 1.5860384 1.5104918 0.6178327 0.82766926 0.41229424 -0.22741231 -1.9574158 -0.2856123 0.47572657 0.67421716 -1.6998987 -0.34792864 1.455238 0.8202968 0.6589351 2.2314358 -1.0631812 2.2220838 -1.213003 0.9509432 1.0362874 0.6117752 1.2472758 1.1681979 0.77743036 -0.2985257 -0.25068066 -1.2934942 0.24022627 2.1293478 0.36686888 -1.1928989 -1.5907927 -0.5742915
sol -0.5451804 -0.3897323 0.87601143 0.75387543 1.2873955 -0.5317267 -0.48662457 0.44212183 -1.4671755 0.38105208 1.7201701 0.37185746 -1.7973778 -0.049953412 -0.45803708 -2.4986806 0.095896974 -0.42754635 1.106975 -0.6254018 -1.2236023 0.85977197 1.3024806 -0.61556494 -1.0785882 0.53691655 0.084393956 1.189487 -0.21460201 -0.081527226 -0.8188367 0.57300526 0.6172322 -1.7581266 -0.44852206 1.0354884 -0.2075022 0.9342801 -0.34382984 -0.70558906 0.148351 -0.74164754 1.873735 -1.8644888 0.6010921 -0.3908569 -0.81398004 -0.761854 0.280468 0.9011544 0.02813033 0.2178321 0.593976 -0.420027 1.4392003 1.5143406 0.6797663 0.36730906 1.3035986 0.5520473 -1.376452 -1.2307445 0.3202873 1.604894 -0.2969254 -1.3945444 0.39464453 -0.7814577 -1.0277262 1.7373617 1.0890328 0.33245733 0.15368606 -0.7801184 1.4626365 -0.7352294 -0.46121082 1.7967181 -1.0186522 0.10140766 -0.06559069 -0.61759377 0.25157502 -0.7147125 -0.46858472 1.3726128 0.2138349 -1.0160927 -0.85192996 -0.6199154 -0.5904239 0.82814723 -0.40947902 1.2771795 0.4493707 0.12521607 0.18297277 -0.86381865 1.2440503 -0.22746582
pierre 1.8545605 0.362726 0.71933454 -0.6127988 0.47640613 -0.52294314 -0.50178564 -0.15028755 -1.4140337 0.4747842 0.14841793 -1.3035365 -0.88095134 0.75719047 0.52138066 -0.89323527 0.16843808 -0.046301488 -0.01917467 -0.06748514 1.3191291 0.4960254 0.02913631 -0.6760428 1.1102277 0.66529864 0.19960588 1.8558396 0.69136447 0.43970948 0.51703745 1.6291409 -0.38346332 0.89327824 0.90080184 0.8130496 1.2069336 -3.873502 1.2659428 0.61834896 -0.92388463 -0.11309975 0.09538658 1.4059588 0.0038206982 1.7660646 0.54377663 -1.0200899 1.5363176 0.55928594 -1.9725497 -0.5203705 0.19546087 -0.9770669 0.24613917 -1.212104 -3.6387992 0.90962857 -0.9220205 -0.57955724 0.35483807 0.7236284 -0.09445039 1.5491191 0.6039843 -1.3271713 -0.32643002 -1.4876019 -1.0494056 0.9840552 1.3012054 2.242363 -0.47069895 0.702531 0.1886547 0.62021583 0.30209386 0.36420944 0.057288904 0.7067007 0.17971605 1.5515523 0.7022395 -0.38674846 0.9735733 0.205206 0.69043475 0.42937765 -2.5965998 -1.4706167 -1.7271502 -0.22852059 -1.4236248 -0.1487014 -0.69610906 -0.6527771 0.20332004 -1.0115916 -0.70575434 0.5225152
un -0.43057817 0.042522673 0.9156875 -1.1481631 -0.67261654 0.26407716 -1.8908142 0.032914467 1.173792 1.6963843 -0.65971476 -0.5268558 1.2350112 1.1124866 -0.15472761 0.74036175 -2.0271022 -0.15423411 2.3874147 -1.1562384 -1.6352731 1.1195315 0.28953364 -0.33524027 -0.6006017 -1.183142 0.01781523 0.42155322 -1.0688612 -0.16490044 -0.26196533 0.8615288 -0.8549969 -0.72337455 0.9805795 -0.8107908 1.733529 -1.487853 0.1674634 -1.4314835 1.2538024 0.23172228 -1.214816 -0.9393892 0.5066127 -0.2367335 0.46747932 -0.8740935 -0.26253587 -0.040929105 -0.9191121 1.2373717 -0.86463547 -0.32397282 1.245415 0.3955319 -0.6339501 -1.1265734 -2.0030885 1.4825922 -0.9915444 -0.6313502 0.3005816 -0.75205743 1.152207 1.1134263 -0.5575492 -1.4295409 0.18267976 -1.7814305 -0.19543092 -0.10075535 -0.3216224 -0.5133756 0.09288661 0.5466132 -0.2777396 0.71652794 -0.025259038 0.9360118 -0.50885457 -0.14151543 -0.12098959 0.89755696 1.26295 0.75237244 0.15045714 -0.5028797 -1.1133907 -0.0315527 0.4008613 -0.37806213 -0.95144945 -0.8431415 0.18888909 0.52173555 0.5593368 -1.1529936 -1.0037053 -0.66121536
four 0.048630584 0.02222661 -0.7352304 1.922499 0.60279083 0.23633835 -1.2146037 -0.680069 -0.37299016 -1.2788012 0.5575002 -1.1782471 1.3648881 -1.2459613 -0.45655516 -0.68932796 -1.3784643 0.65900266 -0.6329001 0.31332612 -0.60178006 1.1786988 -1.7557015 0.6355189 -0.3709808 -0.22343294 0.2671002 0.5652159 -1.2895614 0.16950233 0.8835057 -0.18639655 0.96408844 -0.50955725 -1.8765521 -0.8462761 0.028487802 0.92043614 0.7620056 -0.36049873 -0.6090675 0.6331215 0.018084522 1.5692205 2.4135785 -0.6667421 0.07701105 -1.2381718 1.2330092 -0.6367924 0.23937635 -0.8878467 -0.25926483 -1.2716007 0.6545683 -0.4105444 -1.182016 0.51091087 0.60978264 1.3195603 0.1712771 0.35422066 0.7860215 -1.0813318 -0.72345006 -1.4761693 -0.7574103 -1.1083813 -0.35896462 -0.18239419 -1.0919312 2.4509726 -0.69721115 1.1135235 -0.67545635 0.5213683 1.3960018 -0.8739446 1.2946216 0.058107525 2.2248588 1.3485413 -0.6371712 -0.9003903 -1.0550444 0.5258549 0.30339584 -0.5981255 0.12463545 -0.2618698 0.47596994 -1.5598128 -1.087804 -0.04486911 -0.5334226 0.23649941 1.6891817 -2.2060592 0.7904757 -1.0094392
traditionnel 2.3888874 1.2543557 -0.98419607 -0.006930549 -0.5873736 -1.1621885 0.16059932 -1.8786367 -0.82290334 -0.95615035 -1.1214262 0.8684534 -0.14774702 -0.4707603 1.4569805 0.49526903 0.2006366 -0.16612723 0.7323197 0.2559021 -1.6025765 -0.5858796 0.40023443 0.30809286 1.0486442 -0.6054122 1.1778064 -0.2271225 -0.11151271 -0.30878782 -1.57018 -1.3278121 1.4922073 -1.4609979 0.31278464 0.3572244 -0.6543891 0.34664243 0.21304391 2.1004233 -1.5139644 0.7709583 1.2435111 -1.1561668 -0.004967589 1.3688009 0.7978665 0.19502878 -1.308175 1.4427093 -1.2371405 -1.4081203 -0.6005593 -0.32595932 0.045956016 1.2109709 0.89907116 0.8794129 -0.7285583 -0.6779395 -0.35783464 -3.0133946 1.8847376 -0.2991145 1.413385 -0.31872874 0.53713495 1.5144368 1.0562745 -0.47104844 0.37361264 -0.7611037 0.04329783 0.17975546 0.90509367 -0.3951849 2.01176 0.26099002 -0.6808418 0.87833124 -0.52034545 -0.012117138 0.3533853 -0.21329394 -0.2416092 0.27922738 -0.1945183 -0.1345754 -1.8837035 0.5643183 1.2916235 -1.3160071 -0.36800912 1.8095142 -0.91236806 -0.07256801 1.4664793 -1.2534748 -0.06703169 -0.26958388
deux 0.16701427 0.011064589 -0.16953324 1.1197146 0.030277457 1.3316638 -1.7203655 1.0639052 0.48907843 -1.2558368 -1.4396471 -0.3070671 -0.85552335 0.18843581 -0.34383783 -0.1901355 1.0427988 -0.56724256 -0.8919786 -1.6197048 -0.12628774 0.18113284 -0.17481045 -0.4238323 0.02812278 0.34169656 -2.62991 0.540154 2.2410235 0.85655123 -0.5044103 0.5001284 -0.5629825 0.39712933 1.3900542 -0.78509253 0.58131135 0.6929939 0.5418418 0.9163511 -0.13564074 -1.6058259 -0.15122488 0.14866494 0.0766754 0.46333787 0.17906536 -0.9998842 0.2111195 0.13753834 0.8805748 0.569357 0.22769709 -1.4648632 0.47136676 1.4736217 0.2916934 0.492317 0.43908244 1.4983572 -1.2893678 -0.45667872 0.04333817 -0.9715982 1.4425471 -1.1762736 0.30391324 0.15671508 0.80915964 0.45316538 1.809788 -0.10749365 0.668069 -1.0125952 0.83558786 -0.1097183 0.21521775 0.19019985 -0.58790874 0.5515899 0.03444166 0.26573244 -0.59370893 -0.9778215 0.73373884 0.61535245 0.4487792 0.2875845 -0.83270127 -1.2117276 0.36793947 0.21644142 -0.8892445 -0.793664 -0.05771497 0.9287435 1.9533892 -0.39140564 -1.5412211 -1.094508
mesurant -0.037516672 -0.5229998 -0.7594583 -0.47766727 1.1508904 -0.7858654 -1.0723454 -1.9812526 0.7007147 2.0548458 -0.263569 -0.45707715 0.41741666 -1.7489108 -1.0969591 1.1501741 -0.75693715 -0.096539825 -2.5191548 0.016206078 -0.28505838 0.3572734 1.0121195 1.2717428 1.5277559 0.3670914 0.4698583 -2.7620535 0.11313936 0.8529757 -0.197874 -1.0629792 -2.0722237 -0.6092851 -0.8306018 -0.1419995 0.19055358 -1.4771723 -1.0103478 -0.20738794 1.1753772 0.9218152 0.32405555 -0.54438204 -0.18299243 -1.0757785 -0.41615096 1.032277 0.9810223 -1.4018472 -0.64831275 0.19198965 -0.06293313 0.44736114 0.23804624 -0.7223634 1.5573602 0.58638364 -0.12928854 0.2166619 -1.6174228 -0.028263535 1.4457405 0.53219265 1.8937036 1.6943696 0.5269283 -1.818594 0.39583245 1.144273 -0.20729434 -1.2257003 1.004264 0.16095373 1.5002236 -0.8358919 0.75471497 -0.6293771 0.7141995 -0.82381773 -0.79863226 0.08716219 -0.93085384 2.9829264 0.5699119 -0.25112715 0.9528931 0.33340508 0.4617643 0.24316 2.102673 1.9172766 -2.955944 1.6480664 -0.04369481 -0.27159172 -0.2844725 -1.4643391 1.4015248 -0.07361289
Dame -0.27755415 -0.26499853 -0.027060438 1.2648281 -0.62430125 0.68565476 1.0218292 0.3098475 -1.7557979 1.7227825 0.8304744 1.2170523 -0.18091144 -0.67701054 1.6691475 -0.6495518 -1.9458108 -1.3633258 3.0325813 0.60183 -0.16689008 -0.25398424 0.0021561305 -0.15250403 0.4514336 0.9395707 -0.27421436 -0.3409674 1.3846889 -1.0784626 0.14646198 -0.383251 0.36572126 -2.1936407 2.505571 -0.18714674 -2.2093084 -0.98327804 -1.8848405 0.63708824 0.8054392 0.38494805 -0.31197092 2.1350315 1.2444892 -1.15634 1.4389622 0.4237415 0.70425236 0.085421525 1.308123 2.2737696 0.27021715 -1.4614753 -1.3516783 -1.2552135 -0.04595714 -0.5287809 0.12276094 -0.2175118 0.61215305 1.610793 0.1786221 0.09176913 -0.0025438196 0.55785877 0.1448042 0.7252941 0.9850619 -0.015923774 1.3774209 -0.14833318 0.77830476 -0.6715447 0.5942237 -0.6690539 0.9141514 -0.5855727 -0.23066461 -0.75489163 -0.66820294 0.3103878 -2.3330307 1.8480506 0.40231422 0.30044946 0.18112142 0.034638062 2.01134 -0.1680887 -1.9538593 -1.0256974 -0.0055488935 -0.9293359 -0.51201177 -0.6161217 0.36763734 1.8698038 -0.44001386 -0.18410708
cache -2.0030363 -1.337169 0.3119394 -1.6424179 -0.98627156 -1.0797625 0.021830777 0.5873481 -1.5042334 -1.3362503 -0.31247 0.99992526 1.1685125 -0.039997257 0.011781246 2.0569053 -0.1881943 0.30766347 1.3542273 1.614237 0.28553727 0.99215704 0.89570063 -1.2398901 0.4499288 -0.05607454 0.33116642 -1.0892032 0.008094666 -0.066685766 -0.87962216 0.4983525 -1.1350336 -0.12703894 -0.11910732 0.08004804 -0.25252315 1.7256652 0.9540124 0.60559124 -0.0034942776 0.0044539133 -0.45238614 -0.90981656 0.0015622169 0.98985285 -0.7734497 0.6032461 1.2685728 -3.4176946 -1.1556544 0.6779724 -0.108418465 -0.01682116 1.7186294 -1.3134236 0.44140574 1.593167 -0.61857754 -0.8747613 -1.2265936 -0.08568145 -0.6864227 1.7072015 1.0436847 0.79029775 0.26229328 0.23538609 -0.09967811 0.40426397 1.5018419 -0.48898926 0.667224 -0.39172825 0.74715203 0.2803006 0.65953875 0.9545174 -0.34431517 0.5136512 -0.78343475 0.1663819 1.4108324 -1.2006333 -2.1518629 0.067765854 -1.8701141 -1.0833495 0.5390269 -1.0000477 -0.4288788 -0.06334563 -1.1800783 -0.5444775 0.042907678 0.5803147 -0.10888463 1.2725683 1.0227791 -1.2641149
pas -1.4134635 0.41002947 -1.9084485 -0.17079067 -0.8657529 0.015347759 -0.58148813 -0.9550129 0.44999602 0.30749512 -1.4085855 -0.8875482 0.7456934 1.2057234 -0.06570125 -0.33533397 0.46074015 -1.5815012 0.98441553 -1.9218656 -1.0771227 -1.2318643 0.5698337 0.5178343 2.9115686 1.5805088 0.102483496 0.13139418 -0.2744516 -0.503042 1.4519879 -0.9244093 -0.23346716 -0.8864327 0.04534824 0.34340104 0.13271159 1.9508947 0.6518312 -0.34631133 0.40408602 1.4801594 -0.7074702 1.7667539 2.257814 -0.15915139 -1.815994 -1.4948355 -0.67300844 -0.80538553 0.2186645 0.6439798 0.6156171 2.4245784 0.74815595 -0.19897981 0.13643023 -0.3564202 0.6421234 1.0998251 -0.20824525 -2.1976016 -1.3685825 0.43568593 -0.7407992 1.166962 0.7505555 0.7771057 0.58589196 -1.053536 1.2198625 0.20371519 -0.024811868 -0.2409608 -0.2873198 1.3586003 -0.45925668 0.8521412 0.759646 0.8698845 1.7307483 -0.4782748 -0.41877493 1.14109 -1.1436976 2.3129416 -0.7124675 -0.3093723 -1.2250825 1.0661606 0.8219066 -2.4715352 -1.6561534 0.56355417 0.82618743 -0.7445025 -1.2328718 -0.13577865 -0.44403693 0.26839876
sa -0.7989997 -0.0014065143 1.8001081 1.1948822 0.083964765 -0.530979 -0.92450666 -1.6377814 0.5898384 0.63210183 -0.5497731 0.8701731 -1.0123122 -2.1597846 -0.5211979 -1.3367369 -0.73360276 0.15768564 1.2272477 -0.63377535 1.6553042 -0.39934337 1.066639 0.04176105 -0.4017913 -0.6848015 -0.9974586 0.441253 -0.8902863 -0.71133924 -0.28437096 -0.3632012 -0.51772714 -0.1544286 -0.8017275 -1.9876035 -0.6056346 -0.12084262 -2.2669945 -0.7217213 1.1696943 1.0844554 0.4932956 0.29617038 0.70102334 -0.772791 -2.6125498 0.13831629 0.6583203 -0.4390849 0.81318134 -1.0503263 -0.39521304 1.1960448 -0.12877364 0.54115015 -1.2710748 0.3233732 0.024875477 -0.1490842 -0.8464034 0.0068425946 0.6838213 0.39194635 -1.6844149 0.15531145 -1.3690789 0.8263964 -2.1301892 -2.0008674 2.1982577 -0.7993423 -0.46682596 1.9293151 -0.0524585 -0.3198997 -0.22175336 -2.2125819 -0.9393851 0.051830284 0.7816505 0.37395343 1.2312354 0.93642664 -0.85857683 0.173212 -0.82557136 0.94599503 0.26671496 0.19721021 -0.021383792 -1.618696 2.2730188 0.19589436 1.3547516 -1.7387931 -0.16693613 -1.494207 -1.9671967 -1.5720212
surprise 0.24931288 -0.034972835 -0.7584335 0.68999946 0.77459925 -1.2290659 -0.43976435 0.47913375 -1.7262089 -1.408617 0.63915616 -0.08192247 1.2396337 -1.4966338 0.084504 0.29573882 0.24694657 0.21898118 -0.089974605 -0.54625714 -1.1794413 -0.5176708 0.4689883 0.12906131 -0.24380179 0.11350712 -0.18575095 -0.9546367 3.5995648 -1.7010831 -0.011921734 0.90725285 -0.34955427 -2.4748037 -0.25736776 1.6096478 -0.27574953 -1.5325809 -0.07002224 -0.48491722 0.381361 -1.6299245 -1.7589933 0.29962513 0.42398024 0.48577628 0.27837822 0.8144816 1.3008202 0.97446823 1.0886413 0.5493302 1.2404863 -0.56782526 0.34437224 1.0993448 1.0853834 1.6120218 0.24036136 0.34756097 -0.0641003 -0.08760933 -0.28258494 -0.40320912 -0.11639009 -1.4246231 -0.6729623 0.7120028 -0.23388311 -0.034077145 0.8639787 1.4520258 1.3121083 0.06938586 1.4241607 0.34590694 -1.0440506 0.8536431 -0.6061881 1.5223566 -0.60576326 -0.2509969 0.7769089 1.1739161 0.10688458 0.19990852 -0.93244827 0.8121567 0.08665631 1.2020862 -0.5069116 -1.5542281 -1.8465861 0.4382891 -0.62972766 -0.1931172 -1.5362179 2.3027887 -2.3331056 -1.389322
car -0.5312008 -0.2773127 0.8170497 0.26558644 0.71357626 1.434477 0.030633712 -0.9118889 0.85714364 -0.57292336 0.28504238 -0.24902973 0.10783821 -0.42069373 -0.7160997 0.5332242 0.27536273 1.5776719 -0.062227774 -0.6821902 -0.8869099 -0.685759 0.13294944 -0.16783424 0.67830545 2.1203883 0.047387514 0.30817947 1.7247807 -0.2354625 -1.5727164 0.81039774 1.283848 0.2715191 0.6086278 1.0568916 0.3293783 2.7839894 -0.14414975 1.347211 0.07809006 -1.1013234 -1.387816 -0.06975155 0.83069366 0.5307479 -0.12126001 0.5794885 1.231049 1.7040294 -0.8861867 0.7887242 -0.5666397 1.3400184 -0.8349115 1.6787343 -0.20096013 1.6888362 0.7828382 1.3420264 -0.08546568 -0.6425576 0.22561342 -0.39751828 -1.9794067 0.43088213 1.392836 0.31390086 -0.0027455525 0.28313324 0.49692586 0.47784966 -0.26048148 1.1978168 -0.38168272 1.9039553 1.4494971 -0.1064209 1.0641619 -0.33032328 -0.0792749 -1.1285113 0.624062 1.2939337 1.0663735 0.49803087 -1.2519722 -0.3389765 -1.6852491 1.1804178 0.30886608 -0.38018495 -1.2955626 2.112825 -0.3607549 -2.4296658 -1.9075316 0.44200635 -0.44369438 0.06429128
dans 0.7026243 -1.0812002 -0.5372863 -1.4030792 0.629053 -0.6398527 0.98289573 0.76639503 -1.0945159 -0.52851653 0.5673302 -1.1940186 -1.1225653 -0.8950446 -0.5929237 -0.56523025 -0.54963696 -1.9391828 0.20073797 0.41512513 0.19817726 0.55958486 -0.61906856 -0.17333582 -0.70931005 0.13591282 0.12472725 1.6040454 1.0838242 2.2450664 1.481614 -0.5608826 -1.8674235 -0.12835087 -0.3828415 -2.1327868 -1.1289581 -1.1195861 0.77759206 -0.28374067 0.3168499 1.1328987 -0.084834926 1.2444776 1.6638982 -0.7154927 -0.83103555 1.5498716 -1.0332377 1.0696515 -0.07382471 -1.290091 -0.9062826 0.28218797 0.38555452 0.94239736 1.354399 0.099789776 -0.76526016 -0.083678864 -0.67637604 -1.089571 0.3756993 -1.0580863 -1.6848534 0.5959615 0.0692808 1.6519707 0.3621472 0.15230986 -0.61403704 -0.5529422 0.40420464 -0.83420163 -0.6833053 0.09395231 0.8846065 -0.5443635 0.52029073 -0.73480886 1.089466 0.6804038 1.6539189 1.9082545 1.0266514 0.23572509 -1.3934054 -0.2419493 -1.4945191 -0.45944542 -0.41873717 0.016616832 0.94740045 0.45934403 0.407586 -0.29656768 -0.81314564 0.66908085 0.63167125 -0.56999874
chacune -2.7332113 -0.024967713 -0.6161435 -0.5903877 -0.06964853 1.0326588 -1.4282387 1.4257923 -0.31647834 0.769913 2.0217364 -0.64915967 1.6361829 1.4462489 0.09919036 0.40599525 -1.2337791 -1.5390292 2.269302 0.721876 -1.217936 -1.138687 0.83781624 -0.87877476 0.39737135 0.7686253 0.78246814 1.6288924 -0.34381962 -0.7082277 -0.3078988 0.1385068 -1.5474935 0.81509113 0.83749723 -1.8034916 0.027590448 -0.09240142 1.6705427 -1.4562389 0.88363045 -0.061911464 1.4599348 -0.13526177 -0.55018085 -0.11789937 0.63518006 -0.030282168 0.6889717 -0.45894352 0.8437078 0.960124 -0.5911255 2.0866194 -1.7390897 -1.5935627 -1.0726312 -2.0931106 -0.9120114 -0.104107864 1.931287 -0.47448683 0.4822541 -1.0918131 -1.4559081 0.86735237 0.32808563 -0.83495873 0.16060953 1.2445104 0.37838432 -0.3005088 -1.1381108 -0.30177733 1.4777855 -1.0355554 0.25763792 -0.7414272 0.547677 1.6168035 0.90373546 -1.3567425 0.09936857 -0.37701246 1.633896 0.727731 0.4589698 1.827835 -0.90141565 -1.0746735 0.69339293 0.9251079 -0.102060586 0.35279188 -0.35141432 0.52564335 0.33712772 -1.5705478 -1.1611433 0.21711272
vitrines -1.0460156 0.58196497 -0.6704906 0.55483884 0.7908198 0.20337895 0.90751696 0.119006395 0.2777066 1.3068377 0.012827429 -1.9722977 -0.14955857 0.2620001 2.0012033 -0.14695202 1.6402603 -2.117928 1.0086293 0.77767897 -0.022703517 1.4342905 -0.06775065 0.691515 0.90455914 0.7486641 -1.3906687 -0.6568065 -0.63965195 -0.028767498 -0.751735 0.20909233 0.45007983 1.0947171 -0.20408885 0.5188376 0.58473486 -1.5358084 1.571264 1.0057733 0.660892 -0.61920094 0.25391436 -0.73954344 1.3141636 0.2139975 0.118236154 -1.2740982 -1.0419065 -0.23573352 1.1246436 1.1196016 -0.22019264 -1.5749075 -2.0861974 0.46795094 1.7984504 0.6402228 -0.39131647 -0.07249043 1.2508032 -1.2851143 -0.41013983 -1.2371604 -0.45212093 0.9501022 -0.32008207 0.45986295 1.1893957 -0.04705296 -0.12342813 0.8199585 0.5207004 0.33362553 1.8110504 0.520993 1.3919053 0.08747591 -1.1407913 1.6757325 -1.1863649 -0.041223206 -1.9108251 0.78944117 0.39894995 0.49100623 -0.28874165 -2.5512693 0.75113124 0.16138631 -0.021856567 1.2933954 -0.74328375 -0.7058044 -0.35283512 -1.0148709 1.3650697 -0.5960272 0.37944677 0.48298728
rue 0.89675575 -1.0345839 -0.30919728 -0.626609 -2.2429543 -1.169289 -0.18355346 1.1176748 -0.5979715 0.23282123 0.09813042 0.06294609 1.5021567 0.008906935 -0.6493169 -1.0078853 -1.6113944 -1.1695766 0.3171462 1.1216214 -0.74603164 -0.8373569 -1.6661501 0.4641276 1.3660215 -0.8942375 0.67927104 -1.8945085 1.388898 -0.3650681 -1.620201 1.0660733 0.24692087 -0.31445956 -0.08051193 0.34472445 1.5677125 1.4608933 -1.197588 0.07078947 -0.3929611 1.554661 -0.27185407 -0.5489558 -1.1225452 -0.5869718 2.323195 -0.030831683 -0.27639547 -0.37001607 -1.5545002 0.5709617 1.329637 -0.23219098 0.030397372 0.6046363 1.486166 0.13460876 -0.5788236 -1.2793645 -0.48900217 -0.23474224 -0.2002445 -0.19503684 0.19099243 -0.17463087 -1.1263491 -1.6810809 0.11023308 0.018603614 -0.75735384 -0.95999515 0.79519075 -0.9337481 0.7425686 0.3196975 -0.13827834 -0.76772004 -1.1463499 -0.51256907 -0.95788217 -0.7545688 0.98792166 -0.805991 0.46292287 -1.0799015 0.21690796 0.60054016 0.6261981 -0.7349571 -0.6329833 -0.11808309 2.0391226 0.41576302 0.21775042 -1.2632914 -1.0353884 0.52093995 -0.5182643 -1.1797408
Sarrail -1.9643852 0.82015544 -1.3914652 -0.016206633 -1.0426819 -1.1325767 -0.2799088 0.057230078 -2.4666018 0.7566907 0.47896582 0.40716696 -0.045454215 -1.2419171 0.14364973 0.37440294 -0.09302264 1.712209 0.9027886 -0.23293324 2.3108032 0.7622747 -1.7441148 -0.65777916 0.32373413 0.72622544 -0.50543976 0.15827496 0.64476657 -0.31831372 0.7216873 -0.29120716 2.270051 0.8756954 -0.14625134 0.78502315 -1.6377388 0.44025803 -0.055240776 1.1308581 -0.97616094 0.251294 -0.78023046 -0.5874183 0.3654256 1.7965366 0.8664604 1.2647847 -0.26450843 1.3104211 -1.2502382 -0.077728264 -1.3697627 -2.0257304 -1.0521404 0.6312312 0.019599652 0.34014034 -1.4964222 1.5915427 -0.1428691 0.9312789 1.0103551 -0.5618083 0.2849694 -2.4716818 -0.9191589 -2.1201234 -0.3989237 -0.7591279 0.54778606 0.16654721 0.17282042 0.55486685 0.90116376 -1.7188693 0.5021167 -0.8888044 -0.3060052 -1.3167698 0.76948804 -1.4277897 0.6644502 0.37773672 0.5587158 -0.3168488 -0.46632442 0.49305037 0.42573217 0.11578284 -0.064582326 0.4840476 -0.5850945 0.32840633 0.6422136 0.41051167 -0.68670374 0.29847902 0.5128012 -1.0516331
ou -1.5874255 -0.82633775 -0.70722896 0.33766276 -1.5591435 -0.55343276 0.7981445 -1.8200712 0.271305 0.33404168 -0.43215787 0.9111028 -0.19542263 0.7260234 0.65384996 0.91705954 0.5386475 -0.72167754 0.5626433 -0.9239267 0.3464302 0.99800193 -0.26346833 -0.6997602 0.59897643 -0.6010839 -0.23014374 -0.3179884 1.4805897 0.78189766 1.1435553 0.1581851 -0.032022115 -0.1202437 0.26888222 -0.7222926 1.1433228 0.051344153 1.5112104 -0.4054031 -0.04224442 -1.174243 -0.30926618 -1.089586 0.75922114 0.6761777 -0.3837923 0.62419724 2.0902832 -0.86090237 -1.1713231 0.21601681 1.4976106 2.1002593 -0.62044775 2.1674776 -0.031242516 0.608001 0.9749374 -0.4859953 -0.065725654 0.9646684 1.3584031 -1.7675809 -0.5361106 -0.07216679 2.8001714 -0.0828216 -0.2819534 0.5321551 -0.9952733 -2.013475 -1.1892711 -1.6358036 0.819995 0.3210342 -1.5843279 -1.125576 -1.2829684 0.2957051 0.32640302 -0.65175444 -1.120938 0.008746092 0.9647098 0.022053415 -0.18141964 -1.2628561 0.048745252 1.739056 0.26713738 -0.6355101 -0.83621955 1.9762555 -0.7704687 -0.32248574 -1.4115602 -0.20734806 -0.73812556 -0.1968387
De 0.88546395 0.071699664 -1.6654217 0.619012 -0.50853807 -0.21972086 -0.25616428 1.2170231 -1.2863101 1.2210298 0.7035829 0.3032574 0.7790204 0.44093892 -0.8823312 -1.909013 1.1720322 -0.34526607 -0.6882206 0.7232437 0.6761133 -1.1217343 -1.1533813 0.467412 1.4140792 0.0011905377 -1.0802426 -0.60109776 0.12834412 -0.72885716 0.011539779 -1.5051148 -1.2639731 0.7299023 -0.84549266 -0.6840557 0.56533915 -0.49559033 0.78080434 0.5237877 -1.3013395 0.14353612 -0.42359924 -0.09091816 1.1431106 0.856217 -0.3155908 0.9150621 0.15081707 -0.61531883 -0.4964998 -2.6070726 0.8786166 1.3979717 1.9867629 -0.79731077 -0.5406065 -0.5574491 -0.8276722 0.8029391 1.0914989 0.42932388 0.7313087 -2.1319373 -0.2007289 -1.0124665 -0.015640115 0.9606727 -1.5650659 0.08077312 -0.2618939 -1.1334211 0.7655565 0.66015965 0.13816985 1.0071516 0.09207693 0.75446135 -0.7261398 0.52157426 1.2869583 -1.0048263 0.40517923 -0.32934278 0.57273 1.2046047 -0.68352133 1.3454875 1.3568679 0.7143062 -0.57818687 -0.87684554 0.30545896 -1.8728231 0.838809 -0.44388866 -2.2156081 -0.20600662 0.009393956 0.89356846
Gaulle -0.07499772 -1.4049783 -0.22140467 -0.28319022 -2.2435694 0.80812097 1.5024443 -0.7340419 -1.1919942 -0.10643604 -0.2733887 -1.7808709 0.9822867 -0.29858217 0.8867462 1.7502013 -0.041648097 1.5508744 -1.02593 0.14228106 -0.13602848 -0.43696028 -0.89970595 0.2628786 0.107774824 -0.098635234 1.2376002 -2.940425 0.16746907 1.4984318 0.028557543 1.029493 0.71598613 -1.3894925 -0.375886 1.6681049 0.057178166 -0.072372444 0.4848147 0.74205077 -0.29173723 -1.2707665 0.412265 0.31881508 0.1578284 -0.9887527 -1.1615785 -0.81112236 -1.0026128 0.2009335 -2.0958056 -0.79930055 -1.137462 -0.73743445 0.17836373 -0.7954432 0.1521225 0.06757565 1.1253735 0.17488796 1.2063767 -1.336163 -1.3381104 1.7826052 0.73292565 0.06847609 0.9777394 -0.02577256 -0.040836975 -0.6639072 0.39900953 -0.6924783 -0.5170089 -1.1425995 0.28776667 0.6826408 -0.93890995 -0.2903504 0.6101685 -0.036131512 0.22101407 -1.2295786 -0.32553288 0.5695804 -0.83993804 0.11272263 -1.7695585 1.1269295 -0.1778237 -0.84331155 0.8748742 -0.88710976 0.17425282 1.1287416 1.0505776 0.4290732 -0.03505594 1.7000885 -1.1825862 -0.32395664
cette 0.073601075 0.7341216 0.1932531 0.9126657 0.6702695 -0.5653561 1.719418 0.95525247 -0.25439602 -0.6955537 -0.44134593 0.43285137 -0.7523789 1.3702115 -1.1260436 -0.20431545 -1.4228799 -1.1018388 -0.61247087 -0.35713047 -0.44728452 0.62536764 -1.519306 0.23433025 0.06026906 -0.20013632 -0.3474555 -0.07305833 0.3762696 -0.81114936 0.46445325 0.8961535 -0.73341143 0.9328518 -0.13138884 -0.29309756 -0.8260445 0.47150382 1.1932248 -2.5448382 -2.1844997 -0.14223664 -1.7709572 1.375382 -0.27375174 1.5384773 1.1428457 -0.5069783 -0.40165925 -0.35535643 1.1309949 -2.177121 -1.2595644 0.10946804 -1.8415246 1.29701 0.18447298 1.2279822 -0.6274933 -0.20281634 2.6562605 1.2772074 -0.32141617 0.612761 -0.48280925 -1.0672199 0.0011834056 -0.39344484 -1.5278962 0.7073511 -1.6320345 -1.2211583 0.7199861 0.51787186 -0.40954757 0.6392857 0.44264328 1.4182198 -0.7593896 -0.4045256 1.1035867 0.79051656 -0.09096666 0.43840852 0.26100323 1.2035905 -0.37582272 1.744434 -1.0953548 -1.8475728 1.0008569 -0.32083282 1.4544413 -0.05022958 0.14013888 -1.1354128 0.4902792 2.6953833 -3.1366122 -0.8193563
taille 0.53807837 -0.049271636 -1.7758541 -0.79706985 -0.24766272 -0.44372213 -0.8228905 0.6727815 0.3751139 -0.6700847 1.5696305 0.6039492 1.583981 0.2584449 -0.09708344 -0.19097784 -0.46339658 -1.8168648 0.73181844 1.3501688 -1.228444 1.5450838 -0.4884125 0.43462622 -0.41968876 0.16606194 -0.1931964 0.77596104 -1.5013067 0.31436694 0.23994067 0.0013073097 -1.2992898 1.3143486 0.8485933 -0.47860262 0.87753505 -0.82288134 -0.44553453 -1.2440099 0.5233808 0.56710964 0.10754473 0.37403294 1.2628404 -1.2722601 -1.2594222 0.08015704 -1.5319659 -0.08768221 -0.47653607 -0.7642537 -0.35766807 0.5442449 1.3947042 0.23474835 -1.1305958 1.022539 1.2549846 -0.4412594 -0.17098176 -0.9273528 -0.255075 0.7646268 -1.231798 0.35902303 0.06444855 -0.772602 1.5985929 0.35269722 -0.24258235 -0.48333895 -0.010790239 1.9199411 1.0152613 2.0149333 0.91714406 -0.5613305 0.5202146 0.9498606 0.26264894 0.7422448 0.46940047 -0.5761237 0.2548579 0.030058648 0.5631759 -0.35971642 -0.9438697 -0.09355539 -1.239811 0.55747795 0.903288 -0.86526734 -0.75787514 -1.2224314 -0.021099837 2.2643538 1.6305338 -0.49405506
impressionne 0.18797448 -0.06230437 -1.67147 0.30702606 -0.4914779 0.3345075 0.45642245 2.1697445 1.1577392 0.5021568 0.0175448 -0.01649494 1.8452013 -0.5778983 -0.56748927 -0.48180386 -0.23675448 -1.4042525 0.41322652 -0.49663353 0.69706845 -1.3128036 -0.12273844 0.16714837 0.032704327 -0.8138277 0.16870849 0.8860926 -1.0979714 1.8097957 -0.26523694 -0.48522225 -0.45529714 0.57727945 0.99060917 -1.3140821 0.76761484 -0.0492694 -0.35854304 0.45438182 0.85362935 -0.59142375 1.3276174 -1.0652677 2.6641307 -0.29058674 -1.8015821 -0.68573 -1.2483119 0.5344416 -0.004320167 -0.9941741 -0.56341845 -1.1649282 1.9633389 0.7667761 0.6375408 0.9786236 -1.0296857 -0.056914438 0.7251179 -2.2424421 0.04562066 -2.064074 -2.3654406 0.8359172 -0.34705615 -0.9130196 1.1967856 -0.70527977 0.23777999 1.4532455 0.784334 -0.9884448 -0.934461 -1.1314021 -2.0596433 -1.581342 0.5120635 0.39794394 0.3496851 -0.4585962 -0.16567658 -0.23128423 0.08255103 0.5758825 0.25964904 0.70477045 -0.33839864 0.55438834 0.5921492 -0.027694285 -0.22752233 1.2138536 0.46505657 1.5020813 -0.5648431 -1.0075676 0.24478796 0.8240414
mener -0.30556193 -0.6106091 0.16943437 -1.6607454 1.4825826 0.839356 -1.0381956 0.53419006 -0.41201136 -0.6233705 1.0328068 -0.15101299 -0.8098181 -0.5173027 0.42793408 -0.32732216 1.3006827 0.20044997 1.0598383 -0.23123915 -1.1091148 -0.31283978 0.2272459 0.28268787 -0.3284267 0.61007583 0.6792514 -0.9106009 -0.039317284 0.5438644 -1.3831229 -0.5560676 -2.093202 0.5941847 0.9138811 -1.9003843 -0.6886489 0.81560236 0.013548186 -0.35905227 -1.0042539 0.8735125 -0.013908833 0.6597286 -3.401972 -0.1392328 -1.18395 0.8379137 1.8763384 -0.52131134 0.44376457 -1.8068135 0.15323277 1.4769818 0.57977855 0.66314757 0.7128779 1.3935683 -0.46503586 -1.4420577 -0.15577655 0.26632157 0.5845303 -2.2601423 -0.21424128 -0.042870272 -0.450274 1.3002791 1.3978788 -0.6862499 0.6758147 -0.4265727 0.26780012 1.0031673 0.4828207 -1.9695979 1.0449065 -0.64740044 0.2546866 0.48898244 0.3613428 -1.3562037 0.3662074 -0.2456201 -0.44470817 0.29952744 -0.21306317 0.84589916 -0.93555933 0.5186721 -1.2928821 0.62773615 -0.4570394 0.4527947 0.23863354 -1.1927148 1.8433886 -0.35075146 -0.71894217 1.233318
avantde -0.29258952 0.33830905 -0.84126496 0.28887424 1.3527715 -1.5320071 -0.29896685 0.25851035 0.19139603 -1.1374855 0.76361936 -1.5614369 -2.0422306 -0.55604136 1.2822995 -1.2888023 -0.74932826 0.07846065 -0.9929284 0.73287654 0.78848416 0.60710114 0.575805 -0.9935044 -0.43992966 -0.80246115 0.88802695 -0.50868654 -0.54237264 1.0668354 1.6021303 -0.65433 0.4101515 0.9332533 0.9576388 -2.0695572 0.17252079 -1.0437132 1.4982566 -1.469875 0.9241195 0.4728184 -0.5979226 1.830606 -0.32834962 0.9358159 1.7575567 0.5979385 -0.9503713 0.7653 1.4434178 -0.12094567 -0.755785 0.14511159 -0.36315212 -0.7024338 -0.64055866 -0.37603426 0.04506552 -0.6654721 -0.049531564 -0.9317105 0.98174703 -1.3891453 -1.0758116 -0.27690688 0.5573779 -1.3499873 0.49413076 -1.852837 -0.76705146 0.7753631 -0.19316141 -0.24918339 -0.58850545 -2.011036 1.0583209 0.25857145 0.3831585 -0.28653276 0.8222803 0.8277 1.5053457 0.81020623 -0.8912826 0.44086984 -0.30322534 1.1554726 -0.113132335 0.568411 1.3060251 -0.5338463 0.21152176 -0.47153908 -0.14253016 -2.396715 -1.233241 -0.108776785 -0.1740815 -1.1268253
exposer 1.4903383 0.038853742 0.76703656 1.3187041 -0.64581436 0.17388771 1.066607 -0.25632095 0.3341077 0.7519266 -1.1138015 0.987309 -0.028811073 -0.6173516 0.2823622 -0.7234105 0.071911104 -0.6295872 0.062874876 0.06098 1.034745 -1.8987881 -1.6941438 -0.08396669 0.31144154 -0.8566931 -0.9675041 -2.175172 -2.4818847 -1.2261077 0.2126707 0.7028151 1.5991822 2.2480903 -0.79649496 -0.45525798 0.011116678 -1.648508 3.419711 0.16388984 0.059167013 -0.6858816 0.20532055 0.9093837 1.4509321 1.1643964 -1.0107017 0.8025087 -0.12358583 -1.864766 -2.2593107 -1.1207641 2.1279912 -1.927251 0.5250952 -1.4546149 1.7875205 -0.5729635 0.41650382 0.74648345 -1.3063923 -0.75378376 -0.3642023 -0.49876174 0.9861704 -0.88799554 -0.53153294 -0.29372013 0.85096383 -1.7808161 -0.4594734 0.34273788 -0.32533127 0.7104832 0.9384058 -0.27524194 1.0771685 -1.7386134 -1.2344003 1.0379356 0.26135254 -1.3321418 0.6168629 -2.3850212 -1.9596487 0.5231579 -1.5668564 0.52701896 1.2649832 -0.31447437 0.22064081 0.13375717 -1.2001464 -0.7997218 0.6370189 0.55230016 -1.9030222 0.91959304 0.43657464 -0.80004746
n -0.2350051 -0.904533 0.23842525 0.13217422 1.117081 -1.121373 0.064864874 0.29269215 -0.7169122 -1.2484765 0.70248955 0.8894089 0.41107503 0.65983367 -0.57306963 0.5218532 -1.2130021 -0.8242752 1.5044067 -1.5350957 -0.06818725 -2.4996235 2.3768249 -0.19009575 2.3364992 -0.49461046 0.89417684 -0.49922776 1.6633214 0.6720182 -0.08352631 0.75998026 0.6008317 -1.6533693 0.37083253 -0.019836688 -0.30874106 -1.3567468 1.5557144 0.66193146 0.23584144 -0.0250906 0.38233057 1.031024 -0.13436548 0.29377824 -1.4590232 1.3879709 -0.17582671 -0.47742352 -0.15741031 -1.0928677 0.7445606 0.54272205 0.6142818 0.95670336 2.3196557 -1.037057 0.3358449 -1.9631511 -2.0244093 0.3749455 1.3815633 -2.7347312 0.1069478 0.030438624 -0.22295818 -0.069156945 0.857971 -1.0554292 0.6273666 -0.4270207 -0.22894283 -0.56559396 0.63054246 -1.6053083 -0.59596866 -1.2576715 1.3943107 -0.675449 0.7710134 0.61923593 -0.85340226 -0.47521183 0.955369 -1.0868024 0.069397725 -0.19790225 -0.17105694 -1.3986948 2.1693585 0.053675003 1.332884 0.8115946 0.4338949 -1.0020194 -0.6395951 -0.90969104 0.22416721 0.9129134
aura 1.2133057 -1.7389781 1.2654973 1.3346487 0.19424218 0.72838664 0.66373247 1.5906695 0.5208067 0.054320294 -0.25284317 0.3034692 -1.2022123 0.6525699 -0.82636505 0.78847265 -1.451893 -1.807107 -0.2853063 -0.41835913 0.28225473 -0.37492767 0.1382087 0.8963839 -1.0557023 -0.6164045 0.59599155 -0.17277806 -1.655611 -0.46685404 1.8336332 0.2218624 0.4170364 -2.1994283 -1.4551941 -0.23257789 -1.0399317 -0.36837187 0.6326088 -0.086522765 0.82692236 0.124414705 0.14754713 -0.15122966 0.6778048 0.73833346 -0.8841859 1.4725648 0.43282598 1.0237087 -1.3388526 0.07958041 -1.2298735 -0.61208487 0.104915164 -1.715729 0.090743445 -0.46150917 1.3214197 -0.85738176 -1.6931068 0.40077257 1.4134961 -1.2444476 1.6260483 1.7203153 0.057046957 -1.6350398 -0.14386158 2.9686334 0.50664574 0.68119574 0.6002666 0.15455726 1.9187752 -1.3207744 0.40706813 -0.09586681 -1.1579146 0.5793122 1.4401113 -1.3138237 2.0849612 -1.2932912 0.45303124 -0.49187335 0.3199943 0.46403426 0.0037040354 3.491071 0.29949775 0.35734984 0.29203948 0.25548923 1.3067614 -0.44840148 0.29492727 0.2846374 2.7216287 0.21222995
fallu 1.367757 0.34827265 0.70882833 -2.154978 -0.9263094 0.5939318 0.84483856 1.7200092 0.15013647 -0.6972853 1.6494612 -0.6864519 1.8926517 -0.47742814 -0.6653803 1.3249651 -0.99267584 0.6560922 0.8532106 1.8590019 1.3589183 1.0961262 -0.5570229 -0.92808825 2.5156524 1.5171572 -0.13318594 0.7507435 -0.48707733 -0.66476697 1.1519033 -1.11816 -1.3332757 0.30381554 -0.01293691 0.77455217 1.258378 0.40299034 0.010772429 0.4450374 -0.87577003 -0.24650629 1.4732872 0.6244252 0.17153744 0.31154358 1.7668084 -1.1198837 -1.4378047 0.08624487 -0.42369604 -0.19784525 -0.6721602 -0.3568388 0.930827 0.044737905 -0.8912994 -0.66992426 0.3197018 -0.42850488 -0.5747823 0.28183892 -1.2832005 -1.6276206 -1.185744 1.3093475 1.3135437 -0.34121254 1.0635848 1.6264101 0.23477066 -0.8765797 0.47327745 -1.1186013 -0.7651701 -0.64554626 -1.059291 -0.24345353 0.8559174 0.5220273 0.26702452 0.1004427 -0.0033728566 -0.6245183 -0.027840389 0.44035774 -1.9381227 -0.1865249 -0.70712477 -1.8052081 1.5286815 -1.3354933 -0.23546134 -0.9580329 0.829401 1.0565163 -0.49967182 -0.7157278 -0.48257035 1.1149542
moins -0.81155646 -0.330906 1.4484686 -0.18432048 -1.5315057 -0.56977797 0.4920641 -0.63012916 0.26672542 -0.27376452 1.1004481 0.2785475 -0.9590271 -1.367235 0.34621435 0.5267404 0.92270607 0.67741156 -0.40185788 -1.2878481 0.085968435 -0.12227953 0.94775116 -0.846307 0.025026241 1.4010714 0.94696736 0.048225466 -0.7944054 0.6077988 0.5269314 0.50561 -0.5261052 0.32757652 1.9766566 -1.073531 -1.0286188 0.22011709 -0.5732882 -0.96513176 1.7127476 1.7157067 0.20883527 -0.29855 -0.6238895 -0.6288004 -0.5550779 -0.9160975 0.1233115 -0.3632527 0.21679735 0.132926 0.15802301 -0.18655281 -0.5464435 -0.34957728 -0.29365158 0.64916766 -3.1420047 -0.5816627 0.59403574 0.20122634 0.29880202 -0.4602321 0.32784852 0.14576533 -0.49744606 -0.902201 1.4682953 1.8792101 0.6173117 -1.0133233 0.1063749 1.536455 -0.35720715 0.12630287 0.97541124 1.2854326 0.17685664 -1.3240794 -0.24638602 0.82176054 -0.8895836 1.8030257 -0.31360266 0.7587201 -0.30067942 -0.7726437 0.20181634 -1.6311669 -0.18109643 -1.1941649 1.4588695 0.02182904 -1.1349784 0.2898584 0.18953103 -0.17688188 -1.0982128 -0.72338516
heures 0.3577555 -0.69884604 0.8299527 0.42573428 2.315787 1.3576659 1.164793 0.23237918 -0.10015845 -1.5951939 0.7565222 -1.0621662 -1.2894931 0.8346303 -1.0902482 -0.9159222 -0.30344695 -0.54073966 1.5852096 -0.33978024 0.5262138 -0.70259744 -0.17437506 0.54612994 0.31095344 0.076501764 -1.6574858 1.1818752 0.32877025 -0.75073665 0.89285475 -0.084447935 -1.8718994 0.056434773 0.099416755 -0.1413123 -1.0699252 1.2050965 0.7761344 -1.2226222 0.32365656 0.74269986 -0.54484105 -0.03308352 0.589083 -0.1022911 1.19191 0.24026202 0.45247614 -1.574831 0.2220642 0.35140413 -1.2728666 0.60656404 -2.0328832 1.3749962 -0.8911059 0.8095226 0.5007815 -1.7362126 -0.5570123 0.27551863 -0.9445143 0.9273025 0.2855904 1.3590347 -0.049931087 -1.6914777 0.46152928 0.5918286 -0.9583702 1.4574901 1.1205301 -1.1877275 0.566589 -1.232456 -0.0900963 -1.3835533 -1.974525 -0.66923666 0.05711505 -0.21621378 -0.07068556 0.33751482 0.40756604 0.8693686 -1.177054 2.0829127 0.18433936 -0.46636483 0.98828 -0.134524 1.0243167 -0.7404581 -0.12961346 -0.36366573 0.4360441 0.32122287 0.22861339 -1.3095464
cuisson -0.6426522 0.028401129 -0.35865036 -0.50453293 -0.50895536 -1.4034283 1.5450375 -0.104641035 1.010744 0.20862605 -0.30328247 -2.0002325 -1.3677249 0.54330593 0.2813265 0.29392287 -1.331383 -1.3594103 -1.364752 -0.5920725 -0.8641619 -0.1507391 0.60490227 -0.5919545 -1.2489576 0.5625725 0.20924817 0.26752654 -0.27879488 0.16422437 0.2799637 -0.09873155 0.22686426 0.5680087 -0.23038785 0.3270398 0.09878988 -0.7030708 -1.1474187 1.0835658 -0.6567784 -0.055700097 0.38696635 0.8304101 0.30706218 -0.10750717 1.5960419 -0.60072464 0.35502243 -0.78881264 -1.6648893 -0.6652634 -0.08864513 0.6913522 -0.3827043 -0.06432841 -1.1905599 0.44442537 0.5009957 0.76722574 0.51130027 1.6919088 -0.8686857 -0.46395394 0.059188653 -2.8016162 0.9064128 -0.44046196 0.9016829 0.41897118 0.65174866 -0.49076915 -0.14153142 0.6604648 -0.08181842 -0.22855654 1.3738651 -0.04385329 0.17933694 0.5126403 0.51432383 1.8881642 -0.5067592 0.24968465 -1.87378 -0.46082547 -0.49561587 0.15200233 -2.256274 0.3435338 1.8271112 0.26023483 0.8813446 -1.0498059 0.33824548 1.1197662 -0.73254454 -1.29966 0.3662424 0.11421824
avec 1.0294389 0.41446984 -1.3909843 0.6415838 1.4366248 -1.3937544 -0.033873726 -0.109470375 0.101853766 0.35689887 1.2163998 0.6849224 0.7925379 -0.6695171 0.5413333 -0.7903103 -1.4807694 0.9557219 1.2033256 0.04581814 -1.1009856 0.8751284 1.3778255 0.658229 -0.73855734 -0.660628 1.2899094 -0.091311105 1.3898244 0.68875223 -0.55953693 -0.5599094 0.7069106 0.38053226 -0.26707697 -1.496359 -1.9548751 -0.04321493 -1.2358731 -0.7135553 -0.7629707 0.3273658 -1.1710843 -0.6496215 0.4502035 0.20781845 -0.1442772 0.5270954 -0.27120337 2.5087023 1.1689352 1.2881233 2.1842587 0.56703174 0.35995245 -1.552616 0.46752542 -1.4930594 1.0251553 0.42771477 -2.7866623 -2.0732956 -0.14459825 -1.1137143 0.74397284 -0.43879378 1.0328536 1.129854 0.3093449 0.22901459 0.08670354 0.25419965 -2.9067202 0.30464828 -0.15460846 -0.28413484 1.4784806 0.5188324 0.06599426 -0.93511504 -0.73901063 0.38822272 1.7015867 0.15858844 0.121098325 -1.4284866 -1.3319165 0.8385365 2.121713 -0.1641669 -1.5001795 1.1600491 -0.6490077 -0.5944626 -0.6360666 -0.44808567 0.21776868 -0.082973056 0.6033384 -0.116086945
une -0.0027387757 0.16626346 -0.14735585 0.950916 0.48782635 -0.6468804 -0.4049624 0.11563082 -0.49333003 0.81582665 0.90610075 0.4627258 -0.06386723 -0.9093595 0.6439157 -0.7867791 0.97590536 0.49406773 0.7431748 -1.4172461 0.44772482 0.33855057 0.9015385 0.14397067 0.023201637 0.7341937 0.30354732 0.14743306 1.9892486 0.010309608 -1.5989283 1.0860578 -0.4052556 0.7708481 -0.0856073 -1.008763 -0.5947366 -0.090595976 0.069504194 0.44231257 1.7436085 -0.029375922 -1.6676766 -1.3566186 0.1334243 0.19120993 -0.6122261 -0.95452404 1.5705358 -0.82840544 1.6034116 1.1479282 0.6477881 -2.2909336 -1.0596023 0.10563805 0.42106 1.480296 0.8024549 1.0022444 0.8089478 -0.68674004 -0.22395544 0.34373868 1.9452606 2.2451825 1.206719 0.071076736 1.609071 0.81620544 0.3844748 -1.0135063 1.0668826 -0.73306686 -0.6747148 0.06736496 3.1377506 0.6920062 0.8392488 -0.382586 -0.56033295 0.9671952 -0.37919676 1.6222743 0.08188985 -1.3201511 -1.4156247 -1.1020054 0.23833418 -0.7306849 0.16439325 -0.3744167 0.42781907 -0.5511892 0.31676435 -1.0386126 -0.6993382 0.5210411 -0.6490696 1.5436362
surveillance 1.601697 -1.0421023 0.23036346 -0.8311278 -0.89447236 2.1999035 -0.37688506 -0.7950972 0.486532 1.0525308 -0.24465123 -0.61338186 0.4044796 -0.10942946 0.50580287 0.49274725 0.0064488337 0.5955675 -0.27676117 0.6081151 -1.3721651 0.33076727 0.4522366 0.6780693 0.026393238 0.85892135 0.059721656 0.30915293 -1.3241014 0.726746 1.0981894 0.470545 -0.34340557 -0.7564455 0.35935712 1.2672632 0.19182982 -0.81623316 -0.8232101 -1.6747247 -2.4467204 0.38068044 0.09991981 0.09874539 0.24025892 -0.14650281 0.8769055 -0.32580188 2.526276 -1.6040962 0.5401577 1.5795009 0.38613898 0.89303935 -0.33523235 -0.60043114 -0.45013618 1.033929 0.6610668 -0.08064772 -0.8226221 0.9064233 1.3527648 0.019667104 0.048803654 -0.48227793 -0.18249016 0.85485655 1.1139503 0.7215902 -0.15276012 -2.800119 1.3048396 0.28383428 0.2646742 0.6321233 -0.049960442 -1.0003308 -0.5070745 2.5328877 2.1793027 -1.0493163 2.7794762 0.10139577 -0.75072086 0.027253482 0.4402387 1.2228928 -1.9733626 0.3320633 0.47260302 -0.7562878 0.5782137 -0.9377325 -0.52628726 0.89624065 1.2338748 -0.3486529 -1.3123306 -1.5206745
chaque -0.35335818 -0.8735869 -0.44695124 0.13412377 0.3499556 0.5059076 -0.77621436 -1.0275521 -2.1469867 -0.88359857 1.2595128 -0.46736157 -0.034989942 0.25623506 -1.1750008 -0.5376874 -0.16797026 0.20959127 0.39393896 1.686574 1.9049757 0.26359776 -0.38795483 0.14294101 2.5048025 0.045628414 1.2005271 -0.18466182 -0.5300227 0.46619698 -0.0018480787 0.5940765 -0.0025774 -0.24666044 1.1955148 -1.0018973 -0.03041105 0.9202422 -0.2684394 -1.1585042 0.73821276 1.4221883 0.1572779 0.21788861 -0.47545823 0.54174864 0.12808383 -0.0356958 0.23876508 -0.25109342 0.73121965 0.31749347 1.023114 0.8055288 -1.478271 -1.6312665 0.70808065 0.019346463 -1.3066865 0.03380054 0.5524385 -1.2595177 -0.9227333 -0.06123332 -0.9518139 -0.6548129 -0.2251411 0.124103785 -0.48390147 -0.10107292 -0.02013529 3.009097 0.23901092 0.13327731 -0.03688495 -0.97538567 0.27470604 0.6638569 1.0608038 1.8072369 1.8141152 -1.0169585 0.65286654 0.42047516 0.8556253 0.37337354 0.057628717 -0.05571172 0.4346608 1.4103332 -0.25726214 -0.03813766 0.34989685 -1.1713654 -0.45256218 1.9086013 0.98684806 -1.1173611 -0.48313877 -0.87536275
instant 0.9668114 0.03686955 -0.09282464 -0.48438063 -0.49929047 -0.5425392 0.8075629 -1.1206808 0.62533176 0.84815496 -0.24313898 -0.40417552 -1.6130472 -0.07225661 -0.9481854 0.4433207 -0.049281202 -0.023914589 -1.2489005 0.95378625 0.68715805 -1.5537862 -2.0653377 0.5484057 -0.98718834 -1.3240196 0.70750517 -1.5857365 -0.8429121 -1.9649975 -0.37918448 0.14380662 0.36298564 -0.2393067 -0.56160134 0.013915708 0.51399153 0.5931393 0.92123884 -1.0424632 0.0688402 -0.51842123 -0.9776699 1.9486674 0.7113847 1.1974618 -0.4004391 0.31849197 -0.16314332 -1.6676489 0.10913631 -0.32395276 0.5215678 -0.22880287 -1.6585133 -0.27763706 2.225566 0.92762613 -0.7467837 1.166927 0.012054246 0.08839667 0.73148286 -0.46658388 1.0937922 -0.6026149 2.2692704 1.1782471 0.8180893 0.63980937 0.4116339 -0.7955557 -0.30733812 0.69352263 1.2472521 0.73879474 0.75065136 1.6784706 -2.226417 0.24902397 1.0195754 0.32871258 -0.86942804 0.45330507 0.98809713 0.77176356 -1.2773768 1.4433807 0.648095 -0.82562476 1.0234298 0.81474054 0.14973244 -2.0362008 0.5614372 -0.049621973 0.52664596 -0.52188534 -0.8557815 0.748466
que -0.58145577 1.7680765 -0.26824844 -2.6796525 -1.9708027 0.45747316 0.17301784 1.0999186 0.027915975 0.22410263 0.68824494 -0.09939325 -1.4911221 0.035236444 -0.5387461 0.051163755 -0.24752621 -0.25179273 0.1950478 -1.2024986 1.6596854 0.5586841 -0.66055703 -0.4446353 -2.7960536 -0.8451069 0.75374734 -0.7774849 2.2314954 0.094640166 0.18315269 1.2078519 -1.5572327 -0.9061431 -1.3341694 0.5334571 1.245248 0.5969235 -0.56011415 0.9230319 -1.1845891 -0.5903714 0.864818 -1.5774668 1.2786151 0.8802664 -0.10128404 -0.78313494 0.0840485 1.7275571 -0.38884792 -0.06352232 0.646876 2.503755 1.0008223 -0.057766575 0.63441956 -1.6025249 0.23685968 0.89995545 0.4672921 -1.3951169 0.67753345 1.4983399 0.9678308 -0.02735133 -2.3866568 0.7867893 0.8525017 1.7204864 0.47496915 -0.46929848 -0.2982319 1.4841986 0.463643 -0.7968165 -0.89391774 0.73883593 0.13470589 -0.89686775 -0.9358299 -0.050971087 -0.43875772 0.04469152 -0.11470534 0.8156543 -0.16585536 0.6132287 -0.2980617 0.13407597 0.057225157 -0.041459028 0.7399326 -0.26076424 -1.037907 -0.17246072 -1.359701 -0.083233096 0.57541364 -1.024031
levait -1.3014367 -1.5640663 -0.9400694 -0.122472554 -0.027549453 -0.7092907 -0.48791566 0.7588378 2.1078854 1.1971096 0.25051653 -0.32009256 -0.4862182 0.20859796 -0.37277532 0.43129128 -0.79231846 -0.46003366 -1.2562094 -1.6595387 1.8027529 -0.023625348 -1.1815158 0.7901916 1.2181475 0.36858097 -1.4663982 1.2405142 0.25463912 1.6409985 0.632489 -0.41765997 -0.22390564 0.16047035 -0.19216868 0.7352151 0.3238836 0.33741698 0.41875786 -1.4503465 0.5149474 0.23895547 -0.36835554 2.112608 0.2866391 1.3475527 -1.0124729 0.5867381 0.26715282 0.35926002 0.08700536 -0.9759627 -0.8035557 1.8659365 0.49701536 -1.4030641 -0.24294785 0.17299901 -0.49157792 -0.72335416 1.6678088 0.45314848 -0.5454198 0.12660219 -0.03164102 -0.53917134 0.6228607 -1.2023486 0.4187332 -0.6773843 0.21760423 1.3967531 -1.2463042 -0.25532523 2.1469216 -1.199382 -1.5307903 -0.72814494 -1.9036542 -1.0226655 -0.07622455 -0.23893818 0.78079975 1.1802769 -0.26626393 1.3146381 0.163769 0.20865813 -0.02575751 -0.5702501 -1.1880406 -0.7268702 -0.2767928 -1.8595312 1.3745364 -0.6837819 1.0552694 0.64418113 1.4025859 -1.1434184
correctement -1.5616363 -1.7289006 0.5410379 -0.55776316 -0.49208045 -1.2030513 0.55670637 -0.16386226 2.8757923 1.6210362 -0.34360743 -2.2858725 0.06655801 -0.94443995 0.26835012 -0.062115647 -0.92096853 -0.23504886 1.0799894 0.58398086 -0.49745208 -1.1214932 2.4503152 -0.45313916 0.30797428 -0.48921633 -0.1870279 0.20181409 0.40685725 -0.20228879 0.6075131 0.79016376 -1.1757932 0.3636691 0.27982208 -0.226902 -0.013104523 -0.10374505 -0.050461654 -0.09074603 1.2685064 -0.30866018 0.57473546 2.0415041 0.48199454 0.47147402 -0.05366388 0.3799875 0.20101507 0.64080644 3.0166779 -0.65099025 0.36749905 0.472268 0.3342499 1.1138387 0.05614347 -0.011753451 0.42458832 -1.754448 -0.49176934 2.245187 -1.3980991 -0.25018725 -0.10003396 1.1441163 0.939881 1.5315477 0.23876311 -1.3046051 -0.1889453 -1.2175037 1.3563024 -0.5624788 0.7716381 0.36832833 -1.9787453 1.6169363 0.17791438 0.7885153 -0.990391 -0.9173571 1.006926 -0.44834772 0.42336628 1.074869 -0.96180314 0.4558239 0.29403198 0.33709642 -1.1875196 0.5301401 -1.6197758 1.126731 -0.44185203 1.2504389 -0.6179341 -0.7062649 -0.15096492 -1.3530536
prenant 0.54100597 1.7122478 0.73791885 -0.3110639 -0.37969068 1.1502544 -1.1779048 1.5559609 0.9598266 -0.31773588 -0.27492535 0.22073834 -1.4580085 0.5511243 0.28110734 -0.49758497 0.10221382 -1.3703045 -1.0497726 0.959468 -2.8340342 0.3134153 -0.48111075 1.4857607 1.4025687 -1.4828392 0.20832632 -0.4935988 0.21283503 -0.05131811 -1.0378743 -0.7593474 -0.77950907 -0.38293368 0.6859716 -1.478363 0.61231893 0.18796664 0.6508538 0.9447454 0.6340558 -0.4151356 2.5369241 1.0776037 -0.44103622 0.3934413 0.83649075 -0.012723741 -1.2490554 -0.8395152 0.16574097 2.2813225 -0.027438713 2.1763344 -0.17229868 0.42404303 1.7626781 0.7145733 -1.8539518 -0.07123798 -1.0720687 -1.8880569 -0.6619573 0.48954898 0.025127258 0.6320817 -0.44791475 -1.2218305 -1.3177379 -0.65406173 -0.7210517 0.30372882 -1.2656617 0.32849532 -0.74816364 0.5531372 0.5783837 0.7497758 -0.34332067 1.6182599 2.2800765 -1.2303536 -0.6556949 0.41155303 0.26258612 -0.0076265973 -1.4651791 -1.5563121 -0.2761161 -0.21159254 -0.8324937 -2.1401968 0.75666964 -1.3996215 -0.37511593 -1.047699 -0.7928853 1.162096 0.94089717 0.08648506
belle -0.57735056 -2.299459 -0.64603454 0.19964947 -0.6575165 1.673756 -0.60750777 -0.7090092 0.76508945 -0.115146756 -0.23400964 0.17001241 1.0101566 -0.7525465 0.18476881 -1.1011117 1.1294192 -0.10147145 -0.07357842 0.03096882 -1.674101 0.098506235 0.9286049 -0.69107527 0.7620962 1.5157822 -0.22862145 -2.0249383 -1.5255795 1.686483 1.7939748 -1.4673543 0.71462166 -0.009421917 0.2883155 1.740358 1.5229882 2.1762922 0.59146273 0.2652027 0.021176014 -0.479725 -1.6287663 -1.1060327 0.42984834 -0.2400181 1.5591065 1.6122473 0.27993158 -0.8355572 -1.1421444 -0.64311653 0.057599995 -0.63919264 0.5075683 -0.970179 0.7409144 0.41854718 1.0693694 -0.91699296 0.35057917 -0.07633089 0.073750496 0.95548075 0.14304039 -1.0896027 0.6602364 -1.2100933 0.6847887 0.9498482 -0.7379536 -2.4668484 -0.40432858 -0.24090166 0.2472575 -0.50274545 -1.4314417 -0.70070827 -0.01975047 -0.43805456 -0.76722586 -0.19558723 -1.1018671 1.5037996 0.66879934 1.4128705 0.68979037 1.0744467 0.18544929 -0.8430973 -1.1664954 -0.88846874 -1.804101 -0.5697592 0.50637466 -0.33283836 1.2225456 0.13713865 -0.89100266 -0.87149227
teinte -0.8630992 0.91355747 0.97901964 -0.7460706 -0.008546156 -0.79320455 -1.055348 -0.3920132 0.18912849 0.19040507 -0.74248505 -0.36515963 0.94766045 -0.78966534 -3.185151 -1.1991452 -2.3307483 0.23692885 0.8075799 -0.057691153 -1.820045 1.020024 -0.98673093 -2.0727444 0.38499078 -0.6667498 0.55381876 0.0517106 0.15702945 -0.18411717 0.07663449 0.5206145 0.055273775 -1.9933261 0.10468585 0.17156528 -1.2471877 1.5381405 0.2044751 0.85647696 0.5757345 0.23068033 0.20692022 -1.5336646 -0.54850465 -0.5092676 -0.20263217 2.081337 0.67618626 1.97864 1.0892804 -0.60952777 0.4438519 -0.81290805 2.0625193 0.01943137 0.4198321 -1.2464381 0.6345754 0.48962817 0.8147337 -0.8840284 0.39896464 -0.6352706 0.12056015 -0.42281625 -0.09827402 -0.060455453 0.6105294 -1.9355414 1.8187885 -1.4627825 0.309429 -0.08907128 0.5735092 -1.7095588 -0.12585932 -0.3315021 -0.60092604 0.29238668 -0.13578625 2.3057885 -0.07091655 0.8246428 1.7361517 0.864342 2.072708 0.029207585 -1.6834183 -0.7498545 -0.40684012 1.0406642 -0.7705287 -0.05676998 0.68238056 -0.57896036 -1.1001233 0.46015203 -1.9048485 -0.920447
crofbte 0.36123547 -2.6726255 0.6847802 1.2232314 -0.11580574 1.0671469 -1.4288263 -0.9319501 0.18904446 2.1265092 -1.310124 1.1308725 -0.7155411 2.1516948 0.9592626 -1.1400616 -1.9991452 -0.07514952 -0.5577332 -0.9433239 -0.9966412 0.38904345 0.53592914 -0.4359149 -0.15814649 -0.46117297 0.19369803 -0.2552259 -0.9079476 1.0452007 -0.3030429 0.3825399 0.6472228 -0.57622355 0.6121395 -0.4358712 -0.39309287 -0.89029336 0.32718828 0.25775304 0.9747573 0.3520578 -1.5288326 -0.017079221 1.4247369 -0.809781 0.32276034 0.10059299 -0.08919108 -0.6078036 -1.1916628 -0.12673402 0.15868875 0.48792553 0.30683348 0.7214563 -1.2235003 0.2110081 0.67082226 1.5666093 -0.009182047 0.57614547 0.5317286 0.021354828 0.51045114 -0.2906924 -1.0322603 -0.8099143 0.29743463 0.3880856 0.07241666 -1.1509359 1.0530226 0.4061507 0.09497814 -0.30443323 0.14278291 -0.03797153 -1.0465117 -0.51123685 1.0017356 -0.42358068 1.9103966 1.0121942 -1.6989546 -0.70818204 -1.6324699 1.2427256 -0.8960465 1.8310761 1.2147729 0.92316705 -0.13473625 -0.30276138 -0.14437638 0.09493697 0.34159803 0.9863752 -0.5853755 -0.40229777
boulange 0.11157886 0.5990952 0.66859347 -0.3982466 0.050608587 -0.8194894 -2.909071 1.2629123 -0.67253417 1.0926903 -0.21098511 0.231581 -0.37217188 -1.8275898 0.16989666 2.24484 1.0299584 1.6855323 0.39965644 -1.1375937 0.36924526 -0.4852127 -1.762958 -1.2459708 0.7083785 -0.528572 -0.79295915 0.31622744 0.4995429 0.98875946 -0.8269712 -0.76850903 0.1802126 -0.2993669 -1.4411234 1.1172879 -0.46967372 -0.6992393 0.882542 -0.6970644 -0.30712953 -0.05375768 0.01829724 -1.2854443 -0.52419704 1.0510902 1.005142 -0.27514985 1.28669 -0.16813713 -0.5542614 1.3092571 -0.0013282307 0.6104668 0.76844424 -2.1803923 -0.876271 0.17654386 -0.25349766 -0.42859626 -0.17940953 -1.110615 -1.3807322 1.9976662 -0.6196389 0.90004086 0.058427993 1.3380316 -0.3347256 -0.16347417 2.0539606 0.0042666844 0.23628366 0.99231064 0.1260604 0.6924091 -1.51719 0.39150065 0.56699806 0.06138176 -0.23698021 -1.1449167 0.3593212 2.2819986 0.9800242 -0.35082677 -1.1079797 1.3166339 -2.0414734 1.6991996 -0.88379896 -0.5536881 0.34787285 0.39863914 0.39698967 -0.15635844 -1.0613544 1.2642723 -0.27172977 -1.0180635
Un -0.31440064 0.32523417 -0.56977284 0.29780036 -1.3234506 0.75771636 0.7969114 -0.8585029 -0.5622555 0.5580991 1.6009166 0.91524315 -0.2926608 -0.92368704 0.97961223 1.3859733 0.64733875 0.31018984 0.6915675 0.6373125 2.2940168 -1.2192942 0.921735 1.5289875 -0.08027671 -0.21920973 1.1248994 -1.1644901 -0.9527293 -0.25994536 -1.5337894 0.11407304 0.9766885 -0.942834 -0.9726084 -0.3734744 -0.3693237 0.24317712 -0.7261675 1.1932132 1.0353826 0.28737423 -0.6443669 0.43771693 1.7100664 1.8815721 -0.46007997 -1.1678388 0.43727022 0.8460718 -0.6558054 -2.2403634 0.391109 -1.6078688 -0.40067437 -2.2899947 -1.154713 -1.3282329 1.3213261 -0.21889906 -0.124085 0.43880147 -2.0107956 0.43832588 0.8860176 -2.0352068 0.32999694 -1.0818955 -1.0502083 -0.5896816 -0.09147079 1.3342777 1.7990314 -0.2851147 -2.252363 0.34772384 0.96163267 -0.38132125 -0.2869281 0.11594367 0.018463103 -1.539829 1.5582334 -0.15315518 -0.45667133 0.1040351 0.35025463 -2.456184 1.4184633 0.38945797 -0.5905997 -0.99160117 1.0561835 -0.8121387 -0.07469146 -1.1798968 -0.093785115 -0.7011354 0.028569575 0.0683591
