100 100
0 -1.9286311 -0.014342891 0.70274913 0.19048613 0.3426653 -1.0497192 0.23069486 1.8169861 -0.9423426 -0.27649802 -0.7442508 0.55021816 0.6894403 -1.1691576 -1.522565 1.1680365 -0.29363662 -0.7193619 -1.9349858 1.0576131 0.87957317 -0.027205765 -1.2754772 0.64749235 0.48756182 0.5186157 0.9502865 0.20745619 0.50526565 -0.16355002 -1.4646395 0.27022174 -2.287751 -0.3002992 0.73153096 1.0038298 -0.5329526 -0.8579526 -2.1660545 0.09105714 1.1574652 -0.9693064 -1.9498545 -0.05007886 -0.50510806 -1.132469 0.64692974 0.2705027 0.17775045 0.52718526 -0.050397437 0.31208628 0.035392452 2.4232152 -1.6040398 0.052365635 -1.2458217 0.6503285 2.2292564 1.2513411 0.0005466417 0.32475343 -0.86986446 1.1205715 0.3331539 2.406643 1.9615691 0.2205605 0.6776197 -0.20350991 1.6226977 -0.5669233 0.7677575 -0.7471046 -0.7927822 -0.58661115 0.37900308 0.8164813 0.568221 -0.47411495 0.40307832 0.060882654 0.26882294 -1.4168968 0.96310776 0.23171905 0.4191191 -0.23230945 -1.0292717 0.14182033 1.4193437 -0.07360473 0.4267752 0.46514404 -1.7266943 0.5407553 0.49740696 -1.0387847 -1.4029223 1.4019511
1 0.6129905 -0.7458546 -0.45332658 -1.1970495 0.38399917 -0.3694445 1.0331041 0.5648833 -1.7906822 0.5411749 0.9075696 -1.3462145 0.43927392 0.45169953 -0.8512537 -0.73853475 -0.98781735 -0.8653406 -0.6216183 -0.31389666 -0.030447993 0.53205776 -2.2599108 0.49797624 0.61228865 0.25892276 -1.9532301 0.6060766 -2.141876 1.0036122 -0.46667343 0.60485756 -0.7329106 1.1042814 0.032225497 0.1515957 -0.56800205 -1.2166941 -0.81205916 -0.6162819 0.6479289 -1.4144357 -0.9326919 0.10410782 1.9049356 -1.5290713 -0.24190792 1.8319436 0.4139737 1.4120517 -1.0913914 -0.42691547 -1.160854 -0.14860833 1.1297923 -0.80355483 -0.59818155 -2.1777933 1.9923608 -0.72125643 -0.18096583 -1.3632936 -0.82557285 0.48210248 -0.14046897 -0.060658045 -0.081071354 1.1453635 -1.5466673 1.4745678 -0.5277908 0.28253785 -0.602545 -0.89393926 0.24898314 0.64260083 0.14582087 0.8525226 0.15098265 1.0902231 -0.45238903 0.24278468 0.64522046 0.3490352 0.25189322 -1.1132991 -0.711511 1.417465 -0.6537267 0.082398646 -0.13270159 0.7717308 0.3706205 -0.9687376 -0.16616994 -1.0917283 0.9850378 0.32166353 -0.6282607 0.18579106
2 0.49235 1.2475785 -0.0875416 -0.9602603 0.027727842 0.24075548 0.27560046 -0.8162925 -0.3837883 -0.3784866 0.9688673 -1.5648131 -0.36747906 0.14682084 -0.24315736 -1.2569673 0.72441447 -1.9995906 0.8157633 -1.054125 0.07101636 0.64562243 0.3075272 0.6896936 -1.8492076 1.0710624 1.3417542 0.6140438 -0.70455074 -1.0801954 0.7758879 -1.159721 -0.16340607 -0.021838773 1.3295181 1.0055106 0.63552684 -0.64310193 0.2808129 -0.29101026 -0.31726867 0.4127088 -0.5335521 -0.39190733 -0.5118248 -0.8614307 -0.041700248 0.4879556 -0.49551958 0.93503755 0.036854666 -0.48030254 0.7122842 0.16512205 0.014676763 0.48714164 2.2439353 -0.44375938 -1.0835371 0.7681291 0.34602618 1.466705 0.09039156 1.9713078 -1.5994074 0.9050355 1.0869908 -1.8820275 -0.80994105 0.1529062 -1.1888503 -0.7099055 0.42989507 -0.02261243 0.6082477 1.1317953 -2.1943119 -0.7603363 0.32923883 -0.4319738 -1.1563666 1.368207 0.12407968 0.40990877 -1.2715651 -1.2261249 0.108650684 -0.44769117 -0.7796854 -1.1957648 -0.19541436 -0.16101329 1.4852504 0.6107981 0.8292164 0.9486246 -1.6997404 1.5455091 0.42905727 -1.1173515
3 0.46418402 0.9186671 0.8711062 -0.89592725 -1.8235877 0.1545484 -0.558555 -1.3391656 -0.45048982 -0.32258818 1.8920827 -0.5720143 -1.6919968 -0.9321409 0.15260571 0.6876676 -0.91021484 -0.12627633 -1.1339172 1.713943 0.07233798 -1.1664991 0.2230251 -1.7142395 -0.40501744 0.31620926 1.4751601 1.1090158 0.26412216 0.31682643 -1.1311699 0.66764677 1.0589557 -1.1133815 -2.1001356 -0.8623681 0.50178254 -0.07862394 2.1787572 -1.1594886 -0.63066316 0.9716496 1.4665132 -0.36963886 -0.28210217 0.9039887 1.0853721 0.15720974 -0.24612892 0.109195195 -0.5378837 0.23855175 -0.0026396716 0.29064336 0.9909785 0.21998054 0.51298827 0.31330767 -1.4509085 -0.21977106 -0.7088073 -0.89088285 -0.26086348 0.24480312 0.7869695 -0.4238469 -0.5634584 -0.6481591 0.21558388 -1.6125914 -1.0245112 0.36398742 0.071335234 0.17832172 -0.49875233 -0.60360456 0.6462071 0.8819562 0.30907148 -2.0488243 -0.046725385 -0.71012783 0.9993376 0.47728583 0.39784044 1.0608114 2.1966724 -0.5903335 0.811423 -0.07632808 2.450156 0.71579194 0.5674769 -1.5484442 -0.49968797 0.9748714 1.6031828 -1.3158138 -0.9315796 0.24165699
4 1.7087239 -1.0041358 0.24329247 1.0494626 -0.21828867 1.365589 0.27536452 -0.8437779 -0.6993185 0.027814113 -0.0063236263 0.3676043 -1.1557847 0.3361456 -0.69021237 1.6803077 -0.114893675 -1.0668155 -0.1337517 -0.44584244 -0.84699154 -0.6863704 -0.52643275 0.3918472 -1.1096506 -0.11557775 0.8817872 -1.6790458 -1.3908176 1.0792198 1.1802669 1.2569712 -0.49489334 -0.48171163 0.66461176 0.00034907437 -1.9034097 1.5683429 2.1042538 0.9301621 -0.32185882 -0.6122023 0.4169496 2.0996544 -0.4500465 -0.91258514 -1.2448722 -0.6297 -0.20785637 0.17710519 -1.9363364 1.3529097 -0.76100963 -0.16792975 -0.17557538 -0.11159288 -0.974921 -0.19333725 -0.7053174 0.04007698 0.095780075 1.3058819 1.2053138 0.15807667 0.45041367 -0.83876514 0.7367586 0.78440726 0.17167272 0.7864732 -0.06491422 0.08015451 2.034339 0.62504125 -1.0502361 0.21653433 -0.48969597 -0.033557836 -1.073338 -0.72561765 0.9316184 -0.39863193 0.7739935 0.6479243 0.399774 -0.10906484 -1.8234067 0.053049095 0.46834007 -0.26777884 -0.51496893 -0.70403475 -1.7480115 -0.96549416 0.46047288 0.3167204 -2.0258875 0.98231214 -0.34169203 0.21679142
5 1.7870283 -0.21201333 -0.16211352 0.21963759 1.3536721 1.6309099 -2.1678805 0.017197046 0.96656615 0.42662087 -1.2927877 0.6866534 1.433345 1.325506 0.7213036 1.4637319 -0.2605225 1.3931751 -0.1842575 0.12925553 -0.7949831 1.1533325 -0.94068474 1.0327809 -0.05808851 -0.9645248 -0.26319566 -0.14704068 1.165305 1.1350313 -0.6447989 -0.57775533 1.2453378 -1.7742267 -1.0159148 -1.9590869 -0.53157455 2.3563497 -0.08424749 -0.043805484 0.6042158 -0.48733038 -1.2441278 1.0427544 -1.0223441 0.32547778 -1.2405655 -2.4114554 -0.23219001 -0.20437033 1.0443981 0.9863846 -0.46128452 -0.8227538 0.081725374 -1.0025448 -1.1358334 0.16219206 0.24739993 -0.783524 -0.13536073 1.5825284 1.1471883 0.7532206 1.0133797 -2.1592495 -0.42784992 0.050969888 -0.8196289 -0.4798927 0.42700437 0.62927 0.09475645 0.15293416 0.35965028 0.51627755 1.4958525 -0.4265669 0.07161111 0.54603255 -0.52498424 1.3049711 0.18205552 -0.40149283 0.34883982 -0.8035408 -0.028651131 -0.6260468 0.17769372 -0.09339613 -0.3788143 -0.49910858 0.12246542 0.58608085 -0.4519764 -0.94499004 -0.36425072 -0.33584523 0.7019093 -0.042119704
6 2.194922 -1.5919081 -0.21369831 1.3418628 1.5616578 0.9074309 -0.038898215 0.33315316 1.016193 -0.4014724 -0.0868123 -0.07617869 0.56300735 0.5711309 0.111292146 -0.3895317 1.0749227 -0.06304505 -1.0808656 -0.6474015 1.4310871 0.3582878 0.13186675 -0.652411 0.7113987 -0.22961886 0.006196926 0.11645159 -0.78624445 1.1776048 1.2909528 -0.39334065 0.3692411 -0.21433857 1.0440941 0.9677692 -0.70078 0.13395582 0.82157564 -1.2006967 -2.7471902 -0.13174969 -1.4606463 0.6121578 0.49893737 1.4016112 -0.42676115 -0.8020814 0.38595235 0.8819092 1.1972022 -2.501147 -1.1963986 -0.18123175 -0.66755176 -0.46272424 -0.3200062 1.166391 -1.8852112 -0.8177435 -0.030483782 0.19744217 -0.40706232 -0.037888445 -0.9336528 -0.43169308 0.14917472 -1.2928437 -1.2530936 1.2911203 0.07036868 -0.017250095 1.5485976 -0.7635121 0.89422315 -0.51148665 -0.41916078 -1.8239409 0.9124793 0.84144634 0.3962318 0.7806594 0.29045343 0.33834395 -0.08950839 -0.43220317 0.6760439 -0.023360817 0.43519047 -0.20425797 0.26127607 0.15402573 -2.1361394 1.2065473 -0.40032226 -1.9293509 0.27452257 -0.62790245 0.42558107 -0.15871556
7 -0.13966413 -0.1650897 0.07270535 -1.1926327 -0.24502361 0.77746254 -1.410207 -0.11346736 0.67571276 -0.806081 0.05238813 0.01627099 -1.105304 -0.5625779 1.2800931 -1.9419439 0.7110419 0.57034427 -0.4403401 1.2321451 0.7161199 -1.2662532 -0.9295061 0.6201438 0.04674914 0.17705616 -0.86203486 -0.2307626 -0.7565575 -0.5372916 1.3844606 0.2703713 -1.0050619 -0.31603724 1.9341751 -1.7771275 -0.112830915 0.21492468 -1.5539136 0.16116783 0.5886609 -1.4716126 1.0991399 -0.31130868 -1.8609734 0.18311292 -0.59230435 0.23365414 -0.08324903 1.2322855 0.67518705 -0.31093892 0.013846212 1.5487467 -0.81819975 0.3957482 1.4316632 -1.4258814 -1.1291951 -0.011627188 0.59834886 -0.15716438 -1.4163917 -0.12646583 -0.92639655 1.1206551 -1.4366591 -0.20611076 0.923984 -1.3806076 -0.19687174 0.34820426 0.6727416 1.2033396 -1.0532827 -1.5942895 0.26650295 0.055166233 -0.78823376 1.2137337 0.17592438 -0.019920398 0.25896075 0.1961179 0.8316793 -0.65995425 0.77759594 0.70467883 1.2949866 -0.3125265 0.093559735 -0.54564553 -0.98068446 1.538761 0.22971438 0.54121375 -0.41785342 -0.3079637 -0.12191843 1.6094363
8 -0.4082712 0.3841937 -1.1371001 1.220188 0.021476893 0.36185935 -1.0490015 0.22785127 0.65050995 1.2178626 -2.421973 -0.701721 0.6595058 0.8936422 -1.037338 -0.24534886 -0.38841563 -0.4592367 0.111701466 -0.6913457 -0.24587509 0.859623 0.13827294 -2.2838824 -0.61227906 -0.24107242 -0.33072332 0.07004149 -0.72985125 -1.0949916 -0.22786382 -0.017164338 1.3125302 1.5182753 -0.10859026 1.3891584 -2.373574 1.380956 0.32960463 -1.8931609 0.87756866 -0.7126766 1.1198983 -1.1346731 1.5874852 1.1464621 -2.750015 0.0850571 0.52656376 -1.2450073 -0.29115653 0.95200443 0.7888576 -1.4270028 1.1951798 0.23750691 -0.524497 0.6023024 0.5122034 0.94078165 -1.524045 0.70411664 0.6743899 -0.565579 -0.20159866 1.4871615 -1.0499178 0.6276623 -1.8714489 0.9163192 1.0335649 -1.2463104 -1.8128445 2.024196 -0.04947083 0.44885093 -0.63356084 0.9168177 -1.479783 -0.2029021 0.817794 0.95114326 -1.6928933 0.83899426 -0.87350124 0.6536044 -0.8921528 -0.38645625 0.07290615 1.6381092 -0.5608667 0.8374448 0.3557748 -0.44782016 -0.26761708 -0.65675217 1.1433456 -0.2223706 -0.79674506 0.715936
9 0.68943655 2.5458307 -0.4927901 -0.17467234 0.15261777 0.12205227 0.5509139 0.16878779 -1.4587823 0.14947689 -1.0493819 -0.69578743 -1.0913947 -1.1147403 -0.6387063 0.86221516 1.2513618 0.8468593 -0.75911194 -0.019344313 0.30001605 -0.41890305 -2.064166 0.61211115 -0.9324863 -2.9836223 -0.8271617 -1.5217699 1.8330005 0.25439963 -0.9708692 -1.3649336 0.017194524 1.1662246 0.26901296 0.41137046 -0.10577726 -0.059796315 -0.31363955 -0.8671453 1.8166926 1.3031723 -0.9696419 -1.9761795 0.99133176 -0.13925086 0.16171326 2.0520985 -0.32969224 0.3117377 0.689578 -0.2932543 -0.19552517 -2.1083257 -0.82105184 -1.1691183 1.2119716 0.67946726 -0.6517197 -0.42839837 0.45685327 -0.37010577 -1.0519885 1.3452947 -1.4372549 -0.94116044 -0.6884257 1.1077592 0.33621162 0.35339823 1.3694726 -0.1943822 -0.12069939 -0.62267864 1.3702828 0.6232121 0.3803104 0.9235634 1.2344089 1.6234125 1.8951485 -0.5845225 -0.7912254 -0.4300401 -1.4925241 -1.5258085 -0.41537115 -1.3082677 -0.41803724 -0.057902053 1.758498 -0.9623898 0.7354283 0.7480187 -0.21233684 0.11013588 -0.8529208 0.5671269 0.17246005 -0.15785807
10 -1.4742267 -0.91469526 1.1937689 -0.2689284 -0.1915024 0.07690437 -0.14516486 -1.689924 -0.8987246 0.120197 -2.7715013 -0.29630896 0.029962005 -1.7214249 0.120315485 -1.5078825 -1.3685166 -3.099031 -0.7381383 0.09080512 -1.7869948 0.7557672 0.30678275 0.90384185 -1.287329 -0.29028818 0.41941202 -1.2231725 -1.9991394 0.2868698 -2.1203275 1.5143842 -0.42748725 -0.20691925 -0.2571566 1.2869822 -0.48144272 -0.45664662 0.16545877 -0.9395843 -0.13370702 -0.94051886 -0.92639494 1.7872146 2.0995646 -0.124873586 -0.020611525 -0.05664828 1.5851831 0.7070669 0.20037846 -0.4942047 0.1336856 -0.82025373 -2.2222157 -0.35118434 1.0981808 1.1248349 -0.8507069 -0.51968557 0.2995166 0.9864703 -1.3805369 1.6908197 -0.16730388 2.149842 -0.1504111 -0.8622777 -0.048653033 1.2246604 -1.9879355 -1.5456109 -2.218824 1.8972346 1.7107011 -1.9297355 -1.1436316 -0.5166911 0.08983678 0.46615434 -0.12105734 -1.5281196 -0.8810158 0.56455123 0.25632772 -1.7504773 -1.1712031 0.72890955 0.01828003 2.0977817 0.48603302 0.5592147 1.577249 0.26472852 -0.078417964 -0.26226953 0.8147399 1.7313708 1.171347 0.36506882
11 -0.60098976 -0.44427353 -0.14656864 0.35063463 -0.77221715 0.31965986 0.1868245 0.13641481 -0.6492487 0.3179504 1.3034737 0.42728162 0.33265498 0.3072945 0.30255523 -1.4633576 1.8360912 -1.7908847 -0.24307218 -0.6103572 -1.7111509 -0.057038516 0.15549913 0.20678996 1.1024647 -0.6681748 -0.68429065 0.98365784 0.78642154 1.2847596 -3.165679 -0.35974377 0.29312336 -1.4241095 -1.6892558 -0.7218182 2.255 -0.2775415 -1.1807306 0.30131683 -0.7627957 -0.18976495 0.4061301 -1.3689549 -0.8361183 1.0277236 0.71056294 -0.4725518 -0.029429264 -0.7849266 -0.7515773 0.32612708 -1.7338798 -0.7290524 0.10075444 -0.8379399 0.1777499 -2.1331258 1.5556419 -0.7910762 -1.5961819 -0.94028157 -0.09436695 0.19664924 1.273842 0.44091696 -0.6425593 0.1316541 0.31654635 -1.049365 0.6144498 -2.051091 -0.23589008 2.5270708 -2.058808 -1.6716461 0.15183061 -0.68696815 0.21087956 -2.2555566 -0.18708037 -0.34644356 -0.10932556 -0.59481746 -0.39558893 -1.4082798 -0.1049683 -0.43127692 -1.2838304 -0.5319415 -1.4881457 -0.45641103 0.23986293 -0.91191834 2.0950947 -0.8244041 -1.1100168 0.86852324 -0.7916647 1.541071
12 0.89994234 0.55255365 -0.4626782 1.6042243 0.7970168 -0.35239515 0.5613225 -0.22684361 0.8823232 0.41491902 1.3340769 -0.2767085 -1.4339869 -1.1527851 -0.3596247 0.62319064 -1.4076661 -0.3564995 -0.5807572 -0.5110728 -0.66056764 -0.6439362 -2.2440224 -1.5628765 0.44007558 -0.8792123 -0.91555965 -2.3608837 -0.45899704 -0.867823 -1.7457674 0.17155048 -1.9695886 -0.25155324 -0.3266629 -1.0828792 -1.6216019 0.9832407 -1.3994308 0.9572842 -0.99131507 1.6614194 -0.78705156 1.1434219 0.04741491 1.3297371 -0.33117133 -0.046410162 1.3284441 0.9655826 -0.123395026 1.0104451 0.8834865 1.7567604 1.191446 0.2386987 0.5506898 2.262493 0.99718606 0.37715724 1.4188567 -0.8431277 -0.20451093 0.77084744 -0.083106466 -0.011852186 -0.17066485 -1.404988 0.39557505 -1.257512 0.77548146 -0.2844091 2.7420611 0.47850797 -1.3122748 0.08128134 -0.04564135 0.30281657 1.5685362 -1.1180567 -1.0809821 1.4929414 1.617426 1.6393394 0.34559488 -0.5267308 -0.5026541 1.1392486 0.9208225 -0.0726213 0.7610363 0.89127094 0.9065816 0.58519626 -0.66796434 -0.1582218 -0.9126699 -2.1835864 -0.32787552 0.95730406
13 -0.95554084 -1.2460537 -0.64652425 1.0266436 1.0867332 0.6020282 0.75281537 0.59425956 1.0616028 -0.68336624 -1.270246 -0.46886477 1.0067409 -0.15446106 -1.0033809 0.96226496 -0.10464422 -0.38188285 1.1673801 -0.06296649 -0.2883907 -0.42487943 -0.7429898 -0.89926445 1.144672 -0.27774864 0.68453485 -1.5457282 -0.15536225 -0.9348216 -0.89015746 -0.6257023 -0.23546088 0.24225932 -0.7585146 0.840417 0.4023786 -2.3426003 1.2530816 -1.3080242 -0.108008355 0.27008677 -0.91294205 -0.15085585 1.2310108 -0.72688353 -0.025749551 -0.91829437 1.1209445 0.027582742 -1.4351809 -0.6911437 0.65765417 0.45070663 -0.56437534 0.7490253 -0.20110384 -2.0615783 -0.041047186 -0.11207948 0.349697 -0.036874685 0.39370692 -0.85445 -1.1180748 -1.8597898 -0.42243716 0.8611028 0.5873443 -1.1812114 0.22635524 1.1002817 0.6175959 0.5860177 0.84778214 -0.71726763 -1.4878966 0.7947405 -2.7987416 -0.22990306 -1.2224431 -0.529327 -0.11245113 1.2993988 -0.6854162 -0.8714341 -0.38478917 1.7054163 0.6658956 0.7728775 0.41251487 -1.1549348 1.2977988 -0.9021714 1.2481529 0.11811579 1.533645 -1.2451446 0.54619306 0.28437245
14 -1.4344367 0.44546065 -0.96419597 0.5688206 0.86329806 -1.0362835 -0.41961285 -1.0347084 0.49004674 0.4113463 0.63432324 0.13159649 -0.9602106 -0.9776746 0.107757464 0.98518336 -1.9115565 -1.2413028 0.53490645 -0.5369546 -0.92518175 -0.32907426 0.49821028 -0.38963675 0.6184662 -0.11976691 0.4130465 1.445942 -0.5444103 -1.8977616 -0.68304497 -2.103651 0.46054825 -0.7779639 2.1320121 -2.0116234 -1.483228 0.043287106 0.37162423 0.47082263 -0.14647761 0.827113 -1.5459988 -0.76994365 -0.22784 0.7121272 0.5281626 0.34726065 0.03277701 -0.027890824 -0.61866677 -1.2968086 1.4875042 2.130897 1.992075 1.7199055 -0.054180045 -0.25181445 0.44678065 0.66795516 -0.14183964 1.2134321 0.69703096 -0.87977034 -1.1372561 -0.16156267 -1.3927596 -0.35242286 -0.49037004 -0.94724786 0.4799427 -0.045420557 1.3905647 -1.1375042 -0.8293352 -1.6904144 0.23064882 0.37099394 0.49504787 -0.7537088 0.71143377 0.20576634 -0.6147159 0.5561709 -0.1621029 0.19136125 0.8867706 0.3783222 -0.558279 0.5863932 1.2968541 -1.0394032 1.4686705 -0.41073006 -1.1943318 -0.24469179 1.0272892 -0.3537308 -1.598269 0.0004744711
15 2.0009365 1.7273384 0.40278062 0.5321988 1.590941 0.154384 1.1866971 -0.98992264 -0.38467786 0.5075058 -0.15545808 -0.6072733 -0.2667147 -0.18411626 0.22402938 0.7425558 0.5287044 -0.338727 -1.8037472 -0.16904217 0.83154607 -0.34933782 -0.348826 1.7302545 -2.0177457 -1.6336025 -1.2084515 -0.8952483 -2.0879943 0.36430794 1.6789522 -0.7283665 -0.34631458 -1.1499567 0.38179138 0.08421518 0.3888434 -0.2692848 0.70135957 -0.059242498 -0.19340307 0.06655816 -0.85268205 1.1629092 -1.0851878 0.9688201 -0.40577307 0.76466054 0.3056732 1.153918 -1.2517059 -0.24382101 -0.70730203 0.19381194 0.6633333 -0.3522285 -1.4590304 1.1354983 -0.005003805 -0.43927482 1.4903014 -0.7739168 0.1432549 -1.4096895 0.19862144 0.5571261 -0.4978602 0.99128854 -0.2532416 -0.7923424 0.91310954 -0.1407105 1.6639107 -0.012826947 -0.21673088 -0.0357419 0.39130732 1.1801342 0.88752043 -0.6883248 -0.7786717 -0.41347277 0.08265743 -0.4585859 -0.4299679 1.390703 -0.38308382 -0.39258307 1.2359501 -0.8463083 0.08779068 1.2354181 -0.34865376 1.130645 0.8361409 -1.2896848 -0.8152261 -0.5344045 -1.1178504 -2.8128023
16 -0.62915206 -0.33807343 -0.37591106 -1.4181955 -0.28578892 1.0350275 0.036525786 0.9227176 1.0179467 0.5135058 -0.38203317 0.032839965 -0.17660844 -0.6066193 -1.6941297 0.24718899 -0.5542175 -1.5761635 0.8475581 -0.50600874 0.08935998 1.2560934 0.45378038 0.7357307 0.5397062 1.0158175 1.146677 -0.3913945 1.0367718 0.111232266 0.25797203 1.8387122 -0.4495174 0.18114497 0.043694597 0.26331848 -0.07579651 -1.8790513 0.80644625 0.7515504 -0.81160235 -0.9477213 -0.050119974 -1.1499468 0.79780334 0.80286497 0.8752048 -0.8276487 -1.8843563 -0.7864484 1.7106472 -1.8185387 0.23451354 0.6838813 -2.8431911 0.047773823 -0.4131091 -0.49332368 1.2335736 -0.28112003 -0.63543195 0.7523361 -0.21844293 -0.15746142 -0.0353415 1.0488431 -2.214877 1.1859632 -1.1269894 -0.7680439 0.23746102 0.6431061 0.12456159 -1.4846883 -0.21288632 -2.1273744 1.85851 2.347508 -0.40404788 -0.074161954 1.0814294 -0.83961505 -0.74479 -0.8360346 0.4789614 1.4071767 -0.4897498 0.45039684 -0.03845476 -0.62360305 -0.032112133 -0.48906377 -1.9701924 0.34817007 1.1296606 0.038258623 0.39666238 0.36947423 1.0224403 1.0756961
17 -0.64306206 -0.88067085 -0.52703154 0.5230607 2.06795 1.6516708 -2.0775702 -0.5652966 0.47540087 -0.7446302 -0.18105453 -0.24228446 -1.9105843 1.8057121 0.003565454 -1.2237514 -0.1930565 0.17903101 -0.080245525 0.2039561 0.273453 -1.1225765 -0.777501 0.6362469 -0.623509 -0.31613585 1.1555717 -0.5146708 -0.15570952 1.3180143 0.19481385 0.19408973 1.8948361 0.21224417 -1.0052122 -0.03265874 -0.9600376 0.85430247 -0.5720004 0.21665642 1.4354271 -0.8242257 -0.35997877 0.2021684 1.5750598 -1.0606587 -1.4753584 1.6772703 -0.33019876 -0.072543405 -0.29821166 -1.58295 -0.2749227 -1.6519538 1.3481776 0.13749903 0.48108777 2.0582454 -0.62542737 1.1274312 0.13512668 1.453755 -0.3598566 0.14395034 -1.3223342 3.2268586 0.6622969 1.7957695 0.08362829 0.9221233 -0.9816604 -1.3010354 -1.2612734 -2.1912396 1.0386935 -0.11320866 1.1990081 0.9754422 -1.7965822 -0.3954828 0.7910248 -0.119919874 0.28456137 -1.8831803 -0.3860945 0.62549436 2.1822197 0.3060427 0.9294633 -0.018728342 0.88139516 -0.029670212 0.33848655 -1.5104564 -1.2287219 -0.60236347 0.97827864 -0.8606008 0.59071237 0.6818902
18 -0.33767867 0.19070154 0.36793822 0.8129863 -1.8964233 0.9682653 -0.10342057 0.8550482 0.54713327 0.56804156 1.1815819 0.026291424 -0.29128373 0.52965945 1.1751151 0.6074888 -0.59074247 -0.28809482 -1.8823841 -0.331357 -1.3014401 -1.5689571 -1.9012434 -0.68595976 1.1448905 0.027949903 0.27786723 -0.11757681 0.24657705 -0.8477224 -0.24033922 0.39292836 0.02335789 -0.21402073 0.9518766 1.5825576 0.6380319 -1.3052742 0.40839675 -2.83246 -2.0999222 -0.082957864 -0.99370855 -0.42855722 -0.7054827 -0.33610374 -0.5083861 0.3275932 -0.20625588 -0.030271273 -1.3172545 -0.34691533 0.122247 0.5668451 -0.10346849 1.6834271 -0.52369875 1.5558821 -0.08910932 1.0200988 -0.2509501 -1.0757787 -0.015899105 0.5386147 0.65948427 -0.58540374 -1.5155478 1.4852949 -0.67803746 -0.06319941 0.8506173 1.4146315 0.07449617 -0.4901952 -1.5211153 -1.0292369 0.04743745 -0.88059163 0.20156114 1.1455882 -0.6037792 0.5094786 -0.6660958 -0.13421872 -0.51530486 -0.5577124 0.24554221 -1.4158152 1.90574 0.75533855 1.1588598 -1.4093293 0.14100434 -0.71531653 0.20376566 -1.2824165 -0.58356756 -1.0946 -1.0716246 -0.4569944
19 0.16525295 0.47501245 0.71221864 0.036308758 -0.40530348 -0.79001 0.46100256 1.0716381 -1.0096025 0.35873535 0.3298313 -0.18605411 -1.6754184 0.19004954 -2.4107065 0.27198535 -0.90849936 1.1032232 -0.030385124 -1.8493212 0.70103425 0.47021386 0.5136575 0.54775745 0.36195022 -0.96863925 -1.6299813 0.50202847 0.20240505 1.0482991 0.11894711 0.19118327 -0.613716 -0.41841465 1.8515705 -1.0651895 0.41939598 0.66719186 0.91649914 0.43225288 -0.6089191 0.70192313 -0.6097471 0.54722637 -0.46757224 -0.6477025 -1.5626713 1.2132344 0.74462855 -0.31400326 0.7557288 0.068368986 -1.8476431 -0.039709903 -0.18338166 0.29085174 -1.1361773 -0.76303744 0.6610649 -1.5900527 -1.2748477 -1.3326253 2.0801606 -0.61060387 -1.3227065 -0.4362349 -0.71898395 0.33352733 -2.177945 -0.90294796 0.15931214 -0.28312242 0.94112676 1.2522522 0.2867851 -0.49777064 -1.3146759 1.9911765 0.39900273 1.625198 0.3588457 1.534666 -0.31238222 -0.76396 0.7534347 0.1792417 -0.21737462 0.54561585 0.2244223 0.1988992 -1.5562989 -0.89188707 0.94146866 0.5852159 0.5637689 -0.95485234 -0.7083908 -2.188256 -0.2758349 -0.8309071
20 -1.4203181 -0.03017323 0.5833553 -0.3453542 1.5858542 -0.0068583395 1.1550286 2.8634577 1.453309 0.52886164 0.58643293 -0.38788125 0.6074649 -0.9868112 -0.5368914 1.0953254 0.27458844 0.11998645 -0.566677 -0.5328418 -0.0573328 -0.8011691 0.78307307 1.8268235 1.8220658 1.3231812 -0.5635663 -0.7503123 0.6831175 0.6472407 -0.28162163 0.10794185 -0.75976616 0.5517043 1.2823092 -0.19118378 0.078278646 1.6736255 -1.5327498 -1.0784782 -0.31628045 -0.22538534 -0.8595243 0.12632531 0.41128796 1.1897163 0.3108867 1.0984601 0.5320275 0.655371 -0.030959535 -0.201943 -0.020152347 -0.077696785 0.26938853 -0.31598058 -0.43586498 1.7154945 0.07655745 1.312239 -0.3373266 -1.3408464 1.1412792 1.1089946 -0.7348821 0.049621087 2.364277 1.7632843 -0.8555339 -0.18174167 0.34914193 -1.8934717 -1.2259307 0.916263 -0.011751441 -1.2628583 -0.584424 -1.4507146 0.5477849 2.007482 0.8257117 1.261479 -0.43689853 1.1739727 0.75793993 -0.7208227 -0.1533214 -0.057722945 1.5453854 1.1810132 -1.402944 -0.79565305 -0.92055255 -0.49702173 0.84093505 0.76823515 0.6674873 -1.1985312 1.0606818 0.52474964
21 0.34137374 -0.9986394 0.9547368 -0.28307992 -1.4750555 0.07953771 -0.76427495 0.0026247755 -0.004955302 -0.06088652 1.0915512 0.5976196 0.6915117 -0.61304927 0.10113437 0.76202416 0.6564665 -0.880529 -1.4547458 1.0362473 -0.29132256 0.83139443 -1.9547545 1.362651 0.59625596 -0.95169246 -0.47733623 -1.1831399 1.2292259 0.8737862 -1.008684 0.17040625 -0.50652224 0.3963299 -1.3702672 -1.1528784 -0.8166835 -0.60163075 -0.356054 -1.8503594 1.3325546 1.4533061 -1.5777503 0.543287 0.30516374 1.7610394 0.30671173 0.28762466 -0.25476873 0.78455335 -0.12255369 3.145697 1.1514046 0.6308265 -0.24113114 -1.1731842 -0.8611363 0.18740779 0.0055879443 1.7586279 1.1734867 -0.6876357 1.1838491 0.18912983 -1.6260846 -0.11380658 0.3584639 1.4234719 -0.012559086 0.28964978 0.029316511 0.0070113163 0.92833567 0.6268117 0.6697559 -0.7634367 -2.607851 -0.059650566 -0.51137453 0.9326282 -0.3704783 -1.5972303 -0.013591097 -0.9981417 0.076429754 0.31243938 0.047414213 1.4606473 0.28977302 -0.2800787 1.2429855 -1.7551045 -1.3060875 -0.9797186 -0.5316301 0.54193616 0.23026358 1.0225428 -0.05313969 -0.0660356
22 0.41634488 0.06506975 -0.0011391549 0.38523307 2.1009955 1.1147062 -0.33137074 -1.8053005 1.1425446 0.72895205 -0.61342317 1.0536028 0.19552648 -1.9060993 0.17378451 -0.96323895 -0.6125095 0.56589216 -2.2122529 0.7057998 1.8031474 -0.23772645 0.63116646 -0.120874815 0.5318523 1.745679 1.4174058 0.5148072 0.25631994 1.3654307 -1.0632082 -0.14331669 0.30484718 1.2432386 0.1362023 -0.4447432 0.121339224 -1.5262694 2.534308 -0.71862084 1.0901033 -0.3374494 -0.27481252 0.9054217 -0.13115375 1.0114249 -0.38182658 -0.92867357 -0.58690727 0.7760504 -0.47830462 1.2271851 -0.94538105 0.39178455 -1.0449343 0.09568323 0.23492599 0.100732684 0.012135016 0.18016025 -0.30892456 1.4497442 -0.59275633 -1.482795 0.40340632 0.5180178 -1.4084738 0.8390047 -0.047528714 -0.08687447 0.19053042 -2.210826 -0.03142002 -1.1529496 -1.0145416 -0.25611627 0.926727 -1.0770648 0.5697193 0.381796 1.9450796 -1.0309654 -0.2315594 0.121858224 0.88626075 -0.41722646 0.7685482 0.15364864 0.13036458 -0.21080971 0.61793923 -0.062296014 -0.03772183 -3.2806919 -0.71739113 -0.26291302 0.74641305 -0.09759652 0.5967711 0.7534152
23 -1.2248657 -0.3429214 0.468981 0.28199458 0.047303062 -1.8732554 1.4735823 -1.503371 1.7972465 -0.46321395 0.060674638 1.0083481 1.033401 0.9000947 -1.0700203 -2.4115827 -0.055237472 0.4836368 -0.65503985 -2.1931834 1.6673927 -0.76954603 -1.410903 -0.59165 0.82087153 -0.8661573 -0.2000679 -1.9535478 1.9940411 -2.9015627 -0.47499144 -0.5071047 -0.63644934 -0.6712205 -0.6120323 -0.21974435 -1.2317344 -0.17996286 0.0049900278 -1.1911702 -0.41571593 -1.8652046 -0.0024942488 -0.509204 0.07405459 0.33442387 -0.8813132 -1.3891892 1.1952691 -0.0729832 0.045160852 0.03482972 1.2850623 1.1842806 -0.4882102 -0.21326362 -1.5516624 -0.048672594 2.195673 -1.6107122 0.15859358 -0.15437703 0.9410425 -0.7108815 1.922487 -0.9216868 -0.92827845 -0.033804182 -1.8552278 0.7092007 2.079629 1.119096 -1.7201037 0.7982443 0.25228113 -0.46742362 0.41083026 0.3541489 0.8051913 0.5723497 -0.2867934 -0.0020693643 0.80983454 -1.1134819 -0.23258515 1.5850403 1.0143899 1.5922486 2.5633833 -0.19372886 -0.15077913 -0.39216995 2.0782602 0.9360804 0.09323357 -0.6020111 0.49547014 0.82576054 -0.9891317 0.40113035
24 0.30338866 0.9193536 -0.21800148 -0.731603 -1.4380974 0.31440246 0.68026644 -1.8585788 -1.3052515 -0.5479762 0.23249912 0.9252001 0.9480367 -0.013988491 0.08157709 0.22027376 -0.8346745 0.9156967 -0.6471561 -1.099281 -0.96521646 -0.48871213 0.37801048 0.7627153 0.7210542 -1.014268 -2.62991 -0.5853199 -0.19103166 0.033741932 -0.97774255 -0.7588086 -0.04380947 0.35523856 -0.32448512 1.0461705 0.7043336 -1.6357887 -1.024921 1.3075625 -1.4028394 1.6460015 -0.11083702 0.86693966 1.0875245 0.5191479 -0.80014515 0.7755166 -0.44308084 0.46375737 0.038529247 -0.24280894 -1.0034477 -0.6311639 -1.2554705 -0.5248914 -1.1723895 -0.39444122 -0.24569893 -0.27302736 0.5398759 0.4980137 0.13179067 0.024910621 -1.2008898 -2.15585 0.3395639 0.98535866 -0.9240176 -0.4812851 -0.00937202 -1.2342035 1.0478472 0.23130198 2.1028593 0.65090686 -1.4888135 -1.2234391 0.07327602 0.9649731 -0.45732442 0.49016377 0.69829357 0.86821836 -1.6553864 0.11280667 1.3886552 0.9715777 1.6833508 -0.90221316 1.126101 1.3260106 -0.32922176 0.5097742 -0.2971111 0.04882338 0.94315726 -0.21330228 1.573242 1.0722693
25 1.2424098 0.8795071 0.030379033 -0.14524953 -0.0043897056 -0.9216552 -0.10073022 0.15577717 -1.6597687 0.8655714 0.312377 -1.4642453 -1.0536338 -1.63195 0.4545672 0.61940074 -0.3330135 -0.1114041 -1.1070651 -0.31140676 0.38677508 1.9398901 1.415285 0.8741524 -0.6417256 1.2515892 -0.39591098 -0.5232397 0.49848345 -0.93864465 0.54490125 1.2167027 1.7692842 0.85745865 1.3652859 -0.35079944 0.41981968 -0.33012033 -0.2991436 1.351451 1.1742412 0.60895026 -0.23094054 -0.40297368 -0.24294007 0.6310792 1.395747 -0.09083267 -0.4577658 0.65695816 0.53665555 1.1781327 -1.3122755 -0.42353085 -0.7192532 1.1780112 -0.63016444 -0.4089153 0.89247453 -1.1567602 -0.51367474 -1.1136595 0.40866333 2.3313832 -0.51063216 1.0081869 0.6842399 1.3562222 0.070744045 -0.9700921 -0.6494738 -0.015380049 -0.25689453 -0.6706069 0.70737845 1.089297 -2.7208166 -1.2264439 -0.21362999 0.63716596 1.2404042 1.1137701 -0.7146822 0.5625163 0.077120185 1.2397844 -0.22132295 0.44789067 -0.12029314 -0.6223293 1.9790384 1.9584417 -0.1797654 -0.071866 -1.299465 0.13642791 0.6630238 0.20539758 0.7897061 0.8804041
26 0.30694646 0.029451903 -1.8172576 1.6683248 -0.5877831 0.3903415 -0.042936187 0.1856211 -0.955877 -0.33758712 -0.46978465 -0.6955657 0.6727063 0.40617564 0.45750573 0.34270296 -0.5034307 -0.40279797 -0.5105969 0.23306775 0.86697596 -0.106496945 1.1023828 -0.8825981 0.49458283 -0.095295176 -0.79992956 -0.8679741 0.08679851 -0.19285493 1.4875885 -0.8121683 2.7105474 -0.95714796 1.514865 -0.11557086 0.31158304 -0.061642926 -0.21104778 0.17992915 0.14959195 0.36973125 0.25786194 0.7276679 -0.6651682 0.23599985 3.2542515 1.0375262 -0.6093748 0.18582861 0.6993723 0.45731387 0.053599782 -0.45795333 -0.8176763 -0.8613776 0.5762602 -0.8875199 0.41388494 1.7334584 -0.94698834 -0.6444129 -0.4139323 1.7228715 0.7451202 -0.9915105 1.833885 1.4208622 0.1194168 0.6477848 -1.2882525 0.5556377 -0.028427726 0.22271368 -0.5916676 0.27077982 0.91007453 1.216907 0.5772819 -0.42622462 -0.1949661 0.25548357 -0.5475597 1.76848 0.439988 0.65348995 -0.46666768 -0.5846583 0.74740577 -0.36598784 -2.0811818 1.1435795 -1.494349 -1.6445235 -2.469942 0.8072321 1.0806775 -1.4267327 0.6359576 0.3701086
27 0.6532076 0.017865127 -0.6753603 -0.36560586 1.0725231 -0.36913964 0.35572073 0.7726997 0.99351203 0.7681654 -0.34227842 0.22708069 -0.99963427 -0.4561937 1.686902 -1.781816 -1.390874 0.2956441 -0.042225532 -0.8532026 0.6847771 1.8129382 -1.1548253 1.5653932 -1.5206822 -0.90600437 0.75968486 0.12686092 1.426632 2.106909 -0.22116078 2.2104988 -3.3818877 -0.20895714 -0.33750916 0.7841434 -0.4713977 -0.2741931 2.828891 0.9496288 0.3706976 0.00033225442 -0.017618401 -0.43421638 -0.62287706 -0.68714476 -1.2482586 1.0383252 1.5743598 -1.3661841 -0.95160776 0.9546665 0.95228976 -0.5683875 1.3842146 0.18725643 2.0162096 0.47776142 -0.93086046 0.9675993 -0.17222689 -1.4080561 2.1842613 -0.648159 0.9810366 -0.6903489 0.91608703 0.3804588 0.33236971 -0.15845382 -0.18423538 2.0091248 0.842489 0.20432298 -0.9072975 0.9333842 -2.520109 -0.082901135 -1.7001795 -1.0285754 -1.0804706 -0.445969 -0.14018653 0.2117512 -0.8192659 0.18729714 -0.15989552 1.688349 0.71294814 1.1597041 -0.027071312 -2.2067583 -3.022014 1.306778 -0.021944946 -0.7762525 0.40537548 0.6004011 0.23333146 -1.0513499
28 -1.1511564 1.2130879 -0.25602326 -1.0150428 1.0447983 1.0289311 0.9783253 0.86453474 -1.1362182 1.0502397 0.44103783 0.06786995 -1.1123391 -0.034670725 -0.69852775 -1.0398196 -0.043882646 0.8514008 -0.7950201 0.30366167 -0.19498613 -0.5980568 -0.59281456 -0.9637092 -1.0233694 1.3314666 -1.4676977 -0.12905411 0.72131115 -0.38335046 -0.06566645 1.9784583 -0.01551089 -0.62799525 -0.65744036 -0.695187 -0.3000168 -0.5502938 3.6754835 1.1985044 0.36578238 -0.4009246 -0.1452476 -1.7049327 -0.17912798 0.5144109 0.05463021 -0.95842993 0.2768667 0.39008516 -0.0016393891 0.9930364 1.1398771 -1.3510863 1.0004075 2.3739822 0.39618057 -1.3094351 -1.038065 -1.6744071 -0.9372232 1.8638109 0.2264695 1.9370205 0.9076427 -0.03762562 0.3128966 -0.20097958 -0.44857588 -1.629871 1.9815742 0.55368197 0.34827846 -0.44831157 -0.48162985 1.360316 -1.3317356 -1.4652022 -0.7534017 -0.28690505 -0.1383356 1.3772358 1.0410005 -0.8111803 0.60562646 -0.18264948 1.2409854 -0.15508887 0.2528052 -0.017723566 1.1552081 1.5375487 -0.5101769 -0.2313611 -1.4052145 -0.053200636 0.28539768 0.16245116 -1.0686727 0.8387893
29 0.32638836 -1.5189897 0.63006663 0.066963725 -0.36962602 -1.9910134 0.6751661 0.5359657 0.1998301 -0.9713136 2.229366 -0.99292415 -0.23338085 -1.8375818 -0.55182153 1.0364395 0.27936688 2.517068 0.25360227 -0.6152994 1.3236802 -1.3997692 -0.21299976 0.3421433 -1.8030615 1.8443855 1.3371623 1.0713516 -0.6694126 0.38310096 0.731762 -0.26033938 -1.1316268 -1.0180748 1.4967332 -0.72295433 0.77022845 0.9617449 0.0745045 -0.54633385 -0.39696148 0.6373173 -0.2608311 -1.166149 -0.45899338 1.5272778 -0.016702956 1.1341045 -1.9324807 -0.19239697 -1.6676075 0.41272455 0.5880793 -0.56363606 -0.72475743 -1.0853363 0.28408048 0.95418864 0.73810124 -0.30395254 -2.1214755 -1.0832973 -1.3553927 -0.12794767 0.51908016 2.102518 0.050195392 2.1757607 -1.378227 0.15604922 0.028618166 -1.5986905 0.51421624 -1.623777 0.24698 -1.5778174 2.9769056 -1.0965705 -0.30506724 1.1682711 1.3524008 -0.21608509 -0.11547431 0.8538187 -0.1589041 -0.21683583 -0.82593316 1.767187 -1.2549568 1.3848706 1.3314646 -0.38240775 -0.2544894 0.059364073 0.5108183 0.98661107 -0.17808701 0.7031442 -2.9489255 -1.219582
30 -1.8127536 1.7317969 -0.36543816 1.1543009 1.7619995 1.0999506 -0.7379914 -1.3369924 0.95859295 -0.4538211 0.13169044 -0.10287999 -2.934174 -0.17995486 0.22603282 0.029513977 1.6438502 0.48393422 -0.25634533 -1.3218225 1.0959928 0.11337052 1.0251836 -0.24750762 1.7383115 0.078753754 -0.75262785 -0.2908339 -1.9276544 -0.0364583 1.0864593 0.56797546 2.109263 -0.055927742 -1.208526 0.36671087 -1.1379036 0.62487406 -1.2718475 2.3789866 0.40399343 0.5109578 0.0028653867 -0.02587309 0.7479886 1.130122 0.31156307 0.07098483 0.103726014 0.9147548 -0.70355934 0.4453598 -0.7936685 2.021196 -0.23961172 -0.9877403 1.9765763 1.1822593 0.30600706 -2.2614427 -0.77851886 -0.6531503 -1.3149374 -1.1709776 -0.64116997 0.89031816 0.14415643 0.54512316 -0.16144355 -0.9156584 -0.6692609 1.7051034 -0.00019280992 0.96943074 1.1975446 1.1977118 -0.9875258 1.2055357 -1.1517459 -0.6217094 -1.4139408 1.3663133 1.0970303 -0.157181 -1.3859851 0.5829441 -0.24563222 -0.42422566 0.43737975 -0.61373353 1.0408511 -0.38355651 -1.5360173 -0.23176342 0.3907642 0.44845855 -0.86619025 -1.4471351 0.056657262 -1.406929
31 0.25373563 0.35574654 -0.5720755 0.58365726 0.106746756 -0.5620335 0.08851733 -0.96585244 1.7998093 -1.7153736 0.33720598 1.1641899 0.05286324 -1.2501817 -0.63593066 2.0200808 1.0330538 0.47585797 -0.5100025 -0.46235317 1.1370777 -1.000613 0.3916076 0.5438585 1.002195 -0.8149534 0.6728435 -0.11367333 -1.415405 1.5242548 1.887348 0.30181596 1.0319448 -1.2300007 0.47961923 0.34226072 0.5594033 0.28568128 0.92993206 -0.76560175 0.10923243 -0.78251946 -1.6584692 -0.15005405 -0.4468643 -2.6501439 0.09035585 -0.6935952 0.47167882 -1.0078475 -0.37527788 -0.05498906 -0.10893399 -0.74781734 0.6081962 0.43436408 0.93395936 0.47456756 0.95853937 -0.07556111 -1.065114 -0.44413447 1.1395454 -2.105471 0.77571654 -1.9075627 -1.6734668 0.89963144 -0.43883008 -1.4435238 0.7351058 -0.4096919 1.0113562 0.19518097 1.0123129 -0.13936384 0.5948169 -0.24122638 -1.1062094 -0.14982979 0.7455982 2.149115 0.9839731 0.37783024 -0.04919726 -0.8128868 -0.49713263 0.6293558 -0.17373855 -0.83304 -0.9951688 1.1055368 -0.11340744 -2.5956833 0.19895208 -0.08277904 0.9059198 1.4690542 -1.9299719 -0.7206195
32 0.0038708868 -0.79933316 -0.35327637 0.58077776 -1.7377435 0.32556546 -0.6953298 0.52995443 -0.6722202 -0.117173366 0.87530035 -0.61669254 -0.9979777 1.465143 1.6829479 -0.98995084 -1.1384263 0.5133245 0.41830033 -1.6408778 0.8339043 -1.2083797 -0.103204064 -0.551936 -0.20579295 -1.3186339 -0.2890866 -1.2760626 -1.2832879 1.081879 0.5002718 -0.7293476 0.03475604 0.72561234 -1.3113748 0.9369979 -0.41217226 -0.5403787 -0.8079613 -0.67850834 -0.052883726 0.8674027 0.13830908 -0.7262214 0.6542615 -3.4136276 -1.4413184 1.0232158 0.8501985 -1.720479 -0.29452592 1.4855057 0.12369185 -1.184063 -0.021057436 0.83258164 -0.01699999 0.090027206 1.6961192 -0.56108695 0.726543 0.0064565027 -1.5475016 0.98444176 -1.3754181 0.4820553 1.2657564 -1.0364919 0.16442356 -0.19964151 -0.3759271 -0.8658436 -0.82251644 -0.3417857 0.23237586 -0.2806048 0.45514008 -0.4911254 0.07388778 -1.4149381 0.019617543 1.4828151 0.42023608 0.6905226 -1.219998 -1.1269574 1.0080844 1.5876073 0.6633797 0.69486904 0.71378 -0.8615935 1.0640177 -0.70556587 0.45952144 1.4370432 -1.1699244 -0.48271817 -0.032532234 0.35770178
33 -0.73175824 -0.88604254 0.17343089 1.9147613 -0.37770382 -0.50711185 0.21487747 0.20856296 0.09677738 1.2006196 -1.6610035 -1.1669718 0.8951649 -0.48241565 0.57733846 -1.9394587 -0.350979 0.10206294 -0.12620479 0.56286305 1.1068275 1.3300043 0.32385963 0.48881352 -0.36934894 -0.18522573 -1.096096 -0.952825 0.9890494 0.056741394 0.48936725 -0.43015665 -0.74578774 1.5744445 1.3462824 -0.515438 -0.38061818 0.11199689 0.14439285 1.4217193 0.70328635 0.7804566 -0.5157617 -1.2049011 -0.27809542 1.8158836 -0.6636526 -1.0733603 -0.34612182 -0.5133546 2.1500046 0.99464965 -1.1890476 0.08726999 -0.28898695 -0.09865252 -0.9967344 -0.55380833 0.95523465 -0.56612813 -0.15519139 0.27427077 -0.7251855 -1.1935849 -0.036682073 -0.25886098 0.4500475 -0.2765678 1.0535567 1.4898434 -1.0759882 0.45878792 -0.19647545 -2.013224 0.8757032 1.3278639 -0.84274995 1.2736696 -1.4300787 1.5492617 -1.036909 0.36299425 1.4051994 0.6899342 1.9715973 -0.5481416 -0.228522 2.0286787 -1.3663965 -0.13981196 -0.24114709 0.1819336 1.5892105 -1.2357236 0.95079106 0.7099216 -1.170811 -0.2044481 -0.124331914 -0.9175751
34 1.8245263 0.52441293 -0.63663244 -0.17859729 1.3087941 -1.358355 1.416683 1.576511 0.8896493 -1.3899657 -0.50131685 -0.6793531 -0.5429361 -0.8552566 -0.88307005 0.5365489 -2.0246792 1.0763367 -0.37831905 -0.46574193 1.3610969 1.6202242 0.8121374 2.9730842 0.007463655 -1.0497131 1.4029142 -0.95583385 -0.40255564 -1.2245932 -0.96806496 -1.2400626 -0.394578 1.0721143 -0.9957437 -0.35736018 -0.3216411 0.40855557 0.07574871 -0.67459184 -2.206855 1.1061305 -2.5695298 -0.23811352 -1.9540256 -0.3494749 0.24165855 -0.84577996 -0.5136818 -0.10113652 -0.059610616 -1.0254887 -1.2725708 -1.4992267 0.010838094 0.21437915 -1.9333844 2.6165583 1.1908487 -0.9015957 0.14360534 1.6385382 0.75168335 0.69198084 1.5628222 0.08388141 -1.1937895 0.8842528 0.92976665 -1.1530299 -0.44115576 -0.53106666 0.6493419 -0.8583455 1.2497491 -0.66476077 -0.44889465 0.07455218 0.23943831 0.521444 -1.7827168 1.4784889 1.060844 2.1267812 0.24029052 1.2338176 1.2610121 0.8308213 0.05564559 -0.5442042 -0.4333147 1.789198 1.4250137 -0.27946758 -0.43819115 -0.60847175 -0.04166471 0.75052804 0.768008 0.6801156
35 0.06618995 -0.018047538 -0.33379695 1.064323 -0.6098326 -0.20316264 0.17237853 0.32384983 -0.121262334 -0.054367293 1.6085676 1.3008653 1.7572562 -1.3670923 -0.4262653 -2.1324158 0.34684458 0.7154016 -1.3292174 -2.4317982 0.2705015 0.77587724 -0.9549778 1.051061 0.024630832 0.18912068 1.1346825 0.20440297 -0.32665572 -0.35006815 0.39223272 -1.2069746 1.8668416 -0.079399206 0.77095705 0.7221285 -0.12146951 -0.13112687 -0.3055801 0.8424969 0.68588495 1.1920668 1.4947072 -2.0492637 -1.9600668 0.776624 0.08175669 1.3880107 0.8661287 0.40362862 0.2289496 1.8961694 1.2997457 0.87250274 -1.7068423 0.0469734 -0.9003581 0.8028573 0.44728646 1.2901949 -0.8919428 -0.7435467 0.29289603 -1.0889566 1.0663072 -2.2105577 0.2428825 0.42861328 -0.1715901 0.2794217 -0.9930034 0.37290412 1.3609304 0.17752326 1.2271954 -0.5958026 -1.4839122 -0.4434318 0.61012506 1.3755982 0.8379761 0.71521175 0.073229164 0.86219305 0.10150079 0.72214866 0.66792053 1.0707726 1.0102842 -1.7132138 1.4058901 0.9808293 0.66771096 0.11324533 0.34261665 -1.7977713 0.9221588 0.26255327 0.99850047 -0.32754955
36 0.5090771 1.1913847 0.60443157 -1.3086437 -0.1472473 -2.017919 0.4881782 0.28997523 -0.27224424 -0.36951783 0.26934546 -0.7266392 -0.67875755 1.6025739 -1.0518868 1.0191216 0.8030226 1.0632778 -0.41583395 1.2773458 -1.0686994 0.6294105 -0.5685096 -2.6539714 -0.5915887 1.1820884 -0.7332031 0.26749212 -0.7458226 -1.2133715 -0.45622617 -0.7148182 -1.8981466 -1.275697 0.6871803 -0.13481764 -1.7149061 -0.30941677 -1.527328 -0.70857143 -0.22934967 1.4969128 -0.25001946 0.6958193 -0.06909529 -1.0048196 1.1867485 -1.2700517 0.6986965 1.0585 -0.88192564 0.24591784 0.29233712 1.0954825 -0.14501496 -0.9764282 -1.5967124 -0.5481462 0.006686766 -1.0987229 1.4286481 0.84040844 0.5046087 0.47333264 -0.072168395 0.9541418 0.5019066 0.8539496 0.61250484 -0.45369092 -2.2495666 -0.43102384 -0.16159844 1.679658 -1.266425 0.7997165 0.6632772 -0.09289461 1.5597945 1.1195365 0.044943005 -0.41083497 0.46043 -0.38993657 0.9194861 -1.8927904 -1.0249183 0.4500316 0.33598444 -1.7085617 -1.008892 -0.8866678 1.2346292 -0.3966908 0.5288624 0.010540059 0.44771832 -0.3396111 -0.410435 0.17771514
37 -0.5883491 0.035021678 0.07421371 0.48697528 0.41471273 -0.28097183 0.22791947 -0.08005597 0.33496952 0.7370723 -0.51900923 -1.760334 -1.3322788 0.7945758 -0.6678493 0.23501767 1.9827336 0.21875235 -1.0438793 1.1630195 -0.93110883 1.2064644 -1.5844859 -0.947594 -2.8091016 -2.3589187 0.6038321 0.21264951 1.148991 0.7340584 -2.1246724 -0.8787907 -0.52459943 1.85906 1.4849576 -0.44952363 -0.36009315 -1.1037036 -2.1954515 1.7513735 -0.26632547 -0.47502425 0.5424629 -1.4871769 -0.51470596 2.219477 -1.1998525 0.33221442 0.5110205 0.47383574 -1.5559002 1.6963879 0.6143334 -1.0855657 -1.6988342 -0.4487801 -1.8321499 -0.7426135 0.23025744 -1.2441026 -0.67051387 0.74509716 -0.84191096 -0.4030046 -1.239181 1.0503751 -1.0005338 -0.88467866 0.24948537 0.31812325 -0.40141046 1.2714548 -0.35537216 -0.27613375 -0.019572886 0.65164477 -0.90694505 -0.16544457 -0.69644797 -0.7797284 -1.1003088 -0.23085068 2.2705696 1.3545715 0.06313925 -0.24296811 1.6907204 0.16954766 -1.0055575 -0.47061276 0.69593644 1.4212421 -0.20532902 -0.28953388 0.3427854 -0.9931304 -1.1090515 -0.8673487 -0.89962393 -0.23188947
38 -0.06634036 -0.5507284 0.81265163 -0.17010705 -0.8238105 -0.32284263 -0.54507196 0.24983093 0.91082996 -1.43211 1.5488911 1.7197291 0.46662685 0.9784213 -1.372708 0.7434795 0.36879885 -1.1323868 -0.7988572 -0.8246924 -0.8470189 0.8946228 0.3093942 1.3153433 -0.5479868 -1.5155612 0.8226741 1.4286234 0.3246904 -0.120788276 -0.478345 -1.1718879 0.9132768 -1.380799 1.2418942 -0.90299934 -0.25177342 -1.841787 1.3923703 -0.26558563 1.4588801 -0.754602 -0.49390644 0.81185776 -0.88384193 0.07667665 -1.3190247 0.14040531 0.56862867 0.18949424 0.3906413 -0.13872406 1.6800977 0.17032333 -0.9403765 0.4937919 -1.162674 0.2739708 0.1193882 -1.3044789 0.5458722 0.7146274 -1.9307683 0.15658225 0.5911846 0.012373416 -0.10789906 -0.61010766 -0.20143344 -0.9742156 0.28481355 -0.6636195 0.59867686 1.1140951 0.49241963 1.0860337 -1.6282344 0.065068156 1.0560809 0.385968 -1.3040541 -0.6880884 0.85214347 -0.72490233 -0.16197295 -1.3331273 1.2848248 0.29836464 -0.055553664 -0.35038868 0.8990297 -0.57265645 0.6884613 0.17052469 0.71113306 -0.076600485 0.7969185 -0.7284652 -0.2220197 0.61436397
39 -2.1943612 -0.40556872 -0.646714 -0.00810067 -1.1187729 1.0604284 0.7808623 -1.8444153 0.19080538 -0.3296767 1.3543118 -1.6188619 0.5842321 -1.2206807 -0.19772494 -0.24920967 -0.64450526 -0.74655664 0.8050821 -0.5552544 -2.8359313 0.57159555 -1.044228 0.49534228 0.50925976 0.06518739 1.0507231 -0.11194209 -0.6259868 -0.39993194 -1.3046488 0.9194048 0.015157285 -0.13079542 0.12231805 -0.9805633 1.8181323 0.8532358 0.103698656 0.17213275 1.4117014 -0.9823324 0.29513302 -1.0431368 0.88656455 -1.416935 2.247673 -1.7157438 -0.31509954 0.730525 -0.30941826 0.5725391 -0.65505916 -2.2003691 0.6361337 0.5939535 -0.8707527 -0.18355079 1.6610522 -1.0424924 0.38810018 0.12843007 1.329221 0.8704308 -0.2653469 -0.46041298 0.11610677 -0.30003566 -1.2491376 -0.14514217 0.34244138 -0.2540136 -0.8148162 0.018651871 -0.30784082 0.25493646 0.311984 0.88069016 0.17855789 -0.80209213 -0.106629014 -0.48151055 -0.09782007 0.41623837 0.9268541 0.5682082 -0.67244136 0.4422563 -0.7182088 1.0307056 1.0943184 -0.030503867 0.0756216 -1.6411662 0.9637665 0.4550178 -1.0417418 1.2751199 -1.9274858 -1.0679449
40 2.1756954 0.5535841 0.2747328 0.12843594 -0.6287283 -0.13381144 -0.647024 1.9720923 1.1984732 0.35160884 -1.1029547 -2.0076363 -0.4164123 0.6046883 0.9972038 -0.41202056 -0.51831514 0.8998705 0.31958783 1.1343455 1.4715056 -1.4610535 2.113401 -0.8627177 0.4583682 -0.561847 0.50881046 -1.539665 -0.19617142 0.17115304 0.18764657 -0.72624314 0.39423785 0.40149048 -0.636118 -0.48628554 -1.1343262 0.46147713 0.7385421 -0.9154113 -0.14102805 -1.970452 -0.6800767 1.4327823 0.84804183 0.23653384 1.0348452 1.1188334 0.3942303 -1.50204 -0.29271376 -0.75221527 0.4171984 -0.7567262 0.6561823 1.1060158 -1.3144339 1.0847965 -1.516233 0.1818184 -0.44449085 -0.64921236 0.9695802 0.3654945 -0.368525 1.0135059 -0.5731449 -1.4196949 0.16419505 0.68405366 -0.026559766 0.16675584 0.36729643 0.67679185 2.175262 3.1299818 1.3672723 0.7680418 0.80036455 0.08305747 0.13165396 0.9478346 -1.051648 -0.114360325 0.894708 -0.20236337 0.10611118 0.24806866 -0.86026967 1.5173849 2.0823479 -0.16018042 -0.7133322 1.6132455 -0.8714518 -1.6731571 0.3618105 0.13343894 -0.6782461 0.08657812
41 1.4522084 -1.1482241 -0.0075007225 -0.53910106 0.22482336 -0.42811912 -0.93688047 -2.480677 0.379756 1.0869309 0.7558387 -1.0211353 -0.72867215 1.1705562 1.0640618 -2.5983038 -0.22905976 0.1083883 -2.9372091 0.0353917 -0.23440546 -0.6685712 1.061811 0.14467025 0.6622715 0.23787133 -0.68103856 -1.5646021 0.10579265 -0.13358179 -0.7955389 1.1836859 -0.23936059 -0.6308092 -0.086229324 -0.17835541 1.9648465 0.9613222 -0.69132906 -1.1368879 0.99419445 0.13398024 0.89412725 0.25179207 0.2898487 0.69870204 -0.49624223 -1.1060908 0.92397547 -0.3439837 0.9147779 -0.5500995 -0.28048742 0.20050505 0.21766043 1.9499013 -0.35999864 -1.15298 0.022013307 0.4462049 -2.3546576 -3.3355124 2.030266 -1.5029317 1.659017 -0.17303821 -2.723852 -0.24920385 0.25807467 2.0353694 0.4087005 0.93114406 1.3756744 0.48381153 -1.4564371 -0.7219931 -0.25791878 -1.2464858 0.772169 0.7354187 -0.80061674 -1.9465384 0.69117606 0.36542672 0.92468446 -1.4100004 1.279944 0.59220785 0.31670496 0.6510167 1.5245246 -0.5034792 -0.5047293 -1.9422787 0.10674268 1.4526216 -1.3925327 -1.4026704 -0.93073064 0.59907955
42 -0.9270261 0.45968187 -1.8530577 -2.0724826 -0.8836569 0.25314146 -0.85343266 0.3097722 0.22271582 -0.77221704 0.85242206 1.3810081 -0.60198146 2.0286853 0.5362854 0.07626078 -0.0023916585 -0.3477037 -1.0623963 -0.49942175 -1.0833702 0.16253097 1.0246886 0.101859964 0.6752607 1.837626 1.7315758 -0.99578875 0.33456367 0.3173087 -0.008048857 0.13403612 -0.93067914 0.6321249 -0.21802059 0.22222474 -2.1817575 0.4330311 0.28331894 -0.29435906 -0.44458088 -0.69963485 -0.5083663 -0.33891746 -0.15729333 0.4709269 1.1181169 1.8517057 -0.7861562 -0.8099233 1.0878652 1.6859932 0.1801419 -0.755129 -0.8511613 0.936477 -1.7005885 0.16373703 0.25695345 -1.9514107 -2.5053704 -1.4175073 -0.9753357 0.28348088 -0.43658924 0.1250841 2.9373322 0.58395046 -0.55945706 -1.3052849 -1.0208396 0.7574578 1.424463 0.08826074 -0.22499739 -0.70358753 0.8041816 0.081228524 -2.143015 0.021917362 -0.53877515 -2.2502134 0.08012523 -1.3403031 -1.0869967 1.0433577 -0.44292793 -1.3347626 1.3988755 -0.6210513 -1.1899176 -0.08310724 -1.0561246 -0.073807 -0.69470835 0.5455439 0.6499777 0.23453213 0.27652267 1.1649591
43 -0.042145517 -1.4274476 1.8423095 1.2798997 0.60723484 -0.1995417 0.6551752 0.5147661 0.033255782 2.2666404 0.5968273 -0.08114257 -1.3868152 -0.16290987 0.7670814 0.11211206 -0.74790484 -0.53608185 -1.6564745 -1.8826659 -0.56019753 -0.91190606 0.9783705 -0.5443418 1.3154109 -0.025843762 0.611843 0.09496252 -1.3491884 -0.41043705 0.3365324 0.7358318 -0.36784694 0.02509732 -1.040392 -0.80899924 -0.58836544 -1.8036416 1.2270173 1.4663243 -2.1166523 -0.7154773 -0.37677485 0.5225799 -0.75325024 0.62825733 0.8189817 1.2215369 1.0187742 1.8153393 1.0465052 -2.623648 -0.74570584 0.8738178 0.31693894 0.32165664 0.37948534 -0.42229414 -1.1636575 -0.22005819 0.0052919467 -0.407768 0.7071617 0.10481075 0.84128326 -0.4964261 0.55797535 -0.5671183 0.20909949 -1.6082549 -0.96913195 -0.45059064 -1.8921329 -2.0211017 -1.472356 0.9235097 0.90015066 -0.21425524 -0.13905719 -1.489922 -0.16902608 -0.44779813 0.06973666 2.4357615 0.29206574 0.39978385 -0.19561255 1.6922798 0.17663124 -0.7149395 0.24416777 0.08191779 2.0254734 -0.44148707 -1.1621724 0.26645726 -0.06591431 0.56332844 -0.6230158 -0.55450565
44 1.1653107 -1.097898 -1.6746756 -0.12243984 0.6109536 0.58132905 -1.0379344 0.38215142 1.4244277 -0.025557391 -0.48170343 -0.21076453 0.28193998 1.0053209 -1.3644536 0.60172224 -0.536046 0.27161115 -0.77402383 0.87181336 0.7730737 0.78850013 0.22242855 -0.7034321 -1.3559842 2.3591623 -0.01266943 -0.6161454 1.005893 -1.6749859 1.0917289 -0.7096097 -1.3959761 -0.98074555 0.45933768 0.5307217 1.163172 0.24946783 -0.24176084 0.18953432 -0.33531415 0.20452692 -0.75408393 -0.3960677 0.5049645 -0.49599504 0.9117282 0.9026181 -0.29377526 -0.15560594 -0.6107431 -0.056512248 -0.7431425 -1.9643049 -0.86545116 1.3828851 0.31660646 -0.7178364 -0.026710311 0.28821805 0.6146914 -1.027272 -0.56485057 1.2458168 1.606826 -0.732496 1.4347633 0.9592585 0.7134797 0.5063766 -0.85326904 -0.32284942 0.547165 -0.69993573 -0.5236639 -0.42348403 1.198708 0.6350372 -1.7216859 0.10012011 1.3104211 0.08025839 1.3544267 -0.9590846 0.8461708 1.3199726 0.7612996 0.7141946 -0.09573903 2.5532942 0.34848198 0.40081993 0.2831729 0.51003414 -1.6603062 -0.925243 -0.7784568 1.6505212 -0.08144712 0.31388333
45 0.93703866 0.83363986 0.089975946 -0.861682 1.3973049 -0.75585735 -1.2008747 0.6281078 0.48161113 -1.1535012 -0.2615035 0.69547665 1.187356 -0.026460325 -0.700796 -1.1266502 1.0363954 -0.33398947 -0.5628205 -0.61822605 -0.31913888 0.3349994 -0.815325 1.5793573 1.546117 1.5064789 0.18317565 -0.27246654 0.9635753 1.0920808 -1.5656693 -0.3117082 2.0883415 0.055560324 1.2133752 0.7204166 0.42164296 0.11820141 0.74749863 1.9026135 1.5828707 1.310394 -1.1493951 0.007901442 0.9665748 0.5268071 -0.3986322 -0.72544456 0.06449139 -0.58227175 0.5096038 -0.52758545 -1.2807235 0.15035345 0.8895017 0.019239612 -0.7984289 0.07392277 -0.93743986 -0.26083538 0.24207982 0.8221484 -1.3504242 -0.5470089 0.41496888 0.0952555 -0.09494695 1.8624086 0.69684875 1.9195626 -0.45862538 -1.0729514 0.22198115 0.6942227 0.18750653 -0.8551076 0.7515043 1.1328542 -0.03054306 -0.82949567 -1.1631006 -0.5764707 -0.42558122 -0.24850765 -0.49358198 1.4542142 0.97562075 0.093409605 -0.5440138 -1.0258538 1.004325 -0.99027795 -0.66174227 0.7973072 1.1108955 -2.011334 0.6709891 1.3664324 0.9380257 1.4305607
46 -1.1764327 1.2142713 -1.1087452 0.6594725 -0.78631675 1.011486 0.22954705 -0.86322707 1.2413089 -0.5797157 -1.0567648 -1.1294502 -0.33564714 1.8473635 -1.5207388 -0.18442275 -0.6639117 0.7285488 0.0076707327 1.2159178 -1.0116196 0.8647704 -0.3144575 -0.5582021 0.75569254 0.14464591 -1.7126092 0.5960393 -0.7033921 -0.13110599 0.24015313 -0.91157764 0.35631284 -0.51306653 0.77548593 0.15020756 1.4027187 0.20037524 0.9486996 -0.33641824 -0.4911548 -1.7129087 1.4189683 1.0593053 0.49223733 -1.920559 0.8989744 0.21345244 -0.5936134 0.1996437 0.86198676 1.2765368 -1.8861557 0.4984878 0.8406175 -0.5092797 -0.43824038 0.45925575 -0.784554 -0.52775365 -0.032782815 -1.4808159 -0.85374135 -0.05132478 -0.18036391 -0.35629818 1.070607 0.58467317 2.483498 -1.0234753 0.46602306 0.67638206 -1.3819209 0.32079834 -0.8177739 -1.0884116 0.8350314 -0.41745308 0.02678135 -0.065251626 0.5380547 1.8128777 1.6588669 -0.18360208 0.19561052 -0.035943434 0.66336536 0.11104924 0.2997625 -0.49047056 -1.7694288 -0.36240143 0.68703216 -0.39238527 1.845838 0.28653818 0.3824133 -1.3069804 -0.5236352 0.31685543
47 0.16017789 0.50447506 -0.2184316 2.0390313 -0.5395751 -0.5772581 -0.83194965 -1.5095894 0.57548046 1.178428 -0.05938351 1.1540242 0.6385561 1.1282828 1.1565748 0.2149385 -0.9489776 -1.5522959 1.6756157 -1.0455617 0.020169321 -0.9070503 1.9013703 -0.96155787 1.402299 -0.881695 0.21701984 -2.2841356 0.83949685 -0.42673147 -1.0062143 -1.1198287 -0.6157332 -0.40253407 -0.54009295 -0.22054905 0.36914814 0.6523402 -0.478471 -0.054696042 1.1401709 0.98732096 -1.0842463 -0.8566124 -0.4473578 -0.8381086 0.5930303 -1.2807379 1.0767126 0.57076216 -0.5802369 0.57142603 0.63523763 -1.5757003 -1.0024784 -0.24406344 1.1425874 1.1084067 1.7979414 1.0036933 0.57915574 0.4339768 0.8688499 1.0397068 -0.23606046 -1.0323721 1.2571427 -0.93658096 -0.5553052 -1.5956119 -0.5934202 1.3201458 -0.3589725 -0.19072193 -0.27533334 0.7685487 -0.25105453 -0.52035916 1.381777 0.36982664 -1.1420892 -0.89291734 -1.5255407 2.2668614 -1.5965003 -1.2635562 -1.1620414 1.7846714 -2.3441246 -0.14999343 0.46864215 0.08464182 0.34591505 0.7010974 -0.6163669 -0.0020369773 -1.7510774 -1.6032784 0.55599374 1.3273919
48 0.42367274 -0.6509943 1.6499683 -1.1706879 0.4648989 -1.3591235 -0.9173602 -0.15313531 -1.4593216 0.23191045 -0.4806861 -1.1260581 -1.1009603 -1.3259757 1.0099342 -0.3505471 -0.30466712 -0.78785753 1.0110394 -0.74720794 0.60047966 0.2310455 1.5736176 -1.2512431 -0.39002582 0.51459545 1.2937852 0.630688 1.8830973 -1.3062046 -0.4036867 0.6828774 -0.5701012 -1.2748941 0.11477966 -2.0142608 0.9036898 -0.7615732 -1.183437 -0.78933275 0.32255232 -0.37813836 -0.62797177 0.4207481 -1.5287572 -0.31461996 -1.0879351 -1.2161752 -1.803314 -0.1668451 0.5593818 -0.29385364 0.06512587 -0.9813829 -1.5008063 -0.96803504 -0.7328549 0.90495557 0.68699455 2.3638096 -1.4033015 1.5367931 1.1467901 1.610445 -0.37538582 1.8488828 0.81885934 0.3844991 -0.17647101 1.7512943 0.6348612 -0.19566491 -0.6750723 -1.6573839 0.89460135 1.003406 -0.12878987 -1.6830912 1.2256571 -0.6497472 0.9515155 0.7833702 -0.21191202 0.58955115 2.4594603 -1.1474007 -0.4610621 0.10074676 0.66477394 -0.05382816 -1.076799 -0.4270083 -0.97088885 -0.24100503 0.0051283184 0.4193386 1.0777615 -1.0862056 -0.2592887 0.14239632
49 -1.2379766 -0.5929823 0.7570364 0.67481273 0.6391859 -0.6715397 2.0565333 0.8657288 0.76005054 0.8079262 -1.523198 -0.29023632 -0.3342064 -0.92828 0.8266677 -1.011832 0.015503097 -0.4707996 1.5694467 1.6004895 1.5763445 0.68261844 1.8563278 -0.62040365 1.682729 1.4974377 0.23285888 -1.1443622 -0.85287786 1.211335 -0.6813335 1.2802619 0.09236517 1.7979866 1.1860477 -1.6847632 -0.6191269 0.50061756 -0.5560246 0.22525245 0.73741335 1.1711038 0.48822358 -1.4943521 0.21974728 -0.36001194 -1.2346863 1.0626885 0.5096503 1.0479589 -1.474429 1.2606877 0.4166618 0.5093853 0.18457298 1.9879984 -1.0990685 -1.5791619 1.232588 -0.4789878 0.66771364 0.65326345 0.49222896 -0.29800504 -0.69541377 0.8763999 1.5836575 1.1169711 -0.80093694 0.89274347 0.7897799 -0.30903122 -0.24198198 0.287403 0.09308286 -0.07855733 1.503625 1.1860018 -0.85354805 0.17281629 -0.23055632 -1.2835064 1.177009 -0.36933202 -0.6963607 -0.9607073 -0.96345645 0.7098941 -1.2644218 -0.58089346 -0.3017642 -0.7631417 -0.47317883 -0.10319962 1.4545419 1.1037153 -0.59258604 -0.7232377 -1.6674602 -0.20537345
50 -0.29337376 1.8513919 0.4064521 0.29109553 1.0483972 -0.5158707 1.5154011 -1.7735064 -0.27579078 1.5881104 -0.47330767 1.100692 -0.7984408 -0.09882124 -0.94596595 -1.0772254 1.0004075 -2.4849477 -1.6346788 -0.4568017 0.32839978 0.1750289 -1.0390643 2.2613728 -0.6524491 -2.2327058 0.8681281 -0.020398542 -1.0208484 0.6381597 -1.1007348 -0.64116025 0.4956097 -0.67476934 1.0927898 -1.8382165 -0.6866543 0.23788463 -1.0085182 0.4587165 0.16821796 -0.6734733 1.9881401 -0.7946143 1.0720953 -1.323964 -0.25425813 -0.5894001 -1.9954894 -1.7967513 -1.7056035 -1.05262 3.1661751 -0.42127806 -0.6439392 1.4597408 -0.8980085 0.31442472 0.08821337 -0.9577656 -0.54309744 -0.4052877 0.94992656 -0.3257009 -0.22021462 1.4858958 -1.6639699 0.7282 -2.2627094 -1.2670177 1.8876411 0.7934139 0.7163995 -0.7076386 0.7553885 0.46804732 -0.89594656 0.020163225 -0.69439167 -0.7463848 -0.066444226 1.2805808 0.18855189 0.2230539 0.2303982 0.47504258 0.40945178 -0.44817263 -0.15081157 -0.13846512 -0.29326558 -0.7570352 0.8423655 0.91589516 -0.34853545 -0.28956795 -0.0086960215 0.4028115 0.3730178 -0.25576717
51 1.6625744 0.9531898 -1.5621263 2.1305962 -1.4635665 2.0781255 -1.4822346 0.07111114 -0.3468131 0.80170405 -1.1254746 0.99232775 1.2050878 -0.42135513 0.53476137 1.1976683 1.231792 0.93353945 -0.09424776 1.1875442 0.24484183 -0.27223453 -0.59581906 -0.7895747 0.28069416 -1.544087 -1.3550651 -1.0629841 0.65369874 0.12756465 -0.33979124 1.560507 0.22181424 1.7728926 0.22566152 -0.21541834 -1.7674888 -0.59307915 -0.3843937 -0.8691049 -1.1942875 0.93707246 0.22395945 0.50564367 0.16915269 0.034028627 0.5999725 1.7638834 -0.05506429 -0.43945235 -1.0542803 -0.30852288 -0.5430322 -0.35901228 0.31965062 0.94394284 -0.91290385 -0.60390264 -0.4803937 -0.31029192 -1.2343317 0.41525802 0.7632393 0.8308497 0.3126104 -0.91596025 -1.9382783 0.55748075 -0.1517002 -0.47958794 0.60088354 1.3210393 -0.88730043 -0.023211285 0.9843213 1.1797435 0.2586432 0.8402426 -0.7656831 1.4457855 -0.112620786 -1.9361699 -1.0157237 -0.60367537 1.2081034 1.1599004 0.7252996 -1.1853853 -2.7596993 0.8540901 0.104761966 0.056403175 0.09483935 1.2941332 0.9127216 -1.0851384 -0.6017201 0.50735277 0.45868754 0.9198646
52 -1.6104909 0.010931487 -0.7826511 1.777493 -1.5606683 0.6936618 1.8097398 0.16152169 -0.3839349 -1.9545318 -0.9044413 0.50563437 0.38561368 -1.5279619 0.56788933 -1.0633376 -0.72753954 -0.4120923 0.5582989 0.9208254 -1.4318895 0.61935675 0.28466627 0.76343393 1.2420222 0.87203765 -0.5955944 2.6195736 0.99250054 -0.62864953 -0.19518149 0.44947088 0.16356678 -0.9985433 -0.44348073 -1.0775647 1.3159157 -1.0124893 0.7512815 -0.4181184 1.6993577 -1.1197877 1.5954418 0.7095055 -1.4644928 -0.95172536 -1.0348527 -0.73619664 -0.5495033 0.08420409 -0.0062538637 0.044395808 1.003413 -0.7866681 -0.28804937 -1.438247 -0.8836285 -0.45733508 -0.49623963 0.23447351 0.23949894 -0.52988905 0.00958145 0.43036544 -1.2146589 0.054949727 -1.3309678 0.64609057 0.30170164 0.30077735 0.23516545 0.11496579 -0.9045471 -0.24311972 -1.5757568 1.0779994 0.9994152 -1.3322815 -0.20766494 0.43875813 -0.40934056 0.27304244 -2.1375723 0.5725707 -0.18682836 0.28765392 0.024639992 -0.34121692 2.1473472 -0.06699307 0.0954264 0.7954211 -1.0822351 -0.33362192 -1.4217716 0.2992868 1.3033463 2.5278761 1.6562201 -0.7264488
53 -0.8127036 -0.29624525 -0.98209184 -0.9347569 1.3100547 -0.3981719 -1.6339345 -0.05956971 -0.6072951 -0.8386316 -1.3259254 -0.9805935 1.1121672 0.58792317 -2.0614974 0.79767394 -0.1387253 0.08490512 0.46585357 -1.3778358 2.4451926 -0.7213197 -0.48216054 -2.1851993 0.52201563 -0.3560935 1.0327144 -0.25562808 -0.6501328 0.11150017 -0.83271 -0.2239079 -2.050688 -0.09026163 0.7673771 0.15716039 0.28235903 -0.24395575 0.13931638 -0.052616995 3.0199022 -0.44036493 -2.319664 1.1999586 1.0458027 -0.5058158 0.019520883 1.0013618 -1.4044418 1.1591966 1.031464 0.22692777 -0.555024 -2.3888524 1.0333279 0.5790669 0.29582316 0.2191183 -0.51274633 1.0766081 -0.4854455 0.5850095 -0.06711422 2.253144 0.2629976 -0.06776034 -0.7037255 1.0949724 -1.0120664 -1.5617799 0.5636532 -1.71 0.21302676 0.45835555 0.3935647 -1.1987982 -0.016254708 -0.10375744 0.60681057 0.048681065 -1.2107631 0.54972166 -0.49846673 -1.1849724 0.34755728 -1.3790021 -0.39814544 1.7846515 -0.92598844 1.1304747 -0.26988083 0.1883566 0.44836527 -1.3483281 0.5816741 0.731233 -1.1185768 -0.85486066 0.57003963 0.8641876
54 -0.7338038 -0.27008367 1.8851898 -0.98177934 -0.43524235 0.28429314 -1.177551 0.6252429 0.22486155 1.0460519 -0.4087567 -0.18989873 1.3950839 0.29653075 -0.27959636 -1.8072624 0.41301262 0.54815376 0.11920599 1.5639446 -1.2895385 -0.94379735 2.0640728 -0.036016997 0.08312331 0.22164574 -0.23364657 1.109446 -0.0779429 -0.5710856 0.7916228 -0.14497228 0.9818549 -0.11805752 0.47231138 -0.66689545 -0.70508224 2.1333702 -0.4336198 -0.4494579 -2.461557 0.9150293 1.3991474 0.29449916 -0.84224695 -0.530201 -0.46942952 0.81797403 -0.55280423 0.3647346 -0.55531263 1.1017652 1.2522093 1.9522096 0.15737028 -0.2634552 -0.25433844 -1.2692107 0.4514078 0.36934936 -0.2558286 -0.29059857 1.2624213 -0.3955374 -0.24401009 -1.0032327 0.5403277 0.6561935 0.7501103 0.056557544 -0.7549136 -0.3415114 0.33528614 0.8189418 -0.7302303 1.3524984 0.015016353 -0.3816346 -0.60929173 1.1623145 -0.7032512 -1.0070063 -0.6353612 0.6799502 -1.566773 0.077504665 0.60991174 0.5941118 0.78843045 -0.18160616 -0.119580835 1.5533403 -0.66213435 1.0485054 -0.17756616 -0.03857468 0.37841412 -0.4523823 -0.12370446 -0.9495912
55 1.4692237 -0.8248887 -1.8763429 -0.9840397 0.25981143 0.8288186 -1.3371205 -0.78999 -1.2694075 3.1156096 -0.2665528 0.40220642 -0.2357844 0.68875307 0.93974215 0.41007102 -1.3962517 0.97242403 1.2111683 0.092374645 0.030249692 0.43455297 0.48993486 -0.027534794 -1.3448548 0.6463631 0.9720398 0.5615383 -2.4666548 -0.50077385 0.9567263 0.56474257 -0.57263064 -1.2513132 -1.6588111 -0.8341173 -2.3287272 0.51669824 0.53043336 -0.42519614 -1.0554621 -0.32034084 -0.4677342 0.80716896 -0.09498349 -0.3468889 0.8089043 1.6605355 -1.9919132 -1.1039343 -0.85963714 -0.32063198 -0.58311504 -1.2310392 1.2164098 0.16216451 -1.201117 -0.7254179 0.2393387 -1.1651404 -0.6038337 -1.2462318 -0.57145774 -0.62986165 0.83134997 0.72489685 -1.2736758 1.482793 0.33843532 3.0397456 -1.4608115 2.114238 -0.76422954 1.1999251 -0.3935757 -2.0324438 1.3655711 -0.31768388 0.2196356 -0.16015676 2.4617946 -0.48032573 0.20926479 0.40720022 -1.055351 0.39276096 -0.9465793 -0.18288599 -0.34818134 -0.033921625 0.5760675 -0.35984302 0.13567246 -1.6904436 -0.3313098 -1.069778 0.44253835 0.12724307 -1.0489984 -0.4121639
56 -1.3425682 -1.8736023 -0.8550705 -0.6381002 0.09987164 -0.92047 1.6598562 -1.4530969 0.18592572 -0.26709777 -0.1465975 -1.5298601 -0.7480644 -2.9122849 0.3288685 -0.64020574 1.6682719 -0.8652175 0.58037055 -1.4875908 -0.04608554 0.68999654 -0.578525 2.2530165 1.9384854 -0.24396177 0.069321625 -0.51814276 -0.10733986 0.37487772 -0.16199577 -2.1949065 0.7639856 0.42743653 0.34455836 0.065334655 -1.9439796 -0.6397971 -0.3346157 1.2855688 -0.8913156 0.07290297 2.3768609 1.3993294 -1.5263925 -2.6223915 1.1315135 1.0318439 -1.9878141 0.29448387 -0.21369852 -0.9727428 -0.8622298 -0.7662228 -1.2711908 0.71625066 0.7478494 -0.9381648 0.19079946 0.7863669 -0.21683443 -0.57656157 -0.21750498 1.238167 0.99070865 2.0210335 -0.066340566 -0.48501223 1.0893723 -1.9200199 -0.051223896 -0.5442151 1.4992462 0.65176034 0.19759096 0.5602153 -0.24047877 -0.15395133 -0.20138763 0.3739795 -0.76971513 -0.18294372 0.24220338 -0.5426003 -1.8896661 -1.4155722 -1.7420374 1.1500762 -0.0096534295 -1.4486147 0.5539889 0.43421394 0.7062015 -0.76013196 -0.48345727 -1.5250927 1.0477229 -1.9571118 -0.22142613 0.9607292
57 -1.4474595 0.40853322 -0.80940276 -1.0634944 0.022440482 0.9142768 -0.81209874 0.82174015 -0.54250884 0.035337847 -0.05337159 -0.3075529 -0.4873107 0.87654096 -0.22575024 -0.83941686 -2.2569873 -0.3794854 1.5762744 0.14977129 2.3011734 0.24099042 -0.5720861 -0.14714247 -0.5581339 0.5176491 -1.058369 -1.1145197 2.1064203 0.8279353 -1.0832074 -1.2841283 0.37151954 -1.0280694 -0.71184987 -0.3753492 -1.1327412 0.16701154 0.011189536 0.09390191 -1.1564189 -0.6445247 2.4454257 -0.5403876 -1.1875349 0.30498162 -0.6170612 -0.9511699 1.0952604 -0.9012546 0.41671303 0.99693316 0.89964825 0.18943131 -0.66931945 2.2508106 -1.2323579 -0.33129027 -0.919817 0.8060225 0.061716773 -0.29880112 -1.0524502 -0.4009749 -0.16455638 -0.4947794 -0.14302334 -0.037742622 -1.4546499 1.2089926 -1.108475 1.8687812 0.082871005 3.4081523 0.4291026 0.92583686 1.5020747 -2.5426543 1.4193227 0.3282887 0.14262839 1.4399894 2.5793989 -0.7763395 0.053830873 -1.6036344 1.3446059 0.7434676 1.239713 0.6140928 1.3830253 -2.2581089 -1.9234134 0.93419176 -0.9932393 -0.43649027 0.37744477 0.89311457 0.6183732 0.17365336
58 -0.81730056 1.0445399 -0.85170096 -0.8000625 0.90936404 1.0637988 0.2170713 -0.4312532 0.115068264 0.6922115 0.14006957 -1.7728848 0.21876794 -0.37996253 -0.268748 -0.4307786 -1.1870617 -0.030219005 0.6687746 1.5745543 1.3006889 -1.1553695 -0.19765413 0.8248348 -0.52389544 -0.2725829 1.4205333 -0.9165589 0.9583386 -0.5049437 -0.7777089 0.2945524 0.56345516 -1.1119272 -1.6598197 0.17372192 -0.5454233 0.26685864 0.8709782 -1.6037996 -0.21397474 0.32701433 0.5141655 0.46509156 0.35930443 -1.8354541 0.33926618 -0.26405704 -0.3666838 -0.4195921 0.18696792 -1.3766824 -0.42177328 -0.7663607 0.8418369 -2.1891675 -1.8498381 -2.311776 -0.8082155 0.66340876 -0.10063763 0.33147317 -0.16424917 -0.99621695 1.2967896 -0.22795248 1.2859861 -0.68481106 0.6735692 0.9069864 -1.1194266 0.09667619 -0.054398354 -1.0036882 1.1732578 -1.0563296 0.9207145 -1.273941 -0.089543946 -0.80765563 -1.4489878 1.5517548 -0.20955436 -0.49724942 0.0013251214 0.09632897 -0.8483629 1.4700601 -0.16574895 0.048453048 2.3333554 -1.2795168 0.5292873 -0.12910289 0.23253898 2.086269 -0.6040309 0.36700144 -0.25042295 -1.3528783
59 -0.1070867 -0.3060973 -0.004192354 1.520952 0.35451707 -2.546417 0.10930794 -0.3726063 1.0993456 1.1019874 -0.7387694 -0.88237745 0.6399783 -0.69118273 -0.73528314 -0.3688601 -1.1890599 0.6715421 0.43732738 0.8069863 -1.1028565 -0.8930246 0.16504693 -0.3820454 2.5448408 -1.4091219 -0.29829523 -1.687367 -1.9853326 0.8549258 0.28068185 -0.15086581 -0.6429306 -0.5056724 1.0981014 0.29075184 -0.7142005 0.9527976 0.7211721 -0.10871945 -0.6874171 -0.37794742 -0.88164896 0.46669915 0.49170718 0.28318128 -1.1100913 0.47140032 1.1643298 1.2428921 1.0426939 -0.13899991 0.26857543 0.14710541 -0.56329787 -0.11449607 -0.7679528 -0.46124172 -0.13793737 1.7409112 2.4546905 -0.689033 -1.038287 1.1454887 -1.9421368 0.3264925 0.019153992 0.5107679 -0.30721673 -0.9530441 -1.0059673 1.0050228 1.475074 -1.0960894 1.956251 0.1324594 -0.099496216 1.2141819 -1.148392 -0.1727651 -0.59799784 -0.13405272 1.1037978 -0.9824922 -0.13296223 1.1958315 -1.2218568 1.8184803 -0.04214764 -0.3972796 0.7651137 0.40698752 -0.36941832 0.09858223 2.1479263 0.3140261 -0.07201182 0.7402442 0.71663916 -0.05400843
60 0.46769783 1.5588928 0.5581382 -0.65953815 -0.87482077 0.1951346 -0.0046429597 -0.39127752 -1.1831843 -0.850465 -0.13588445 0.25725615 -0.003202737 0.43418708 0.846183 1.4886026 -1.2916921 0.07760684 -0.99264187 0.35324752 -1.0515654 -0.15068308 -0.27178046 0.11786005 -1.8186913 0.4890413 -0.52776873 -0.9787347 0.19530365 2.135609 -1.3606786 1.2962028 -1.143011 -0.27073765 -0.20238161 -1.3327864 1.1248521 0.8469985 0.8355506 -0.79897666 -2.2915552 -0.86274314 0.14685689 1.052874 0.7078579 -0.092633024 -1.1866026 -0.5527176 -1.2365248 0.07001663 -0.24928026 -0.36155465 -1.1572351 -0.5335273 -1.409249 0.807328 0.93341655 -1.9901416 -0.5359165 0.009197998 0.8119235 -0.5027839 -0.56582093 0.70267826 0.972404 0.032792546 -0.49528193 1.4380066 -0.4754507 0.28185245 -1.4511343 0.10642518 0.2547623 -0.9446918 1.5910286 -1.345365 -0.62620586 0.25196412 -1.2453356 -1.3084424 -1.370572 -0.8293783 -0.06905478 -0.023813741 0.5885005 0.046283223 1.3399644 0.2965876 0.97872674 0.009620766 1.2708405 0.45409092 1.125397 -0.7554984 -0.10258657 -0.4751926 0.009806774 -1.551085 -0.865023 -0.5581208
61 -0.28543893 0.2676529 -0.289008 0.20618214 -0.08290506 0.5218704 0.07866289 -1.123371 0.21016233 -0.22402266 1.073555 -0.93272245 -1.5257694 -1.6405708 0.69147956 0.23108418 1.0133278 0.5273124 -0.22929594 0.507501 -0.33489498 -0.56770355 0.33599347 1.5931716 1.7368422 -0.97951615 -1.0966792 -0.39503482 1.1880134 0.92178524 1.403083 -0.403602 1.2310026 0.42353383 0.3072129 -0.11685543 1.0645378 -1.786096 -0.95986766 -0.5944233 -0.100471884 0.5382354 -0.6619558 -0.473284 -0.47766978 -0.786614 -0.053162444 0.7821943 -0.0647726 1.3309511 -0.8495996 -0.44093564 1.0832269 0.031502854 2.0004992 -0.5540813 0.15071271 0.5364911 0.37740812 -1.7651252 -0.5369225 -1.1667489 -0.5501475 -1.3094028 -0.26403984 1.3486675 -1.336018 -1.0749614 1.1937162 2.3024688 -2.083281 -0.2895181 0.27042872 1.0040438 0.8731675 0.7309589 -0.40639034 0.7664909 1.5578463 0.0009798111 0.54837835 -0.64983594 -1.4652494 -0.22300944 -0.13426647 -1.0595093 -0.7691885 -0.4934673 0.8987991 -1.0017195 0.85338324 -0.31317028 -1.4895498 -1.1545417 0.6353102 -1.5775837 1.0340619 0.056018952 1.1448681 0.111967646
62 1.3977803 1.390849 1.064268 0.8462417 -1.9664232 2.038423 -0.24847439 0.1138835 -0.99345547 -0.7443018 -0.7931947 -1.4109625 1.8498577 0.46822384 -1.5486459 -0.3286814 -2.639756 -0.7455865 -0.32776555 -1.3554136 -0.53452086 0.52975196 0.0665968 -0.5086801 1.8062748 -0.5751434 -0.26600856 -1.179946 -0.17143707 -0.23961505 -0.4285545 1.0815763 -1.0084964 -0.04013385 0.29470688 1.0005034 -0.20492879 0.94829744 -0.23011182 0.6952916 0.9129189 0.8638655 0.57708037 -0.19315284 1.1319185 -0.01234876 -0.6771498 -0.1659185 2.7726812 0.18223216 -0.02861355 -0.60735905 -1.0699327 1.3045354 0.6122281 -0.794001 0.44695938 -0.37851417 1.3697647 -0.0773259 0.091735356 -1.7351612 0.29680398 1.5458047 -1.3903917 -0.31003135 0.2258473 -0.5739056 0.61033297 0.70812047 0.90361327 0.85050374 0.67664427 0.91026646 -0.060660344 -0.34739095 0.9272905 -0.6317913 0.13045368 2.4329455 0.69210464 0.66317797 -0.092932045 1.5781131 1.6838666 -0.51034105 0.20633729 -0.36584195 -1.5602696 0.032276053 1.4936614 -0.4654254 -1.1140281 2.9323468 0.11668752 0.40297562 0.15464969 -0.9392815 0.10356083 -1.0071111
63 0.5553121 -0.72123677 0.91361034 0.7948629 1.4371758 0.4430573 0.9706303 1.5843049 -0.7882982 0.38791412 -0.4309804 -0.008250811 -0.582874 0.3944156 0.90946335 1.1651121 2.7041283 1.8228695 -1.0418887 -1.3924865 0.58433807 0.92692083 -0.09417942 -0.18593432 2.1409068 -0.3799975 0.7011281 0.4205898 0.82256365 0.57468724 -1.8313793 -0.5013998 0.93163145 1.0565002 0.6463909 -0.70045733 -0.62299836 -0.8168068 0.24425295 -0.5663961 0.90726966 0.94423753 0.5663626 -0.1787509 -1.5252802 -1.442106 0.094068095 -0.66684514 1.0474428 0.6339915 0.11787581 -0.29845786 0.43310314 -1.9674973 0.5967847 -0.5628809 0.01932643 0.72765386 -0.75197345 0.18144888 -1.4246025 -0.14936934 0.6820208 -0.13008927 1.0674533 1.1727729 1.282292 -0.44926858 -0.17456985 1.3797163 0.4465639 -0.7234195 -0.49271134 -1.484911 0.8422396 1.712378 0.9332944 -0.7218208 0.3639452 -0.016693417 -0.5237295 0.3919408 -1.8905413 0.5259373 -0.76285225 0.2792065 1.2905892 -0.59719384 0.74144554 0.51793575 0.40963712 0.36888662 0.40481144 -1.1026006 -0.11200762 0.17462486 0.2345134 1.0568069 0.8611083 -1.6584697
64 -0.9177775 -0.5133331 0.05485499 0.28058532 2.1287096 -0.7672649 -1.3709599 1.3172477 -0.19713598 0.26021066 -1.1151525 1.2313873 0.53260994 -0.28272232 0.13048063 -1.7456723 -1.2165502 -0.19574073 -0.63254195 1.1757277 -0.27243996 -1.1690123 0.23006125 0.14008927 -0.59670424 1.0508401 -0.65254825 0.4829377 1.4840145 0.7949461 2.1691873 -0.41194376 -0.11749508 0.860089 -0.041146442 -0.35312507 -0.61564785 0.4160855 0.16085105 -0.22173274 -0.5181024 1.5651453 0.74553466 0.1211345 1.8207234 1.0707809 1.3138088 -0.5297003 0.5347041 -1.4551752 0.89693576 0.8068789 -1.0904838 -0.10595744 0.9948512 2.550873 0.19943182 -0.08235971 0.7853942 0.61367005 0.82556856 -0.5528853 0.0586521 0.30711037 0.3895393 0.28487012 -0.67691183 -0.47069862 -0.4960626 -0.38906237 0.795908 -0.21038905 1.6537473 -0.13841657 -0.8410374 1.5395412 -0.27644888 -1.3558246 0.9467104 0.40487963 -1.2364774 -1.8773658 1.3110782 -0.183639 0.35872528 1.4855626 -0.94467086 0.77166605 -0.7859556 0.46733963 -0.21638021 0.10115796 -1.6307727 -0.89696616 -0.5200226 0.26179698 -0.71795785 -0.4993922 0.19688052 -2.558971
65 -1.3646547 2.7894268 0.08141101 -0.15535079 0.9094607 1.2839209 -0.19096501 1.0897019 -0.13093966 0.5779343 -0.80993336 -0.4360561 -0.60552835 0.36960465 0.38608283 0.8805538 0.3888703 0.6081992 1.9883008 0.101179406 0.30472684 -0.6711394 -0.66347945 -0.32620838 0.25452054 0.83390045 1.3714645 2.1971986 0.7409846 1.0340322 0.95830226 0.81396466 -1.4847203 1.2927788 -0.36686677 0.50486094 1.1371104 1.8446711 1.547917 -0.77048415 0.38294268 0.8864497 1.0840527 -1.1265221 0.7195428 0.6946661 -0.76795954 1.6022922 -0.29445863 -0.6496136 -0.20167361 0.9892781 1.2580872 -0.88114554 -1.0058141 0.38556904 0.5827811 1.0650852 0.90023285 1.1492262 -0.38406676 -0.99200743 0.56050265 -0.6428394 1.546589 1.6734707 1.5763057 0.34863964 0.8259821 1.8139145 1.8910255 0.03138206 0.8870722 -0.4336818 0.05605314 1.2402216 2.2495787 0.9726062 -0.525451 -1.2791293 1.0581414 -1.3366233 -0.7507035 0.71511114 -0.34006608 0.21073478 0.48656875 -0.0682312 0.7498581 -0.34960034 -0.19352779 1.3743552 1.1104946 0.98486936 0.19729888 -1.8756416 -0.91526777 1.2648269 -0.028862823 -0.54034424
66 0.38750815 0.60129446 0.07427393 -0.21277952 0.25745767 0.44988763 -0.2974609 1.5441175 -0.29022428 -0.4896832 -0.01470654 -0.2655114 -0.5698289 -0.047196064 -0.35174948 0.64051247 0.33412948 1.1544359 -0.26348776 1.129425 -0.3313245 0.0055922274 -0.005427947 -0.7766651 -0.15795279 1.5997148 0.65950996 1.3046324 0.32161433 -0.456947 -3.3486927 -0.29176173 0.8174647 0.59584135 1.050989 1.4220647 -0.10239721 -0.41385427 2.4213796 0.066436544 1.0819864 -0.45414636 -0.43073747 0.27688903 0.12556534 -0.9329352 -1.9558624 -0.5823432 -0.2020372 0.46611193 0.93749374 -1.1477615 -0.74129295 0.90339154 -0.5425924 -1.544611 -0.34942085 -0.836346 -0.6414116 -0.10946733 1.1031764 -0.5390723 0.5338929 -0.23907754 -1.0177214 0.4965487 -0.94456935 -0.27159363 0.30946484 -1.8574749 1.7782205 -0.08126522 -1.5498347 0.0030015775 -1.7439857 1.6423612 -1.4718915 -1.4036756 -0.07143549 -0.22787562 -0.010028761 -0.062275574 -0.43528447 0.382994 -1.6059293 0.23292102 0.120615795 0.896767 0.7709 0.36441794 -1.6403881 1.2573042 0.06823533 -0.093794025 -0.35433978 0.81265587 1.2985151 -0.77675056 0.785644 0.8000278
67 0.9314344 0.7098173 -1.0341607 -1.4978788 0.7202902 -0.8607625 0.6666863 -1.1174353 -0.09735547 1.9463997 -0.44755688 0.46894053 -1.1002198 0.113723144 0.6620436 -1.4969934 -0.4382457 0.10861605 0.21437673 0.37223968 1.0204208 0.48284695 -0.37649822 0.46057555 -1.3162693 1.1130345 -0.55617505 0.17789021 2.0434167 -1.5950873 -0.2019013 0.8230392 0.059051372 -0.6354632 0.08789333 1.8419847 -0.86880773 -1.0105674 -0.73697406 0.8617241 1.8266072 -1.1405703 -0.17876881 -0.49932837 -0.039297666 -0.7845231 0.13988672 0.6230054 -0.98771363 0.28586662 -0.18313998 1.7909296 2.4425757 -0.6365815 1.5967385 1.0334998 -1.4945127 0.8773445 -0.27842268 0.45281133 -0.38751882 -0.82929856 1.95346 -0.27635747 0.82070774 -1.4930332 0.06176504 -0.044340182 -0.75616497 -0.7669758 1.2707434 -0.4428617 0.74280334 0.08667182 0.58739996 -0.6554066 1.1463655 -0.022524262 -1.3259953 1.3482279 0.47806466 0.20777898 0.39122164 -0.48771393 -1.3290092 -0.43233767 1.5289834 -1.8679358 0.1914997 -1.1776892 0.36844763 0.7176767 2.1675942 0.14103845 -0.95256454 0.82715386 0.44489524 0.053757433 1.4432293 0.16067867
68 -0.16665493 2.5521805 -0.99993825 -0.9300358 -0.32707977 -1.5606614 1.1901284 0.36605272 2.2192688 -0.4455444 -0.7276998 -0.5698094 0.46771798 0.531103 -0.8390733 -1.6653891 1.0842646 0.386052 -0.8652005 -0.41610914 -1.025354 1.5985837 1.517669 0.47131988 -1.2497288 -1.1317953 -1.5816911 -0.27997917 -0.45789373 -1.1081922 -0.51255214 -1.2179815 0.6873268 -0.09376439 1.3804774 -2.2512279 1.5593331 -0.14060558 -1.0307908 -1.1840502 1.5829809 0.343275 1.1086239 1.0308738 -0.4366773 0.134918 1.0026225 0.69097745 0.64573246 -0.11630855 -2.3217278 -1.4528502 2.6975524 -0.24573937 -0.79728687 1.0002193 -0.8285093 0.3526623 0.79828393 0.08526257 -0.5585649 1.7507665 1.1014124 0.7863334 -1.3683314 1.1240963 0.05434623 0.6338719 0.27836147 0.43878278 0.08174744 -0.07941688 -0.29344586 -0.62760335 0.24153106 0.9432221 1.2452797 -1.5040575 0.15007964 -0.99203646 0.8298773 1.1816471 0.3035768 -0.48062977 -0.47755536 -0.6429119 -0.663162 -0.08838623 0.42932466 1.9914654 -0.34528223 0.39069694 -0.6853504 -0.587824 -1.4377371 -0.2427726 0.30672085 -0.61652595 2.261793 0.2913068
69 -0.86028755 0.718955 -0.6942033 1.3551906 -0.43269888 -0.01688975 1.3943036 0.051229622 -0.077750996 1.0233309 0.47395808 -0.24069712 -1.9473364 -0.33142495 -1.096828 -0.28658286 -0.50111264 -0.85842395 0.6441575 -0.85637915 -1.0190963 0.4656424 0.86752886 0.8059078 -0.107751824 0.4833584 -3.6769502 1.0249976 -0.91896427 -0.3501259 -0.07906374 -0.1517911 -0.4699389 -0.87245196 -0.6426994 -0.7554972 0.86534816 -2.8356106 1.4351877 0.013929921 -0.23449169 0.72158825 1.6364137 -0.469819 0.47483075 1.2842467 0.097788304 -1.6313403 0.22323923 -0.14213218 -0.061166972 1.4141177 0.4581232 0.5025029 2.0201373 1.8185614 0.56866896 -0.7609623 -0.3527546 1.5139611 -0.7798468 1.2625363 -1.558351 1.3693243 1.8580818 -1.3675399 -0.11736397 -0.9898458 -1.2143365 1.1608092 0.62138987 1.2890301 -1.5674158 -0.8788592 0.4069753 0.44892174 -2.515448 -0.72679996 -1.0440573 0.5463391 -0.4482016 -1.678565 -0.7663522 -0.22300087 0.0057284078 -0.2421557 -2.2051454 1.0109515 0.555789 2.5240033 0.9730824 -0.65905875 0.9368538 0.85098684 0.73502344 -0.11599577 0.24787511 -1.0538553 1.3528159 -0.6541614
70 2.2721536 0.73983586 0.22868264 0.9453847 1.2633665 -0.581111 -0.32516158 -1.0092565 0.28662574 -0.16315477 0.6890729 -0.2523768 -1.5005419 0.44477317 0.7924941 -0.0598823 0.9127676 -0.73344344 0.07065954 0.061899394 -1.4454291 -0.49545604 2.1117446 1.028932 -0.47644237 -0.50232947 -0.051649284 0.76905966 0.89187676 0.15051971 2.1876 0.109540805 -0.5427139 0.3307243 0.91148925 -0.49105412 0.11279331 1.3978344 0.05768107 -1.760957 -0.89077294 -0.46498284 1.9168088 -0.63488674 0.22893476 0.03768696 2.004701 -1.872799 1.4525288 -1.8628398 1.1511335 0.6147513 -0.38495466 2.2325547 0.8584115 -0.09066556 0.106677145 -0.0836432 -0.97994673 1.4340563 1.3299308 0.17693092 0.70887226 0.3487021 0.40054816 0.4012909 -1.0144708 3.0843155 -0.32508874 1.0675197 -0.23184958 0.012921399 0.34656498 1.1531522 0.2382019 -1.1812421 -0.36114264 0.20426157 0.3925707 -1.3839374 1.403747 -1.3197814 -0.6318676 -0.21603598 0.22996229 -1.0038047 0.6800202 -0.15977034 -0.38368678 0.65127933 0.9701007 -1.5737642 1.1122546 1.9756958 -0.005004588 0.27372074 -0.5816349 0.5061283 -0.60612506 -0.7280455
71 1.8984101 0.028030487 0.4971569 -0.6613409 0.3873937 -0.42087218 -0.08165073 1.2666364 -0.15325184 1.8510696 0.23252147 0.27299792 -0.87043226 0.21310899 0.5053294 -1.408948 -0.06498536 0.88274544 1.7892302 -0.543599 -1.6475043 0.3183133 0.1965456 0.32575768 -1.2956055 1.3172423 -0.33222118 1.546509 -0.1922053 -0.16684191 -0.40329123 -0.2940648 0.7931676 -1.2648379 0.12129749 -0.8126378 0.006615694 1.6209514 -0.54812765 0.09010095 0.058959868 -0.532948 -0.69105417 0.94201165 -0.53199583 -0.618244 -0.34408674 0.9339404 0.7551441 -0.7369526 0.18229204 -0.18544896 -0.14596297 0.32788107 -0.80361044 0.99206495 0.45271346 -0.52052623 -0.369875 -0.20358248 1.70886 1.6345285 -0.21203631 0.7518825 1.5972415 -0.85187835 1.5093247 0.07366655 0.97455287 -1.4801589 -0.7479885 -1.445462 1.6101923 -1.8249342 0.30768093 -0.13532512 -1.1591736 -1.5164796 -0.1995329 0.50731987 0.36346573 -0.011133157 0.78761077 -1.3700372 0.956018 0.63432324 0.945343 0.79562086 1.1055213 0.01241007 0.5489885 0.66646165 -0.90256053 -0.58740556 -0.05811417 0.8242228 1.0152038 0.5279926 0.8901346 1.3212583
72 -1.1090912 -0.65354645 0.5429306 0.94625413 -0.5525269 0.16090374 -0.55177987 -0.43702164 -0.06571658 0.963917 -1.1216424 -0.1423874 0.52681834 -0.9324335 1.2447186 -0.24356802 0.39810368 -0.40024644 1.2831184 1.6744318 -2.4958775 1.0082203 0.9629016 -0.52468747 -0.41631 -0.5193842 -0.51582116 0.89674306 -0.33232698 -0.5284052 0.9826163 0.6696822 -0.84787965 0.99128 -1.619142 1.1120988 0.50873685 0.0008542535 0.3535536 0.83349526 -0.2928381 0.17638193 -0.9284122 -0.9238556 -0.045058656 -0.5111227 -0.8772979 -0.29642418 1.4850447 0.67776895 0.12202171 0.24084085 0.6960528 0.32741785 -0.62280995 0.59079355 1.1711476 0.52872545 0.8031811 0.03982269 0.24237783 -1.1470096 1.1551092 -0.3944318 -2.420948 0.5895223 -0.7961798 1.3467772 0.0072186072 1.4983788 2.6079948 0.3856997 1.5958246 1.6510308 -0.40037355 0.9559911 -0.67883086 1.6594704 -1.355694 -1.6964848 -0.19424315 -2.9774127 0.50705874 0.5602944 0.002986899 -0.9062481 0.36231413 1.3582461 -0.30289993 0.20043191 0.13053581 -0.123656884 -0.24091905 2.6081872 0.8606334 0.41700277 -1.1791404 -0.055254795 1.0616417 0.15078247
73 -0.33170742 0.7810461 0.5833824 -0.55469733 0.13610287 -0.15454458 -0.21632783 0.032075856 -1.2313261 -0.1751206 0.050434887 0.036019713 -0.09837727 -0.29865482 -2.3008714 0.9213404 0.8732136 0.08388772 -1.1113417 -1.0945579 0.4182726 0.22347914 0.6575748 -0.3786847 0.57520235 -0.028178025 -0.75464565 2.3297288 1.0541133 -0.73008555 -0.6790714 -0.18933731 -0.011035292 -0.7817798 -0.7581636 -0.43502218 -0.13284773 0.041846223 -1.1135532 -1.3769087 -0.24278292 -0.25519693 0.31492049 0.52728665 1.0170686 -0.55476075 -1.8989387 1.2144047 -0.53400475 2.1707768 0.6142207 -1.5513644 0.7874679 -0.19381133 -0.5964104 -0.35120758 -0.3046993 1.4537369 0.028318556 0.7695983 -0.30402958 0.75399536 -1.7658441 0.09481207 0.62863487 1.3204409 1.1023417 -0.6777857 -0.426612 1.5461544 -1.0678004 0.9426834 -1.0613729 -0.17839637 -0.114773765 0.19143783 -1.4545208 0.33776844 0.22720018 -1.1625415 -2.3229916 -0.40762654 -0.38005885 -1.601401 0.257197 0.47794306 1.9526962 -0.0037793482 -0.2333216 0.21711811 -0.44396898 0.41529143 0.38204277 -1.3808019 -1.4208457 -0.1648998 -1.6219274 0.34276485 0.95278275 1.1155223
74 -0.14672464 -0.2772395 -0.8119445 -0.68099886 0.1213446 1.1169808 0.84625036 0.7540596 -1.4520462 -0.19000989 -1.2099571 0.024688829 -0.596751 0.17341456 -0.3259034 -0.35785452 -0.9771858 -0.0627821 -1.3607273 0.47726837 -0.9051826 -0.53257143 0.96428955 -1.7723972 -0.2656705 0.08728098 -1.074287 0.5568019 0.30034247 -0.6988732 -0.07232453 -0.4527635 -1.1919954 0.5579939 0.7356794 -0.84297013 1.4282101 -0.18534528 -0.6476875 -1.8265617 -1.5187865 0.60604733 0.64429796 0.23271486 1.3692375 1.0231254 0.72655916 1.0525808 0.17082392 0.8516937 -0.31313092 -0.9392291 -0.95615804 0.9717177 -0.7619746 1.2490052 0.5999124 0.26547652 1.1052288 -0.21502234 0.46233746 -0.10470471 -0.016686328 1.9897405 0.07868141 0.5808629 -0.4048653 0.40489691 0.39661396 0.18155862 0.9352481 0.05354532 1.8807472 -0.8675599 -1.1440635 -1.3780199 -0.8757557 -0.35341495 -2.209892 1.0719053 1.6819937 0.32883498 1.6860493 0.055526506 -0.2970326 1.8456365 0.68232554 0.28688806 -1.1369822 -0.36938483 1.4197851 -0.41729873 -1.148445 -0.0067421407 -0.012153129 1.1689161 -0.54953617 0.59805727 0.65963244 1.165692
75 0.33287248 -0.75379515 0.5137662 0.788065 0.80979407 0.92119026 0.10824577 -1.7862799 0.94059676 1.2935574 2.2331781 0.56392795 0.90823656 0.0893017 -0.9418755 0.107070684 0.06057823 0.4068714 1.2685211 0.7205461 0.4436214 0.13160887 1.0814613 -1.2948295 -0.7420591 -1.0360508 0.6102828 -0.6626669 -1.9428926 1.4996399 0.70890844 0.27244622 -0.48583928 -0.16425428 0.9286851 -0.045998238 -1.6357455 -0.2264359 0.03960245 -1.1144845 0.12223866 0.16776268 -0.0057518235 -0.980738 -0.00035620583 -0.3905123 1.1299028 1.7374251 0.07869856 -0.5266852 0.17532498 -0.26061085 -0.4346848 1.2972405 -0.43359432 -0.5785272 -1.9019197 -0.3008194 -1.0864518 -0.7605334 1.9193202 0.022563534 0.25980848 -1.1833445 0.9985824 -0.3859901 -0.9570692 -1.5712365 1.0692723 0.88904464 -0.13709827 1.7578676 2.2614346 0.8586166 -1.2273008 -0.74845654 1.524876 0.23904523 0.06796286 0.7815891 -0.27942315 -0.56351537 -0.4741631 -0.06588486 -2.2138398 -1.3659323 0.23911 0.084945135 0.69053763 0.2351568 0.51855105 0.43097118 0.28730163 -0.84817994 -0.6190963 -0.6272157 0.89722353 -1.5235294 -0.84757084 -1.0488815
76 0.11588136 -1.1132058 0.9074508 -0.27646884 0.2618653 0.15898521 0.8956089 1.7839618 2.4327111 0.04490675 -0.6152208 -0.7877651 -2.0977447 -2.3991275 -0.5327357 0.45310903 -1.220907 -0.3094001 1.0483218 0.19998845 -1.8180562 -1.197317 -0.08334637 0.2781893 -1.5521376 1.4548589 1.8780404 1.7035255 -0.15445071 -0.85246533 -0.36399028 -0.9314049 -0.14893 -0.014051751 -0.6284064 -1.0545857 0.65624475 -0.7006193 -1.6795793 0.70241934 -0.2702471 -0.10492855 -0.10370399 -0.37255 -0.0748455 -0.26849908 -0.94719553 0.80109215 -0.9880391 -0.1299148 1.573536 -0.5552436 0.17860651 0.6323925 -0.1743299 -1.1015351 0.69640595 0.22998448 -0.44242573 0.7394241 -0.18656598 -0.6341387 -0.03422981 0.47520837 -0.19211896 0.10224812 -0.6622219 -0.5208021 -0.11590339 1.0888422 -0.497044 -1.3937379 0.6228302 -0.08861297 -0.40776968 -1.4497378 -0.47076002 -0.15962726 0.0007912119 0.36776346 1.119133 -0.54173505 -0.33104536 -1.387039 -0.2245523 -0.033673465 0.9277055 -0.9686099 0.20038198 -0.706018 -0.7566293 -0.47722465 -0.18120293 -1.1226404 -0.22184011 -0.36531195 1.0384797 0.50673455 1.5839661 1.1487657
77 -0.14402837 0.03291968 1.5427126 -1.6771336 -0.9235357 0.339764 -0.89665705 1.8075999 1.4874153 -0.16758212 -0.8498597 0.341292 -0.8244828 -0.7530686 -0.56199855 1.7573893 -0.24378343 0.27252877 1.5899408 1.776727 -0.67856956 -0.23488492 0.061976973 -0.39457947 1.3485947 -0.39703497 -0.4804364 0.5597221 0.2670902 0.57212013 -0.41449732 1.5461498 0.84247375 0.8607951 -0.494896 1.730048 0.3759936 -0.15489452 -0.049440682 -0.8301172 -0.29950458 0.44038713 0.43257865 0.4056242 -0.5079081 -0.23428082 1.1036537 -0.8188973 -1.1262752 -0.55334634 1.4832984 0.049394786 -0.017014159 0.027820714 -0.07410293 3.3659797 0.39892125 -0.3896478 -0.8698796 0.4283021 -0.279412 -0.7876477 -0.2729572 -0.9337889 -2.0947325 -0.10886845 -0.47431138 0.26326612 1.1701661 -1.2573754 -0.58915 0.09881446 -0.36540186 0.09044224 0.41369992 0.6899783 -1.2746705 -0.17178363 0.3192076 0.5010203 1.400906 0.4178806 -1.453867 0.067152776 0.8679917 1.1824131 0.77345973 0.6173217 -0.6474139 -0.09240528 -0.66820204 -0.53840137 -0.16096447 -0.8525108 -1.0289148 -0.10347562 0.86969596 -0.46722218 0.85466194 1.1929251
78 0.40771273 -0.7065566 0.47148082 -1.2795489 -1.2497331 -0.87175214 -0.30763733 -2.4880805 1.5382817 -1.2132379 -0.37858915 -1.623207 1.2334417 1.2029204 0.45988274 -0.09930034 0.119732134 -1.3233628 -0.58016247 0.6544845 1.0999665 0.70109266 -0.13453497 -0.20569463 -1.1577245 0.29471776 0.9618651 0.53912336 1.4521272 0.03687449 -0.7108449 -0.35336024 -1.167143 1.4199954 -1.0875894 0.041455485 0.26690754 -0.5541506 0.39248356 1.937735 1.0275207 0.015942652 -1.3073556 -1.2356646 -0.38586295 1.0868213 0.12306915 1.1193322 -0.9925857 0.79699075 -1.302828 1.6521032 0.19553402 0.8353699 0.31782192 -0.41136935 -2.8060758 1.5913484 1.2453333 0.40700233 0.0069377813 0.09021789 1.2084962 0.46587867 -0.22221796 0.51495695 -1.3918478 -0.39473206 0.1304065 0.91158146 1.6504153 -0.57018185 1.6101096 0.05237761 -0.20395523 0.9194206 -0.814014 -1.4104319 -0.097182155 0.1943647 1.0606632 -1.2018999 0.017012332 -0.76429945 0.050825253 -0.4238026 -0.39461863 -1.2650074 -1.6062165 0.580661 -0.81311333 -0.70331043 -1.4825433 0.45099157 -0.9503477 0.38180164 -0.6179685 -0.49654233 0.073590145 -1.0527399
79 0.14740792 -1.4804792 -2.6289444 -0.80090827 0.20880142 -0.5207852 2.7066104 -0.65126085 -0.6649638 -0.1096112 1.158879 0.5185579 1.38787 1.5798113 -0.28310803 -0.30980393 0.7087874 -0.07808068 0.8553759 -0.067727186 1.2419481 -0.10073762 -0.19221112 -0.4124383 0.9175272 -1.1262918 1.53282 -0.9255711 -1.4273083 -0.7261078 0.011837333 -0.6958574 1.1538136 -0.67499757 -0.22687005 -0.9095826 -0.8907245 0.41178897 -0.43318728 -0.7867481 -1.8671235 -0.56461585 0.07529977 -1.063607 0.047800098 -2.1181915 0.1754414 -1.0880632 1.0446651 -3.8618224 0.7686569 -1.747854 1.3448093 0.202956 -0.53600013 -1.6321332 -0.5045777 -0.7049558 -1.6847457 -0.105349526 0.3466401 1.3972908 -1.5660442 0.45373428 1.2121843 -1.2877861 -0.21707201 0.004679753 -0.122122645 0.08824713 1.1518426 0.037482362 1.1576875 0.15059055 0.5439216 -0.47937462 0.020843847 0.9277244 0.5297939 -0.22941966 -1.5353401 -1.758393 1.4560316 0.34351194 -1.3965786 0.50890297 0.92368495 -1.0117817 -1.2883887 -0.70164084 -0.20379823 -0.59309936 0.28400564 1.3784217 0.7844802 -0.53460044 -0.26313815 -0.88041395 -1.0488551 -0.40994155
80 0.058850728 -0.5600622 -0.03129292 0.8015413 -1.6601803 -0.04001991 0.36485493 -1.2248913 -1.5228946 -0.35131514 0.09832766 0.335828 -0.49481568 0.75607365 0.642791 0.2668071 -0.2875088 -0.0650267 0.018544093 -0.5581211 0.5636245 -0.049121737 -1.5982866 0.52599406 -0.70500976 0.8220545 -0.34025502 0.0030169957 1.9607583 0.8709665 -0.008053174 0.6710723 -0.15100764 -1.6266713 1.4321347 0.51202524 0.9774661 -1.0310507 0.24664353 -0.10236582 1.2301307 -0.815223 -0.19740918 -0.7246205 1.1931531 0.079301946 -0.97698665 0.6861244 -1.4201303 -0.3925318 -1.6886348 -0.34621105 -1.4531783 -0.4834441 0.31884626 1.8699265 -0.8229463 -0.4020991 1.8569725 -0.9110208 2.0430999 -0.11864608 -1.1032423 -0.71929586 -0.70315063 0.3372208 0.23490697 -0.14405382 -0.39318416 -0.8243539 -0.9843121 0.09330456 -0.8006199 1.7073 -0.09812588 -0.16043691 1.9905511 0.018360509 -0.8019561 -0.25971955 0.18615264 -1.2281481 0.2475137 -1.4098792 -0.63513625 -1.7273704 -0.5470698 -1.0323678 -0.27136743 -2.1056123 -0.94112813 -1.6421347 -0.2282366 -0.7321274 -0.6231491 -2.2278252 0.7980047 -0.62274104 0.77192396 0.37109914
81 -0.9700724 -0.15051171 1.1584687 -0.70779294 -0.020050162 0.08103665 -1.0758611 -1.0919113 0.7435895 0.7390018 1.1203281 1.8856715 1.0635736 -1.0691652 -0.7254237 -1.0277238 -0.872724 1.0787891 0.19467065 1.5779861 -0.5048905 0.019864434 -0.6116914 -0.40965793 0.18783204 0.08879273 -1.1388714 -0.66673684 2.1752644 0.48242095 -0.6362956 0.53993773 0.2517301 -0.06949592 0.95534295 -1.9873805 0.60731167 0.620776 -0.8042442 0.8114919 0.5395018 1.2054353 1.1180387 -0.1432632 0.7089805 -0.92170036 -1.051099 -1.3142642 -0.7741423 -0.52522874 0.3747339 1.2520696 0.846131 -0.45083168 0.91974175 -2.0669396 1.7579615 -0.87362295 0.9402288 -1.9260287 -0.25548986 -0.43009594 -0.50954765 -0.3819165 0.8197973 -1.9615858 0.49498424 0.67778724 1.5697788 1.0077673 -0.67689794 0.11828115 -0.013033497 0.34981167 0.3367329 0.096294984 0.27254537 1.157658 0.7555618 0.6919319 -0.25814226 0.90640414 -1.9157768 -0.91079926 -1.7047746 2.0154207 0.052019577 -0.018268546 1.6511768 -2.2214932 0.048503604 -1.4950116 1.7975162 0.21295932 1.4507426 0.6657373 -1.2819691 1.1632878 0.07633847 -1.13814
82 -0.0191871 -0.43285918 1.0927786 -0.14767934 -0.2945703 -1.1625407 0.7875765 -1.0729214 -1.7682245 1.5902177 1.0970116 0.5678212 0.18866569 0.7186864 0.3689948 -1.5865148 0.025268817 1.9743745 -0.0128701255 -0.16476908 0.18290022 0.18113068 0.307461 0.3576477 -1.32711 -0.18126193 2.0307488 -0.05122696 2.1634707 -0.81418484 1.2109076 1.7954329 -0.66763395 -0.20187762 1.5042831 0.05081221 -1.4423106 0.35172933 0.34588566 1.0939332 0.27922422 0.9410356 0.1204344 -1.3699013 1.2053598 -0.3983823 1.7963761 0.8901308 -1.7317053 -1.4888419 -0.023259945 -0.08374115 2.2867553 -1.5858861 0.059279826 -0.74330664 0.82364935 0.27029848 0.72685635 -0.30596688 0.27698907 1.2192833 -1.2055395 -0.20912485 1.950068 -1.6478772 0.43991184 0.40169096 0.5355743 -2.388611 3.1538463 1.4585177 -0.36713526 1.382789 0.21443316 -0.15587637 0.8796882 -2.3714821 -0.3726374 -0.14398642 0.25237617 -0.71262825 -0.47764483 -0.62363 -1.471675 -0.12454158 0.1454147 0.6528658 0.23096624 -0.7717611 -0.4613882 -1.1524554 -1.376609 -0.2967568 -0.9207349 -0.21497726 -0.44732314 -1.5095072 0.19167234 -0.64100397
83 -1.1304023 -2.7423458 0.01526698 0.38170445 -0.5983809 -1.1393386 0.3011886 -0.11337803 -1.08696 0.22110881 -1.6708276 -1.0349994 -1.7997408 0.3286912 -0.65027887 -0.31675893 -0.18755579 0.75465494 -1.5960119 0.91255105 0.3274976 -0.50254923 1.0186098 -0.9012271 -0.50938886 -1.4895436 -0.5453001 1.1596028 2.1518872 -0.057579633 0.62464446 0.016183466 -1.7547951 -0.7796651 -0.8946052 -1.9135532 0.09396688 -0.4444547 0.45861644 0.3027346 -1.6160504 -0.32808855 1.7717648 -1.1386206 -0.06591407 0.22854242 0.019428866 0.88671786 0.62194663 -0.8745713 0.89065504 0.41248438 2.2459483 0.22873294 0.13015161 0.66245365 -0.15973972 -0.1143635 1.454865 0.16462855 1.8391801 -0.22464415 0.10342052 1.4456285 -0.16049787 -0.1762454 0.9282293 0.34845763 -0.8170847 -0.5741525 -1.6100504 0.42884436 -0.89962626 -0.28361163 0.53938097 -0.09921154 -0.03734076 1.2846792 0.9404241 0.95571554 1.3085121 0.49139413 0.98768485 -1.237521 -1.8759156 -0.56767154 -2.0823958 -0.43017775 -0.50567716 -0.18237731 -1.6832659 0.12830356 1.0269362 -0.9183479 -0.56809705 -0.38889527 1.1281033 0.17257716 -0.76869595 1.2917721
84 -0.7368064 -0.5850384 1.3220764 -1.0945591 1.774011 -1.0013881 3.0836163 -0.15653278 -2.2325573 1.6500231 -0.2210723 1.0573561 0.85036284 -1.1279322 -1.0747921 0.83862877 -0.65119106 1.012883 -0.72960305 2.2509656 0.058261286 0.26870355 -0.26788527 2.8644574 0.17467639 0.3277952 0.32675144 0.6382181 1.2196842 1.8855616 -2.132435 0.4404928 -0.065472834 -0.36378857 -0.236831 -0.3482105 0.63329077 -0.0019889562 1.6316098 -2.0919607 -1.2780924 0.938726 -0.67532665 1.0435992 0.4630807 0.08511364 1.3016764 1.1768812 0.18420857 0.1857517 0.32243302 -0.9818733 0.64520967 -0.13064149 0.72288126 1.1613816 0.051804755 -1.2463316 0.97289354 -1.787435 0.1720061 -0.46050438 0.5371243 0.71170735 1.4302939 1.8249633 -0.6761631 -0.98126954 1.521054 -0.5332035 2.148117 -0.1261245 1.8937048 -0.5529726 -0.64444476 1.4069875 0.7531522 1.1721894 -0.6888233 -0.018711265 0.958149 0.36238077 0.37494135 1.1617378 -0.9278124 -1.4858618 -0.4108286 -0.5600999 -1.5044625 -0.9787657 0.5421798 -0.2523758 0.68685514 -1.9428266 1.3240563 1.2829589 -0.35214743 0.9764549 -0.24758628 1.7509086
85 -0.245859 0.24580754 -0.5790491 -0.870134 1.439139 -0.25382018 -0.08968665 0.23447497 -1.8222144 0.9199036 0.35798854 -1.0371643 -0.91580415 -1.5591629 -0.28192976 0.62509537 0.59341264 -0.08804568 0.20493044 0.5190638 1.7166166 0.66863835 -0.38729474 0.0011295463 0.023589784 0.4072237 1.6130404 -1.1538821 0.07818372 1.6693841 0.36963946 0.71373916 0.9709345 1.5332401 -0.28932157 -1.0518445 -0.2733394 1.4552271 1.2270076 -0.1965865 -1.5551127 0.57094437 0.98617315 -0.61470425 1.6729386 0.8736912 -1.2531418 1.1424115 -1.1128196 3.1586268 -2.150885 1.6905025 0.25991765 0.3392049 0.44269034 -0.0981438 1.4679586 1.5097891 0.101698734 -0.3235106 0.03214289 0.21707258 -2.1619425 1.7051564 1.9776667 -1.1742601 1.217156 0.8910043 -0.6535312 -0.9287023 0.19018146 0.7338343 0.53137225 -0.9875828 0.35037237 0.78713834 0.6858592 -0.6406149 1.573058 0.7898749 0.5980904 -0.3986583 0.98444015 0.37938583 0.41181403 -0.59038806 -1.619992 0.026866984 -0.92214555 -1.6524407 -0.25548247 -1.4150751 -1.6788217 -1.3520861 0.79311705 1.0322186 0.35458964 -0.6293483 0.31120422 -0.9193303
86 1.603176 -1.628429 1.0480452 -1.8835504 1.5975261 0.3092324 -1.1119517 0.46866283 -1.9580681 0.9914343 0.642961 -0.20543328 1.2600787 -0.97674036 -0.11665533 -1.7470764 -1.1513982 0.23631646 -2.384621 0.2737187 -0.36354038 1.4484886 -0.31687367 -0.79648143 -1.1044569 0.42530802 1.0341249 0.17505272 -0.9947485 1.0740947 -1.013635 0.18461315 -0.925225 0.11178082 -0.17431596 0.21480519 1.1040926 -0.4714801 0.9470887 -0.968222 -1.0790017 0.6964092 1.0731755 0.18645634 -1.2772349 -1.0103985 0.29237634 -0.30856508 -0.22425409 -0.3006766 -0.039979797 0.31375968 -0.018605866 0.14962006 0.74593425 0.6846006 2.486258 -0.8214655 1.0629346 0.37007317 -2.0254784 1.9176167 0.21160305 1.0540205 1.2866546 1.4830704 -0.229885 -0.9167845 0.4658123 -0.43582413 0.6017875 -1.7897705 -0.015547561 -0.5992021 -0.16178504 0.47261465 -0.7095128 1.2561322 0.29123843 0.21634126 -1.3496789 -2.2396617 -0.43418956 -1.9442751 -1.2599379 -0.896929 -1.1721903 -0.6991807 -0.5850853 -0.3558011 -0.21141793 -0.5328527 0.4002255 -0.10077029 -0.28921184 0.40061566 2.1693683 0.0824044 -0.33820575 -1.2140001
87 -0.38490885 -0.3580695 -0.21789739 -0.82953274 -0.031923197 -0.84501284 0.70125365 0.8773469 1.2921714 0.48379022 -0.610467 -1.8884552 -0.52638716 -0.36669248 0.22379287 1.5603906 -0.050520647 -0.80515206 -1.302264 -0.25665537 0.23120683 0.23282225 -0.1833314 -0.4964085 -0.47988445 -0.7885954 0.514926 -0.7801298 -1.2577571 -0.9407058 -0.7216708 0.13923769 0.5103477 0.25801694 -1.2528236 -1.5551903 -0.105059065 0.17986402 1.190181 -1.0013977 -0.28491515 1.7442642 -0.100690715 -0.3297338 -1.168456 0.8479403 -0.7565002 -1.582349 -0.8451629 -0.63048345 0.48333707 0.7094745 0.014439713 -1.624187 -0.6116603 -0.38398618 1.214332 -0.7979906 -0.23205866 -1.0418037 -0.67021364 -0.1513665 -1.169888 -0.6340016 -1.8376201 -0.8856265 1.3745406 0.1712655 -1.1877451 0.09193667 0.10833726 1.1399767 -1.241936 -0.50960183 0.31556144 -2.0891068 -1.4363959 -0.85010314 -1.4046032 1.286354 0.10059326 -1.3316549 -0.42318 -0.72793275 -0.49451593 -0.072968856 0.65894324 1.6643553 -1.396877 -1.2424127 -1.1825731 -1.2890744 0.9061465 0.3423371 -0.6330225 0.16638584 0.5716569 -0.5339962 -0.53699476 -2.1044915
88 -0.6892668 0.94515175 -0.30010983 0.78633213 -0.4786074 -0.5887119 -2.4476109 -0.07570509 0.47155604 -0.42658746 -0.11436647 -0.5403286 0.07336163 0.554965 -1.1733197 -1.0861601 0.8375459 -0.022539392 -0.020171631 -0.68855023 -0.09402063 0.17630418 -0.4854773 -1.3432887 -0.6811057 0.608189 -1.8081328 -0.5047143 -2.0732386 1.8072034 -0.45819595 1.177846 -0.5787422 -0.24956219 -0.4064873 -0.93037385 -1.6457084 -1.1764253 -1.3866204 -1.5641167 -1.4084677 0.14076729 -0.81980175 -0.57863426 0.98246104 0.74031353 -0.70760316 0.8575968 0.002213387 -0.140383 -0.49910504 0.35855925 0.6135095 -1.5064265 0.1952799 0.0046372726 0.639087 0.36545163 1.0368857 0.31669825 1.1709551 0.41265875 -1.1350044 -0.39796263 -0.029300407 0.7557352 -0.14310889 0.6717953 -1.3451105 -1.6562384 -1.1093414 -0.448526 1.2516645 0.6522612 -1.7189491 -0.7012981 -0.2102888 -0.11750907 0.74907464 0.14953528 0.09137589 0.124036096 1.4929224 0.14188963 -1.7221756 -1.0693511 -1.3053162 0.60415304 -0.76725644 -1.8055662 -0.06618889 1.2253486 -0.83633286 0.62738883 -0.2492813 0.10675229 -0.52086335 -1.425916 -0.2879624 0.9190875
89 0.40733394 -0.91135883 -1.3997844 -0.5966949 0.24957997 0.9988132 1.3229152 1.0101719 1.3226665 0.9461715 -0.74671346 2.4643443 0.852982 -0.66619676 -0.28600067 -0.8045734 0.3908572 0.2670058 -0.14858642 1.3810918 -0.59094393 -0.5629755 -1.0589001 -1.452794 -0.620529 -1.8403771 -0.68618745 -0.06481559 -0.5545783 -0.48974264 -0.9633155 -0.63978046 -0.40913737 -0.9070469 -0.92952794 0.71113616 1.2376004 -0.20945685 1.1042867 0.012951066 -3.312976 0.9113133 -0.53528 -0.7838044 -0.7246784 -0.47122106 1.1361916 -1.4699448 1.2272577 0.75516754 0.9401587 1.6333827 0.72822374 -2.1084611 0.71014524 1.7265152 -1.3584659 -0.61425424 -1.464124 -0.07469743 1.297536 0.9778797 -0.53274745 2.1788843 -0.6122186 0.18652321 -1.2570077 0.33172128 0.7086696 0.93426657 -1.6471846 1.5112046 -0.83917344 -1.1132488 3.0678465 1.179265 0.8997055 -0.2492284 0.1578223 -0.7696413 1.1340466 -0.5912695 -0.76668173 0.3033321 -0.8813918 1.3213421 -0.23545949 -0.6133334 0.94075334 -0.75923425 0.1600084 -0.12538862 -0.1017824 1.6022786 2.4329567 0.42127183 -0.50075483 0.07719966 -0.119393565 -0.8091186
90 0.7202128 -2.2543864 -1.288725 0.71950096 -1.2067584 -0.9504646 0.11947164 0.9800086 2.0005178 -1.8320111 0.9567125 -0.8461405 -0.78699535 -2.2679157 -0.8233857 0.5070842 0.32242408 -1.1368119 -1.7218729 1.5729564 0.033613462 0.76241547 -1.7943311 0.23520729 -0.013160487 -0.2145002 0.5266231 -0.65549964 -0.8176098 0.8720389 -1.4588491 -1.6772394 0.96795166 0.3743598 0.67481613 -0.8593091 -0.02373851 1.4824667 -0.8563052 -0.10778401 0.2508632 -1.7774146 0.8154671 -0.13201518 -1.160264 -0.33209094 -1.6390932 -0.5900074 -1.263346 -1.5250816 0.18591677 -0.07392599 -1.2418945 -1.0016476 -0.2932504 0.5861623 1.4139066 1.3845702 1.1364976 0.6155059 0.43269724 -0.06669118 0.806018 1.1760472 2.876868 1.0603249 -0.5026043 1.8808099 0.27068081 -0.8955742 -1.8439605 0.2680075 -1.7906849 0.3851293 0.8643829 -0.23083073 1.1714556 -0.16818425 0.3856752 -0.7981639 -0.19906671 1.1488758 -0.3380095 -0.7922521 0.3122752 0.5433464 -1.1787887 -1.026937 -0.42243266 0.22223122 -0.24964602 0.7336503 -0.7655849 -0.47799835 0.5624712 0.75842243 -0.4177703 1.3899319 0.542745 -0.14017202
