100 100
0 -0.6455415 1.274147 0.7872851 -0.5051741 -1.1056259 1.6239735 -0.9940491 0.164505 -0.17546399 1.5566595 0.6063174 -0.19639109 -0.9997073 -0.24839462 0.24588136 0.31810066 0.18537126 -0.5392629 -0.39767757 -0.1646623 0.34659785 -0.40916714 1.8527193 0.9814798 -0.49570808 1.3568563 0.9506404 -0.8845941 1.2464927 -0.06646592 -1.24878 -0.5431335 -0.39898482 -0.46657127 0.47316116 -1.0081707 -1.7997375 -2.959049 -1.1120863 0.026061945 -0.945141 0.6126301 -2.0369003 0.8002584 0.5287788 -0.68192506 -1.0947391 0.8654928 0.6685306 -0.58990735 2.3354225 -1.2440373 -0.48064512 1.2650894 1.9590123 0.4959494 -0.9585802 -0.80351853 -0.08091613 -0.05922035 -0.4770542 0.24003536 1.2482742 2.845258 1.5490336 0.50930184 -0.1513281 1.194966 -0.16247813 0.53211284 -0.17757104 2.160823 0.3657547 0.56180966 -0.17518607 0.29752436 1.4082949 -2.0931804 0.38425583 -0.8643925 0.26828676 0.6985241 0.5699318 1.9535241 -0.91190124 1.4769781 -1.2836909 0.8172474 2.7775807 0.9817861 0.6449035 0.2664113 -0.055010054 0.27057588 0.23884676 -1.3556838 0.40927106 -0.07855614 -0.042143423 -0.49389136
1 0.21507423 -1.2159128 1.546879 1.980652 -1.0657521 -1.265337 -1.134608 -0.10749654 0.23650917 -0.33921537 -0.39213586 0.23265763 -0.071060814 -0.8630909 1.195345 -0.32845858 -0.09375429 -0.3672973 -1.6751405 -1.032885 -0.5078495 0.24070823 -1.3015988 -1.2827928 0.3795284 0.35060424 -0.508731 -1.0910271 -0.6334624 -0.3587572 -0.29691488 -0.37351602 -1.5723906 -0.3851129 -1.5330513 -1.1477411 -1.1345404 1.1983974 -1.1284534 -0.16866076 -2.7135758 1.6922035 0.400361 2.1191883 -1.2619627 1.2440478 0.07985281 0.81141317 -1.3445733 0.2974092 1.853331 0.6536084 -1.3367842 -0.7327349 0.2734795 0.7770039 1.119107 0.53298783 -0.10665167 -0.28507861 1.233791 0.63204604 0.29735696 0.15248881 -0.39303067 -0.116785355 1.3596188 -0.22828233 0.89910936 -0.6264299 -0.8244832 0.24359827 -0.16611059 0.23987004 -2.5683603 0.30320185 -1.547373 0.7017051 0.6337169 1.6303825 0.3085136 0.051745996 -2.2024267 -0.9834957 -1.1101127 -1.05099 1.3980973 -1.2231755 1.2130466 0.6846664 -1.3929077 -0.3533014 0.63028336 -0.05906753 2.2250128 0.5083509 0.64859927 0.6729022 2.112254 -0.18322296
2 1.0847063 -0.5447679 0.89206135 -0.93699545 -0.6523333 -1.2486784 0.4113341 -0.38379636 0.41725674 0.98147243 1.2914613 0.33880323 -0.7758935 0.5657623 0.55622524 -0.7542292 0.06588461 -0.33652568 -0.3553638 -0.46314383 0.732713 -0.9767622 -0.16481082 1.4172685 0.046573758 -2.6897504 1.4719576 1.2637726 -1.8221831 0.1269473 -1.2214762 -0.06837087 -0.41572276 0.7025283 0.95409685 1.7370849 1.1762737 0.3314296 -2.280208 -1.3496917 0.40016076 -1.0336206 -0.05419034 0.2290798 -0.80681896 0.15000983 -0.6165812 -0.20464318 0.25520164 -0.44817495 0.46420845 -0.3043715 -0.010818697 -1.0974771 2.4230506 -0.2356101 0.21280877 0.21227743 1.1999787 0.7850984 -0.74862385 -2.6373494 0.8713096 -1.0533675 0.18439624 -0.45125356 0.48187527 0.49448666 1.2421294 0.1783375 0.33250147 -0.38997337 0.17740563 -0.4619119 0.7507949 -0.5952576 0.17463341 0.50587475 1.413584 -0.9391424 -1.1964358 -2.340796 0.6979532 -1.881041 -0.4663144 -1.3756431 -1.1557368 -0.517316 0.038933575 0.2885439 1.4328216 0.7535462 -0.8717075 1.0204196 -1.3078909 0.40464166 0.30452833 -1.5963582 0.98434776 -1.8396143
3 0.620038 -0.010819686 0.48394608 1.642937 0.42284843 -1.0086786 0.87631834 -0.23688224 0.54780746 -1.5116575 0.724469 0.18018027 -0.53010887 -0.93644524 1.2730898 -0.24480118 1.0136142 0.620336 -0.87593865 -0.9951026 -0.546099 -1.2358826 -0.57021 -2.3947062 1.4189056 1.3682789 0.42585987 -1.2735684 -1.50117 1.8689438 -0.11009381 -0.2450232 -0.08450842 -0.22407502 1.7903603 0.10535568 -0.72530526 -0.6853814 1.4941475 1.2717843 0.9341606 -0.7273961 0.89655405 -0.17383282 -0.972638 -0.33326933 -1.4447712 0.37593922 0.43133387 -0.67877436 -0.9652516 -0.19656554 1.5514826 -0.486346 0.14560819 -0.41451654 0.022439048 -0.87797445 -0.71096903 -0.011828425 0.035279345 -0.96261007 0.9131876 0.34793758 1.8294741 -2.06068 0.065887116 1.2249897 0.24765992 0.85936004 -0.6543524 0.09104303 -0.59739965 -0.31177986 -0.20203045 0.15826577 0.36763614 0.7219007 -0.17664064 1.1097394 0.017526144 1.9758096 -0.9912678 0.8986025 1.0290766 1.5770445 -0.318259 -2.226128 -0.441787 1.7633009 1.2854201 -1.9183084 1.7571172 -0.45264426 0.82967156 -0.8431598 0.39295456 -0.73961556 -0.618196 0.06712975
4 1.0362706 -2.6156745 -0.0097978115 2.4317918 2.1775625 0.9419435 0.8326719 -0.80604166 0.7074199 0.5189028 0.2808455 -0.46761414 -0.3558583 -0.21419674 0.91890556 0.26301196 -1.0222294 -1.323174 0.9737297 0.51448005 0.8989433 1.2226932 2.380802 -0.8587063 0.06899092 -0.72841847 0.3296677 -2.0642712 -0.29516926 -0.70503503 1.0103215 1.3141183 0.78072906 -0.38777745 4.159859 0.571757 -0.22793181 2.2798867 1.9516873 1.0618386 -0.82217085 1.6869074 0.06735999 0.8255419 0.9308556 0.33395556 -0.3344253 -0.44345436 1.1554976 0.9636681 -1.0614221 0.020542288 -0.3759077 0.58991325 0.68643534 -1.47613 0.41912383 -0.9540948 -0.27647674 1.2000363 -0.49145487 -0.32349777 -1.2858537 -2.0071197 1.1165851 -0.45265257 -0.25507814 0.9173795 0.90186405 -1.2926987 1.411912 1.551903 0.080996685 0.32428125 0.555758 0.21431217 -0.8499022 -0.9159789 -1.8493868 -0.9743483 1.2601503 0.6418905 -1.9096371 -0.9002012 -0.309927 0.1304137 0.058096964 -0.09757811 -0.13818881 0.1014276 1.379592 -2.0106504 -0.86722416 -1.0895853 0.25664774 0.3591833 0.48344982 -0.47176704 1.2416618 -3.2029557
5 1.3868191 0.61596906 0.116344176 -0.36813733 0.31906128 0.36843866 1.2000706 -0.34486434 0.5634558 -0.2283752 0.016361993 0.32687762 -1.3823427 0.6447447 -0.94571835 -1.2774957 -1.1560148 -1.4953579 -0.0698335 1.7826068 -1.1384706 -0.74094194 -1.6319096 -0.5011574 1.9712424 1.914861 0.010969759 -1.3625247 -0.13846192 -0.56446683 0.31652573 -1.5223635 1.7413919 0.36554095 -1.3291676 -0.1740483 0.7139978 1.570459 -1.2195685 -1.7730514 -0.59948176 -0.24869592 -0.66045433 1.1359829 0.44863978 0.8216746 -0.37937722 -1.4529229 0.75214696 0.8163917 0.75372314 -1.0565796 0.19434747 0.4589662 -0.20215416 1.1671973 0.028091626 0.4868101 1.3573241 0.47457558 -0.96244425 0.16674969 1.6884388 -0.80628926 0.74768203 1.0640955 -0.5527598 -0.56002665 0.5917227 -1.0020356 -0.42372435 0.054115154 1.56185 -0.56982523 -1.3114898 -1.2774364 0.92147064 -0.6675836 -0.42784864 0.25242114 1.9419601 -1.014551 -1.3475665 -0.5256486 0.7894468 1.9133618 -0.23770237 1.3894624 0.4776038 0.30714166 0.85445404 -0.10556321 -0.31837308 -0.28002366 -0.0013653978 -0.10702011 0.2288842 -1.5469815 -1.9168234 0.69000244
6 -0.40391546 0.20944661 0.32042527 -0.42863676 0.77019095 -0.30540532 0.45521787 1.9773388 -2.1207566 -2.0754726 -0.36553878 2.703802 -0.116190836 -0.016118059 1.5304586 1.424201 0.070465244 -0.00076568546 -0.69396466 0.14148283 -0.73371303 0.09546533 0.8491482 -0.71067584 0.08296313 0.048294 1.116515 1.4105998 -1.2189257 -1.1097323 1.7359338 -0.8295043 0.45200875 0.13746656 -0.74624103 0.65675735 1.3832061 -0.8998901 0.26506147 -0.052747823 0.75669634 1.9835066 1.3816143 0.28364304 0.17608264 0.46026078 0.9596766 0.21779846 1.1105301 0.5350485 1.0322694 -1.2056459 -0.5012889 2.0163443 -1.1016778 1.8075038 1.5004073 -1.2026582 0.64787483 -1.6873358 -0.44290096 -0.98987836 0.5729487 0.27117974 0.61505914 -0.8357682 -1.2831262 -0.75773644 -1.410991 1.1998755 1.2568341 0.18687633 -0.46127027 -0.45535216 0.3216587 -1.1760331 0.36662632 0.5595509 2.3672345 -0.020800745 -0.512837 0.46557334 1.7967356 -2.1596506 0.6812715 0.22104533 1.5188357 -1.2684205 1.1821244 -0.016290866 -2.6469882 1.2448223 0.8555372 -0.90351474 0.3219898 1.8263311 1.1603221 -0.29871795 -2.7325325 0.37766314
7 -2.0368419 -0.58034766 -0.86884797 0.31937212 0.30599815 -0.65538037 0.39770293 -0.13413894 2.8868387 -0.020967057 -1.7181152 0.4821735 0.052381333 -0.2021313 0.38811812 0.060628336 0.2650367 -1.6896164 1.1204069 0.22892897 -0.97521746 0.04524108 0.53338796 0.76899797 0.63332015 -0.5110654 -1.1826925 2.7052214 1.3985329 0.17476094 1.7232763 0.43001333 0.2951888 -0.26689866 2.3140578 -0.38669044 -0.3184906 -0.08178576 -1.1824526 0.5746639 -1.5506152 2.1852288 -2.1937864 0.11388201 0.17849824 1.1414354 0.45526716 1.6534787 1.2960913 -0.74268275 -1.0749002 0.612044 -0.7361641 -1.0356579 1.381856 0.90253544 0.48283145 1.8058298 -1.235637 0.6231153 -0.6775472 -0.74668676 1.2020602 0.4052269 0.6119709 -1.145005 -1.07792 -0.8429732 0.23718172 -1.3101313 1.2386681 -0.8864226 -0.82062685 0.083477065 0.6497016 0.4835675 -1.761273 -0.7506137 -0.21267372 -0.4813737 -2.0357733 -0.2882016 -0.23138091 0.76798266 -0.8892305 -0.72406614 -0.51957417 -0.80688703 -0.064403 -1.0367814 0.8229174 -0.26900008 0.39431122 0.90392673 -0.11914315 -0.73684937 0.51323545 -0.6018731 1.0848653 0.28384894
8 0.8460436 -1.0222304 -2.0356417 -0.741011 -0.20089665 1.8594942 -1.5332149 -2.986218 0.6824298 -1.0564291 -1.4021306 0.9421834 0.66038376 -0.22611168 0.7435657 0.37034258 -1.1254257 -0.861599 0.13694994 1.8056347 -0.51212543 -0.56275827 -0.6484669 0.49950263 1.2538835 0.27849323 1.1862675 -0.11719182 -0.48472068 -0.24043049 0.66993093 0.6558005 -1.3991036 0.34252104 0.34183115 -0.7647513 1.1458254 0.10503602 -1.4788841 0.84195286 0.73108536 -0.1631756 0.33784625 -0.20844775 0.3901179 0.039711524 1.185268 0.2437315 0.69936836 -0.12645027 0.8714769 -0.63536906 -0.07849229 -0.14154084 -0.6370904 -0.74377567 1.3447795 2.540384 0.0495797 0.5521793 -1.7402493 0.9316302 -1.9293683 2.6736503 -1.2070946 0.122081086 -2.2470982 -2.1349328 -1.0337951 0.46568272 -0.26481086 -1.4426336 -1.2382418 0.8121275 -0.41251355 -0.6467127 0.32315144 -0.1095671 -1.4647609 -0.7833541 0.94948393 0.23821305 1.1660348 0.88450044 1.5982659 -1.5188085 -0.60547626 -1.5776119 0.2883428 0.5056086 0.16395967 -0.96646756 -1.0412598 -1.3572938 -0.86034566 -2.8479605 -2.958046 0.3872118 -0.8172957 1.6391575
9 -0.74423695 -1.2865806 2.2483146 0.10434089 0.7430491 -0.33137015 -0.011892539 -0.3799271 -0.7971192 -0.80820906 0.56081796 -0.11585148 0.0773114 -0.42556345 -0.28941238 0.44460216 0.3620625 -1.6578597 -0.53092706 0.97987765 -1.3157051 1.178641 0.11466911 -0.32162878 1.6658181 0.4236304 1.417339 -1.3828537 -0.8133043 0.2051545 -0.46525696 -0.8154198 0.5988015 -1.3481468 -0.39053738 -0.8412907 -0.082815364 -1.1348208 -0.6522809 0.059571296 0.1367862 -0.43927744 0.8955432 -0.32829055 1.5346887 -0.41344553 0.9958519 1.0639137 0.34461576 -0.7518974 0.5506443 0.8081042 0.27672306 -2.4527593 0.017329173 0.027572062 -0.4941287 -1.3123249 -0.036462795 0.031087141 0.22989397 0.75779986 1.1676638 0.08461517 -1.0644768 -0.3705074 0.9086606 -0.27826282 1.6599239 0.42417106 -0.6022352 -0.0839676 0.645108 -1.0416707 -0.70198095 0.8285775 1.3682235 0.44682655 0.78363925 0.5096053 -0.41982907 -0.088817105 2.0256531 -0.9995473 0.52335906 -1.1401434 0.22285125 0.47895116 -1.0707489 1.2778975 -0.42667973 0.93315834 2.0695384 1.1528441 0.35687217 -0.44583023 -0.34727153 0.40792853 -0.09193102 1.872876
10 0.028630868 -1.2097843 1.427024 0.43647444 -0.6345496 -2.2959328 -0.68024683 0.6507971 0.025937103 -1.2916731 1.3107855 -0.823249 1.0687727 0.6646916 0.59897685 0.40319145 0.5323687 0.3175157 -1.9904575 0.45453933 -0.17173776 -1.6128886 -0.77165097 0.7719404 2.0005221 -0.6019456 -1.3616029 0.0830877 0.45042932 -0.54228306 -0.84428984 0.85821843 -1.0163952 0.3581841 0.34105775 -1.0966481 -0.21362603 -0.23044385 0.4733677 -0.21330024 0.608555 0.81581265 -0.2967679 -1.6082306 1.0689617 1.3525475 0.19682302 -0.08349249 0.4672379 0.8973397 -1.0686761 1.0232972 -0.16639659 -0.049744204 1.2368734 1.090355 1.0574485 -1.465899 -0.69902277 -0.7538672 -0.07140057 1.3956192 0.4878793 -0.42711088 -0.6351885 -0.7090971 -0.48905224 0.86039615 -0.18249862 0.973248 0.038304426 -1.2295856 1.0773287 0.92738444 -0.30223662 0.25213775 0.34455112 -0.6239351 0.23693947 0.7963128 0.047284808 1.4840539 -0.10755901 1.698176 0.2964143 -1.4854017 -0.10822736 -1.6382556 -1.4730852 -0.6145973 0.01786997 -0.25216797 -0.64338315 -1.3929062 -0.087418415 0.21260116 0.8033318 -1.8373119 0.6472897 0.7505653
11 0.59239274 -0.46920815 -0.26347157 0.27564114 -0.6643091 -0.29150403 0.34971413 -1.2974535 0.57014906 0.19631615 0.6874143 -0.8312412 0.14934383 0.34592927 -0.55212533 0.047382604 0.8444066 -0.51281613 -0.35737288 -0.8226581 0.9582791 2.0917811 0.30961108 -0.41556144 0.70350313 0.7113328 -1.5367733 0.44983202 1.3829826 -1.5357959 -0.09342805 1.0277908 0.86046827 0.2587509 -0.0187158 -3.1057138 -0.27438536 -1.600668 -0.6999858 0.22386841 -0.98232806 0.61889106 -0.13948534 0.22262856 -0.08127078 -1.1446911 0.7363253 -1.1069971 2.720526 0.84487844 0.01554822 0.3814055 -0.9188148 -1.7256602 1.5520859 1.1870505 0.04981302 0.8644542 -0.31883317 -0.26947623 -1.2406495 -0.9500158 -0.032211687 0.26182064 1.5310904 -1.7286334 -0.4599977 0.14321722 0.43617108 0.7733822 -0.544017 0.8931268 0.7323667 -0.035949446 -0.23781335 0.308365 -1.1048669 -0.64391476 -0.19588192 0.43277487 1.1729407 0.40473494 -1.2874638 0.1390624 0.40914723 -0.05253863 0.5916985 1.5613718 1.6623894 -0.9263265 0.7515898 -1.0799838 0.87323546 -0.30234426 0.67769444 0.16106313 -1.8537205 1.9054838 -1.1209261 1.3718551
12 -0.24471173 -0.5476279 0.22379294 -0.048721895 -0.104346074 -0.9276912 -0.5860276 1.7230885 -0.45199522 -0.66084254 1.1753314 0.50018644 1.448436 0.485521 0.7292778 -0.19682744 -0.27886218 1.0693994 0.38743052 -0.8652997 -0.39950895 -0.027882326 1.5835887 0.37334645 -0.33353195 -0.21037987 -0.40989894 -0.75870705 0.35418576 -0.02673348 -0.059704643 -0.7303461 -1.0404612 -0.41510877 0.14284788 0.17014614 0.92594415 1.556758 -0.7150174 -0.6250683 -1.2725116 -0.615293 -1.1152502 1.2277403 -0.2796696 0.45574751 0.025060922 1.4620705 -0.058192708 2.671147 0.66162777 1.2496177 -0.9399623 0.68909943 0.21278846 -1.2945175 -1.2005271 0.45961016 -1.1473992 -1.8407903 -0.049517322 1.0822576 -0.43099433 0.21655104 -0.5449938 -0.6025706 -0.022808084 0.7916299 0.36652505 0.5586327 -0.55443376 -1.6125156 0.53784245 0.17654768 1.6949512 0.18899728 -0.10180609 1.374824 -1.4816538 -0.9192512 -0.3473643 -0.4355283 -0.10216033 0.364224 -0.26793954 -2.0527532 -1.4662511 0.6073712 -2.434641 0.9900357 -0.4950046 -1.4336523 -0.7519626 -0.6361308 0.15254015 -1.2715826 -0.15714413 0.30792326 0.47897068 -0.7817532
13 1.0646559 1.1713368 1.4675416 2.8073533 1.1301 -0.869559 1.1104361 -1.5984831 -0.55102247 -0.50539196 0.7432574 0.31198737 1.5896751 2.2213335 0.2692281 0.8400895 1.1620259 -0.95453244 -1.0381199 1.1614839 -0.62817574 -0.32738173 0.8157282 -0.63455015 -1.9319997 -0.53576785 -1.9360882 0.47265625 1.421871 -0.58709884 0.14784972 -0.21921112 -0.17705865 0.77502406 -0.033901155 0.15012114 -0.100702964 -0.55591017 0.15696514 0.7260748 -0.72942525 0.04751385 -1.0750619 0.030658212 1.4383454 0.2984468 0.9159137 1.2799969 0.2973203 -0.4618099 0.15920986 -0.34857723 0.29934168 0.3445925 -0.71202236 -1.1343032 0.60161537 -1.2898965 0.7447049 0.57126606 0.18013838 0.05155849 -1.4912788 0.8393485 -1.026364 -1.430664 1.5248733 -1.4616848 -0.38508204 1.545505 0.03703182 -0.6231794 -0.12171777 -1.0220513 -0.44849548 -1.8672364 -0.26237255 0.41528264 0.98980576 0.9663032 1.5345023 -0.80714405 0.8338915 -1.5099785 -1.3794029 -1.3514075 0.5762669 1.658112 -0.8481621 1.3400822 0.43112862 0.31181067 0.10077189 1.0257599 -1.0113084 -1.3074625 1.1148875 -0.7070712 -0.48092505 0.34994015
14 -0.12246771 0.73689187 -0.22159734 -0.74408334 0.76087356 -1.604016 0.10461941 1.0552557 1.8664062 1.1981331 0.7071554 0.7861606 0.36587736 -0.5664548 -0.8851091 0.9606965 -0.82405204 -0.41883576 -0.16744584 -0.14194189 0.18119 0.15404211 -0.035708223 -0.24142984 -0.38045764 -0.6531712 1.9379851 -0.31337395 -0.90421885 0.3015742 -1.1673127 -0.5573468 3.092083 0.20411402 0.15886602 -0.84786403 -1.6370409 0.8820114 1.3308136 -0.21827284 -0.30796638 -0.24906912 -1.1266856 0.22794585 -0.18161152 0.318856 0.056964874 0.72633046 1.3125182 0.46851438 -0.31961432 -0.75136614 0.9332748 0.2983411 0.7943711 1.1593351 -0.2917132 -0.39122438 -1.4479384 0.8733265 0.18696085 -0.70587176 -0.7929931 -0.6374346 1.2257626 0.31151474 1.0308363 1.0977186 -0.44534668 0.057250842 0.605362 0.011533465 0.5780219 1.1150584 2.0524254 1.0634037 -2.6299295 -1.7149099 0.91740006 -1.1201885 0.33190247 -0.24343255 0.5675482 0.068063214 -0.6989589 -1.6175569 -0.55927354 -0.38823718 1.6544861 0.36049992 0.2571305 1.0525364 -0.8874213 -0.8332944 -0.78383976 1.1170144 0.188203 0.033845417 0.123568945 1.7382944
15 1.3820816 -0.10978396 1.4709023 0.13060005 -0.7539667 -1.3430707 0.4096086 -0.16568205 0.5930307 -2.2479918 -1.2568582 1.0346395 0.016935425 -0.7670161 1.4559561 0.8915144 1.3972801 0.35342664 -0.8726359 0.6719449 1.5519401 -0.047834504 -1.2091932 1.5281942 -0.7038996 -1.1447835 -0.4266038 0.71538913 -0.3213958 -0.80240935 -0.6063343 -0.38531837 0.30226687 -2.0536606 0.7010903 -0.90882665 0.8363416 -0.3127243 -0.15999275 1.3563203 0.67324966 -1.5419009 -1.9736819 0.106126465 -0.48699203 0.27223045 0.5573802 0.40438747 -0.18083979 -1.313655 -0.6463195 -0.68899524 -0.25931016 1.6592662 0.4193631 0.098532304 -0.2563721 0.5176774 -2.4252267 0.10703078 -0.13386169 1.4289992 -0.601542 1.2479339 1.8274435 -0.6629369 1.7196063 0.73549193 0.15032117 -1.1317724 0.41380647 0.0047532185 -1.9475181 -1.9438933 -0.89574236 -0.9195531 0.06375416 0.5548908 0.8827083 -0.4296097 0.5524348 -0.95163995 1.2100981 -0.2718546 -0.60143894 -0.48854953 0.008785634 -0.72134924 -1.6186589 -1.2032837 0.09168878 -0.41440895 -0.4770979 -0.5150827 0.6886272 0.15324405 1.3009888 1.7961615 -0.6948797 0.8272706
16 0.19687589 -1.6353942 -1.297014 -0.04636964 0.7696739 -0.41914406 -1.132407 -1.3150437 -0.61710304 0.4128713 -0.04950376 0.010681199 0.57274055 -0.031681966 -2.2806711 1.3216772 -1.9833181 0.6560422 -0.37806922 -0.62279207 -0.41327408 0.58956915 -3.118934 -0.5046646 0.22391346 -0.33253202 0.35006344 -0.11037 -0.4772041 -0.6986859 -0.14430654 -0.7562972 0.3636851 0.5408629 0.47324988 0.74659425 0.8040761 -0.027259316 0.56808853 0.17130499 0.5153717 -1.6484638 1.0864909 0.3597463 0.26993293 1.2072152 -3.5715885 1.2631943 0.7784699 -0.05278455 -0.6260054 -0.021275368 0.32784927 -0.18647447 -1.1375166 -0.29756767 1.9571606 -1.4363084 0.058546867 0.82779086 -0.0924524 0.060982946 1.6817255 -0.57115245 1.0412838 -1.1256416 -2.6335726 -0.59606266 0.35809258 -0.898797 -0.57759154 0.053682186 -0.28352383 -2.0466757 0.75605565 0.47223663 -1.7511692 0.67258835 -1.0819837 1.495923 -1.8343723 1.054387 0.08922086 0.920137 0.4605206 -2.0107033 1.459498 -1.2596717 0.015245281 0.88062537 -0.62325245 1.1718816 1.0999388 0.42164233 0.66667634 0.6911108 -0.8057525 -0.041730125 -0.9339113 -0.13037771
17 -1.7186838 -0.6374561 -0.94906044 -1.9481642 0.78135467 -0.74117965 -0.20405412 1.6515373 0.1989725 -0.23377787 -1.0127 -0.28557923 -2.242597 -1.4334109 -1.2309881 -0.2272951 0.91897154 0.26075175 -0.9993679 0.010785998 -0.08071776 0.74367946 -1.036792 0.55093247 -0.94912827 -0.8947224 0.1755583 0.95144737 -0.21913949 -0.72165936 -0.3283299 1.4786971 1.1045254 -0.7550813 -0.24224012 -0.107933804 1.225335 0.69223154 0.06780733 -1.6259285 -0.020528948 0.7064648 -0.83586603 -1.5565896 1.9238906 1.0079042 -1.5218866 1.4219462 0.8983806 -0.1131073 -0.58768487 -0.49180385 -0.55882436 -0.46733472 -2.1941671 -0.09269223 -0.24550016 1.0477114 -0.88514763 -0.4390206 0.12189916 -0.5761031 -1.7059002 0.6883083 -1.3280281 -0.4360503 0.42505723 0.76816946 0.2468678 -0.3363239 -1.3944614 -1.8316056 0.60672545 0.97084874 0.25833035 0.043118242 0.24207692 -0.029929707 -0.27788833 0.4974203 -0.90553576 -0.021129495 -0.45057362 1.251546 0.8957056 -1.6692057 0.05838418 0.049545437 -1.099544 -0.024144212 -0.36431077 -0.66178715 1.5658526 -0.95804685 1.0127752 -1.2358631 0.2734123 -0.3083552 -1.4659072 -1.7824376
18 0.42855683 0.47898477 1.4622228 -1.4698986 0.3280963 -0.14301968 0.7744067 1.3955976 1.587723 -1.0630956 -1.5879676 1.6095935 -0.21151586 -1.7343413 0.9255365 0.6539506 -0.59528565 -0.76783746 -0.752174 -1.0191303 -0.83438224 1.126499 -0.13196278 -0.3252251 1.2755592 -0.917697 -0.37815225 1.1376125 0.5219134 -0.69295573 -0.034578174 -0.18342169 -0.75914794 0.60634583 1.2871773 -2.5244017 0.97964394 1.3297455 -0.5431852 0.68890095 -0.012900657 -0.12490727 -0.71946806 -0.039663725 -0.7194621 -0.37170827 -1.0453593 0.813594 -0.56632555 -0.92622566 0.44385237 0.70617646 1.0546805 0.1762086 0.9943091 0.9552567 -0.15767036 0.9595054 0.0520813 1.6022671 -0.52813494 0.79924124 -0.2442271 -0.98529947 -0.38595274 -0.15059908 -1.0245072 0.23790447 -0.5569015 0.30228868 0.8274828 -1.0950567 0.7952513 -0.31625435 1.2614622 0.31768823 2.0763001 -1.1780921 0.2150934 -0.09898267 1.5433118 1.5620761 -0.32219622 0.7161696 -2.0059047 0.97266763 -0.26065207 0.9207847 -1.1810333 1.6239216 -0.25413397 -1.2150714 0.6476277 0.69613856 0.39490536 0.75918496 -0.52374023 0.10554593 0.13634479 1.1744492
19 0.41502285 -0.52845526 0.047127422 1.4768683 -0.9918716 -0.20677458 1.5046508 -1.6266652 0.92960995 0.9592947 2.1664343 1.6446198 1.888415 0.6708996 0.1556022 -0.4310575 -0.42489967 -1.7986754 -0.12597962 0.036251012 -1.96626 -1.6057397 0.8955761 -1.622188 0.16320619 1.7379872 -0.1760875 -0.34831315 0.10429655 -0.82525134 -0.075884044 -0.0135355005 0.009646154 -0.067329265 -1.4731414 -0.61191744 -0.094754115 0.9314718 0.250773 -0.1308396 1.5961998 -0.14233522 -0.30071196 0.9807862 0.48466825 -2.1966546 -0.6846052 -0.8991399 -1.2572815 0.13665552 -0.13873534 -0.18880348 -0.68688375 -0.53193593 -1.1475843 0.37906572 -0.83282673 -0.8451057 1.6521913 -0.4176047 -0.8730289 -0.15808193 0.82911 -1.6330818 -0.22396694 -0.83064026 -0.07835964 -0.3714424 -0.82469857 0.53726536 1.1239741 -1.6285273 0.098571666 -1.5923549 -1.7125374 -0.5326272 1.7342424 -1.2696054 0.20298436 0.65608716 -0.51066625 1.1956699 0.13362226 1.104579 -0.08299629 1.482113 -0.69287765 -0.8238871 0.59375244 0.43131912 1.1742697 0.08920515 0.6477747 2.1637516 -0.28024465 -0.651426 -0.37409472 1.6043795 -1.0826328 -0.38950163
20 -0.16982628 -0.93818027 -0.40896475 -0.8440518 1.545632 0.13375042 0.62537307 -0.6731498 1.00749 -0.07175703 0.25735283 0.082662255 2.0143473 -1.7595712 -1.1264225 -0.16070314 -1.6004398 -1.0363055 -0.21067232 -1.8463405 -2.3199003 1.0676714 1.1377369 0.44126886 0.60329247 -0.412161 0.72432625 -0.9731863 -0.102329955 -0.9295545 0.49567342 -0.597808 -1.3579342 -0.96894884 0.855132 -0.13991766 0.024952184 1.090073 -0.22457854 1.2100874 -0.81988966 -0.16137291 0.84133023 0.24345835 -0.50040877 -0.55345124 0.58139306 0.39159822 0.4278317 -0.06675375 -0.2989165 0.3422649 0.5071396 0.4728566 -0.24090895 -0.2355773 -1.4477074 1.2339376 0.23352353 -0.4907768 -0.74069875 -0.2103558 1.5504299 -0.49220112 -0.82046133 2.308388 -0.9017007 0.24110742 0.16406913 0.2547678 0.7817456 0.26398474 -0.20429902 1.1382134 0.37065956 0.06556762 0.24508996 -0.6051188 -0.00743191 -1.0697258 0.28199056 0.53211814 0.21744214 -0.01196818 -0.5917151 0.76979077 0.21093147 -0.20592031 -0.08118807 1.9211545 1.2153139 0.38442373 -1.335456 -0.18730651 -1.1328324 0.36954677 -0.24955298 0.048540547 -0.3583224 0.32048497
21 0.22521774 0.34848726 1.8208985 2.4122639 1.6574205 0.2725413 0.32688728 0.63043296 -2.1063168 0.5791495 -1.4695562 -1.6315037 0.5154538 0.13541181 -0.32814267 -1.3281652 -1.7670388 -0.18005376 -0.91359305 -1.3033575 -0.46928224 0.840792 1.568772 0.1190974 0.04885132 -0.5956893 -0.36801392 -1.1033509 0.49901944 0.7014021 -1.4995555 0.71126896 0.89756775 0.3825377 0.4862168 -0.30448407 2.1781833 1.1705598 -0.83560807 -0.18612246 -0.5800612 -0.091978244 1.2632331 0.122396745 0.4941872 0.5661612 1.6138035 1.0198089 1.2652344 -0.47131333 -0.80825907 -2.3198488 -0.14370036 -0.39708868 -0.40691286 -0.5674887 0.068338506 -0.5241946 0.06231489 -1.1034329 -1.2307771 0.38696352 1.2756919 -2.311683 -0.24312137 -0.29578802 -0.17001851 0.11061193 0.21867445 0.3048622 0.85551864 0.40017077 0.122645885 0.07850899 -1.4928812 0.01588878 1.5995978 0.7012576 -2.6221786 -0.20169328 -0.72601324 -1.0840062 -2.5914454 1.0422195 0.31685662 -1.9128598 0.51276356 0.96125776 -0.9499036 0.3853436 -0.20942627 0.76160014 -0.42491585 -0.27173182 0.94200414 -2.3326318 0.5990355 1.3686316 -0.7958214 1.0328628
22 -0.13743299 -0.7718144 0.051813096 -0.036088962 0.8683646 1.4731793 -0.10028574 -0.20512755 0.21615101 -0.4419887 -2.0882106 0.82156754 -0.16524665 2.2038922 0.05457596 -0.2464475 0.7251446 -0.14708194 0.74100214 -0.2900965 -1.0066618 -0.61890215 -1.6249952 -0.1440653 0.21586236 0.6692143 -0.5308248 0.50654376 1.4265946 1.5788225 0.88584363 0.30287197 -1.2766368 -0.122983366 -1.4098895 1.1286749 -0.71469504 0.7114553 -1.2401441 1.8295939 -0.34382328 -0.94542396 -0.6458237 0.096815534 -0.10165031 -1.0590794 -1.2698388 0.69777644 0.070955776 1.7634736 0.21023862 -1.6138424 0.6379781 1.1436379 -1.4548693 0.032830056 0.25592378 -2.6552415 1.223377 -0.49507222 -1.9495951 -0.0964974 -1.6590098 0.89963555 0.07272582 0.055688627 0.36982143 0.02465622 1.8331112 1.5574783 0.60684 0.71282756 0.31782287 0.35072646 0.0062410873 -0.050569065 0.25599185 0.4446187 0.09592617 2.293725 -1.6631505 -0.4167077 0.22016892 -0.33305538 0.5737039 0.16744117 -0.6985568 1.2647561 0.788767 1.1515863 -0.75251526 -0.5213913 -0.81482625 0.13096507 -0.32303038 -1.5009823 0.21641812 0.075140394 1.7007892 -0.97567385
23 0.67692214 2.0781322 0.26791105 -1.5859157 1.3161242 1.9489597 0.28589928 1.4743223 -0.7880097 -0.4584488 -0.14972493 -0.707956 -0.22329487 -1.0984612 1.755415 0.49208942 -0.7067668 0.22587809 0.9330487 -0.83307296 -0.36867893 -0.020181984 -0.38884217 1.5501013 0.34220192 -0.054136265 0.7109968 0.3614786 -0.18959473 -0.4720495 1.389162 -0.21044727 -0.35522628 0.5857434 0.33626345 -0.71082586 -1.5062014 0.5684551 -0.8441911 0.5757803 -0.038907737 1.0923891 0.0938694 0.20637038 0.46542403 0.4283573 0.27399576 0.4126765 -0.19942634 0.268636 -1.3427612 -0.86010903 0.39791065 1.1688349 0.92669886 1.3099817 -1.015785 0.6338307 -0.47036067 -2.0436497 -2.5319955 -2.6726718 -0.41678956 0.2107557 1.3085312 -0.20403612 -0.6279454 -1.3019887 0.7519545 0.22369847 -0.51629686 -0.119523376 1.8672639 0.8749633 0.6134303 -0.036180925 -1.6576658 -0.12118058 0.25819698 0.36691025 0.3598744 -0.80606943 0.20255879 -0.621184 0.554497 -0.730837 -1.6945565 -1.6090405 1.2181102 0.66965514 0.24452864 -0.6066487 -0.11952251 0.93199384 -0.97293925 0.7841186 0.08383205 0.7922661 0.9895821 0.5144754
24 -0.22084977 -0.6511862 0.65553486 -0.2452119 1.4350741 0.9923342 -0.88427836 -1.3929682 -0.4625155 1.0846672 0.013534015 1.7495313 0.8780103 0.1300035 -0.57592404 1.0346822 -1.2339762 0.15362942 -0.37458265 -0.44525337 -0.4982441 1.3265626 -0.9015833 -0.25148135 -0.41989148 -1.0343231 -0.6775369 -0.7307903 -0.33426735 0.39351827 1.3153 1.1202011 0.037573807 -0.70938057 1.6209853 1.5534271 -0.6317143 -1.3272214 0.5059251 -2.436813 -0.21871509 0.49905178 -1.6186515 0.8138861 -0.7270675 -1.0081782 -0.33514205 0.21894921 -1.0569762 0.77407193 0.011574562 -0.7697924 -0.6719276 -0.68023264 -0.3094437 -1.0742757 0.27066964 -0.3079255 1.00513 0.34919834 0.9237777 0.25789535 -0.39402375 1.1895407 -0.4580564 1.148301 1.5307058 0.18426785 0.2046639 1.1780137 0.17734602 0.24181455 -0.9332456 1.0848442 -0.3651562 0.2456655 -0.4382762 -0.57373905 -0.9242579 0.65386075 0.004365326 -0.7918548 0.012015184 -0.11235814 1.0348107 -1.1135386 -0.05118123 -1.2366859 -0.13787444 0.033806067 -0.41376072 -0.2006803 -0.38502777 -1.3825157 -1.9746221 -0.035347074 -0.7482361 0.011879537 1.3516299 1.1873968
25 0.6789077 -0.011572727 -0.09643103 -1.9021729 0.5599342 -0.13421576 0.13889368 0.89286435 -1.0446265 0.27172914 -0.29020745 0.32001728 0.013227587 -0.49504188 0.26412928 0.266907 1.5843625 -1.189723 0.337923 1.5507153 0.10791607 0.06844731 -0.99784267 1.2359598 0.11234306 -0.3965229 0.73854375 1.3897915 -2.3116484 0.20852147 1.5587673 0.0004238715 0.86059 -0.086397804 -0.96869963 -0.6896766 -1.3665696 -0.9230086 -2.4409728 -1.0336012 -0.45939445 0.36209226 0.5774442 -0.38837332 1.4200553 -0.30911002 -0.7699995 0.6747382 0.8781221 1.5539811 1.1385748 -0.5579611 -0.047061607 0.17170604 0.9728671 -1.574629 0.2637223 1.3637036 0.7092964 -1.1483217 -0.2447824 0.6149608 0.25132313 -0.40475014 0.007649082 -0.451832 -0.65890753 1.3036978 -1.4593546 -0.9352177 -0.44476324 1.672151 1.4468868 -0.9478453 -2.0599055 -0.3721092 0.522442 -0.43800995 -0.8859922 -0.25880098 -0.5806029 -0.7513648 -0.35230798 -1.0468131 0.02138348 -0.55216825 0.20587666 -1.2877089 -0.015856873 -0.2588404 3.665058e-06 -0.47449526 -0.937991 0.51780075 0.1390237 1.1562941 -1.0113919 -0.8009708 1.2060448 -0.32233828
26 -2.322746 -0.23493746 0.69241756 -1.4236534 0.65638846 0.7038916 0.9930339 1.2055262 1.6855044 0.00060932816 0.69676495 -0.9072029 0.48297766 -1.1534933 -1.1459986 0.16849707 -1.5453126 -0.16673328 -1.1811101 -0.9030774 0.29071316 2.6574981 -0.6037971 3.3244789 -1.1385682 1.704573 -0.09660376 1.9462306 0.39532423 -1.0734621 1.5554466 0.13018426 -0.5748099 0.4069136 0.4222268 -1.4078552 -0.65969115 -0.7742964 0.6783971 -1.3214043 0.6191656 -0.982829 -1.9296865 0.91091555 -0.15931119 0.50342846 -0.20613047 -0.99892485 -0.19060494 1.2134272 0.13013318 -0.23136258 -1.2945077 0.33102456 1.5202341 -0.072593346 -0.2998764 -1.3031138 -0.22579047 0.56060386 -0.782411 1.5870271 0.75047255 -1.7769806 0.19140059 0.03733318 1.1778973 -0.5152041 -1.1213582 1.7946193 -1.2907143 0.49570158 0.10506122 -0.35098237 -0.10883158 -0.50499064 3.1883013 -1.0537821 0.7405749 -0.6312199 -1.1059763 0.1566868 0.6134502 1.9026942 -0.12347911 1.1702588 1.6271727 0.6334729 -0.78326195 -0.83049196 0.72127247 -1.1717925 -1.0953088 0.12650517 -1.9864203 -0.30206907 -1.3141408 -0.9806656 -1.1018727 0.41275752
27 -0.18930647 0.52152336 -0.3206864 0.8752295 0.38814044 -1.1276764 -0.27003187 -0.15940492 0.2877959 0.70046467 -0.33998707 -0.30562973 0.07934509 0.7914357 0.074885435 0.62783575 0.26581854 0.22341911 -1.2882388 0.9263808 -0.62484187 2.0756493 0.59049934 -0.56679654 -0.6192844 2.136591 -1.0076405 0.85604846 -0.5356546 2.5875711 -0.9894131 -1.1290007 -0.32175624 0.86559993 -0.6657246 1.4351611 -0.4140721 0.38346028 0.84484595 -1.2656245 1.2207146 -0.41180766 1.3577191 0.2029258 -0.03617183 -0.529448 -0.114944234 -0.38599658 -0.6410844 0.4257899 -0.3204606 1.0686827 -0.16093926 -0.09294065 -0.5441851 -1.3212308 -0.68469393 -1.3726132 0.0138682015 0.2281846 -1.9803598 0.049610868 -0.83711827 1.7561957 -1.5312992 -0.6985613 -0.8479942 -0.6396557 -0.017574491 1.6339691 0.61216295 -1.1236538 0.53153163 0.3250199 -0.6339245 -0.88946384 1.2308794 2.004395 0.73321384 -0.59155023 -0.592106 -1.3792347 0.4696049 -0.048481673 -0.33618808 -0.39567366 -0.36223522 1.3988869 -0.992705 -0.02894419 1.2801638 -0.80806386 -0.4480441 0.23226954 -1.8907657 -0.26393697 -0.16564341 0.73192465 0.7865382 -0.08416061
28 -0.45658368 0.77259916 -2.6958745 -1.664378 -0.65460724 -0.39455318 -3.5480294 -2.0134485 -0.7688324 -0.2647293 0.50285345 0.44923943 0.28111556 -0.49920988 1.2544714 -0.4928458 -1.0431116 0.5011794 3.0089831 -0.36474928 -0.8382338 -1.5770531 0.38887852 -0.58215505 -0.49005148 0.09263256 -0.4023411 1.2599454 0.22166643 -2.0988498 0.2621579 -0.85822207 2.3587103 0.21140935 -0.7801277 -0.18735929 -0.46498206 -0.3542529 0.034867253 0.3076266 -1.8628902 -0.17872958 -0.55475646 0.49067762 1.1469625 -1.8439183 1.3972827 -0.086203456 -0.50353456 -0.25909325 -0.8325271 0.21067426 -0.04078426 -1.3158512 1.4972767 -0.5493277 -0.58426285 0.6039559 -0.6673074 -0.1622051 -1.0272157 0.6234971 -0.47571135 -0.27335137 -0.29791012 -0.09482178 0.6878564 1.05597 -1.994657 1.1012408 -1.803878 1.5503678 -0.43102974 -0.3284458 -0.5185905 0.24823944 0.0857329 0.06380082 -0.7928182 0.19040328 0.6869258 -0.24780509 1.8226311 0.4503026 1.015827 0.7539576 0.5360384 -1.370537 -1.7367322 1.4830385 -2.4453835 0.055299684 0.6242118 -0.1436801 -0.8515334 0.58786756 1.139712 0.12657322 0.8418169 -0.98786634
29 -0.8080606 -1.9428966 -2.7244442 -1.2197134 -0.7724908 0.61060643 -1.4252155 0.73990536 -1.382748 0.7615695 1.6619043 -1.3795259 0.28077266 -0.3336596 -0.7794203 0.32947266 0.8930204 2.7512772 -0.26525304 -0.50417304 0.91519433 0.015297366 -0.353004 0.80336 0.29141805 1.0062941 -1.5067619 0.9133639 -2.0637655 -0.66204876 0.8162454 0.40929955 0.7700129 0.17262644 0.60622793 -0.4968123 0.13069215 0.44897452 1.0265533 -0.9004884 3.2022445 -0.40909633 -0.19341135 -0.42008626 -0.1585709 -0.039403886 -0.109673664 1.5296926 0.19965258 0.8225643 1.4909837 -0.8345544 0.24934791 -1.5306948 -1.658096 1.436652 -0.512117 -0.21668938 0.8741129 0.77459246 1.0180821 0.8460344 -0.114805214 -1.7587684 -0.18629435 1.2436662 1.9667336 0.7524937 -0.39191577 1.8299435 -1.5533233 -1.7414602 0.06580151 -0.8980188 -0.2796328 -0.27925885 -0.52685386 0.72574574 -0.6905787 -1.2909896 0.010465028 -0.6249543 -1.8639157 -1.8660138 -0.31619698 -1.4180461 -0.89427114 -1.1524525 -1.9389071 -1.6611713 0.7848586 0.5475589 1.0298011 0.17617159 0.5498901 0.029577352 -0.5986812 1.034283 -1.1336616 1.0916716
30 -0.822301 -0.41003823 0.4154536 -0.92827934 -0.37376615 1.9926883 0.04978476 0.14615628 1.1495527 -0.652476 -0.27729386 0.1744325 -0.06539626 0.61455655 -1.7624304 1.6281843 -0.07118721 -0.13771223 -0.95821583 0.3201859 0.61852497 0.13616055 0.12997532 0.3122504 -0.46609956 -0.60962087 0.22108306 0.31213924 2.1957693 -1.02493 1.6771823 -1.1059359 0.40603003 0.09159099 1.2683599 -0.5825082 -2.372464 -1.6111153 0.85760415 -1.8034734 2.0529594 -0.29936668 -0.18964025 -1.6076133 0.8669689 -0.9030205 -0.20793606 -0.12237797 -0.0022267015 -1.4024092 0.7704841 -0.055394445 0.8783456 -0.6446958 -1.0932586 -0.658306 -0.9235733 1.6811589 0.13807073 -2.5463464 -0.9514303 -0.6552537 0.025285227 0.8526745 0.080538735 0.404775 -1.0302937 0.53763115 -0.524822 -0.7601272 0.028745024 0.2451925 0.07068659 0.6539153 0.5324819 -2.6405175 0.78526676 -0.9075749 0.103321135 0.22730704 -0.022058006 -0.32854906 1.1460989 -0.13272117 -0.663707 -1.999939 -0.04695327 -0.87237614 -0.42281607 0.6556944 -0.21297425 -0.4556085 -0.27232516 -1.5816234 0.39638177 0.016309466 -1.4835424 0.56021017 -0.9292357 -0.25613824
31 0.99695736 0.7857984 1.0162214 -0.20899582 -1.4772217 0.01100449 -0.11833564 -1.9933239 -2.6840873 0.044044856 -1.2897116 0.89795417 -0.40834153 0.0015890455 -2.2474318 0.21297233 0.46069375 1.2849376 -0.94401664 -0.9082224 -0.20171642 -3.0650897 -1.4869825 0.49825436 -1.5966114 -1.2283974 0.5706744 1.677647 -0.37345 0.69378203 -0.5666887 0.23514344 -1.2786591 -0.014384917 -0.4121204 0.67919415 -0.5800432 -0.84926945 0.27625266 0.49205664 -0.6176804 -0.435567 -0.51129454 -0.30289546 -0.7454662 1.4819436 -0.99039286 -0.2216088 -0.31798267 0.058107436 0.56912553 0.62969214 -1.4043894 -0.30825967 -1.1053311 -1.2337062 1.9526275 -0.8029449 0.18041983 1.2881198 -0.11179185 -0.76357806 -0.75276864 1.763843 0.020270146 -0.53432095 -0.7400922 -0.16893129 -0.6583704 -0.62021214 -0.061392494 0.88883764 1.2740108 0.065840825 0.050463196 -0.31612995 -0.18609977 1.7512518 -0.77311313 -1.5051899 1.5451183 -0.68614966 2.3924417 -0.68084556 -0.5607552 -0.6232632 -0.14305936 -1.37119 0.1729102 -1.6896559 -1.4079695 -1.1403852 0.25613436 -1.476607 -0.52171963 -0.022376316 -0.3438308 -0.6190813 -0.47234544 -0.64893544
32 -0.89506793 1.409031 -0.95742166 0.086174056 0.14096569 0.31313345 1.6957196 0.89968 -0.9790416 1.2096906 -0.51569027 3.2615924 -0.25196496 -0.7047467 -0.9089791 1.5522168 -1.2337044 0.82479906 0.037704382 -1.1961732 -0.63530916 -0.19446625 -0.04902288 -1.2657799 0.95410186 -0.28983656 1.6963712 1.201587 0.22754243 0.10979935 0.98912925 1.1116937 0.62536234 1.4745809 -0.8303851 -3.0924816 1.8294146 -1.6639162 -2.2581906 -0.57626015 1.0793777 0.010602656 0.48796666 -0.086347856 1.4072831 0.42608675 1.995491 0.23933746 0.28274733 0.96755207 0.2676051 0.13600324 -0.249258 -1.0316697 0.6101208 0.27301598 -0.2689949 0.68039167 -1.4816008 -0.58270925 -1.3400261 0.57245433 -1.4242953 -0.66491055 -1.4462918 -0.13048221 -0.89299625 0.9847875 0.6661809 -0.2559089 0.97897375 0.9716606 -1.5263883 0.91110414 0.34099147 -0.50809306 0.13454309 -1.1326636 -0.5855642 -1.2787327 -1.6508315 -0.14634393 -0.14339305 -1.9998409 1.5201819 0.65998334 0.01666845 1.3193883 0.34980452 1.961147 -0.09795097 -0.46513858 -1.5560547 0.30531847 -1.1260128 1.7714504 0.25644335 -0.20610331 0.038224738 0.2482925
33 0.7849408 0.19232015 -0.09163318 0.27180636 0.25740287 2.2848706 0.21855617 0.07930647 -1.0791684 -1.0804976 -0.14124332 -1.1591585 -1.0523843 0.42389202 -0.87727946 -0.88175714 -0.00750427 1.01973 0.6795409 2.5026386 0.46786112 0.31095347 0.5275093 -0.6128673 -0.024728296 -0.5358569 1.3460582 0.071840696 0.030057447 -1.4269339 -0.31273097 -0.44455776 0.03402298 0.106856965 0.51878506 -1.0601258 -0.29335225 -1.7460867 -0.8357508 -1.2883885 0.017439011 1.3580675 -0.71680456 0.73509943 -0.6001726 1.6301833 -1.1078653 -0.9357129 -0.28020692 1.2074395 -1.0438931 0.29433298 0.69575965 0.28536606 -1.3595514 -1.2698829 0.98523176 1.5137753 0.6272071 1.7312824 -0.38923678 0.83842736 0.52335083 1.1646675 -1.043782 0.28574625 0.48329747 0.40046048 -0.8321774 1.8760778 0.8932342 0.19765893 0.23980446 0.097832106 0.51438105 0.25286955 0.5288549 1.2310708 0.0604366 -0.4257491 0.6946528 0.9811074 0.36018378 1.9220558 1.023352 -0.15330635 0.7091268 0.53373283 -0.715401 -0.25108236 -0.64229035 -0.3449782 0.75913465 1.1468048 -0.34029654 0.8126831 0.17930327 -1.8081292 1.4253162 -1.2690178
34 1.3854654 -0.55056536 -0.5937381 1.1573393 0.22184426 0.19044483 -0.34179989 0.51648533 0.37990403 1.2023546 0.52144384 1.080016 1.4075935 -0.10515278 -0.351569 -0.29229605 0.5022976 0.29647535 -0.5687886 1.0765053 -0.8824943 -1.0193062 -0.65214497 0.6118493 1.5161198 -1.1668983 0.655338 1.296293 -1.8659953 2.7578082 1.8651448 -0.103959255 0.75300395 0.7663033 -0.015281829 -0.8710556 -0.81927156 -0.80271894 -1.4061791 -3.4674444 -2.016535 0.041991763 -0.72850305 -0.7544248 -0.28390598 -1.4073517 -0.7959597 0.59830856 0.08788419 1.3132036 -0.28021613 0.38888898 0.35101104 -1.7229713 0.65415955 -0.6589301 0.02516342 -0.36572275 0.7904593 0.71843934 -1.2472727 -0.7845249 -0.62093765 0.48219618 1.1566079 0.46105924 -0.36687025 -0.31453118 -1.2696532 1.1317277 -0.08011327 -1.0881722 -0.17366323 1.7119108 -2.4577246 -0.45012137 1.3211532 -0.7619784 -1.4762812 0.122669905 -1.6349939 -0.14102516 -0.10667742 0.47798643 -0.36522594 0.9466024 -1.1467242 -0.044528168 1.5770975 1.5133477 1.2876709 -0.9612792 -0.9188464 1.3219633 0.80284196 -0.5365756 -0.03138034 -0.62996846 -1.395476 -2.0559595
35 0.33331686 1.3548009 0.88564366 -0.05220599 1.4140648 -0.57965815 1.0849016 0.29841363 -0.1583728 -0.39477423 0.689429 0.7981248 -1.1831881 1.4208833 0.19160123 -0.98171914 -0.1892265 -0.1908941 -1.2917846 2.5358517 0.65936875 -2.0812201 0.17107776 0.3764477 0.22637175 0.6165271 0.56973654 0.45704156 0.8485499 0.41270593 -1.375653 0.36464444 -0.90218157 0.68927485 0.6452224 -1.1298858 0.24270098 -1.0243353 -0.051946655 -0.9231688 -0.542115 -1.6129166 -1.3059508 -0.55595654 0.29491448 0.17047001 -0.25442693 0.60576147 -0.18533859 0.1108572 -0.11309615 1.2996799 -1.3903319 2.3347108 -0.22365882 -0.7077632 1.3215541 -0.67625713 0.4353396 1.4333612 -0.19271146 0.19724676 -0.66937566 -0.5769713 -0.32011557 -1.4099485 -1.0465337 0.16978948 1.3829223 0.21178533 -0.598966 0.074456595 -0.037302468 0.58908945 1.8795753 1.1505125 1.8460803 -1.831375 -0.5886376 1.3534898 0.31417167 -1.1698784 1.1077652 -0.57164145 -0.22293422 -0.3230944 0.070517235 -1.293424 -2.0373027 -0.15466088 1.5466238 -1.7792407 0.47692025 0.78214484 2.3759956 -0.18099406 1.8127608 0.70910585 -1.4185048 -0.029557597
36 -1.4222742 -0.7924029 1.1199651 1.6715411 -1.0953623 -0.42866644 0.74529916 0.23634194 -0.26461497 0.24366023 -0.2681755 0.20970893 -0.0012147268 -0.07516677 0.3272357 1.0341488 0.25976402 -1.0417639 -0.4884612 -0.24512422 1.5556397 0.79326826 -0.06620492 0.5634897 0.10361307 0.51225597 -0.5257631 1.1331632 -1.0394787 0.5361935 0.6241949 1.4610299 1.1720402 -0.3820622 1.1832849 2.6391342 1.7963327 0.64128757 1.5007981 -0.40887925 0.3178093 0.011930715 0.2706416 -0.8412854 -0.04363192 0.33145252 -0.60029095 -0.46259138 0.92425185 -1.0050503 0.79960376 0.4199797 0.4137668 1.6881908 -0.061424855 0.6111894 0.5725491 -0.3506178 -1.0755181 -0.97595483 -0.35858682 0.2844291 0.26622757 1.1825085 -0.6391626 -0.4231945 -0.1295086 0.4453283 1.3928155 2.9481156 0.64409643 0.385315 -1.3715783 -0.82754606 1.0794408 -1.16639 -1.7221574 -0.43012705 -1.0013236 -0.45504022 -0.4589195 2.6522167 0.9112389 -1.6361996 -0.3615566 1.1909304 0.26815218 -2.1683128 -2.7933378 2.4846509 0.44885218 -0.8686366 1.1589627 0.23528464 0.38554263 -0.8133073 -1.3936638 -0.20953947 0.3706732 -0.65221095
37 1.8425906 1.160945 2.3200688 2.3723714 -1.3182098 0.6450769 0.21584086 -0.051399663 -1.0734733 -1.2624929 0.6089172 0.14648028 0.097751275 0.2896605 0.21559367 1.4149011 -0.016085334 -1.1208446 1.5260711 1.6481954 -0.025800372 -0.08916305 -1.2541385 -0.5629042 2.3195899 0.9746628 -0.32006735 2.1573796 -0.49954286 -1.3922344 0.9776756 -0.8068526 -0.13440424 -0.3811955 -0.8180691 -1.5452417 0.28133595 0.44536513 0.07484026 -0.09798381 -1.1213083 -0.00092314475 2.7517257 0.734784 -1.3185824 -1.3443221 -0.49132028 -0.7612552 -0.70127773 -0.5338379 0.6860221 1.1774619 -0.34301886 0.26976806 0.03354327 0.3518925 0.2487127 1.0176134 0.25955328 -0.39771447 -1.2389368 0.16500387 -0.32228494 0.30683908 -0.17190926 -1.6340632 0.9117442 -0.009120597 0.561052 0.8288847 0.0028379294 0.24432777 -0.39913815 -0.5702232 -0.28950596 -0.120531715 -0.8965967 0.27366868 -1.1345267 -2.8459709 0.69505847 0.81529635 0.36807993 -0.22584777 2.177576 0.47016692 -1.6187015 0.92077464 1.3993891 -0.23996972 0.46304065 -1.5329461 -0.2222251 -0.097027496 1.1179157 -0.06356216 0.31129336 0.2334536 -0.08392975 -0.04218405
38 0.546756 -0.4978959 -0.77662534 -0.13885179 0.6195559 1.6733389 1.801507 0.1532596 -0.214194 -0.5168221 -1.2590315 -0.97535145 -0.6341935 1.2889882 -0.49869663 0.11360553 0.32043797 0.018744506 0.15800485 0.24859305 0.16635066 -0.43040162 -0.12220429 -1.2678533 -0.79026777 0.7903065 -1.2987872 -0.24547967 -0.5586637 -1.3321412 0.22625929 1.732361 -0.66854525 -0.15367764 -1.2510983 -0.15554939 -0.7646544 -1.6151443 0.47572732 -2.294487 1.8485143 -1.8313419 2.0513022 -2.0019553 -0.26596043 -0.71553504 0.49772313 -0.43545008 -0.06881552 1.5274884 0.83891296 -1.2530235 0.75879884 1.8516475 2.1117656 -1.470545 1.4099003 -0.88713586 0.043041896 1.687818 -0.30231163 -0.48720223 0.74930584 2.2133858 -0.9267139 -1.0730093 -0.3645898 -0.09180431 -1.4205407 -0.49206364 -2.2966976 1.0860311 -0.22645108 -0.45030922 -0.8546335 2.280943 -0.12312968 0.33147195 1.059398 -1.6725953 -0.9062516 0.37334883 0.2518284 0.62467337 0.24970694 -0.11452841 0.3207892 -0.6868749 -0.4821665 1.2272028 -1.3557519 -0.030939087 0.9886315 0.7708808 0.03731862 -0.8179819 -0.4130966 0.7521375 0.025480699 1.5681753
39 0.43262562 -0.4931665 1.8237917 -0.9134137 -0.77029604 0.4249133 -0.09237237 -0.41603553 -1.1309918 -0.042449724 -0.09449672 -0.7028554 -0.35358736 1.7312574 0.32875657 -0.30478567 1.223767 -0.5408255 1.2686768 -1.8311377 0.12079477 0.50418526 -1.658365 1.1210608 -1.3998808 0.21927088 0.8986196 0.4539157 -0.21741706 -1.2304021 0.18266691 0.65255505 -0.33039263 -0.36888173 1.1057436 -1.4238178 -0.3655748 1.0188503 1.4450557 -1.3206004 -0.19842122 -0.23200946 -0.6220295 -0.2536175 -0.8987352 0.37078515 1.539429 -0.35151157 -0.015909461 -1.3932279 0.4378417 0.3253386 -0.41807637 0.52171695 -1.2974833 1.2777162 1.1935669 0.48402384 -1.0964385 0.44731188 -0.08803004 1.5090747 -0.3412146 -0.0050920197 -0.61073583 0.023821812 -0.47572696 -1.4020267 1.3859084 -1.2560701 0.8453593 1.466689 -0.51741385 0.08411629 -0.5646878 0.84128445 1.5492977 0.86294174 -1.7136607 -2.0115032 -0.50840485 -2.0431924 1.0342779 -0.77467906 0.28787017 0.86339515 -1.3423733 0.8999885 -0.020498022 2.531992 0.74374527 -0.18365458 -0.21423091 0.16935664 0.2658254 1.154733 -0.4421007 -1.6780648 -1.0170993 1.9796935
40 -0.30330113 -0.33430076 0.27326885 0.50666004 1.1677629 -0.44226024 -0.0021154247 0.57491666 -0.5285288 -2.2809055 0.2758727 -0.38631573 -0.3604378 -0.3807341 -0.6342197 2.406272 -0.7375013 0.301553 0.7528498 -0.5023412 0.691684 -0.6854555 0.16192342 0.9320097 -0.64137405 -0.18176506 0.91838217 1.4488343 0.42580873 0.8150398 -1.0586712 -0.26376516 1.1416239 -1.9833444 1.0253105 -0.068366945 -0.40074104 0.8736439 0.67075044 -0.21838401 -0.27791807 -1.1397969 -1.6848371 -1.2611107 2.0165155 0.009891575 -0.20406187 -0.60838175 -0.2713742 -1.1120012 0.39593112 -0.67225206 -0.8937959 1.3511952 -1.7510616 0.033480003 -1.1029929 -0.6550189 -1.3357066 1.2782793 -0.98562056 2.6032052 -0.7957255 -0.9076671 -0.22097857 -0.29496714 -0.5990619 0.5155098 0.30150375 -1.1704466 -0.36128423 -0.9930778 0.14158706 -1.3807832 -1.3105896 -0.507545 0.48512194 -0.3983063 -3.3075166 -0.28337878 0.41994774 0.9169816 1.5321587 -0.91969043 0.40386567 1.1657044 0.90735763 1.4098748 0.40206382 0.08216236 0.40265745 1.4479166 1.1772897 2.2883217 1.359721 -1.9772104 -0.77821887 1.2995358 -0.9137769 0.85631174
41 0.3878666 -0.28616983 0.22580269 0.7708889 -0.31899482 -0.60018253 -2.205281 -0.24422772 1.3481023 0.4670825 -1.7378207 -2.2069407 0.71711 -0.22318311 1.7763392 -0.10907587 -0.69946855 0.07133538 0.1811025 0.3635944 -1.1800407 0.31137145 -0.41389278 -0.7927174 0.46845928 1.0843221 -0.25142458 -0.74733716 0.3314309 2.5283227 -0.49931794 0.64803314 -0.03413207 1.3975401 -0.31079096 -0.03510725 2.6159766 -0.08950799 0.29842806 1.4263351 0.79937434 0.14691634 0.1309002 0.6437163 1.7812737 -0.6301449 -1.0927407 0.19917464 -0.3448487 -0.063611664 0.28264707 0.60957444 -0.4047824 -0.565662 0.66818744 1.5464411 0.08283608 -1.1331544 -0.38648856 0.5828084 0.23579276 -1.2004735 1.5561465 -0.7944624 -0.1316904 -2.1251667 -0.41952816 -1.2200373 -0.45128667 0.4672736 0.3901958 0.7386443 0.71954006 -1.1068914 1.7680042 -1.6729442 0.017795186 -0.355138 0.39963296 1.0313206 0.43992046 -1.7819782 -0.8685675 -0.6638194 -0.79764426 -0.4116131 0.163865 0.21049039 1.1137584 0.63141924 -0.8129398 1.5483028 0.9864323 1.7405524 0.02014513 0.48827907 0.30074057 0.1357156 -0.24964991 -2.3019798
42 0.16534634 -0.12842764 -0.94488263 0.5990128 0.5359751 0.049822032 -0.1079553 -0.26641002 1.2018908 0.5445084 0.8047635 0.94297516 -0.38587487 -1.773275 -2.4521108 0.9338829 0.93662584 0.17464615 -0.8312136 -2.1869838 1.7267071 1.5730375 -0.82355493 1.4207041 0.54673916 -1.4251971 2.4097855 -0.8591997 0.4652512 -0.109329134 -1.4505635 1.5389136 -1.0713174 -0.7896454 1.0066762 0.063437596 -0.163753 -0.5764017 -0.728596 -1.0738311 0.5149559 0.17716695 0.2765651 1.5019207 -0.1636196 0.8361176 -0.012640064 -0.7481287 1.8643099 0.05066921 0.848147 -1.8825265 -0.23506019 0.7947099 -1.3101693 1.7209419 0.4360525 -0.7029843 0.6985076 -1.0349796 0.18409735 0.06320368 -1.3294241 0.38198516 1.2470615 0.18128842 0.056435313 -0.06776944 -0.8537975 -1.4470717 0.5340411 0.37136933 -1.9645967 -0.54591525 0.45330924 -0.24569711 1.517495 -1.1918981 -0.8908234 -0.47291356 -0.79631734 2.8391953 -1.4641979 0.118824326 -0.7409697 -1.2071879 0.79206014 -0.5168708 -0.10722026 -0.4523528 -1.0350416 0.8865013 0.24733339 -0.5965605 -0.2840828 0.21494997 1.3005894 0.7658077 0.80707896 0.37181118
43 0.32083258 1.0110624 -0.16989735 -0.7832732 -0.16611342 -1.3307726 -0.3292981 0.77907455 1.1502196 -2.6026099 -0.79294825 -0.14516112 -0.07237089 0.32515848 -0.10603972 -0.20780884 -2.2934644 -0.6016762 -0.88177514 1.807888 0.1987613 -1.7849863 -0.0035868136 0.09878571 0.7816508 1.5016432 -0.7243149 1.3394952 -0.47242662 0.109479085 0.99464065 -0.5025781 1.8267945 -0.47570765 -0.06428063 0.2691383 0.40039468 -0.6092131 -1.1978468 0.30018264 1.0556431 0.23013528 0.6803244 -0.22271885 1.666622 1.0620619 -0.14861855 -0.22894792 -0.7189939 0.08018083 -1.4191483 0.2713551 0.6458688 -0.47001594 0.60739136 -1.0014845 1.1711526 -1.9754539 -0.35636678 0.59571767 -0.38544747 0.6295133 -0.7811154 0.85161287 -0.9884186 -1.0955954 -0.48126194 0.22161326 -0.26841414 -1.1380564 1.06986 -0.2451964 -0.3396429 -0.43671235 -0.89533144 0.24316153 3.3925583 1.6773437 -0.036221977 -0.52737087 0.015560974 -0.2612599 -0.12901601 0.7249262 1.260995 -0.84257907 0.17699388 0.92870283 0.13233699 0.48138413 -1.8626336 -1.1046869 0.8625912 -0.25773546 -0.32707626 0.24119514 0.5060936 -0.5528119 0.3082991 1.4172972
44 -1.4682078 0.5143126 0.049128633 -0.5160382 -0.04546073 -0.23383984 0.37930027 0.42104238 -0.14280228 -0.4157053 0.29286095 -0.046133913 -0.76467085 0.36178797 -0.76545984 -0.48991495 -3.0038989 0.082093425 -1.5990527 0.35815156 1.1398156 -1.0555116 -0.191819 -1.8534893 0.57047737 -0.6905369 -0.104811974 0.3149497 -1.5481637 -0.53922683 -0.3929616 -0.5067794 -0.39038855 1.5170681 -0.09960069 0.9161288 -0.2857206 -0.7469797 -0.81040424 0.013679434 0.57036746 -0.3251018 0.38625896 1.5330195 -0.09507558 -2.0175264 0.5310622 0.039787933 -1.4030926 0.8316999 -0.69785327 0.46837157 -1.7668108 -1.7506467 -0.9262811 0.998753 0.5948027 -1.3858203 -2.0684762 0.7762608 -0.19639263 0.8883153 -1.5976878 0.9070411 0.58385646 -0.11596051 0.35358128 0.2885377 0.57144034 -0.4064951 -1.582476 -1.178897 0.5383212 -0.88174504 -0.61261785 0.30922267 -0.8289623 -1.0519742 0.6982555 0.5166088 0.3389448 -0.4888715 0.6270172 -1.447632 -0.34336913 0.0511442 -0.0043294495 -0.38347214 -0.019874312 1.3292209 0.05680034 0.7756221 1.0772346 0.5987229 1.8202345 -0.6631553 0.42218378 -0.49760556 0.6563527 0.088378824
45 0.79879606 -0.07555578 0.42854476 -0.34311786 -1.0117053 -0.67199576 0.84226227 -2.056761 -1.1082718 0.56095815 -0.9899557 -0.8135337 -0.8398364 0.36126053 0.4076282 0.76764154 0.04033048 -0.9676991 0.41602153 1.4210675 -0.073756695 -0.14947435 0.12431797 1.4296331 -1.6884915 0.1904389 0.26908863 -1.5719775 -0.12072493 -0.17290588 -0.8915569 0.023272427 -0.41963923 1.2727551 -0.7592931 0.40469208 0.9480147 -0.9416728 0.87052506 -0.5339932 0.5151584 1.1070074 -1.2489372 -0.26751995 0.7921456 0.65598154 1.0583104 -0.9193709 0.009876713 0.25395635 -1.469574 -1.240887 -0.45861626 -0.9976694 0.66458386 0.67431617 -0.9262627 0.91305715 -1.0634791 1.0955948 -0.42034695 -0.8916123 -0.93160313 -0.8149372 0.047375668 -0.40233076 0.48018613 0.22737236 0.57252806 0.16876747 2.9191127 -0.6964538 0.5850247 0.37583166 -0.17754786 1.562415 0.53263587 1.916447 0.27578202 0.7781459 0.32559532 1.3976809 -1.0153375 -1.0063021 0.6846039 1.3899249 -0.7030745 -0.35304695 1.2504294 1.4556144 -1.192187 -0.85857546 -0.85885847 1.4423403 1.4651778 1.0623182 0.27397394 0.6424765 0.5370929 0.69296557
46 0.63853467 1.1186955 0.4137103 1.2421869 -0.44339725 0.78340423 0.9248182 -0.3197933 -2.7402325 -0.33678564 0.67640704 0.88133866 1.1837913 0.90213686 0.1319134 0.9956626 0.9699257 -1.0417054 -0.80634886 -0.03199656 -0.46909574 1.2444012 -1.4359529 0.8345131 0.72645974 -0.98369944 -0.80606663 0.5658761 -0.037046045 -0.25596762 -0.71205926 1.9343876 1.1143394 0.44708043 -0.41755405 0.21406807 -0.70504516 0.44565094 0.6532687 -0.6035952 -0.56853515 -1.130159 0.18678463 -0.88851666 1.003668 0.11504295 0.35302126 -1.3381608 -0.6558272 -2.2906203 1.2135704 0.5363396 -0.14986016 0.4022154 1.1475575 -0.6523754 0.0432762 -1.1028838 1.517164 0.6209503 -1.1338682 -0.6823197 -0.3639132 -0.53166574 0.20445515 1.3921862 -0.23967655 1.3061863 -0.057479005 1.1786625 -0.8017258 -0.9648432 -0.8399664 0.10937334 -1.23436 0.56640273 -1.7146007 -1.114272 -1.6046034 1.3380436 0.053186957 -1.3262397 -0.088528916 0.7504518 0.7892298 -1.204994 -2.1885343 1.3130449 -0.7906523 -0.025090314 -1.0162579 0.21997252 0.22826815 0.24467777 -1.1178547 1.3560318 0.019886624 0.7596705 -0.4896748 0.34587076
47 0.100845106 -1.4000083 -1.7118722 -1.8445553 -1.7790523 1.4599264 -0.2925669 0.7150264 0.9443824 0.4043446 -0.42602977 0.157187 -1.5266961 0.5957301 0.89192647 2.2843075 1.1264443 -0.59766203 0.09560218 -0.17192405 -0.5531023 0.23993088 -0.02598382 -0.35141587 -0.24647819 -1.193916 0.7080374 -0.26454493 0.7160779 -1.230594 0.26370063 -1.1229951 0.803826 -0.2792747 -0.668894 0.98153 -0.0354163 -0.5363084 -0.81443334 -1.3573092 -0.79588133 -0.48986077 -0.25104246 1.234512 0.19867341 -0.4296108 -0.46931657 1.3060262 0.47093335 -0.97091436 -0.0068207737 -0.68442786 2.2365599 1.2799913 0.46605828 1.4206357 0.05860776 -2.1909108 -1.7212827 1.080671 -0.16790302 -1.1209646 -0.9515691 0.036219418 -0.25643003 -0.78013813 -1.8143378 -1.1642698 0.9156405 -0.9444055 -0.6796222 -0.72330743 2.2796803 -1.6852338 1.3430043 0.37926623 -1.8690449 0.43381143 0.72374696 -1.4710398 0.76328635 -1.3549461 -0.39962098 0.5313058 -1.4749595 1.7760621 -0.007612296 -1.2105393 -0.39164025 -2.2173257 0.13863781 1.1222544 0.29977039 -0.08865902 2.3210893 -0.5725897 -2.2138183 0.32328874 -1.1278358 -0.15689206
48 -0.25602543 1.0087318 -0.3638911 2.1045082 1.752036 2.0962806 -0.47006193 -1.8274611 -0.10007453 1.3290437 -0.84660584 -0.8431864 -0.9964825 -0.37738588 0.8754084 1.1382507 0.41846856 0.6767628 1.092171 1.4091533 -0.6076508 0.4503802 -0.9669659 -1.7453495 1.2882843 1.0658468 0.4536169 2.171071 -0.9541909 -0.5541551 0.33831158 -0.8609375 -0.09365755 1.6529737 0.9094191 1.1760097 -1.0773354 1.0486249 1.3114443 1.16943 0.45259783 0.8041604 0.79407376 -1.2242284 -0.23193502 0.5141469 0.15743493 -0.7232547 -0.12155461 -1.1322578 0.06956039 -1.7185513 0.3853044 0.6297725 -0.07739339 1.1927778 -0.88369787 -0.48112214 0.4526645 -0.060760804 0.19602528 -0.8204364 -0.9590444 0.8181371 -0.5863524 -0.23830509 0.11401267 -1.7176898 -3.089725 1.8888298 -0.31843972 -0.63761044 -0.031368706 0.8516427 -1.557899 0.00911974 1.5262953 -1.4322504 0.11795258 -0.78871596 0.14880633 0.68291616 -1.9378296 0.18567172 -1.2150255 0.89924014 -1.3619913 1.555551 -0.9619445 0.5043018 0.3708201 -0.066497296 0.94956475 0.44325164 1.7020273 0.22206454 -0.8367987 0.76290697 -0.5744273 -0.34466925
49 0.27433208 1.0836754 -0.69217676 -0.42358837 1.495308 -1.349585 1.9927559 0.73426473 0.23746778 0.12631416 -1.3932954 -1.1171128 0.5830234 1.2676116 0.4209833 1.3810189 0.015032348 -1.148964 -0.23513104 -0.19425711 0.73206747 1.4444717 0.947159 -0.48547345 -0.1293409 -1.1279745 0.72433895 -0.27632523 -1.0197884 1.0356231 -1.9251157 -1.3845451 -1.4026283 0.6816016 0.23575577 -0.7843889 1.3531414 0.6818982 -1.0453236 -0.31939325 0.20581548 0.18822037 -1.1698031 -0.1341792 -0.31920895 -0.32967487 0.6289881 0.53464913 1.3683785 0.72996616 -1.8340572 -0.43678468 -0.4607669 0.45540392 -2.404797 0.69168097 1.0421433 -0.70959777 1.340274 -0.5835489 1.3398758 0.2434835 0.7177908 -1.1094371 -0.13972014 0.22638953 -0.13823184 1.2689266 2.386343 -0.906823 1.4111968 -1.7162341 -0.7068017 0.6184504 0.8787076 -0.28218344 -0.7328089 -1.0181276 0.3002481 0.4631826 -0.5833182 0.64470315 0.59407884 0.64010316 -1.5768465 -0.7477867 1.1330887 -0.71501225 -1.7502489 -0.97221893 -1.1162951 1.4214978 0.030494401 -1.625051 1.0400207 -0.59065187 0.35901517 -2.3454945 -1.0361637 -1.2890607
50 -0.60314304 0.55224365 -2.1660912 -0.86422265 -0.8682503 1.5959108 1.3121082 1.4434975 -1.9036471 0.44201395 -0.5929099 -0.67100257 1.5788249 -0.4118577 -0.88252705 0.9602908 -0.52608335 -0.24065256 1.0608251 -0.6801864 0.57006437 -1.6027148 0.28705546 -0.120923914 -0.28034437 -1.0552776 0.6012096 -1.4509815 -0.43012843 -1.2391199 0.79371613 0.3797556 -0.5947353 0.41885576 0.010327852 -0.39675948 0.5187128 1.0724481 -0.22932692 2.4777572 -0.9243958 -1.7697214 0.8332599 -1.0910882 1.6998881 0.68211514 -0.80415756 0.33979002 0.4065318 0.37259644 -1.1335279 0.1891566 0.39610374 0.38983232 1.3310778 0.26658282 -1.5978862 2.1137145 0.90692127 -0.013751702 -0.39978996 1.1681515 -0.18851757 -0.59853435 -1.5285261 -1.8340912 1.2381294 -0.997496 -0.81896365 0.14887373 -0.18759319 -0.08272678 -0.8489174 -0.94066185 0.43418732 -0.14665176 -0.97311616 0.34912378 -1.8979609 -1.0666213 -1.3232853 1.5533912 -0.066802874 -0.7474686 0.1255096 -0.9899799 -0.531958 -0.34675717 -0.6858128 1.0204158 0.7515713 -0.22452949 0.81403655 0.7672068 -1.9012411 0.4809422 -1.5844336 -0.468032 0.6259666 0.98653615
51 0.76003546 -0.11252284 -0.07560589 1.0630982 -0.3054336 -1.1047598 -3.2328997 0.7488875 -1.0548515 -0.93849343 -0.57634574 -1.1912286 0.2787559 0.14858459 0.1276175 -0.16973354 0.26818055 -0.3187005 1.4866849 -1.4787525 1.2444713 -0.54414517 -0.97249156 0.9583843 -0.7370041 1.830939 0.2897379 -0.62721866 1.2355216 0.09981431 -1.8131664 -0.92152923 1.5919427 -0.25649196 -0.17113672 -0.79386306 1.16233 1.3480821 -1.0168821 -1.5973401 0.46599436 1.8352842 0.128468 -0.083609805 1.0285864 0.10271521 0.4527624 -0.22491215 0.37027445 -0.15936877 2.8263516 0.59796095 0.279595 0.5266986 -0.5148579 -2.00332 -0.8630678 -0.17116962 -1.7880019 -0.6890855 -0.66525924 0.7409839 -0.42428684 -0.0770199 0.11666529 -0.35605595 0.31830564 1.0188859 -0.056710333 0.4353134 0.61847526 1.2490213 0.44542992 0.10165688 -0.29304007 1.2090749 -0.771172 -1.3405828 -0.6793806 1.0490015 0.15998675 -0.2646507 -0.14974268 1.1875492 -0.49652275 -1.2871698 0.25973663 -0.047456685 -0.12018859 0.64225745 0.27857602 1.2145389 0.066543095 -1.83749 -0.4373603 -0.65028393 0.3636404 1.1842259 -1.0458455 0.8178862
52 -0.31350958 1.5850289 0.2789675 0.3674473 -0.098112375 1.7110522 -1.9784175 0.033887707 -0.10796552 -0.4021592 -0.59318453 0.44231704 -0.1888811 -0.37147814 -0.2035497 -0.41212 -0.28423333 -0.6495074 0.112275936 -1.0602795 -1.305375 0.8581752 -0.5089979 0.5695056 0.1156077 0.013131082 -1.1080937 -2.1043198 -1.8054919 -0.7240477 -0.71027476 1.5505282 -0.99302393 0.41183725 0.16652973 -1.2858778 0.5583712 -0.6181126 1.0027379 -1.0807306 0.14610714 0.009303551 0.91266334 -0.96438813 -0.50147295 -0.31503066 -0.049705636 0.2939472 -0.14407143 -0.83291674 1.6463443 0.9708938 0.4288022 -0.09619176 -0.44496253 0.4974305 -0.34464467 -0.64354277 -2.3217394 -0.18627606 -0.95698917 1.8123074 0.09174632 -1.7351722 0.3002962 0.44067436 -1.7219481 -1.2286482 1.004791 -1.543845 1.0557401 0.6240484 -1.277251 -0.72566426 -1.8762231 1.0529739 -1.059789 -0.6429372 1.2678932 -0.44764945 0.7670959 -1.5093381 -1.2929139 -0.5297369 -0.9283302 0.95748407 -0.44221807 1.2287756 1.3837028 0.37423623 0.41749075 -0.1639132 0.49580666 -0.58412707 -0.51722395 -0.01422963 -0.2082968 0.4539902 1.8145026 -0.47951967
53 -1.5780004 -0.095497586 0.88626057 0.27131397 -0.37051028 -1.8116735 -1.5813973 -0.32084605 2.021074 -1.1165451 0.6078156 -0.012129459 2.1000202 0.13261661 -0.03917429 -1.10249 0.28982243 0.15439679 0.3846285 -0.11651097 1.9071454 -0.7158784 1.1190484 1.7902292 0.2827177 -0.020914145 -0.11904969 -0.39294183 -0.7576572 1.3338829 0.085389234 3.086806 -0.25770843 -1.5790431 0.43723723 -0.5093548 -1.7819245 0.4455487 0.029172122 -0.59962076 -0.5720365 -0.5364028 -0.69454354 0.6011137 -0.04737417 -0.41160262 1.4496875 -1.1998881 0.5586171 -0.4801691 -1.3729177 -0.44712883 0.17239042 -0.20435664 1.5379641 0.72158897 0.2665417 -0.7861849 0.48064026 -1.222206 -1.1086069 0.39529753 0.5455586 -1.7364846 0.47543463 1.0001371 -1.1568893 -0.581593 0.24412043 -0.5991276 0.57092816 -1.490222 1.1165234 -1.4911592 -0.6620568 0.4129597 -1.5938001 0.67394865 -1.5238005 -0.5091129 -0.1295763 0.9692804 0.4351687 -0.3866466 0.22954655 -0.22354525 0.29756492 -0.73454314 1.1156757 -0.89256793 0.500647 -1.1474075 -1.5625094 0.7870878 0.10861155 -1.9076991 -0.3969356 0.064513974 0.05940513 0.020338703
54 -0.17394795 -0.8140833 1.0059512 -0.109131485 -0.94602513 -0.7900977 0.9330669 -0.07010743 0.9957015 0.5190832 1.3458171 -0.7914251 -0.79935426 0.74874234 -1.2549073 -0.5972479 -0.50846374 -0.35177553 -0.2989012 -0.09351015 0.77616966 -0.12782659 1.6514541 0.48646328 -1.1016685 -0.01794522 -1.5998517 1.118345 1.7854811 -1.1168367 -0.84184283 0.7243604 2.2780044 1.981291 1.8412657 0.21309201 -2.0820463 -1.0253788 0.120391116 0.47584403 -1.1735862 -0.030054025 -1.4914459 -1.1295776 -2.0648644 0.4384898 1.6107073 0.7461868 0.15666135 -0.3209815 -0.29829523 0.7787439 0.42748344 1.4041725 -0.2794072 0.77796066 -1.4240537 -1.233983 2.4584477 -0.7662394 0.97103626 0.54606754 -0.952239 -0.537049 -0.12696023 0.8773202 -1.5619452 1.6236684 1.1270086 2.1880116 -0.38315198 0.39300007 0.07687704 0.3081865 0.046662115 -1.2663226 -0.5615903 0.53509974 -1.9343221 -0.3785595 -1.7477216 1.9433372 -0.8022537 -0.15153399 -0.72492343 0.71932244 0.4660391 0.19693097 -1.4296912 -0.6949485 -0.040443335 -1.2399791 -0.6568974 -1.9677705 -0.09074486 0.6090277 1.3806536 0.4050276 0.33700675 0.03822447
55 0.025684979 -0.7995145 -0.6119334 -0.7494948 -0.27840915 -0.5972058 -0.19404203 -0.40335143 -0.4468354 -1.0176727 1.7323749 0.2298232 -0.04834737 -1.6012745 -0.22345483 0.36996973 -0.038760733 1.31908 -1.3649232 0.8500057 -0.2686667 0.5118664 -1.6416714 -0.2226729 -0.63550985 -0.4639732 -0.323491 -0.30669636 0.5438328 0.155157 0.91734344 -0.94156027 0.15599349 -0.3901491 0.45370045 0.30594924 0.5950807 -0.771575 -0.3600105 -3.1794517 2.0853078 0.17951941 -0.6172343 -0.3254294 1.6021967 -0.8269182 -1.0331516 1.2593604 0.28680512 0.9604173 0.6181347 1.6777649 -0.56832707 0.5661966 -0.55662453 -0.736579 -0.267971 0.97505975 -0.21359988 0.9805117 -0.09745367 0.2610797 -0.32158303 -0.51324415 1.8991922 1.3357522 2.4939868 -1.4719001 -0.13772054 -1.9515462 -1.1518165 -0.32548675 0.058135316 -0.2940432 -0.57063127 0.42118582 -1.6611342 -2.1812403 0.7391926 0.36807182 0.17486139 -2.6595639e-05 -0.7890613 1.0074586 -1.6961952 -0.32964742 0.22780338 -1.6329554 -0.18900675 1.2142707 0.34113303 -1.2236481 -1.5296783 -1.8006284 -1.4579175 -0.30114254 -1.7546076 -0.47490022 2.506039 0.19721574
56 0.48934826 -0.3009674 -0.42850238 0.30931014 -0.065231755 0.040023822 1.0923172 0.9190719 0.78893936 1.6569448 1.2649431 0.33227143 1.1473235 -1.3003381 1.327542 0.08179247 -1.3099124 0.40482572 -1.3530859 0.09317198 -0.2406496 0.05357863 0.6446422 1.9834865 -0.7300237 -1.367321 -0.23306678 0.47575268 -0.41988483 -1.0408252 -1.0572486 0.17955235 -0.20243767 0.7215682 1.6784484 -0.2999153 0.52504104 0.26394174 0.75827867 0.5364335 1.7530053 -0.24832259 0.025689995 -1.6736746 -0.024830231 -0.39082316 0.050870605 -0.88550436 -0.9295563 1.9396374 -0.112337 -1.2944078 -1.1634923 0.9478394 0.9721291 0.10348947 -0.0032302565 -1.1431994 1.1419922 0.17733578 1.4451693 -0.4021808 -0.59495986 0.42353836 0.90211225 0.555148 -0.5421511 -1.7884626 -0.86482906 -0.3653321 -0.015252135 1.0085686 -0.033514436 -1.0242505 -0.5087672 1.0653334 1.1273576 -1.4285312 0.2254121 -0.46881366 1.4607756 0.2699932 0.94722694 -0.33224764 -1.0021565 -1.0620993 0.81493175 -0.028931499 1.0016094 -0.073085465 -0.81027234 1.956235 0.8139498 0.079460524 0.7920317 0.8260821 -0.6008915 1.0150692 -0.47652927 0.21723293
57 2.205319 -0.2085551 0.019469354 0.54759526 0.65780413 0.17312017 1.9163721 -0.14759836 0.5831423 -0.4629495 2.4647353 -0.108222716 2.200924 2.4546149 0.24361122 0.45456135 2.6848178 -0.21233988 -0.49014544 0.6752638 -1.1441655 1.6828859 0.35551387 -1.09921 -0.4215042 -0.15836081 -0.61334723 0.061311398 -0.8140965 1.5099332 -0.8698484 0.0019678671 -0.9000479 -1.465288 -0.050603587 -1.3124732 -0.007444044 -1.5139103 -0.25367665 -0.1721121 -2.2887683 0.25076 -1.1464618 -0.00917502 0.90231824 0.53422403 1.5190244 -0.08372998 -0.331523 -0.49540064 -0.79840577 -2.531095 0.8370444 0.92854106 -0.09153778 -0.62367195 0.14680281 0.16037737 0.46401745 0.5499341 0.5138642 -0.17007077 1.3162197 -0.05519478 -0.1374275 0.48257706 0.13068712 0.8194729 0.040162936 -0.05895269 0.23436591 -0.3487583 -2.2646184 1.4007103 -0.24204455 0.6072361 -0.13514951 -0.4937886 0.2942382 -1.6036773 1.163426 0.2352243 -0.18795174 -0.70653564 -0.08720665 -0.6588669 -0.48602065 0.62419146 0.8240884 0.16297217 -0.7038508 -0.07295723 -0.3346347 -0.38318402 -2.0456362 -1.1054087 0.8036257 -0.056221843 0.98419565 0.9127286
58 -1.2425297 -0.18785748 -0.23310423 0.7600754 0.7373538 -0.13192058 -0.76117325 -1.2245291 -1.6217059 -0.015704736 -1.1668004 1.8343047 0.278677 1.5486735 0.8234534 1.6623437 0.38895646 1.9310651 0.4750577 -0.6286024 2.1466713 -0.6526491 0.9592956 -0.27870056 1.2788578 -0.3760596 -1.1281254 0.07707506 1.6850692 -0.3868977 -1.3183064 -0.47955346 -0.95393115 -1.4401734 1.0090444 1.226541 -0.46647826 0.2305788 0.41082236 -0.010601487 1.9540076 -1.1575766 0.854822 -0.54439 -0.2690403 -1.0481116 0.329802 -0.31673476 1.0487661 -1.7477933 -2.3915477 0.3805303 0.721197 -1.975672 -1.1416258 -0.1405603 -0.3769863 0.31788674 0.8142451 -0.93725544 0.006368203 1.0367022 -1.5692705 -0.23757637 0.4235213 -0.86674535 0.20564671 -0.015786503 1.6894599 -1.8409495 2.6042085 -0.07357727 -0.36202636 -0.20960398 0.8244407 0.8448467 -0.031142628 0.048468906 -1.3110957 0.7312172 1.2917761 -1.165174 1.3936394 0.14163612 1.0447584 -0.20902391 0.6041722 1.5519798 0.26504955 -0.44818145 1.0195946 -0.2998562 0.93723875 0.16903546 -0.5051676 -0.44142878 -0.07264384 0.15373471 0.54776067 -1.7546765
59 0.4715442 -0.32082984 0.83241856 1.6520708 1.2778318 -0.216368 -0.9264577 0.76850915 0.60640776 1.9209918 0.19015001 0.22855134 -0.21992618 -0.6767026 -0.69333935 1.3380922 -0.40821892 0.9620746 -0.028044453 -0.63620913 1.6431082 -1.4091419 -1.3279729 1.2069196 0.05077856 1.3748215 -0.75060904 0.85666245 -0.1941845 1.0745896 0.40194607 -0.97126216 -0.18927065 -0.9398371 0.76172185 -0.7450627 2.5224073 -0.8928963 -0.5173562 0.8592139 1.1903344 0.89382404 -1.7669742 0.02924704 0.30491385 0.35937282 -0.28440005 -0.7410757 2.12157 0.17531976 0.8371965 -0.48125297 -0.1880824 -0.20220748 -0.9665823 1.6626546 0.43323836 0.56682855 0.8120019 -2.231882 -0.4335211 -1.5880413 0.9292259 0.25044915 -0.8917129 1.2332113 0.98300827 -0.8764389 -1.5349541 1.1787539 0.52715164 0.37954813 -0.1311692 -1.6788622 1.1961488 0.033016417 0.920956 -0.18243885 1.849691 0.59961396 0.32579708 0.10735063 -0.23540258 0.6924784 1.4882177 -0.82691103 -1.312202 -0.14502646 0.17844184 -0.7592157 -0.5295383 0.3685045 -0.2608339 0.18867338 -0.5295805 -0.9273742 1.1133176 -0.5183449 -0.85642606 0.021698695
60 1.4295965 -0.23367064 -1.8068222 1.0759466 0.36057135 -0.9771111 0.8487322 -0.6199243 -0.76880383 0.35232928 0.6737855 -0.86918104 1.2864956 -0.20129596 1.7297212 0.08772649 -0.23161826 -0.07984534 0.2830254 0.7669704 0.44601235 -0.10402278 1.1783528 1.1398158 -0.6653748 0.12746409 0.002745039 -0.53904355 0.5804313 0.4359489 0.18863893 -0.95083964 0.54611176 -0.2924559 0.7972672 -1.0253773 -1.2500143 0.3224258 -0.37852597 1.0326293 0.24320048 -0.97565794 1.1512659 -0.94515616 -0.95647293 -0.8727911 -2.1694477 -0.91433173 0.0075505357 0.39042038 -0.78685755 0.54379106 -0.481102 -1.9477191 0.10376466 0.031312354 0.5380145 0.04943561 0.14978944 -2.3037112 0.870701 -0.69500595 1.6798624 -0.7352516 1.9329432 0.48327538 0.7529977 0.616053 -1.5066458 0.8591292 0.7388882 1.3569933 0.67710364 -0.43834826 -1.0504733 0.22004451 -0.16328378 0.87953436 -0.8426159 1.3443967 -0.43519336 0.8881657 1.9002037 -0.49509045 -0.1468818 -0.04760206 1.0813034 -0.36712548 -1.601894 0.38255557 0.029430788 0.9674689 -0.7400177 -0.65279907 1.4394779 0.5687336 -0.29776892 -0.27043673 0.75557023 -0.76275826
61 1.2904236 0.5569138 0.6439444 1.3568623 0.23782186 1.9513458 1.1274306 -0.052321963 -1.7398711 -1.7234697 0.17517148 -0.68470424 -0.19857857 0.5043324 -0.0041306606 0.83623934 -0.15046892 -0.25166172 -1.395065 -1.4896411 0.4405882 -0.33934143 -0.29971567 0.8659283 0.95884186 0.5349575 -0.2658022 0.39397275 0.18875112 -0.86563474 1.0509822 -0.06269016 -0.91497564 1.107995 2.111765 -0.75446105 -1.3286954 1.1325666 -0.78065646 0.6290358 1.5272942 -0.17804463 1.6996155 0.26354843 0.4414006 0.9062226 -2.4332166 -1.99325 1.26318 1.1492282 -2.2021246 -0.21699543 -0.17643864 -0.38706213 -0.21161585 0.24687214 -0.73309803 -0.50080264 0.78950065 -0.88844836 0.6914098 -0.47613037 -1.037492 -0.34435785 -1.0671074 0.5469739 -0.31779125 0.77373886 -0.6772172 0.8598674 -1.4769089 -0.21279696 -1.2010462 1.1491307 -0.7286093 0.537419 0.38852775 -0.5629148 -0.16746584 0.6572308 -0.7301065 -1.0654571 -1.1242248 -0.94291705 1.3363047 1.657403 2.2532423 0.17524429 -0.07087141 0.87532604 -2.622285 1.3250612 0.5884883 0.5227932 -0.46425566 0.8785318 -0.7848862 0.23580454 0.22558239 0.34279573
62 2.787166 -0.5138162 -0.22074184 -0.38008213 -0.006453255 -0.6707248 -0.4819948 -0.912956 -0.9454208 -1.4611511 0.3281744 1.2081281 1.3843933 -2.6295187 -0.22189297 -0.9111856 -1.6329017 0.4789419 1.6778823 -2.0130851 0.22490065 0.14651768 1.3749211 1.0009953 -0.712121 -0.10246082 0.823039 -0.121787295 -0.7256196 -1.2412208 -0.32575586 1.6945405 0.34913853 -0.34232244 0.10738154 -1.4609747 -1.2803851 1.4436564 -0.41616175 1.129547 -0.95218563 -0.50334996 0.34844986 -0.83585036 -0.4609815 0.6804655 0.54622114 0.75905716 -0.2325171 1.5565189 -0.9003736 -0.71277475 0.1952929 -0.21451466 -0.24954803 1.463937 1.561999 -0.2685355 -2.0797932 -0.74042726 1.5153112 0.7644246 0.27318126 -0.09347546 1.0605072 -0.83965087 -2.4176724 -1.281666 -1.26606 -0.5771699 0.5056287 -0.5102175 -1.7703768 -1.6874703 0.84754246 0.17300816 1.3001214 -0.8772896 -0.8949931 -0.19251552 0.45842642 0.204335 -1.5590283 -1.5928972 1.0260293 -0.29028535 -0.09882383 -2.0480351 0.22754794 0.44437012 -1.9272401 -0.35088238 0.52358365 -0.3121813 -0.52132076 0.1833548 -0.98753816 0.91549546 1.2524662 -0.33880097
63 -0.21057333 -1.1729121 -0.18088341 -0.16911618 -0.63957334 1.3875237 0.09232764 -0.5898625 -1.6269623 -1.1069539 -0.13817856 0.6103505 0.12432142 3.204445 1.2150738 0.341955 -1.473356 -1.7942796 -0.08677929 1.9059972 -0.24204443 -0.97520614 -0.34442466 -0.17429906 0.832582 -0.44260493 1.7973022 0.6385268 -1.3949564 0.027186355 -0.53511375 -0.86886346 -0.5435409 0.40142724 -0.8031509 -1.0341464 -1.7824321 0.22963354 0.007378682 -0.56709397 0.27809826 2.3179705 -0.7599481 -0.43674102 -0.5681702 -0.43406639 0.40792423 0.37174103 0.77241135 -1.4444005 0.5847171 0.151618 1.0038627 -1.4961083 -2.5740592 -0.5109871 0.20213562 0.8197461 0.66509646 -1.1866528 0.04759563 -0.36940306 -0.61150205 -0.4599387 -0.36265972 -0.37995425 -1.2308749 -1.7244161 -0.8401952 -0.7739278 -1.7994974 -0.12612963 1.0554283 -1.1311136 -0.85836214 1.4829149 -0.2776326 -0.4166314 -0.80002135 1.729503 0.27338713 -1.2877185 -0.026175281 -0.13482334 -0.7952207 -0.07885157 1.0784614 0.5558236 -0.15950961 -0.9778514 -1.3688118 -0.1543598 0.85008806 0.59364 0.054907538 0.043795753 0.52584827 1.1128918 1.3932921 1.0221784
64 1.3676972 0.6938551 0.052383464 1.0807767 0.27951938 0.4391928 0.33544782 0.623781 -0.098872 0.12717028 -1.4636736 1.4197037 -0.47888613 -0.26161978 0.8110563 0.474391 1.4433532 1.8015047 -0.099427424 0.95843875 1.0961727 0.24945258 -1.7713863 -1.077591 -0.24918279 -2.291213 -0.83618724 -0.42526188 1.4561675 1.4032745 -1.5709928 1.4585421 0.9178285 0.5526524 0.68505853 0.124645025 -0.63813895 1.0432398 1.8461745 0.12177892 1.0205057 0.25303277 -0.23644803 0.09558331 -0.13236529 -0.1808787 -0.3656401 1.0063814 0.39053416 -0.26660216 0.6863057 -0.56749845 0.82352364 -0.46484724 2.5007267 0.68648034 2.277276 1.0307336 1.3491287 -1.0904397 0.5160324 0.67996186 -1.47053 0.5404441 -0.6683721 1.3488083 -0.30591443 -1.032782 -0.87202597 1.0079994 -1.8086251 0.49982414 0.48469707 0.6151732 -0.030129025 -1.0126444 -1.1936158 -1.434707 1.4272716 0.6148952 0.8083571 1.2578706 1.3608896 -1.7783067 0.86644024 0.3697166 -0.36089638 -0.21403818 -1.4724754 -0.07181366 1.2088501 -1.1985835 -0.35032415 -1.4732238 0.12336629 -0.7163977 0.7248178 1.3114246 0.96666944 1.4811178
65 0.8660748 0.4589503 -0.71932286 0.19413474 0.84602064 0.35782695 0.46192718 0.93792313 -0.9205164 1.0003632 -0.3131014 -1.1227125 -0.3927103 0.77662426 -0.47584942 -1.3177633 -1.8717202 -0.96031845 0.8137912 0.32886118 -0.17989215 0.7356447 -0.30332735 -0.5635836 -0.35250437 -0.60018474 -1.2245364 -0.04555641 1.191226 -1.2630173 2.0075052 -0.91134834 0.13084164 0.25676668 0.80413395 0.08881325 -0.24672055 -0.5385266 -0.46538112 -0.9777504 0.33759144 0.6158945 0.8637618 -1.0891682 1.4164182 1.8885021 -0.13335298 0.0047441116 0.31141478 -1.3747714 -1.009322 -0.7392496 -0.6962544 0.41937864 -0.8269444 0.11051431 -0.50438213 -0.125131 -0.73152065 -0.41951674 1.9023038 -1.2777147 0.5942437 1.8015218 -0.022538226 -0.045674138 -0.34961337 -0.54385644 -1.7016581 0.3210422 1.2511016 0.39890772 -0.51953894 2.0992708 0.10134832 0.40497643 0.60352874 0.5219544 1.2741795 1.2881523 -0.18414135 0.2928203 0.53675735 0.6377789 0.97526175 0.05473585 -1.2075905 1.629887 0.69298995 0.56088245 -1.4396336 0.855255 -0.6152612 0.17658813 1.0464377 0.8152653 -1.3425362 2.5689235 1.27198 0.020168072
66 -0.6736119 -0.7737185 0.09878613 1.0751594 -0.93851066 -0.81197345 -0.23144048 0.6077908 0.073630445 1.5740011 -0.18236631 -0.9642798 -0.43432403 -1.0327077 0.84803075 0.42590556 0.051099256 -0.5009782 -0.7974229 0.068697914 -1.1332345 1.2957196 -0.73332435 0.87722963 -0.49808714 -1.6388749 0.08570454 1.4874655 0.26972046 0.73895735 -1.5528841 -0.49855295 1.66805 -1.4010859 -0.19585931 -0.31677338 2.258958 -0.60268486 -1.7455474 1.6737088 1.0672877 -0.61276513 0.15959555 -0.22505708 -1.0212432 2.5161483 -1.4393507 -0.69680035 0.46973607 1.032203 -0.70130646 1.5241989 1.4081948 0.7938295 -0.17505282 1.0736272 0.09928001 -0.45406035 -0.1316194 -1.7801609 -0.85635406 -0.91289866 1.0800884 0.61360765 0.93308264 1.1682702 0.6275754 -0.19921769 -1.4699198 -0.92330825 -0.39167967 -1.2262658 0.54943734 0.44090053 1.0542072 -0.30681875 0.50307876 -0.2916458 -1.4209415 -1.4336004 -0.9457373 0.56712246 -0.08232694 -0.60052 1.0223153 2.3712878 -0.13792254 -0.22724383 0.8433037 -1.2189186 -0.1866443 -2.12138 -0.7460188 -0.38047305 0.1934923 -1.0358877 -1.7258538 -0.3247445 -0.53595984 -0.338969
67 -1.3315444 0.3303683 -0.32155842 0.6353449 1.5670204 2.259805 0.90930915 -0.46091658 1.4160213 0.059300873 1.2408234 0.025608398 0.6172179 1.0438943 0.69868606 -1.6095195 0.086586915 -0.5427488 -1.4330012 0.7448922 1.6961541 0.77169836 0.93930906 0.48043075 -1.581343 -0.82700366 0.33673096 -0.74037963 -0.62558985 0.28921017 0.34083775 -0.8110135 -1.4120381 0.7402097 1.1709467 -2.0698352 0.98080385 -0.7386051 0.50538117 0.4501195 1.1931076 -0.7410179 -0.39776468 0.46577471 -0.535431 1.5276691 1.943794 -1.133275 -0.16941185 0.31548673 -0.09181333 0.6285636 -0.019170728 0.530064 -0.8136515 0.38002476 1.0474606 0.15705039 1.0451429 -1.9983127 1.4692596 0.81930256 0.9056247 0.29215547 0.669291 -0.5797604 0.8531075 0.6498802 0.89873654 0.9169668 -0.9525561 -0.997718 0.833864 0.97539616 -1.9195098 1.4470149 2.405176 -1.2092587 1.3051327 0.805794 0.46872807 -1.5634418 0.4097174 0.32849488 0.4006544 -1.0117321 -1.6225245 -0.62105405 -1.1029876 1.1430775 -0.059199534 -0.93221945 -0.17770125 -0.5165551 0.2655526 -1.4113384 -0.94959307 0.86275756 -0.3586671 -1.7413149
68 0.8023836 -1.0525321 0.03613678 0.33627635 -0.3345653 -0.50181437 0.54453063 0.7307887 0.93619263 -1.8662639 1.2121239 -1.4899164 0.14116554 0.06829813 0.41557544 -1.1820208 0.08566378 -1.0410073 1.3184903 0.2479394 1.0332763 -0.33284363 -0.07189887 -0.7729447 -0.51658875 -0.16383986 0.5407746 -0.78976774 0.41475743 -0.1799241 1.759036 0.4009309 -0.90679157 0.6502656 2.186663 0.92127496 -0.5038115 1.746711 -2.1217153 0.48710695 0.4380217 -0.84478277 -0.19047676 0.5023394 0.78977925 1.0110795 -0.9436331 0.22822744 -1.18498 -0.058921427 -1.1148052 -0.21716158 -0.06983263 -0.82630444 -0.78713316 -0.92152476 0.436413 0.43810388 -0.09867742 0.72335917 0.57684875 -0.4093406 -1.1264026 0.0049359407 -0.10785691 0.708058 -0.5491962 -0.089614525 -1.5117182 0.93487084 -0.0041210414 0.49724087 -0.54532546 -2.6899114 0.55104786 -1.4758295 1.3828872 -1.7434553 -0.8517202 -1.1767795 -2.6522713 -0.9699656 -0.44723347 -0.63598275 2.1224835 -1.6287413 0.686182 1.271626 -1.7640823 -0.24925333 -0.10181157 1.0649369 0.5992011 2.2612896 -0.36223418 1.5394733 0.59365165 0.41114885 0.60519934 -1.6615255
69 0.6087407 -0.19182098 -0.9269636 2.8079102 0.22583936 -0.044543847 -0.31318223 1.0509772 3.3463213 0.32074645 0.5607106 0.3782171 -0.4013305 1.2577868 -0.29810312 -1.2477882 0.6594283 1.1200769 -0.47227567 0.9187029 -1.0287449 1.3173912 0.12590414 -2.1715827 0.25078747 -1.175961 -0.22397006 0.70474076 -2.0297174 -0.30186984 -0.6146032 0.20541106 0.30049524 0.34198523 -0.16440898 -0.45831534 -0.5041967 0.8751518 -0.5585572 0.3873337 -0.5631395 0.1358069 0.15150794 0.49524817 0.79844904 0.29708174 -0.49194422 0.16007556 0.623526 0.7917404 0.65661114 0.42067224 0.6290213 -0.5873569 1.6492579 -0.43957645 -1.4141309 -0.83966374 -1.9101231 -1.1174189 -0.4782243 2.2498853 0.8711406 0.023084497 0.869817 0.33079037 1.1714056 -0.010697263 0.7318395 1.5946486 -0.42823583 -1.2738854 1.279547 0.65243703 0.5914847 1.4120494 -1.0523121 0.01570766 -0.50886506 2.0656474 -1.9857173 -1.171048 0.41998145 -0.09102351 0.13387142 -0.0703522 -0.8700636 0.66848516 0.80205584 -0.48372963 -0.8056704 -0.172307 -0.35394818 -1.4114747 1.5648311 -0.46823385 0.20891877 1.7809522 1.7618502 -0.9823348
70 0.80848056 -1.4168847 -1.296834 1.7735245 0.23020607 0.031885013 0.48625574 -0.85231245 -0.58977574 0.0972739 -0.4065716 0.5043834 -0.00602341 0.91435724 -0.10418551 -1.239055 -1.1793342 0.33442613 0.17361395 -1.0131441 0.6450278 -0.35484484 -0.53837425 1.8359003 1.8029672 -1.9933352 -2.0867908 0.21804793 0.73348296 -1.6778966 -0.43134037 -0.9081278 0.34826633 -0.15763135 -0.1063176 0.6870049 -0.545724 -0.8701981 0.7530465 -0.2640604 -0.68467176 0.32821295 0.18651211 -0.5236902 0.31957668 -0.35491303 -1.0424166 0.3937379 0.74737984 -1.0117617 -0.90768564 -0.56411654 -0.0038818642 -3.0452108 1.062523 -0.7183557 -0.46651936 -0.4652472 0.23837546 -0.49598184 -0.18586038 2.0793884 0.00090968254 -2.4097936 -0.07225011 -0.95455474 1.0121521 -1.3695164 1.8239411 2.3019757 0.79409546 -0.069350764 -0.9467836 -0.12543431 1.2021884 -0.57507294 -0.59734523 0.73615575 -0.283763 1.323924 -0.16066614 0.9358258 -0.22936581 -2.3110445 -3.2394252 0.81208223 0.87608796 -0.081302844 0.25302216 -1.2240932 -1.4603462 -0.26093304 -1.1848418 1.0096446 -0.5480672 -0.35949564 0.3446318 -0.07164018 -0.14758831 0.06705346
71 -0.31143126 0.3288647 1.1249301 0.008930347 -0.34515277 0.9869477 -0.63693136 -1.4819669 0.54723835 -1.3755883 -0.8537182 0.13888481 0.36404306 -1.1505816 -0.71932334 1.6466296 -0.087148294 0.06299461 -0.7608423 0.23668684 -0.14739315 1.1704845 0.49217147 -0.5219572 -0.108667605 -1.0718063 -1.1686529 -1.3178878 -1.7650448 -1.3150884 -2.112899 1.1551696 -1.3148581 -0.930518 1.4502804 0.28243938 0.44698 0.9047019 0.3372898 0.6928107 0.06052205 0.5879579 -0.23419385 0.064064816 -1.3564256 0.021812195 0.47047988 -0.4351265 0.4846527 0.76650655 -1.2052503 0.49948186 -0.5342922 -0.15168978 -0.5899982 -0.4838422 2.3336074 0.7560121 -2.126861 -1.4358615 -0.5325945 -0.106309585 -0.76565915 1.2212089 -0.6812468 -0.09846791 -0.51170987 -1.0488384 0.6297249 0.34088275 2.1871712 -0.049323253 -0.13145253 1.3427304 -3.1386607 -1.6180675 0.5696554 0.0898884 2.089532 -0.8152427 0.6137172 1.3212371 0.20907757 -0.1995249 1.184159 1.0589485 0.003971434 1.0365145 0.45127848 -0.47243407 0.97910583 -1.7008185 -0.43085763 0.14441381 -0.59853137 -0.44438493 -1.2188618 0.71801114 -1.5127531 -0.01423539
72 -0.22845715 0.28430495 1.4779366 -0.52343017 0.5497095 2.007546 -0.36241078 -2.2363164 0.073470056 -0.07353286 0.31849027 1.0378044 -0.12054502 0.15173714 0.4134923 1.0035149 2.2771826 -1.3258681 0.49051446 0.47532934 0.25495425 1.3119272 -0.073976934 0.516401 -1.7468363 -1.1396593 -0.93113685 -1.3595147 0.96013653 0.30317625 -1.4752984 -0.17852636 0.43025997 -0.4707532 0.67010754 -2.321699 -1.1949855 1.1547854 1.2716762 -0.8396336 -0.532279 0.66238487 -0.2760736 0.8064807 -1.9267935 -0.8102797 -1.43556 0.36317086 2.772011 0.69855607 0.8433591 1.001038 0.16696565 0.5188536 -0.6179952 -0.30414915 -0.53619426 2.9819143 0.6114765 0.9705757 1.0705508 -1.454834 0.7637905 -1.5666153 1.4914896 0.27361625 -0.1341218 -0.27770108 -0.12482958 1.6055732 1.7056187 0.90049875 -0.9292087 -1.100219 -1.0604022 1.648717 -0.19250572 -0.28001288 -1.2757988 1.7552856 -0.70272934 -1.1569991 -0.7115361 0.51482034 0.15364847 2.876996 -0.0020649687 -1.6498353 0.59694386 1.9041363 -0.124164164 -0.8715619 -0.74097383 -0.009119643 0.6863968 -1.8521231 2.0354977 -0.98396987 -0.53476477 0.22208901
73 0.87336683 1.08061 0.43278983 -0.8544857 -1.3600314 -0.3866542 0.41967154 -0.07935623 -0.008511598 1.1905121 -0.064111724 1.4676563 1.1736377 1.4934818 -1.5445354 -0.28800958 3.2043636 -0.1904438 1.1092774 -0.21393687 -0.606568 -1.4050069 -0.11530854 -1.0695221 1.3271194 -0.09655262 -2.1033611 -0.5030375 -1.4429243 -0.7139857 -0.3756308 0.8784107 -1.1621865 0.59058136 -3.3877032 -1.5357043 -0.3102074 0.9942788 -1.4373761 -0.9826085 0.55208737 0.95080996 1.92613 -0.3167145 0.88938314 -2.050952 0.045408256 -1.5158395 -0.68802875 -1.4989171 -0.6251373 0.5737787 -1.2491173 -0.018543487 0.2541498 -2.6387746 -0.9450098 1.1559157 0.24991545 0.1759902 2.0723133 0.040163755 0.7107337 1.5418465 -1.7358283 -0.7365142 0.21386696 -0.8092921 2.0806577 -0.5027454 0.19275333 -1.5215669 -0.037484568 0.14890724 -0.28631663 -0.6795653 0.73614097 -3.3591423 -0.7725864 1.006648 -0.50139356 -0.8804989 -1.0005716 0.91568184 0.71491635 0.68821216 0.6087868 -1.5100763 -0.9447427 0.6780412 -0.10739219 1.181054 1.0960324 1.1093614 -0.8203294 -1.2651035 -1.027441 0.9959424 0.7566472 -0.23062655
74 -0.1935293 -0.15249091 0.14227913 1.0590699 -1.7941755 2.0602102 -1.1064117 -1.8852992 -0.6150204 -0.14070626 -0.19734213 -1.3693454 -1.3124796 0.4501032 0.06433391 1.2213938 0.7815051 0.09853869 -0.6627196 0.49242544 -0.046124965 -0.72894394 0.36973292 0.54005975 -0.7418751 -0.19774358 -0.082997635 -0.021837784 2.0047774 -0.45854485 1.514719 1.0164435 0.39658266 -1.0610496 -1.4083812 -0.5917321 -0.19543067 0.0034141524 1.3869852 0.7552936 0.41297832 0.7796425 0.73736185 0.84047294 -0.43330717 -0.2658225 0.5099998 0.2645627 -2.447303 1.5921322 1.1837474 1.0836182 0.63589627 2.2964365 1.3914597 2.157789 -0.39490628 -1.0861797 0.43845835 -0.160756 0.55539453 -2.1530807 1.6562698 -0.038098015 0.21936128 -0.5573668 0.9952166 0.83771616 0.18398985 0.8345132 -0.23139408 1.565366 -0.26084656 -0.35090393 -1.7262084 0.888299 -1.5831923 -1.224554 -1.1430298 2.7426124 1.3309028 -0.316123 -0.8068705 0.89023536 0.16550921 0.7285686 -1.2830373 0.7548567 0.3478442 -1.0236617 0.4399696 -0.2339267 0.39975145 -0.5113528 0.83504397 -0.42865705 0.7889657 0.24240267 0.73610395 0.9948431
75 0.8511347 -0.5559324 1.96658 0.64373684 -0.96175486 0.020040473 1.0281081 0.40675578 -0.5820558 -0.87661856 -1.0989511 -0.53989047 -1.8708175 0.6358783 -1.175727 0.16610539 -0.0335572 -1.0852484 -0.3093836 -2.6568522 -0.2831873 -0.195036 0.07919695 -0.5468105 1.6222653 0.51075435 -1.4142874 1.6034639 -0.9674728 0.29305342 1.6148807 -1.0837001 -0.15541047 0.8046332 0.09105233 -0.30637854 -1.7101679 0.2452261 0.99493945 -0.87130374 -1.3681422 -0.25350827 -0.08297537 0.1132323 -0.44760945 -0.4828051 0.64168805 1.4053773 -0.25141516 0.48845556 1.8197801 -0.6782606 0.90047586 0.13582507 -0.55749035 0.1987992 0.89707416 0.79093444 0.23945688 -0.215787 2.2500298 -0.83078915 -1.3683223 1.3118302 0.394196 1.2983663 2.429931 0.0483005 -1.5044343 -1.4987833 0.57486856 -1.6930201 -0.90925777 0.9581691 0.25950098 -1.7002705 -1.6326851 -0.8377057 1.0206299 -0.85175407 -3.105785 0.61250067 -2.0013516 1.3204174 -1.0912082 0.4733612 -1.7909594 0.16644494 -4.0159473 0.12205917 0.10577901 0.34081483 0.26388463 0.44812202 -0.92008764 1.7167208 -1.2444471 0.6221044 -1.5539654 -0.11120279
76 0.0770804 -0.35027114 0.1306269 -0.29862845 0.9392543 0.015126493 1.7231581 -0.68497986 2.0185523 0.0016723763 -0.6958009 0.8629984 0.09071875 -0.7982771 -1.2947196 -1.4486675 -0.5149331 1.5460477 -0.75634015 -0.28431767 1.0922209 -0.056212507 0.19537655 0.40569195 0.116715886 -0.9269699 0.86169124 0.49330643 -0.89164907 0.16621329 1.0767857 -0.7465123 -1.7891654 0.93148905 1.0994447 0.734868 -1.5161519 0.03768955 0.32799762 -1.1515294 0.5473855 0.71048146 0.368668 0.45060927 -0.7350159 -1.2220552 -0.06741986 -1.4542453 0.9725811 0.03181898 1.6630151 -1.0910202 -1.4421716 1.4693131 0.6290957 -2.0876057 -0.25740612 -0.59403443 -1.3055252 1.6193267 0.4185944 -0.9408388 0.50719255 -1.5978043 -0.17868552 -0.6093478 -0.28348842 1.2793334 0.061495338 1.4192878 -0.27995408 -0.6712011 -0.0052757543 0.19359156 0.07996791 0.35351726 -1.2023212 0.1117345 -0.9329074 -0.46923754 0.8274522 0.8648388 0.39043984 -1.7119873 -0.6626352 0.9581845 -0.7710022 -0.78815985 0.105449915 -0.33174217 1.2385566 1.0211781 -0.5453807 -0.41112056 0.68427896 -0.40882662 -0.78946984 1.5814943 0.075032 -0.37294474
77 -1.3913296 0.22216813 1.5527275 -0.01370923 1.1914265 0.7254363 -0.29770482 1.534859 0.52583605 -0.6096024 0.6808827 0.9153553 1.3756552 -1.1421579 -1.4252445 -1.0937749 -0.8032934 -0.69544095 -0.1679162 -1.1104991 0.43212014 -0.11923044 -1.2740849 -1.3503639 -0.7059929 -2.6074383 1.245525 -0.053240318 -2.110705 0.20898764 0.0067527774 -0.601941 0.1003925 -0.099821135 0.9919946 0.28326488 -0.9594526 1.2053828 -1.8914777 -0.41369876 -0.20913249 -1.6098597 -1.3592961 -2.1687374 0.008513586 0.13394776 0.25390574 -0.63893557 -0.32863915 0.26959762 -0.68315166 2.2373817 0.17615598 0.5478994 0.2465686 -1.3434619 -0.17124365 -1.1433083 -0.89388263 -0.006861717 -1.1906726 -0.4889544 -1.3232442 -0.7548583 -0.4329173 1.5088346 1.1447253 -0.19429536 -0.021964286 1.6964121 0.39000642 1.1329943 -1.2345296 2.339367 0.12835568 -2.712466 0.5831371 2.0518022 -0.51736856 -2.0737188 -1.1186814 2.3455606 0.042877264 0.48488566 -0.13978028 -1.6981618 -1.6344693 -0.32656917 1.8243722 -0.83179826 -1.0809058 -1.4131554 -1.7984248 -1.053927 0.16488352 0.5021243 2.4758568 -0.9862983 0.8558378 -0.20536648
78 -0.5673618 -0.7227378 1.5877981 4.264949 -0.5883866 1.7600267 1.7991595 1.7433244 1.1036272 -0.73644114 -1.1148392 -0.5985752 -0.47958845 -0.10962668 1.7406427 0.663902 0.5353934 0.46745628 -0.024323445 -0.70731854 -0.30665168 -0.082205914 -0.31389385 -0.04677698 0.024983872 1.2911323 -0.33787754 -0.09013552 -0.8081997 1.922583 1.1277937 0.63374114 2.0398903 -1.5251352 -0.77588093 0.20756109 -0.1883678 -0.7494872 -0.08167351 0.30162054 -0.9338461 -1.514177 -0.20980887 0.25136968 -1.0773907 -0.65298486 0.67714137 1.6275992 -0.27494916 2.240997 1.2292105 -0.07644754 -0.56624186 -0.015615152 -0.7388653 0.71229196 0.09721918 -1.1665419 0.5283679 1.2941372 -0.13027424 0.3080375 -0.5419652 -1.4408996 0.14339484 0.8771503 -0.1042704 -0.36900133 2.2349966 1.0567962 -1.7666771 -0.89097136 -0.49583155 1.1889813 0.25481987 0.515764 -1.2338283 2.662668 -1.598374 0.46658376 1.0607715 1.0824671 0.3099804 0.53679657 -1.4327389 -1.8589916 -0.6878078 0.5343991 1.71324 0.8588766 1.6554023 -0.27556396 1.1072134 -0.74113643 -1.5927831 0.9973907 0.5345875 0.7098937 -0.091068 0.77784526
79 -0.18068928 0.35107362 0.079182304 -2.3261347 0.92521447 -0.16994666 -0.4215645 -0.46350998 1.5071168 1.4217288 0.8326832 -0.31965712 1.2583617 -1.6432143 1.669724 0.02803095 0.09324786 0.578026 1.38746 0.5344616 -1.1786137 -0.6602496 0.12375101 -0.48318726 0.11072916 -0.888576 -1.6570399 -1.1562634 1.4036978 -0.053204183 1.9661587 -2.115386 1.604671 -0.22702754 -0.30125105 -0.8305814 -0.6324675 -0.39859974 -0.8816218 -0.22747518 -1.2978629 -0.8283042 -1.2110034 -0.14697893 -0.25849903 -0.23191273 0.8212458 -0.17336497 1.3691971 0.87690943 0.41654587 0.33458218 0.2746919 0.52217364 0.60005164 0.55576384 0.24121064 0.41859633 0.84063536 0.42964506 -0.2764246 1.4091153 -0.9882615 0.9614929 1.7291714 -1.1874881 -0.5346593 -0.66713226 0.05496912 -0.13935879 -1.5352346 0.07837831 -0.16622828 0.93332803 -0.12395459 0.45556584 0.19327931 -1.337989 1.0642785 1.1496397 0.12718187 -0.3024253 0.7439097 -2.1869056 0.26109803 -0.6707589 -0.35542455 -0.9451662 -1.8842022 -0.11313705 -0.50428313 -0.27538937 0.10144939 0.44034114 -0.4515689 0.23714136 1.2880588 -0.13818315 1.1371834 0.018886728
80 0.044359148 0.057337433 0.28910068 1.3284799 0.13892238 -0.19355905 0.053582028 0.5267625 -1.3940408 0.5856421 -0.29678845 0.7341534 1.1243498 -0.47090873 -0.32051554 -0.6316768 1.1423303 -0.013510501 -1.9128171 0.55698633 0.7010758 -0.8868025 -0.4841237 0.22180943 0.23826714 0.5690937 0.24413571 -0.7946491 2.170096 -1.1707321 0.7584211 -0.14639206 -0.7009904 2.284265 0.1440721 -0.365195 -1.618796 0.34523618 -0.7321818 -0.14056608 -1.499296 -2.43271 0.7628842 1.3688847 -0.13531892 -0.10304002 1.5122274 0.5854743 0.5292975 -1.9927531 0.054206967 1.5219499 0.5692427 0.47441086 0.21462491 -0.8063947 0.34460372 0.1418259 -1.6288022 0.8972879 -2.426875 1.1111212 0.021521032 -0.14798988 -0.42760235 -0.8246635 -0.5037378 0.14300153 -1.0078405 0.7527175 -0.9394513 -1.0878614 1.2252138 -0.7772198 0.8354193 1.0153376 -0.8398552 1.3006603 -0.82253486 -0.8634727 -0.0865894 0.3091586 -0.1284191 0.4376803 -0.9777623 0.017220188 0.84956104 -0.9451813 2.0316262 0.20770688 -2.5479527 -0.18656133 0.33927992 -2.3524623 1.5648551 0.65630174 -0.4325781 -0.09337013 0.3125503 1.6320826
81 0.75522596 0.70120287 0.2505922 0.102905564 -0.53137815 0.31262776 -0.95522755 -1.0102438 -1.0828606 -0.37551704 0.95744675 0.0701338 -0.8638471 0.08601304 1.6899728 0.9566431 0.3477803 1.46718 0.37476316 -0.85455734 -0.75002563 -1.2244706 0.2371449 -0.07333158 0.44544318 0.070496686 -0.9573164 -0.21277003 0.564966 1.8833507 1.4754785 0.76963216 -0.017518368 -0.86221695 -1.4263117 0.72422445 0.32144877 -1.4752548 1.6310134 -0.12018807 -0.44863147 -0.28723544 0.17190167 0.5613054 0.059614297 -1.6600809 -1.4761913 -0.7088947 1.4826204 0.42820725 -0.50537735 0.2002913 -0.730358 0.48571604 0.66420555 -0.55610466 0.0260201 0.1610132 0.9126388 -0.7943354 -1.3223739 0.14286427 -0.45402622 0.31141442 -0.6165538 1.0731394 -0.22990501 0.49482074 0.32353202 -0.024929158 0.76323515 -1.1122818 0.25249425 0.37098074 -0.47879344 0.11311562 0.39480665 0.24243344 0.5606068 0.5865139 -0.31642312 0.033682495 0.4502816 -0.7263488 -0.52587616 -0.19203366 0.10224874 0.00144752 0.4511564 -0.44578913 -1.6675383 1.4882109 1.0484371 -0.94807875 -1.2016332 0.24966669 -0.3045972 -0.07170457 0.7535543 -0.94078183
82 0.4153128 -0.08378994 -1.3343592 1.1893294 -0.098767176 -1.1346259 -0.25903702 -0.060834035 0.6033542 0.94958335 -1.3312148 -1.1082339 -0.7706382 0.9676448 0.42208657 -1.3313285 0.003486608 1.1166178 -0.19992487 -0.25199154 -1.3646376 1.5113115 -0.11575604 2.6177418 1.3080958 0.80679363 -0.8363194 -1.3271991 1.2760606 0.20289186 -1.8884262 1.3440739 0.6967392 -1.6498479 -0.1535361 1.6810638 1.1013919 1.3902227 -0.058959693 1.62364 0.053423803 -0.3313281 0.97900283 -0.4891966 -0.575545 -0.41138762 -0.02427018 0.70032847 0.7420587 -0.1796727 -0.26121885 1.5049742 -0.16325055 1.5163331 0.13598739 -0.69186974 -0.09401587 0.42986968 -0.6468254 -0.18746044 0.5022272 0.14791003 0.36037058 -0.4347593 0.36221477 -0.5601732 1.4330072 -1.666793 0.22171253 -0.28121346 1.0013337 -0.44991595 0.75325197 -1.590309 2.5127099 -0.08685833 0.3062538 -0.8322551 1.0923873 -1.2392912 -0.826059 -0.08462214 0.38629746 -0.2905651 -0.21893784 0.42519614 0.00089758035 -1.9460157 0.47647431 1.1482372 0.9263466 1.8285003 0.63035226 1.1260973 0.84757185 0.33528155 -0.4959269 -0.15995738 -0.836962 0.16513924
83 -2.7776031 -0.9379886 -0.39423403 0.31463945 -1.8086116 0.4620089 0.9736186 1.4711568 -1.0768323 -1.2164963 -0.37890735 1.6867609 0.5635526 -0.6161806 0.1399263 -1.748074 -1.9677771 -2.0592985 -1.3628335 -0.52163446 -0.51316154 -0.22193047 -0.33459204 -0.32979125 -0.09183871 -0.6789816 1.4460198 1.4017072 0.0032769484 0.4785023 0.11410954 -0.8309828 1.3689963 -1.0395316 -1.2823105 2.7856748 1.1726413 -0.28938502 0.63989526 -1.5314412 0.033809654 -1.863344 -0.4521722 -0.40015417 1.4232318 0.38817686 0.84804326 -0.40561384 -0.2603445 -0.60560507 -0.919804 -0.3897272 -0.826099 -0.0036970852 0.38378322 -2.1420426 -0.6070085 0.6412662 -0.59133625 0.6340509 -1.4066192 0.41122884 -0.58307344 0.6184916 1.1359377 0.60849017 -1.6518073 0.18991242 -0.4828583 -1.4557819 -0.06194618 1.6638511 1.0210919 -0.8223696 0.017966958 1.3189532 0.8886646 -1.3284029 -0.48500437 -1.0524486 -0.4579598 -0.53251606 -0.47280532 -0.49633706 -0.64491177 1.3669332 -0.9470004 -0.8961215 0.91918695 -0.7870587 -0.90827453 -1.5529206 -1.328758 -2.3967245 0.4167146 -0.008131042 0.7492858 0.61671954 -0.5088303 -0.5800161
84 0.15413265 0.6799695 -0.31920055 0.121417575 -0.8134552 -0.63800234 0.8832599 0.9028163 -0.8303263 0.10447443 -0.47145012 -0.04531709 -0.20121557 1.728911 -0.62986004 0.5361333 -0.090604216 1.536596 0.22591805 0.24924164 -0.6459155 -0.16496906 -0.85535514 1.2431232 -0.079031475 0.13999113 1.6650885 0.40608287 0.51203036 0.07296597 -0.14749287 -0.8147834 -0.8659244 0.5799659 2.496042 0.15247181 0.9765704 0.55981326 -1.0978632 -0.30697766 -0.026188707 -0.0720636 1.3643048 -0.11849373 -0.024149017 0.71388847 0.3966685 2.6475573 -1.0815984 -0.14498842 -0.64834344 0.09634617 0.5665832 0.33933803 -0.7318901 2.0294864 -0.34570333 -1.101798 -0.2555347 0.758122 0.510003 3.365703 1.2215463 -1.1269833 0.9045019 -1.0768923 -0.33387086 -0.8650694 -0.4859058 0.06625618 0.1596726 0.75938094 0.76747644 0.08668225 -0.120125555 0.82041615 0.11820786 -0.37360594 -0.31117383 0.39702258 -0.4434158 -0.923218 -0.27278304 -1.3770541 -0.0032562574 -0.60675347 0.91753936 -0.18578207 2.5527608 0.017459769 1.4605093 0.3750018 0.2966362 0.68124753 -1.7640114 1.4336755 -0.32973555 -0.23147996 1.954614 0.79805034
85 -0.109557465 -1.5978016 -1.8843974 0.7917247 -0.056858566 -0.99144423 -1.3749461 1.0232035 -1.1910064 0.4939522 -1.7756519 0.5274371 0.66884136 1.3222194 -0.18394187 1.1714869 0.4833199 0.5607295 -0.14887445 -1.3981578 -0.45045725 0.007534748 -0.32115924 -0.048240535 1.6151845 -0.09904172 -1.1377283 0.26742667 0.88334155 1.3423146 -0.7266265 -1.4166254 0.8712128 0.46298358 1.176906 -1.3100505 0.5307391 0.090279035 -0.32969674 -0.5242168 -1.1813886 0.5249861 1.2634438 -0.5651623 0.45540848 -0.41703868 -0.5963114 0.62313944 1.00648 0.31683502 -0.8740215 1.1640117 -0.046375833 1.066101 -1.4901863 -1.12917 0.6956874 -1.9569982 -1.2873383 -0.06077898 1.85496 1.262024 -0.84954035 -0.98724085 -2.053448 0.04028956 0.5422935 1.2608001 0.09488077 -0.38872287 -0.24093759 -0.7033247 1.1611003 -0.25584257 0.7565414 -0.32401186 0.7956289 -2.0847747 -0.14298664 -0.31304455 0.42598206 1.5571624 -1.2259417 1.0084808 -0.5560772 0.030501917 -0.5242312 0.9061963 -0.37593374 -1.612286 0.053746168 0.8903018 -1.1489131 0.43538544 3.1872437 0.779138 0.029073803 0.44203562 0.6070792 -0.5088952
86 0.41507334 -0.0905024 0.4923179 0.43916583 0.830708 -0.07646113 -0.032616887 -0.35010245 -1.7057168 -0.29203174 -0.44378287 -0.6965819 -0.25623563 0.7919898 -0.9797945 0.4789725 -0.9998691 -1.1761119 -0.5861375 -0.059453934 -0.845952 -2.7442203 0.82237095 0.68840194 -1.2860718 1.7969347 1.8421249 -1.1355273 0.5103912 -0.58728456 0.8568899 1.0262004 0.44196957 -0.7561547 2.3525984 0.5255766 -0.22950183 -1.3794587 -1.4025389 1.6769396 1.102709 -0.25787738 -0.6488519 0.01756061 1.3242282 -0.12357816 0.07711611 0.15003929 -0.5897629 0.2546431 -0.051927477 1.2427001 0.46228203 1.3251748 1.0948955 -0.39750916 0.3819163 1.2950556 1.5997437 0.95636016 1.0972718 0.59656894 -0.24113514 -0.75735825 -1.6508049 -0.15077499 0.6780742 -1.3850965 -1.6901001 -1.4137894 -0.104076184 -2.1381888 -0.8027257 -1.1392846 -0.66684693 -3.5570297 -0.41258705 1.2350562 0.9089339 1.3051677 -0.4123566 -1.1066962 0.5825665 -1.3517725 -0.5778773 -0.65698624 1.1099758 -0.9737394 1.9907281 -0.27580935 0.12488645 0.56547165 -1.5784223 -0.69807416 -0.99947345 -0.53552705 -0.8360391 1.2761226 -0.7621063 -0.27946562
87 0.050048687 -0.41869864 0.49647865 -0.41357017 0.5103786 0.26288024 0.8108024 -1.398768 -1.0499759 0.6559549 -1.1956575 0.18187974 -1.3728256 0.7092382 0.46854895 -1.1108891 -2.0870097 0.5134885 0.13817863 -1.3333297 0.42850137 0.10170964 0.5647701 1.0881541 -0.19762531 -2.747646 1.2181908 -0.14074712 -0.376307 -0.12502481 0.55627453 1.0981581 1.3527924 1.45784 -1.4625943 1.2940724 1.0080255 0.5627975 -0.30099875 0.15773958 -0.8189145 -0.7457885 -0.32284358 0.7273041 1.4410349 -0.32194513 -1.7597302 0.96114403 -0.10888278 -0.99928546 -0.4576223 -1.7271588 -0.26789024 0.17906997 -0.14797007 -0.3234569 -0.09600664 -0.6606888 -1.4999058 -1.0471159 -0.79786944 0.45204264 0.7573099 0.48893225 -0.5988101 -1.5727038 -0.60339683 1.8350713 0.6830918 0.23037022 0.39411706 0.11825841 -1.5177441 -2.1629825 1.1589626 -0.45186132 0.94003797 1.3578849 0.3046433 -2.6582549 -0.60799646 -2.411979 1.100989 0.26213247 0.04248424 -0.13311796 -0.56100553 2.4903796 0.1867013 -0.7786089 1.0088044 -2.404213 -0.2651619 -0.5426098 0.06425305 -1.1630697 -1.6154711 -0.13566476 -0.1539855 -1.1371933
88 1.3551747 -0.47611344 -0.2152633 -1.1124587 -0.9996908 0.15005685 -1.3271123 0.48742804 0.5587232 -0.3477115 1.0008466 0.41500044 -0.23287542 -1.3563213 1.8453907 -0.77223057 -1.2010972 0.4393726 -1.0583371 -0.94677985 0.9715858 -0.8771902 0.7755144 -1.2627779 -0.4275246 -0.03472456 -0.7012315 -0.15396617 0.56387013 -0.36477557 1.2293018 0.28045955 1.2321229 1.7762303 0.85002005 -0.5280118 -1.2717884 1.0241597 -1.1580982 -0.15966927 -0.5231853 1.4055544 -0.39912748 0.584653 0.73398536 0.1486062 -1.780722 -1.3033688 0.51081777 1.896072 0.4339429 -0.6866839 0.23737411 1.4712756 -1.1101067 -0.8900093 -1.0921142 1.1048849 1.9226053 -0.19133854 1.2119304 -0.9441295 0.78755045 -0.30197725 -0.28706798 -0.87956065 -0.5248557 0.015575886 0.5723511 -1.0618771 -0.8339407 -1.4058422 -1.2123516 -1.3022001 -1.8999938 0.93585575 -0.26103142 0.4417129 -0.511865 -0.07471737 0.8663306 -1.223566 -0.9473599 -0.8565414 -0.2660352 -1.1535996 1.2924868 2.1357536 -1.1511089 -0.49389818 0.7057373 0.83306795 -1.7811799 -0.5925843 -0.11437015 0.40842617 -0.038092174 -0.98246413 -0.4253272 -0.6708501
89 0.7583189 0.4695184 1.9412919 0.0670176 0.959257 -0.32783 -0.28733367 -1.0988443 -0.32041386 1.0410768 1.1655518 0.7973444 -0.7085654 -0.42029148 -1.0092866 1.0626116 -0.344258 -1.6223918 -0.07774422 1.5058463 0.98988533 1.0554512 0.5769878 0.64099205 0.32599512 -0.75594044 -0.0631495 -0.84719074 -0.1391033 1.7400936 0.086035036 -0.17049207 2.355195 -0.34251267 1.2892393 -0.31681275 -0.929515 -0.800414 0.8962156 -0.15488581 0.21505497 1.4439483 1.3604002 -2.2431073 -0.011033306 -0.5136261 1.4807591 0.12792896 -0.23137937 0.19183666 0.60489523 -0.5766062 1.3276832 -0.8901746 1.5287338 -1.6743758 -0.098622784 0.26546365 0.9331175 0.70591605 -0.26099136 -0.59383315 1.0764853 1.9598421 0.35487172 0.20144552 -1.1368409 -0.61139935 -0.30051062 0.05762025 0.3823322 -0.19100307 0.53495234 -0.50848985 0.59451723 -0.21607262 0.2831877 1.1646167 0.3559067 -1.623341 -0.50233287 0.18045013 -1.1898025 -1.674339 -0.26683378 -1.8129876 -0.45387173 0.45025405 0.5636419 -1.1958779 1.2582048 0.26560622 -0.042198278 0.1144619 -0.71788144 -0.9491839 -0.16895209 -0.74272776 -1.974486 -2.8931153
90 -2.6951249 0.28865388 -0.534055 -0.39950857 -0.2678196 -0.11094725 0.24622363 -1.5313553 -0.3534671 0.7389995 -1.7890937 -0.6791138 0.0668107 1.1756152 0.86000746 2.6542442 1.8676624 1.7594507 0.7736911 -2.32454 1.3263128 -0.72955227 -1.1512741 1.2524569 0.98649204 -0.13262576 0.57306045 -0.6939395 0.5045703 1.54949 -0.9587545 0.6265913 -0.77367836 0.9270386 0.41851112 0.68004817 2.1542575 -1.1332688 -1.0251063 0.5279581 -0.69085133 1.2614673 0.6608927 -0.21580237 -1.6381967 -0.41557917 -0.25715467 0.101180926 0.41671392 0.061403174 -0.66218877 -0.88212174 0.4723671 -0.52694434 -0.8692726 0.124995485 0.9656716 -0.6588938 -0.48518994 -0.605612 0.26682386 -0.92944586 -0.39327204 -1.2075282 -0.2085059 -0.31423107 0.91265446 3.1624405 0.4722274 -1.9765444 0.0597346 -0.47624558 0.8395073 0.566461 -0.9951502 -1.0525581 -1.6735375 2.3766656 0.29002458 -0.8471511 -0.7783261 -0.6720828 -1.2234555 -0.34244025 0.3582922 -0.06449124 0.92104316 -0.3809726 0.042980283 0.23461403 0.83696324 0.79238045 -1.6333146 1.4623356 -0.43844208 0.12974632 0.7138062 -1.1057099 0.80697644 -0.057397705
