263 100
Helvetica -0.23608543 -0.97256935 -0.6887993 -1.2377052 0.24315622 2.0569146 0.7068323 0.38111824 1.6498001 -0.37986556 0.5737691 0.15337545 0.331933 0.6755762 -0.02802931 0.08538913 1.4055376 0.33673656 0.059263144 -0.53619015 2.7533147 0.0732036 -0.61287946 1.0725956 0.27951697 0.50420433 0.74092686 0.51791084 -2.8785357 -1.6401768 0.15601943 -0.4152329 -0.42254436 -0.48678434 -0.6639908 -0.97104514 -0.52415985 -1.6430165 0.19044808 1.1165128 0.83170897 1.8475194 -0.44694838 0.58886355 -1.4622813 0.0694636 0.3543846 0.14750163 2.4348116 -0.38000134 0.8009805 1.0592889 -1.5404292 -0.97838706 -1.6431872 1.5676322 -0.370867 0.44164574 0.3452022 0.16717494 0.27746448 -0.18798827 -0.45006746 0.86270386 2.8488905 -0.20080496 -1.9454607 -0.339081 0.3760236 0.04536302 -0.53111124 0.14924039 -0.2741956 0.78361183 0.115380876 -0.18886293 0.614111 0.9273537 -0.27248913 1.4274788 0.50369173 0.3834836 -2.0281234 0.12250635 0.055610828 -1.2761652 0.4499007 1.9156839 2.1835828 0.5267479 -0.08934544 -0.49657202 -0.9747567 -0.5510782 0.3911559 -0.1619611 0.23826468 -0.86653674 -0.040886395 -0.4675738
expandedcolortbl -1.6104314 -0.7869949 0.84909254 0.13234544 -0.13429219 0.70540786 -1.9327781 0.28049788 0.1588268 -0.9591331 -1.397267 -0.1549625 -0.7683784 -0.34734577 -0.13879965 0.3784301 1.2465506 0.08709327 1.145862 2.3484917 0.28743738 0.071378686 -0.1904669 -0.4749248 -1.0010922 -0.39893132 -0.4791033 -0.48920402 -0.11183865 -0.112175405 -0.033120815 1.0409805 0.65569323 0.9485509 2.0133634 -1.1579767 -1.0536826 1.0855935 1.6653199 -1.4397923 1.5182352 0.8903877 1.346599 0.058779825 -0.95050925 -0.99262273 1.0698949 -0.9286486 0.5708246 -0.3925493 1.257555 2.4893942 -0.015861263 0.5440817 0.18064125 0.4513077 -0.7022424 1.1620322 -1.1072121 -1.1829236 -1.0460125 -0.32593787 -1.0888215 0.05215524 -1.6149337 -1.0517607 -0.4956415 0.55447227 0.54314166 -0.3814129 1.0977323 -1.4054335 0.7383575 0.4653084 1.1317896 0.059395533 -0.9737789 -0.668903 -0.1319507 -0.09203525 1.1135347 -0.07594465 0.07642267 -2.495645 1.8217427 0.4248894 0.4831947 1.3543736 -0.09644401 -0.9029581 0.13290264 2.4844933 1.8188387 -1.8043606 -0.8679086 -0.062152416 -1.2986768 -0.48551318 0.337375 -1.0693692
Magali -1.5963432 -0.8554937 0.65089947 0.81749505 -1.3449355 -0.940472 -0.58451265 0.9433345 -0.14392568 -0.06056713 1.6000358 -0.43223473 -0.48577932 0.5590117 0.48740202 0.2342634 -0.0606868 0.91227335 -0.44951278 -0.2714268 0.43531987 0.019621477 -0.3869224 1.4673733 0.8749276 -2.0746834 0.77778715 -0.22909428 0.9915399 0.7983618 -0.3162144 -0.9013678 0.43648028 -0.6503697 1.5742087 0.84352183 -0.61506367 0.7115545 -0.1137394 -1.3997291 -0.28727642 1.4380076 -0.833194 -0.3913658 -0.27227488 0.8592069 0.49012506 0.23323694 -0.511393 -0.07044831 0.14636597 -0.11669661 -0.933023 0.69082785 1.0879283 -1.4239061 -0.5776067 -0.569309 -0.34149712 0.70220774 -0.026023876 0.48704448 -0.15857486 -1.8860782 0.46148875 0.49574092 -0.10900577 0.18909408 0.21997464 -1.0124974 -0.006841355 -1.1974658 0.1251115 0.13079318 1.4298751 -1.649686 -1.4971845 -0.7848363 0.1838738 0.9728086 -0.8075558 1.2707238 0.6580284 0.80956763 0.23754174 0.52718264 -0.81886435 -2.507628 0.27837566 -1.509222 -0.2812309 0.4733011 -0.15733504 -0.5380058 -0.40102392 -1.1505535 -0.78075105 0.15098734 -0.33441955 -0.109374344
et -1.5421165 0.08121088 0.7878134 0.2331666 -0.02708027 -0.39526588 0.22849663 0.09716782 0.39024445 -1.0129681 1.612659 -2.1257923 0.3744443 1.0297223 0.01932568 -0.569763 -1.6409762 0.6029147 1.3816203 0.9478478 -0.32655597 0.61582017 0.48729667 -0.9641386 -0.30930686 0.4522817 1.9109776 -0.83489573 0.7832764 2.1037602 -0.5251814 -1.3655552 -0.25109532 0.9260513 -0.51647425 -0.902442 0.109775394 0.80027986 0.41493934 -0.7222762 -1.0987686 -0.7811308 -0.8039367 0.30183473 2.4486 0.60281265 -1.240443 1.5055429 0.38965526 0.27800107 -1.2247901 -0.63661873 2.4247746 1.2050519 0.20976944 1.5267367 0.10917896 -0.45301306 0.18733075 1.0945457 0.9192759 0.78612 -0.61988723 0.48690358 -0.5592313 -0.27066633 0.18274814 -1.221738 -1.1661751 0.830011 2.3432283 0.7213359 -0.032002587 0.09954049 -0.14512114 0.7720482 -0.4174776 -0.32247782 -0.34994468 1.0573559 0.35025784 1.2630732 -1.0920633 -1.0445677 1.353288 -0.3818017 0.025686815 -0.33522034 -0.14982331 -1.1329014 1.4887118 -0.53341967 1.0096071 -0.42379394 0.9482421 1.2407066 -1.5734291 -1.1737245 -0.06807525 -0.7547093
le -0.2909473 1.6536627 -1.1285878 0.48119006 -1.0891173 -0.64407873 0.8389605 0.94632274 -0.2664878 -0.244192 0.61784893 -0.7856659 0.084233545 0.7088141 -0.10928667 -0.4017995 -0.09221511 1.6226815 -0.1305469 0.05491681 0.9932719 -0.44729525 -0.18333527 -0.5350739 0.11566282 1.816909 -1.3940862 -1.1560819 -0.63818896 0.1328953 1.8519998 1.0012059 0.9568293 0.121593736 1.6262076 -0.74444586 -1.4523946 0.76062167 0.0077441577 0.6855319 -0.27288765 0.75655127 -0.37764722 0.89228487 -0.47771192 -0.15321392 1.6505278 0.8468394 0.4921866 0.44164002 0.47659525 -0.04707879 0.48144463 2.1443775 0.8118999 -0.2291972 -0.4873264 0.55444294 -1.2346308 1.5286657 0.5994288 -1.0074625 0.30928728 0.104514286 -0.67613214 1.5118618 -0.8522762 1.3098356 -0.80496013 0.5926319 -0.40233517 0.04586293 -0.40187764 -0.99053186 0.85505116 0.01667692 -0.03827594 -0.45760277 -1.2813213 0.55291975 -0.98114514 -0.15284964 -0.23037146 1.0779042 -1.6500075 0.024617862 0.53251535 0.10530275 -0.20899661 0.4182663 -0.24805166 -0.9889262 0.09731521 -1.0046726 -1.0708498 -1.5677675 0.32729438 -0.59383166 0.7535672 0.32194433
pain 0.4537378 -1.1795589 1.1312587 0.14916469 0.72578484 -0.7052855 0.13255228 -0.39103577 0.9440182 -1.7477534 0.30020958 0.24629983 -0.7757633 0.21698613 -0.018737594 -0.6641526 -0.5922126 -2.6274576 0.09613375 -0.87713385 0.23078527 -0.6413512 0.43235198 -1.1870515 0.04299929 0.14156276 0.038002178 1.8634852 1.1889435 -1.4953562 1.4387013 -1.1477873 -0.43937567 -2.6760633 0.9531969 -1.2368354 -0.6126348 1.7405566 -0.31183988 0.60802984 -1.0976264 -1.5612261 -0.990018 -0.58171326 -1.3952787 -1.3182012 -1.425014 0.33261952 0.31113857 0.77618164 -0.14146148 0.7227711 -0.7825326 1.1551725 0.74991596 -0.10056635 -0.8886746 -0.6763513 1.452159 -0.39857695 0.78421223 -0.18313189 -0.43745384 -1.0657636 -1.1565952 0.3105268 -0.919495 -0.7306025 -1.9590678 -0.804401 1.4951476 0.20320809 2.579051 0.6719077 -0.94145894 0.30390477 1.5473276 -0.93751967 -0.75726306 -0.06938264 -0.5105141 -0.536637 -0.17640954 0.06146188 1.7311796 -0.22646132 -0.5524747 -0.31335995 -0.74950707 -1.7868967 -2.017525 -1.4535811 0.51377326 -1.1076407 0.90415305 -1.8555979 -0.50741684 -0.1463738 -0.07533689 -0.26786986
de 1.4693828 0.84218377 -1.1887825 -0.4923826 0.53343344 -0.7999839 1.9934162 0.7316477 -0.88771266 -1.8952943 -0.77782315 0.2500085 -0.334162 0.10560364 0.3848496 0.7923689 0.2260306 1.8343674 0.18112427 -0.6574073 -0.38585985 0.41955516 -0.37830922 -0.63479024 0.6414588 -0.74872744 0.3994541 -0.37659946 0.48303378 -0.44857776 0.812445 -0.9231051 -0.7350262 -0.69440293 0.7722121 -0.09778241 -0.84482074 2.2029774 -0.29069334 -0.85115165 -0.5337312 -0.9438543 0.5708288 -1.0402588 -0.49620458 -0.7339117 -0.10896123 0.0717653 0.20204042 0.2656785 -0.83092016 0.66622937 -0.69619447 -0.2717449 -0.75798374 2.1848893 0.05978936 -0.6710093 2.1575613 -0.34553835 1.4918277 -0.17891586 0.092608646 -0.47243348 0.2750052 -0.9707221 0.080600016 0.10035831 0.56515265 -0.5159751 0.21143928 -0.122426555 -0.07298172 0.39127803 -0.9934884 0.36147675 -0.6204632 0.7495081 -0.37809926 0.3332513 -0.7568471 -0.39581433 0.6002752 -1.084969 1.117681 -0.060906436 -0.6294726 1.4724454 0.65607095 -0.53485435 0.88585967 0.63966984 1.7304634 -0.38257068 -1.0348169 1.2882802 -1.3739978 -0.48784035 -0.6156129 0.5000186
kg 0.6949074 0.83697724 -0.99848616 0.96172595 -2.6093056 0.6843598 0.506293 -0.61882293 1.1006591 1.4006879 -0.44795936 -1.5800506 0.11408017 1.5094669 -0.6614106 -0.9726257 0.76382744 -0.55376434 -0.9747891 1.3136224 0.7313445 -0.3060913 -1.805025 -1.6869195 0.20162584 -0.44549558 -0.22209348 -0.2373247 -0.09376043 -3.3861089 -2.1642919 -0.28871977 0.15829457 1.5264081 -0.736524 1.6520121 -1.1617463 -0.9497136 -0.02694702 0.71343917 -0.7067947 0.58365834 -1.4856192 -1.661211 -0.70267195 2.2942848 -0.6457515 -0.47441232 -1.1394325 -0.13101739 1.908971 0.3733955 0.26893687 0.30561244 0.20019296 0.8662972 1.2852939 -1.0284817 1.0787983 -1.1906925 -0.6802272 -0.39922848 0.94121146 0.8216531 -1.6310815 0.5801238 0.12993194 -1.8329092 1.7099898 -1.1855366 -0.43291625 -0.45860237 0.91510093 0.13046294 -0.77110904 -0.6769586 -0.85262865 -0.08262043 -0.19541043 -1.2626599 0.40438554 -0.40110537 -0.27760908 -1.2625223 2.21144 -1.2479968 1.0774984 0.36573467 -0.92404413 0.25522357 1.2823411 -0.14150023 -1.1556625 -0.9456177 -1.697472 -0.9018925 2.633794 0.1401268 -1.2046297 0.40075085
m -0.06778778 -0.9196977 -0.15121531 0.24577455 -0.43207362 0.8650205 -0.28822148 0.8429882 0.15938596 -0.3628522 1.7730374 1.9810225 -0.22161996 1.789553 0.5832901 -0.94877225 0.10249359 0.91130775 -1.4972687 -0.3699535 -2.1791847 -2.0689173 -0.6459061 1.0786374 0.26538557 -0.99477196 2.1824949 -0.55828226 1.5122335 -0.95332444 -0.5811105 0.60547984 1.5497501 0.9665831 -1.1104116 0.98452204 0.04154089 -0.39515764 0.37021685 -0.1927616 -1.0602155 0.7705666 -0.26640666 -0.54153275 0.8207269 -1.1398481 0.36829332 -0.37300622 -2.8082476 -2.967295 0.86549205 0.35950395 0.23408881 1.34427 -0.3932856 1.0775541 -0.08899477 -0.4389942 0.31580177 -0.9428173 0.094259635 2.7949 -0.7252205 0.08247233 0.6034567 -1.0152508 -0.26028052 -0.32662794 2.4792213 1.2586882 0.9389692 -0.8316637 1.6374102 0.9465833 -1.7636962 -0.7158799 0.21893498 1.0188924 0.6890068 1.0044222 -0.62374365 0.26459306 -0.20236668 -0.7465166 -1.0300353 0.15254559 0.059105404 2.2972279 -0.47633228 -1.3614844 0.8631124 0.9349742 -0.860782 -0.60934263 -0.26130712 1.3268158 0.27307078 -1.6528558 -0.6852808 0.8903221
La 1.7094238 -0.58221024 2.1170244 0.5118269 1.7321514 0.2216486 -0.08627802 0.12865901 0.69804895 -0.44732183 0.5412351 -1.1313636 -0.20617151 -0.75571555 -1.147179 0.03813579 -1.0091652 1.4838458 1.2018253 0.1310153 0.15515387 1.9073927 -0.5922403 1.0038576 1.1598401 0.3206831 -0.7670906 1.4366854 -0.7721066 -0.059065882 -0.8353235 0.09683154 0.3467201 0.5866736 0.5469905 -0.19206125 -0.9115648 0.030198483 -1.4256968 0.8361386 0.5018197 -0.30326557 1.5392911 -0.3783213 0.45499226 -0.89173365 1.294101 0.1961725 0.5915229 -0.27956527 0.5541934 0.604343 0.98191065 -0.96478975 0.36474183 -0.7778561 0.03725575 -0.6476638 -1.4256299 -0.67782587 0.78096455 -1.08523 0.20762676 -0.5075651 0.697376 1.8475069 -1.9517764 1.1961362 -0.18713796 -0.10386794 0.0196989 0.13291897 -0.30458993 0.9322487 1.3597633 0.2535171 -0.3022329 1.2493192 0.8585123 -0.7226058 1.0619379 1.0140337 -0.13984592 -1.000724 -0.63836956 2.031926 0.81113833 -1.490275 1.4282345 -0.061526492 0.20126562 -1.7747864 1.8739365 0.5473838 0.20862667 0.04568921 1.2315885 -0.7462773 -1.7045143 0.5198077
aucun -0.83943415 1.2045506 0.10534381 -0.37949538 -0.5190738 -0.29573622 -1.5739359 0.3552258 -0.72461456 0.43973973 0.2507779 0.19970669 -0.27905017 2.5806437 -1.0724463 0.64651746 -0.9999493 -0.95749015 1.3864093 -0.89915574 -0.5011118 -1.0439504 -0.7139972 1.154674 -1.3964853 0.1301891 -0.29922044 -0.46898997 0.60249966 -1.0191497 0.6730295 0.60701835 0.5159564 0.54053795 1.0033203 -0.032120414 0.34040108 2.2471926 0.032183085 0.31256863 1.8281584 -0.22540985 0.19917625 0.0025799985 0.3273075 -0.33452716 1.1529988 -0.09636272 -1.2510062 -0.64315915 1.439778 -0.8086642 0.9363493 0.5554842 -1.5037836 -1.7645085 1.1431946 1.3916528 -1.3804358 -1.0899963 0.41772595 -0.60959184 0.3291345 0.3075597 -1.3570378 -0.85567147 -0.021738697 0.30798402 0.9714841 -0.21826105 -0.6347334 1.8980217 0.41454926 0.15098248 -1.2998536 -1.1485344 -0.4168565 -0.2617874 1.368995 -0.3829273 -0.99735165 0.4496032 -0.22132768 -0.23885064 0.16960378 -1.4929416 1.5952965 1.4065264 -0.2543058 -0.784631 -0.4281183 -0.7247552 -0.13803713 -0.30025604 0.5911502 -0.4235118 -0.4410852 -0.09855274 1.8746359 1.1415164
boulanger -1.2670212 -0.5340236 0.55336314 -0.23603249 1.9542744 -2.2930818 -0.3892786 -2.0861104 0.20389475 0.9621207 -1.9294958 0.15717591 0.5564532 0.043047626 -0.2529792 -0.36950558 0.8562013 -0.3885641 -1.4488616 0.5836958 0.23868254 -0.5462454 -9.0070345e-05 1.047485 0.15613504 0.80936855 0.65385294 0.9507736 -0.8776143 0.16914123 0.09619527 -0.82259715 0.8441359 0.051125582 -1.4280396 1.0867531 0.30880663 1.1669371 -0.34141007 0.35507348 -1.4600005 -1.0240476 0.55503136 0.6318596 -2.0612233 0.043598853 0.9425681 0.87112474 0.40448642 -0.22711375 1.327089 0.21398884 0.29500687 -0.09343879 0.8527633 1.8156579 0.33434597 0.23861177 -0.85637426 -1.4877722 -1.7585272 -3.1329343 0.43497065 1.5853884 -2.3431485 -2.8513327 0.050734144 0.14443274 0.0998294 -0.11724033 -0.87659466 -0.5853433 -1.2820075 1.5652167 0.75659454 -0.66917986 -0.32060164 -1.000607 -2.2353117 -0.9856641 0.47694892 -2.1407928 -0.48536655 0.060997248 -0.6698241 0.95263314 1.8049041 0.85181564 -1.9142604 0.38829675 -0.008053366 -0.32752913 1.3284353 0.19896787 0.32956946 0.5553497 0.76357853 -0.73926395 -0.26859322 -0.06962127
ne -0.25035083 -1.6218356 -0.6068554 0.27350155 -1.5955126 1.2253292 1.3931929 -1.2345753 -0.92640173 -0.66199315 -1.0936064 -0.82772046 -0.653894 0.67188054 0.65926826 0.17906705 -0.06703498 0.56288016 -1.7732857 -0.2552993 0.8312184 0.16789925 0.047049407 0.3496656 -0.18294565 -0.048619226 -1.7001116 -2.1433213 -0.7291891 -1.1179587 -0.052028652 -0.2973696 -1.7461991 1.0852034 1.3862766 1.3850251 -0.7065383 -1.8994887 0.9729046 0.46087605 -0.666907 0.067947656 -0.69373804 0.101935774 -0.06562652 0.4026874 0.50899553 0.37545872 1.7896031 -1.7798373 0.6043607 -0.26958734 -0.40826592 0.14493129 -1.0529516 -0.004490057 -0.5181152 -0.8574991 1.3802979 -0.8963006 1.4904711 2.0621998 -1.5374405 -0.052808523 1.1444767 0.46441785 -0.7279162 1.8955425 0.72347426 0.49638397 0.6505994 -0.27964696 1.0827317 0.57420963 -1.1357976 0.08409047 -1.931483 1.1722941 0.6488239 0.55885255 -0.59871197 -0.42274565 1.619168 -0.5461515 0.9808005 -0.64571106 -1.4003037 -0.35772935 1.4299549 1.1009624 -0.44076127 0.21420929 -0.70681757 -1.3663552 1.028397 -1.3235946 2.1223705 -1.2924129 -0.08661763 0.2616564
la 0.08124364 0.7524101 1.3371655 -1.3929846 0.18576694 0.5809405 0.9552039 -1.0100647 0.24629962 3.2697558 -2.3436754 0.3263231 -0.6145641 0.39346036 1.2754627 0.035855446 -1.3757359 0.24142803 2.0850267 -1.4917547 0.1561809 -0.6893536 0.68625504 0.9354496 -0.87414706 -1.3177823 1.7431253 0.97281134 -0.9685227 -0.99346304 0.138914 2.0231495 -0.3063914 2.233402 0.5528924 0.18726875 -0.42147785 0.0817725 0.6301262 0.21529797 0.17238885 0.08846347 2.4310892 0.2703486 0.4970032 -0.6613765 0.79989743 -0.27899995 -0.67773587 -1.5895666 0.4748892 -1.2540001 0.24628522 -1.8011318 -0.1522066 0.46733046 2.444449 0.11320036 1.2332746 -0.3364965 -0.623909 1.0703424 -0.9734345 0.45181736 0.70713425 -1.3415459 1.2741954 0.29700595 0.5723267 -1.141423 1.4291112 0.66248214 1.8504875 1.1901841 1.4777342 -0.6671852 0.49218038 0.96438867 -0.07961975 0.34812763 0.80567235 1.2108282 -1.5735327 -0.14780374 -1.5150816 -0.075725496 0.9720985 -0.96048915 -0.94690686 -0.4575118 0.3925419 0.4403046 -0.56624454 -0.84536994 -0.98662114 -1.4773165 -1.2555206 -1.1335114 0.03047623 -0.52214634
manque 0.67318845 -0.49346715 -0.12223546 -0.48791605 1.1341461 -1.3126 0.17860393 -0.2796171 -1.301362 2.9217644 2.3576736 -0.21516997 1.6510158 -1.6918942 -1.2792599 -0.08889675 -0.8003876 0.41497466 0.6743295 -0.5279377 -0.015636414 -0.013570855 -0.3869509 1.1796409 -1.3686823 -0.437923 0.042205125 0.045665294 1.6450074 1.6226455 0.4868145 0.33505425 0.90063035 -1.148077 -0.7428192 -1.1715798 -0.3636213 1.8023167 -1.3829848 0.3520823 0.051929887 -1.2357903 -0.7321958 -1.264408 -1.1280103 0.17433333 1.3495129 1.1473941 0.91191226 2.1940448 0.22171694 -0.21234865 0.109342575 0.6250644 -1.2699494 1.2791526 2.0210283 -0.2564457 -0.008438243 -0.28255776 -1.4941833 0.26933107 -1.5885968 0.30332932 -0.3489186 -0.40911755 -1.1284866 0.7921787 0.10127376 1.6880451 -0.6607799 0.74646294 1.6452075 0.17027041 -2.277129 -0.75302416 -2.1460533 0.45811227 1.1551439 0.012690599 1.0442363 1.2094634 -0.4043548 1.3778901 -0.80975586 -0.17521109 1.1014464 0.20495635 -0.4504011 -0.82729316 1.1035571 2.2185676 0.043282058 -1.1513629 0.91297454 -0.7378808 -0.0018270935 0.28762075 -1.4512675 1.0279939
Et -1.3352545 1.6623414 -0.19518061 1.242351 -1.509049 -0.48087972 -0.13117714 0.30717692 -0.63938504 -0.38359666 -0.49724954 0.6510803 0.0034967926 0.18894696 0.810356 1.6563722 0.8964042 -0.40601897 -0.06536013 -0.8936547 -0.07194962 2.2279744 -0.88926977 0.3799577 -0.08485172 -0.6642301 -1.2157857 -0.7181512 0.012709888 -1.0090407 0.7833447 1.7994779 1.2079179 -1.1574223 2.0254908 1.6794899 -0.053742554 -1.3428771 -1.2009612 1.3758819 -0.6481555 -1.6358067 0.72108656 -1.8084702 -0.42744103 1.0134869 -0.4136279 1.3047678 -0.25921884 0.045716524 0.031454694 0.48159987 0.7251435 0.5531184 1.296107 0.8236089 -1.2320429 -0.20028944 -0.91720974 0.58372086 0.44913405 -0.21204688 0.62297946 0.5685493 -0.9924989 -1.9193232 0.924898 0.64443564 0.17538242 0.7926809 1.3022072 0.4354515 2.3996854 0.8013934 -0.8128576 0.2940896 -1.2550886 -0.35434178 0.3251426 1.4853266 0.7214771 2.0140085 -0.8854758 -0.0780455 0.7022017 -0.57106113 0.26437652 2.7119067 -1.13992 1.1460437 1.3103312 -0.42387834 -1.4518027 -0.14031193 -1.4741764 0.041750446 1.3518456 -1.2727832 0.97840333 1.1414787
chacun -1.037032 1.0972854 -0.26479244 2.8825295 1.3222383 -1.3310949 0.023585694 -2.2406635 0.24423146 -0.10891491 0.10412825 0.77834153 0.055324856 -0.968297 -1.6822231 0.47734332 -1.3198032 -0.6509466 -0.85604376 -0.20546539 -1.0003941 1.1047671 -1.4021702 2.5505064 0.23836507 0.28014293 -0.010855904 -0.5030776 2.147148 -2.0080588 -1.1238382 0.67171633 -0.074931964 -1.2297332 0.32688364 1.1274943 0.584374 -0.6075157 1.0714582 -0.5655664 1.9917297 -0.056786552 0.37678614 1.4172301 -0.3710077 1.080773 -0.3696138 -0.30124307 -1.3651867 0.67130995 0.37807676 -1.6223607 -0.7379919 -0.98724985 0.6633603 -0.2735142 -0.97075194 -0.6731039 0.5231346 -0.00037505812 0.23858276 0.10023296 -0.027149629 -0.38863033 -0.08532772 -1.113106 -0.44741893 1.7942214 -0.5256286 0.38871485 2.0391421 0.29935285 0.16139 -0.526086 -0.19262926 -0.14500393 -1.082754 -0.4885436 2.7745988 0.16278027 0.08079192 0.7055165 -1.0697763 -0.10985727 -0.7905257 -0.112588115 -0.47783667 0.9326051 -2.1386793 -1.5370003 -0.9814927 -1.6467942 2.195115 1.0996829 0.99448234 -1.3364106 -1.2245592 1.4346101 0.46271864 0.11217245
ses -1.1236883 0.2392393 2.0895288 -0.4654195 -0.34682313 -1.1272988 -0.24346013 -2.1652656 1.0948942 -0.8062222 0.05877308 -0.13505612 -2.7700787 -0.3103672 0.6465859 0.86193126 -1.8644751 1.3472562 -0.84858805 -0.55605894 1.5362271 1.5749316 -0.64155364 -0.60252845 -0.7981468 -1.2314416 -0.11688308 -0.5075216 -0.17797561 1.3946438 -0.027097935 -0.15956557 0.7241622 -0.9135544 -0.51450646 -0.2720643 0.602183 0.13758571 0.6551376 0.6527303 1.6632352 2.6279747 -0.0017890028 0.619573 -1.4715874 -0.059657373 -0.2736738 0.5291458 -0.54016036 -0.2570994 -0.5080418 -0.51968324 1.4966111 1.300163 1.3618659 -1.3544753 0.7393888 -0.48603478 0.39500552 -1.3393612 -0.3704965 1.4967581 0.5674203 1.1677583 -0.5778605 -0.4945471 0.06181409 0.96637064 -0.55473495 -0.3800665 1.2919918 -0.693074 -1.7954515 -0.16166168 1.2868869 -1.5153298 -1.1910183 2.1678524 -1.8343496 -0.087580435 -0.5393913 0.7533265 1.5880227 -1.0551077 1.6293631 -1.8462529 -0.6463123 1.56875 -0.19045396 1.0120137 0.89612544 -0.33193687 1.4009639 1.3587661 -0.4802453 0.24954367 -0.103179574 -0.45424193 -0.10507849 -1.2548478
cuire 0.50283885 1.5705326 2.1156762 -0.0009142196 -1.0358229 1.6426016 1.6139 -0.45911217 0.37612367 0.034349892 -0.09297751 -0.10520839 1.820435 -2.0592222 0.8533584 1.4815683 1.4912193 1.2348589 -0.59559065 -1.3909976 -0.773378 1.3051152 0.6963041 -1.00104 -0.12742448 0.11512421 0.56373334 -0.77707404 -0.24562497 -0.8812087 0.983081 0.27669585 -0.7117205 0.1337868 0.15612018 -0.094280705 -2.3664167 -0.90334207 1.0896721 0.094232835 0.583913 -0.5090015 -2.618182 -1.203152 -0.49101293 -0.5039798 -0.20794272 0.08614548 1.1723297 -0.13454166 -0.9833999 -0.35431612 0.14388414 -0.71609974 0.45944953 -0.31508356 -0.6181365 0.600278 -0.85469776 0.16269378 0.43730152 0.45922583 0.98013836 -0.61659336 1.7318697 -1.5759517 0.45742187 -1.1292974 -1.1378837 -0.25281224 -0.3916426 1.080071 0.11228847 -1.4647629 1.2146183 -1.8126343 -0.42534813 -0.40532893 0.13363576 1.9912019 -1.6231599 -1.208991 0.4328393 0.653077 1.3390603 -0.7665113 1.5255648 1.1769028 -0.5361483 -0.6578333 -0.5460929 -1.6312237 -0.0076699564 -2.083055 0.7779603 -0.270769 2.0877962 1.7953633 1.3852444 0.64826477
bon -0.5188945 -0.60659534 -0.019229725 0.42552897 -1.0335025 0.23106326 0.090956256 -0.3808248 0.10177644 -0.23669238 -1.1136857 -0.61822104 0.2249299 0.94650495 0.44969004 -0.587332 1.6113011 -0.5032968 0.2005233 0.43190384 -0.14292465 0.088636436 -0.607699 1.3749874 0.7828183 0.03438722 1.0863055 1.2219914 -0.9548022 -0.61681867 0.22019564 -0.7415103 0.037933584 -1.8821934 0.99687177 1.6299665 0.16711208 0.56368285 0.2550149 -0.17366458 -0.6426118 2.134325 -1.1352595 0.7063542 1.3072559 0.5191775 -0.57960474 0.001849859 0.8222885 -0.6902902 -0.7144894 0.68198735 -0.33189586 0.46278012 -1.0059679 -0.85237914 -1.6472181 1.2084085 0.93453497 -0.22370715 -1.4396541 -0.4739339 -1.0954773 0.24017623 -0.92651653 2.1542082 -0.24357824 -1.4267204 1.1797234 -1.8930569 1.581901 0.83553094 0.49560967 -0.14161494 0.6564691 -0.5737189 -0.8515679 0.3588998 -3.3627782 1.5593793 0.61455035 0.0043030586 0.49644667 -0.22412173 -1.2653862 0.1407533 -1.1257586 -0.8353212 -1.245623 -0.9036656 -0.65250534 -1.1102182 0.86110103 -0.18949349 -1.0530691 0.23766007 2.3656287 -0.27686355 -0.2794142 0.39458576
Chez -0.21674235 -0.15417676 0.5431867 0.4676207 2.3233128 -1.2052344 0.81004316 -1.246331 1.4291663 -0.28204197 -1.263693 0.11091506 1.3366507 0.7632431 -0.79833496 -1.2765176 0.34857672 1.5402889 0.16105469 -1.111452 0.7478994 1.659495 -0.07592324 1.6613837 0.8421987 0.18074848 0.64317966 0.23591186 -0.9248517 -0.22811814 0.5705037 -0.6441615 0.7917837 -0.2319032 -1.2400132 -1.0506508 -0.006481179 -0.4432424 0.65463513 -0.6264607 -0.27395147 1.4989548 -1.3973371 0.75021285 -0.46375734 1.8821768 2.1002614 0.4085573 0.9872749 0.4084286 -0.76635087 0.33954278 -0.15213993 1.4053857 0.5699401 -1.0033067 -0.6789375 -0.6542043 -0.18899085 -0.32798365 -1.2571622 -2.2291918 0.07207564 0.1229631 1.6148516 -1.1333115 0.20235671 0.2171639 0.79208225 -1.2686961 0.036040388 -1.7639422 1.0318887 1.5620265 0.9655411 1.3375406 1.5843139 -0.09163336 -2.111739 -1.2924833 0.8907164 0.89186627 0.986268 -1.1953005 -0.7038359 0.20388545 0.1750643 -0.4620877 -0.3106731 0.085734576 0.12820624 -0.21224552 0.9094292 -2.0756822 0.97173226 -0.63966125 0.1780888 0.76198035 -1.9448607 0.81045026
Devriendt -0.6047645 -1.9631883 -0.12032485 -1.1953989 -1.3024359 1.5861281 -0.87029296 0.77718866 -0.28497857 0.33837813 1.6457713 0.5033455 1.1114116 -0.26842415 -1.4931884 -1.4250857 0.14935656 -0.31526428 0.53694445 -0.98736864 0.59436023 0.90360385 -0.0027941195 1.2392683 -0.8406979 1.4956946 0.57585174 -0.023281055 1.8530015 -0.7653129 -1.0794073 -0.78565764 -0.65438163 -0.41383263 0.9766748 0.1108049 -0.77045727 1.4352691 0.5886738 -1.4760845 2.5053804 -0.67720675 0.3515516 0.019913126 0.4650998 0.14765058 -1.1621606 1.5436481 -0.700871 0.088119395 0.060471926 0.47514635 -0.7390275 -1.554609 0.29254425 -0.6689751 -0.4830947 -0.50931436 -0.9441946 0.9760876 -1.7237669 -0.07916499 -0.08514458 -0.3327062 -1.0306215 -1.331697 -1.717168 0.06509659 0.995484 0.6388932 2.0189147 -1.0846748 -0.81300986 -0.43456233 -1.0649779 -0.17696972 2.589989 -1.251543 0.22532709 0.3610488 1.1643404 -0.942178 1.5973154 1.5459338 0.22859468 -0.18574932 -1.448513 1.0712577 -1.1909995 1.4629526 -1.2898786 -0.82814646 -0.8778531 -0.64365673 -0.06561336 1.3493431 2.2035673 -2.1398566 0.5697119 0.655335
les -0.31553707 0.55949277 -0.874772 0.14150326 0.30952328 -0.89168656 0.2212927 1.5100543 -0.256482 0.763838 -1.30423 0.2853917 0.11875804 -0.3041993 -1.7593533 1.7379544 -0.9249818 0.5197974 -0.9095579 -1.9856565 0.82605314 1.8062177 -1.0899897 -0.11847519 1.4704175 -0.72002375 1.830668 -0.44327566 0.9126132 1.6144975 -0.8676442 -0.015616454 0.39348173 0.3097723 -0.92890614 -0.4985836 -1.3432226 -0.2327887 -0.0014011522 -0.47888023 -1.1200773 0.9765198 0.37692338 -0.3589741 0.9645091 -0.11189762 -0.19192103 1.093918 -0.9129302 -0.32880887 -0.16382293 -0.17072599 1.4798516 -1.1536034 -2.0552616 1.3661419 0.87704027 1.2364595 -0.7516942 0.41053402 0.6127513 0.13507366 0.21198831 0.44632345 -1.0888582 1.1573889 0.6194521 -0.31885087 1.2577562 -1.0792074 -0.23035382 -0.31483814 -0.076856144 0.71470535 -0.44371593 1.0660698 -1.6541787 0.1764142 -0.89235145 -0.095339864 -0.25197923 0.80329937 1.0000795 0.47450554 -0.1619459 -0.19335023 0.30753022 -0.7881923 -2.4909487 0.71929526 -1.0878354 -0.9672118 1.3709708 0.20947257 -0.70692706 1.5566621 0.47920358 0.56801856 0.20241205 2.4669194
clients -0.59949243 -1.4839355 0.5089787 -1.4883444 0.75988793 0.7261567 0.83117706 1.4948834 1.1153556 -0.7938185 -1.1100373 0.29354885 0.98932767 0.4942975 0.043766465 -1.175028 -1.2492723 1.1896558 0.09108034 0.90346056 1.0064604 -1.0947372 1.4182111 0.56171554 0.3552972 -0.54308385 -0.60910165 -0.046051558 0.9909394 -0.61592406 1.5514665 1.2959251 0.7689694 -0.5315069 0.08553439 -0.8925227 0.51026297 1.0632665 -1.1070628 0.31901753 1.1273303 -1.2786925 -1.442878 -2.1328096 -0.17099594 -1.1214384 -0.82034755 -1.6105185 -0.008295079 -1.3765239 -0.8553676 1.2658479 -0.39178357 0.16200136 0.09661821 0.93574846 0.19888942 0.392254 0.6964655 0.05246009 0.91501117 0.71849054 1.2125182 0.080950454 0.7016351 -1.1910671 0.172112 -0.6837162 0.0877067 0.29383975 0.31584248 1.0379001 -1.6713732 -0.43836677 -1.6496519 0.7696735 0.57548666 0.058511846 1.1992006 0.22000454 -0.048898403 -1.906138 -1.288437 0.63948685 -1.1715628 -0.6912427 -0.96662 -0.46160334 0.11439698 -0.1458576 0.61044544 -0.17530319 0.49656585 0.60528797 -0.32460627 1.3740633 -0.5517131 0.6050075 0.14079836 -1.4758165
ont -0.5364601 0.7865045 -0.2857901 -0.042373423 -0.41429028 -0.09765266 2.0414298 1.031436 0.16626391 0.44290602 -1.5416794 -1.0355188 -0.22399989 0.6828348 -0.37811798 -0.8841057 1.1925585 -1.0407987 -0.01659275 0.89647835 -0.21039687 0.37977722 -1.1399814 2.058238 -0.6430287 -2.1787305 -0.5285442 0.82822293 0.50897664 -2.0432715 0.82566416 -0.69188386 -1.1311826 -0.88993025 0.15090911 0.24431002 0.0977394 0.36306328 0.5064794 0.50102496 0.65715903 0.46315807 0.8232063 -0.5123849 0.5129169 1.4295127 -0.987419 -0.7120846 -0.5485046 -0.23592006 0.5848096 -1.2247926 0.57728225 -0.46640286 -0.064261556 0.5501742 0.7861728 -0.8777881 -0.1504173 0.2652469 -0.8618878 -1.0382164 -0.2517899 0.72527885 0.25135535 1.45002 0.2996738 -1.3084363 -0.6383758 -1.2551993 1.6772475 0.4083913 -0.45699406 -0.09844384 0.108762376 -0.27187118 1.131955 1.5529149 0.7991859 -0.39478952 -1.0931263 -0.3328873 -1.0778464 0.9626417 -0.18497965 -0.65257215 0.6129263 0.92432356 -0.516143 -0.40283376 0.44710657 1.0914918 -1.1311237 0.16717945 -1.0584598 -0.52567595 0.5332523 -0.50524944 1.2235383 0.23704018
des 0.3568778 -0.21669362 0.11238505 0.8426345 -0.60941225 -0.15488578 -0.8246374 1.0543373 0.19755122 0.00064172805 1.449225 -0.079852514 -0.85060287 0.5519642 -1.3287861 0.5544597 0.47701064 -0.6268034 -1.4607728 0.0922902 1.3868195 1.2729106 -0.7625137 -0.26313362 0.02945958 -0.2334895 -1.273235 0.8939019 0.7494112 0.61514974 0.11902144 1.4848568 0.6581752 0.880045 0.7079899 -0.995404 -0.68039626 0.033650912 -1.2777598 0.17602387 -0.46804807 0.37011096 0.025382105 0.79011565 0.76658463 0.8117178 1.3964233 -1.99401 -0.41101953 -0.045477733 1.5563457 0.58162534 -1.3945265 -1.1773983 0.00981343 -0.5175283 0.29601806 -1.0582589 1.5159698 0.38894242 1.0925405 -1.61242 -0.5799742 0.65027356 0.23352882 0.12449727 -0.116469614 -0.039642245 -0.25453112 -0.82242715 -0.1338928 1.5992272 0.011177926 0.19891845 0.87996894 0.52893054 0.11420092 1.5771154 -0.80194473 0.0010149302 0.41871253 0.121840306 -0.9783818 -0.021938955 0.9240366 -0.36781952 0.53199923 -0.4839258 1.0034301 -0.35068768 0.08628555 0.88556695 -0.62718344 -1.0444617 0.67048186 0.095705874 2.1236393 0.4898928 1.0198579 1.535499
petits 1.7870176 -0.3461572 -0.8248851 1.7508992 -0.6986237 1.2984474 -1.1486363 -0.9009142 -0.4155404 -0.073364854 0.95742744 0.9759982 -0.9768109 0.2892804 -1.1212322 -1.0316298 -0.28915396 0.5736906 -0.8132542 1.8726207 0.070137404 0.60713273 -0.36185637 -0.76780754 2.3529809 -0.26439187 1.289048 -1.1105922 0.37031114 0.2774296 -1.0461434 0.4567815 -0.05002254 0.007022869 1.216083 -0.24543428 0.89081675 0.026746025 0.2704047 1.0798268 0.44715816 1.112097 0.8378923 1.2093247 -2.1358316 -0.89699024 0.7281833 -1.2868347 -1.7320285 -0.72672707 0.08468329 0.19343278 -2.0435169 -0.8342795 -0.4233923 -2.2888637 -0.8632278 -0.5772746 -1.6971875 1.8422607 -0.3049559 1.4835973 -1.3093157 -0.511767 0.9332006 0.055671908 0.087487385 -1.449439 0.050883632 1.1385864 0.71324784 -0.70473015 -0.47320855 -0.19560164 1.6460063 -0.07185609 -0.15667006 -0.75992626 0.4470149 -1.1986399 -0.28447345 0.08633551 1.5146363 -0.22207987 1.2863557 -0.45988593 0.35324055 -0.83935124 -0.6266131 -1.2056701 0.23124795 -0.99913704 -0.9775658 -0.44623348 0.5113719 0.92012876 -0.17960216 -0.6617507 0.14393765 -0.9372896
pains 1.7159367 0.76349145 -0.11789194 0.5620597 -0.9529112 0.6819103 -1.3399436 -0.05639391 0.73970425 0.49018514 -0.342543 -0.24544515 -0.316381 2.684583 -0.3153635 0.9359368 1.3089422 -0.2666455 0.12041916 -1.3921899 0.43808973 1.3138765 1.7152295 0.7867124 -0.99220634 -0.82183343 0.6322861 0.67073953 1.1087313 0.7757933 1.4667507 -0.3629065 -0.8528299 1.2257649 0.05543089 -1.8022023 -0.51093096 0.8801715 -0.08540467 -0.7522051 -0.46136177 -1.7145892 -0.4788971 -0.7317076 0.35141867 -1.3888596 0.9150613 0.13131697 -0.06429704 -0.709757 -0.21504967 -0.32578507 1.3892958 1.0613778 0.49611223 1.3710575 0.4112948 0.1143731 1.0154116 0.67357415 0.012643154 0.46152788 -0.14504829 1.1094966 -1.0219612 1.82471 -0.0642304 0.20155074 -0.23787503 2.2483323 0.0621658 1.414595 -0.035439014 -0.5908099 -0.39900267 -0.8736693 -1.5776026 0.8761587 -0.48319808 0.40044942 -0.5290664 -0.67064214 0.42791635 -0.57493716 -0.6617702 0.93191105 1.580754 -0.43709117 1.1858698 -0.9850322 -0.8166507 0.3744197 -0.5268442 2.1552546 -0.40327704 -0.35614333 1.3872958 0.5334932 -0.47449592 1.3759193
offerts -0.17485279 -1.291565 0.21096063 -1.2971504 0.83599734 1.229769 -0.26077837 -0.08903014 -1.0564026 -2.572232 0.61135286 0.02891284 0.78199524 -0.23606396 -0.30252796 0.7047853 -0.36507723 -0.084645934 -0.52625525 1.2418587 0.09833699 -1.21277 -0.38650045 -1.2226354 -2.3346694 -0.013477087 0.21162221 -1.1173174 -0.9990085 -0.51488316 -3.2101438 -0.058390044 0.7288762 -0.4517993 -0.30697337 -0.669703 0.513938 -0.5170214 -0.55260205 0.9159469 -1.3924193 -1.8837463 0.07726367 0.10209056 -1.534311 -1.266163 2.0287201 -1.2914279 -0.94626254 0.5981056 -1.4236481 0.12567264 -0.20761475 -0.7416684 -1.0567312 -1.4222058 1.3497505 0.047476765 -0.6380018 1.1922218 -0.4270341 0.8488052 0.5086797 -0.47006541 0.9007715 -0.1311453 -0.099273175 1.12889 1.8006344 -0.07438374 0.29168674 1.9175909 -1.3116819 0.13699195 1.9352133 1.1891838 0.283803 -0.11429012 0.25619954 1.0203922 1.7850405 2.3747008 -0.45932394 1.9231201 -0.7471166 -0.8045863 1.1390702 -0.57874435 -0.72815144 -0.21112554 0.5462735 -1.1390359 -0.8030079 -0.060454857 0.80427945 -2.1433885 0.32464388 -0.012455202 -0.17488256 0.4721107
en 1.2802796 0.9384051 -0.16169813 1.0351737 -0.2679918 0.8085087 1.5171821 0.42730752 1.1716217 0.12102246 -0.2717278 0.49264804 -0.3784093 0.86593467 0.41358933 -1.7101852 -1.4578369 -2.2968078 -1.5231233 0.33204037 0.18037437 0.66971296 0.040690023 -0.21896802 -0.63289034 0.8500179 0.66516817 0.16887823 1.2894657 -0.31915048 0.27684212 -1.0104293 -1.60733 -0.8621258 -0.7996777 0.28159076 0.8734776 0.5050463 -1.206044 0.11717707 -1.4152297 0.19172645 -0.39840767 -0.3262138 0.05453377 -0.60971814 0.052486178 -0.7207638 -1.5446723 -1.3485785 -0.59885424 -1.444826 -0.8373381 -0.19937655 -0.5654472 -0.09596434 0.2921759 0.073267885 -0.25820714 0.07316749 -2.6690693 -0.6155788 1.4980981 1.00573 -1.9719822 1.1711713 0.11790274 -0.9248848 0.67732847 -0.057333946 0.32135296 1.451301 -0.28382397 1.0408168 0.6916278 -0.11873475 0.23784553 -0.24703914 -0.48612046 0.95016533 -1.3669165 0.8985831 0.87565273 0.16396305 0.8279632 0.09171084 -0.0963114 -1.0848061 -0.23688495 -1.3275173 -0.74467784 0.21921448 -1.9143226 1.4475493 0.19441006 0.74076444 0.5787679 -0.07852305 -0.60293823 -0.29511106
l 2.483902 3.1407812 -1.6791835 0.7194804 -0.59071743 0.18762967 0.039609198 1.5981497 -0.9863614 1.5671927 0.7395035 -1.1973978 -0.7666854 0.11473715 -0.5283173 -0.24619843 1.4576004 -0.22738309 -0.989516 -0.61972713 0.79420125 0.13220352 -1.9915749 1.455257 0.058780394 -0.76581794 0.66644424 -0.009607005 -0.7926184 0.45124117 -1.0579932 -0.5575821 0.8301068 0.79675615 -0.08703456 0.32457283 -0.035700094 0.069140054 1.3098775 0.5146333 -0.4050894 -0.9862769 0.28035146 -0.0040855957 0.84660673 -1.4500879 0.022188852 1.065065 -0.50817806 -1.6694902 1.9676656 0.19631913 -0.40951034 0.60106295 0.36977184 0.6523825 0.5347375 0.017087827 -0.58881855 -0.8572795 -0.59705985 -0.43498 0.44751775 0.03874258 0.12779358 0.81575406 0.8774524 -0.38171834 1.6963617 1.1271772 2.2342317 -0.5698539 0.07450036 -0.8135848 -1.2672617 0.50933564 -1.0976833 1.4280168 -1.3607737 -0.71775603 1.3386865 1.5954125 -0.41711363 0.19224232 0.742542 -0.5024834 0.9381875 -0.91875964 1.4981805 -0.19212332 2.1235554 0.4517414 -1.0378172 -1.6038206 1.5598825 -0.61370385 -0.3551599 0.17536032 -1.6409651 1.0554981
il 0.86744577 1.271463 0.9723873 0.13077536 1.087144 -0.5754795 -0.5463491 -0.658316 -1.5946689 -0.17121004 0.0671081 0.71796966 0.96599585 0.10761873 0.6648178 -1.106775 0.2924077 -1.6245381 -1.7874708 -0.822727 -0.6506504 0.06222151 -0.4811328 0.28788003 0.36493248 -1.5879406 0.751856 0.35974878 1.5576866 -1.0668854 -0.1569348 1.5912049 1.2370113 -0.18530191 -0.51300585 0.4098589 0.97775024 -1.9917632 1.7999027 0.62226427 0.5397941 -0.11023782 0.4648423 1.9181623 -0.7141508 -0.336488 0.66337115 0.3879307 -0.58532345 1.1064955 -0.5438585 -0.41853544 -0.109529056 0.5663021 0.24613573 0.52165127 0.99839026 1.3769002 0.74614 -3.0278983 -0.009755725 -1.4238023 0.26628608 -1.725595 -0.059947666 -0.17393637 -0.8711048 1.4989892 0.41944706 0.26286942 -1.0250391 0.13131994 -0.13492604 0.50336844 1.4699336 -0.010878442 -0.21014367 -0.74609715 -0.28524372 -1.5631566 -0.39917162 0.48681167 -1.7476099 1.0287651 0.30613914 -0.97735935 -1.3526448 -0.56718135 -0.35473517 0.40836102 -0.9311577 -0.4589708 1.0177116 -1.2612544 0.060565636 -0.9010017 1.9592631 -0.023930594 0.41936994 1.1915853
sur -0.31329596 -1.0348085 0.06543843 1.4476733 2.0150838 1.5000683 -1.0523742 0.4029352 0.24915777 -0.30358425 -0.43505514 -0.7016053 0.6369739 -1.0818802 0.95299006 1.4499092 -0.2720543 1.0782849 -0.99469703 -0.7253208 -0.8076593 1.1309439 -0.17681924 -0.2801627 0.6542451 0.72435844 0.26473206 -0.16134533 -0.019006984 0.42758986 -1.0690953 -0.1007909 -0.21607739 -0.29492193 -0.10054934 -0.18327805 0.88539344 0.48410702 -1.2626748 0.44758648 -0.6387066 -0.5568901 0.43049544 0.73979026 -0.5264522 0.600616 -0.5342501 0.35681024 -0.61249906 0.82137454 0.44016355 0.18906927 0.50072634 0.82536143 0.3887653 1.5204623 -1.090181 -0.9918492 -1.1528615 0.026836516 0.5667863 0.31967258 3.0927527 -0.11290425 -0.9728791 -1.3577136 -1.4665426 -0.8922131 0.98555136 1.778997 -0.3067318 1.2482318 0.55758196 -0.6055644 -0.11220219 -0.59189314 0.47586998 1.4631863 0.12518625 -0.66117626 -0.3816976 -0.017122924 -0.46401614 0.517484 0.78256005 -0.8369325 0.04137108 -0.6069057 -0.24887195 -1.402708 -0.442595 0.88816315 0.1170096 -1.0648432 -0.23508291 0.47671124 -0.24406326 0.09036499 -0.15976271 -0.30063725
miches -0.051442266 -0.60442185 0.7997742 -0.6156923 -0.26818267 -0.6695785 -0.09724613 1.591011 1.0496986 -0.25529274 0.61786187 0.75561816 0.011000275 0.078637995 -2.3346114 -0.0610775 1.0326004 -1.0237544 -0.37772328 0.9599145 -0.2161108 -0.51621455 1.3148675 0.3273767 -0.66428316 -0.23929496 1.0007206 0.7664664 0.685876 -1.0531484 0.10752865 0.8784705 -0.4951935 1.6560307 1.137686 -1.5440217 1.5130532 0.3569073 -0.40835878 0.8550057 0.3174652 -1.7695862 -1.0323849 0.97917646 -0.46694425 -1.1585122 -0.6972157 0.306094 -0.4249579 -0.8157274 1.0077498 0.160211 0.06942687 0.590564 0.13289662 1.2725374 -0.2325754 0.24145974 1.3918827 -0.33861303 -1.1514388 -0.26427588 1.4331293 0.101637535 -0.0655601 -0.54473066 -1.2073145 -0.6964127 0.97311264 -0.42882428 0.18197726 0.014944819 0.25809035 -0.4841198 -1.0279275 -1.2188298 -0.35000512 -0.43593028 -0.096634604 -0.29218623 0.41243187 -0.3668425 0.000241994 -1.0792433 -1.0692866 0.8164267 -0.15193528 0.25576726 1.7752701 -0.098598495 0.06488673 -1.6546763 0.07009817 0.5304093 0.5320311 -0.44864362 -0.88135886 -0.5269235 -0.9022087 0.023418508
couleurs -0.6720559 1.4262892 0.97639596 0.416359 1.640949 1.1365011 -0.31444424 -1.851492 -0.42091966 -1.9650775 -1.5397666 -0.08159757 -0.25733042 0.39869872 1.2140785 1.2117367 -0.16425458 -1.3807856 -0.28805807 2.0563016 0.25043926 0.08827343 -0.79793507 -0.7107295 0.5999642 1.5736408 -0.73416287 0.93463063 -0.508437 0.2811144 -0.38759613 0.29050934 1.0876908 -1.163059 0.50942254 0.4712648 0.7277655 0.5559813 1.151135 -0.22408433 -1.6950836 1.3837714 -1.0176814 0.50883055 1.3421344 -0.072229326 -0.44374344 0.066516116 -1.0552895 -0.13337992 0.1013089 -0.020665605 -0.39501137 0.27965215 1.9957489 -0.6485943 -1.1914008 1.3826822 -0.14238754 -0.2641976 0.29406974 0.3532165 -0.4257074 -1.3478525 -0.13240843 0.856533 -1.4855376 0.4738178 -0.22141773 -0.77707195 0.0705083 2.381531 0.9496826 -0.8082426 2.3629014 -0.33820328 0.121551655 0.55607116 0.79977316 -0.6841592 -0.50159645 0.65430045 -0.54077095 1.756559 0.20893121 -0.2957937 -1.3754938 -0.28970975 -1.2304186 -0.67089546 -0.10362855 -1.667727 -1.714767 0.3268112 0.056262955 -1.1809212 -0.70127815 -0.047500655 -1.2199942 -0.30360398
du 0.86642736 1.1304283 0.5807556 -0.83396816 0.48289478 -0.8252376 -0.98700386 0.55158126 0.4667112 -0.26763973 -0.3623921 -0.77467823 -0.07521703 0.5293052 -0.28073108 -0.9125592 -0.34205812 1.1866592 0.8993658 -1.1520452 -1.0581566 -2.082361 -1.5427883 0.3488394 0.8989208 -0.49447116 0.55592215 0.9813131 0.3757697 -1.568185 0.9688919 -0.32828143 -0.7959781 0.43384644 1.104005 -0.24736324 -0.61984897 -1.0022867 0.83933026 -0.95467645 0.79957944 -0.6006937 1.1982223 -1.5041584 0.5376093 -0.6159833 0.9498365 1.289273 -0.85771114 -0.25462335 -1.2271712 -1.300854 0.9336806 -0.26757598 0.6596547 0.5899453 0.4945695 -2.5502536 1.2843944 -1.3498355 0.5521438 3.2177927 -1.1697546 -1.462264 -0.34434995 -0.4628107 0.29484308 0.19406426 0.6939556 -0.1804467 1.4602638 0.61782295 -0.6395966 0.12575395 0.68385345 0.5996109 -1.1185695 -1.6135921 -1.2461076 -1.011785 0.19185485 -0.6612901 -0.5237534 1.3368481 1.18353 -0.5353876 -0.29505196 -0.887441 1.2302904 -0.18656586 0.8285206 -0.51596695 -0.24715306 0.9491638 0.14356312 -2.0596845 -1.3468909 0.820082 -0.11049778 0.08497398
monde 0.7850477 0.14514951 0.21236822 1.5603026 -0.7510845 1.4684196 0.2606058 -0.18722768 0.06187589 0.4066616 -1.1507766 1.4751664 -0.6493417 0.78661174 -1.9337242 -0.1912805 -0.12582862 -0.422472 -0.5192605 1.2165234 -2.4265776 -0.5106269 1.8985995 -0.22564763 -0.106872424 -2.2431593 0.08866355 0.33125126 0.3506534 1.1195978 -0.4425414 0.13298127 -1.1757973 0.4398988 -0.09926348 -0.39694226 0.32869437 1.0495418 0.41539797 -0.85781854 0.32410383 -0.56374836 -2.0875063 0.57471544 0.40075022 0.73865175 1.8705605 1.8095441 -0.17338815 -1.5054667 0.13418852 0.24790522 -0.13057777 0.88206345 -0.039183304 1.9110206 -0.3483498 -1.2293744 -1.3105676 0.06526287 0.9489594 -1.9735999 0.6101027 -1.7406474 2.02194 -0.6618926 -1.005696 0.6224467 -0.36384162 1.2377125 1.6757725 1.9951662 0.010810608 0.6097979 -1.565516 0.988718 0.17277049 0.51488143 -0.6724726 0.15009856 -1.6510186 -1.2256982 0.59552956 -1.5903995 -0.80159897 -2.104548 -0.36836377 0.34511715 -1.6351049 -1.1552901 0.0068032923 0.7850183 0.36176 0.70819885 0.7587993 0.9799423 1.1804795 1.6747215 -2.1124158 0.08071787
Malyk 1.6887354 0.7851445 -0.27954364 0.38037315 0.021127652 -0.94855607 1.259696 -0.40306437 0.13402003 -0.55323315 -1.6442851 0.68642944 0.023038803 -0.045047034 -1.41059 -0.6262812 0.9979662 -0.54562396 0.6595854 0.29934877 1.2437625 -1.0365596 0.43124506 -0.20064305 -2.6579032 0.38764265 -0.057638314 0.71649265 0.025743624 -2.1882007 -0.37060735 -1.2279354 -0.25463897 -1.2854482 1.0716969 1.3634223 0.9010791 -0.3518762 -1.7858646 2.9206417 0.36091125 0.2682688 -0.10926074 -0.3343348 0.2135625 -0.8272134 0.62745744 -1.6876304 0.21766692 0.18898822 0.34446588 1.0679542 0.55794895 0.0546018 1.1958394 0.039062165 -0.02258884 -0.9880863 -0.5805822 0.39014268 0.91192585 -1.2360365 0.95456547 -1.4433835 -0.33438295 0.2435778 -1.101915 -0.9826976 -0.2568029 -0.7605365 1.0671351 -0.20848162 0.97567725 -1.9632756 -0.2770238 -1.2939072 1.6389796 -0.05630228 0.5667975 0.49695945 -0.34244183 0.13438098 1.40242 0.88385046 -0.2589859 -0.7302229 -1.7154835 -1.5394416 -1.5723163 0.46333706 0.8350022 1.2699705 -0.6783021 -0.77202827 0.5611053 -0.44196436 -1.5095459 0.43019643 1.451595 0.9143202
on -0.07288177 0.45511204 -0.19571877 0.26510736 0.8815939 -1.1081598 -0.38544792 2.0634913 -1.0551167 2.8160572 -0.26782873 3.1933303 -1.0319816 0.22890763 1.1654309 0.8046522 0.16499437 0.56064934 1.1019735 -1.0215356 0.10704775 1.3700087 1.4075387 0.17019144 -1.3274 0.48936427 1.7182223 0.52897674 0.41067892 -0.025949698 -2.075665 0.39072365 0.4837363 0.28899294 1.5798165 -2.379743 -1.7125303 -1.1834807 -0.1751904 0.033545453 0.009086957 -0.20190194 0.47686887 -1.8821001 -2.4163337 -0.71124405 0.4991631 -0.76584107 -0.8858709 1.2067635 0.8567755 0.9095156 -0.0059647546 1.0150164 0.6002197 -0.7588181 -0.5816592 -0.58584344 -0.13142265 0.62300056 -0.41686937 -0.22470434 0.38594583 -0.16715185 1.5183773 -0.12765811 -0.9539329 0.051123213 -0.5106363 1.5328737 -1.4882612 0.6367427 0.25709447 0.8870974 -0.46357116 1.5911999 -1.9012079 -0.84602576 -1.4374723 1.304232 1.642276 0.94344515 -2.7841063 -0.14962742 0.0058887512 -0.9126967 -0.1432319 0.52485657 -0.2969181 1.2582074 -0.3573751 0.8781358 0.9214672 0.080424234 -1.0303721 0.21212125 -0.7751125 0.08115899 -2.4293103 0.94752246
a 0.052839953 1.2920351 2.7069468 -0.40231884 0.07106129 0.27707225 0.66302425 0.12382098 0.562631 -0.7297164 -0.105043665 0.40417713 -0.14785433 0.5820908 0.7133491 0.30164158 -0.9104057 1.4642189 -0.70754486 1.1454347 1.3525085 0.56821996 0.66552514 1.3805836 1.0321826 -0.67355925 -1.6627792 -0.49058554 0.6091827 -0.8131454 0.571831 0.67336726 -0.5057949 0.11695507 -1.2037855 1.3993858 -0.22793037 -0.22543421 -1.5600929 0.7357698 -1.0276556 0.59978473 -0.5316234 0.7575035 -0.052367292 1.2110442 1.294076 -1.2290521 0.0019281341 0.94409144 -0.8907334 -0.3609556 -0.73225856 -0.16895898 2.2910562 -0.9276373 -0.9250263 -0.3672221 -0.76215065 0.52533853 0.26973182 -0.8418789 2.0866404 0.07091256 -0.16442709 1.0496348 -0.6461493 -0.086442105 1.4364396 0.7134899 0.55117583 -0.2687955 -0.93605274 0.27943188 -0.51281524 -0.64834005 0.4635163 -2.1549425 -0.19023807 0.39497694 0.69140923 -0.5111059 -0.34534213 -0.42505565 0.90351653 2.0436509 -0.054080542 -0.8356467 -1.2705818 -2.3408885 0.14299831 -1.9622729 -0.828206 -0.25936767 -0.09011004 0.65195304 0.3869314 -1.3454486 0.3016794 0.03677873
d -1.1105318 -2.6422791 0.64364445 -0.13454644 -0.521565 0.63792765 0.12525737 -0.022378795 0.049149975 -1.7614897 -0.6551487 0.1654637 -0.025307948 -0.20457858 0.021925429 -0.1113086 -2.6477191 -1.0516603 -0.01783489 0.034207996 -0.39442593 1.4414068 -1.0438191 0.93758494 0.7239988 1.499932 0.2161628 0.13961604 1.2390368 -0.2159045 -0.0013962183 0.48408043 -0.85458577 0.8275203 -1.5955335 0.36766785 1.0508722 -0.089242086 1.0626117 -0.052729584 -0.8442482 -0.18980044 -1.3553172 -0.19011043 0.15828799 0.59535503 0.9178548 0.4290524 -1.7932535 0.12544797 0.88835686 0.33773112 0.6089697 -1.1502914 -0.634296 -0.041004837 -0.75582355 -0.6152616 0.60960877 0.633921 -0.42353776 -0.68857795 0.07608438 -0.0017439357 0.96701443 0.3082625 -0.3257301 0.5397488 0.8931426 -0.858064 0.9735843 -0.39090562 -0.71748394 -0.6468585 0.68859357 1.2026111 0.52195626 -1.0110769 -0.50991 -0.37547037 0.16030996 -0.99494576 2.166087 -1.1855687 0.4496 -0.40810543 0.9596198 -0.8464139 -0.53770757 2.6036806 0.19417602 1.9103556 0.87986267 -0.1613496 -1.4396006 1.4793774 -0.57264715 1.3422182 0.8023806 -0.63563275
adresse 1.9742714 0.7356086 1.3903103 -0.13801964 -0.83495206 -0.5022021 -0.030457078 0.4636957 -0.5391134 -1.2968141 0.58011657 2.1982622 -0.8729287 -1.6019561 -1.2900904 0.5003033 0.39769077 1.167991 0.0833833 0.9488598 0.44663996 1.5427704 -0.013997889 -0.893032 -0.38001466 -0.32358676 1.7797807 1.7311968 -0.7285148 0.3171118 -1.5186237 0.2828091 1.1651274 0.50218374 -0.15278436 -0.5247648 -0.8745424 0.89471084 0.7668772 -0.78015596 0.16025141 -0.10219236 0.09744423 -0.069163315 -1.2537618 1.2168949 -0.9303908 -0.31687766 -0.08253494 2.1511822 0.51952195 0.5374354 -0.13720433 -1.2696136 1.659641 0.98086154 0.71442693 -0.8013138 -0.1707035 0.51404697 -0.65527225 0.22635637 -0.32034135 -0.74063206 -1.0828545 -0.8060106 0.68448293 -0.7557463 -0.5267196 -1.8120575 1.9272739 0.47482154 -0.7559172 -0.21326622 -0.72259843 0.8863273 0.3704022 -1.567015 -0.097774684 0.49803916 1.180262 0.8020043 -0.30751982 -0.30443802 0.08128891 -1.7091422 -0.21683837 1.2714739 0.085508466 -0.4667605 1.8639323 0.6472011 1.2703717 -1.7965027 -0.14640753 1.5397403 -1.5737988 0.5074397 -1.1553917 -1.2630942
pour 0.2155961 1.2684253 0.5527892 -0.39742443 1.1429539 -0.7088278 -0.15673125 2.5472465 0.5720206 -1.1090614 0.05715807 0.76860064 0.42354953 2.1425757 -0.9489992 0.83325565 0.4149618 1.3246063 0.04890201 0.83424735 1.586153 0.37894902 -0.46328205 -1.1443558 1.8644853 0.3355171 0.6226139 -0.01761087 -0.19302411 1.7505798 -0.729844 -1.6738652 1.3254129 -0.057512112 0.5308838 -0.17941125 -1.1644506 -0.75844437 0.51947004 0.8221107 0.43111 1.0169914 0.66215104 1.2951623 1.1695145 1.32493 -1.8484176 -1.0398647 -0.41516528 -0.38608727 -0.8789871 0.35049728 -0.8537553 -0.08951481 -0.5325644 0.50017005 -1.0402871 -0.41282362 0.8404381 0.6247943 -1.6393675 0.2684403 0.40794462 0.13573933 1.7321967 1.3008279 -0.33139434 -1.5864236 -0.29073966 -0.034437686 0.64375186 2.2090948 0.5742707 1.1966165 -1.4331913 -0.5283695 -1.4845216 0.92889965 0.1574065 -0.5415027 0.56189454 0.3705102 -0.033102036 -1.1989172 0.9965958 0.17335685 0.5379952 1.2918916 -0.14269684 -1.4010477 0.1950313 0.12086428 -0.39504084 0.028841298 0.6562758 -0.40604013 -0.27838743 0.77705014 -0.06611415 -1.1433312
enfourner 2.0317 -0.7781383 -0.2956688 -1.4163289 1.5133824 -1.1645178 -1.009237 -0.1584549 1.7309761 0.024785375 0.6497244 -2.531752 0.44585946 -0.26973695 0.086017 0.06844216 0.2331108 0.38686985 -0.16604671 -0.012949103 -0.46312603 -1.072681 0.89075685 2.2995157 -1.0308683 0.2202059 1.2171091 0.7787003 0.979612 -0.9819016 0.2775935 1.2835689 0.05369065 -0.030561611 -0.00871641 -0.019877424 0.58842605 0.41513032 0.065813616 0.7823731 -1.231069 -1.9114221 1.4005978 1.5765647 -0.2994037 -0.9070945 2.5942278 1.3196826 -5.078382 0.868126 -0.95757073 0.5688183 -2.0227907 1.4261358 -0.2645188 -0.00836949 -1.6841543 0.23324317 1.1355011 -2.3314753 0.23369814 -1.3762151 -0.045822173 -0.3446772 -0.960615 0.3081778 -0.0015095113 -0.25629768 1.3278847 -2.5972762 -0.7686028 -0.6426746 0.6197474 0.33977738 0.7420164 -0.25367638 0.50310075 0.45205808 -1.0137979 1.1016548 1.2100676 -0.705735 -0.004813075 0.34483021 -1.385336 -0.095754765 2.0546768 0.7416506 0.67021066 -2.0621345 1.1402423 -0.3413095 -2.1572716 0.08637496 0.9289222 -1.0004337 0.41461268 -0.43363965 -0.57477915 -0.11564056
sol 0.16450155 0.90176225 -0.372878 2.7633183 -0.17641932 -1.1184633 2.0385137 -0.5623257 -0.31213483 0.05610995 -0.42196953 -1.3422426 -0.31798416 -1.671011 1.4415023 -0.09665357 0.11631927 -1.3284183 -1.939772 -0.22291958 0.07500199 0.115329236 0.3040684 -1.7313542 -0.19810732 0.31324732 1.3660376 -0.59799534 0.83711606 0.5847701 -0.15559605 -0.14347492 -0.7444556 -0.1317822 0.07229204 0.79002315 -0.5173328 0.11015888 -1.2849761 1.1248482 -0.02474715 -1.5839394 1.7103649 -0.57302105 0.53581136 -1.2114762 -1.1218524 0.74024576 -0.33953682 1.0270087 2.2958472 -1.0174031 -0.14456809 1.3627919 0.2568587 -0.5097016 -0.20113052 0.112316296 0.42529848 1.4559284 -0.27214584 -0.05365246 1.3520662 0.29895142 -0.64629215 0.97626007 -1.0944417 -1.9514568 -0.039785743 1.9411148 -0.46011403 -2.501375 -0.6279961 0.7745229 0.031087086 0.43362272 0.7632711 0.24323548 1.0001023 -0.11542116 -2.0239193 -0.5269199 0.28920162 -1.1044862 0.5006667 -0.06170289 1.6960503 -0.6561094 0.35044158 1.6305479 0.55980736 -1.0698478 -0.02923488 1.7894908 1.6199567 1.9418854 0.14177853 -2.102529 1.2966881 -0.97569287
pierre 0.57026976 0.57473904 -1.5387008 -0.36281523 0.31043497 0.50016505 1.1872196 0.12357952 -0.34473518 -1.1954852 -1.6325091 -1.41602 1.6929039 0.72924644 0.9468253 -0.9705992 0.2386917 0.9096665 -0.71579725 1.8328221 0.23997885 -2.700936 2.148896 -0.45288312 0.5082786 -1.2763138 0.22606322 0.81403863 -0.86262655 -0.7758459 0.2852615 -1.1456856 -1.4776146 -0.013108158 0.5081979 -0.027914116 -0.88037777 0.99085283 -0.9190412 0.017552752 1.1636962 -1.6413165 2.434864 0.57152367 1.7363195 -1.5487561 -0.4238194 -0.5357159 -1.0955261 -1.0013906 -1.6616 0.61349547 -0.103182234 0.3959132 0.38327637 0.1102424 0.46885622 1.2540824 1.9292647 1.2604659 -0.9079826 -0.9041224 -0.7281523 0.026162645 -1.4998416 0.7672345 0.7931942 -0.2437167 0.7651727 -0.50857884 0.013168413 2.084373 0.31173316 -1.8135386 -0.2983875 1.48229 -1.2258638 0.45896056 1.5713062 -1.0898027 -1.0952262 -0.7499537 -0.53238267 0.443877 -0.9236148 -0.07447792 0.5535298 -0.65041685 -1.0684798 0.26443446 0.5907285 -0.4888684 -0.7026506 -1.1472027 -0.10284545 1.60095 2.0061367 0.410779 -1.2862222 -0.27844533
un -0.41074163 1.2320884 1.2948055 0.7140389 2.6405153 1.3433626 -1.6219631 -0.13965984 0.25906113 -1.5676333 1.2182033 1.2871937 -0.97473246 -1.599802 0.8372093 1.0503701 0.5094945 -0.6949478 -1.1581398 0.54486346 -0.03322648 0.09982318 -0.2533801 0.85166633 0.36142588 0.6357529 0.1618224 -0.8127705 -0.19839367 0.04227189 -0.49706537 -0.80454427 -0.96084565 -0.26676354 -2.004912 1.7505184 0.7130639 0.3708808 0.31024888 -0.48599052 -1.3345368 -0.13741425 0.36934686 -0.18064944 -0.7701187 0.9328337 -1.1391624 -0.14504893 -0.3272945 -1.1287434 -0.22931357 -0.73531246 0.8836209 -0.19010355 0.7286215 1.6950772 1.4074838 0.12660131 -0.8739078 -1.0652732 -0.7019659 0.25118297 2.0890062 0.60803884 0.01347953 -0.2643851 1.1577317 0.23039107 0.47140798 -1.053218 -1.3107386 -0.71845824 -3.3924334 1.2237424 0.3069098 -0.9416856 0.75974506 -0.45914733 -0.13846757 0.32047796 -0.5570585 -0.84027225 1.186401 0.8906496 0.89301616 -0.65255046 -0.56668913 0.18969078 0.44024283 0.07815237 -0.9785528 -0.71336657 -1.4543138 0.21568123 -0.50275403 -0.025420371 -0.6403685 0.60818017 -2.4351704 1.1856122
four -0.9485396 0.12754121 -0.9000735 0.7702425 -0.66642076 0.32534534 -1.0907773 -0.29377866 -0.49147102 0.21336223 -0.15882173 -2.3992593 0.11147307 0.2309703 -0.23827411 0.61236286 0.85503614 -0.2956136 0.86012775 0.11094309 1.3423934 0.05649658 0.36312595 0.25584066 -0.9221762 0.33285788 -0.20486337 -0.02856616 1.2712742 -0.6589347 0.084047765 -0.21007511 -0.65049237 -0.28917927 -0.9187074 0.6936345 0.37714654 0.689068 0.21146734 -0.11843722 -0.41852683 -0.57221323 -1.0301564 -0.52715737 0.32927328 -1.5408374 -0.2021853 -1.804945 0.9049688 1.832958 0.31632864 0.22079842 0.93966 0.44254053 1.4744068 -0.49040467 -1.6563985 1.4491147 0.67428493 -0.33805442 -0.023345849 -1.3500706 -1.374873 1.6064502 0.25702265 1.5389885 1.2168874 0.5728323 -0.6980496 -0.9416655 0.86700565 0.9943581 -0.36132675 0.8419919 -0.027608063 -0.69027513 -0.55753237 -1.4158854 0.6419033 -1.9538561 0.4246189 -0.162373 -0.21519683 0.89726603 -0.38003966 -0.15965028 -1.4826434 -0.77155316 -0.403203 -0.95193845 -0.8484668 -1.0593059 1.652179 0.55663884 -0.8375566 -1.7833412 -0.34669784 0.8054739 0.18699959 0.6795467
traditionnel 0.7691229 -0.03710903 0.52869725 -1.351756 0.34046057 0.96261954 0.209933 -1.451534 -0.13644153 0.01818491 -0.4689646 -1.8742983 2.540982 -0.28218833 0.46048915 0.3561491 1.4847345 -0.15997876 -0.63804626 0.22980307 1.8066934 0.8100736 -0.6349432 -1.0624877 1.0380496 -0.6799545 0.6924223 0.53774995 -0.5116681 -0.17812985 -1.3815925 -0.89814293 -0.90206665 -0.42749318 0.28166375 -1.5068486 -0.27508983 -1.9530458 0.6397692 -0.6290234 0.38345006 0.18975046 0.35644558 1.6169004 0.8610022 0.17902204 0.74199504 -1.3357006 1.3136315 3.2075856 -0.61611205 1.4015571 0.9107691 0.3539262 1.7905204 0.07938645 0.40747154 -1.2368805 -0.653473 -0.82240933 -0.21403119 -0.45477545 -0.67757565 0.84143156 -1.3430306 1.6128005 -1.3819396 -1.469106 -0.71418476 -0.852115 0.57434946 -0.15237816 -0.2816877 0.5114793 -1.1614398 -0.67681575 -1.2661783 -0.5326209 0.45119408 -0.33579412 0.053967196 0.6669955 -0.013533407 -0.5483783 0.480751 -1.6976539 -0.018872896 -0.22229996 0.116364256 -0.07394957 -0.23612139 0.77964675 1.0909609 0.49526513 -0.22268298 0.06939671 -0.3171661 0.19515638 -0.4805416 0.16520222
deux 0.56825167 -0.16806048 0.06499249 -0.45154583 -0.8400435 1.0872095 0.94709146 0.2512529 -1.0495676 0.94481736 -1.3052049 -0.9113376 0.8991086 -0.074970484 -0.3466394 -1.042974 -0.6575017 0.2761975 -0.058266945 -0.74197274 -0.36232004 1.0764025 0.28646106 -0.7236401 -1.2807364 -1.161376 0.30745566 2.2470546 -0.05026441 -1.0863448 0.15145035 -0.35894543 0.6564344 1.5474269 0.25093085 0.96444046 -0.8425884 -0.7715149 -0.07287191 0.8687312 -0.056726187 1.4915271 -0.5831545 1.4544928 -1.5672328 -1.4055215 -0.13038774 -1.0920879 0.66754633 -0.75712806 0.051906463 -1.5630383 -0.5500808 0.9315414 -1.1361837 0.6133557 0.9309608 0.21624647 0.73091185 0.33262846 0.5043059 0.6447488 -0.48756954 -0.47277734 -0.17752527 -0.048894618 -0.4632901 0.74859744 -0.62315774 -0.28119576 -0.38419488 -0.68126845 -0.028873697 0.94948226 -0.2639757 0.95257044 0.55945724 -1.085414 1.3012784 -0.53408414 -0.12348672 0.8301276 -0.554143 -0.73927987 -0.30950752 -1.3487428 0.0080240555 -0.13977286 0.282878 -0.9321764 1.5133888 -0.7676653 -0.6976333 -0.4314948 0.8850877 -0.46882486 -0.49246052 0.17835897 1.4539031 0.2677271
mesurant 0.51767653 0.89931357 1.0517377 -1.1292512 -1.061124 1.2458556 -0.4140286 -0.5587989 -1.6833464 0.074005626 0.9187884 0.024855748 1.7042898 -0.0696319 -0.38316506 1.1510965 0.8189393 0.85975534 -2.3340998 0.21442437 1.3840802 -0.17692742 0.997933 -0.96963704 -1.9517336 1.1109905 0.75400716 -0.49775878 0.58022845 -0.5621477 -0.46204904 0.56154126 -0.9352115 1.5168235 -0.003806572 -0.32310522 -0.92390937 -1.5820091 0.21590175 0.8016517 -1.2531923 0.5738433 0.78689015 0.7797207 -1.394768 -0.40348348 1.7489191 0.36113352 1.2987746 -0.82674253 0.45599553 -1.952972 -1.0506585 0.66651404 1.6224991 0.17856221 -0.779814 -0.16957161 1.3407965 0.7268301 -0.61086386 0.9643416 0.6189476 1.0668734 0.17707343 -0.7162718 -0.18973489 0.3506612 0.09059067 1.1186633 1.7209038 -0.41301206 -0.7547716 0.5623539 0.35102147 -0.73619574 1.1685088 -1.16032 0.8469732 0.48361358 0.45521277 1.1415379 1.8684219 0.06152104 1.3187791 0.34932595 0.34959483 -0.5515813 -0.71749836 0.35561082 1.3704176 1.0328982 0.6984405 0.5785073 -0.82773817 -0.50596917 -0.6816496 1.1345392 0.6559562 -0.7267339
Dame -0.36313286 0.5318501 -0.11208006 -0.6597379 0.33748826 1.1610862 -0.3886451 0.9564563 0.3581117 0.017708503 -1.2674619 -0.6153001 -1.1946508 -0.72578907 -0.5110115 1.2612172 -0.95687 -0.85858846 -2.020337 -0.023467766 -1.3901225 0.24687867 1.6599989 -1.2022258 -0.13059182 -0.5659166 -1.6073712 0.17963181 0.560564 1.6599772 0.70302355 0.013447781 0.28270292 -1.7452555 0.7117947 0.36719447 0.21665195 0.18387337 1.6676904 1.3704771 -1.7015468 -0.60047483 -1.0087317 1.244467 0.33171427 0.018062867 0.0048211496 -0.13332087 1.0732468 0.120705836 1.2591621 -0.22365691 0.89865977 1.2775513 -0.039316088 2.355249 2.3593774 -1.5537452 -1.0860322 -0.6642999 0.23973262 0.10607476 -0.599319 0.3145446 0.8595361 -0.18957336 -0.86726695 0.38654187 -0.43888512 0.04969609 -1.048311 -1.0292981 0.46866557 1.3207116 -0.6143073 0.38926893 1.4384234 -1.237826 0.7806705 0.7580132 0.2068677 0.72343016 -0.8288857 0.07795731 1.0227098 -2.0346203 0.7484431 2.3319452 -1.4878393 -0.9052328 0.89414847 0.89168495 -0.6590938 -0.91527116 -0.14589179 0.62808794 0.25525802 1.1904534 1.0366527 -0.7576153
cache 0.11926196 0.7785091 0.8069308 -0.096235216 -0.67814726 1.3835589 0.74983746 0.8282222 -0.27590436 -1.379421 0.3429294 -1.7532777 1.0179455 0.15765019 0.10342749 0.6207463 0.14429097 2.1004376 -0.5384731 -0.70415926 0.68762356 0.3917675 -0.7439804 0.4237172 1.0576427 -1.7128906 0.68872577 -0.47322968 -0.3835865 0.17006078 1.1755646 0.8732264 0.14907967 0.04006064 -0.62093925 0.9545391 -0.19742803 0.023024824 0.4931332 0.0137799755 0.36077368 -0.0031637726 -0.49680865 0.77722466 -1.2410359 0.06104882 0.062454104 -1.0111687 -0.55022514 -0.121881686 -1.544226 0.39069954 -0.8863119 -1.0210155 0.69640845 1.444951 -2.90311 -0.11617671 -2.0636053 -0.6108142 -1.6051444 0.1437649 1.1463029 -0.13328317 0.8657458 -0.018952368 0.49257717 -0.2157918 -2.2102213 -1.5030631 -2.4292243 0.571721 1.0009909 -0.25587028 0.63886195 -0.58968586 0.69261044 -0.069612816 0.36619383 -0.34827235 -0.14356525 -0.11589074 0.9778056 0.31807175 -0.18951954 0.617785 0.58957714 0.9835481 0.45859468 -2.6510344 1.6343836 -0.4467278 -0.6169601 0.77225584 -0.5457338 0.12574816 -1.0056171 0.38032734 0.49056405 -0.22394036
pas 0.15270858 0.0033150741 0.87541753 0.27335492 -0.5371295 -0.35580093 -0.0098265195 -0.5583285 -0.6744427 -0.3869253 -0.925412 -0.5153171 -1.7643844 0.18729424 -1.1928632 1.7183396 0.22283128 0.06452031 0.97561646 -0.41775528 -0.23509072 0.032206673 0.9206642 -0.8391871 0.0868209 0.7662 1.3391608 0.36622608 -0.36979443 0.7921196 -1.5037566 -0.6306547 -1.0393096 -0.07643112 -1.5336232 -0.2575029 -0.22453372 -0.2348167 0.6276666 0.5363373 0.31950268 0.5283374 0.58201605 0.8121206 2.1086946 2.4300659 1.127141 1.4352136 -0.4932629 0.77698976 1.0519601 -0.4374919 0.076608226 -0.4867451 0.94182354 0.40412244 -0.4671531 0.37692976 0.6463329 2.2517688 0.5234998 0.27135265 -3.002089 0.5592151 -1.2994164 0.6382551 0.8632016 -0.047484312 -0.53961813 -0.273497 -0.99311364 -0.31385404 -0.38350466 1.3182073 -1.7954893 -1.0700645 -0.67401785 -0.13458666 -0.28037268 -2.2143307 -0.030356145 1.0722519 1.1576922 0.6055892 -0.2885849 -0.6600098 0.14363402 1.5598464 -2.008957 -0.43268126 -1.1346239 0.65663254 0.84499663 -1.3372091 -0.09076754 -0.34934446 0.6384124 -0.20165445 -1.4557567 -0.28513333
sa 0.5282903 0.08040567 0.20056507 -1.8877473 0.9137283 0.60740346 -0.13656227 -0.6578512 0.08957319 -1.2545898 -1.7204593 -0.44232276 -0.6524025 0.73624116 -0.4477543 2.3053274 1.0211841 -0.64757794 -0.088998675 -0.50619876 1.1903068 1.1479678 -0.22289732 -2.1901321 -0.0010557098 1.1592034 0.026132094 0.8883855 -0.045329913 0.45028993 0.6428095 1.2783002 -1.1604556 -0.08330733 -0.4510198 1.0199865 -0.8557577 -1.0412447 -0.19234937 -0.15015806 -0.60455745 -1.0671675 0.30725512 -0.83149755 1.8993549 0.019089025 0.41502857 -1.7542708 -0.50654364 0.47074834 -0.48161957 0.60245293 0.9861217 1.520332 -0.82561797 -0.19745894 0.8626659 0.50289017 0.3034998 2.1744566 -1.4118755 -0.53023744 -1.0476326 -0.5571299 0.29205957 0.19935326 0.58247346 0.46867704 0.81329167 0.3725808 -1.2699299 2.1634824 0.011067819 -0.91170913 -1.0884935 0.67754924 -1.0937244 -0.47412324 2.2054584 -0.2704175 -0.8861324 -0.5068296 -1.8218988 -0.98537153 0.9730472 -0.88443977 1.0696787 0.60597897 1.445212 1.3571217 -0.1429584 0.84914976 1.8311476 -0.63289565 -0.54003876 0.77945936 -0.5018639 0.41860935 0.831732 1.0489933
surprise -0.81929666 0.6884728 0.6953932 -0.5548094 0.39662367 -1.4055643 -0.35865262 0.29944852 -0.5311862 -0.5743794 0.15162906 -0.72840834 -0.9550861 1.0463551 -0.60411364 0.42774424 0.15587457 -1.9313035 -0.21208593 0.14201294 -0.17460059 0.0987715 -0.74226594 -0.01378325 0.8056623 0.46633825 0.96897227 -0.09345415 0.7998294 -0.56260616 -0.16236044 -0.4177859 -1.2062899 -0.18478002 0.16375121 -1.8370719 -0.67345697 -0.16816705 0.39357913 -0.41753224 0.8857746 2.0778472 -0.53520435 -0.211124 -1.4726652 0.08672544 1.1545942 0.8811068 -0.87535274 -1.207912 2.246956 0.46488556 1.2083269 1.1583475 0.05461292 -0.81542534 0.55216146 0.82272434 -2.1906636 -0.38336238 0.92562985 0.68601197 -0.6253131 0.5865719 0.9085776 -0.42935053 0.8561539 1.529148 -1.3667078 0.9596654 -0.23700169 -0.17787746 -2.0716019 -0.7029371 0.51791614 0.28852162 0.7234162 0.6043665 0.3560885 -1.0841835 -0.032860253 -1.4045274 2.572297 0.3064644 -0.63663596 -0.07740118 0.001088075 -0.19200835 1.2644492 -1.1342361 0.24040207 0.07752134 1.6475624 1.4026996 -2.4502218 -0.6588913 -1.4699594 -0.7331546 -0.3407905 0.2942064
car 0.28956848 -0.72186685 -0.09254077 -1.224998 -0.30793026 -1.1994108 -0.28794172 -0.32577005 -0.50618064 1.4677565 0.40330297 -1.0902609 0.75431114 1.4085859 -0.8796754 -0.4892356 -1.3590171 -0.6229787 -1.4338502 1.3524618 -0.15941317 -1.1161779 0.45313925 -0.8082747 1.5630325 -2.0765095 -0.46912602 0.73803926 0.38852176 -0.9582126 0.4804813 -0.058118854 1.200808 -0.7984658 -1.2030725 -0.5974808 0.5995371 -0.5016703 -1.3319541 -0.08995932 -0.7722466 0.6475354 0.010079425 -0.26006523 -0.48524112 0.5190882 -0.6877717 -0.42839083 0.44055355 -0.3081058 -0.45778406 1.5417924 0.7426867 -0.5571088 0.46998805 0.9507924 0.30480814 0.59604025 0.6140053 -0.37798998 1.2370988 1.0131463 0.09011934 -1.3517721 0.9454496 -1.7394644 0.15169717 -0.18462549 0.3157981 0.13330117 0.46723342 1.8860786 -0.64675796 -0.07334763 0.22381194 -0.5952584 -0.24315563 1.0453691 1.0367826 0.16503052 0.98061305 -1.4237369 0.21964508 -0.7913004 -0.09582669 -1.9850374 -0.40556988 -0.6537949 -0.78774494 0.8090591 1.5727415 1.188379 -0.03522533 -1.8793209 1.0689775 -0.01826553 1.2736498 0.41300684 -1.6932431 -0.8624636
dans 0.36199412 0.5814096 1.4321055 0.13116817 -0.44758618 -0.515955 0.47949824 2.0571706 -1.0980774 0.25999412 1.1897031 0.36455163 -0.27824718 1.4667332 -1.82421 -0.5453947 -0.4671877 -0.627602 0.2520553 -2.1694798 0.028661663 -0.43224186 1.5775875 -0.8373061 0.7606894 -0.5975435 1.051879 -1.4329183 0.7793862 -0.5685683 0.33200374 -0.40787858 1.3348699 -0.26811 -0.71029 0.34635332 -0.95473844 -0.62493384 0.8404778 2.278137 1.5638187 0.7905478 3.169169 2.675218 -2.2250845 -0.20952643 -0.9150568 -0.108200245 0.86985964 1.0835707 -0.6922742 0.049664132 -1.6671302 0.057451222 -0.79748714 0.264644 0.4631064 1.6219031 -0.28828502 1.2485454 -0.8461516 1.0619256 2.5216324 -0.03669125 1.5373089 -0.8388376 -0.44959158 1.21163 0.1539244 0.28492564 -0.26141253 -0.80011904 0.064886294 0.39028066 -2.0340297 -0.71154666 -1.3884808 0.70844793 -0.59879035 1.5003356 -0.4066263 -0.76821905 -0.799412 -0.49884984 -1.0522714 0.9115197 2.193311 2.50432 -2.1653974 -0.34620613 0.6795509 0.5985741 -0.43932226 -0.7104333 -0.025082646 -1.23293 -0.9692927 -1.0134681 -0.042530734 -0.79321694
chacune 0.97159326 -0.38461134 -0.8512674 -1.3969727 1.8187971 -0.13622491 0.21519527 0.49968803 -1.5074588 -0.75166833 1.9733416 0.18889906 -0.5772824 -0.38319954 -0.39776117 -1.8076888 0.5552 -0.6751976 -0.5469716 0.35016692 1.8904626 1.0676785 -1.7084221 0.672004 -0.22975817 -0.52595 -0.64967036 1.7867248 -0.30485559 -0.5081941 0.16105585 1.1057495 -1.6701065 0.5952362 1.4434774 1.7695999 0.49654004 0.5826479 -0.37314445 0.45814562 -0.06968256 2.0010624 -0.33009928 -1.9082532 0.029571433 2.1769576 -1.250851 0.8178679 0.32015413 -1.1371481 -0.39729294 -1.0644966 0.5169642 0.50249714 0.19989184 0.42079228 0.04826401 -1.0253952 0.6700778 1.0821003 1.4848945 -0.08010785 -0.2617875 1.0064633 -0.5819911 0.93209577 -0.9546237 -0.23348188 0.31215337 0.20013861 -0.17480674 -0.45298943 1.5158863 0.90950465 0.5472181 0.95918894 0.18278483 0.050421275 -0.5067902 -0.83950883 0.4230925 0.2615373 1.3567017 0.99065834 0.19397762 1.7698537 0.43776354 -1.2572049 0.26546472 -1.1401318 0.3016715 0.24514441 0.5018428 0.53666735 0.22308256 -1.279719 -1.6798402 0.92914736 0.19949053 -0.7107902
vitrines 0.6203169 -0.56089026 0.34435722 1.3093704 0.62285095 2.0044706 1.1029915 0.54239535 0.5101463 0.53423506 -0.31331354 -0.45345157 0.63030565 -0.023682201 0.95004296 0.7337433 0.27577785 1.3983487 -0.09237882 0.036948975 1.1850085 0.55949336 -0.9823334 -0.49446243 0.81326103 -0.733051 0.85883427 -0.34081933 1.9550315 -0.38869336 -0.81269777 -0.73666155 1.016599 -0.97251475 1.3576782 2.4956625 -1.1854262 0.30268908 -0.64980406 -1.8930749 0.00853143 1.8674945 -0.4716879 0.9303232 -1.0858941 -0.77151126 0.234236 1.8346617 -1.1585702 -1.168481 0.60303396 -0.3604297 -1.0789951 -1.8646467 0.7003955 -0.8530814 1.3715698 -0.46450913 0.040660735 1.2483757 0.690756 0.28430927 -1.1306446 -0.14321838 0.8052718 -0.7087467 0.87178135 0.7839646 1.0501724 0.33639023 -0.036396213 -0.26981458 -0.84213585 -0.5760953 -0.82674974 1.2390997 0.3408931 -0.19643222 0.39310634 0.45011353 0.21914774 1.2478015 0.69241625 0.34867454 -1.7333449 -0.37300065 0.99182725 1.066303 -0.22275019 0.064915106 0.71770674 0.6833323 1.594928 0.83344436 0.2559828 0.85267717 0.93142474 -0.7614153 -0.11009439 1.0275707
rue -0.43292382 0.8138429 -1.5132053 -0.058850653 -0.32301256 -2.0776951 -0.80941504 0.3961625 -1.651314 1.1871438 0.046884403 -0.90508485 0.74521995 -1.3584487 2.0552766 -0.9324671 0.34359765 -0.07769583 -0.8958556 0.8431464 0.21783167 0.8085884 0.22375277 0.022952829 -0.065980144 -1.1448411 1.7807661 0.14048608 -0.25478923 1.6007735 -1.5660597 0.65554214 1.5942972 -1.670118 -0.53464025 -1.8488675 -0.84401655 -0.08590376 0.46137795 0.37974682 1.2462072 -0.8031933 -0.8820062 -1.3490735 -1.8415642 -0.44346154 0.8511725 -0.62331694 0.40451702 -0.51044923 -0.7597157 -0.83511406 -0.38716948 0.28831062 -0.14202513 0.08660857 -1.0004511 1.1965663 -0.754305 -0.6477498 1.1451122 -0.36905754 0.061247874 1.2597312 1.5477068 1.7216861 -1.224052 0.9213697 0.08664265 0.0569879 0.6963894 0.82842773 0.63397706 1.3347231 -0.37740964 -1.0894196 0.7425718 -0.36109385 0.8690827 1.4981673 -0.19635423 -0.7519244 0.9735842 2.1896548 1.0553595 0.49394596 0.34580535 -0.35446048 -0.16073985 1.7611114 0.39899218 -2.4183383 0.06906512 -1.3645083 -0.6965824 2.9905632 -0.1536711 0.2316184 -0.12548123 -0.6110289
Sarrail 0.12775356 0.4859991 0.3721739 -0.58095276 -1.988293 -0.022994136 0.7286249 0.040394336 1.1969545 0.6864553 0.8343657 -0.6732298 2.09871 -1.1521026 1.446185 1.227702 -1.0242792 -1.0032076 -1.2066522 -1.0406337 -0.0044180145 0.1861056 0.5671543 -0.2854138 2.645382 0.24224474 0.13200015 0.005048532 0.9936293 -0.8009476 -0.13130233 1.0729859 -1.0023319 -1.2714099 -0.17585269 0.2728165 -0.13641998 0.9096298 -1.5620166 -1.0098028 0.166845 0.7087501 -0.97006184 -0.5068697 1.8543105 0.8914428 -0.43009645 -0.23670134 -0.43044686 0.20620336 -3.2045636 0.74366015 0.4355454 1.3192459 -2.1096947 0.54585254 0.0776688 0.86166143 1.3121583 -0.14291796 -0.014996762 -0.46099448 1.6461232 0.6605281 0.40330893 0.6672654 -0.90157074 -0.16458319 -1.2354076 1.2881078 -2.701376 0.1784736 -0.89316773 0.13522263 -1.1608607 -0.5315513 -1.4076884 1.1418537 -0.87563264 0.6516724 1.3365052 0.48521262 0.9418721 0.6684172 -1.0270817 -0.24156368 0.2974412 1.3424386 -0.7889935 -0.1927365 0.5843398 0.13708173 0.028104091 -0.1597051 0.59255874 -0.7896811 -0.12227555 0.027108299 -1.1910232 2.2207673
ou -0.14135125 -0.14751676 -2.0212831 -0.27744153 0.68735087 0.0831816 -2.0421958 -0.049890228 0.8144534 1.6904234 0.7020353 -0.87322456 0.8132093 -0.8036159 0.19851252 -0.27703008 -0.7191361 -0.22024536 -1.8772839 -1.070311 1.0409001 1.3450183 0.048277326 -1.9764286 0.3163871 0.34918728 1.5023358 -0.28737572 -0.67290246 -0.5123872 0.49561086 -0.6222372 -0.045789123 -1.1791656 -1.4153287 -0.8134619 1.2863573 0.44284397 -0.9754057 -0.33876464 0.7198818 -1.6536976 -0.56814986 -0.61463827 -1.3681535 0.40734565 -1.7426921 -0.3389746 0.5512885 0.2380293 -0.53547066 -1.6703635 1.017094 0.1190862 0.7956725 -1.3371184 -1.0227695 -0.25622642 0.093810745 -0.08010764 0.04001623 -0.94331497 0.6836737 2.632439 -0.16798812 -0.4788012 -1.0415157 1.105705 -0.69391674 -1.0101261 -0.6441855 -0.35049933 1.1607183 -1.1423347 -0.8332078 -1.0110735 -0.90530217 -2.128929 0.11390407 1.188301 -1.4562026 -0.96612656 0.7881408 1.5967056 0.098131016 -0.86596453 -0.8918279 -0.10335189 0.24645755 -1.4965119 -0.45678174 -1.015733 1.3318872 -0.9214105 0.38195875 -0.23393779 -0.11495688 -1.122516 -0.10806807 -0.9800701
De -1.2794394 0.15923809 0.19591098 0.32565257 0.01890047 -2.9255528 0.0038875327 -0.16021201 -1.2168163 1.023276 -0.2530648 0.29777592 0.7244578 -0.96402913 -0.7383921 -1.6760099 1.3111289 -1.4231248 0.84811705 -0.6230805 -1.3333821 -1.7175003 -1.7392902 0.17879745 0.22099674 0.22015052 0.28485376 1.2525871 0.6377868 -0.2898677 0.0015811182 -0.08763898 0.10796932 0.9311403 -3.0160692 0.47850105 -0.30580997 -1.6957182 -0.37659186 0.60589284 -1.8097874 2.5290592 -1.6122448 -0.7692582 -1.2505825 1.0170804 -0.2094908 0.15704015 0.29247087 0.63214034 0.66229475 -0.5845768 1.3410932 -0.74427664 0.98043704 0.8300098 -0.8447327 0.68655 0.7766667 1.4639683 -0.88022846 -1.0899837 -0.8940091 0.42343295 2.68745 -0.6828285 -0.17954713 0.6039352 -0.66983044 -0.39343265 -0.46235755 0.9990088 -0.7090983 -0.5864285 0.9781561 -1.2127168 1.3094193 -0.4693102 -0.9717102 0.7994748 -0.06933764 -0.58380276 -1.0552828 -1.6500071 -2.0068893 0.7040318 1.0898454 0.9789617 -0.5282397 -0.05949101 0.23893362 0.6197734 -0.14365238 0.97519773 -1.2087332 -0.88912666 -1.7063124 1.3698412 -0.08914393 -0.6437169
Gaulle 1.8697791 -0.2438833 0.43800846 0.90957075 1.3891101 0.7022546 0.18353513 0.23412642 0.5483536 1.5287892 -0.5183907 0.65677774 1.1492251 0.05643283 -1.2315475 -1.5346339 -0.28744116 0.44224346 -2.078898 -0.31073675 0.023061719 -1.2162443 0.52338535 0.64771014 -0.19640172 0.27830866 0.09672639 1.3017406 -0.6261291 -0.19248782 0.39606076 0.53477126 1.0420815 0.21591996 1.3529754 -1.601974 0.9353897 1.4569217 -1.2187616 0.9412436 1.2736584 0.46002463 0.7939005 -0.5911478 0.21582665 -0.77669233 -1.1803854 2.145539 -0.5990158 0.07552176 0.32423657 0.41251034 0.62743473 -0.46064177 -0.13764554 0.20816734 -1.1188707 0.58395153 1.3441808 -0.63042444 -0.61726594 -1.8305609 -0.45499894 -0.30839905 0.5415293 -0.060057547 1.5070325 1.0562228 -0.6101704 0.46681276 -0.66802186 0.5011572 -0.738211 -0.59834915 0.7988814 0.44220373 -0.72793597 1.1135881 -0.28245577 0.9573479 -0.46539107 -0.47293442 -1.099598 0.60562676 -0.71459156 -0.62255865 -0.31247973 2.5451422 -0.4284466 -0.73069453 0.039942656 1.2386968 1.0913217 -1.4929379 0.053273506 0.2703617 0.03077538 0.86985654 -0.50058293 -0.030386785
cette 0.7773376 1.6486386 0.3035839 1.2255328 1.9902022 -0.60854477 -0.851464 -3.554877 -0.44601744 1.7660904 -0.9448326 -1.027205 0.017836532 -0.47044632 -1.0567237 -0.15171774 0.47655693 1.859916 0.61921626 -0.40539992 0.67158705 -0.46815214 -0.7679781 -0.59112257 0.7507706 -0.8236822 0.33343488 0.94507337 -0.62380934 -0.5305584 1.0179174 -0.92553186 -1.146788 -0.49749145 -0.019762676 -0.66555583 1.3865651 0.093325146 -1.3327503 2.0913818 1.7913313 -0.37082663 -0.108963415 -0.2428897 -1.086941 -0.09230061 -0.7367361 -0.97034174 0.24156673 0.08615298 1.5761265 -1.0290138 -0.6968364 -1.3702157 0.76569706 0.11179469 0.3892453 0.4796531 0.684532 1.1206741 1.7403716 0.47082087 -0.63782275 -0.16788065 1.3816686 -0.6204933 -1.4830211 2.3727977 0.6118619 1.8447292 -0.32976383 1.3544202 -0.5512141 0.094006956 0.18928261 -0.20336938 -0.64375913 -0.43570572 -0.42102623 0.9668105 -0.6956586 0.9230626 2.1278486 -1.5512472 -0.7168547 1.5499151 -0.4853295 0.15207395 0.30175725 -1.2779037 0.048752047 -0.61674654 -0.51218694 -0.19388907 -0.5527125 0.42086926 -0.4982828 0.5619069 0.5711791 0.8542481
taille -0.49005565 1.2290959 0.4211851 -0.81334865 -0.18715139 -1.5365971 -0.97975415 1.2609938 0.29032314 -0.28169954 0.3700106 0.7457015 -0.18178031 -0.21531257 -1.2725788 -0.09037976 -1.9132111 0.6856234 0.09002233 0.4977259 -1.0121702 0.5235629 0.41896975 0.9569702 -0.6570387 -0.17010048 0.32219008 -1.5202549 -0.32372048 0.726948 -0.94625103 -1.1670994 1.0302347 0.87603635 -0.12631413 -0.48599797 -0.0168409 1.002933 -0.37159282 -0.13082951 -0.04069189 0.4833777 1.5432526 1.1921948 -0.63171065 -0.59574014 -0.6376632 1.149268 0.03358178 -1.6323377 0.2903906 -0.31042415 1.699728 1.5587906 -1.4512161 0.7700865 -2.04834 0.15254441 -2.3402438 1.3769375 -0.21043707 -0.92922163 -0.3194108 0.96983427 0.41778308 -0.70078963 -1.749138 -0.9844812 -0.17931044 -0.37794843 0.08132701 1.0774262 -0.5688229 -1.3100657 0.7626893 -1.1449757 -0.20059611 0.9559456 0.12175194 1.8710521 -0.24652678 -0.30526328 0.7153461 2.4412494 -0.9488015 -1.0074705 1.7199254 0.54814947 0.72923535 1.8009646 0.25167856 0.34388456 -0.9462503 -0.7886528 -1.4719913 -0.70092523 -1.4553679 0.120241016 0.6304914 -2.7626915
impressionne -0.14047064 0.15900888 0.053479142 -0.8408635 0.5051303 0.87070924 -0.356082 -0.60210204 1.3508823 -3.3602664 -0.07144565 -0.26624033 -0.92357796 0.05493662 1.5452846 -0.1463965 0.0008732877 0.13291448 0.5380345 1.0285071 0.63108706 -0.7925915 -0.086000636 0.20879118 -2.1694138 1.2145265 0.07840443 -0.14683005 -0.9078206 0.74907106 -0.45045027 -1.215198 -0.23413004 -0.5937629 0.59672064 0.01039398 -0.5520818 0.16265531 -0.28073776 -1.287504 -0.25060958 -1.4948533 0.44038293 1.2882762 0.41667694 -0.82533705 -0.2662826 -1.5133137 -0.764943 -0.2868608 -0.9718441 1.1527236 0.0550781 0.97541046 -0.72998387 -0.26056853 1.2032679 -1.4313729 1.4823312 -0.13299954 -0.79782194 -0.8716231 -0.4149704 -0.8331736 0.62331825 0.5295114 -0.713555 1.6146572 -1.165752 0.88963646 -0.7385877 0.19460016 0.14017084 0.07817304 0.028025322 -1.1021917 -1.1316984 0.40889728 -0.22477776 0.07720647 -0.62113225 -0.5708115 0.9822989 1.1944824 -0.07970802 -1.2105767 -2.0403483 -0.58707416 -1.1769657 -0.25325114 -0.64804614 -0.023515372 -0.37186438 -1.1994811 -1.4454832 0.096700385 -3.0164738 -2.446165 -0.30574504 -0.42187646
mener -0.88706213 -3.343447 1.2914164 0.67020446 0.31225023 -1.8086925 0.52486926 1.6297597 0.6008819 -0.81480765 1.4823527 -0.47226328 0.3038688 -1.7422763 -0.65501964 0.13062842 -0.8761339 0.23734446 -0.49700478 -1.1103323 0.13654236 -1.7036488 -1.0473356 -0.23874442 0.58102405 -0.3425631 1.0826765 -0.6577763 0.257745 -0.33899513 -0.7101506 0.7460505 -0.94995326 0.82256204 1.3606828 -0.86440176 0.15150249 1.5467324 -1.0706124 0.21448684 -0.18035598 -0.79071426 -0.7965158 0.5574885 -1.3470616 0.17246062 -1.3286984 0.73982453 -0.8587859 -0.17896147 -0.17995006 2.0599253 0.073790915 1.4737805 -0.056120414 -1.2044723 0.61049294 0.71466315 0.9301845 -0.37982193 -0.94382614 0.16134365 -0.6274731 -0.19903046 0.18649063 0.90655875 0.03399521 -0.5232068 0.74906725 1.0685705 -0.5171184 -0.0009020593 1.6456013 -0.1813272 -0.11326486 -0.79227424 -1.1391691 0.5970801 1.3551058 0.9808506 0.5792037 0.5048954 0.7156048 0.44422314 1.1816324 1.2333434 1.1804837 -0.49010146 -0.005063522 -0.92068285 0.79495674 -1.7348676 0.9500661 1.4228642 0.28827423 -0.10252411 -0.7517377 0.46202588 -0.62717664 0.85256684
avantde -0.8027573 -0.96515936 -0.2221358 0.46509627 -0.15988249 -0.009659703 0.87516564 -0.96026516 -0.7305079 -0.9214463 0.18891999 -0.80348486 -0.32163268 0.23490602 0.03661975 -0.27948266 0.61516804 -1.0299398 1.2874362 -0.7502742 -1.5098621 0.5935881 -1.9085448 0.36396846 1.2969666 0.41546425 0.026620962 -0.68447423 0.3827735 -0.036983993 -0.2998472 -1.0040908 1.3518063 -1.5701373 0.5007879 0.3081328 -0.852577 0.86047375 -0.29677594 -2.1043713 1.839971 0.40733686 0.05754236 -0.83556503 0.06308958 0.15476066 1.8449416 -0.28648862 -0.08363851 -0.22529836 -0.020708576 0.85932475 -0.4238717 0.5035093 -0.7317682 -1.5748863 0.39808878 -1.5089288 0.34495333 -0.64036095 0.4300756 0.5996175 -0.0063277935 -0.9696193 -0.46757537 -2.0241976 -0.2503656 0.52386844 -0.13508731 0.45082814 -0.6702397 -1.151605 0.76038724 1.0206466 -0.49140376 -0.055838972 0.83057106 0.21068807 1.3934343 -1.0911938 -1.7829449 -0.69888747 -0.11877654 -0.28139877 -1.3385209 0.15690818 -0.22542632 0.39221963 -1.2328906 0.89732 0.19092932 -2.7225242 0.7257956 0.8435205 1.2421227 -0.23475686 0.79997426 -0.015344897 0.30191737 -0.87233037
exposer 0.47330695 0.239352 0.84282327 -0.8425337 -0.35735106 1.0502228 -0.4864862 -1.0152609 0.20195368 0.701185 -0.3560065 -0.6144895 1.6201855 -0.6803578 -0.7178721 -0.7899383 0.67950445 -0.30315527 -0.29533562 -0.3192996 -0.5114648 1.1716032 -1.4558811 0.064507395 -1.4547299 0.20236471 -0.36634904 0.42555672 0.010884034 -1.7267659 -0.7608819 -0.34701294 -1.2717389 1.2226646 1.0203621 1.7590744 -0.059957594 -0.8950757 -1.5255377 0.87936264 -0.34126693 -1.0427605 0.18214934 -1.0568022 -0.7648834 -1.1783655 -1.1025885 -0.83904856 -1.359627 0.871169 0.3189966 -0.26749927 -1.4117919 -1.9615219 -1.2451291 -0.67266816 1.0527761 -0.29799935 0.23941328 -1.1684442 -0.792484 -0.90271413 -0.3656157 -0.31376243 0.21689253 -0.35098913 -2.1337054 1.4280984 -0.34739432 0.63656 0.17571427 -1.5707127 -0.760693 -1.1028911 -0.5171083 -0.11988022 0.226315 0.9782618 1.166897 -1.4032207 -1.6542983 0.016811583 0.062754676 -2.4062276 -0.056976262 0.508538 -1.5705022 -0.14750008 0.7829067 0.10919088 -0.7806157 -0.8233797 0.25259534 -0.38889736 -0.69969404 1.3762693 -0.39656416 -0.44103053 -1.2608583 -0.84916806
n 0.2934115 1.2683544 -0.096075326 1.0019038 -0.37658006 -0.4570132 0.025541294 -1.3039068 1.4253968 0.24864057 -0.73007774 -2.4858596 2.619291 -0.31625715 0.43989748 0.80451924 0.055512637 1.4185218 -1.282315 -1.100133 -0.18181643 -1.2682886 -0.7135221 -0.7418071 -0.21782383 -0.28037727 0.36040488 -0.78776115 -1.114292 -0.43041652 0.46769923 0.18533419 -0.14421026 -0.7086444 0.15841195 1.7325226 0.20487188 -0.92077136 -1.2135109 -0.29713237 -0.4518616 0.24659154 0.27483645 0.4906722 -1.1305187 -1.1309434 -0.40860882 -1.3176149 -1.1781669 1.8022614 0.59458315 -0.188108 -0.24084798 0.46583077 0.84890467 1.5906161 -2.27795 -0.95932436 -1.9862844 -0.9481992 1.8974456 -1.5510089 0.8876129 -0.9593824 0.9563438 0.118891135 0.60357803 0.038715214 1.278765 -0.6951699 -0.60712624 -1.6849164 0.75894207 0.5543936 0.1656091 -0.56283116 0.31662425 0.30428258 -0.16292055 -0.24697432 1.7637252 0.38350233 0.1474973 0.6961461 0.4117809 0.9682271 -0.9828528 -0.13279937 -0.0069802403 -0.39632046 0.24289149 -1.7500759 0.27225423 1.9554021 1.3527069 -0.33136228 -0.26991412 -0.31871945 -0.7251755 -1.8303082
aura 0.33870062 0.6687291 -0.6680828 -3.3841243 0.22227411 0.21555695 1.3039436 0.17605615 0.052329883 -2.959695 1.3834915 2.5385008 0.47264805 1.3016452 -0.21456493 0.13216777 0.32570577 -1.0556303 0.8061221 1.6576618 -0.13679518 0.7869175 -0.54894924 2.6527293 -0.43343726 1.5061587 -0.3247484 0.41620028 0.04527011 1.9441848 0.59382725 -1.5339289 -0.34165847 1.5722111 -0.7410038 0.716042 -1.0111654 0.38368845 -0.8866555 0.015960604 1.4837756 1.3444291 -0.61460865 0.42849383 0.17862134 0.53373563 -0.6322292 -0.14932795 -0.8219358 0.38756764 0.22151938 -0.29914948 -0.493229 -0.45531854 -1.2584668 0.34957725 0.7072186 0.81140065 1.6371992 0.015925542 -0.1451212 -0.04985339 0.18455145 1.0339777 1.1667241 0.4474692 -0.62851465 -1.5321295 1.4474604 -1.6492832 -0.016558316 -1.4562683 1.9753412 0.04333016 0.19406496 1.5100756 -1.116204 1.0318005 -0.78313804 0.5795432 0.6698643 1.9425105 -2.3949845 0.11544894 0.88934577 0.63258 0.59006345 0.622379 1.1618042 -0.7754051 0.43282568 1.3159426 -0.20559263 -0.2020333 -1.9700196 0.13213259 -0.5821414 1.1725557 -1.4634173 -0.7477496
fallu 0.82048255 -1.1661441 -1.6884797 0.6513765 -0.16295458 1.7492907 0.60819256 0.28318757 -0.08653459 -0.033899356 -0.14430918 2.1349103 0.013275959 -0.52262443 -1.3916236 -0.5100709 0.119624674 0.8124633 0.56281054 -1.179032 0.71254057 -0.7746083 0.4110378 0.8377642 -1.0552506 2.6219332 -0.37046978 2.0553293 1.2401237 0.9718302 1.2160066 -0.07107191 -0.011644708 -2.0434282 -1.1804531 0.43519998 0.2727967 0.18039645 -0.5841929 0.6263665 0.3183315 -1.5964112 -1.3188658 -0.012335691 -1.0782937 0.5493337 -0.42584777 0.20640807 1.1966509 -1.1709684 -0.47951806 0.85014445 -2.404032 0.47960848 -0.08282277 -0.9504222 -0.6417484 0.2270083 -1.0909904 1.3151025 -0.53151405 1.1094682 -1.1931604 -1.1407832 -0.6036759 -1.0427375 0.98598176 0.2723542 0.30077702 0.90050876 0.6994725 0.5437441 -0.72881895 0.74671173 1.4237502 -0.3464965 -0.4463848 0.94572186 -0.47970903 -0.3558594 0.9227701 0.6604976 -0.18064234 -1.395013 -0.7705114 1.4569552 -1.5204965 -1.2033651 -2.1198022 0.17220898 1.2388706 0.23040888 -2.2059388 1.3643035 0.25448868 -1.1523737 0.5184737 -1.8983363 1.2089413 0.7777409
moins -2.1132925 -0.65300864 -0.49765408 -0.5914073 -0.23207127 -2.29643 1.8698174 -0.014780934 -0.10354657 0.42160097 -0.1343777 0.6572847 0.22599156 -0.34474868 -0.35951293 1.0973103 -0.2557559 -0.8620171 2.2092412 2.3459244 -0.8393637 -0.6149911 0.6302926 0.7738029 1.5704907 0.26427606 -1.546079 -0.37886393 -0.4956809 0.1769325 0.14192417 0.18569283 -0.57814056 0.41777086 1.6249883 -0.7758943 -0.0054824655 0.5630007 -1.7731748 0.20802197 -0.18128295 0.7305456 -0.048767697 0.44395554 -1.0270634 0.5821994 -2.4735062 -1.1258347 -1.4926307 0.17259225 1.2892207 -1.0016483 0.47619602 0.043907467 -0.6997833 0.56947047 0.12163125 -1.0575774 1.4373856 1.1886737 0.7064541 0.02762359 0.0057595246 1.1461645 1.4799737 -1.3844196 0.2803532 -0.1051839 0.5298082 0.3434648 0.9207671 0.33431402 -0.2560355 0.46715292 1.3442903 -0.42104554 1.0192403 0.32934225 -1.8987305 -0.56534046 0.29560277 -1.7736648 -0.45167586 0.34949762 0.7800492 -0.71993107 0.42921913 -0.25523797 0.38042593 1.4402754 -0.06005344 -1.2072744 -0.5225666 1.3037263 -0.7109291 0.0098558515 1.3439032 -0.30779234 -0.5586597 2.1679313
heures -0.46160096 1.1375009 -0.7565126 -1.2769014 -0.59196836 0.65889233 1.0641369 1.7657073 0.86444867 1.71891 0.26342225 1.2065432 1.2835801 -0.14605366 -0.20954174 0.8578206 -0.57247126 0.050951518 -0.911407 -1.7450886 -1.1504859 -0.2490961 0.04890341 -1.2123423 -0.3448596 0.5314462 -2.1222336 -1.8960351 -0.38395247 0.6415232 -0.83345187 -1.0768558 -0.45706278 0.68940496 -0.19053221 0.35948434 0.65944844 -1.7731835 0.21762285 1.4062321 0.91834855 0.5712857 0.41082707 -0.43852016 0.50536925 -0.11743077 -0.98715746 -0.7319605 -0.79572004 0.9293507 -0.5795961 2.4301884 -1.5576453 0.5518656 -0.6929267 1.5290467 -1.2182837 0.29997203 -0.67230237 -1.0366257 -0.37648505 -1.1587173 -2.5377264 -0.4104087 -2.0470505 0.9721165 0.35396427 -1.0561801 0.760626 0.010133093 -0.19035314 -0.38726017 -0.20898348 -0.9374998 -0.41475654 -0.7080805 -0.31722492 -1.0234272 -0.8769722 -0.5108106 1.5168327 -0.79128 -0.055831984 -1.9986463 -0.023258679 -0.9979292 -0.2186456 0.9090244 1.6881615 1.2194562 1.2667134 0.4889542 1.3008536 -0.29527754 0.13363238 -0.66998714 -0.2948977 -0.021576699 0.7664196 1.4779557
cuisson -0.14224857 2.1035361 -0.0159668 0.4563678 0.22148657 -0.3508483 -1.8947804 -0.34906545 0.5536643 -0.27547583 -0.46940657 -0.78701496 0.06441912 0.81316876 1.4953203 0.95773786 0.79510194 -0.24155787 -1.1525016 1.6143115 -0.907188 2.1487932 -0.089523785 0.034677062 -0.6318188 0.36642584 -0.302126 -1.819942 -0.75565815 -0.7874765 0.122857794 -0.80697685 -0.592928 0.8139475 -0.5367747 -0.0020933547 -0.88339454 -0.37040246 -1.7901896 1.129056 0.4578559 -0.83494586 -0.0430146 -1.8145887 -0.45883152 -0.32405594 -0.3842251 -0.05205269 0.39959762 0.42510915 -0.107427195 1.00095 -1.5116451 0.566351 -0.2480301 0.29439482 0.7596949 0.42224994 1.0217531 0.36089563 0.21286868 1.9321222 0.75452673 -0.6230573 -1.3057886 -1.8738263 -0.20105691 0.15268208 2.3411944 0.8183686 -0.019597854 0.22203624 1.5822499 -0.40687692 1.2012862 -1.6880292 0.7883292 -0.7213313 -1.0407652 -0.25006735 -0.81252223 0.59729856 -0.8853456 0.31870285 0.20970607 0.34750375 0.67960435 -0.8532404 -1.0810839 0.55624944 0.052487183 -0.5002173 -0.6846851 -0.036305625 0.30693606 1.231943 -1.551317 -0.31386212 -0.058732383 2.06927
avec 1.8558084 0.6971811 0.9876147 1.7242355 -0.91013116 -0.3109356 1.1584272 -0.49666485 0.5392834 -0.15066448 0.583491 1.5791014 -0.9741559 0.8412562 -1.4082563 -0.3908998 -1.2449613 0.70019233 1.0853927 0.99737084 1.4286047 0.32236302 -1.1434072 0.46285018 -1.2667856 1.2172328 -0.37135965 -0.39366317 0.9220998 -0.37689453 0.17424306 -0.36166814 1.835913 -1.5792415 -0.8293447 0.19749895 -0.009815515 0.86339504 -2.5328238 1.39359 1.6641642 0.02771934 0.7040461 0.28001598 -0.28827742 0.9838111 -0.43032125 -0.5243216 1.304702 1.0658526 -0.3381677 0.7167263 0.52887464 1.3719997 -0.59458274 -1.9092343 -0.54661006 -1.1093105 -1.0460194 0.6541865 1.3818645 0.09311858 -0.8755472 0.59761214 1.3691624 1.8404199 0.68656075 -0.66595066 0.17097415 -0.34074745 -3.0105379 1.0371752 -0.71279305 1.0805469 -0.77855796 2.4029694 0.7000944 1.1397002 -1.0742954 0.24505818 -1.8076316 -0.26112172 -0.20811504 0.7314422 1.643269 1.3408958 -0.3226252 -1.0365703 -1.0309024 -1.9892126 -1.1114137 1.3565297 0.78929186 1.4222252 1.2434976 -0.29271033 -0.54395497 0.17746888 -0.8971098 -0.28663692
une -0.17489092 0.46541956 0.42117178 0.7471368 0.6347069 -1.2169384 0.6655627 -0.4922941 1.422279 0.37654722 -0.3291496 0.9709314 0.82363033 -0.5170559 0.28788677 -0.106735006 -0.5849459 -0.41810554 -0.7096615 1.8858858 0.46662605 1.454501 0.31004953 -0.09525733 0.1444705 0.1789856 -0.13152757 -0.9878489 0.38689494 -0.36102822 0.73281324 0.20623252 -0.5811086 -2.398454 0.5928674 1.2744689 0.14576383 -1.32279 -1.7745423 0.008339681 -0.35504565 1.3471718 0.58357835 0.7444827 -0.8784936 0.74162114 1.5694727 0.2793925 0.15221778 -1.3044828 0.31419152 -0.17835388 0.13397159 -1.5963988 -0.9517844 0.18954667 1.7503829 -0.5196866 0.6245473 -1.2783322 0.46381983 1.6163448 1.5934722 0.23924716 0.42626333 -0.832661 1.0668054 0.14489843 0.10348799 1.2444975 0.9147377 0.4717568 -0.4212135 -0.33478788 0.1012705 0.4859066 -1.3711617 -2.161598 0.9040515 0.9765822 0.9833338 1.1094265 -0.18886891 0.22717556 -0.79956436 -0.8963405 -0.13073762 0.60170734 2.0961094 0.4633142 -1.4163707 -0.46662194 -0.10957919 -0.32610646 0.46758792 0.88225716 0.45013234 -0.4239691 -0.122642025 -0.38011017
surveillance 0.12965658 0.30833402 -0.015165427 -0.9014187 0.25364196 -1.1798277 -1.1256692 0.3092657 -0.7593852 -0.9951738 -1.0355645 0.8907367 -1.5342789 1.635368 0.59851176 0.03088937 0.9810714 -0.84552485 -0.5226389 0.53532404 0.39842 -2.2659461 0.9917552 -0.4489883 -1.2906523 -0.31232554 -0.806745 -1.0498694 -1.0369688 -1.0841095 -0.73139805 -1.3356988 0.208618 0.011439297 1.4381282 -0.37876198 0.8659459 0.7203414 0.69988996 -1.9302123 0.96771115 -0.27446902 -0.45970544 0.0014978294 0.42364463 0.25109544 2.063568 0.075400546 -0.55085903 0.46596614 -0.5716677 -0.20652476 -0.18127167 -0.61376536 0.5834764 1.4397179 -1.354252 -1.317639 -0.15797466 0.27459237 -0.22828266 1.2445836 0.06188321 0.16036047 -0.63815045 0.4033429 -0.17848569 2.0021849 0.78302556 0.35795072 -0.35912564 -0.012110579 0.051129896 0.4070398 -0.24561352 -0.024095157 -0.17850438 -0.18262693 1.9606311 -0.5755931 -0.9384799 0.29757994 2.8835306 0.68652624 1.0616264 0.4544639 -0.8212189 1.3662189 0.6459486 -1.0844327 -0.20581423 -0.0260959 -0.43767107 0.29643348 -0.77733135 0.22200412 2.1398413 -1.1526397 -1.1282244 -0.5480078
chaque 0.92341286 -0.078457475 1.1340399 0.97365874 0.9925886 0.11265617 1.0421911 0.6219443 -1.4548261 -0.8090977 -0.92708135 -0.732977 0.9641101 1.0923133 0.9790583 0.015102289 -0.83901465 -0.5740529 0.61216575 2.168749 0.05513482 0.7644657 -0.45452645 -0.22581398 1.4898608 0.48884827 -0.6071831 0.07411997 0.11881494 -0.21975446 -0.15865305 -0.33003873 -1.3010365 2.0335987 0.5582486 -0.953836 0.5723337 1.3528951 1.4254156 0.2859379 -0.9812985 -0.14044282 0.665976 -0.36171916 -1.1651843 -0.83087045 1.6077164 -0.48678607 1.0502784 -0.1314952 1.1972767 -1.490569 0.699762 0.52276456 -0.6271799 1.9325204 2.3784468 -0.6638736 -0.98369247 0.43936923 -1.198051 -0.6415409 -0.18559176 -0.7488439 -0.77888775 1.870463 2.838505 -1.2659434 2.6275961 -0.6173264 -0.9948899 -0.38906685 0.24118303 -0.11526571 0.5333061 1.0649257 0.7275916 1.3122665 -0.4450124 0.23676047 -0.43454903 -0.1648006 0.022470709 1.4197738 1.2133232 -0.3210091 1.9845175 0.6203417 -0.60979944 1.0269169 0.2624371 -1.5416397 -1.2027845 -0.42051357 -0.084696464 2.5593147 0.8595956 0.4593822 -0.27900127 0.79209346
instant 1.7293411 -0.8208132 -0.927676 0.07957712 -1.3514069 0.3690155 -0.12515976 -0.07612288 1.1961178 1.7500724 -0.51328444 -1.1386645 -0.6298337 0.70705307 -0.39528623 -0.56061214 0.69021225 1.111925 -1.1928475 -1.4024454 1.0133458 -1.7666459 0.36051372 0.55729485 0.59365773 1.3558753 0.41028044 0.35456005 -1.4221457 0.1548963 0.87769055 0.27303737 0.57750285 1.7956755 -1.9321822 -0.57427734 -0.5785367 0.9583543 -1.1699322 0.49010208 -0.5136955 0.22704707 0.85325986 -0.78788704 -1.4543017 -2.359656 -0.47810808 -1.1374334 1.0158911 0.45545036 1.2858483 0.763755 0.82986706 1.716217 0.09601301 0.5279091 0.505947 1.1744655 0.42001724 0.17143193 -1.93953 0.54842925 -0.021423843 0.15110473 0.9764076 -0.73154545 -1.582485 0.9101241 -0.47272217 0.09766656 0.89860153 -0.4041776 -0.017828735 -0.30454203 -1.0374347 -1.3113524 0.96391124 -0.10081704 2.714228 -0.9719694 -1.0228482 0.7554622 -1.0175769 0.8815895 -0.13376373 -1.0098299 0.017100606 1.4670235 -1.2407231 -0.77221537 -0.26235738 1.1130004 0.5380184 -1.5289991 0.3606634 0.5823059 0.21779451 1.4474752 -1.0808576 -0.4130731
que 0.09550107 -0.49993712 -0.8216483 -1.0905062 -0.31281647 -0.11236735 1.3104402 -0.6964946 -2.2857084 0.8482556 -1.4173146 -0.54274744 1.6301059 -1.2223247 0.42015076 0.087978765 0.3254079 -0.54639304 -0.86122084 -0.51203775 -1.6390138 -0.92639005 0.4227832 0.56004536 -2.4415224 0.012794668 -0.53860474 0.566311 1.6248007 -0.3555581 0.88480955 -3.3090935 -0.01986646 0.036709897 -0.38387224 -1.0965785 -1.6774755 0.33234304 -0.7356632 -0.37362966 -1.5456392 -0.49889606 0.6206139 -1.4011562 -0.07466022 -0.7381207 0.004296065 0.9298232 0.873619 0.26303834 0.17983203 0.69252646 0.39183748 1.2905678 0.6292904 -0.66923606 0.81677395 1.1628649 1.048411 -0.5663782 -2.8605328 0.51532394 -0.53962743 -1.240073 -1.7557193 -1.0379142 0.23133732 0.69823 2.0556765 -0.59782827 -1.2168753 -0.45096597 1.419959 -1.2042035 -0.6189096 -0.15471719 -0.6855398 2.573661 -0.12181611 -0.14682737 0.02509907 0.6276801 -1.781814 -0.32060266 0.7479426 -1.0488769 1.2729607 -0.79654044 2.0742683 -0.56578 -1.7629058 -0.8870699 -0.74297047 1.6697272 1.6152383 0.8427229 -1.8878429 0.6723294 0.1726933 -1.1762149
levait 2.1472464 -1.2576452 -1.7589294 0.50256294 1.2283872 -0.95303434 -0.22441421 -0.8312116 -1.30025 0.28981274 -0.5117272 -0.8098431 -0.11594373 0.2898745 1.6785678 0.11930745 -0.23799106 1.5836637 0.47107968 1.689002 -0.53089327 0.37552428 1.1598186 -0.671973 0.5370024 -0.568822 -2.3717325 -0.5847296 -1.7125862 -0.7030912 0.18703064 1.1842957 -1.8199435 -0.3593437 1.7980169 0.40085077 -0.10530083 -1.7779773 1.6725786 0.44725695 0.84385383 0.7011368 0.8670282 0.6214327 1.0484079 -0.5437922 0.24962299 0.9362905 -0.0869534 -1.9269497 -0.23521072 1.061558 -1.1006584 0.4785642 0.62201625 0.3332799 1.954824 -1.0298537 1.9323703 -0.3887109 -1.6138587 -0.6558559 0.12575155 0.96629167 -0.076969415 0.71211433 1.1704137 -0.7850982 0.25897226 0.48807776 -0.46999213 0.54940057 0.7142039 1.085194 1.1512955 -2.5880642 0.5293391 -0.6971029 1.1053247 -0.2990325 0.23648477 -0.8917956 -1.4753894 -0.8734856 1.227743 -0.23496172 -0.7597064 -0.41261402 -0.37990284 1.3030877 3.0440269 -2.8957179 1.733508 -0.650212 0.621944 -0.949389 0.6357089 0.37069234 -0.027158516 -1.499994
correctement -1.7737986 -0.9376429 -0.3201938 -1.2495341 1.6118134 2.4509702 -0.31013155 0.34207138 0.28259113 -0.020490903 0.09059413 -1.0924778 -0.1781309 -2.5641243 -0.9112568 0.26790416 0.050189245 -0.23980479 1.4322538 0.73271924 0.6265415 -0.8221904 -0.11897046 1.1235838 -0.5812152 -1.1022877 1.7907329 -1.1407776 0.5397135 -1.658423 0.6767117 -0.90301466 0.46784738 -1.6377647 -1.1421168 0.5502074 1.0294329 1.3546299 1.4552066 -1.04329 0.321736 -0.8156726 0.6637636 0.59870726 0.6039128 -0.41688234 -1.4564481 2.1184063 -0.79978234 0.9427981 1.1234013 0.28389257 0.33500484 0.030368904 1.1470617 0.68772876 0.91454047 1.2933737 1.1242515 -0.9860058 -0.22578251 -0.5047382 3.2480977 -1.9421382 1.1079981 -0.106956385 -1.6548289 1.4443731 0.6680472 -1.1646415 0.5408589 -0.23270474 -1.5747385 -0.023677766 -1.8295919 -1.4548736 1.2221661 1.1340275 1.1544114 0.46392563 -1.976331 0.13890898 0.8368255 0.7474014 -0.97189283 0.8120146 -1.0294054 -0.8352443 -0.03621128 -0.60980904 -0.30722147 -0.34836033 0.1985568 -0.82966393 0.25556162 2.09972 -0.25042492 -1.048532 0.9187011 -1.7335923
prenant -0.41109475 -0.66381896 0.11980924 1.8921599 -1.481981 -0.5761357 1.5383803 -1.156721 -0.90141904 0.6515928 1.316272 0.25825503 0.56799376 0.4563803 -1.282972 0.41462252 -0.84838706 -1.7891263 -0.49153298 -1.1340742 -0.46610242 -0.3329341 -1.629923 0.37001607 -0.06263481 -1.3250833 0.41352886 -0.17995097 0.8820533 1.056645 -0.5866635 0.13935658 0.37412462 -2.166293 -1.7007047 1.6474125 -0.52972066 -0.03383061 0.81870794 -0.21480276 -0.59792334 -0.2735115 0.23194507 0.21346459 0.08674509 -0.4973099 0.36991826 0.27303603 -1.671415 1.0358313 -1.2869501 -1.0897303 -0.94550234 -0.7321939 0.83445275 -0.6310882 -0.58944595 0.6633057 -0.21354325 2.1676817 1.128888 0.05737857 -0.7360871 0.6528772 -1.2029054 -1.0488726 0.6911618 -1.182139 -0.5931793 0.22052087 -0.1390027 0.44682586 -0.09650288 -2.0268123 2.1077614 -0.5937165 -0.93888205 1.2113923 -1.0528666 0.7260212 -1.7250023 -0.14481956 0.58808875 0.5351042 -1.0139612 0.02016394 0.7438192 -1.0679021 0.30069932 1.6310333 -1.0882925 0.70484096 -0.023738032 0.5391331 -0.08087657 -1.3168497 -1.7586857 1.6749101 -0.20907754 -0.26234344
belle 1.4508951 -0.61046875 1.3461028 -0.9875342 0.25087208 0.09029266 0.26078296 -0.6344783 -0.36696804 -2.315193 -0.17643031 -0.024110345 -0.36286554 0.48302925 0.23655829 -1.5386925 -2.472426 -1.0928477 0.1293329 -2.6647897 -0.43810406 -1.1693331 0.6650717 0.40054274 -0.8394147 1.2774007 -0.2365945 0.759534 1.2539661 0.13288048 2.0302918 0.699948 -0.03539889 0.4550066 -0.21598305 -1.9841172 -1.5188773 0.6936627 -0.29623365 -0.45317426 -2.115476 0.7897267 0.03642917 -0.8012509 0.027212616 -0.5208478 0.3800664 -0.37110457 -0.34629598 -0.93999153 0.7359963 -1.2176111 1.0259951 0.16102977 -0.38048887 0.45585197 1.1706259 -1.8656238 -0.7557305 0.29634443 0.14830367 -1.4512453 -0.2102946 0.54730946 0.01225779 2.00502 0.3749321 -0.9885061 0.37601984 -1.3769132 -0.3223128 -0.8799189 0.38931224 1.5103983 -1.021533 0.016801795 0.56585574 -0.9886547 -0.64344233 0.058288205 -1.1715821 -0.6681592 1.6298453 -0.49591428 -0.10471948 0.37633035 -0.22745726 -0.48260602 0.764935 1.8733178 -0.135283 0.24751274 1.9555961 0.9559153 0.25572887 -0.9555051 -1.4170706 0.5338363 -0.76631635 1.2932403
teinte 0.032610044 0.2943642 0.14692265 0.79591995 -1.4648803 0.38463417 -1.2379538 0.9198003 0.8301804 -1.4872668 0.39247254 -1.0816197 0.28343666 -0.74186397 -1.5992956 -0.5900507 -3.9607112 0.22405444 -0.6260475 1.6720319 0.20351054 1.5870283 -0.5456293 -1.1411465 0.83114254 0.35068086 0.540364 -1.8664109 0.54199576 -0.3376121 -0.9228376 0.50174654 -0.27608153 0.79355466 0.80389255 -0.69693667 -0.8640991 -0.43446207 0.74218035 -1.6866128 1.728863 0.18863384 0.62098897 -0.30806273 -0.08759912 1.0580558 -1.3057647 -0.379041 0.4233457 0.695288 -1.0464113 1.2227516 0.17597722 1.3358423 2.201063 -0.795827 2.5035944 -0.547228 -0.18219995 0.0015447293 -0.90063655 -0.97920245 -1.3124189 1.383461 0.36974704 -0.40191686 -0.8878779 0.7224312 0.80085665 -0.038859144 -2.3042376 0.45332646 -1.0210382 1.064145 0.9963132 -0.37410596 0.12874728 -0.8487198 -1.3074389 -0.7870683 1.6935405 -0.3002852 -0.6251865 -0.78397894 -0.104914844 2.2669716 1.1672592 -0.67213523 1.7971708 0.0533859 2.6620648 -0.040281788 0.032947432 0.85249853 1.6158805 -0.45712018 0.30824006 -0.16258407 -0.86587214 0.13050227
crofbte -0.20679383 0.2644923 -0.21239413 -0.47419566 -1.2725102 -0.52721894 -1.5900004 -1.1248382 -0.32980138 -1.1174908 1.9093592 -0.57572365 -1.1550833 0.2298248 0.08603453 -3.0808167 -0.6799433 0.77835935 0.6217591 -0.437621 -0.36508438 0.017014373 0.25845164 0.56002367 0.78966457 0.15736061 0.19761267 0.39717564 -1.4124317 -0.0969869 -0.08509798 -0.63275677 0.011048789 -0.22689502 -0.32858795 -0.31120324 -0.77913564 -0.15518226 1.3780189 0.24387006 -0.9003061 -1.061025 -0.733764 0.48327166 0.21826302 -1.3682507 -0.5438788 0.8463611 -0.6689442 0.3260758 -0.09513498 -0.80273056 0.17070593 1.1170704 0.30874217 -0.2108017 2.3638933 1.741853 0.6327087 0.0031021468 0.57747966 -0.5750576 -0.20319124 0.353198 -1.0187384 1.5254906 0.2301507 0.25949726 1.567229 0.61911386 -0.05555316 0.8837565 -0.102351084 0.6629842 0.15824984 2.1120844 -1.3591403 -1.1526653 1.1134322 0.8795588 -0.8010065 0.08804055 0.9782156 0.9834031 0.6593204 -0.47204205 0.7160144 0.62019134 0.59390205 -0.31909 -0.66701585 -0.6306726 -0.03897351 -0.029745288 0.048281368 0.15561551 -0.075604685 0.5862909 -1.0786327 0.46006814
boulange 0.10427745 -0.27447587 0.44355842 -0.2122479 -0.7275532 -0.7347883 -0.99766886 0.8343973 -0.5096734 0.92813903 -0.20436558 -0.14898427 -0.14957112 -0.57668537 -0.78323793 -0.11821288 -0.8773678 -0.21787286 -0.63035744 -0.4494545 -0.37640658 -0.18779644 0.22343639 -0.36591205 0.07832552 0.6851898 -1.392096 -1.7149124 -0.34770042 -0.87018263 -0.9976932 0.2879671 -1.1205527 -0.32453552 -0.09432651 0.6640958 -0.8791601 0.7895458 0.5555825 -1.6098865 1.1842185 0.15436855 0.9741722 -0.089079894 0.14166805 -0.32895422 0.84086573 1.1815045 1.0434464 0.6415779 -0.15666658 0.7556304 -1.3376743 -0.12223438 0.07440338 -0.29792264 -0.23694898 0.50270337 0.7707428 -0.6033838 -0.91260463 0.46101463 -1.1538049 -0.036616087 -1.9077079 0.1445871 0.25928974 -0.097684376 -0.5184909 0.61601305 0.3567709 0.10775051 0.95417386 -1.7396495 -0.5454751 -0.4987524 -0.26115862 -0.025815355 0.51386446 1.718018 0.2584824 0.30297652 0.08109554 -1.7378372 0.29477295 -0.063771375 0.96382093 0.86867815 -0.57877034 -0.7980759 0.22261143 0.70549744 0.0025083185 -0.08186846 0.1848263 -0.44026312 -0.13236831 -1.4744123 1.2813438 0.908039
Un -1.7017648 -1.107491 -0.5427401 -0.000988143 -0.8306255 1.0798925 0.9849898 2.1597579 0.93992335 -2.0881171 0.059538245 2.0586483 1.4098234 -0.7533865 -1.5083648 0.06057624 -0.031356066 0.28692588 0.27522445 1.2542702 -0.014863424 0.6444823 0.6253325 -0.8603038 -0.1293668 -1.8216221 -1.4362816 -1.6096961 1.1610938 -2.0424309 0.004564087 -0.495631 1.0535797 -0.19404855 -0.39903647 0.25776646 -0.15940626 -0.15273434 -0.49228993 2.0415518 -1.4475976 -0.41226345 -0.73427624 -0.12133436 -1.0162394 1.1819886 -0.80009806 1.3813168 0.22678569 0.4144285 0.425143 1.1582619 0.97135323 -0.22965181 0.9424728 0.17768918 -0.8081296 1.1624874 0.56354564 -0.17944965 1.1633104 -0.26050055 -0.08257391 -1.1097652 -0.65826726 -0.25167522 0.036733635 0.7487904 0.11522686 0.7949016 -0.91104907 0.82654536 -0.96504337 -0.29851496 0.3442938 0.6389178 0.14105587 2.5539236 0.11538366 1.7563959 0.57823205 0.16033646 -2.2612994 -0.9294348 0.76423943 1.4047836 -0.924586 -0.03835462 0.18071242 0.78334016 -0.5940216 0.2301939 -0.23898724 -0.29433817 0.92190605 -0.42510694 0.5605316 2.1189914 0.24187294 0.6871588
