100 100
0 0.97769725 0.24864209 -1.0032313 -0.50469786 -0.48094591 0.98569006 -0.24453288 0.34805977 -0.15030988 -0.6032374 0.34188354 0.5454745 -0.10129645 1.430411 -0.2853919 -0.48675078 0.38996643 -0.15905562 -1.649596 1.924088 0.5583859 0.9051565 -1.3567681 0.7535195 0.23117772 -1.8034148 -1.233195 -1.0560029 -0.47840756 0.17176916 0.92671627 -0.4027334 -0.3107327 0.3445426 0.8345812 1.2997769 1.1680585 -0.65534186 0.40982425 2.22313 -1.4635209 -0.039177004 1.0152451 -1.1037779 -0.13363375 0.2419124 0.5332835 1.6485974 1.9148841 1.3253361 0.07734961 -0.93137795 -0.49219164 0.8855174 -0.53011537 2.0586982 -1.5037056 -1.6077381 -1.2814275 -0.8500245 -0.52734536 1.1469266 1.3480579 -0.45682678 -0.4968342 -0.5674982 0.12603669 0.4297595 -0.7209078 1.2335039 -1.7879438 0.18171135 0.63228285 -0.6011078 -0.91299593 0.4574949 -0.6192903 -0.8025661 -0.8811809 -0.2579879 0.38174832 0.23060267 0.05255268 0.042041764 0.16385363 0.75243473 -1.2073963 -0.25766045 0.29303017 1.421252 -0.41318277 1.4989754 1.0516684 -0.180255 0.38899454 1.1833398 -1.2134434 0.10142175 -0.04045484 0.41896135
1 -0.20897716 1.9798884 -0.35359737 0.30600142 1.909173 -0.08725462 -0.21979119 0.6945292 -0.65735763 0.7797381 -1.4326687 1.0446278 -0.25212604 2.2842612 0.1450123 -1.1686357 -0.23289321 1.1122959 0.43886057 -0.38090876 -1.328573 0.29118198 -0.99046963 0.79137176 -1.1613716 0.029075192 -1.3929222 0.17989965 0.4958712 1.9839678 -0.7254311 -0.12116589 -0.2072114 0.35202125 0.7058873 0.29087436 0.3735959 2.66839 1.512019 -0.3954655 0.2655958 -0.40349722 1.023136 -0.25916794 -0.77487177 -1.1233714 0.7941551 0.40451822 -0.048617367 -0.19013569 -0.34601548 0.0044571115 0.080042645 -1.2553695 1.1068839 1.0054133 -2.0348256 1.0087892 -1.1849228 0.23454025 0.3580214 0.29087415 0.06582386 0.10057322 1.0778476 0.10013712 2.1820548 -1.93465 1.5416652 0.24366574 1.1204044 -0.27766824 0.71176827 1.1097311 2.3800507 -2.6585906 -0.2865225 0.44625363 0.8789014 0.73948365 -0.94718295 -0.6245121 -0.2400245 -0.01971327 -0.13124856 1.1770055 0.41990313 -0.50067496 -0.87133247 0.5950201 -1.0870059 -0.9220694 0.516532 0.086593926 -0.1462519 -0.030835586 -0.6648497 -1.2020937 -0.2873059 0.9701275
2 -0.3379874 0.60082114 -0.65961725 -0.07051086 0.68514043 -1.2150289 -0.5382583 0.48399648 -1.6935024 -0.48365712 -0.06691336 -0.20943885 0.8976065 0.66051096 0.1737979 0.28511098 -1.7355211 1.1896613 -1.375634 0.34622896 0.17232233 0.5379177 -0.71716285 1.4354455 0.14809075 -1.4512702 0.693457 2.4476066 0.3169721 -0.26931742 0.2162014 0.15604366 -1.3307759 -0.7519657 0.88760674 0.79988736 -0.9253199 -1.1262937 -0.45405897 -0.15713955 -0.76862997 -1.3974378 -1.3592873 1.0706575 -0.58332217 -0.40708026 1.4383007 -0.19289039 -0.5288399 -1.2284218 -0.046511002 -1.1845168 1.8982526 -1.4521692 -0.17960043 -0.26283374 1.3017893 -0.29953352 0.62408066 -1.0728475 -0.832641 1.0517492 -0.04452226 -2.5602553 2.3426914 -1.215629 -1.9924239 0.35177693 -1.0391164 0.024235064 0.5198568 -1.4128063 0.26911566 -0.77319944 -2.1147056 1.1698718 -1.7343154 -0.13483524 0.029964695 1.0725929 -0.9271632 0.93914986 -1.2230724 1.3554912 2.6710868 0.7223507 0.28833807 -0.5092961 0.06681074 0.051938776 2.3144085 1.0721419 -2.0200486 0.9093286 1.0257084 0.55355006 -1.0933188 -0.23795222 -1.7639133 -0.9673623
3 -0.3978041 -0.47170612 -2.0864153 -0.84122705 0.28943944 0.49322447 -0.10818583 -1.3760642 1.2336062 0.09024075 -0.2450471 -0.36689955 0.81095463 0.24465616 -0.19131233 1.800369 -0.5005982 1.1799995 0.30417854 1.1552048 -2.0431185 -0.7316004 -0.2190011 2.5270143 -0.79459554 0.11029095 0.2579566 0.434432 1.5818151 0.34481087 -0.734289 -0.7952294 -1.4333723 0.25254518 0.55987066 1.0538181 -0.1564275 -0.054182872 1.2568238 1.5912474 -0.5482288 0.7142 0.15855467 0.6252466 -0.01266454 -0.42889652 -1.4454406 1.3604107 -0.4594406 1.8305621 -1.1444514 0.1452306 -1.2528752 1.6419176 -0.41923952 -0.57793725 0.55006653 0.12227649 0.06876172 0.16387472 -1.1686028 -1.4775715 0.28373677 0.90732616 0.400543 -1.1062505 0.186348 -1.5738767 -0.65094185 0.77844006 0.6386032 -1.7024127 1.1805161 0.99434584 -0.23623915 -0.793453 -0.3211947 0.32739043 1.3834009 0.31461397 -1.3216783 0.67380226 -0.1367511 -0.9266096 -0.37953648 -0.42067415 0.9945164 0.19831054 0.2694242 -0.42418525 0.046089772 1.139965 0.8388806 0.30948457 1.049142 -1.7669902 1.1932619 0.8212528 -0.909031 1.2557629
4 0.33221245 -1.6931634 0.039333913 -1.4012785 -0.30664843 1.4639417 0.520236 -0.8558849 0.8483209 0.9750091 -0.27708468 0.5275689 -0.87884593 -0.41924468 -1.9251249 0.3229401 -0.83937824 -0.26442555 0.529087 0.74138993 0.76060474 0.80416095 -0.26882988 2.0923975 -1.6839193 -0.08267694 0.6661987 0.4700715 -0.5725571 1.0701231 2.49435 -0.23526728 0.3800681 0.68924874 0.1465462 -0.20964259 -0.24565002 -0.10993118 0.24785018 -0.7407755 -0.19470084 -1.1395105 0.07789018 1.2128805 0.530167 -2.7247703 0.107434474 1.9957621 -0.31065398 0.14177342 3.1649652 -1.5736208 -0.52964973 0.36517933 -0.19088793 -2.1075513 0.83657336 -0.8217654 0.18860158 -1.0269542 -0.33246842 -0.89078176 -0.85072994 -1.5529257 1.3262935 0.604469 -0.16219659 -0.29589167 1.1698318 0.34462926 -0.25530672 -0.86338365 -0.13970433 0.28631264 -0.4257796 -0.976462 1.8151205 -0.10043845 0.87346345 -0.17938615 2.1254091 -1.1936184 -1.248224 -1.4127644 1.4592891 0.27585343 -0.07096828 -1.1061916 0.6585459 -1.8925651 -0.16290762 -0.98815376 2.0691068 0.5142084 -0.6599106 0.0011242129 2.2555797 0.09060203 0.45942572 -2.000359
5 1.0717859 -1.5725266 0.0068207043 -1.4063449 -0.3963829 -1.1637353 0.3562088 0.65980726 0.5664447 1.3420463 1.9106617 -0.024186267 -0.85687226 -1.3131813 -1.5773433 0.021337776 1.5641109 0.8410565 1.2323978 -1.2484124 0.9653576 0.35388082 0.8310222 -0.73424286 1.6452217 -0.51363266 -0.5306124 1.1919584 0.015189073 0.22985438 -0.045648657 -1.0207267 -0.9562931 -1.1766962 1.1994021 0.42261162 -0.6783484 1.9133897 1.2821324 0.35422876 -2.292221 -1.1518446 0.11484485 1.7496827 -0.73270154 1.01224 -0.86723304 -2.202746 -0.22559145 0.95767146 0.109020464 -0.49615106 0.9437706 -1.6683387 1.1265646 0.95590204 -0.55694616 -0.019419393 0.42430565 0.9911808 0.45949087 -1.6750486 -1.3785306 0.62731636 1.4301211 -1.1344658 0.4197468 -0.95097905 -0.40084133 1.3988973 0.60705835 0.97416294 -0.46678182 1.3796333 -0.69674104 0.10099327 0.24217308 -0.03305196 0.60675275 0.009491698 0.21979125 -0.91705596 0.34775 1.1214218 -1.2106777 0.9147439 2.6465049 -1.4260786 0.88511986 -0.8142107 -0.052704472 -0.42741495 0.73790705 0.88545644 0.10113464 0.34258133 -0.5683972 0.0299491 -0.012392582 0.33149797
6 -0.8635523 -0.73189706 1.7162594 0.038690582 0.93551004 -0.67406803 -1.8128327 -0.06673931 -0.98758817 0.25755274 0.12383434 -0.17709123 1.0674571 0.62113035 0.4474948 0.64533436 0.44021806 -1.8930568 -0.5838012 0.091438144 -0.8843695 -2.801754 -0.55135804 -1.3833852 1.1503431 -0.10727485 -0.5271703 0.2521474 1.1555448 -0.12827866 0.08060057 0.35793674 0.12466564 0.3995403 -0.91009694 0.5749941 0.71158403 -1.4382814 1.6346787 -1.4613882 -0.80622226 0.18762566 0.72278833 0.9676748 -0.38953766 -2.557125 0.7766037 0.3391224 1.5537056 0.16899836 -0.73251927 0.4844681 1.4639995 -1.8431479 0.27564174 1.2117207 -0.6212049 0.11352221 0.53894424 -0.34682435 -0.28419468 0.6050807 0.012189926 0.19734854 -0.9271915 -0.83555 1.0297452 1.2377291 1.0013497 0.46727037 -2.049036 -1.6016704 -0.20525965 -0.06922415 0.09070051 -0.24182546 -1.0112766 -0.8054126 -2.336498 0.58584046 0.5177966 0.53444743 0.7856139 0.20213592 -0.07878854 -0.17620748 0.4870168 -0.32298478 0.09699074 -0.90566313 1.0240593 1.2872877 1.3218565 1.7428007 -0.5487636 0.20626909 0.089531675 0.1661363 0.088073894 0.8463318
7 0.33366325 0.44579634 -0.063452244 -0.08270473 0.5209047 -0.8654932 -1.1756247 -0.59137183 -0.9212122 0.093397126 0.19064444 -1.9416696 1.0756112 -1.521069 -0.19222507 -1.824841 -0.68383765 -0.45833698 -0.28131312 0.45128816 -0.3247491 0.885157 -0.4435682 -0.64114505 -0.38149878 -0.112304665 0.7817017 -0.1296872 0.58753675 0.6178214 -0.39647448 -0.8047207 -0.66207695 0.78890973 1.0430555 -0.23231307 1.2697713 0.5269841 -0.6819841 -0.9926053 0.910377 2.0478196 0.97729945 -0.030498248 0.45273787 -0.2321669 1.1729285 0.65707815 0.581371 0.35945177 -0.26874423 -0.1571272 -0.088004075 -0.79032993 0.55336344 -0.26568 0.1409317 1.0120821 1.30401 0.40633827 -1.4351001 -0.8857986 -0.33538446 0.62172073 0.010531556 0.6965665 0.18298928 0.19700317 0.20150983 -1.5459276 0.2615095 0.08146928 -0.15746854 -0.41603878 -0.4075421 0.20767355 -0.25287685 -1.3268948 0.9818902 1.0790787 1.9557333 2.2289026 0.64111686 -0.025085786 0.0897447 0.5765241 1.7205734 -0.20340252 -0.0247607 -0.026884545 -1.2245269 0.34742913 -0.967096 -1.6573057 0.96160483 0.73215556 1.1469012 0.93287975 0.22765218 -1.5140138
8 -1.979052 0.4154639 0.7539684 -0.5763265 -1.4988035 0.76716596 -1.5382832 0.1475891 -0.6983446 -0.53751 -1.0767472 -0.23252569 1.1938523 0.81065106 1.2061181 1.3538728 1.1957526 -0.59933347 2.919793 0.36652428 2.8983908 -0.6032202 -0.029180605 -1.2887303 1.1493379 0.2777172 0.31540328 0.58752227 0.72618216 -0.58677846 0.31170508 -0.02775219 -1.1118102 0.73489654 -0.7390205 0.091040485 0.29262593 -1.5280379 -0.76978815 -0.3509367 0.63903666 0.6026251 0.89847827 1.2335254 0.8781212 -0.12245831 0.6190318 1.2890116 0.50078225 0.594533 1.1408951 -0.84830016 -0.2886072 -1.1650333 -0.7941859 -2.4138532 1.645988 0.8590582 -1.7802439 -0.0038576247 0.25767234 -0.32524437 -1.6565305 -0.45020527 -0.48331267 -0.36571595 -0.1078071 0.05698341 1.0335878 -1.7946588 -1.6528908 0.41590932 0.28516185 0.20174457 1.6119468 -0.070533276 -0.7732466 3.1688209 -0.030539688 1.2534256 0.7066494 -0.5385992 -0.72901285 0.7575394 1.4067897 -0.55259424 1.1892474 1.560104 0.34502596 -0.30291626 -2.7328968 0.27113032 -0.45924824 0.28003338 1.2776518 -0.51540405 -1.700164 -1.1954511 -1.1370488 -1.0739911
9 0.53559154 -0.58091277 -0.046845272 -0.4944875 -0.92490613 -1.4388967 0.36734438 -1.0158589 -0.6456308 -0.7400535 -1.3475792 -0.0713901 0.5384527 0.6286442 1.042294 0.32882804 -0.09886783 1.2227844 -0.46869457 -0.24949619 -0.024032123 -1.3997257 -1.5618315 -0.42288044 0.61863744 -0.2985333 -0.61308736 0.5866083 0.25072038 0.4299318 -1.0714115 1.3650693 2.4946308 0.7627278 0.101347156 -2.1943293 0.43895718 -2.311247 0.24481843 0.01401683 0.13439932 1.208716 1.8987582 0.33027655 1.390641 2.2289827 -0.5034185 -0.7672067 0.67805654 -1.0928295 -0.3873647 -1.1135104 0.6454811 1.1820328 0.31579468 -1.778402 -1.7189654 -0.62098676 -0.29201633 -0.80061704 -0.25363255 -0.00823484 -0.3170214 -0.47711205 0.50540805 -0.1124881 0.24817707 1.2712117 -0.7872678 0.17876513 1.2550001 0.40862292 0.6963147 -0.7537444 -1.240976 1.5915041 0.5744158 1.9243828 0.15480535 1.345189 -0.44569594 -1.5278591 0.46254742 -1.6975479 -0.10337411 1.1574548 -0.26986054 1.0394249 0.8025653 2.428107 1.543259 -0.29058188 -0.45260128 -0.72392386 0.061611146 2.0522506 0.044428296 -0.97128236 0.01635381 -0.94653666
10 0.4525508 0.19137442 -1.1479343 -0.46869165 0.44995695 0.5532042 -0.5353635 0.6570191 -0.281475 -0.15982747 -0.7377924 0.67610717 1.0320584 0.4293294 -0.19913319 -1.3086584 -1.4509529 1.3166009 -0.025545811 -0.4157892 1.2705659 -0.1901977 -1.3339272 -0.43502647 0.31740844 2.3982878 1.4189398 -0.87442464 0.90411353 -0.7075307 -0.85834396 -0.9908587 0.7831142 0.11736835 -1.3706551 0.1745991 0.46378276 0.40287885 0.15368478 1.7859577 0.4298096 1.9335742 1.3283898 -0.455451 -1.664264 0.65376693 1.4066868 -1.4708025 -0.7352797 0.52442205 2.4040403 -0.09118139 -0.39086875 0.71126825 -1.0079271 0.18564981 -1.0132248 -0.018364668 -0.27536127 0.17062838 -0.3869567 1.4052368 1.7145221 -0.42927393 1.2742965 -1.1591111 -0.59870803 0.6020493 0.8047086 -0.32987988 0.31158292 0.607706 1.336476 2.2056894 -0.040803123 0.007490952 -0.061626628 -1.0330484 -0.47597593 -0.8263974 -1.3209649 -0.43152586 -1.7974265 0.7567792 -0.31566653 0.1394042 -0.17870472 0.33901826 0.959098 -0.06459201 0.62913823 1.4717484 -1.4308466 1.0849211 0.37986767 0.7092286 -0.025476556 1.4402158 -0.5478767 0.9541532
11 0.58364135 1.240993 1.5668879 1.0665287 -1.4385154 0.5327215 0.52985734 2.1263492 -1.7346506 -0.39404303 -0.6220251 0.07472953 0.5760441 -0.17801619 -0.09036819 0.018105859 -1.1620201 1.2321943 -1.4839154 0.68364537 1.6279727 -1.2430131 -0.38388208 1.3095623 1.132368 1.0897535 2.5138965 -0.13699019 -0.99730486 1.0617493 0.47530398 1.6537988 -0.45547575 0.17699996 -0.7405957 -1.971165 -0.12402936 -1.5422636 0.3907096 1.2793789 0.3842679 0.2009045 1.434813 -0.26296833 -1.1324334 0.0925693 -0.18179512 0.014227583 -1.388827 -0.32840413 1.3164024 -0.8833814 1.2194787 -0.27079546 0.27504057 -1.5622507 0.79118764 -0.17065318 0.5236116 -3.3361619 0.4632704 1.0582969 -0.8130118 0.5721815 0.60227174 1.4940476 2.4893882 0.3489682 -0.933048 -0.42908087 -0.72206163 -1.7617086 1.3167399 0.1485156 -1.5279467 -0.30756283 0.9298847 -0.14572357 0.10817299 -1.7672647 -1.0000939 0.99885285 -0.060971037 1.0087217 -0.9524695 0.031641804 0.39374804 1.5866526 0.7321205 -0.118579656 -0.19486779 1.1496875 0.5058654 0.79947364 0.13378061 1.8429774 0.20899393 1.0059304 -0.14541036 1.258354
12 -0.47833404 -0.52391624 1.2550263 0.27308136 -1.2122624 0.7877104 -0.10026439 -0.5833759 -0.2841975 -0.6614322 -0.11856229 -0.44385743 -0.46359676 -1.2621003 -0.25436148 -0.60467005 -0.8454674 0.25092375 -0.9162544 1.228683 -0.21180646 0.06276432 1.5580432 -0.64234215 -1.2287253 0.3034155 0.3642689 -0.799869 0.56964135 2.9041858 -2.063526 -0.46260238 0.15557425 0.8160338 0.30822808 -0.64591414 2.1890488 1.2330098 0.80435026 -0.36541468 -1.4521172 -0.49159032 -0.30496153 0.36448547 0.17179173 -0.34091297 -0.6611117 -0.67438895 -1.7259752 0.7907311 0.4224842 1.2652862 2.3362644 -0.58759665 0.62834626 0.30094644 -1.4034504 -0.47415036 -2.2798493 1.3073338 -0.83460283 -0.4510559 1.2785738 1.090948 -0.5587296 1.3788801 -1.8350531 0.10999111 0.7141109 0.7519145 -0.64719695 -0.16105165 -0.3460162 0.33272547 -0.77957416 -0.0068177865 -0.4798274 -1.8424248 -0.5020736 0.6353061 -0.8294233 -0.49500367 -1.8199619 -0.7923185 -0.800349 0.120445624 2.4703553 0.83860743 0.37555802 -0.25941655 -0.6962341 2.0047467 1.2655985 -0.075883836 0.29500932 -1.5516026 1.4121096 -2.6064854 0.8761924 -0.26155832
13 1.3801458 0.09750222 0.5302826 -0.9142604 2.1261241 -0.15816258 -0.632626 0.9310531 -1.0512273 1.6268703 -0.7859475 -0.19680268 0.7388818 -0.607323 0.21572572 -0.7444171 -1.0174747 0.6590162 -0.23087443 0.4262988 -0.38861424 -0.84729517 -0.7629082 1.1853297 0.5183963 0.097427435 0.26300362 -0.7883546 0.38939342 2.6091738 1.6101441 -2.1096625 1.5445821 0.5786491 -1.9216086 -0.6570626 -0.57570523 -0.88636845 -0.67205846 -0.46784088 0.7852529 -1.0515889 -0.29464996 0.5881666 -1.0640979 -1.2409536 -0.7821191 -1.5349927 0.6413346 1.5473585 0.76720697 0.45921978 0.21946757 -0.71115065 0.05117779 1.4979024 0.8138476 -1.5001377 -1.0406301 0.92858803 0.13682221 -0.1595573 -3.1575065 -0.5270777 0.113212824 -0.8998336 0.3450064 0.8149962 -1.5121095 -0.25528187 -1.054073 0.5988563 0.98815197 0.7132039 -2.363736 -0.07361062 -1.1308044 -0.5463122 -2.187424 0.5629936 -0.12586911 0.37042323 -1.6114248 -0.0011426037 -0.66114163 0.17570661 -0.2072868 -0.33539388 0.8202559 1.3025391 -0.8411173 -1.4673911 -1.8553933 0.35995075 -0.45895037 -0.90492725 -2.2284448 1.852787 -0.35076284 1.4246156
14 -1.1589688 -1.4337331 0.6774329 -2.1954749 0.0018774291 0.11316891 -1.1442633 -0.3595757 -1.7716612 -0.35328165 -0.6430318 0.3809086 -0.26645097 0.8884097 0.9052583 -0.92113453 -0.25057048 -0.3343806 -1.4239994 0.8416678 0.6078629 1.8160828 1.249797 -1.111256 -0.87827903 1.5725728 -0.3357145 -1.5098675 0.19703065 0.3426425 -0.9775849 0.4556864 -0.30479452 -0.37942687 -2.210668 0.13605377 0.15372577 -0.956711 0.81555265 -0.76385444 -0.34022635 -0.97807086 0.7694381 0.34167644 1.7877033 -0.5091955 0.48007414 1.5234791 0.63087445 1.1986201 -0.5885055 0.78481907 1.9313197 0.38409218 1.0837067 -0.28299624 -0.002596271 -0.97207165 0.91147494 -0.53611726 -0.110176355 -0.73793536 -1.6938806 -0.9233123 -0.85461926 1.115011 1.7743865 -2.1884823 0.61924773 0.6388244 -1.1192305 -1.1058028 0.5518935 0.5223498 0.042752977 1.1008726 -0.90024495 -1.0386142 1.6570853 -0.012919897 0.90941143 -0.6060332 -0.83867216 -1.4711664 -1.34799 0.0649808 0.14048862 0.042687673 0.21041416 -1.5860652 -0.9259992 1.2343736 0.02059862 -0.9541005 -2.2606077 1.2650086 -1.6646284 0.12348595 -0.38588727 0.114709914
15 0.43895924 -0.08965445 0.29580292 2.4267008 -0.34959742 0.19177045 -0.8375656 0.50482446 0.1975988 -0.7802514 -0.038041595 0.27703795 -0.48719877 -1.100238 -0.50214875 -1.4112145 1.1871067 -0.62640464 -0.33935466 0.44295582 -1.43466 -0.0966965 1.2505069 0.6807914 -0.57145023 -0.017033257 0.49126023 -0.0030048718 0.36755025 0.56879294 -0.54482794 -0.0516944 1.4836308 -0.35439765 1.2361618 -0.6295346 1.219894 0.3961194 2.6064355 1.5099379 -0.5259658 -2.095408 -1.9156141 -2.226833 0.6003046 -0.44879535 0.81143796 -2.7945898 0.78915733 -1.7009349 0.052230254 -0.15670756 0.36363748 -0.66531575 0.33390304 -0.6062157 1.5375072 -0.13171768 -0.45949653 0.046762634 1.9350945 1.7011774 -0.15600064 -0.08377197 -1.4142807 -0.41361183 0.74234366 2.0607 -0.6854717 1.1912555 -2.9034784 -0.18753047 1.897264 0.48624602 1.0444182 0.5211808 -1.8504666 -0.54110414 0.021677053 -0.15722 -0.012608462 1.0822618 -0.8627773 1.9890467 1.7543211 0.17874485 -1.073596 -1.8188627 -0.44867447 0.7017399 -0.7950876 -0.92518616 1.2040797 -0.30420044 0.8998191 -0.76373494 -0.81204087 -0.4505532 0.55256456 1.6916609
16 -0.20304246 -1.7543837 1.2137951 -0.3507349 -1.0096606 1.0143894 1.4229457 0.20772888 -0.64558417 0.5170274 0.12143555 -1.5860267 -1.0584105 -0.78087884 -2.1410391 -0.93544346 -0.6640015 0.53966784 -0.39066693 -2.2944565 2.1364255 -1.1385022 -1.4147658 2.344375 -0.35230342 0.5038192 0.81786215 0.83435214 -0.55664665 -0.06673608 1.1653105 -0.4976617 -0.17781104 0.77361 1.4911683 1.0469277 1.3158178 0.6116075 0.93013287 0.83656013 0.6086722 -0.59749395 1.0424011 0.47025034 0.23117246 1.9470688 -0.62079144 -0.70512784 -1.9215457 -0.9122391 0.2018384 -0.77865314 1.9467862 1.5517284 0.41217256 -1.6051666 -0.1060282 0.9681363 0.5859419 0.57166797 0.11569152 0.28693146 0.6724171 -0.9212787 -0.16388594 -0.8260139 -0.64463615 -0.026240163 -0.5953597 0.2551499 -2.1161468 0.75597715 -0.41804162 -0.09220367 0.68126214 -0.9634019 0.73565483 0.7577082 -0.41977862 1.6748675 0.4959647 -1.0538601 -0.16950947 1.3079408 0.37733182 -0.24084067 1.9115945 -0.6888737 -0.55260766 -1.715731 -1.23429 -0.1284634 -0.68137115 -0.20359395 -0.09864237 -2.0387497 -2.0016496 0.23442292 -0.16882493 0.1397263
17 -0.39646694 0.33084306 -1.3140203 -2.6251543 0.68813056 -1.407559 -0.15934119 1.1531459 0.39259905 -1.4671823 0.19045836 0.53787893 2.2795794 0.41879943 -0.27856222 1.1219589 -0.7801785 -2.0185337 1.6446964 0.07352304 2.6992993 1.5993594 -0.36637476 0.7107806 0.9322062 0.9051214 0.23197742 -0.35705903 -1.163699 0.4645005 -0.35560587 2.8515422 -0.0008636957 0.48427603 0.83040184 -0.67981744 0.1366751 1.8368747 -0.570976 -1.1126795 -1.8848577 1.339665 0.91497666 -1.1156416 0.8630764 -0.782398 -0.8076057 -0.65776026 -1.3669668 -0.8685427 0.10511935 0.1948937 -0.5077282 0.015304173 0.7275576 -0.039680053 0.3670838 -0.33978537 -0.08272128 -1.4481052 -0.70561093 0.7451908 -0.718695 -1.9385984 -0.28901017 -0.9605333 -0.70174474 0.6559198 0.12223612 -0.31289914 0.14138705 0.44313967 -0.1475556 1.0991908 -1.5297424 -1.0530263 0.3174769 0.17067069 -0.75768495 -0.5091715 1.7799366 -0.26834074 -0.8802914 -0.059901 -0.28622225 -0.983154 -0.634417 0.54807365 -0.16009341 -1.0842252 -1.2526213 -0.8152616 1.2027847 0.3127577 -1.0782117 -1.1819623 2.2995434 0.896806 0.36814222 0.06169952
18 1.8965733 2.106035 -0.05405662 -0.15041767 2.5709891 -0.054673266 -0.14105928 -0.63045317 -1.0678762 -0.9172557 -2.3482945 0.2731183 -1.3502107 -0.34716183 -0.9041568 0.7888372 0.38997528 0.34027335 -0.97575223 0.98339003 0.0872351 0.40623355 2.22708 0.41025192 0.73980254 1.0056583 1.5664638 -0.20978531 0.2492926 -1.6662399 -1.5113622 0.861863 -0.8941343 2.2233932 -0.91990215 0.36261326 0.85787266 -0.13610105 -0.22479749 -0.3108358 -0.9287054 0.90352136 0.667684 -1.3259251 0.26279625 -0.060490537 -1.0147367 1.4190083 -1.1614144 0.40732262 -1.217273 -0.66397893 0.5318481 0.070454694 0.04877852 1.2759826 0.7130727 -0.20988972 -0.75604683 -0.58497596 -0.14418621 1.5012814 -0.345359 0.0081913415 -0.6781528 -0.94203025 -0.5791091 0.51804733 -0.25237903 -0.7808025 0.719941 -1.6721804 0.8404864 0.9212425 0.87733674 0.20609874 -0.7336523 -0.754639 -0.11073553 0.61484516 1.2799399 -0.62825775 1.7077041 0.8993134 0.9018364 0.34166646 -0.93660194 0.030507555 0.8039482 -0.43294933 1.1724151 -1.5195564 0.6726144 -0.053276077 0.79439735 0.9454764 -0.42710394 0.89423925 -0.007322901 0.47722834
19 -0.83432305 0.006372468 0.07669067 0.70489943 2.7213106 -0.47047347 0.64445966 1.0409861 1.9468997 0.97632205 -1.1859154 0.6500628 -0.0027037694 0.5902056 0.41774866 -1.2436213 0.21157777 0.10771728 0.44108483 -0.5556234 0.12564991 0.9193976 0.43149298 -2.1315103 0.8582139 1.3939247 0.112975664 -0.912639 -0.5686183 -1.3765504 2.9199872 -0.9259615 1.0751935 -1.5739468 2.1300647 0.1883727 -1.39827 -0.33193922 1.3336494 -0.6065096 0.6325717 0.27294388 -0.608591 -0.31553462 -0.92331034 -2.0472424 0.5419907 0.68734634 -0.081550494 -1.7198806 1.3200637 0.4155827 0.28229606 -0.69311297 0.65611863 0.8552803 -0.8188284 -0.6138364 0.26345265 2.4901657 -1.5344914 0.5792047 -0.34770465 1.3422526 1.3250577 -1.330492 -0.75918067 -0.6818039 -0.020644294 1.3028612 -0.96929187 -2.1511147 0.29464018 2.233502 -0.7094929 0.12260488 -0.85534996 1.0368414 -0.4760465 1.4433439 -0.8906366 1.894852 0.41682985 1.0828528 -0.16771771 -0.21790887 -0.25314766 -0.6426297 -0.07993118 -0.46560547 -0.60337967 -0.96420294 0.44979855 -0.7158911 1.311986 -1.4420909 -0.15554841 -0.085309155 1.1412681 1.6225699
20 2.6504252 0.41964096 -1.8467298 -0.8864434 -0.86838466 -1.6670258 -1.3071604 -1.0222911 -0.7222969 -1.2503253 0.17602623 -1.2849458 0.60222745 1.3791252 0.6319432 -1.4825478 0.75588244 0.15975454 1.1745416 2.4796417 0.13662782 -0.52793735 2.0030923 -1.5426762 1.1548879 -1.4896537 1.3145589 0.82266855 1.2836797 0.58151305 0.5272668 0.22610772 -0.7527719 -0.5678845 0.1421894 0.5186352 3.1231387 1.0959786 0.5761808 -1.0336665 2.0572102 -1.9783951 0.8688123 -0.12977946 -0.8723029 -0.065248504 1.3170556 -1.9795613 1.083156 0.51657534 0.7596847 -3.026117 0.27768928 0.040762205 1.3543338 2.3357759 0.89011586 -0.07216643 -1.7847098 -0.80767536 -0.49870557 0.10422093 -0.2546381 0.3880372 -0.014334528 1.9917814 1.9888091 0.56027865 -1.5513719 -0.59327435 0.7415044 1.3881499 0.2935622 -2.6629858 -0.3845734 -1.7263706 -1.2818693 0.806267 -0.6654645 0.20702475 0.07539381 1.0623788 0.50290436 -0.1252711 0.4286849 0.41203415 0.6478792 -0.0072440137 -0.23554806 -1.9753852 -1.132856 0.89996386 -0.5155304 0.7256834 2.345573 -0.056540493 1.5490097 -0.44817728 -0.94232893 -2.9329298
21 -1.4202029 0.25295106 -0.55687284 -2.4299483 1.422868 0.24407542 -1.2461315 -1.1647831 0.18738575 -0.301327 -0.473239 -0.6596806 -0.15642525 -0.15441203 -1.0944399 -1.5275079 -1.1127727 -0.04199079 -0.86440015 0.8646632 -1.1240615 0.4236621 -1.0507158 0.6827014 0.0838458 0.7068632 0.50049853 -0.62473017 0.28260866 -1.0443245 1.6570977 -1.3182423 -0.6067057 0.7175133 -0.27229333 1.3933417 0.37004486 0.60912526 -0.5004991 -0.9688089 1.2223755 -0.56399566 0.052156784 0.030439254 -2.7754006 0.053189762 0.7616234 0.020870034 -1.4278982 -0.50455797 0.7218354 1.1327752 -0.9592994 -0.840273 1.6830685 1.3161536 -0.5965901 -0.062127218 -1.8778471 -0.24344428 0.37031603 -0.16712026 0.5342293 0.5361905 -1.4805578 1.2454125 -2.2097688 -0.9707321 -0.77658224 -0.25433213 -0.31359467 0.55035865 -0.7735502 0.69620794 -0.9480692 -1.5065895 -0.5242193 -1.5897137 -1.4205134 -0.6604677 -2.2368443 -0.3813344 -1.3205624 0.37432566 -1.2836678 -0.35509232 -0.058122367 -0.0453445 -2.1073549 -0.9176678 0.18867724 0.8411529 1.3605158 -1.1354529 0.033216678 -0.15778956 1.3233372 -0.14274031 -0.14706722 0.19463351
22 0.27021822 -0.81363267 -0.8428591 0.6698977 -0.39340624 -1.4122502 0.21567087 -0.69909 -0.92578226 0.8133553 -2.280361 -0.8461754 1.9243944 -0.5644514 0.5692497 1.9093906 -1.3277658 0.6216451 2.3929439 0.2837918 -0.12068267 -0.96694064 0.751349 0.14017288 0.3418304 1.5645086 -0.3366499 0.23572326 1.7166392 1.1058644 1.9863739 0.3145658 1.1083623 -0.74624085 -1.0013599 -0.81965435 -0.6996477 1.2889444 -0.4464422 0.6301313 -0.24953577 0.057864565 -0.25968063 -0.6361052 1.3730638 0.8888172 0.07312965 0.3171598 0.19578487 -0.2171663 1.7122613 -1.6093209 0.47243974 -0.38210213 -0.6388936 0.35372967 0.77785426 0.32683676 1.6515907 0.81185603 1.7130874 0.62766933 0.96683306 1.1391339 -0.5775888 1.2681168 0.6084782 -1.4808788 0.35002252 0.22766492 0.4658692 0.15319078 1.4756607 -0.07250688 0.41508025 1.3768516 -1.1234059 0.4764012 0.5036497 0.16239057 -0.7789543 -0.3302926 1.2935327 -0.19919185 -0.9857514 -0.4870802 -0.36225432 -0.5307695 1.1072487 -0.47164547 0.47146204 1.1296318 -1.6624653 -0.9446304 0.06381687 -0.8533294 2.1064358 0.48185766 -0.70216256 -0.5844184
23 1.2701452 -2.3786657 -1.557817 0.7412055 0.63073593 0.04080007 0.8151939 0.26716688 0.046432436 -1.0816694 -2.2741125 0.8961691 -1.2764087 0.12976657 -0.10523821 -0.60198843 0.83220416 -0.97549975 -1.2540343 -0.7218354 -0.3420023 -0.9985829 0.48502594 -0.66179305 -0.117735155 -0.47535384 0.60733974 -1.5560294 -1.0589899 1.3872908 1.5981365 -0.13324453 0.87890774 0.37148878 0.16461414 -0.6648341 -1.1269301 0.5539704 0.3678906 0.79587644 -1.5705386 0.29029402 0.30018553 -1.7542877 -0.27786845 0.58801585 0.76723593 1.3572532 -1.8360784 1.031993 -0.50363576 -1.2944913 -1.8492911 1.0145185 0.058359325 -0.5881522 0.21695112 -0.95921975 -1.6226559 -1.6557091 -0.22992367 -1.1419114 -1.3061545 -1.7009139 -0.5256154 -0.002848041 -0.15416743 0.21864152 -0.6227345 0.15269212 0.7566995 -1.2926234 -2.5144124 0.60700643 0.34326902 -0.19211993 1.5181978 -0.6464223 -0.20995292 -0.9508593 0.6440638 0.12032332 -1.0344266 2.1909854 -0.7093732 -0.94558585 -0.20215014 2.091873 -0.70028776 -0.05634918 -1.0614862 0.5283351 -0.86397624 0.50473636 1.2599764 0.9472646 -1.7875088 -0.95615435 0.733243 -0.80625856
24 -0.19693321 0.23445094 -0.0045574 -0.14502826 0.36642084 -0.2902426 -0.78297806 0.2147418 -1.4897987 0.5821357 -1.9589244 -0.18417771 -0.47691593 -0.80335504 -1.1220273 -0.2267586 0.312722 -0.5246367 2.9555197 -0.7952462 -1.0705892 0.9147417 0.5987505 -0.6070199 -1.2490209 -0.23546009 -0.7390807 -0.3656544 0.106039666 0.3058796 1.5639566 -0.17579041 -0.70657885 -1.9303782 0.90969867 1.9889113 0.16049306 0.609026 0.2546547 1.4278135 0.87289876 -0.2770167 0.26301935 0.3253369 0.033730797 -0.65062356 -1.3454276 -0.2514978 -0.30954713 -0.29734516 -1.8806796 -0.2994694 0.7512988 -2.1731303 0.6323795 1.6732532 -1.6055633 -0.38730302 -1.6345518 -2.1710434 0.23932685 -1.0491669 0.43300447 -0.65405 1.2915845 -0.90351075 0.57423306 -1.5534174 2.5349994 -0.58804965 -1.3209594 -1.3817602 -0.48460624 0.42716268 1.0348195 2.2740178 -0.60158366 0.68938124 1.1306635 0.061670598 -0.074299425 1.2381632 1.7692382 1.8731594 -0.41855496 0.5691914 -0.10607367 1.5969882 -0.27569485 -0.13653179 -0.91952145 0.45589635 -0.1253021 0.28876868 -2.609081 0.9853751 -1.565763 -2.1528518 -2.1796746 -0.870793
25 0.76835704 0.29095796 1.8882543 1.2421604 -1.828083 0.43194118 1.1794299 -0.2839189 0.04281789 0.25840828 -1.0010442 0.25438017 0.06801639 0.027472274 -0.4234537 2.766007 -1.4203109 -1.350613 -0.44215024 -0.8109806 -0.9536215 -1.6400417 1.6940848 0.8299927 -0.42794758 0.044396423 -1.1502395 -0.6233761 -0.55167377 1.5171791 -0.0916757 -1.3165921 1.6240734 -1.2936925 0.92489487 -0.004542302 -1.2189981 0.27243847 0.7154568 0.7764549 0.2990088 -0.7014517 1.1247269 0.42556837 1.5187125 1.7919897 0.3753673 1.7560968 -0.32679942 -0.4401693 -0.18991831 -0.16624501 -1.4335788 -0.96587396 2.5610976 0.11325361 0.231808 -0.21670952 -0.2458087 2.4169738 -0.12286498 1.0243005 0.27232626 0.7211157 -0.1495889 -1.4470943 -0.3045556 1.5225569 0.46959957 0.6552096 -2.1290455 -0.811674 -0.7859169 -1.176305 0.7703977 0.81117237 0.23455855 -0.08089752 -1.2255421 1.1360785 0.55115163 -0.9282969 0.3999047 0.24968168 -0.007385368 0.17216466 -0.653223 0.5801937 1.0007331 -1.0738958 0.27791733 -1.1240053 1.1242516 -0.8157206 -0.38121256 0.36821756 0.75023913 0.4217342 1.4119895 -0.955044
26 -0.8367174 0.63952833 1.0332841 -1.0602155 -0.4858439 -2.3668067 1.2285517 1.219574 0.05786034 1.0689474 0.7093579 1.4838742 -0.49447802 0.9479189 0.3012979 -1.0945066 -0.011738702 1.6159899 0.542438 -0.97725546 -1.8293298 1.7672751 -0.12184342 0.23667535 1.8147299 -1.0459822 -0.2750286 0.41920596 1.1992913 0.9480339 -0.95697236 2.191424 0.23945418 -0.7354075 1.415437 0.7619808 -0.4965028 1.3672864 0.92247415 2.378253 -0.63270396 -0.97008497 0.6473269 0.4859478 0.62682587 -1.0380908 -1.0609988 0.16250345 0.2770017 0.18049262 1.5044855 -0.8461906 -0.45731226 0.50613695 -0.9784818 -0.4272899 -0.18569891 -0.7559469 0.5315651 0.26519683 -1.0881479 -0.051325176 -1.2486535 -1.2914679 1.0337842 1.0185822 1.326691 0.31275028 -0.43371964 0.540462 0.87759453 0.13340689 0.62879264 -0.028147746 -0.8332487 0.50500095 -0.894669 -0.20055678 2.1990352 1.408997 0.5173821 -1.3835765 0.13337606 -0.047856357 1.8888775 0.6591709 1.0750544 -0.34043747 -1.3419952 0.24193129 1.619092 0.8289416 0.40737185 -1.8784864 -0.72702503 -1.3676353 -1.1157087 0.9245915 -1.9497265 1.2738117
27 -0.58366203 1.7213587 0.968429 2.0650678 -1.8126397 -0.6434924 -0.5621513 1.1815375 -1.0699289 0.043146275 0.2095753 0.7529635 -1.5751933 -0.026635712 0.3981313 1.7815566 -1.3706989 0.40786073 0.13220343 -0.5069836 -0.4653225 -0.018523771 1.3131158 0.9600414 -0.60423267 1.0436052 -0.45307004 -0.6780495 2.0672204 -0.9817657 1.2877992 -1.2481923 -0.74812746 -2.4531262 -1.4274261 1.0671116 0.44549623 -0.5870065 -0.819528 1.4782181 1.1179334 -0.12826926 -1.1760873 0.70426357 -1.1185446 0.20422475 -0.36128512 1.1071421 1.8868762 -1.3564565 -1.5914427 -1.6713002 0.35160175 -0.48440942 -0.21586785 0.90221524 -0.2817991 0.55251324 0.02812509 0.9862058 0.13625924 -1.8911936 -1.4885108 0.62496483 -0.4418917 -1.0323614 -0.388935 1.3778964 -1.576065 -0.9243445 1.6464051 -1.426736 0.059780817 -0.9260024 0.5441494 0.16692115 -0.42848068 0.29985103 -0.87667817 0.7558288 1.6164141 1.4722158 0.9840611 0.1298435 2.500869 -0.090003766 -0.072028264 0.6677032 -0.21989958 0.22123791 -0.56595284 0.084485665 1.8568726 -0.59705526 0.09832352 0.9428022 -0.5974423 -0.30205983 -1.9278467 0.6071647
28 -0.7895762 -0.40872192 -0.86919224 1.0877545 1.3572332 -0.25399673 0.13672511 1.1390336 -0.45095086 0.4892165 1.548268 -0.41615862 -0.33173785 -0.011605644 0.14842705 -0.99759626 0.11498562 -0.83675325 -0.77981675 0.37548408 -0.030684577 0.48662904 2.5665188 -0.60338223 -0.032228135 -0.5969672 -1.4585917 -0.18414827 -1.5778643 1.0119131 0.35435528 -0.27225745 -0.19905739 -0.60322666 -0.41343686 1.3900414 -0.47106203 -0.5659658 -1.3698416 1.4201723 0.87971157 -0.7030721 0.085730605 0.3216633 0.119236566 0.28436777 1.7660553 1.1985153 -0.4802386 2.2616198 -1.7299291 -0.082164586 0.7819178 -0.05427488 -0.014885025 -0.30683947 -0.014951756 0.93233526 -1.0310844 3.1123857 -0.28635535 -0.0004003799 -0.5077071 -1.3783412 -0.77428997 -0.7414439 0.20831928 0.6151698 -0.1927931 1.5849267 -0.4751185 -0.7125367 0.47525135 1.3540089 0.52762085 -1.7158632 2.562916 -1.0298456 -0.67330235 1.0909216 -0.5124953 0.73801595 -1.4423684 -0.16238001 1.0415311 0.86653054 0.4755747 0.25275645 0.86824554 1.5773957 0.34004724 0.89474577 -1.6724671 -1.1889704 0.7029063 -1.7923878 -2.2393715 -0.07108617 0.06351203 -0.6687434
29 -0.16034007 -0.44566905 -0.25309244 -1.4782081 -1.3903213 -0.54886454 -1.4081517 -0.12682398 -0.6865314 -0.3053907 1.6417447 -0.47720158 -0.75683695 -0.6424449 -0.6849939 0.7525792 -0.6933856 1.5883986 -0.52358985 -0.18957083 0.41953564 -0.15378414 1.1504254 0.10088351 -0.81670463 0.24851899 -0.3573879 -1.5969911 0.30931163 -1.0324514 1.1282145 1.6031398 -0.7543309 2.0267532 0.036360025 0.19509584 1.3853223 0.9348798 0.8464892 -0.38823816 0.18328048 0.7971438 0.87266475 0.22544824 1.8754331 0.077138275 0.7838991 1.576617 -0.82993114 -0.009991765 0.45519584 0.3470414 -0.51137376 -2.226343 1.6405689 1.910146 -0.73707306 1.0555401 2.46124 0.7161504 -0.36922702 -0.52664864 0.43339995 -2.0580316 1.1220776 0.2705744 -3.9784493 0.76142347 -0.8496025 -0.87502253 -0.04985146 1.7711539 2.3044863 -1.3374721 0.15831701 0.6615402 0.009180007 -0.015062667 0.25233626 -0.18991847 -1.4064366 1.2177091 0.73376924 -0.6565389 2.0774722 2.499651 0.19230448 -0.99514884 0.22275077 -0.94747674 1.3434241 -0.32854268 -1.0519147 2.1894698 -0.14324148 0.6781899 1.0811914 -0.06601112 1.1536372 0.2857545
30 2.8637621 -2.8776562 0.9046634 2.501923 -0.1755155 0.8190953 -0.45868066 0.09520836 0.56622136 -0.16615659 -1.3600641 0.46010235 -1.2919165 0.4706494 1.4435624 -1.9360373 0.21693657 -0.5354525 0.1543524 -0.056116287 -0.019925458 1.0138428 0.11213123 1.25399 -0.36374927 0.5721186 -0.05985035 1.3130674 -0.5912239 -1.368558 -1.0939734 -1.5933253 -1.2795893 2.0371926 -0.5468506 -0.28288522 -0.6724282 -1.1286739 1.0748736 -0.12559485 0.49108806 -1.771779 -0.06569812 1.4416722 -1.365097 0.80850434 0.1574255 -0.7466296 -1.5739348 -0.426273 0.026487833 1.0495902 -0.34487337 1.002059 -1.2134787 0.25952935 1.8888597 -0.19045442 -0.8176399 -1.6109155 -0.11891436 -0.26360255 1.1407075 0.49906972 1.9520975 -0.012927412 0.15539075 -1.0807984 2.395873 0.6061272 0.506169 1.8182161 1.1133676 0.062474176 0.33314878 -1.3246696 -0.036806304 -0.6217199 -0.60364175 -0.35067907 1.0713347 1.799241 -2.7723908 -0.112945385 -1.1303016 -0.24448249 0.4460631 0.11232445 0.09370508 0.008071061 1.1593902 -1.056316 1.0160205 1.4601895 -0.59968746 1.509799 1.7576098 0.1829952 -0.21010411 1.5189683
31 0.39033642 0.6196229 -1.6721696 -0.47229272 0.22770806 0.67448586 -1.6450057 -2.375994 -0.7919007 -0.26965213 0.4760287 1.4521734 1.1777717 0.43118796 1.7118235 0.055239383 -0.46882766 -1.096016 0.35553494 -1.5464835 0.08376175 1.4905951 1.2782394 1.0131639 0.92878425 0.37871632 0.4153409 -1.1236545 0.4863234 0.2267379 0.5983632 -0.64018756 0.26209477 -0.13854325 -1.5283297 1.8120604 -1.9305798 -1.9236547 -0.6208733 -0.2119972 1.210405 -1.758167 -2.1744936 0.13142127 -1.0290806 1.5304487 -0.29173458 -2.1904004 0.3762214 -1.877849 -1.5164615 0.82628316 -0.23443545 -0.07292617 1.6805668 0.35552835 -0.80723864 -1.2610984 0.13905495 -0.043374673 0.39480186 -1.2580712 -0.26566124 -0.023369022 -0.45718306 0.0044098245 0.17083569 -0.68534243 -0.11933316 -1.1019155 1.9165947 -1.2474275 0.65174055 -0.3277615 1.6657498 0.35757437 0.35105863 -0.7252269 0.7189907 -0.530729 -1.4218125 0.47581187 0.809613 0.20912598 -0.427991 -0.76031244 0.9546637 -0.77916855 0.60573995 0.10995636 0.68173736 -0.09466464 -1.9509319 0.014838617 0.29332948 1.0931041 -1.5640213 -0.6779903 -1.499277 -1.0419425
32 -2.115513 -0.37532642 -0.4716773 -0.3731308 -0.107536495 -0.29088187 0.23300838 1.9126055 1.4678738 -1.4442942 -0.26069376 -1.4523163 -0.92005163 -0.97011584 0.19206697 1.8678287 0.67130953 0.9854272 -1.465191 -0.29952022 -0.80970466 -1.4078746 -0.32192206 0.9388836 1.0714687 0.45228606 -0.041832432 0.37308535 -0.106201045 -0.59416026 0.15699486 0.28474194 0.7801353 -0.04505849 0.32375717 1.6434978 0.09106203 0.2630076 0.39841744 -0.30311036 0.1327476 -0.1463799 0.7253268 1.2798237 -1.0562963 -0.14788468 0.91213495 -0.9348639 -1.1552814 -0.96469194 -0.36917958 1.5594476 -0.19279887 0.7556169 0.1518386 -1.2032006 -1.8077409 1.8342568 -1.5066347 -0.035442956 0.99174535 -1.6705945 -0.5649913 -0.8531318 -0.7698188 -0.5575193 0.08764227 -0.6898427 1.898569 -0.5637563 -0.6862504 0.4929489 -0.8525243 -0.9035399 -2.4098606 1.1807996 -0.44401276 0.8603342 0.5489539 -0.81415945 -0.4716653 -1.1016557 0.6952369 0.17247419 1.2710862 -0.9756925 0.07662411 0.59770966 -0.21098433 0.0057549938 -0.30066422 0.14853017 0.1449006 0.08573019 -0.044944126 0.11639669 -0.1316155 -0.032770112 -0.14084637 -1.957085
33 0.36440593 0.3908072 0.6312818 -0.8419023 -1.029625 -0.41276497 2.9003444 -0.42146936 0.887337 -0.3110382 -0.6320766 0.42261362 0.87387514 0.69488174 -1.0089849 0.2597492 -0.67213434 0.7515467 0.33499202 -1.0866306 -0.99389285 -0.7307445 1.2151446 0.3786815 0.47502166 -0.45886773 -1.0721499 1.0574723 0.26179546 -1.432756 -0.26163372 1.2415882 -0.5823938 0.13450764 0.6278203 0.6459753 -0.112720326 -0.38767827 1.4693701 1.3046054 1.214869 -0.10275393 -0.06643015 -0.2516383 -0.20792434 0.7752643 -0.44421235 0.30251688 -0.9920891 0.254154 0.043577228 -1.5009066 -0.46747655 0.4110353 0.94222695 -1.3437624 0.2995269 -0.15196624 0.13030584 0.57449496 2.2126095 0.61703485 0.8660666 -0.70265555 -0.33944297 1.3230039 1.2876092 -1.1090285 -0.5279877 1.5608544 -0.15961201 0.15741237 -0.5672392 0.39548218 0.08425312 1.7780726 1.2602862 0.5877278 0.59217256 -0.5701997 0.11357414 -0.24200642 -1.6842573 0.25925505 -1.7313038 0.37588248 -0.24779727 -0.039094146 -0.8783656 -1.3332789 -1.1234534 0.4730864 0.87410426 -2.255373 0.7543854 0.5832142 0.08938792 0.55196816 -0.606056 -0.84781295
34 -0.46188787 1.1482633 -1.8538643 0.9896776 -0.39120308 -0.1726059 1.4054718 -1.68016 0.35465652 -0.17588334 2.0940588 -0.7518582 0.8631845 0.9184095 0.13378255 0.51815015 0.7444131 -1.3709258 0.45582086 -1.690953 0.36759803 -1.6166058 0.071246624 1.7055598 1.3071713 -0.6423837 1.6220305 -0.72138834 -0.8828391 -0.92125857 0.1412242 0.46052882 0.20773901 1.0680906 -0.044918146 0.2840954 0.16345958 -0.0637757 0.19819103 -1.9971358 -1.4532872 -0.5412575 -0.1844548 -1.0201849 0.7307917 -0.08398726 -0.19337025 -0.40038654 0.6104324 1.0318817 -0.089914784 -0.37569085 1.4464641 0.6653087 -2.2284796 1.0310789 0.51713365 -0.04562908 0.6548227 -0.10981164 1.1072233 0.5110257 0.524987 1.0190713 -0.41099635 -0.8784984 -1.5487125 -0.22799246 -1.0144733 0.37069318 0.97231954 1.4901787 -0.7728795 -0.6694545 0.38671517 0.7949783 0.18206862 -1.7826325 0.88534814 -0.7337833 -0.7100927 0.19589573 -0.77449787 0.049758103 0.510504 0.8440144 -0.90363675 1.6930127 -0.7569643 0.64172715 -2.6111233 0.8425643 -2.0633075 -0.29457906 -0.36506808 0.83778965 -0.8258158 -0.0039984332 0.031640064 0.10192905
35 0.49378902 -0.7884321 -0.46597427 0.28493467 -0.37825328 -0.5654605 0.0500149 -1.0957239 0.11988794 0.89130294 -0.49659163 -0.22406016 1.1568655 1.9513668 -0.60261184 1.0039345 0.39071625 -0.030805511 0.45994845 -1.1807727 0.8352916 -2.642446 1.1310773 1.6611646 -1.3588548 0.5325842 -0.7464572 -0.85340136 -0.72282916 1.1050686 -0.3421543 0.22779442 -0.20049378 -0.2586402 -0.008430294 -0.18658873 0.6027616 0.31001195 -2.1826663 2.3682544 -0.09503451 0.6830573 -0.9249301 0.20082997 -0.0014962017 0.76506793 -1.1330367 1.3972387 0.8234828 0.29969475 -0.022962308 -0.7014885 -0.17097673 -1.2899495 -0.28569183 -1.8616968 1.3651044 -0.6368184 -0.5627002 1.3102492 -1.5098305 -0.36281478 0.125614 1.3895441 2.144012 0.60217595 -1.6147202 1.3671278 1.288291 0.11101468 0.308265 2.193545 0.19830985 -0.6787613 -0.37212884 -1.162532 0.9241504 0.52931637 -0.8569026 -0.17573312 -0.09109151 -0.6434214 -1.1196294 -1.3866386 -2.0713959 -0.93872774 1.6062311 0.9093845 -0.43010604 -0.6232037 1.0674243 -1.2283119 1.0159224 -0.84793305 -0.7781288 -0.67347366 0.0906501 -0.16964674 0.9876348 0.16971672
36 1.786389 -1.7011546 0.06049833 -0.68596894 -1.8805298 -0.33609584 0.48422766 0.27876243 -0.5613093 -2.074924 -0.69172704 1.0988554 0.48556635 -0.029081246 0.17263393 -0.36974412 -0.29594123 0.8254802 0.30581006 -0.029642455 0.34255385 1.6934568 0.02041463 0.43845677 0.3234606 -0.8325137 0.22995892 0.18091086 0.525053 0.4010101 -0.88379717 0.3710213 1.0252843 -0.7147235 0.35708448 0.10437527 -1.3399996 -0.36637324 -1.870894 0.7792546 0.40447417 -1.6106871 -1.478589 1.1336383 -1.0114957 0.18170707 0.14540108 1.602435 0.26229513 0.54576814 -0.17417093 -0.031621836 -0.4850023 -1.1435694 1.0269805 -0.10509526 1.2405165 -0.43200335 -1.2331235 -0.27748293 -0.6670242 -0.9778792 0.15706493 -0.6777548 -1.7787558 -1.2983853 -2.8746076 -1.5766524 -0.041585587 0.222341 0.861403 -0.09468492 -0.1771936 0.31187385 0.52754796 -1.4239434 -0.7126585 -0.06269771 0.17535326 -0.8037875 -2.3313472 0.7640708 -0.45290548 0.19646527 1.015687 0.1179622 -0.98997116 -0.47825736 0.094347805 -0.8713689 0.032115474 -0.71142715 0.5773377 -1.3129456 0.6500776 -3.6285617 0.6390769 -1.7959162 0.3189791 0.8978384
37 -1.0790114 1.8700374 1.7377253 0.5001277 -0.7540494 -2.1411588 -0.5848282 0.5485669 0.08905145 -1.1642274 -1.883395 -0.7261658 -0.6554054 0.8225999 2.9189754 -2.6476555 -2.1751566 -0.16979043 1.4549122 -1.0624156 1.3470532 -0.037107166 -1.4038136 -0.5788246 -0.22578871 -0.7891934 -0.16336492 0.86005604 0.37136945 0.9852805 2.0078733 0.38298133 0.2739485 -0.36599362 -1.7206036 -0.8867718 2.840494 -0.3215364 -0.52008826 0.45992744 -0.15355533 -1.7748795 0.0031315018 -0.61969084 -0.2944444 0.78080463 0.3448193 0.5607114 1.0609703 -0.024412552 0.4963795 1.3187622 -1.2702702 -0.81599087 0.16313496 1.8126684 -1.1295244 -0.14396586 1.1286348 0.8995662 1.2023885 0.5877841 0.4252882 0.6538955 -0.4799771 0.027809365 0.8531239 0.6726915 -1.019786 0.10434851 -0.94156134 -1.2060187 -1.4613901 0.23153329 -0.71300066 0.39477727 -0.1634593 1.0574663 0.0038945375 -0.38199064 -1.2353129 0.5177582 0.5343734 -1.0636406 0.6287077 0.5125321 -0.5363331 -0.0896518 -0.3401242 -0.7875947 -0.4004696 -0.009087771 -0.49089235 0.27243266 1.2318718 -0.040363982 -0.96781886 0.12814601 -1.324356 1.1286708
38 0.61011595 -0.74179536 -0.5273458 -1.2123643 -1.1842037 -0.67504126 0.28474218 -2.0456805 0.15059651 -0.50483364 0.3085748 -1.288532 0.2660393 1.2550601 -2.1453583 0.24487008 0.7765783 1.6961586 -0.2906051 1.4660823 0.0011555577 0.112849645 0.08059431 -1.0413821 -0.38837314 -0.08292655 0.49220562 -0.6288167 0.65353817 1.1707124 -0.26605254 0.8381213 0.8054213 -1.6237913 1.16936 0.33677548 -0.37566742 -1.3402065 0.25755978 -0.0342547 1.0328205 -1.3942926 -0.07210769 -1.6039615 -1.6054758 0.43585148 -1.676362 -2.7626286 -1.4525232 0.80924755 -0.2535214 -0.5091091 -0.7521292 0.756306 0.06383734 0.80148226 -1.2059972 0.2130547 -1.5137681 -0.06607149 -0.16108847 0.2342011 0.9649243 0.2526754 -0.7465884 -0.45842826 -1.080134 0.8323556 0.29460248 0.34947053 0.040659115 0.35455573 -0.38728762 1.3677207 -0.76857764 0.18866335 -0.052299127 1.3013124 -0.39502102 1.174935 -0.68000686 1.0738909 0.3477807 1.8877121 0.5157693 0.10976398 1.0004063 -0.3295648 -0.3048754 0.64224726 0.82854706 -0.49822375 0.266 -0.7507206 -1.1314119 -1.5091653 -0.5452023 -1.0334355 1.066439 -1.8343058
39 0.868551 0.41758025 2.4477396 -0.73928213 -0.72105175 -0.9989317 0.9455363 -0.71139956 -1.2981693 1.59394 -0.23827673 -0.044860523 -0.17208332 -0.98697746 0.7948485 1.2473084 2.0687952 -0.7117249 0.6555272 0.24761344 -0.6360807 -0.61673844 1.0595196 1.7848068 0.18197815 -0.28069592 0.20325841 -0.7029646 0.8324049 -0.68379015 1.0707778 0.19948101 -1.3062955 0.18063042 -0.1984401 -1.6079607 1.2714328 -0.833545 0.24653283 -1.1368209 0.06346117 -0.3467046 -1.6916734 -1.3842305 -0.6819754 0.86100245 -0.28199664 0.9433502 1.0133265 0.5734482 0.16336034 1.4423596 -1.9369797 -0.8343967 1.4100896 1.230703 0.06728549 -0.3734237 1.4998296 1.1885967 -1.157645 0.01304361 -1.4248464 0.35835826 0.7108809 -0.66810805 0.2282156 1.3544306 0.84701324 -0.81335634 0.9767456 -1.0494902 0.31590807 -0.31724 0.043109566 1.0402087 0.5873603 0.37722048 -0.7188554 -1.0176297 -0.62647814 -0.17609689 -0.66816276 0.2786485 0.3680245 0.45541 -0.44220203 1.5342617 1.2375451 -1.8283352 0.02764032 -1.463361 -1.6912954 0.54593813 -0.5816882 1.4791343 -0.23101899 -1.2982243 -1.8367251 -1.5009254
40 0.13585502 -0.38334408 -0.5511233 -0.23425093 0.24188633 -1.7248456 1.7068061 0.35108063 0.14705236 -0.30916935 0.0035566832 -0.26820597 -0.99688435 0.27863988 0.5262916 -0.83929217 -1.1660362 1.197501 0.5562573 -1.6897459 -0.4294742 -1.0682181 -0.25658414 -0.93419546 1.1414906 -0.37141612 0.08873015 1.0872133 -0.5317611 -0.6138716 -0.1872653 -1.2753376 1.7078719 -0.364217 0.7925116 -0.83415127 -0.26534438 0.8189077 -1.2592014 -1.0073713 -1.3901111 0.07474477 -2.7885067 -0.87697464 -0.14511582 0.8745579 -1.2851584 -0.35505536 -1.4856567 1.5459652 0.8390185 0.36382216 -0.92402047 0.47210723 2.7816236 -0.50808024 0.64093995 -1.9424721 0.7144621 -0.3439118 0.15580039 -2.1281817 1.2834964 1.1522202 -1.2504326 1.89075 -0.6469898 0.65660465 -0.7556511 -1.3066404 -1.2256202 -1.0366058 -0.45523033 0.15582944 -0.37493506 -0.17060226 0.9124451 -0.4539914 0.067490615 1.8018548 -0.09277675 -0.60438734 -0.69891125 -0.46333942 0.56610477 0.284993 0.67990226 1.129568 0.91299754 0.10739898 -2.3755758 0.10786878 -1.6080159 0.5365549 -2.0363815 0.8621654 0.21494247 1.5958091 -0.9387258 0.79006034
41 0.49138474 -0.64818275 0.65194315 0.4042089 -0.08795258 0.9147052 1.38188 0.5234432 -1.5139325 0.19229834 1.6530033 -1.5570409 -1.9880567 0.9989795 0.7849612 1.8869058 0.46515623 -1.7552017 0.91833246 0.110342056 -0.62056345 -3.1365516 0.98750335 1.549407 0.3535704 0.5291849 1.1813806 0.6315952 0.16703323 0.4641735 0.40494826 1.8233777 -0.55993825 0.56714547 0.89207965 1.6256033 -0.93647057 -1.7759206 0.051358055 -0.7812912 -0.59174454 -0.24220875 -0.49630478 0.38820553 1.3832524 -0.7032375 1.838201 -0.4161536 0.12562297 -0.12139667 1.65328 0.19817865 -0.58694863 -0.5196728 0.7515361 -0.129436 -0.7899723 -0.60410166 -0.61334 0.34921467 -0.0564383 1.0421603 -0.76362735 -0.54519004 0.84216523 1.0789903 0.41274053 0.12742564 -0.6844676 -0.6671825 1.1152353 0.51291764 -0.47412243 0.25170696 -0.539715 -2.118985 -1.0072178 -0.0768278 1.0329298 -0.18229643 -1.0505857 0.11058209 0.72205937 1.239471 -0.9465324 1.4307926 -1.4182677 -0.7509454 -0.5243966 1.139908 0.70081365 0.37601984 -1.138138 0.5728516 -1.8338077 -0.8341912 0.028909225 -0.8175044 -0.7447907 0.02601623
42 0.65101093 -0.72295547 1.6920679 2.207075 0.9744464 1.3131428 -0.066330984 -1.4447961 -0.8227683 -1.0669339 0.022442756 -0.23121732 1.3572296 1.6295369 1.3085761 -1.2321132 -0.73489445 -1.8557477 -0.9741952 0.023792619 0.38720304 -2.6376996 -0.4114711 0.08167927 0.46995595 0.101672284 -0.9909134 0.4268304 -2.1312697 0.6028115 -0.15563597 0.2451815 0.30273446 0.20466506 1.4975027 -0.60030264 -1.6088209 1.7383577 1.1506183 -1.8916156 0.39535207 0.095732965 1.6690621 0.024563456 -0.42597494 -1.5489441 -1.8779473 0.3462282 1.0224776 1.2078278 -1.253765 -2.4053912 -1.0475918 -0.6621863 0.69138396 2.1164944 1.8382819 0.64578223 -0.4456314 -1.3004985 -0.35381588 -0.46130404 0.6899699 -0.32093662 -0.98608935 -0.7559433 -0.032859173 -1.1323355 1.240239 -0.30713323 -0.06306791 0.1583191 -0.21355405 -0.6699748 1.0881158 1.3022642 0.5253922 0.9649376 0.3807566 -0.40571988 0.42790267 1.1916065 -0.9857497 0.38073456 0.47927284 0.78887266 0.5809621 1.045203 -0.8646574 0.45578614 0.59909064 -2.8065612 -0.107382365 -0.070017345 0.65053016 0.4502325 -3.4420962 0.2475682 -0.39555064 -0.9410737
43 0.25612134 0.8907603 -1.0792823 0.16056302 -1.9900773 0.61549354 -1.4265347 -0.61937666 -0.78285956 1.0633384 -0.6684669 0.587707 -0.78894013 -1.0824493 0.45237035 -0.07984116 -0.4634486 0.22069171 -0.50745803 -0.54891735 -1.1621207 -0.688234 -0.39150193 1.038788 0.16791907 -2.4287312 -0.19817694 -0.54120135 -1.3692585 -0.41814947 -1.6151848 -0.3802577 1.748159 -0.0020668588 0.6810856 -1.1492758 0.24858032 -0.027848246 -1.3874424 -0.26564726 0.095954366 0.79131526 -0.0016274092 0.43574917 0.12608099 0.29597867 1.0409112 0.3918711 0.90173966 1.4167835 -1.8408682 -1.8521924 -1.1050574 1.1850605 2.486285 1.2972554 -0.6717681 -0.1999461 1.0653039 -1.7531914 -0.90381604 0.014419325 -0.0075776437 -1.4017172 -0.29223284 0.21247803 -0.5493275 0.14564052 0.2347346 -0.27661797 -0.04019531 1.0124758 -0.94510174 1.790042 0.33487558 -1.4901935 -1.325859 0.36033845 -0.8945325 -1.178034 -0.0030442988 -0.7788895 0.12951748 -0.7905401 1.5243739 -1.5211489 -0.7198944 0.08002321 2.3452516 -0.8095127 0.8325788 0.5130496 -0.52091515 -1.25714 1.0249696 -0.77475154 -2.714019 0.8379568 -0.6017585 -1.0848545
44 -1.1601735 -0.92293197 0.36874634 -1.273432 -0.037533298 -0.24362306 0.45688918 -0.24646889 -0.1621064 -0.4223795 0.53371835 0.22470711 -0.15318134 1.118798 -0.07770812 -0.41104484 1.5367783 -0.7239721 -0.14551644 -1.0838451 0.7541118 -0.42979673 -0.22013159 -0.34515813 -0.8357976 -0.24903676 -0.28813612 0.23594761 -0.027689472 0.5895997 -1.5819725 -0.6650131 2.256793 0.09116987 0.6912662 -0.624577 -0.1359098 -0.99257034 -0.42805567 -1.3437244 0.33143187 1.8184675 0.08053051 1.1041969 0.5605188 -1.2490246 -1.7868979 -0.038591783 -0.23787184 0.96801275 -0.7222773 -0.02410532 -0.8819037 -0.3545077 0.028712442 -1.1593193 0.7167439 -2.0988913 -0.34649342 -0.4524829 -1.0972877 0.9769383 -0.1281191 1.1968938 -0.19202694 0.31813258 -0.95090145 -0.080156416 -1.0366472 -0.043416813 0.28308308 0.13443421 1.2473688 1.1918755 0.422398 -1.4976189 -1.3196719 0.24637821 -1.4568453 0.061452582 0.18259376 -2.2344391 -1.5331213 1.7927017 -0.61964995 0.26063284 -1.7525016 -1.1614884 1.190647 -0.16681977 -0.92474276 0.2500112 -0.3179313 -0.34159747 -1.3117359 2.0332403 -0.18651313 0.46227583 0.4621241 -1.2191243
45 0.7737768 -1.7662681 -0.046716526 0.21346553 -2.172439 -0.6292633 -0.42370805 -1.5309299 1.8202021 -1.4576229 -1.0832301 -1.1338727 1.1710356 0.6455005 1.3881624 -0.9528425 -1.5709997 1.0897062 -0.39238536 -1.2716354 -0.7462423 -1.2312558 0.8535262 -0.27239135 -0.5774635 -0.5771061 0.51887304 -1.514086 2.5465164 0.25864625 0.6277897 1.0758308 1.0530665 -0.8571612 1.6082916 0.25815743 1.3787087 -1.22243 0.4511652 -0.7637247 -0.8235351 -0.2944711 1.5327213 -1.0118536 0.22558959 -2.069849 -1.6648078 -0.019582447 -0.10809941 -2.0491471 1.5166091 0.26903775 0.4325254 0.43053013 0.25471535 -0.9376037 0.3233597 -1.1083302 -0.89689773 0.58917195 1.6513711 -0.6578409 1.1537598 -0.88160956 -0.66061455 0.8952992 -0.04128816 0.17114332 0.76665735 0.034402754 -1.5533979 -0.45254394 1.5402493 1.9673966 0.46456656 -0.26210448 0.6950382 0.44365272 -0.48685986 1.7200675 -1.0537746 -1.617573 -0.27794865 0.1429417 0.5390057 0.527259 0.66645676 -0.4634775 -0.48822197 1.7881173 -1.4754812 1.178621 0.46436906 0.9943164 -0.53623 0.34904766 0.5513244 -0.44668287 0.07238849 -0.80603385
46 -0.71630245 -0.19481525 0.15511072 -0.95091003 1.4192529 0.72291243 1.2206353 0.02909936 0.8297557 1.5441674 1.2921572 -0.0008878033 0.9883856 -0.023491226 0.2324678 0.5183436 0.16050753 0.62793124 -0.29012343 0.4682924 -0.019438233 1.7538607 -0.93170714 -1.8130006 2.0294595 -0.010395933 -0.18076386 0.60712504 0.053910974 0.28538463 -0.6403732 1.2458901 -0.051307563 0.34430778 -0.04777099 0.2567785 -0.21042663 1.1886373 -0.22714342 0.7159605 -1.1834428 0.5202302 1.0438714 -1.5772103 1.2454349 -0.7293539 -0.7302044 -0.4810161 1.6080464 0.63386077 -0.2791287 -0.24856785 -0.37634593 0.2842804 -1.384974 0.8954188 -0.628943 -1.0933914 0.42499128 -0.9024403 -1.6519743 -1.4481031 0.43553895 1.0578725 -0.10186159 0.29800233 0.8259664 0.54856133 0.7105823 -0.37113735 1.6016989 -0.6849367 0.15873703 1.9087859 -1.1743218 -1.2541049 0.7550312 -0.42272273 -1.7360667 -0.27917606 -1.3409208 -0.10671092 0.3211678 -1.3527805 0.2880911 -1.351062 -0.0012658904 -1.2881502 1.0405766 -0.8890936 -0.41839692 -1.8536742 -0.60777 -0.8022896 1.0763265 -1.0085242 -1.1659784 1.5307341 -0.1315921 0.8939313
47 -0.63612956 0.71878743 -1.0026988 -0.635508 0.54561824 -0.66988444 0.7961856 -1.1727179 0.41483474 0.26998606 2.150325 -0.021475246 1.2212718 -0.045770694 2.0630906 1.2170961 0.016804216 -0.74632525 1.4467354 -0.3951816 1.6149809 -0.09009545 2.7192025 0.2909587 0.58671564 -0.7362398 0.19658943 0.2444328 0.17739184 -1.4963213 -0.66909945 1.396961 -1.0743738 -0.8379995 0.19401512 1.0120206 0.24061175 0.60899556 -0.35123655 -0.118242934 -0.63741463 0.29513603 1.8969465 -0.010134751 0.10629422 -1.5176257 0.5531475 -0.977753 1.4697605 0.49335167 0.48124194 -0.12203454 0.761699 -0.6235071 0.90145916 -0.23584564 -1.174328 -0.42046106 -0.06889403 -1.4903871 0.9854726 -0.20590642 -1.2882109 0.4312284 0.069979124 -0.11797483 0.91811234 1.9890113 1.2639521 -1.6846226 -0.9671746 -0.37359962 -1.1048748 0.94701755 0.6368157 -0.2067638 -0.24757081 -0.35653782 -0.6592871 -0.6603176 1.0167727 0.14551252 -0.34993267 -0.58442146 1.2906051 -0.2554329 1.7343125 -1.6856602 0.6378785 1.2216171 0.89250517 -0.5817427 1.169929 0.5292844 -2.1205754 0.6362949 -1.4588592 -0.19702217 0.4319871 -1.0168656
48 0.7800515 1.4234899 0.40041807 -0.055488184 1.538821 1.2243981 -1.2982949 0.59481287 -0.8878843 0.8697019 0.37382105 -1.2312828 0.6096384 0.98308307 -0.38729978 0.66635275 -0.7799133 -1.9509364 0.2838809 -0.76997113 1.443976 -1.8780057 0.07943529 -0.8396415 0.17456108 0.18720663 1.031788 1.1514963 -1.6704566 -0.80489683 0.7041242 -0.1284664 1.3450474 -0.009243452 -0.8885403 -0.6123832 0.6970765 0.85681295 -0.25245824 0.8314542 -1.153753 0.0671164 1.7269104 1.2101859 -0.5856808 -0.40774757 0.32929647 0.23290406 2.9024112 -0.027664727 -0.94376534 -1.0483577 -0.8875006 0.42426366 -0.20877273 1.136321 1.2949154 -0.6622062 1.2234402 0.14421049 0.37527663 0.10029305 0.95253354 -1.4318864 1.0861778 0.57062477 2.0647235 -1.2985343 2.0279148 0.27879778 -0.16827829 -1.8836262 -0.02892889 -0.13291696 -1.7500256 0.74345154 -0.17549005 -1.3622711 0.35447013 0.025640951 0.57167304 -0.21792133 -1.8715668 1.5461718 -0.9250387 1.1218655 -0.43301126 1.8766463 -1.6080457 1.8619325 -0.6314803 0.0924392 -2.184581 1.7306409 1.1480538 -0.8511095 1.2802992 -1.8791149 1.5881097 -0.17057991
49 -1.3542308 -1.364056 -0.5430003 -1.1709977 0.59943324 -0.22324184 1.7555346 1.7611028 -2.002786 -0.3519201 0.1782208 -1.5258145 0.00791882 1.1935197 0.5982281 1.0855736 0.15839247 1.8634138 -1.5899323 -0.8319072 -0.688769 -0.6334956 -0.14054985 -0.29820475 -0.48917085 0.74874634 0.22426702 2.1693187 -0.7069263 1.8090497 -0.106337965 0.028283253 0.35687 2.0087342 -0.6875517 1.2456974 2.8208492 -0.6620605 0.34705433 0.4449131 0.82628447 0.3680045 -0.61385125 -1.2167526 0.011676033 1.46185 -0.9604928 -0.5701735 -0.98233014 -0.36301035 -0.4148491 0.32605195 -0.38514286 0.46265537 0.6041949 0.37284052 0.056211747 1.5474869 2.7531934 1.1220536 -1.2645563 0.049016956 -1.7258872 -1.4018711 -0.43918154 1.2642572 -0.32552573 -1.002941 -0.78306043 -1.1835136 -2.2728274 -0.14505148 -1.7791123 1.6366042 1.3288764 1.5724671 -0.034510996 0.7291178 0.8819165 -1.0556725 -0.42386055 0.12107064 -0.90530664 0.36501512 -0.5609869 -0.30948305 -0.31754082 -0.5905264 0.7694914 1.3848715 -0.54581034 0.8798393 -0.103993475 -1.0676374 -0.17988811 -0.44696164 -1.4410115 -1.057568 0.2969995 -0.87346476
50 -0.6268561 -1.3902144 -0.39284205 -0.24013624 0.29953507 -0.6970611 -0.6630634 -0.0020750854 0.42284316 0.86908585 -1.1239318 0.41847894 -0.99278194 1.5859483 -0.6113978 0.6305308 0.789869 2.5397663 -0.19025841 -0.1957949 0.8352283 0.1686885 0.8294569 -2.019554 -0.15879367 0.80696404 -0.61008114 1.0903435 1.093626 0.3639708 -0.33987692 0.7531816 0.90594643 -1.8292606 1.094903 0.5866584 -1.0952181 -0.40121317 1.5353202 0.6807428 -0.5767582 0.6328549 -0.9292196 -0.05596409 -1.0867275 2.2916198 2.6314526 0.7798557 -0.53979325 -0.577679 -0.097597696 0.6812097 -2.4535806 -0.23582152 -1.7377672 -0.26177773 0.86552286 -0.2021774 0.472898 1.6580853 0.36359265 -0.05274776 -1.2426401 0.41705304 2.6989343 -1.1412996 -1.1977428 -1.8833146 0.7198578 1.2472924 0.50780225 1.222416 0.9124805 1.6835387 -0.16336092 1.1919512 -0.42506775 -1.524343 -0.23890354 -1.2333387 -1.3189237 0.7163112 2.2495003 -0.7413331 -0.52739346 0.50953376 2.2513516 -0.14769526 0.77184576 -0.0010414706 -1.4044298 0.93038166 -0.7625991 2.5032349 -0.10264365 -1.6754953 1.2184882 -0.38204065 0.19915673 -0.36595124
51 0.8261194 -1.0173327 -0.19707972 1.5781888 -0.5495528 0.2623131 0.023537861 1.1743498 -0.30853638 -0.034966104 -0.5230537 -0.3588705 1.4839971 0.5759329 1.7434174 1.2975332 1.000716 -0.6928264 -0.677776 0.19029252 0.48656055 0.22914155 0.93014055 -1.2669623 0.50146294 0.15814452 -0.67418975 -0.07335988 -0.013214285 -1.0114592 0.96228945 0.39894482 -0.22835413 -1.0688348 0.22305875 0.21614054 -0.4943595 -0.7246218 -1.6074314 -0.78200376 -1.1647311 -1.3834045 -0.08864516 -0.3893543 1.0719248 -0.23549469 -0.6019066 -0.66878754 0.8657967 0.014656393 0.78357404 0.17565955 0.6096345 -1.3425043 -1.8273312 -0.12916459 1.3396547 -1.099941 -1.31074 1.3452467 0.74953383 -1.1391656 0.4721587 -0.33557355 -0.6162281 0.7789709 -0.44182995 -0.05464785 0.6418144 -0.09223577 -1.1057395 -0.3550972 1.0873909 -1.3743832 -0.048027586 1.0173173 0.13880263 0.63360196 2.3479319 0.7228732 0.68399644 0.97306234 -1.0249972 -0.073599786 0.57999647 0.9219488 0.026861094 -1.5125257 -0.8001639 0.31081247 0.3083282 0.505761 -0.1888443 -0.8016309 0.5766015 -1.2870675 -1.150649 0.04696382 -0.17115591 1.3356309
52 1.5306543 0.08821519 0.4716566 -0.8462425 -1.036814 -1.5866276 0.7111254 -0.4480683 -0.9958716 -1.6446298 1.138634 0.24146743 1.2034205 -0.6384415 0.63247937 0.5281543 -0.93937916 -1.5859557 -0.5361137 -0.8697762 0.6906623 1.0404344 0.3146527 -0.365398 0.61816496 1.0087411 1.3198103 0.84200937 -0.096693836 -0.24222739 2.298413 -1.9925344 0.14033681 -0.06082097 1.5736961 -1.8767465 -0.61377794 0.70035267 0.11747835 -1.3278215 -0.03811373 0.35403097 0.9487564 -0.3511877 2.2477732 -1.2924995 -1.343839 0.18645538 0.33216956 1.4255296 -0.6593041 0.08736831 -1.3362352 -0.48558342 0.29108748 -0.53791237 -0.040647224 -0.10556419 -1.0465686 1.5713767 2.3047013 0.3884233 -0.45763144 1.2280444 0.38437197 -1.3744284 0.42225683 -0.50318944 -1.5310042 0.68159956 -0.10169541 0.28928164 0.17650376 2.0789292 -0.060889762 1.5210319 -0.9932245 0.5033729 -0.9343077 -0.94418854 0.49698487 -0.56147856 0.19081613 1.0454254 0.08461874 0.86700803 0.99182737 2.7390158 0.13299762 0.16707946 -0.33338678 -0.7240116 0.75554675 0.111014605 1.5519965 -0.13389535 -0.18539366 -0.13007517 -0.070506684 0.42215484
53 -0.4552829 -0.45673847 0.49234605 0.38847145 0.55248916 -1.1593376 -0.63940173 1.8976557 -0.6605282 2.0334175 2.7456741 -0.9521772 -1.2285868 0.01805693 -0.21864131 -0.4174707 -0.46330887 -1.2179613 2.4084706 -2.6059155 0.9721016 -0.79998475 0.6023085 -1.2137067 -0.7692966 0.47207236 -1.5766665 -1.4323514 0.26929218 -1.3298625 -0.43455806 -1.6238375 0.12334271 1.0192102 -1.982778 0.81118286 -0.44786844 -1.1455156 0.23023954 0.13453041 -0.3608309 0.34491763 0.53131384 0.2712868 0.76843673 0.7479084 0.42025626 0.93094873 -0.027844567 0.8949737 1.3890244 -0.16468172 0.73979187 1.6430099 -0.27309906 2.1895716 0.020808479 2.873795 -0.9159469 1.5080032 0.21723291 -0.43246922 -2.3705704 0.18960688 -1.8092881 -0.50466716 -0.16827981 -0.29946733 1.1151252 2.0161529 1.5951791 -0.59598845 1.6875279 0.21279949 0.27974516 0.010458332 -0.5237586 0.72390026 0.24946144 -0.16399737 -0.79136735 0.8607732 -0.089094654 -0.96061355 -1.8378544 0.4064888 0.92627454 -0.49744874 -1.0792911 -0.13720785 -0.40525648 1.9802933 -1.3238474 0.26134348 -0.36519697 -1.1607648 -0.009231371 0.1359977 -2.5186267 0.060045216
54 1.2952006 -0.4467822 -1.4677597 -0.33906925 -0.6829574 -0.93236816 -0.16058406 0.06747285 -1.4025295 0.052850213 -0.36296237 1.1603217 -0.61337125 0.58758616 1.0358244 0.8673234 0.208583 1.4330693 -0.7409419 0.19830756 -1.7797298 0.84044504 0.48222372 1.0266342 1.0451459 -0.40251908 0.29454947 -1.1741974 -0.8154711 0.6037175 0.83265185 0.5036612 0.8373707 -0.040840514 2.8470116 -1.0219015 1.0215509 0.2649744 -0.8142796 -2.2396712 2.0243707 0.9633763 -0.15005569 -0.39449015 -0.120318845 1.1800393 0.29557407 0.25278044 -1.0133151 -0.41508335 0.047146894 -0.7631026 -0.8553841 -1.8754332 0.41632694 0.039300613 0.30539623 1.1769164 0.3512684 0.04267936 -0.3442851 0.10713247 0.8519318 1.4553211 1.8456357 -0.8288035 -0.55927104 0.89807457 -0.46069252 -0.43739265 0.14824492 -0.7175535 1.6082848 0.28721076 1.7874596 -0.09836408 0.045102417 1.5163147 0.010741261 0.46177363 1.152422 0.07073673 -2.0032563 -0.25234592 1.1283786 -1.4227422 1.6140926 1.0438396 -1.3113785 -1.0186416 -1.1667459 -1.2026588 -0.5514737 -0.3688708 1.5572264 0.9365962 -0.053967316 1.2988651 -0.48519418 -0.83871406
55 1.7980607 0.9295916 -0.04495019 -0.15515752 -0.010914381 -0.89814115 -0.6127044 -0.13388489 -0.92253816 -0.36973733 0.5856628 -0.90196776 -1.4180472 0.561196 1.5631361 -0.30396214 -1.3605115 -0.62208265 -2.2035005 -0.3568409 1.0551522 -0.062104985 0.6992388 1.3017875 0.37591073 0.09767605 -0.69193983 0.3012613 0.9365879 -0.8302881 -0.1427796 1.2405663 -0.9400091 2.1233017 -2.8629918 -0.3221023 0.44274223 -0.70532113 0.61103565 -1.0067631 -0.96625584 -0.6160374 -0.89744467 -0.7863068 -0.8639959 0.5654507 0.90003264 -0.10148409 -0.5581666 -0.39261273 -0.42321554 -1.3157759 -0.0317889 -1.2975638 -1.3418133 -0.7706664 0.29193217 -0.14998074 -0.22730385 -0.84788847 -1.2039722 0.12991792 -0.10124291 0.3041839 0.3015549 0.79090434 -1.3127825 -1.2080309 0.107631 1.545619 0.29177555 1.851556 1.6250033 -0.6486101 2.14797 -0.07596271 -1.4254233 -0.55710316 0.31947 0.31533638 1.2617664 0.4931986 -0.7347016 0.78215224 0.14520246 -0.5083712 -1.6561192 0.94207996 0.8295463 0.75201553 1.3576999 -0.8016503 0.5609796 -0.12104594 -1.491039 1.1094595 -0.5451599 -0.43887678 -0.67163545 -1.2243546
56 0.9056521 1.3005259 -0.13089448 -1.2084827 -1.0062569 -0.62595636 1.2616 0.34330407 0.27139062 -0.30596447 1.3166134 -0.7266896 -0.6717381 0.65699756 0.8060328 0.30457038 0.30240062 1.210236 0.026841305 -0.08685159 -2.090077 -0.526408 -0.02940181 -0.7988006 -0.42021093 1.4096439 1.0545661 -1.9828612 1.0201629 2.6953006 -2.363784 -0.73759973 -0.9080848 -0.70766824 -0.55011576 1.2883621 1.4028842 -1.0726113 -1.0208192 -0.20375676 -0.9190284 -0.302822 -1.0193603 0.6698844 0.17489801 -0.9391644 -0.8932902 0.534093 1.1285299 0.5909134 0.98145807 1.2125293 -0.76446646 -0.6786821 -0.83409524 -0.30269653 -0.50576633 1.64353 -0.6937529 1.5522634 -0.28803512 0.0016589863 -1.5378416 0.17411448 0.057608582 -0.5974396 -0.91211957 -0.5160788 0.2187779 -0.058882296 2.6143668 0.02276595 0.57621664 1.9291123 1.0900234 -0.87386376 1.1109014 -0.1283318 0.27203602 0.9839779 -1.9550813 -0.26902768 0.84583944 1.2586311 -0.6666857 -1.1297883 0.9700272 1.6181147 -0.3346135 0.70574886 0.105639264 -1.5875226 -0.05047178 -0.8755159 -0.7707049 -1.1646682 -0.13828383 0.16664217 -0.34147757 -1.5962836
57 0.3890833 -0.09044211 -0.21413034 -1.206149 -1.0266922 -0.37901747 -1.7251393 0.12212263 1.5246032 -0.22281979 2.1021585 0.08704794 -0.9135337 -0.94970334 0.8801924 -0.8129886 0.25547022 -1.8208877 -2.578205 -0.53853816 0.66193736 0.31092218 -0.2483305 2.0164475 1.3614126 -0.4928778 -0.3721024 -0.8743745 0.78731215 0.24225986 -0.25522837 0.041392703 -0.5251398 0.17978989 3.8688662 -0.3768877 0.6551228 0.12848507 -2.0149772 -0.5013507 0.3321568 0.5544834 -0.32371673 1.4651822 -1.0126871 -0.03793798 -1.5575626 1.8922251 -1.3671547 2.0228727 -0.22316098 1.1253705 -0.10913096 0.6910881 0.13314305 -1.1250713 1.363981 0.14239743 -0.6756749 -1.0695775 0.7934318 0.39359933 2.2606645 0.4623529 0.5925165 1.8702611 -0.0020364197 -1.205757 -0.76919657 1.1741924 -0.19343032 -0.80681825 1.8637341 0.30570433 -0.059379224 0.37575912 -1.2917483 -2.8366961 0.7261069 0.46988127 0.76252455 -1.0641096 -0.67848456 -0.62267643 -2.018756 -0.7067014 0.6297092 0.053764407 0.898344 1.5060077 0.56783366 0.19086923 -1.5476125 0.67289734 0.42227924 1.6932958 -1.0260872 -0.8200976 0.80140597 0.6449485
58 0.087455705 0.067943946 0.66426426 0.54843456 0.042558808 -1.3980397 0.32199895 -0.54029214 -0.9763924 -0.51458466 0.31330305 2.0423276 -0.13252105 -0.8956629 0.0813434 -0.9246615 0.03329015 -0.8194879 -1.0822432 0.4513143 0.7708465 1.2026782 -0.6223459 -0.052002065 0.23905404 -1.1290778 -0.769256 0.99132305 -0.8189429 0.8076093 -1.5556694 1.2974218 -0.90988064 -2.5713124 -0.41266295 1.318939 -0.06265735 -0.20183201 1.0368992 -0.24100141 -0.035569757 -1.070562 -1.665029 -1.7566602 0.36666638 -0.30936587 0.19046736 -1.4158258 -0.0019545488 -1.9969126 0.36272162 1.6679214 2.1087675 -0.16157655 -2.2431552 0.30722022 0.33357984 1.6023226 -0.126798 1.1679629 0.83977467 0.50091314 -0.2267672 0.68903714 -0.806074 -0.27105692 -0.44108272 -0.2589937 -0.076977104 0.45947278 0.28340203 -0.78071713 -0.22476418 -0.27034923 0.32184163 -0.5488566 1.5346208 2.535735 0.01425068 -0.9299165 1.0716959 0.18710348 0.41914082 -0.67819405 0.6977 1.5640692 -0.71276224 -0.7770112 0.15329047 0.5676377 0.8863669 -1.1855007 -0.86072206 -1.9705406 -1.7067031 -0.18632002 0.55077547 0.47689033 2.2554617 -0.40641817
59 0.44763702 -2.1316352 -0.67830473 0.016250603 0.35435268 1.3240938 0.2588636 0.1815045 -0.9666222 0.5243982 0.18378904 -0.49744055 -0.77506506 2.758978 -0.7020008 0.48299995 1.2716469 -0.343326 -1.3169051 -0.040896177 0.00014127769 0.13108239 -0.2611485 1.6229863 0.64707434 -0.64510757 0.62873596 0.94020617 -0.41728213 -0.013409394 1.3669308 -2.585689 1.6471349 -1.2500372 0.28950968 0.58498806 -1.3274027 0.73096377 -0.17434165 -0.19830471 -0.30834866 -1.1295208 -1.7487978 0.5142054 -1.2267054 0.5420208 -1.1104251 -1.6298732 -0.5551732 0.19310656 1.7973895 -0.25803757 -0.23022164 -1.550332 -1.9741579 0.024537833 1.9982167 -1.0188559 1.4291615 -0.36930564 -0.14646794 -1.1211634 -0.008619245 0.70843685 -0.79729337 0.5308368 -1.5028027 0.46632624 0.65462846 0.4852115 0.5091102 1.003388 -0.8611977 -1.2199463 1.1225445 0.23110348 -0.81837696 0.17417617 -0.0052940273 0.38943473 -1.2382088 -0.5888925 0.49313116 -0.5833786 0.4884853 1.0127172 -0.21995623 -0.21534291 -0.06736422 -0.5264203 0.083403245 -0.68904614 0.6796164 -0.06436672 0.4448165 -0.70139873 -0.96782887 -0.14168473 -0.2471854 -0.14963228
60 0.17154044 0.015825633 0.00018594564 -1.5924942 0.6435993 1.2965146 0.7699938 1.1560792 1.9135846 1.3586491 -0.28736112 -0.62262744 -0.6421446 -1.0677402 -1.148272 1.0645654 -1.7132065 0.97494555 0.0068791704 1.2516785 -0.41118014 0.8844265 -0.5165028 -0.49381953 -1.7078971 1.8485765 0.84424305 0.24822153 -0.36867884 -0.27800617 -1.5018566 1.7851309 0.99336916 0.25659245 0.9498635 -0.62559104 -0.48876753 0.0995096 -1.0987866 0.8997327 0.12955147 1.1402608 0.50129914 1.175777 -0.8738805 -1.7767894 2.1790705 -0.5870014 0.46012142 0.32241324 -0.6706502 2.226027 -0.08835588 1.4355028 -0.7811165 -0.24599122 -0.4242059 0.508789 1.0428085 -1.219824 0.8864616 -0.21632624 -0.9846995 -0.7969582 0.3557629 -0.6966886 1.3849256 1.0566634 -0.83210564 0.18448173 -0.41289747 0.1093927 1.0275395 2.410299 0.7928619 -1.272295 0.7408101 0.28429195 1.0795287 -0.6738316 0.6344037 0.8195906 -0.46735913 -0.5794133 -0.08185005 -1.399959 -0.45324835 -1.6439215 -0.54899645 -1.4656452 -0.052660488 1.1363511 -0.010364702 -0.38363552 -0.34554946 1.5489155 -2.0953026 -0.41537803 1.6600412 -0.07951517
61 0.36701334 -0.83224195 0.5730983 0.38282517 -1.017938 -0.9842114 -0.57225037 0.4429779 -1.3063099 -0.78761506 0.46769947 0.30850577 1.6432272 -1.268613 0.48615298 -0.7790364 -1.2157327 0.10853305 -0.6444853 0.16248082 0.68994766 -1.3384033 -0.015270701 -0.01993527 -0.9801391 0.21741594 -0.482108 0.38187733 0.55362326 -1.1239417 -0.24366835 0.34666783 -0.6732435 -0.31960428 -0.7369382 1.505358 -1.2689549 -0.50411725 0.6270033 -1.2901593 -0.7635145 -0.46645337 -1.0998703 -0.51748914 0.60802543 1.6993886 -0.75703615 -0.5727629 -1.3283834 -2.4203575 -0.31368026 -0.15076976 0.34171808 1.5579143 -0.17989284 0.244727 -0.3847595 1.1089164 0.33410674 0.49556577 -1.366365 1.3042858 2.0128543 -0.34990257 -0.048966393 -2.4170454 -1.1563771 1.5413831 2.7068727 0.6444724 0.022050356 1.3429794 -0.62185466 1.4951948 0.7401043 -0.8813767 0.09914884 -0.17119874 1.0451617 -0.56720275 1.2762418 -0.056632813 -2.534003 -0.062241215 -1.2127212 1.7038016 1.0234919 0.13288005 0.542399 0.90995216 0.9397869 -0.01738837 -0.5860602 -1.1663817 -0.5418086 1.7105312 1.2551482 0.0049695927 0.645501 -0.48144227
62 1.8959262 0.484283 -1.4318056 1.3947806 -0.41687295 0.1895614 0.2647742 -0.33582264 -0.12283189 0.7641798 0.15704104 -0.8517208 1.4054085 -0.47314152 -0.858552 -0.085184835 -0.835802 -1.0960519 -0.7506705 -0.33947885 0.18431325 -0.19194034 -0.8531562 -2.2718093 1.6807549 -0.09174087 2.6464515 -0.7336852 -2.121867 3.1632981 0.3972547 -0.47195762 -0.90175813 -1.6527419 -0.6207775 1.2559298 -0.18551151 -2.094619 0.14224038 1.1126833 1.0873775 0.41566834 -2.1571383 0.4956786 -0.9055229 0.81535953 1.1302307 0.9340351 -0.52315336 -1.1446594 -0.49165305 0.5673696 0.49384695 0.2881695 0.5758146 0.30383924 1.1514616 0.54212266 -1.4823518 -0.16342165 -2.7186701 -0.39207688 1.3597494 0.6923602 0.19531435 1.3990642 1.1498824 0.32356063 0.33531472 -1.5457077 -1.1420776 0.091129765 -0.28804904 -0.1410812 -1.7915891 -0.86026335 -1.1928449 -0.60553145 -0.3624852 -0.52373475 0.4008586 4.196652 -0.7343187 0.61107785 0.78083223 -0.677521 1.3619014 -1.7859926 1.1959901 1.0430098 0.9803854 -0.7102524 -0.21688649 0.027218077 -0.31379715 -0.3879603 0.057135385 -0.277886 0.56736434 -0.6684367
63 -0.44218212 -0.02190104 -0.9891449 -2.2782583 -0.89488405 -0.65338963 0.15170251 0.51661605 -0.061713442 -1.4048426 0.27597052 -0.800758 1.2517409 -1.4740452 0.81435573 -0.121017225 -0.027691282 -0.8527197 -0.029933786 -0.39964908 -0.43876106 0.7927777 -0.47246933 -2.471413 -0.36026824 0.9882576 -0.04594796 -0.09924429 -0.25744715 0.056158323 0.2642038 -0.8501055 -0.3292386 1.9893916 0.16491678 0.46053177 -0.8609679 -0.47033125 0.26119426 -0.50021017 -0.85008174 0.1680644 0.41751418 2.0715847 -0.82989275 1.4097333 -0.24495268 -0.62766564 -0.839373 0.77362245 1.2077602 0.780517 1.2926946 0.18482056 -0.033463348 0.45533746 1.063789 -0.8730846 -0.73359394 -0.072315775 1.0544924 -0.024379436 0.5408959 -1.2658786 -2.0270793 -0.79193527 -0.15158783 -0.9200704 0.014588383 0.5481187 0.5492254 -1.1759509 -0.38435942 0.5903712 -0.39330363 0.24852473 1.195504 0.89116883 -0.6413148 0.061575387 1.5872161 -1.2033782 0.44903898 0.19394627 1.196365 -0.6669762 -0.41931257 0.14575876 0.9614643 1.2492009 0.7258664 0.23226342 -2.0268064 -0.59381473 0.70870924 1.5442598 0.7629683 0.8769984 0.3392265 2.187405
64 -1.4203165 -0.3217771 -0.92775804 -0.65393937 -1.7010757 0.46959013 1.451288 0.5770155 0.52657473 0.48115674 0.1696947 1.2674884 0.83249533 0.33019784 2.2558486 1.1950209 0.98878807 0.8462968 0.7321525 0.33022124 -0.07749226 1.3074429 0.41654745 2.6057465 -1.0830691 -0.24398386 0.9324152 0.6268995 -0.3115175 0.33748108 -1.0946422 1.2530783 -0.36694697 0.5092572 1.5084401 1.0040292 -0.41618687 -0.8327862 0.60686165 0.22739367 0.72691196 -0.18919222 0.31342733 -1.143663 0.3053343 -0.08366843 0.2482853 -0.12425806 1.7881665 0.3256525 0.37627813 -2.1149614 2.1381295 1.6805569 0.13663027 -0.6369911 0.83679354 1.8846585 -1.8539108 1.5490137 0.78465056 -1.7061282 -1.024931 1.323283 -0.31648135 -0.26404762 -0.26427096 0.359268 0.60908955 -0.712187 -0.7347628 0.1999964 0.97120386 1.8555303 -0.6343943 0.9428123 -1.1985697 -1.4988755 0.067657866 -0.75566995 0.5287 -0.6519878 -0.399387 -2.0634298 0.83109426 0.6292965 -0.18922095 -0.06056451 -0.62481797 0.33293965 1.318641 0.09013398 0.9118373 -0.7592225 -0.44803008 1.9339316 -1.044832 1.4678721 -1.7159991 -0.22953399
65 0.120722055 -0.23964678 -0.2858458 0.39185506 -1.6848457 0.337825 0.08641968 0.33833832 -0.02849058 -0.64958596 2.1625278 -0.8205887 1.994784 -0.6984023 -0.58918345 -1.1903172 -0.16577487 0.05475376 -1.7449635 -0.75005245 0.8001933 -0.9536452 0.5500523 0.71341366 -1.0049205 -0.28704548 -0.27525043 -0.5549413 0.394273 -0.6417334 -1.3298895 -1.913027 -0.03160538 -2.389236 -0.1561322 0.014506566 -0.32562205 1.2695659 0.02638233 -0.21738794 -0.70123416 0.856467 2.744381 -0.2306471 1.1748345 -0.4780691 -0.12915397 0.47071716 -0.54776675 -0.85862607 -1.1356238 1.0779793 0.33788756 -0.32079256 -0.72676283 -0.10593178 0.75380105 1.8576541 0.3463629 -1.5512235 -0.6073699 0.057903107 -0.2835509 -0.048798863 -1.0255435 1.2071977 -1.6766587 0.111350164 1.1261065 0.22529519 0.18406332 0.9991796 -0.83830667 -1.5333256 -0.23232377 0.28960207 -1.5320874 -1.3580463 0.05014323 1.0187566 0.4994841 0.17786711 0.7865232 -0.63388586 -0.8745764 -0.4463924 -0.49986815 -0.41372105 -0.37913936 -1.2862267 -0.9956354 -1.5055274 0.09707044 0.17096202 -0.691764 -1.6302949 -1.7874652 -0.49745643 -1.0738903 0.04305696
66 0.534078 -1.4116828 0.6904064 0.7327639 -0.6840105 -0.4155371 0.26787597 1.5350475 -0.6665973 0.6220931 0.6208354 0.98699164 -0.13351864 -0.10782967 1.3551635 2.5134234 3.202357 -1.1095728 0.7794193 0.3249199 0.56522506 -0.052460406 -0.27497047 -0.019275313 0.13856837 1.5271257 0.41773492 2.0983775 -0.035079096 -0.2953622 1.2320986 -0.6285757 0.66119605 0.9619806 -2.4357536 1.1843282 0.4398065 0.6491298 -0.04614796 0.55932355 -0.59615093 -1.5841383 1.0372541 1.7574248 0.03344924 1.7968447 -0.7793354 -0.30271143 2.3580742 0.48278275 2.1029577 1.2509552 -1.6696116 1.0530998 0.26860002 0.018248139 0.22005637 1.5122638 -0.0868628 0.6823736 2.0185595 1.3556074 1.782164 -0.6776603 -1.516359 -0.867875 -0.4349314 0.95474917 1.5233492 -0.8381367 1.3943585 0.98452055 0.6615393 -0.3074452 -1.1349771 -1.4836688 1.0985146 -0.30185 0.14641361 0.31629196 0.8439708 -1.1151342 0.24368747 1.6268623 0.85571945 0.887033 2.6246188 -1.5411698 0.9648265 -0.72313833 -1.4990178 1.0218456 1.2093648 -1.756489 0.5266804 -1.8689942 -1.3668785 -0.47533754 -0.66716313 -1.3650608
67 -1.6350745 -1.4496717 0.5727249 1.0462368 0.703228 1.738088 0.0987758 0.11887126 0.67802036 -0.45654267 1.2276065 0.24125601 0.60826194 0.03687139 0.22206357 -0.43502027 -1.123556 0.14788918 0.05395202 -0.97070026 0.50325865 -1.1673349 -2.0392528 1.6431135 -0.5727363 0.43553853 1.0290728 0.10029265 0.39672977 -0.5310434 -0.7835918 -0.9007419 0.19864102 0.82239795 0.2374836 1.0735815 0.2881518 -0.23296326 -1.3026431 -0.448421 -0.5995181 0.29195812 0.6817244 -1.3707938 -1.4958018 0.7721808 1.039346 2.0298443 -0.8349912 -0.77630866 -1.4545826 -0.13060524 0.20499378 0.033642657 -0.99586207 1.7135243 2.0258322 -0.4355297 1.4637388 0.68486583 0.5478706 -0.76570493 -0.21193968 -0.6397763 -0.023737088 1.4743407 1.9938745 -2.1736875 -0.26336217 0.80009437 0.52433723 1.2900195 -0.66870904 -1.0271072 0.24767911 -0.44179577 1.0844282 -0.6017881 -1.873069 -0.48558804 1.5920256 -1.5253458 -0.7718047 0.22651777 -0.6432357 2.4755218 -1.7752078 0.40630612 -0.008944981 -0.38481373 0.24754032 -0.4038805 0.20918886 0.95957565 -0.3053918 -0.5140153 1.7004242 0.36304826 0.9493995 -1.4032805
68 -0.22417884 -0.85048425 -0.47589278 0.5548687 -1.5745094 -1.3676639 -0.044260167 -0.3180825 0.22416323 -1.3965572 -0.20028308 -0.084162466 1.5730739 -0.5726182 -2.0162823 0.5385997 -1.3766509 0.033591073 0.89739686 -0.505661 -0.26430064 1.2237208 -1.3935348 1.7185218 -0.05877685 -0.35165825 -1.6689539 0.3553207 1.3368351 -0.10694975 -0.5814255 0.9029564 -1.495033 -0.22115336 0.4414384 0.7402493 2.3195286 -1.0351301 -0.19951254 1.2140619 2.8502212 0.39535493 -0.93504685 0.3708207 0.6386103 1.0608734 -0.5727877 -0.5276329 -0.80839914 -0.66758245 -0.06256126 0.5131402 0.040351342 0.2328594 -2.1996746 0.7306382 0.8846483 -0.030035457 0.77313846 -0.870198 -0.90453523 -0.8392663 -1.3356869 1.5293585 -0.23979832 0.49591303 0.94846284 -2.119459 0.029662346 0.65379596 -0.2614724 -1.0704254 -0.08961176 0.52861995 -1.3209447 -0.1909216 -0.81499183 -0.6325843 1.8576757 -1.4060454 -0.1484991 -2.1809943 0.69470817 0.98494357 0.3656068 -1.8778808 1.5602595 0.105861805 1.090356 0.7556966 -1.4985062 1.2759292 1.0338788 -0.8238519 1.6173723 -0.92541504 0.33633432 -0.49046764 -0.55355173 0.03289876
69 0.2700122 -0.2186304 0.59915864 -1.5333446 0.10270083 0.34621516 -0.040729884 0.5359495 -2.335535 0.60946333 -0.35047764 -1.6209189 -0.48363248 -0.7466734 1.2993203 0.8396726 -0.34850505 2.234362 -0.08555782 0.49353287 0.64042294 -2.007176 0.65383387 0.6489706 -0.3016131 0.7550028 0.66241163 -0.6518332 0.056158494 0.33184364 1.3814684 1.8043115 0.30647358 1.4747745 -0.14497481 1.1518291 -0.8789026 0.25173584 1.3928081 1.3521192 -0.38729057 1.1264477 -2.028404 -1.0738236 1.7932407 -0.17870055 0.9891876 -0.74647826 -0.15378596 -0.21857199 0.32707843 -0.29838097 -1.2352476 -0.7757697 0.8598087 -0.3943166 0.89518017 -1.1997474 -0.40425816 -0.4912111 0.87177354 -0.6392889 0.8205451 -0.6056333 -0.23350042 -0.32226178 1.4863935 0.7563808 -0.7452714 0.43502352 -0.66397506 -0.30785173 2.361457 -0.2134772 0.46032056 -0.612721 -1.2353219 -1.670363 -0.1306737 -0.67361784 -0.7465434 0.8556566 0.11874576 0.55554056 0.27966517 0.8342705 -0.14664869 -0.18733595 0.23996045 1.2778625 -1.1064403 -0.17115161 0.5529662 0.80888057 -1.2680802 1.5389744 -0.60914564 -0.43419948 1.353339 -2.1324327
70 0.3536614 -1.2298324 -0.89505154 0.23068558 1.2074336 0.3725552 -1.0373905 -0.9354648 0.7442846 -1.4844239 0.33132696 -0.6084816 1.3735001 -0.2508495 -2.3337452 -1.0554501 0.14904824 -0.3236623 -0.05963896 -0.33743823 -2.4889238 -0.22217032 -0.6179583 0.70933425 0.2914737 1.5784005 -0.24573472 1.185804 -0.6877961 -0.10917314 -0.6665819 -0.66968906 -1.3035718 -2.1899145 2.123078 0.30908546 0.37104508 -0.20319024 -0.8438501 1.0630593 -0.22971958 1.2113514 0.70098096 -0.2333455 -0.684183 -0.6996584 0.49847835 -0.46410066 -0.9905452 -2.400813 0.5769156 -0.48909134 0.40593046 -0.1364089 -1.3292441 -1.5358337 -0.3082886 -1.4103446 0.018804405 0.59037817 2.43696 -2.2296097 1.3061745 -1.2104807 -0.07842824 0.45634392 0.13900243 -0.45116058 -0.5781792 -0.5548939 -1.2350956 1.7257811 0.170493 0.3697109 0.7026004 0.5016359 0.028881218 2.53144 0.17734613 0.1033283 1.3895293 -0.2666722 -0.24575609 2.082405 -0.039623003 -1.0448745 -0.6697159 -0.032666903 -0.211843 0.65796614 0.76397294 -1.6023937 -0.3130508 0.28990164 -0.25200155 -1.7498417 0.31158236 -0.8599266 -0.17688283 -0.6026994
71 -1.199614 -0.6823328 -2.4662964 -0.043090895 -1.3854438 0.0367008 0.48827684 0.795825 -0.26251483 -0.17598808 1.5835141 0.41657618 0.65785 1.3041859 0.95712405 0.84025353 0.77470106 0.63482076 -1.9598721 1.7007796 0.4210967 -0.25867364 -0.25468948 0.07231001 -0.15678349 0.3611444 0.25018227 -1.1118467 -0.71897703 0.046438362 -1.8674251 -0.62772155 0.6750299 0.16709757 0.3177342 -0.986121 -0.63701886 0.93408036 -0.8209641 -1.4286807 -1.3234495 -0.5285309 -0.019794984 1.5902333 -0.51534754 0.6975212 0.0012618204 -0.51491624 0.7610335 -0.94952 1.18729 -0.71920675 -0.4391268 -1.02049 0.10251967 1.4506845 0.38499865 -0.86912185 -0.47658575 0.6588636 -2.4036438 -1.0033555 1.048326 -0.05701533 -0.08324959 1.9616629 0.06428404 0.091883734 0.5578689 0.3433211 -0.6919483 0.79054093 1.0218507 0.8185442 -0.2572344 -0.067314506 0.7962168 -0.73833376 0.56396455 1.0878838 -0.13463978 0.5156661 -0.8018761 -1.5096992 0.5985599 0.5077048 -1.9054677 -0.79605335 0.78297746 0.3833262 -0.16177133 -0.9864076 1.3224875 -0.87602 0.29571927 -0.4358641 1.7520763 0.09099337 -1.9766932 -0.32484812
72 0.57902294 0.38294238 0.91535085 -2.4085848 0.18403152 0.8095368 -0.27152857 0.4110847 1.1055492 0.17852978 0.7484423 0.54605657 0.58694166 0.7937816 -0.17072417 -0.8791859 -1.0272 1.4697465 -0.588276 -1.5755584 0.10154561 -0.16648738 -0.090597205 -0.62914187 0.32472846 0.107633054 -0.70807445 -0.53414625 0.4814183 -0.47270596 -1.8145702 0.23046829 0.1606776 0.21298963 0.73340076 0.2636601 0.71954924 -0.27351764 2.1520934 0.6213291 0.49134398 -1.3172475 1.7091285 -1.2413938 -0.46956688 0.6127372 -1.1724828 0.49315745 -1.327467 -0.6122234 -0.41339022 0.5269678 -0.0003277093 1.2242769 -0.9435148 0.44617185 0.42779663 0.4107355 -0.66962284 -0.97550553 0.20027314 -0.2461064 0.97183853 -0.747895 -1.1227454 -0.8821163 -1.7927841 -1.9666181 1.0150752 -0.68177134 0.06322187 0.21938893 -1.8804616 -0.66645765 1.4353633 -0.09041617 0.98637736 -0.60767823 1.9083128 1.3247099 0.10963733 -1.4808115 -0.20585881 0.14596635 -2.6152163 0.10662589 -0.48674986 1.3639474 -0.52105105 -0.1436985 0.017415084 1.0401195 -1.5315702 -1.1763158 0.497368 -0.0675573 -1.5956085 -0.6642299 -1.0138997 -1.3231198
73 -0.60452676 -1.9588628 -0.10344908 -0.8597823 0.8834737 -0.37510547 0.25826204 -0.16190937 1.9757171 0.26360828 0.030370466 -1.6310283 0.50529516 -0.0609528 0.72609895 0.40621558 0.73984736 -0.2159351 -0.41997743 0.10934536 -0.99652857 -0.24099445 1.8376073 0.606085 0.14311166 0.48117143 1.0044199 1.6057829 0.7616614 0.7142134 2.140853 0.8148173 0.17069763 1.0089843 -1.1055602 0.96358657 0.0905426 -0.13155471 0.5387496 0.18072703 -0.35970616 0.7239873 -1.049973 0.1395889 0.9707937 1.2879332 -0.8688983 -0.30314207 -0.88325644 -0.30146334 -0.42663464 -0.15170035 0.72998035 -0.43722674 -0.5244776 -0.1986873 -0.093383744 -0.20460823 -0.4453722 -0.07706841 -1.3875735 0.14039853 -0.23344865 -0.014225998 0.15925753 0.45747676 0.9843112 1.3514831 -0.07334302 -0.23406051 1.1661485 0.68002963 0.4821583 0.9149236 -0.46807835 -0.28613397 0.15711847 -0.94990987 0.3221922 -0.832713 -0.17307602 2.0299382 -0.13472843 0.7096554 -0.6837368 0.5671777 0.050505 0.56716484 -0.76135707 -1.1866919 1.8232186 0.5419014 -0.3534226 0.22963026 0.95756674 -1.3436949 -0.30822495 -0.9440086 1.6510175 1.0399538
74 -0.14094402 -1.72923 0.7999168 -0.58664966 -0.032362454 -0.44549686 -0.86323005 0.48462293 -0.7397733 0.2194727 -0.89078784 -0.11617881 -0.9942483 0.96960723 -1.0579903 0.057647828 -0.07233964 -0.8366135 1.6916523 0.33420667 -0.8970975 0.44395554 0.3118753 0.3458145 1.1936115 2.1836495 -0.22683895 0.7112508 0.28923857 -0.201866 0.7884095 -1.4861791 1.0010372 0.12753218 -1.4277185 -0.039193075 1.0349286 0.86194396 0.58967197 -0.54993385 0.051368345 0.2412545 -0.44170198 -0.5892675 -0.37276492 -0.40085015 1.1324041 -0.41493395 -0.8366745 -1.4055905 0.4774068 1.0336607 -1.0631664 0.8443509 0.36210957 -0.48020434 -1.1691993 -0.053734913 0.33047503 2.4259217 0.8877972 -0.5664095 0.09412982 -0.3660948 -0.4491957 0.98638785 -0.48382747 -1.1186976 -0.445774 0.11628722 0.14007525 -1.2420752 0.9441949 0.32663596 0.15098302 -1.153223 -0.7344925 -0.31502014 1.2472671 0.95792013 1.0921359 0.12804332 1.1848224 -1.6450095 -0.40727073 -0.3296606 0.82292 -0.20078151 1.298805 -1.0213225 0.36668637 0.30857214 -1.274192 0.63146377 -0.24727951 -1.1896665 -0.43950415 0.160131 0.17183599 -0.1653923
75 1.247052 -0.78125435 2.2189302 0.43780237 1.8660246 0.061085172 2.0169206 1.6243609 -0.36255744 -1.2386123 0.31055492 -1.3190976 0.16746585 -0.6697144 -0.8138274 2.2222276 -0.9037552 -0.96353596 -0.67556345 -1.1562986 -0.70783424 1.3047276 1.0866667 1.0479552 -0.15928453 0.23514505 1.0277263 -0.6737422 -0.6713416 -0.34496745 -0.13036269 0.1895455 -1.120225 -0.73887306 0.37833235 1.0295461 -1.3587868 1.0475755 -0.0514211 0.39611572 -1.483835 -0.9695443 -0.7095105 -0.72180164 1.0317131 1.3996372 -0.3122819 -0.89830655 -0.8107721 -0.79561424 -1.6955311 1.2311697 0.74266005 -0.7059633 -0.13543436 0.33700126 -1.5950462 0.39999768 0.2573544 0.24836236 0.32737657 1.0500461 0.8986933 0.09981531 1.1445495 1.5700749 0.87955177 -1.4364827 0.65513647 -0.31221294 -0.4059674 0.33152774 1.7963942 0.4721767 0.21828847 0.9473327 0.91936725 1.4826022 0.32730284 0.4552186 0.013561127 0.20407617 -0.49472144 0.25247255 -0.07728548 1.0498519 1.0371205 2.5064757 -0.51112163 0.4418102 0.12545903 1.5230474 2.1555896 -0.0032587878 -0.6905288 -0.27663976 0.048689973 -0.645099 -0.80447114 0.9092843
76 0.23284459 0.48394346 -0.1365656 0.8171307 0.8678308 0.66576594 -1.1915919 -0.6513413 1.0376586 0.1973998 0.17216346 0.61492544 0.46202242 -0.29526952 1.296802 -0.3261245 -1.2274877 0.29907125 -0.002046497 0.52426183 -0.61677027 0.43835008 -0.1129267 -1.5498819 -0.77467734 -0.5418312 -1.1273545 0.13613795 0.48585775 -0.90449446 -0.69038576 -1.8052355 0.20323381 0.29387704 0.06763473 0.83694285 -0.8876281 -0.52496773 -1.1362085 0.28731662 0.22520414 1.1206281 0.31503817 -0.7034056 0.66067314 0.7822536 1.9291254 1.0021935 1.3473206 1.0217726 -0.65716404 -0.9235958 -1.815531 1.6216633 -0.42764485 -0.62034583 1.0557934 -0.11330816 0.24795859 -1.2463208 -0.8505918 -0.3403818 1.0813388 0.2669252 1.3164828 -0.5670743 -0.050864585 0.43438008 0.8993144 0.062864825 -0.09595737 2.74724 1.5291336 -0.8340373 1.9792626 0.7205321 2.240696 0.53235626 -0.034602374 0.5031568 -0.0032129618 0.094707616 0.269566 2.2883933 1.1975863 0.78759366 0.68132836 1.2477956 0.31893837 0.9848978 1.2092735 -0.20949037 -1.0632054 0.13410838 0.056835487 1.0024519 2.4182205 1.5488604 -1.3666762 -2.3512716
77 -1.3000845 -1.2686882 0.83271414 0.33550784 -0.8954052 -1.6471943 0.510937 -2.1103618 0.43938735 1.6831615 -1.1900581 -2.1757462 0.1956802 -0.11268507 -0.90084636 -1.2852917 0.8781914 1.2721457 0.18394269 -1.0483094 0.66345805 0.30635336 -2.380857 -0.15920317 0.33295238 -0.122925654 0.9612328 -0.034106698 -1.6400481 -1.4753475 0.9443024 1.7157483 -1.1359954 -0.8100472 1.3557892 0.53644985 -1.6581357 1.8268714 -0.5387334 -0.6041072 -0.8324609 0.10644954 -0.762611 0.36652836 -0.21566321 0.35619518 0.067743815 0.9966331 -1.0812265 0.3582605 0.87010074 1.2967924 -0.5493623 -1.1321112 0.2390149 2.2256312 1.7051718 -0.44337893 -0.6374451 -1.0890175 -0.62530935 1.5555066 -0.99349046 1.0221034 -0.69559693 1.2077394 0.32090876 -2.3386488 0.003710425 0.56691915 -0.018776605 -0.6085481 1.0888852 -1.0486268 -0.062445574 -1.728972 0.07861445 -0.44101146 -1.1977347 -0.17494652 -0.7569488 -1.2097275 -1.049725 0.17517886 -0.9064724 -0.48898327 -0.20580623 0.44725138 -0.49498007 0.11495963 0.05947421 1.9280013 1.0892782 -0.4222653 -1.2383679 -0.63786334 -1.3077583 -0.36925226 0.13270806 -1.246665
78 0.2684226 -0.49794075 -0.98664045 0.4239759 -0.26626047 0.647945 0.3879654 -0.59266293 -0.5719684 0.0018572694 0.09830418 -0.8052779 -0.7338885 -0.5796763 -0.10606793 0.63434464 0.69344157 0.44465944 -1.4635172 -0.017011855 -0.6048505 0.3376566 0.9088658 0.2199014 -1.4357004 0.6888948 -0.23652197 -0.49314824 -0.544455 0.34747204 -0.8727512 -0.69938153 -0.25152606 -1.3860984 -0.36789972 0.8276978 -1.1920409 -0.3785478 0.23668951 1.129629 -1.2148889 1.1445857 -0.08466319 -0.52536285 0.1603669 -0.43508768 1.0466853 -0.44824538 -1.5781398 0.34043226 -1.2411661 -0.44438177 -0.5717253 0.39382675 0.3252115 0.25666687 0.88270414 0.23578244 -1.9697584 -1.5684929 1.1669058 0.6058058 -1.8073298 -1.3998053 0.99645764 0.8814186 0.16517985 0.22091146 0.19430996 -0.4516214 0.5168583 0.5303548 -1.215975 -1.2155222 0.20408961 1.1438044 -1.0405849 -0.40962154 1.4089088 1.4609417 0.58010316 0.33451274 1.2149733 0.51310223 -1.1096292 -3.1345341 0.023687745 -0.16546209 -1.8121626 1.7766773 -1.6320904 1.0936619 -1.1026747 0.38289154 -0.19352685 0.16565411 -2.6614726 -0.70483506 -0.8134943 -0.02633432
79 -0.51572245 -1.0198954 -0.5273882 0.45135555 1.0635182 0.8454225 -0.23996212 0.8775788 0.70161515 -0.99320567 -1.7310529 -0.9388718 -0.096734636 0.14049761 0.7739392 -0.013814842 0.89095587 -0.8574486 0.19245353 -0.9645808 0.6000047 0.025903797 0.14745604 -0.4990228 -0.044131093 0.48249534 0.3585674 -0.5498905 -0.87346196 -1.0908828 -0.88601756 0.14460108 1.0175228 -0.96448416 1.3831242 -0.7250533 0.545234 0.14737967 -0.014274622 0.69225186 0.36817458 -0.1012136 0.25352994 0.8126039 -0.5361448 0.308115 -0.09100158 -0.5797118 -0.33336604 -0.39267915 0.33765295 -0.50601596 0.31114322 0.2540177 -0.4829508 0.009898148 0.4680685 -0.5038966 0.066254415 -0.65030813 0.64475876 1.2575529 0.5806153 0.89656013 -0.042347826 1.6734465 -0.18306205 0.5277187 0.18562168 -0.6022639 0.23094918 0.35957873 -1.2852528 0.23008627 0.18106925 -0.8131466 1.1412562 -0.5692993 1.5589325 -0.9644057 -0.47639248 0.6240903 -1.2943285 1.0007482 -0.31895223 -1.7895163 0.3388586 1.2663271 -0.21736638 0.17954251 1.0153352 -0.8957509 -0.700052 -0.69837546 0.6949605 1.1178741 1.2665008 0.46196878 0.7422345 0.9287926
80 0.44588366 -0.34630397 1.0262824 -0.1932393 0.7262033 -0.2983393 -2.2647142 0.041676678 -0.28405082 -0.24537113 -0.9620652 1.065215 -0.20919192 -1.2273574 -0.56072605 0.42570525 -0.824703 0.3060658 0.5706869 -0.5732174 -0.04784312 0.91213065 0.69352895 -0.79189396 -1.014132 1.0891582 1.5455158 -0.4428797 0.55762756 0.09128417 0.20893545 -0.8405812 0.5469649 -0.36119962 -0.19013819 -1.0068047 0.16185461 -1.7608621 -1.2229047 0.8419574 -0.09274196 -0.4839355 1.4375995 0.076179445 -0.14324366 -0.8483176 0.31107196 -0.5581243 1.9302326 0.16766703 0.54318184 -0.17370538 -2.7204483 1.1638055 -0.017094998 -0.40944335 -0.95898056 -0.83693933 0.884595 0.29101145 -1.314522 0.90363693 2.091222 -0.23337524 0.05728353 -0.18617865 -1.8601751 -0.9726641 0.6925832 3.1216922 -0.8017277 1.9357096 -0.40336898 0.63993263 -1.4551206 1.0999005 -0.3832585 0.6225793 0.14585564 2.2306478 0.29571357 0.17584002 0.41053927 -0.63202536 2.0881634 -0.39356518 -0.45380044 0.9046921 -0.9747588 1.0311874 1.3632171 0.002225595 -1.4621958 0.56427515 -0.99009985 0.40283585 1.97448 0.14568438 0.8155399 0.15400892
81 2.088621 0.98720497 -0.16452664 -2.4581828 1.4546375 -0.88982904 -1.8050607 0.07854332 0.30683723 0.46789485 0.6737904 1.0702283 -0.42329752 0.2937901 -0.85678023 -1.3394884 -0.52876866 0.62220514 0.012951538 0.15187603 -0.14293787 0.17512871 -0.15094063 0.5869768 -1.6073347 0.007813112 -0.8849587 -2.0869205 -1.1491055 -1.4688132 -0.056488503 -0.4079774 2.0420315 0.46824205 -2.169773 0.25856024 0.04100539 1.0980145 -0.88507587 0.77345294 -0.77101743 -0.59162575 -1.686574 -0.50948894 0.12898329 1.0152361 0.9930391 -0.1424666 2.191439 -1.1040334 -1.0788934 -1.062685 0.43011945 1.2987838 0.6442377 1.2493143 -0.889252 -1.176484 -1.3819252 -0.2925136 0.5152191 -0.009692835 1.271577 -0.8166906 0.80766225 -0.1764402 0.31592953 0.17162536 0.25589597 -0.85201377 3.4655187 0.4458946 0.9044597 1.6713175 -0.71013063 -0.4656907 2.0013552 -0.69674265 0.5347017 0.93746734 0.22606799 -0.07680931 -0.8757523 0.9661552 0.64624834 1.3017049 -0.7876696 -0.26074657 -0.87348545 -0.6232459 0.54972297 0.9921647 0.8519074 -0.5824868 0.064799465 1.075424 -0.470974 -0.39963263 -0.5231316 -0.18384935
82 -0.02796196 0.06902153 0.62936157 0.33328375 1.3578506 1.4714963 -0.6848607 0.2697875 -1.2491227 1.55644 -1.699392 0.10759896 0.5765195 0.13808548 -0.19185014 -1.874129 1.1219476 -1.0556283 -1.3910862 -2.0701005 -0.5190093 -1.4752734 2.1769276 -1.332343 -0.5108531 -1.6832136 0.30382004 0.35382453 1.177418 0.31908524 -0.73292303 -1.7575083 -1.2202841 0.04042911 -2.2344532 1.7472973 -1.5398095 -0.99203193 -0.3035394 -1.0364205 0.85419047 0.9535366 -0.5446797 0.29733014 -0.64055526 2.2767477 0.77452177 0.135668 -1.0640202 0.6920598 -1.0619587 -0.9898899 -0.20150805 0.35500666 -0.7530653 -0.67327595 1.90356 0.15798941 2.2895358 1.7465429 -2.042165 -0.8515267 1.6408579 -0.33471873 -0.7859984 -0.3502188 -0.33701512 1.0715569 -1.1470578 -2.225285 -1.3802164 -0.7383287 0.28342456 -1.7533495 -0.86467195 -1.7685571 0.2754664 -1.8971705 0.08700648 -1.7400728 -1.7283494 0.4715019 0.029179294 0.87876153 -0.66544276 1.754198 0.10951013 0.039371926 -2.1148155 -0.44117782 0.5178014 1.6905576 -0.39467916 0.26531395 -1.3365268 -1.208445 -1.6231761 1.4545916 0.6988115 0.8898142
83 2.4336112 0.33809736 -0.053024013 -0.6696984 0.1303831 -1.0359261 1.204953 0.20018056 0.8963934 -0.18819398 -1.7754053 0.71189684 0.87996876 -0.5224051 0.13638479 0.8575597 0.107530996 -0.14620353 -0.043813594 -0.22534916 -0.24694109 -0.23690143 0.19545402 -0.3947817 -0.74838424 -0.15615825 0.41422513 1.269001 -1.8033167 0.6454521 -0.70400774 1.3498174 -1.5115286 -0.9535547 -0.26103508 1.9300598 -1.9843215 -0.26068372 -0.40496206 0.6030455 1.1889697 -0.8601954 0.6222095 1.8062768 -1.2319851 -0.45961234 0.04100033 1.5314866 -0.7186513 -0.19096716 -0.05650828 -0.89875126 0.2909583 0.69722 -2.014 -0.66857773 -0.66511863 -0.4696571 0.5875379 0.93157625 -0.31722897 0.57032466 2.2066438 -0.35672843 0.6773999 0.41133413 0.13746698 -0.1557443 0.17154667 -1.2835237 0.032656807 -0.48785883 -0.29807442 -0.54148215 1.010509 1.7082623 0.7250336 -0.74343646 -0.3981222 1.5678116 0.55442137 -0.47498494 -0.3916324 -0.45567775 -0.6497741 0.55410284 0.5641623 -0.6948266 -0.50792646 -1.5717326 -0.27720514 -0.84685004 -0.31138423 -0.8869133 1.9614974 0.5668663 -1.38719 0.8494251 0.097550854 -0.39539346
84 0.0044921245 -0.525598 0.60470974 0.5275737 1.5556056 -1.4788601 -0.34597176 -2.5263221 -1.2180754 0.8413162 1.5726341 0.94829684 -0.38124812 -0.32009098 1.44338 -1.9535699 1.119095 -0.45714325 0.015962683 0.3694148 -1.0144151 -1.6915774 -2.450399 -0.11106461 -1.0028253 -0.16339433 1.2156581 1.8954417 0.6526237 -0.21555214 -0.49211696 0.040919974 -0.33865365 0.42491323 -0.47706673 0.5283685 1.5048895 1.1266499 -1.4006964 0.9036913 -1.5390164 -0.7834763 -1.9747056 -0.8908488 0.04070519 0.7627475 0.18617943 -0.65000784 0.8111344 -1.1400076 -0.78000635 -0.36365047 0.9478185 1.1338211 0.4407063 -0.7580025 -1.8146744 -0.06547876 1.6537641 -0.6985171 1.1044463 0.17002998 0.905154 0.16696952 0.16261438 0.14993718 -0.5990399 0.7486464 0.64499956 -0.6564802 -0.37901258 1.0885594 0.81946 -1.425669 -0.12763016 1.8298593 1.5496681 -0.71629643 -1.1439828 -0.9545946 -0.039112434 -0.42492962 0.7696589 -1.9675643 0.3832025 -0.08615633 1.8564194 0.9070199 0.03547112 0.4772153 0.09367033 0.8184571 2.4549716 2.176689 0.25636467 0.2755277 0.22881866 -1.3456732 -0.41891634 -0.7231397
85 -0.47742248 -1.758729 0.7847309 -0.89686924 -1.587747 0.65328515 0.0813152 0.23925826 -0.66134226 0.22427575 0.9701682 0.45643815 1.3491625 0.08055212 -0.54667264 0.3293951 -0.65302634 1.0858837 0.35745868 -0.45437616 0.15036868 -0.18064731 -1.0813389 0.8811495 0.051931467 -0.0027487613 1.2100661 0.44309217 0.29986352 -0.43484885 -0.8821465 1.4185296 0.24297814 -1.2018085 -1.8489358 0.08025923 2.097632 1.2253666 -0.34079587 -0.23134874 0.65781873 -0.10253106 -2.2981908 -0.26117507 -1.1552618 0.94444627 1.2466344 0.107688636 2.6626713 0.102942586 2.197461 -0.03991595 -0.9108298 1.5064607 -0.5204461 1.6608866 -0.3346204 0.8417981 -0.7365464 -0.023784224 -0.45866412 -0.7872993 -0.84420556 0.11504239 0.44316462 -0.76773274 0.1760563 0.21871151 -1.0861114 0.9250296 -1.0083125 0.23745085 1.0156716 -1.0307308 2.2556741 -0.5876352 1.3105977 2.22892 -0.17647485 -0.34603947 -0.10041893 -0.4048567 -1.3719075 -0.04786806 -0.32581085 0.086421974 1.0950394 -1.6288108 -1.2117914 0.099456646 0.977295 -0.1277704 -0.4890254 -0.5804307 -0.759485 -1.0650208 -0.7125467 0.14740627 0.7346322 -1.1602492
86 -0.49476418 -0.4802991 0.25210783 -0.88694125 -0.4093949 -1.1007454 0.560489 -0.8342051 1.6854999 -1.2836907 -1.0220726 1.1524196 -1.7387302 1.2272173 -0.4190073 -1.0119021 1.5076096 -1.0431345 0.2271036 -1.7103981 0.33477786 -1.2927653 -0.9327646 -0.7189906 0.7022978 0.22225018 -0.029365117 0.7460925 0.60397536 -0.4868763 0.49554387 -0.8586025 -0.9918496 -2.172246 -2.2158096 0.24284102 0.10198066 1.9944615 0.32527786 0.8330013 -2.7473495 0.29008996 -1.316712 0.5445104 0.3348587 0.43842548 -0.5445971 1.4828507 -1.5583704 -0.30079916 -0.4451639 0.52461696 -0.4468122 -0.19687548 0.4066037 -0.4982092 -1.0312479 -0.6377051 0.11034015 0.6640534 -1.7037727 -0.3925883 -0.18202837 -0.72285134 -0.5131079 0.6743528 -1.6587192 0.50690323 -0.9431278 -0.09328179 0.41877776 -0.074009776 1.506327 -0.8092437 -0.57627344 -0.7098838 0.51993877 -1.9799165 -0.18117322 0.45493224 -0.24784194 0.6858351 1.1868737 1.1999185 -0.45827717 -0.96229196 -0.69959795 1.1020442 1.2482802 -0.54328763 -0.9054996 -1.0383697 0.57648605 0.55920446 -0.0046029435 -1.401655 -1.3580611 -0.8972801 0.043763343 -1.414123
87 -2.8775387 0.9924762 -1.1782074 0.54951197 -0.4729694 -1.5269566 -0.11748257 -0.6308405 -0.57735395 -0.24148394 -0.9181519 0.22074108 0.36486402 -0.4946615 -0.9356132 -0.23179816 1.253656 -0.98663396 -0.2989886 0.25075656 1.5450208 -1.8301708 -0.75684255 1.6835531 0.20859753 -1.5358393 0.23587011 -0.5022718 1.5629672 0.9858415 1.4738017 0.7898861 -0.84881043 -0.1612366 0.73479784 -0.33978713 -0.20444384 -0.15451293 0.52347744 0.13933519 -0.54954636 0.31489852 -1.1221331 -1.0438721 2.6498835 0.70579904 -0.3271935 1.3594321 1.1008962 -0.6783594 0.037402365 0.684914 -0.6489534 0.35085607 -1.4427416 0.4243093 -0.63522553 -1.4166769 -0.9632286 1.0982306 0.19419353 0.6088972 -1.6025201 0.7353555 -0.01814865 0.3054101 0.29928446 0.25820413 -0.19289301 0.8496419 -0.5935762 1.325691 -1.4986734 1.73783 1.7957356 -0.41592923 -0.4677463 0.68416446 0.3875579 1.1025654 0.46274787 0.040785868 0.0499411 -0.30106997 0.09930781 -0.14025612 -0.22917117 1.5725532 2.109218 0.4458799 -0.20251738 -0.019186698 0.7820421 -0.16919388 0.5307128 -0.9139342 -1.6836784 -1.8964263 -0.709652 0.39707386
88 -0.2231786 0.9862992 -1.5515977 0.37628198 -1.8864808 -0.31265172 -0.2333755 -1.3064916 1.8925228 -1.5877123 -0.76369196 1.6878679 -0.038603645 0.3867641 0.6294932 1.6390766 -0.2593587 -0.61735964 -0.748066 -0.47323778 -1.8927335 -0.62717706 -0.63621455 0.36900616 1.1733184 0.9405058 2.0271192 -0.97321516 -0.10437501 -0.02562681 -0.6947214 0.7083729 -0.33212712 1.618377 0.4386686 -0.22786342 -0.77420163 -1.9857117 1.2369573 0.51673824 0.040338527 0.3240473 -0.04993067 -0.58701676 -0.6903652 0.22416258 1.1246525 0.62857854 0.041851964 1.4674532 -0.5132322 -0.85820717 0.16140854 1.0636407 -0.013286423 -0.22075514 1.3834399 -1.6785566 -1.589911 0.04171538 -1.8504875 1.4365078 1.0461184 -0.07863328 0.29757357 0.5154952 -0.6844959 0.11752904 0.98230743 -0.057862096 -0.32882762 -0.70322216 -0.012686149 -0.53387 -0.57299167 1.3124208 0.09991013 -0.38040757 1.3120817 0.7319237 0.32109785 -0.69992924 0.18528682 0.026538216 -0.42363197 1.44798 0.41024667 -0.25307587 -1.3850311 -0.7652593 -0.9087847 -0.4684861 -0.23289904 -0.426621 -0.77763766 0.18163499 0.73999953 1.225738 0.341115 -1.5863605
89 0.06488308 -2.1033607 0.09093519 -0.49561873 -0.046299174 0.7529154 0.19871315 0.3068448 -0.95054764 -0.19964153 0.49840814 -1.1046487 -0.6652136 -1.0545872 2.318132 -0.71394265 -1.0230557 0.92568177 0.9425429 -0.93971056 0.8590705 -0.20358303 0.72573227 -0.69136107 -0.20553021 -1.1558964 1.1670939 0.6704466 -0.42039526 -0.41063133 -0.4175191 -0.55055314 0.2509879 -1.6764853 2.0755026 -0.14347987 -1.0855149 1.1901878 -0.06331086 -0.6675106 -0.3210768 0.2619431 -0.37357074 -0.1013862 2.5157974 -2.092499 1.0835036 -0.4563317 2.245689 -0.012887135 2.537714 -0.5120861 0.6597929 -0.23686875 0.52394074 -1.0954506 1.1296333 0.16831462 0.9558022 -0.7269307 -1.6205673 2.1016662 0.6027869 1.2427102 0.42811418 0.7924543 -1.4232781 -0.26317713 -1.0530463 0.16769749 0.7015171 0.19450405 1.4859582 -1.7090335 -0.6010627 0.24510181 1.3473204 -1.2503518 -1.4354777 0.080400564 -1.3796705 0.27524614 1.2964666 -0.033723257 -0.14078902 -0.18777518 0.6411915 -0.80541086 -0.27198243 -0.97823554 0.895141 -1.5408586 0.17291868 0.043303836 -2.14612 0.29359102 0.08245799 -0.67067623 -0.26669684 1.5075276
90 0.38514245 0.6229733 1.6536822 0.0538655 -0.49802896 0.866143 -0.51309603 1.2795842 1.0112823 -0.41574934 -0.3510924 -0.07295784 0.89122725 -0.41280305 1.0027415 -1.9243145 -0.5641607 -1.3985649 -1.7248592 0.958053 -0.870543 1.0958806 0.20717396 0.039292596 0.37581652 0.15615875 -0.5256648 0.40512782 -2.0709803 0.5885179 -0.91033256 1.0634718 -0.48450997 -0.18579635 -0.08251442 -0.58226943 0.19741324 1.2828811 -1.5495483 -0.15108168 -1.0435992 -0.67554015 -1.5252998 2.3765352 0.53009737 1.5731679 1.1831919 -0.31464627 2.3968737 -0.3593935 0.11518146 0.7570982 0.026540743 1.3890948 -2.3435051 -1.3465261 0.856405 1.9261552 -2.1235423 -0.17347516 -0.50090563 0.037407484 1.1687183 -0.2826989 0.6645463 -0.74673223 -1.0238675 -2.4481769 -1.2690678 -0.07809786 -0.9123373 0.5657648 -0.6570806 -0.98844874 1.6494192 0.42829263 -2.6499414 0.24449593 0.8046376 -1.8486972 1.2305048 0.84768903 -0.61822003 0.37206122 -1.356914 -1.3616208 0.5857227 0.013645691 -1.3819422 0.46653906 -1.4934621 -0.40334773 0.032754246 -0.45060268 2.140405 -1.9767318 1.2277249 0.27001 0.4769241 0.33838603
