100 100
0 0.3066819 -0.21737748 -0.8452485 -1.5555828 -1.6210523 -0.46848553 -0.7544775 -1.9795811 0.66521543 -0.58689487 -0.30618483 1.3771964 -0.6610209 0.14770843 0.48877892 0.5432433 -1.3617386 1.5811133 -1.6530819 2.2776175 -0.64793044 1.4209706 1.2311018 -0.10319681 -0.21453902 0.3890679 0.160409 -0.27340335 -0.66900784 -0.096103564 0.07415495 1.781932 -0.33040938 2.3054867 -0.06761388 -0.38000137 0.46433523 1.2286096 1.0052234 1.8746202 2.1695662 -1.1370683 1.1931489 -0.57323647 0.14794733 -0.26880118 -1.0710992 -0.69309133 -1.1636099 -0.61449516 -0.25280797 0.8287013 -1.4629115 0.24912949 -0.57889587 0.6621539 -0.21734321 -0.7618925 0.8108424 1.2591338 -0.8968054 0.7826766 0.18186218 -0.034928713 0.7535511 0.73550206 0.9924651 1.0919204 -0.78876764 3.2309952 1.4306092 -1.2164563 1.3940092 0.49533373 -0.32969144 -0.871883 -0.82539266 0.710392 -0.37758335 -0.2923468 -2.36797 0.52363914 -0.6884102 1.8520161 -0.071272045 1.3769782 -1.1100932 -1.7591028 0.8145162 0.09875333 -0.021294316 -0.122137316 0.14798833 -0.62766826 -0.049777552 0.62366575 0.9095511 -1.6636122 -0.4860738 0.8597081
1 0.022742663 0.78925776 -0.6161726 -1.3467554 -0.16540766 1.0812976 1.112322 0.1173031 0.40097806 -0.19442591 0.061531205 -0.63926345 0.4611803 -0.53527087 -0.8797438 0.4992864 -0.82245594 1.9006512 -0.89549327 0.4945438 0.7398192 -0.6367165 0.32521588 -0.3944167 -0.9175034 -0.28204194 0.61793905 1.655951 -1.1425508 1.5254468 -0.8163479 -0.8646761 -0.53129554 0.3184452 0.9402691 -1.4488957 -0.29862675 0.5264703 -0.121644855 -0.21957397 0.36635327 -1.5773292 0.0061931303 -0.6973247 0.5709435 0.123103105 -0.8030854 -0.7218519 -1.9120386 -0.17400157 -1.943689 0.2742248 -1.2056223 1.3905143 -0.08061598 0.698445 0.6454177 -0.99670595 1.141604 1.7174983 0.5139866 2.3114548 1.0002112 0.60896987 -0.073935166 0.8083319 1.0972538 -0.10989677 2.1220417 -0.9566328 -0.38085178 -0.21494406 1.0613457 0.53495914 2.7510471 -0.43667668 -0.6360645 1.5985171 0.6586901 1.6598934 -2.310659 -0.4972222 -0.2992604 -0.9694939 -0.26576105 1.4854494 1.7735792 1.0562004 0.7112189 0.7010638 2.4819582 -0.04737376 -0.1578926 -0.8883557 -0.55592865 -0.45823255 -0.07535338 -0.8081776 -0.04766846 0.40406156
2 1.4314127 -0.54355335 0.25538597 -1.5365717 1.1004169 -0.18121946 -1.8094821 1.2196897 1.1369601 1.7212279 0.86450344 0.07896507 -1.4535546 2.310241 -0.7567722 -0.0008253689 1.350492 -0.76516676 0.7294391 0.4199512 -0.6338794 0.42796806 -0.9208637 0.39852297 0.37038398 -1.4400615 0.49496827 0.88229895 0.13777211 -0.8810778 0.5687224 -0.96933705 0.608759 -0.8678434 0.76499593 -0.0421992 -0.46769705 1.3684138 -0.91894245 1.1302638 -0.16581975 -0.4331383 0.17898118 -0.85379475 0.53329355 -0.61082935 -0.23375991 -0.38929382 -0.44815 -2.3592944 1.6994667 0.76183116 -0.7464623 -1.9560384 1.1639636 -0.80656654 -0.8077407 -1.127703 0.13129008 -0.5225841 -0.37507632 1.0636873 1.5317667 0.0926616 -0.9108367 1.3497932 -0.9580814 -0.1371603 -0.3095294 -0.76458675 0.19422327 1.6612244 1.2425811 0.18756053 0.3183888 -2.8078308 -0.17289726 0.49933964 0.12558132 1.5349756 0.48531586 0.27741125 0.055425175 -0.20196041 -2.1042237 -0.17629896 0.14768532 -1.9127092 1.584311 0.41404337 0.502233 0.94470686 -2.4654377 0.19465049 -0.81829107 0.6991665 -0.40158954 -0.94764143 -0.657918 -0.27712205
3 0.080905646 0.81927574 0.32593882 0.09924343 -1.0996989 0.062790275 -0.36766592 -0.8534525 -1.2249732 -0.8877581 -0.69631994 1.032017 0.010372918 -0.2599392 -0.4196461 -0.17659082 1.0337058 1.0028018 0.9972751 0.15385364 -1.0422698 -1.1619397 -0.24957958 0.66315836 -1.48476 0.80653405 0.7101271 -0.24767332 0.838102 0.3143923 0.332756 -0.23155978 0.3444533 0.010227447 0.33311507 0.6548719 -0.6186814 -1.4743543 0.6621112 -0.8234786 -0.35985106 -0.30739442 0.3728429 1.4701682 1.1479126 -1.4255157 0.6836761 0.16378884 -0.26842004 0.15436614 0.34176666 0.36845052 0.0130692 -0.3476455 -0.5932685 0.6559194 -0.49606332 -1.0311421 0.49070737 -1.5523783 -0.79234403 -3.0127854 0.96907216 -0.1213292 0.68845946 1.811633 0.181461 2.3114285 1.7165568 -0.48781824 0.24497086 0.2688756 0.021668611 -0.4749451 -0.14898375 0.44762427 -0.7353242 0.97211814 -0.04809705 0.43650505 -0.78819746 0.9674578 -0.14436741 1.011168 -0.2833207 0.6514596 0.73498935 1.3102565 -0.08495095 -0.9156058 0.74484825 1.4691101 0.82471603 1.2920129 1.180929 -0.21169613 0.31287676 -1.3171024 0.97444147 -0.2537053
4 1.2982837 0.5944251 1.8239574 2.0304015 -1.3410475 0.7233038 -0.1407589 1.8147384 0.10423696 0.45392254 -0.41371837 -1.0632967 -0.27127814 -0.088378616 -0.98765594 -0.22048678 0.1914741 -0.6651832 -0.40044364 1.8136954 -1.34964 0.12930848 0.9574688 1.0886922 -0.22392614 0.4804666 -0.726123 0.20337966 1.9291059 -0.10186054 -0.8866846 0.7219782 0.9292579 -0.05661559 -0.28648973 -1.5102664 0.65969706 0.7771103 -0.21647234 -0.049517542 0.26623222 0.7268724 0.27905256 1.1321955 -1.9339337 -1.5168028 -0.4162929 0.8659914 0.2949593 -0.74963903 0.7379129 -0.63992834 -1.6679015 -0.73933226 -2.3309207 0.92520714 -1.311085 -0.7940953 -0.136194 -0.42355895 0.8863683 0.9440083 0.8475132 -0.7331722 0.86435336 0.017719638 -0.5473389 -0.19495519 0.067052566 0.8830727 -0.055442244 -0.43465182 0.99177116 0.7619566 0.82429713 0.34080192 0.7378022 -0.5685261 -0.24621046 -0.23269346 1.2175974 0.24208435 0.1342358 0.6930451 0.3776426 -1.3497944 -1.4525288 0.6772315 -0.27212918 1.0669483 1.0832396 -1.14885 -0.009733649 -2.3703833 0.44073597 -0.6118938 0.76080155 -1.8446447 1.0538998 1.2440062
5 -0.16866452 1.4293058 -0.11248854 -0.89411557 0.21780978 0.23262838 0.44442615 1.4044818 -0.4531984 -1.1395358 -1.673234 0.04900575 -1.2343483 0.6330295 -1.1361425 0.49687412 1.1017517 0.2800045 -2.03398 -0.11201166 1.7963216 -0.44861498 -0.91581154 -1.0147699 -0.10452398 -0.23173551 -1.2953476 1.3273132 -0.43411246 1.6391535 -2.309956 0.68808085 0.77237254 -0.57156336 -0.3111497 -1.3188869 0.5770352 0.5424273 -0.16414951 1.276182 0.40320072 -0.111296244 0.100749 0.27290174 -0.13660277 1.409366 0.1609709 3.366831 1.563822 -0.1634837 0.00841792 -0.011025764 -0.40580836 0.008783525 -0.3271096 -0.7944415 1.0588067 -0.44827312 0.51440686 -0.6789618 -1.3644525 1.1225921 -2.5860593 1.5163989 -2.3507535 0.3312932 1.3549864 0.8481467 1.0159868 1.6293685 -0.43862838 -0.7526049 0.9682582 -0.8643 -1.2632526 -0.48361087 -0.079416804 -0.4978939 -0.87363565 -0.7614811 1.9166154 0.3084589 -0.33571514 0.9613989 1.1681064 -0.01807794 0.97258097 -0.9539452 -0.7324074 -0.47130704 0.6564945 0.19469091 -0.39003688 -0.9623419 0.7960102 -0.47143877 0.6456752 1.2825317 -2.5386763 0.82409275
6 1.8235669 -0.41608167 0.9845246 1.4830455 -0.027564658 1.2737261 0.13903596 -1.0782762 -0.65437496 0.70212865 -0.6746127 0.7731889 0.8140193 -0.08729841 0.09410227 1.8671322 -0.2773706 1.0484104 0.32010373 -0.7599581 1.0634993 2.1519105 2.300865 0.94763637 -0.20779872 0.093457244 -0.9493492 -0.62661916 0.52952427 0.98970246 -0.15555766 -0.91396993 1.8028351 0.8481919 -0.778594 1.3060626 1.2507341 -0.200636 -0.3130612 1.3130319 2.129768 -0.93178195 0.98726124 1.5883512 0.70785266 -0.6033415 -0.18374445 -0.98745316 -1.8835771 1.0159113 0.18716685 0.094727516 -0.03412292 0.032738127 -0.6188882 -2.2930946 -0.061330553 0.9782476 -0.90165627 -0.37101957 0.7863749 -0.8899509 -0.798491 -1.2752202 -0.5810485 0.8150511 -0.2043474 -0.44561252 1.0011138 -0.14229335 -0.3726072 1.7687081 0.014748454 0.54541713 -0.44714633 -0.36076736 -0.8374134 0.77931833 0.3649222 -0.7244487 0.39350364 -0.3097741 -0.5449516 0.18826301 1.9856483 0.4806675 -0.8401573 -0.49318472 1.1671445 -1.3324233 0.2805194 -1.2846154 1.3810198 -2.294695 1.0170825 2.257967 0.4506181 -0.37435663 -0.8922295 -0.26984733
7 0.9875071 0.039119992 0.31054294 -0.14671408 -0.6506184 -1.4078072 -0.12582715 0.027296407 0.47351137 -0.33232093 2.6160803 1.2202191 1.898066 1.0667104 0.38198373 -0.8187652 -0.80033875 0.7319723 0.001997691 0.66363287 1.0589882 0.4540479 -0.2373966 -0.5034053 0.45672497 0.14436975 -0.13896255 -0.38907266 0.79730743 1.2443068 1.1345991 -0.40246204 0.8497115 -0.22066587 1.6190227 0.10284728 -0.29416558 1.8734869 1.3127681 -3.0552173 -1.0452446 -0.5148724 -1.1109746 -1.009503 0.118371375 1.0249245 0.36547086 -0.87757045 1.7260954 -0.52008307 1.1874071 0.072800085 -0.16629682 0.10136352 1.2907776 -0.36669144 0.7576135 -0.50852954 -0.46787402 0.8887412 0.32540226 0.1667874 -0.990375 -0.72208023 1.370481 0.28657523 -1.408175 0.1915799 -2.0160434 1.5743395 -2.5914886 -0.25658542 -1.0108478 -1.7270392 0.8057411 -0.8057427 -1.2321575 -0.22036797 -0.18651743 -1.9402839 -0.09018537 1.0737284 -0.781106 -0.47783774 -1.9650908 -0.7132223 1.5381126 0.82946044 -0.11630283 -0.41044143 1.5858586 0.053867787 0.32444322 0.018886708 0.77828705 -0.7559153 0.60964286 0.9194987 -1.0751185 -2.5218625
8 0.86450416 2.5454185 1.057865 1.347533 -0.70905185 -2.2616217 -0.95542836 -0.54615533 0.52239245 -1.3276367 1.0512176 0.44680536 2.1086018 0.9312282 1.9389485 1.7519134 -1.6393195 1.0343312 0.95480055 1.4018301 -0.0040314607 0.21252966 -0.21901597 -1.033646 -0.63355476 0.28075895 0.003073764 -0.823625 -0.3561927 0.44515297 0.30738813 -1.2972946 0.4119804 -0.46360728 -0.80333436 -0.10432072 0.0145363845 -0.42132565 0.4852429 1.0298985 2.322664 0.24272138 0.4045278 0.14079855 0.20170513 -0.62449646 0.48268548 0.67789555 -1.0315212 0.19303559 0.3430237 -0.36398575 -0.17288339 -0.03363906 -1.2869836 -0.13766737 0.40524122 -0.5689777 -0.8791872 0.43511128 -1.0571284 -1.1246786 -0.30995142 2.6621587 0.8842933 0.6374754 0.38866827 -0.2106074 -0.06114357 -0.94100934 1.3094758 -1.1303254 -1.0879756 -0.9313073 0.38288164 -1.3899453 -0.024829557 -0.7233162 1.1887732 0.010801951 -0.82448 -0.7428002 -1.1342138 1.71323 1.9595362 -0.08094721 0.29225054 -1.1784462 0.80632055 -0.76974326 -1.4274063 -0.14341068 1.4893228 -0.20667976 0.45423722 0.7555787 0.53903925 0.7958962 0.39463323 0.8843129
9 0.46852472 0.7582743 -0.23279037 -1.3055118 -0.9261639 -1.1113551 0.7012189 -0.40065807 0.661631 0.13940272 0.15191121 -0.2414524 1.5916446 0.66637677 -0.410522 0.87890524 0.4017403 0.2413843 -1.2544581 0.76609296 2.1760254 1.0886803 0.20482118 0.8892148 1.8852125 1.3175793 -2.000843 -2.4235923 0.9946904 1.9942037 -0.8584334 -0.5036953 0.5482691 -0.48713624 1.2872683 -1.695026 -0.7644938 0.94547564 1.8807192 -0.95119387 -0.1389594 0.1819545 -1.5967959 1.0815367 0.5457191 -1.6526182 -0.4381939 -0.6938832 0.14042526 -1.3485957 0.23898154 0.7793608 -1.4059391 -0.9284036 1.0899222 0.32630518 -1.3037857 0.48005325 0.44942746 -0.8157689 0.19139454 0.31630886 1.1545907 -2.1523602 1.3362097 1.6190295 -0.61172837 0.26803422 -1.1165507 -1.4060614 -0.30205998 -0.5169209 0.059700243 0.05600611 1.1138054 -0.08112901 0.7696421 -0.3790843 -1.07831 -0.9899927 -0.69646186 -0.018807223 -0.12195004 0.9319641 0.6224937 -0.41777283 -0.8905347 0.33123142 0.5362552 0.5917008 1.7789209 1.0066963 -1.444102 -1.124947 -2.7119663 -2.2688596 -0.3888474 -0.7563845 -0.015979953 -0.44083866
10 1.2357903 1.9663383 1.098525 1.1936628 0.19931294 -0.2804064 -0.09155968 0.5838735 -0.17831595 0.82186407 1.4430805 -0.08972757 -1.1203079 0.86335206 -0.25979513 -1.7108364 0.85107654 0.442108 0.061304796 -0.8101246 1.2315468 0.98132354 -0.653779 0.65864575 0.47266892 1.6128697 1.2585813 0.36470988 -0.29771605 -1.6672362 0.3563307 0.044539124 -0.16895299 0.13142365 1.0556012 1.5285515 -0.4314823 -0.7222928 0.09120352 -1.8179562 -0.06095947 -1.0398756 0.043444026 0.51507497 0.3618861 -0.02266837 -0.46945906 0.534593 0.035504386 0.627421 0.06785067 -0.004857667 0.5415008 -1.9674268 1.1462111 -0.8258779 -0.7749518 0.76659447 -0.59935486 -1.9902785 1.4632335 -0.6504564 0.61192614 -0.99520636 0.83895063 0.3474376 -0.2511499 0.0398738 -0.68576914 -1.2452277 0.3139539 0.19517994 0.7420526 0.29295054 -0.3541141 -2.5886388 -2.5690475 0.39035553 0.6265917 -1.3316908 -0.9672277 -0.6850508 -0.81387585 -2.1388943 -1.5786685 0.42774513 -2.0046017 -1.6550407 -0.96157384 0.11613045 0.19325949 0.7747683 0.924331 -1.4151709 0.4023344 -0.16959043 -1.048112 -0.4872652 0.16970062 -0.25514007
11 0.20491154 -1.0713286 1.0625862 -0.6143907 0.43753415 -0.2958254 -0.0035561325 1.334817 0.90484065 1.652045 1.3734446 -1.4491543 -0.17259136 0.2903258 0.2033396 0.08524279 -0.2501399 0.9418644 -0.90082395 0.15015382 -0.20450535 1.2901369 1.3049388 -0.44013315 0.25959167 0.1162664 -1.4233693 2.2851253 -0.3920642 -0.1485328 0.90347093 0.5936282 1.7701957 -2.6404166 -2.316627 -0.7465354 1.3568007 -0.43564904 1.2797197 -0.49228644 0.2907833 -2.540875 -0.31389487 0.4869968 1.0326371 0.42733234 -0.9705126 1.4751095 -1.6629144 0.9937363 0.8909338 1.1413311 0.21347795 0.75786716 1.203125 0.99881345 -0.9094045 0.601005 1.4423792 -0.18113291 -1.0469505 0.12200331 1.0531367 0.023371585 1.8193353 0.5091942 1.7325486 -1.1868436 2.3645294 -0.40828457 -0.09675652 1.1101704 1.2491362 -0.27018952 0.024112752 2.6954236 0.56463534 -1.9645855 1.2931782 -0.41754976 -0.11245234 -0.74238497 0.185314 0.22483128 -0.30334747 -0.42470315 1.0048825 -1.2271235 0.48336837 -0.11085231 -1.2869279 -0.6600554 -0.73046285 -0.3248449 -1.0231439 -1.5824194 -0.36589548 0.49133953 -1.1691641 -1.9280012
12 -0.5797536 0.6615664 -0.46438038 -0.5901022 0.9187871 -0.04811812 1.0799708 0.5591142 0.44757167 1.5724874 0.8946154 1.2794702 1.7436775 0.3793724 1.0761071 -0.55508184 -1.3171879 1.7390015 0.62332 1.0021777 -2.224972 0.11349858 -0.31673777 0.18344465 0.7920461 1.0132203 -1.6066803 1.0300652 1.4564804 0.92234397 -0.1585724 -1.5474876 -0.05924938 -0.35004592 0.5497785 -0.28449014 2.274982 -0.6242974 -0.17319128 0.009726358 0.36362648 0.7460976 -1.1995467 0.6052901 0.90218127 -0.35300043 1.6259652 0.24532865 -1.2287205 -1.51974 -0.51252663 -1.038874 0.28053847 0.37555143 0.77713716 1.8562826 0.44887933 1.0357059 -0.81623226 -1.5134659 0.0032672065 -0.4412779 -0.32218468 0.36213428 0.33097976 -0.43448284 -0.1949831 -0.59707403 0.028455714 0.55901754 0.6410516 0.60964406 -1.0695062 -0.16632108 -0.13523427 1.7006727 -0.22762127 -0.1302883 -1.8611722 -0.0065702796 -0.7703137 0.95545924 0.44739738 1.4857702 0.2615734 -0.5914318 0.111558005 -2.5335608 0.31528932 0.07982094 0.25267676 1.0165844 -0.45786563 -1.0034931 -0.1012596 0.90889287 0.0595915 -1.3692139 -0.505541 -1.2885125
13 -0.8033836 1.1703923 -1.029865 -1.2323077 0.8976703 -0.6894494 -1.1827232 0.49522203 1.5835435 -0.21324803 -0.1747774 -0.14626187 0.9450894 -0.04975434 2.137632 0.2225785 -0.62407815 0.14406346 -0.32784593 -0.9642932 -0.75857455 -0.6811818 0.62819177 0.18065126 0.96019995 -0.6163233 0.34938696 0.22755796 -0.6998071 0.01857229 -1.2673652 -0.340666 0.49671763 0.8094948 -2.0930882 -1.5338256 -0.24061143 0.5331346 -0.6106712 1.2453887 -1.010514 0.047290802 -1.0749326 1.4142576 0.80784 -0.77901727 -0.7864118 2.5361602 -0.50684506 0.57413626 -0.20334257 -1.0384135 -0.914477 1.9275975 0.8710149 -0.59675425 0.38115126 2.496312 -0.89588034 0.2058757 0.09897343 -0.7889741 0.3341725 -0.61208016 -0.7603381 1.2849503 0.811252 -1.3304485 2.0061898 1.0575304 -0.47546563 0.93087757 2.165199 2.319523 1.0120376 0.5041359 0.29456154 0.01150283 -1.7035457 -0.13718973 2.064242 -0.78617895 1.4023796 -1.7808272 -1.9141691 1.5779235 -0.23087494 -0.15094121 0.8815504 -1.1184045 -1.2440053 -0.9130848 -0.27527073 -1.8131477 0.68733805 -0.48747972 0.65252817 -0.06638174 1.2894555 -0.036471773
14 -1.0733619 -0.31639042 -0.7067578 0.7085744 1.0279454 -1.053288 0.53311735 0.5885695 0.42714578 -1.1734555 0.5575314 -0.24051341 0.51710945 -0.026464164 0.078926206 -1.4390937 -0.49803913 -0.3285111 0.6205362 0.9725344 -0.9089984 -0.9440376 1.048098 0.24152425 -2.0774188 1.3486326 -1.1675543 0.14646752 0.09684401 0.13823299 1.0934069 1.9074539 2.247067 -1.4287484 0.8303412 1.1211785 -0.92010176 0.4336901 -0.4838907 -0.5200903 -1.1270238 0.72863007 -0.5977022 0.98634607 0.2925003 0.4498574 -0.9371065 0.35147485 -1.2344935 0.19498092 1.2398705 0.7701992 -0.7991215 -0.63587636 0.4317751 1.9801317 -0.09274391 0.93161225 -1.0236179 -0.21297206 -0.6570991 0.4286784 0.5458293 -1.6725864 1.2975419 0.70315653 0.9072994 0.97522753 1.5229396 0.13826658 -1.8525213 -0.11305528 1.9602498 -1.1039788 -1.0476588 0.37323937 1.1294142 -0.12311553 -0.29177552 -0.9265331 -0.822817 0.6194244 0.19436568 -0.42716053 0.51068044 -1.2474241 0.02207238 1.1548172 -0.87400687 0.38995552 0.89350146 -0.39509305 -0.41294238 -1.2111815 0.2891434 0.09479881 0.3938341 -1.6936944 -0.75178087 -1.8070431
15 -0.113052264 -1.8877043 -2.4836156 1.5517114 1.8128003 -0.35490766 -0.12709925 0.48811978 2.517407 -0.26634273 -0.6145405 1.3115048 -1.263388 0.1843812 0.78553003 -0.24084127 -0.5657313 -1.5994668 -0.066307016 0.043723732 0.29761398 -1.8938004 0.14345486 -1.4504294 1.4562091 0.47304493 0.6117009 0.29928052 -0.6159416 0.8050293 -0.39520475 -0.87283295 -0.7022505 -0.66193885 -1.9489903 -1.3364396 -2.6046054 0.45479676 0.6360568 -1.1321608 -0.16815123 -1.6135466 -0.919973 -0.38396177 -0.19724669 -0.33989954 -0.25362825 0.8097233 0.12808767 -0.117899634 -0.9680487 -2.6262226 0.86100787 0.11462965 -0.16842857 -0.7264105 -0.77890337 0.79993135 -1.0460048 -0.2947179 0.680329 0.26369938 1.0389158 0.3395961 -0.018213622 0.18576896 0.49224156 0.29962763 -1.0900353 -1.5639095 -1.6139905 0.2747859 -0.9151046 -0.16660316 -0.2533305 -0.56607276 -0.1791175 0.3821705 -0.7494689 1.5186234 -0.39497942 -1.4812653 0.28504747 0.026463171 -1.4796994 -0.35170263 -0.031726167 -2.1964438 -0.0452242 0.7973013 1.9647336 -0.05201821 0.5007893 -1.6322914 0.6308592 -0.8820796 -2.1288571 -1.181603 -1.2280457 -1.2772198
16 -0.5059564 0.9609751 2.38649 -0.71440333 0.81942135 0.26980695 -0.65694076 -0.76059955 -0.8371512 -0.4755649 0.3010967 0.5496367 -0.06702776 -1.3585298 -1.1925284 0.42382285 -1.625353 -0.52425957 -0.7682571 1.123018 0.30314517 1.1309764 0.073488 0.61319625 0.60991824 -0.09203174 -0.16756913 0.44189176 -1.2081493 -0.24794465 -0.11447535 -0.22024643 -0.7642026 -0.16012922 1.1922426 -1.1335651 0.41078812 -0.48987624 1.5675639 0.6616688 1.4771986 -1.3778827 -0.58738136 0.74081624 0.9048085 0.17509988 0.15529084 1.0985858 0.12559788 0.40225798 0.8764031 -0.43425444 0.8329388 0.70242834 1.1017777 3.6561 -0.5741064 -1.2721574 -1.2044485 0.62303036 -0.4875322 0.52441746 -0.11239532 0.122970805 0.374712 0.13925 -1.0463629 0.4203954 -0.20311894 2.7684507 -0.59129435 1.2592617 -0.089182526 -0.6533386 -0.5794584 0.364237 -0.8826225 -0.67549425 -0.2420417 -0.611767 0.5202634 -0.94537544 0.9894658 -0.8308803 -0.62123907 0.64836705 -0.13447952 -1.0245637 1.3095584 2.5564506 0.89678884 2.3379397 -0.17550671 0.5666102 -1.3203555 -0.7371908 -0.19721223 0.00073921424 -0.9883289 -0.06225225
17 -0.17137079 -0.75622576 1.0403613 0.026714893 -0.0037779908 -0.8593253 -0.58323324 0.18451048 -2.1508 -0.60811555 0.49236614 -0.3295113 0.16071141 0.07312491 -1.1752244 0.30170062 0.15181501 -0.8065145 -1.2960931 -0.36095083 0.76702285 1.0778415 0.727186 1.3269337 -0.029234705 -0.04727678 0.34808886 1.092714 1.246243 0.7033677 -0.0729739 0.132284 0.1578669 -1.7358689 -0.4654104 -0.5310413 0.85293984 0.06221311 -0.020560915 0.78847754 -1.4376131 0.71520954 1.5336442 1.301674 -0.8552298 1.0384393 1.2424569 -0.7020509 -0.4343229 -0.43028784 0.3104933 -0.09001469 -1.747936 -0.058218993 0.73514986 -1.5125431 -0.22647995 -0.021556113 -0.010803266 0.41649604 0.654706 1.3605255 1.2491207 -0.42017165 -0.0138176 0.7806492 0.92433494 -1.6301229 0.59009576 -0.44138736 1.7330756 -0.23332748 -0.12450718 -0.62786645 -0.17866932 1.457166 1.3235989 0.27930924 0.067676194 -1.5592612 -1.0614535 0.013632605 -0.26996616 0.58513725 0.32162517 0.46820918 0.29146212 -0.87312824 0.30203423 0.8023004 1.1451086 0.08569153 -0.5071334 -0.66112614 1.3494694 0.6986306 1.4750031 0.25423557 -0.73747855 0.52268535
18 -1.3271892 -2.357721 0.23781982 -0.9414511 0.7775786 0.49315923 0.083480075 0.28617713 -0.96864045 -0.2629127 0.7165448 0.14073242 -0.6289821 -0.6444784 0.120708935 0.81525576 -0.5187502 0.80090225 -1.0503194 -0.12768033 1.0239714 0.3666726 0.93659085 -0.22849797 0.038319483 0.44273132 0.17495637 -0.3987438 1.3016871 1.4486037 0.114335336 -2.075138 -0.1007219 -0.84242874 0.2624418 0.70068705 -1.2442721 0.82391137 -0.09460425 0.13090916 0.45469725 0.81902874 1.9797493 1.2405661 0.085545994 1.1740274 1.1255572 0.57671595 -0.89322793 -0.11968014 -0.36956036 0.76260614 0.87609035 -0.2611221 1.3580985 0.43698213 1.1167096 -0.1708223 1.4341576 1.6307824 -0.90528625 -1.4821655 -0.012363424 -1.816008 1.228594 0.002180516 0.36570674 -0.8425885 -0.7695286 1.3726689 -1.0939159 -0.6747717 1.0093894 -0.21154618 -0.79902375 1.053878 1.4873146 -0.518441 0.5588253 0.79230696 -1.0598714 -0.5631776 -1.0709875 -0.1211318 -1.2356144 -1.1697882 -0.34057295 -0.8450771 -0.31792796 -0.54294664 1.0926893 0.17111045 -1.4632678 0.44606403 -0.7769051 -0.5032958 -0.5309811 2.271387 -3.446913 0.9039012
19 -2.0559916 -0.71953344 1.3698374 1.454505 -0.5784707 0.35073894 1.6604089 0.8285038 0.988771 0.83985776 -1.59438 0.8780606 -0.014092556 -1.5349224 1.1493388 0.32069185 0.2120478 0.61417913 -0.25541347 -0.7168926 0.016802646 -0.2118744 0.5590581 -0.24136487 0.6610686 -0.8795812 1.163359 -0.15135266 1.4256146 0.054651577 -1.0122412 1.3402758 1.5627024 0.22821018 -1.1454774 -0.53573555 1.0901537 -0.11194974 0.0057752347 1.0611539 -0.0951822 -0.43124425 -0.5760667 -1.1069258 -0.84590894 -0.2485906 0.20292948 -0.59648216 -0.257188 -0.8791483 -1.2833191 -1.2425098 -0.5918933 0.9642916 1.1821973 0.40984786 0.45143265 -0.25855663 -0.94655204 0.6683017 0.34937227 1.033984 -0.5178483 -0.16146757 -0.5476189 0.13393752 -0.3634443 1.3451444 0.3276573 0.49843705 0.20524037 -0.16503416 1.6437649 -1.7278799 -0.6253302 0.9054633 -0.8020283 0.29284126 -0.8240846 0.61688006 -1.5950911 1.032543 0.064547695 0.046700817 -1.8026444 -0.71898735 -0.89261943 1.833753 -0.21105888 0.6882431 -0.5852706 1.045858 -1.1377468 -0.38746926 -0.024548326 1.0221527 0.8086883 -0.116824344 0.07540827 0.17958549
20 0.73708874 0.3605864 -0.3534246 1.5658113 0.36947018 -1.6523087 -1.2271348 -0.7833157 -0.99254304 -0.5970611 0.90625536 0.9264596 -0.8425031 -1.7432008 0.7563835 -1.2230563 0.44272155 0.6848341 2.7496083 -0.27433887 0.644471 -0.37423962 1.3098441 0.5101816 0.9401677 -0.09655054 0.29632154 0.11997891 -0.6054278 0.62350684 1.3543545 -1.0376062 -0.42444262 0.30497012 -0.27623585 0.66027564 -0.56781447 -0.5782613 -0.25589556 -0.5475326 2.2856367 -0.15871562 -0.30929628 -1.631181 -1.5299817 0.48555213 -0.9710483 -0.08912399 -0.9509706 -1.4398735 -0.052497726 0.34486723 -1.0933837 0.79612637 0.75368524 -0.5413857 -0.981303 0.07760787 -0.58704084 -2.2569504 -0.6034968 -0.996762 -0.5556293 -1.0185661 -0.12937808 0.57114416 -0.5650562 0.22891425 -1.6189835 0.43623522 1.3492272 -0.06657903 -0.022051591 1.2459964 0.6237798 0.78783315 0.7990934 -0.748543 0.25827527 -0.17620383 1.5031277 2.5695302 -0.120042965 -2.8698514 -0.3842174 1.447692 0.20361966 -1.0687099 1.7296839 -1.0590885 -0.97983634 0.8093264 -0.8780372 -1.0115274 -1.2836659 0.3180601 0.48843983 1.483488 0.018105462 -2.0370681
21 1.2377754 0.9863564 0.5004875 0.23055716 -0.7545787 1.4494796 0.63971674 1.2792912 -0.80875444 -0.6057903 -1.6191478 -0.71322393 1.4828796 0.6260025 0.2657193 -0.5186199 -0.62059826 -1.1912367 -1.2057794 0.34952506 0.6944022 -0.21113265 0.7837186 -0.59551567 1.9539592 -1.3403608 0.96899956 0.2920249 -0.5512999 -0.48332888 -0.5083073 1.3426456 1.8608186 1.5867133 0.88918275 0.08271261 0.78012145 -0.5893933 1.5233486 0.56085664 -1.3894956 -0.11714805 -1.072599 -3.6379282 0.54528 -0.41351512 -0.93530464 -1.1294502 -0.46018323 0.8199172 -0.98474836 -0.5519114 -1.1954336 -1.094222 -2.061802 -0.051578887 -0.30014887 0.8556995 -1.1423433 1.2581457 -0.5066063 -1.6119614 -1.393815 -1.5913152 0.42101336 -0.20052993 1.135519 -0.51429105 -0.9518622 0.3031483 -0.8313379 -0.55992687 -0.20272686 0.1824751 0.8364052 1.261528 0.97245574 -0.44601592 -1.8447587 -0.45822415 1.5594205 -1.0567511 -0.9254243 0.7611946 -0.13322943 -0.40987882 0.8745757 0.99470824 0.14776087 0.33758283 0.5910743 1.2624346 0.7369457 0.80262166 1.1613129 0.14435646 -1.5636716 1.8169881 -0.1910489 -0.053904437
22 1.5408491 -0.69422525 -1.2251238 -0.76351917 -0.66278195 1.7409656 0.53521574 -0.057068232 -1.3311013 0.8156007 0.70868075 1.1298668 -0.12630756 0.20283727 -2.3611898 -0.9261748 0.7658065 -2.6215734 1.0088596 0.7861835 -0.49483868 -0.55902207 0.23733352 -1.6474458 -0.3991754 -0.36549488 -0.07560849 0.092256956 -0.5219024 -0.08879749 -0.8852094 0.016829321 0.25894848 0.4617328 -0.73899174 1.296095 0.8702614 -0.74264807 -1.4206581 0.4486831 -0.42490768 0.9141693 1.7279323 -0.7779804 -0.54848427 -2.2498949 1.211701 0.3492313 -0.85109997 0.026002621 -0.8160458 -0.6575671 -0.25313607 -0.5241588 0.8613211 1.2449373 0.6225898 -1.1141024 -0.9930284 -1.946293 -0.030756863 -1.1928338 1.3641946 1.6093585 1.023823 1.430662 2.1567516 -0.6874368 0.14900215 -0.19326077 -0.31023115 -0.048310664 2.067551 1.1546407 1.618198 1.1135623 1.30285 0.32986516 -1.171087 -0.95130384 -0.22679168 0.5779345 0.13827397 0.003354655 2.072254 -1.0110208 0.0729396 0.9129524 -0.7059198 0.6153931 0.42554894 -0.23508409 1.5981213 0.9197305 -0.9161403 -1.1733007 0.5779734 -0.78381425 -0.26219818 1.0498706
23 2.3316593 0.07033256 -0.2361384 0.33687365 0.5130244 1.5847118 -0.3625519 0.10430647 -0.9327683 -0.47549596 0.65992004 -1.0843095 -1.1798582 -1.6103338 -2.7384512 -0.84927166 -0.0881433 0.5047367 1.7074449 -0.38469878 -0.7020264 1.210004 -0.113008946 -0.56704843 -2.4874873 -0.77554405 -0.48372978 1.112657 -0.083091415 -0.12864232 -0.4160969 -1.0042605 -1.5100305 0.16388549 0.7746491 0.52545184 -0.10235022 1.5936338 0.20633994 0.7899021 0.38751715 1.8036742 -1.7892312 0.16218016 0.0021975266 -0.6500136 -1.9188846 -0.06642781 -0.24472357 0.41550615 -0.25527233 -0.7286932 0.007395449 1.5113508 -1.6046189 0.19705847 0.23810527 0.13706928 0.30567914 0.9364002 0.33569083 -2.3952327 1.1703458 -2.1160052 -1.1587257 -0.43347502 0.23367357 0.9992814 -0.00010573812 -1.6613175 0.7089164 0.62520385 -0.4126363 1.1820643 0.47410658 -1.0325782 0.2599356 -0.32540175 0.06635337 -0.50143373 0.5034515 -0.8319289 0.098225065 1.1732106 -0.5393636 0.5896826 -1.1348457 0.9665886 1.4235641 0.58617693 0.9527019 -0.66015667 0.0046628984 -1.5412287 -1.0880156 0.7759456 0.39732155 1.6742045 0.35558742 1.0248761
24 -0.81096274 -0.7374512 0.8572547 0.93298155 0.34023386 -1.0069857 -0.1617902 -0.37792215 -0.20749965 0.22316591 1.9741147 0.42319798 -0.7791332 -1.2184054 -0.34859636 -1.3996077 1.1417854 0.7107947 -1.0219388 -2.1851742 0.11719748 -0.8392818 -0.0960085 -0.79511064 -0.5128732 0.6199004 -0.4508639 -0.8076819 -1.0941578 1.2617552 0.41292164 0.19094774 -0.6535591 1.6601768 -1.6149442 -0.25800708 -0.57342315 -1.2957124 -0.7281036 -1.8752823 -0.078082405 -0.5807849 -0.29380885 1.1943759 -0.83261085 -1.0675976 -1.3496414 -1.6132708 -0.15022942 -0.9559811 1.5561451 -1.4279866 -1.4936123 1.1786748 0.30374408 1.1390625 -0.22798857 0.9034718 -1.3893466 -0.57364154 -1.7782371 0.17349483 -0.1871798 0.00882626 0.55186963 0.0062247356 -1.7915443 -0.8081176 -1.1753337 -0.16078414 -1.2162057 1.2311898 0.030575704 0.2772092 -0.8759612 -0.05207773 -0.4520845 -0.4043975 0.46096846 0.41082096 1.1872472 0.2955161 1.2309687 -0.19756283 -1.3744546 -2.9425323 0.6215804 -0.74661887 -1.1181352 -0.8988999 -0.20158496 -0.044673804 1.6266117 -0.16568995 -0.10563112 -0.5914904 -0.3656489 -0.34614393 -0.7145442 -0.7663964
25 0.36392975 0.33842695 -1.0876114 1.3258318 -1.3722157 1.0448096 -0.06886108 -0.3788743 2.2929354 -1.486279 0.4240547 -0.7711176 -0.6869577 0.9281663 -0.49060908 -0.6349298 -1.3095334 -0.370843 -0.21257493 0.599365 -1.7729349 -0.78984934 0.8431882 -0.6598183 0.10866502 -1.4128461 1.0383617 -0.6494966 -1.1469777 -0.9706804 1.0733912 -0.21308033 0.118719354 -1.5391942 1.37774 0.30999663 -1.6589102 -1.1433209 0.3458382 1.7140334 -0.7217267 1.2960728 0.09257661 0.39688557 2.2500381 -1.6106368 0.50669616 -1.5322928 -0.587337 0.09238313 3.2519472 -0.44704214 0.06808624 -1.4686433 -0.8250076 -2.1612225 2.2923498 0.64353853 0.21775585 -2.408301 -0.24127445 -1.310466 0.16250545 0.28964558 -0.92869353 -0.23205303 -0.1248339 -0.18304472 -0.027119134 -1.26233 -0.65113074 0.11088954 -0.50227296 -0.7371578 0.61182904 0.04035668 0.058840554 0.26227596 1.1018894 -0.043678224 0.061663058 0.76302713 1.6690733 1.7311493 1.4960611 -1.947977 0.5001157 -1.1310833 -0.9297922 -1.399518 0.3726906 -0.17892076 -0.7010371 0.2812839 2.1415422 -0.15077013 0.23940521 0.43322822 1.1840597 -0.60015166
26 -0.94929934 -0.49943948 1.0674948 -1.9133478 -1.8528377 -1.8257741 -0.17238353 -0.69959134 0.84172684 -0.1026625 -0.21132734 -1.1048778 -0.80205864 -0.89363915 -0.69338155 0.27102652 -0.66090184 0.13066898 -0.36794218 -0.856186 0.32305336 -0.2904469 0.28523088 -1.1781595 0.7268882 2.3839474 0.7981516 -0.9241565 -0.21104759 -0.83845013 -1.8220768 1.5742141 -1.8531357 0.82488835 0.54810935 1.291534 0.6532247 0.8096446 0.74242246 0.6537164 -1.3784279 -0.6970918 -1.0715106 -0.41104424 -1.102139 -0.79517794 -0.11727047 -1.4586686 -1.5026779 1.251682 -1.1096897 -2.320909 0.36790705 0.14939436 0.4263577 0.7955466 -1.1312196 1.5987363 -0.8189468 -0.5784211 -0.08963247 -1.3140358 -0.20981352 0.38313144 -1.6603897 -0.8276891 1.4620725 1.363351 -1.0340728 -0.6355171 -1.3952278 -1.1848426 0.8089962 2.2187831 -0.22236328 -0.7770897 1.0745488 -0.30534145 2.0101266 0.26274404 0.330713 0.7801266 -1.4339572 2.0049233 -0.8451091 0.41747558 3.46291e-05 0.52613574 -0.098229915 2.1108449 -0.22234035 0.34333578 -0.10535418 -0.3505394 -0.8226432 -1.9960955 0.5597193 0.8450072 0.21265617 0.25607666
27 -1.2455025 -0.24018034 0.764132 0.85674137 -1.0532058 -0.9991456 1.0257069 0.1793651 0.0595034 -0.31495008 2.6517053 -0.6708161 -0.42707843 0.22924651 -0.6641869 -0.27545893 0.36314774 -0.17825988 -1.4859401 0.81374913 -1.485664 -1.275552 0.67699033 -1.0293993 -1.1513562 0.43892193 0.59952533 -0.055763192 0.26594487 -1.25893 -1.2125919 -0.38889232 0.1271442 -0.10708398 -1.2017033 -0.0032890674 0.12378188 1.090634 0.1848612 0.8183495 0.05275747 0.92928594 -1.5144739 -1.8495219 -0.6544976 -0.30410644 -2.3395405 0.70172346 0.57507914 -2.033915 -0.9374321 0.22426693 0.088645026 0.3508827 0.035517894 -0.98454124 1.7691375 -1.1682751 0.12487648 -0.6953042 1.1906521 1.6480559 0.29560766 -0.6273505 0.2806261 -0.8372298 -0.97578835 2.0174813 0.7334966 0.43907553 0.3399477 -0.353282 2.0381308 1.6844686 0.2416416 -1.2074033 0.76750606 -1.3312231 -0.10932863 0.9243546 0.48031428 -0.37534353 -0.2830635 3.2361882 -0.15081348 -0.59979886 -1.4833066 -0.91540873 -0.3722051 1.0947248 0.7897747 1.2040924 1.4772005 -0.8126816 -0.6298738 0.6289963 0.78627956 -0.0063740886 0.21497625 2.4725542
28 -0.13933143 -0.27337134 -0.022891108 0.17829703 -0.097256996 1.3550835 -1.3239257 1.0605408 -1.5616179 -0.0013775473 -0.45769688 0.69652766 -0.6858691 -0.56761867 0.034188423 0.053175263 -0.2722528 0.9883659 0.3180715 0.12422853 0.7525419 1.4472542 1.1794488 2.3939571 1.6792182 -0.95373684 0.27948278 -0.59750164 -0.49034715 0.4617029 -0.6397971 0.87913036 0.46444026 -1.1130831 -1.8798501 -0.36290002 -0.53153616 1.8188316 -0.41873556 -0.071115576 -0.36669108 1.0876287 0.2793567 0.6705923 0.18608844 0.8555876 -0.5777701 -0.37280273 -0.70621514 0.09157048 -0.96103865 0.2458291 0.4121161 -1.617362 -1.7932482 0.25592068 0.9065326 -0.3655118 1.2630471 -2.1633768 -0.7741707 -0.8900248 -0.7241802 -0.012241205 -0.65292543 0.63800466 0.8702318 -1.1833239 -0.85565794 -0.8157674 -1.0251808 -1.6627847 -1.2451658 -0.2520709 0.08810894 -0.89694726 -0.006692587 -1.7914101 -0.8455718 0.084435284 0.5350246 0.78849435 0.6482736 -0.06730424 -0.9150251 -0.18617642 -0.0076394184 -1.0654863 -0.18451078 -0.853935 0.24498385 0.9869388 1.9418104 1.0997145 0.5114996 -1.1001658 -1.9652007 -0.06361496 0.11974353 0.5309313
29 -2.886317 -0.9180299 0.07661964 -0.17373423 -0.36024666 0.23971665 0.062939055 0.81481904 0.34625852 -1.504488 0.03891164 -1.0919299 0.061517626 -1.3177956 0.8327393 -0.5285909 -0.39606297 -0.42578703 -0.6196814 -0.6875656 1.1249647 -1.571337 0.31572172 2.6032698 1.5117515 -0.8105053 0.46845916 -1.0045207 -1.8943005 -1.0169013 0.105291665 -0.26389146 -0.22284774 0.8571605 0.07324822 0.48269007 0.6199511 -0.2760619 0.2088128 -0.9521546 0.19572753 0.71544564 1.2574345 0.60156196 0.60266405 1.9179074 0.4036926 -0.36931378 0.30679956 0.42781126 -1.241147 -1.2808293 0.5278205 -1.0329405 -0.63233405 1.5019288 -0.84807014 1.7186964 0.44531918 -0.5405337 0.25496617 -0.4090514 1.6831474 0.124020495 -0.5220642 0.43448567 0.19587725 0.5959036 -0.93582684 -0.11623232 0.4526809 -2.039699 -0.40203807 1.994255 1.1242439 0.22977361 1.1678307 0.44174275 0.063277036 1.0208364 0.107950896 -0.4959273 1.393435 0.0028493963 -1.6870198 -1.3841586 1.5425102 -0.059366234 1.0059773 2.1398897 -0.46980578 0.25339305 -0.24128504 0.5443913 0.43931988 -0.14515819 0.66706765 0.5086756 0.31082433 0.36498266
30 -0.030247029 -1.4963578 0.10379525 0.15225779 1.1133844 0.36218125 -0.16570647 0.33945897 -1.129418 0.29858178 -0.04416584 1.3879865 0.66965944 1.5150366 1.0967716 1.0623491 1.2863493 0.40939307 -1.7156472 0.5108766 -1.0579996 -0.36916718 -1.0634444 0.90565836 -0.05866989 -0.57220834 -1.6364316 -0.18869245 0.9442111 3.4636376 1.1786466 0.22306593 0.873202 1.1594157 0.7603304 0.3312035 -0.74497324 -0.36120182 -0.78883815 0.748524 1.1165588 -1.5651882 0.2775963 0.06023165 0.24709214 -1.6799614 0.25677082 -0.30074447 0.26806402 0.9061884 0.03548476 1.7854651 0.35749546 1.292037 -0.056502122 -0.19004807 -0.3295765 0.3092593 1.7081456 1.7658763 -0.077022575 1.5069084 -0.07135458 -3.281545 1.0198545 -1.4504421 0.83996725 -1.2285037 0.548093 1.1523776 1.8059837 -0.44517967 0.82504255 -0.20280427 0.11604545 -0.1951779 0.5758065 0.16212617 1.4718033 1.1350294 1.6510698 0.11476804 0.2120905 -1.8053961 1.7449526 -1.9907078 1.0363135 -0.40950283 0.47838238 -1.2185173 -0.9451923 -0.3523786 1.599529 0.68215966 -0.18649004 0.5343876 -1.9521137 -1.2814703 0.09980355 -1.0121568
31 -2.2535658 1.4658911 -0.77737284 0.07534615 0.30241847 1.4168565 -1.7217927 -0.031529956 0.8076002 -1.447252 -1.2751456 -0.41953906 -0.62546617 -0.50522065 0.45471096 1.2134551 -0.68344396 -0.5069879 -0.12914272 -1.9988956 0.8697719 -1.4599764 1.3383373 0.33758852 0.91993237 -1.6376139 -0.82987773 2.0192897 -0.038950406 -0.7646741 -0.013163064 -0.5171135 -2.9305532 -0.11242865 0.11614898 -0.035803955 -1.3630934 1.6891139 -2.0935233 1.7332118 -1.151377 -0.40545425 -1.1470068 -0.607537 -0.7223734 0.35331872 0.6475416 1.4059539 -0.29212627 1.0427381 -0.33123308 -1.5782019 -0.8368194 0.47614294 -0.78901446 -1.5271626 1.5247933 0.020928022 -1.4510226 0.75268877 1.8887812 -1.6623034 0.14560296 -1.4109468 -0.39409295 0.195142 -0.032163937 0.20833406 0.6651696 0.7875002 -1.0441066 -0.9773239 0.33240548 -0.6252732 -1.0790082 -0.4581553 0.7260175 -1.5870916 0.9050886 -0.26310006 0.9841517 0.6419505 0.38042557 -0.1348771 0.15669638 -0.09215559 -1.8511915 -0.954206 -0.048556138 0.82717353 0.2621057 -0.2635537 -0.9611506 -1.7825946 0.95066726 -1.0721306 -0.49169225 1.1019089 -1.6806957 1.8155805
32 0.024377428 1.2282268 0.14947411 -0.037466593 1.6657733 -0.39929608 -0.5814041 -0.71367943 0.023245193 -0.6430471 -0.9576394 -0.3634755 -0.6173523 -0.37454775 -1.4850278 -0.42900142 1.5718571 0.9683203 0.9528784 0.8254381 0.033791605 -1.3241152 1.0781703 -0.92119473 -0.67884046 -0.2531564 -1.2383319 -0.60322356 0.00034762511 -0.3604506 -0.019824648 0.010576883 0.59930533 0.18659449 0.00035371777 0.59898204 -1.4838846 -2.0533407 -1.3712056 -0.42484084 -0.60091776 0.40315947 0.6632639 1.1379871 -0.8614883 -1.0908324 -0.47771642 -0.7061638 -0.759372 -0.9308339 -2.5221932 0.34342664 0.26829138 -1.4118571 -1.2016851 0.13877971 -2.1668315 1.3768076 -0.33133012 0.34711868 -0.9280912 -0.20421945 0.27101243 -0.97975796 -0.1160403 -2.0970917 -0.39926898 -1.0240064 -0.71639407 -0.05695443 -0.7809273 0.4085738 0.75680345 1.1475394 -0.009922535 1.8270186 -0.80975336 -0.37275192 0.6087277 -1.4219494 0.17078936 -1.2081926 0.153577 0.7581854 0.78274935 1.323015 -0.8232914 1.9497632 0.6189062 0.2237275 -0.29220855 -1.6034625 0.18214121 -0.060261652 1.9314483 1.5440303 1.7226917 0.53167725 1.9499644 -1.1378357
33 -0.14803088 -0.6171585 0.5872604 -0.70823455 0.4672232 -1.4232358 -0.31483236 -1.2129751 0.9693656 0.355677 0.006687357 1.4529805 0.50012994 0.57443404 0.6811915 0.32162693 -0.34629893 1.3370452 -0.022898832 -1.944728 -0.9184659 0.11010242 0.08752672 -0.6464199 0.07846233 -1.2551255 -0.7730807 -1.5176307 0.81999683 -0.78073424 0.5002641 0.5528135 0.17579299 -0.275028 -0.83358425 -0.32408026 -2.0656137 -1.6118984 1.6840748 1.2803016 -0.025171874 -1.135349 1.3631632 -0.21578246 0.5965754 -2.0221815 0.4083159 -0.14831221 -0.5139436 -0.5431705 0.19248313 -0.30470824 0.25054455 -0.95358473 -0.14237803 0.09434747 -1.3534753 1.3653247 2.306686 0.26673496 -1.0776614 1.0975894 -0.38273582 -0.5406008 -1.2809522 0.84205866 1.7034504 0.93965256 -0.32230192 -1.2658403 1.6370511 -1.202303 -0.42276776 1.0812862 -0.09348965 0.9916797 0.18272245 0.82423115 -0.76859146 -0.60774547 1.5356191 -0.7712026 0.085462786 1.3027593 0.30586964 0.7891694 1.4660351 0.1956482 -2.1439335 -0.72440386 -1.0170081 1.5811037 -0.33370137 -0.42204338 0.23141758 0.061442878 0.43470457 -0.41556674 -0.6275017 -0.5443593
34 1.2849201 0.77941316 -1.1400813 -1.5085374 -0.2564701 -1.3392841 0.48223156 -0.45208734 -0.58316725 0.34099245 0.55609703 -0.0142158335 -1.048725 -0.38003245 0.69088125 -0.40632606 -0.100070246 -0.97422886 0.66417265 -1.2582419 -1.447003 -0.5376692 -0.8206667 -1.1735067 0.3819845 -1.428168 -1.1852831 0.42651448 -0.57249016 0.17685486 -1.3958104 1.7950628 0.77217543 -0.40110087 0.7680122 0.014992929 -0.14682041 -0.24955139 0.1875854 1.6697813 -0.7625093 1.8886552 0.6368932 -0.8450806 -0.45686817 -0.12142848 0.54037595 0.5268551 0.10134526 0.27552786 0.05539651 0.92768866 0.28145158 -0.8473116 -0.15922426 -0.5497408 -1.597802 -0.22578536 -0.35241497 1.2898213 -0.011227166 0.15707122 -0.22466747 0.3764077 -0.2850595 -0.53659374 0.7046814 1.8112153 -1.6301838 -0.2275928 -0.5318557 1.0637149 0.30809513 -1.545139 -0.63892573 -1.056461 -1.0157747 -0.59083635 -0.78780496 0.61518043 0.9456865 1.3068291 1.2879617 -0.7121251 2.0191288 -1.1769707 -1.6967227 1.6780252 0.5498387 1.3632951 1.467195 0.71218514 -1.5036067 -0.23876166 0.45473653 0.39265373 -1.4297726 0.39873907 -0.907052 0.3599942
35 0.6274941 1.1037383 -0.8551561 1.4802301 -0.32187787 -0.19162078 1.0148724 -0.41045347 -0.20721862 0.44784662 0.836664 -0.58604616 0.9675956 -0.05380066 0.5098477 -0.49337584 -0.11312582 -2.7798116 -0.38652232 -1.5763946 -0.73958826 -0.8759948 -0.6291319 -0.441969 -0.009179019 -0.633025 -0.2431853 -0.63888675 -0.914458 -0.7980257 -1.124595 -0.92048013 -0.15284039 -0.9436677 0.13222371 1.8849171 1.8185922 0.8880984 1.0283122 -0.44750005 -0.9882454 -0.9426195 0.33825338 0.71985304 -1.5321056 -1.7883993 1.5301695 -1.0853072 -1.0980242 -0.550711 1.3047272 -2.1417937 1.6293346 -1.107873 0.71054214 0.80239415 -0.80437624 0.120499775 -0.6507914 0.68885 1.1426156 -1.9831213 0.72155595 -0.10596381 -0.5035316 -0.5845869 -0.97167915 0.4503317 0.80880976 -0.6225317 -0.002299581 -1.268555 -0.022830565 -0.32346287 0.3191689 -0.46904144 -0.36429772 -0.38335973 0.022170223 -1.6053177 -1.8207531 -1.496835 -0.2669146 -0.055639178 -0.203632 1.4527086 0.43910795 -0.36110976 -0.23191644 -0.36772498 0.7265974 2.4490862 -1.064434 0.29683483 -0.21927506 -1.2455585 -0.22687152 1.330648 0.14318855 0.7590887
36 0.75632805 -0.85725904 -0.2573856 -0.28125274 -1.1771466 -0.5130729 0.013344642 0.6453981 0.6241467 -1.6867594 -0.9352721 0.5247762 0.7092566 -0.43809387 -0.76451784 -1.276257 -0.9749697 -0.6070493 -0.800003 -1.9189008 -0.63331133 -0.86356187 -1.8835499 1.1196221 -0.4667044 -0.093844526 2.1751013 0.21684474 -0.47951514 1.200268 1.0807337 0.65292126 1.1016926 -0.55981433 -0.36164653 -0.13872139 -1.0775294 0.58582246 -0.68255055 -1.1328577 1.5794309 1.2954457 -0.3131927 -1.4481908 -1.6657507 0.33058575 -0.9730809 0.6050832 0.76337814 -0.852151 -0.657875 1.1764576 0.5660255 -0.065258175 -1.6736513 0.9661265 0.11081743 0.2384268 0.48931822 -0.014473775 -1.3613986 2.1176243 0.4111672 0.6244759 0.3747733 0.8887918 -0.62394845 -1.1461959 -2.3361511 0.3298683 0.89179534 0.00040377458 0.21043074 0.870647 -0.70995635 0.22658435 -1.1991209 -0.20802395 -0.6797393 -0.65640324 -0.17462924 0.6181269 1.2512875 1.4114866 0.3597881 0.02494567 0.61340916 -1.0677141 -1.1592128 -0.71503854 -0.18024842 -0.1979988 -0.09327024 -1.782695 0.84053785 -0.1068999 0.08769632 1.9819903 0.13297726 -0.9731979
37 -0.7437807 1.2406409 -0.071408495 -0.6016451 -2.7346342 0.08701641 -0.9824166 0.114886485 -1.2912676 0.5378852 -0.5630538 -1.3720652 -1.4973109 0.3264496 0.41951567 0.60904753 -0.9988621 0.1867726 -0.8468564 1.3594809 -0.13866405 -0.67048603 1.6306566 0.48630893 -2.4272063 -0.4453171 -0.52159804 0.7462733 -1.3319663 -0.847392 0.1484757 -0.9089033 0.023099057 -0.5864134 0.68303275 0.5860107 0.16045235 1.6924545 -2.55684 -1.104428 2.7581482 0.6388541 0.4852138 -0.40588468 0.11647902 -1.2863736 0.21232529 0.812351 0.062980555 1.6509631 -0.8895644 0.5079026 -0.32101476 1.0089184 -2.74626 -1.1950274 0.1566721 -0.3599405 -0.66439444 0.9020211 1.0731171 1.3076357 -0.55899704 -0.0039384067 1.2728027 0.7775226 1.2182454 0.22061196 1.7214684 -1.0658568 -2.2690244 -1.3900117 -0.86015135 1.4224597 1.7556492 1.8957384 1.282369 1.2723277 1.6684664 0.41357625 -1.4060124 0.0051175635 0.8684158 -1.15655 0.13564762 1.1207453 -0.2733935 0.5116167 -1.6378773 0.68529105 -0.2763383 -0.11640276 -0.19223413 0.057769172 1.3499168 0.39551985 -0.68089116 1.4246645 -0.92659855 0.28351393
38 1.4343449 0.5010949 0.8120859 -1.2300123 0.026341874 2.9046907 -1.4837564 -0.5077815 0.74052787 -0.42209926 0.6416429 -1.04822 -0.083374694 -0.39313334 -0.067167535 -0.35655347 0.00929752 0.024379395 -0.46368045 0.08205409 -0.22977282 -0.9692773 -1.4308524 0.003700287 0.73654014 -0.06655996 0.5557662 1.3009653 -1.1701472 -0.7351113 0.32519117 -0.13698652 0.77199847 -1.3448975 -1.4273809 1.0212035 1.0277816 -1.786275 -0.7508277 -0.981233 0.008129711 1.2698464 -6.487981e-05 1.2409075 0.48658663 0.65263337 1.5235758 0.31681463 1.8872902 0.4686962 -1.6598089 1.1763247 -0.48053947 -2.2356741 -1.7915471 -0.3105328 -1.0453222 -1.4024627 0.3073085 0.44562092 -0.0036612689 0.94308984 -0.307983 0.6131044 1.5027473 1.498979 0.24889076 0.66314185 -0.29320422 1.5894083 0.5447249 1.9736015 -0.8936757 0.92519546 0.27517784 -0.36089227 0.59100395 -0.59602976 -2.0112414 -0.5738236 0.40458745 1.361232 -2.1119494 1.3326632 -0.12399388 2.4326634 0.60283947 -0.1373764 -1.9732865 1.5464313 -0.78025925 -1.8390586 0.777025 0.24396929 -0.39638916 1.0256909 0.03274459 0.087345034 -0.8733044 0.5924698
39 -0.09515701 -0.5631885 1.2712191 1.6920071 0.3767563 0.16348483 -0.4694677 2.0936048 -0.94104046 -0.48793504 1.909764 -0.549777 -0.05763185 0.08590984 -1.2117082 1.5360649 1.5803806 1.8108342 0.05413949 -1.345139 -0.5673932 -0.20254737 -1.5037713 -0.6019103 -0.89586157 -0.5482308 -1.5418991 -1.8279536 0.09331576 0.08726542 -1.4467148 -0.35781428 -0.21951854 1.0356753 -1.4227383 1.1507628 0.5485981 0.21271282 1.1774255 0.022416623 -0.19187275 -0.49382764 -0.45356303 -1.6365244 -0.2399675 0.161541 -0.13950025 1.2305633 -0.44846752 1.3426515 -1.1007533 0.42232233 -2.0023868 -0.954641 0.7062119 -2.3476417 0.21514963 0.5795366 0.94216865 1.4043194 -0.2717462 1.6954311 -0.14624377 0.6031777 -0.44927266 0.9347935 -0.70676684 -1.2733254 -0.806378 0.90111065 -0.90097916 0.12082698 2.197453 0.36222675 0.16826148 0.20698011 0.9472282 -0.9186562 -1.1728904 -1.0466924 -0.8441511 1.0609083 -0.0060572326 -0.20902117 0.34241143 -1.4773781 0.8609413 -0.78189546 -0.61767095 0.82038224 -0.68595016 1.7242612 0.6061324 -1.7868797 -0.06375331 -0.9685645 -1.0201988 0.2900857 -0.27205443 -1.605882
40 -1.318283 0.26647425 -0.67357665 -1.6461374 -1.8151088 -0.28026333 0.549535 0.49334997 -0.38345945 0.711038 -0.2303506 0.49094054 0.40681416 0.43187556 1.2627581 -0.16186157 -0.74429315 -0.706753 -0.06681445 -1.8934302 0.12051454 -0.63384604 -0.5356935 -1.845873 0.297896 1.2506635 1.0206832 1.4235096 0.5590614 -0.22990838 -0.98543763 0.71524966 1.5260367 0.9465789 -0.9862078 0.81885874 -0.43662655 -0.2683928 0.898538 0.23303486 0.49310318 -1.0508729 -0.9227852 1.2025397 -1.0096323 0.98906803 -0.32778096 2.0164988 -0.4829316 1.2780775 0.37588254 -0.39519778 -1.0433404 -0.7032856 -1.0273978 0.4158186 0.9524527 -0.13228874 -0.69438124 -0.82089967 2.1422794 1.0553634 -2.2138474 0.0143459635 -0.410413 -1.2524841 -0.49937257 1.2710724 1.6701853 0.61518145 0.23670308 -0.14859134 0.64334434 -1.3858347 1.3556395 -1.3295472 0.4591777 -1.3822238 -0.69021213 -0.5498952 -0.591041 0.23206687 1.9406027 -0.897521 -0.6060154 -1.1931432 -0.5177697 -0.8096895 -0.13301226 -1.0418445 0.3773363 -0.47474867 0.7664541 2.5529406 -0.06307802 0.9014435 -0.9804822 1.2025548 -0.508433 -0.044097845
41 0.56374025 -1.6210451 0.0979304 -0.6381164 -0.37519372 -1.2971656 -1.7507414 -0.9054172 -1.4467894 0.9002106 0.17089576 0.47357622 2.6424623 0.18006141 -2.2450268 1.5187593 0.7640481 1.43978 -0.08237723 1.1950777 0.9548981 -1.5934784 -0.3813604 -0.0987879 0.3553736 -0.3626328 3.0102694 0.85080826 0.6320176 -1.5218431 -0.31151173 1.1797547 0.81519824 0.5563382 -0.26154518 -0.46081245 0.49950445 2.0690536 0.9987698 0.31537965 0.12104868 -0.2770638 -0.6509534 -1.7422268 1.0413247 1.7471697 -1.1401826 0.4769327 0.6238123 -0.47111464 -0.15675509 0.5725491 -0.93572026 -1.1487747 -0.9400725 0.9119632 -2.3827207 0.14547163 -1.104836 -0.3620198 0.7985852 2.7807846 1.0017066 0.6783328 -0.4764818 -0.15643822 1.62974 -1.4186045 0.7214091 1.0044972 0.13674156 -0.47881296 -1.1998098 -1.4767802 -0.013755075 -0.8726305 1.571152 -0.079633646 0.16703637 -0.34718785 0.46466476 0.11865907 -0.6127079 -0.39689943 -1.8741138 0.12543398 0.95915294 -0.77248895 -0.3104884 0.7135631 0.19645846 0.33921647 0.28861246 0.2720826 0.4757962 0.595606 1.4932373 1.2411419 0.8213483 0.5253991
42 -0.14473261 -0.17042369 -0.5004762 -1.2716538 -1.0844373 -1.1888033 -0.7299178 -1.5561584 -0.6366302 1.7627075 1.5572377 -0.05513405 0.8284516 -0.53003865 -0.8452047 -1.4977514 0.013373667 -2.4508612 0.23607321 0.47040656 -0.86660933 -3.0656736 -0.37908578 1.2930428 -1.2175895 1.3259996 -1.2626226 -0.20962772 -0.052849557 1.1513609 -1.6595778 0.5782356 -0.15098551 -1.7384149 0.19811322 -0.49252573 -1.6686983 0.51650494 -0.13388929 -1.6885116 0.897226 0.18051137 -0.38536888 2.4642398 -0.5563294 0.81151766 -0.30923668 1.7775083 -0.698694 -1.8866202 -1.9566034 -0.14420155 1.5000432 -0.57036275 -1.1550168 -1.4885831 0.22869384 1.9175582 0.56342626 1.3299345 0.45472315 -1.5999638 -0.8731181 -0.42593306 -0.36110312 -1.2962977 1.321284 -1.4647136 -0.57784283 0.78650475 -0.59371537 -0.45493892 -0.90267843 -0.15742362 0.8238162 -1.2597257 -0.41155615 1.1901176 -1.0604844 -1.544743 -0.6806068 1.2191786 -0.09318571 -1.576335 0.45843744 0.8762401 -0.2926544 -0.68681985 -0.39854646 -0.98688513 0.5380993 1.5128093 0.7516975 0.13755795 0.5175062 0.05515017 1.3804129 -0.16630396 -1.2637044 0.69613624
43 -0.19204512 -0.045200624 -0.19424807 -1.729504 -0.54550546 0.42933917 0.0917932 0.87376773 -1.105477 1.2097998 -0.5249342 -0.03153679 -0.22615035 -2.0123336 2.5034177 0.35980782 -0.3675059 -0.07433842 -0.46559608 0.082389265 1.2355161 -0.6921805 -0.4933455 0.9559719 1.16527 -0.28127873 -0.72839 -1.5469097 0.8014096 0.9580898 -0.10675194 0.8290022 -0.45949683 -1.0369475 0.4633716 0.98290545 0.7070976 1.6415813 -0.0588574 -0.6644152 -0.93752974 0.079506 -2.6688678 -0.7547922 1.5866034 0.01633719 0.9887031 -0.7916162 -0.55244166 1.0770571 -0.69179845 0.20326167 0.34307963 -0.5392658 -1.1353568 0.43176383 -0.18002374 1.5564553 1.3866936 -0.07376133 -0.8674684 -0.4154463 0.027296951 0.5048593 -0.77377135 0.022619994 0.93136835 -1.4630206 -0.36532208 1.9113022 2.270761 -0.096784405 -0.9552266 0.2744768 -0.66082734 0.027269164 -0.78972405 0.7509605 -0.20095795 0.27427098 -0.33690706 -0.75769067 -0.041387103 -1.7528409 -0.75480944 1.3232757 0.71758854 0.95107764 -0.105326466 -0.42616498 0.004676525 0.34887177 0.7072865 0.2121213 1.8033999 -1.421815 -1.0730138 -0.48106366 0.87734234 0.024327284
44 -1.3210284 -0.06833399 0.3629254 0.9952508 -0.6861034 -1.0740443 -0.20805945 0.05522937 -0.68369406 -1.1430064 2.3079298 -0.12424022 -1.2379303 1.1691867 -0.37470004 0.9363362 1.1767483 -2.0174458 -1.060864 0.7315726 0.38798574 -0.18527807 1.1746542 0.3748617 -0.058321755 0.32020453 -3.2381754 0.3443272 1.1935387 -1.250996 -2.2649388 1.2518197 0.025440296 -0.47271118 0.54379433 -1.37929 -0.62312216 1.7634299 -0.3400009 -0.8321306 0.0007485589 -0.15878509 1.8343323 0.8380682 -1.351978 -1.2866868 0.030093944 0.59919894 0.826592 0.5588761 -0.38587672 -1.1006391 0.09620297 -0.24721843 0.60397035 0.36337495 -1.5261167 0.49837396 0.03922205 -1.6203694 -0.89515376 1.3800734 -1.2762045 0.03723608 -2.1508465 0.29905853 1.1485012 -0.059295803 1.245312 0.5728176 1.176871 -1.3871392 0.13669895 -1.798809 0.33394578 0.2484367 0.33709192 1.9513782 0.067238815 0.6257964 -0.9876735 -0.7510981 -0.09896486 0.21209072 -0.8368328 -0.50879574 -1.2028668 -0.077062145 -0.60253906 1.1903434 1.5213264 1.3345509 -1.3819015 -0.4202832 0.29427242 -1.6125115 0.17584419 0.45610154 0.028258942 0.39280006
45 0.7341254 0.045792073 0.65834606 -1.7638527 -0.2930454 -0.5182528 0.5130699 -0.90165514 0.110915214 -0.9436012 1.3482866 1.2983141 -0.7853098 0.03958837 -0.23279712 0.23035854 0.25852638 -1.2171133 0.16510792 -0.32429394 -0.8554824 0.013454144 -0.34492907 -0.973588 -0.5678368 -1.1239376 -0.36684665 -1.1246607 0.23206034 -0.38369632 0.6995921 -0.046804305 -0.6520866 -0.5281468 -0.3104919 -1.6515818 0.41418102 -1.3909048 -1.2165447 -0.64606357 -1.3007516 -0.45358506 -1.4822296 -0.24148697 -1.1365407 0.77274233 0.62601376 1.151034 -1.1279331 0.81094146 0.2905491 -0.7983495 0.3926891 0.0543889 0.9321365 -0.8924197 -0.5478325 1.7383001 -1.7597184 -0.04030726 -1.3281302 -1.8250765 0.090495616 0.7197979 0.9682972 -0.025896447 0.9687695 -0.0056855245 -0.8014415 0.015669769 0.24164559 -1.0212898 0.14576058 1.0346394 1.1206051 -0.5854102 0.036075838 0.09762755 -0.5824254 -0.0767179 1.302959 1.8233246 1.1647981 -0.09498352 0.47031415 0.024364265 1.0268775 0.041469213 -0.8570952 -0.83991796 -0.07780221 0.6012196 -0.03846081 1.075138 -0.9977601 1.330114 1.0161513 0.3614124 0.7478904 -0.85047644
46 -0.53293926 -0.39916438 0.4708485 -1.4737183 0.38209623 1.6783139 0.87662596 1.5071455 1.3406726 -1.1090375 1.3824906 0.63775444 -0.40964663 0.5251734 1.0204009 0.9636863 0.49799916 -2.0211484 0.76618564 -0.6156746 -1.033658 -0.04806803 -1.2182217 0.12918946 0.52899843 0.104592755 0.21973096 -0.5107862 -0.69543433 -0.98340535 -0.94677615 0.7065249 -0.014411769 -0.8586677 -0.49124062 0.9155398 0.34274083 0.85593814 -0.9573876 -2.4014204 -1.1162691 0.21048065 -0.33346838 0.9611019 0.3155018 0.10988749 0.060839426 0.29353532 0.049074568 0.52104133 1.8214818 -0.9466731 -0.57909244 -1.0129064 -1.1453832 -0.4846765 -0.16396907 -1.8912048 -0.45594946 -0.29766557 1.1436462 1.7985578 -0.47379187 0.95989686 -0.01489947 -1.1348128 -1.5723339 -0.020950431 1.6772429 0.1315258 0.60129166 0.49152184 -0.14471026 -0.7249938 1.0065163 0.5097362 0.93641657 -3.3665857 0.8305513 -1.967179 -1.8196363 0.53226435 0.84625053 0.36082557 -0.20910144 -0.11452816 -0.28967416 -0.5175335 -1.0057408 0.8802194 -0.58976 0.7190539 -0.69109434 -1.8436748 0.61374694 -1.3417313 0.36786425 0.92445415 0.7726352 -0.9791591
47 1.1654705 -1.8729953 0.48495477 1.0399089 -2.2900772 0.09653269 -2.5614207 1.6624835 3.068975 -1.2059814 1.685617 -1.0371262 0.58553195 -1.6229278 -1.443525 -0.45731333 -0.3483378 0.8045945 -1.7510018 -0.647025 0.33332533 0.35455376 0.15798475 -1.1976998 1.1727471 -0.678639 3.190611 0.24854726 1.3763381 -0.092546165 -1.1151733 0.60532445 -1.4427071 -0.6181314 -0.34874338 1.5796611 -0.07555799 -0.6447899 -0.47086516 -0.64010316 -2.260378 -1.4453268 1.0423017 -0.6242377 0.39270264 -0.9960233 -0.062109154 -0.5115448 -2.257959 -1.0700147 0.29339266 -0.46934813 0.31691596 -1.0120674 -2.4689333 0.086408995 -0.5624222 -0.2135942 -0.57242006 0.48539177 1.4005213 0.9256198 1.1142151 -0.78238493 0.5131746 -0.097436585 -0.47444227 1.0406864 -0.4597909 -0.8388502 0.13580617 -1.3225569 -1.1967453 0.780869 -2.1900039 -0.89598715 -0.61743605 -0.86290824 1.7437582 2.2678044 0.640353 1.1544619 1.3261317 0.7490851 0.18186364 0.7498819 -0.79917085 0.12721287 2.3108835 -0.6781619 -1.5210167 -0.53389686 0.16167454 -1.6929605 -1.4996351 0.6733729 -1.6015098 -0.7592192 -1.1825238 -1.5421449
48 1.2420964 0.79254156 0.8038894 -0.9947725 0.50620127 -1.8650982 0.23615618 -0.24527618 -0.08519594 -0.86232626 0.13360003 -0.7706368 -0.69390875 1.1184748 -0.10196216 -1.7676812 -1.1467242 0.5623983 -1.0624756 2.4856563 2.0678904 -0.3242304 -0.3559528 1.0094084 0.11482154 -0.77458304 1.0731633 -1.9709519 0.7255362 -0.7567814 1.5474366 -0.07165363 -1.6463423 1.5681051 1.0162512 -0.0601704 -0.40034255 -1.2079414 0.29499164 0.7810899 0.16359681 0.29265162 -0.4122261 -1.3327366 0.21126504 0.53130645 1.6855391 -0.951907 0.386312 0.4056109 1.3828955 -0.477386 -2.1610138 0.8606106 -1.8045555 -1.4674647 0.28315637 -1.1778352 -1.0969671 1.9476148 0.37991706 -0.54920673 -0.0025661082 0.83294755 0.52180904 -1.6952744 -1.1346833 0.54733175 0.60198146 2.400047 0.64963675 0.1711187 -0.6436598 1.789123 -0.31621867 1.4240477 -1.5566417 -0.451819 -0.31205365 -0.34638917 -0.8729753 -0.007997995 0.27849495 0.15046869 -0.74257827 2.443168 -0.23606463 0.8252333 0.941292 -0.9291281 2.2983654 0.4668806 0.40939575 0.2741132 1.0955361 -0.57760847 0.39799207 0.5821996 -0.114322044 1.156426
49 0.40383634 -0.1027495 -1.055283 -1.8733627 0.65560305 1.500698 -1.6101413 0.91485775 0.06315835 0.14106345 -0.7954857 0.3671721 -0.05541389 0.35210645 -0.012726095 -0.52474666 1.8596896 -0.4740106 0.9081036 -1.2686623 0.99512565 -0.8430743 2.83735 -0.5673563 -0.15923317 -0.64452815 0.6063495 -1.525168 -0.4937624 -0.29047838 -1.3496978 1.684502 0.5485082 -0.24937746 -0.5239491 -0.5374255 -0.42567003 -1.0708442 0.2669254 0.123969 -2.0016284 -0.34603566 0.3012204 0.22094601 -0.8857042 -0.5708416 0.63655955 -1.4032348 0.51044655 -0.039483655 -1.1582944 -0.9363154 1.439354 -1.1157949 0.067277215 -0.7127666 0.10828828 0.43218014 0.6374373 1.5066451 -0.7971556 0.021418672 -0.07152285 -0.0656688 -0.4345555 0.3970837 1.6305807 0.627602 0.97363335 -0.010497054 0.46944404 2.396129 -1.8219404 0.8585813 -1.5015405 0.24361232 2.2370026 -0.5905717 0.4853839 0.7448248 -0.094818875 1.6314495 0.37228864 0.14358419 -0.4093658 -0.1752128 0.17697054 -0.8898569 -0.47902468 0.3384499 0.8823679 -0.10998914 -1.0862103 0.0012072382 0.34407142 -0.074459225 0.3152497 -0.4772268 -0.19801192 0.13310026
50 2.1884406 -1.9444801 -0.08012132 1.2090137 1.8839716 1.2831843 -0.008691899 -1.0504341 1.0714556 0.9958797 0.025753362 0.6660547 1.4513308 -1.4121542 -0.48478118 0.29451147 0.5486721 1.1854787 0.45787242 0.81664467 -0.019338802 -0.13128038 0.06822907 0.26545668 0.0043770387 0.88385844 -1.6527417 -0.83816546 0.6192159 -1.2791495 -0.011449432 -0.3160026 1.0772004 -1.5031945 0.20741516 -1.0343069 1.3483737 -0.44502085 -0.15244322 1.5068855 -0.027575446 -1.439284 -1.2012024 0.22995408 -0.86855656 0.9437674 -0.15399157 0.8368508 -1.371493 -0.14856362 -0.7212246 -0.20783398 2.1804185 0.55082375 -1.7455312 0.67827237 0.3210233 -0.46646577 0.31406164 -0.83105826 -0.5050151 0.20180945 -0.94300187 0.70900065 0.30729875 -0.93347734 -0.29878923 1.2063574 -1.1980722 1.4957832 0.22359832 1.1702596 0.0025710193 -0.39943308 -1.897128 -0.3589329 -0.06940347 1.0990171 -0.53049916 -0.34481895 -0.92610466 -0.18143192 0.7410402 0.5801409 0.15699556 0.029761499 0.4958627 1.0896177 0.746917 -1.5660349 -0.581128 0.24437515 -1.0680434 1.9383273 0.15602358 -1.8796471 -0.33353245 1.3003607 -0.40443647 -0.59102386
51 -0.1411184 -0.8657333 0.43456453 3.4715035 -0.6627036 1.1112721 -0.12674597 0.77638566 0.14702551 0.5369439 -0.34484133 0.039790735 -0.7924602 0.49327147 0.72249764 0.44430876 0.60848737 0.62262845 -0.14989793 -1.301687 0.5292711 2.5366838 -0.5984631 1.8810271 -0.8090763 0.10072813 0.30794472 0.63024354 -0.29051098 -1.9895427 -0.020175891 -0.02684971 -0.40145367 -1.2892635 0.2358445 0.6230737 0.69084835 1.748655 -0.8805034 0.14992578 0.5324238 0.6495168 -0.15430479 0.2276405 -0.9847269 -2.1137514 1.2714863 -0.09968151 -1.8373089 0.49087083 2.0723507 -0.74468714 0.37799832 0.27832398 -1.3760028 0.70264673 -1.4026799 0.039923485 0.25925797 0.34045556 -1.7778441 -1.1872338 0.23299506 -1.0345461 0.088397115 -1.5407964 2.408673 -2.0503464 -1.2909714 0.08924842 0.36433807 -0.42605993 1.106401 2.4420109 -0.04621439 -0.5178109 -0.6408003 1.2880385 -0.83407354 1.0272806 0.50621414 1.8306313 -0.85704666 1.4481398 -0.5534361 -0.32723412 0.11125609 0.5428951 -0.42894968 -0.33174366 -1.2305208 -0.7499915 0.38567385 0.23615445 0.8535458 3.0559025 -0.78811073 -0.7081084 -0.29939988 0.3302135
52 0.92842877 0.6719186 -0.016265266 1.4078861 0.56946564 1.2521709 -0.8886096 1.2339497 -0.3233068 2.5139742 -0.3562202 0.2214188 -0.5373786 -0.026723241 0.46754342 0.73500425 3.2065432 0.650597 0.5044662 0.87103724 -0.32177648 -0.25442764 1.0556324 0.02706923 -1.2698767 -1.090599 -2.016363 -1.3512137 -1.2944632 -0.42654407 1.0511603 -0.87180334 -1.0767252 -0.4318159 -0.7785827 0.71901387 1.3236338 -0.46398216 2.8487513 -0.02794362 -1.774663 -0.3616444 0.35657638 0.3027803 -1.2488115 1.0877728 1.5223573 2.2500787 -0.8464482 -0.4418521 -0.46533713 -0.6515041 -0.06743378 1.0811653 -1.370088 1.0951525 -0.23719285 0.795109 -0.21725735 0.4374921 1.4181684 1.8810956 1.6024022 0.7853333 1.0933774 1.0597366 0.41681924 0.8491554 -0.7487089 0.29648805 -0.6021804 -1.6556945 1.3281429 -0.2861288 -0.67165846 -1.2635697 0.66235703 0.3723403 -1.0754251 -0.57332593 -0.52760327 -1.286259 0.87565017 0.18246917 1.0424974 0.08445697 0.3927748 0.7201125 0.81871 1.5467067 -0.012000352 -0.13388689 -0.2752323 -0.87045413 -0.70672756 0.67251116 0.20349361 1.2343705 -1.0660472 0.8784648
53 0.13975275 -0.64440024 -0.051319584 -0.6232869 1.4187675 -1.3431247 -1.69428 -0.21867386 0.6844252 -0.4549654 -1.3255365 -0.452342 1.6390272 -1.0028429 0.38656545 0.653932 -0.7274166 -0.6424207 -1.7660211 -0.22929849 -1.1111556 -1.9744319 0.7434708 0.45906132 -0.34025854 -0.53171015 -0.12902297 -1.7815632 -0.8740684 1.6909552 1.1079733 -1.431622 1.2091808 0.28909862 -0.46068668 0.63204014 -0.109704256 -0.4934291 0.82146287 0.15992597 1.6247994 0.5273732 -0.6787662 -0.8815471 2.8555002 0.6572289 -1.1304427 1.5136985 -1.0370281 0.009541505 -0.19055665 -2.1682637 -2.1173747 0.061864875 -1.2977836 -0.9326588 -0.35119262 -0.44954434 -1.3132596 -1.5029501 -1.0464824 -1.1025903 -2.3342957 -0.10158229 -0.1126783 0.15262327 -0.6814676 1.8640898 -0.16690318 1.5766045 1.6740795 -1.1582859 -0.05044658 -1.351267 0.021582797 -0.12007532 -0.65134007 0.8460032 0.7430872 -0.8791458 1.2030087 -0.42372766 -0.292391 -1.3203946 -1.1291053 0.09875861 0.15588132 0.44818386 0.20582381 -0.7728948 -1.282291 -0.106341325 -0.5049098 0.29722708 2.675144 -0.8948915 -0.2152486 0.34493986 1.6052284 0.6659755
54 0.36887282 -1.3426545 -0.2424542 1.3531333 0.19744709 1.4143585 1.1649458 -0.7811736 -0.52544415 1.3244199 0.093790226 0.57974917 0.42518175 0.3212228 0.01134476 0.8036037 0.48128155 -2.1753428 1.207367 -1.032722 -0.9116726 -0.014432068 0.85379523 0.45196113 1.4344605 -1.9595461 -0.9469142 0.051795125 2.269438 -0.010905536 -2.082178 1.1143885 -1.3558773 -0.16645387 0.50028306 -1.6660106 0.8840651 -0.98094064 -0.54118687 -1.7795093 2.3277411 -0.084564686 -0.338157 -1.0286113 -0.029040227 -0.75325084 -0.8826671 -0.59915406 0.9339875 0.4135923 -1.229879 1.2015885 -2.3857567 -0.3388911 0.033502515 1.0909785 0.46672946 0.3334082 1.2580851 -0.17036717 1.3168243 -0.2522678 -1.0064654 0.6480327 0.38828826 0.124055825 -2.1067717 -0.25328436 -1.4006851 -0.22306584 0.35694978 -1.231544 -0.61208487 1.5848875 -1.0226755 0.23364028 0.7753586 -1.2464548 2.0121522 -0.5221054 0.6247473 0.7959354 0.1075699 0.4080641 1.2019374 1.1732339 -0.42023793 0.44632497 -1.1660826 -0.032002404 -0.17340769 1.0464342 -0.9284103 -0.024382195 -1.76172 -1.2544341 -0.09472047 0.08712929 0.005427817 -1.2626673
55 -0.8977608 3.056066 -1.6805784 2.7839293 -0.74808496 1.0656624 1.0197954 1.0157046 0.16225596 1.1714302 -0.035033315 -0.8509571 -0.25177374 -0.076353714 1.6395603 -0.8301676 0.5113982 1.5974544 -1.1844862 -1.1736252 -0.7602159 0.39632806 1.3281043 -0.7722538 0.07581427 -0.11528515 0.13430187 -1.8853507 -1.073904 -0.18786663 0.51761717 -0.39322147 -1.1938317 -0.048105214 -1.2711451 -0.39857146 0.16784683 -0.3865946 -0.21992062 -2.2882926 1.0677232 -1.4925863 -0.017666632 1.57598 0.7559803 0.40678647 0.4825238 -0.3448901 -1.5050422 0.1509959 -0.85343826 1.1554607 -0.63397676 -0.2865779 -0.31860432 0.40231392 0.5732875 -0.44095007 -0.036497824 -0.5633351 0.6878404 0.29850593 -0.62015444 -1.2787585 -1.2679168 -0.99346095 1.2300001 -0.5478281 -0.2050411 0.50131446 -0.3927614 0.20538916 -0.88619924 0.26961318 0.35437906 0.19208427 -0.290218 0.27729785 0.17974886 -0.5775781 0.18978734 0.09557757 -1.3987262 0.51076573 -0.37004232 0.043298677 1.2396086 -0.7703279 0.41044074 0.2560077 0.25314036 1.4317611 0.938311 -0.87990665 -0.5185822 -0.37184325 0.40895918 -0.7064901 0.45749682 0.99252033
56 1.4926215 0.2433472 -1.5469769 -1.1958966 1.1754165 1.4731821 -2.1875885 -0.5577726 -1.1635592 1.7265974 0.7985155 0.5206614 0.85003865 -1.4357499 0.12128212 0.31516442 -0.28577784 -0.67449 0.36080992 -0.013121758 0.4016783 0.12543504 -1.3033785 -0.86277074 0.29961786 0.63905096 -1.173091 0.8400166 0.54108536 -0.8809967 0.7131197 1.6134065 -0.49062833 -0.21256515 -0.91328627 -0.55056435 -0.23700489 -0.0420016 0.5782635 1.4804108 -0.13838285 -1.7835946 0.89406496 -2.0915325 -1.7126356 -0.4652545 -0.297703 -0.03554232 -0.3657093 -0.8490933 0.07249464 1.6856585 -1.5848165 -1.8115504 -0.44431743 -0.68196183 -0.6804596 0.5406886 2.7173283 0.9634219 0.27443036 1.6626717 -0.88448876 0.60191774 -0.6482914 1.3053296 -0.6138503 0.22101289 1.1318908 -0.067495376 -0.6787408 -0.738185 -0.5586581 -0.3276528 1.8934261 -0.50689024 0.7221607 -0.17333572 0.78899366 1.6246026 -0.7202668 -0.43429965 0.6679031 0.02774379 0.10672546 -1.9409012 0.60534084 -0.12232797 0.16116299 0.8614765 -1.9576356 0.5622163 -1.3540605 -1.5775278 0.30078036 1.3638576 0.03390933 -2.2190576 0.7643558 1.4630835
57 0.35751292 -0.11371795 1.3908354 2.4422457 -0.3002521 0.3791465 -0.27535462 -0.33629975 -0.3978217 0.81593734 0.51622343 0.5953706 -0.024221705 2.3661635 -1.2199131 0.010717529 -0.4614703 0.26507643 -0.6803453 -0.026221368 -1.021894 -1.8355837 -0.014686704 -0.3300485 0.321467 -0.8579091 -0.3042977 -1.3275485 1.1172982 0.559625 -1.8223084 -2.233658 -0.9276915 0.91040117 -0.44195512 1.4757897 0.11829154 1.3010167 0.84616977 -0.8790786 -0.49196875 -0.13886334 1.1008056 0.7420972 -0.013872547 1.18682 0.4102775 0.54511744 -1.3080909 -0.7418764 0.6656972 -0.11430842 -1.6197411 -0.9872477 -0.23493172 -0.3013708 0.9912638 -1.0623113 -0.4279065 -0.9779255 1.3748033 0.7799169 -0.63684994 1.0039308 0.5194951 0.29827622 0.64366364 -0.3638154 -2.56171 0.048952628 0.6358186 -1.7351947 1.1638888 -1.1959851 0.60464144 -0.5129522 -0.34678304 0.99995714 0.21128929 -0.51811045 0.5458846 -1.0391816 -1.9488671 0.5627685 -0.6873656 0.25134644 -1.1026882 1.4859824 -0.3671627 0.20013578 -0.73306733 0.45695952 1.0496527 -0.33773792 0.16757192 -0.35732773 1.5533819 1.2418042 1.4099861 0.2400697
58 0.5313113 -0.085060455 1.4062005 -0.99438375 -0.18949322 -0.18688811 0.1639612 1.5086335 -1.2714617 0.25044596 -0.89719695 -2.234744 -3.480654 0.7674111 -0.15696865 1.3325963 -0.93509877 -0.2591104 -0.24439347 -0.7229521 -0.83824337 -0.08215922 0.3412721 0.4904693 -0.93929744 -0.7613744 -0.35704044 0.2957018 0.023249425 -0.80343497 0.80240834 -0.26230747 1.3687074 -0.7986001 -0.15197216 -0.55901754 -0.23755023 -0.27948835 0.07769032 -0.6842102 0.25591028 1.3466884 -0.88445765 -1.0469915 -0.1358908 0.22012386 0.22624317 1.2440027 2.323746 0.37212563 -1.0735182 -0.20824833 -0.834954 0.45678318 0.4333914 1.0692539 0.30916256 -0.25031775 1.234166 -1.380252 0.5438784 -0.4545163 -0.6472238 -0.6601329 0.8790006 -0.61276096 0.04626978 -2.0546386 -1.1705205 -0.048849385 0.047121305 -0.6866728 0.66560507 1.0147308 0.83225787 -0.7897024 0.66470647 -0.6863099 -0.061429355 -0.30003032 0.01576827 -0.47793114 0.7128394 0.7138624 -0.09458807 1.1334786 0.19129267 0.14875683 -0.87879205 0.4581911 1.7496109 -1.1847656 0.23839058 1.1500089 -1.4810702 -2.0528738 -0.96669143 -1.4092381 0.2436424 -0.95682204
59 0.34811044 1.2547235 -1.1688311 0.72822875 -0.41920197 0.17808434 -0.20266183 0.5555643 0.24170251 3.3010974 -0.50462466 -0.30625415 0.0683483 0.827215 0.33623135 -1.024909 0.40081125 -2.0567098 -2.139567 1.8405179 0.9681086 1.3330835 -1.260044 -0.94022036 -1.1589838 1.9975104 -0.94021076 1.0495616 -0.1449207 1.2203767 -2.545208 -0.93266433 0.20289156 -0.37303057 0.16906615 -0.6386436 -2.5782974 1.809848 -1.1682593 -0.7132947 -0.66986 0.46601847 0.678025 -1.0176822 1.2030396 0.40074426 -0.7343959 -0.69502133 -0.7912154 -1.0886115 1.7107264 0.030594395 -0.30006713 0.5625729 1.9719079 -1.0937247 -0.50342524 -1.549595 -1.4913989 -0.6906859 1.1668962 0.21135084 1.588605 -1.417305 0.6968542 1.5172777 0.088795125 1.9267676 0.633619 -1.2897013 -0.18953724 -0.96368736 0.7816582 1.3112046 1.0366309 -0.5580501 1.3602319 -0.813452 -0.3629411 0.046323653 1.4453076 -0.5412605 0.7962298 -0.059836768 -0.95989966 0.48560315 0.28227776 -1.1194756 0.7349425 0.41413796 -0.4658551 -0.6334739 0.9418749 -0.5342793 2.0572948 -1.0378777 0.9019293 1.0862869 -0.69285715 0.7017956
60 -1.8836008 -1.6555885 1.0042158 -0.4468688 0.8855592 1.5310919 0.35169512 0.73643214 1.6575049 0.28089657 1.2888575 0.013535443 2.356238 -3.0904167 -2.391494 0.053541966 -0.5217963 0.66822475 0.9270113 -0.8109533 2.3618798 -0.65194166 -0.51775736 1.6281847 0.18264784 -0.84857786 -1.114855 0.11145854 -1.0517476 -1.5053716 0.8309189 0.8848959 0.21332549 0.5119949 0.4528558 0.9164007 2.7860353 1.1754524 -1.0512173 1.2615539 -1.0605239 -0.18511143 -1.0591449 -0.8222986 -0.6558088 3.2750926 -0.653466 -0.03201423 -1.3049401 -0.56790334 1.327524 -0.8946396 -0.6286668 1.0740759 0.68628865 -0.2756787 0.38974202 0.9272382 0.45262763 -0.4118049 0.09554407 0.60423577 -0.8103281 0.6330223 0.21377613 -1.1028119 -1.1146744 -0.29945257 0.80690026 -0.2508238 1.0464149 1.0580728 -0.28236365 -1.2007134 -0.8876094 2.3276985 1.1480515 -0.02356434 -0.5338326 -1.2140373 1.976454 0.039504327 0.5102252 -0.11921378 1.5435739 1.4516134 -0.34573373 0.88088524 -1.51595 0.28722817 -2.3847013 1.2632062 0.50627524 1.3620648 0.5790901 0.3511904 -1.2230176 0.5018701 -1.7080561 -1.1990458
61 -0.51950663 0.8339771 1.5560877 0.96047556 0.013823312 0.59232086 0.8262491 0.3159748 0.4521317 -1.2926294 0.3600972 -0.08124795 0.18598536 0.6133753 -1.3703052 0.38509306 -0.49621022 0.5723441 -0.8100197 0.65547204 1.4011513 0.76688266 0.29831642 0.9103277 -0.66460466 -1.616348 2.5336175 1.2588968 -1.3204137 -0.09953193 0.8253497 0.7825477 -0.20004319 1.1983951 -0.02830667 -0.47108403 -1.4647483 1.2269458 0.6899484 0.58429265 -0.56973755 -0.8763906 0.99934644 -1.1551102 1.8696234 -0.8219157 -1.1703773 0.94008446 -1.5338998 0.8744374 0.86367524 -0.8127708 0.18899225 1.4000422 0.3609035 -0.4334251 -1.2246069 -1.1466868 0.79190034 0.29185203 -0.9033497 0.40546253 -0.97146446 1.6304948 0.93490237 0.9683518 0.6158183 -0.38529336 0.6296057 1.0648752 -1.5293167 0.85121036 2.4690392 -0.99730545 0.316898 -1.796254 0.7556269 0.29650766 1.1922752 1.1987189 -0.90942496 1.8395252 0.49292952 -0.7610914 -1.933456 1.1310961 -1.2544537 -2.1280212 0.5597125 1.0473399 -0.7450161 -2.0156484 0.43211487 -0.3005727 -0.108562656 0.617831 -0.5781197 1.3919504 0.04406979 0.06346932
62 0.8627286 -0.539525 -1.8108577 -1.6358695 0.674793 0.30489004 -0.9726486 -0.8207371 0.6349209 0.7133076 1.6789386 -1.7200298 -0.0025937606 0.75812143 -1.5849706 -0.7738402 0.20272717 -0.41246283 -0.4414799 -0.7234238 -0.03428154 0.19600812 -0.15318859 -0.9462345 0.38612652 1.0455681 -1.3731716 -0.36221334 0.59358925 0.8189116 -0.8750298 0.32616875 -0.9482726 0.51093477 0.16210458 -1.7539718 -1.664551 0.3589717 -0.33050102 -0.9911608 0.7230702 0.05923878 -1.3110104 -0.92369395 -0.73975873 -0.11670576 -1.0777491 -0.48423973 -0.32249016 0.42260128 -1.4444127 0.16329762 1.3121214 3.4598413 -0.91840005 -0.7163511 1.8079238 0.5756421 2.4291046 -0.7342813 -0.5420567 0.8403789 0.6113461 -0.2619598 0.17226872 0.515382 1.6820372 0.31178725 1.2844801 -2.074903 -0.7893827 -1.0037583 2.197164 0.8134328 0.107780665 -1.2040622 0.59719104 2.1347737 -1.965654 -0.5683985 0.26351503 0.41294396 0.0847645 1.240951 -0.95374674 0.10731677 0.35093033 -0.58763343 1.0654014 1.8640596 1.2326968 0.71100086 1.1674203 0.2882904 0.26393571 1.3552445 -1.3142102 1.9717095 -2.5814157 0.33616826
63 1.0183612 0.8389471 0.030939322 -0.6743757 -1.1094137 1.4602072 0.7637692 0.2656616 -0.34235618 -1.2421435 0.2508978 -0.04843916 0.54998875 -1.6528218 0.9280728 1.224161 0.5621453 -0.5694841 -0.8118434 -0.5538966 -1.0850272 -1.0564364 -0.41040045 -1.350992 1.0176207 -0.68547106 -2.2038536 -0.33834106 -0.14736646 1.2282655 -0.468002 0.39294767 -0.6928811 1.0456715 0.94903946 -0.299287 -2.2949238 -0.22911897 0.8386709 -1.5693927 0.73081034 0.5572331 -0.13806716 -0.2808862 0.36727157 -0.96948177 -1.3604155 0.5231675 0.28746715 0.8571144 0.41846594 -1.0869659 0.5840824 0.23160166 0.8200848 0.38606867 -1.5653687 1.0260706 1.2964636 0.7182819 -0.7364053 -1.6005919 -0.54638594 1.2987095 0.26413706 -2.4824674 0.06451032 -0.6205864 -0.535257 -0.7855037 -0.4458676 1.4441398 -0.88232434 0.3558015 0.9174816 0.0418112 2.1607351 0.53897387 -0.6796344 1.473509 0.26821357 0.23640886 -0.10468774 -1.5406754 -2.420117 -0.7033412 -0.66792583 -0.31699497 1.3513842 0.24890064 1.9207311 -0.112862885 0.7591143 -0.10250907 -0.4993031 1.0533526 -1.03902 -0.51513577 0.9200156 1.3561945
64 -0.34170115 1.8927189 1.239188 -0.7574181 -0.3432537 0.5426957 1.7737479 0.6023806 0.20532285 1.3862798 0.15216558 -0.35616934 -0.4823451 -0.89785844 1.2265409 0.4740399 1.7413704 -0.3578823 -1.4990138 0.007520399 -0.2743579 -0.2777377 0.29673767 -0.42003477 1.4624873 0.3286005 -0.56679285 2.3552856 0.6119639 0.3398975 -1.253738 1.4721274 -0.7740799 0.16323681 -0.7068721 -1.4722356 0.6867976 -0.5430302 0.12049378 0.41091236 0.093594596 -1.7741218 -0.79697233 -0.70227325 0.3086462 -0.12598467 0.61910945 0.7597203 -0.67316705 -0.7303973 -0.4696998 -0.9971454 0.56618214 -0.06386646 1.2942649 -0.924622 1.0291156 0.9790251 0.5260967 -1.0734675 -0.36658493 -0.46426928 -0.60696536 -2.2229671 0.013260103 0.54683274 1.4210758 0.346015 1.12016 -0.56289977 0.74634117 -0.16558929 0.472876 -1.7595311 2.0682535 1.836553 1.1604655 0.55294436 -0.94751376 0.1318354 0.24218307 -1.4025509 0.6504453 0.10208043 -0.447381 1.1290537 0.0053699617 -0.5572438 0.260405 1.0154229 -2.1809509 1.1985679 0.7290958 1.4581474 -1.1538438 -0.39419478 -0.10657359 -1.3119026 -1.0843848 0.09452969
65 -0.9669665 -0.8926804 1.5140862 1.5631816 0.8311156 2.4223883 -0.45314544 -0.6482919 -1.2482094 1.2040977 0.9004183 -1.542014 -1.4082352 0.18437377 -0.4151997 -0.1356282 0.11249515 0.8388868 0.34576893 1.5014617 -0.028610919 0.66985476 -0.35931534 0.43425882 0.15236014 -0.31403878 1.3208516 -0.5890313 -1.3774483 -1.1343672 -1.9219401 1.4454111 -0.5658261 -0.2553117 0.92575294 0.73637134 -1.6512319 -0.45173365 0.007962016 0.907237 -0.6190692 -0.05278686 0.8444096 0.47841433 0.24766417 -0.79036736 2.0248387 -0.40093702 -0.018000795 -2.3719044 -0.27119067 -0.74606925 1.4621459 1.3482373 -2.4519496 1.0427661 0.7694579 0.79651284 0.077880174 -0.38738215 -0.038231358 -1.3825111 1.1153759 0.27437428 0.30013782 1.9526407 0.110352725 -0.8718053 0.08414085 -0.48893467 0.42356145 -0.7541215 0.49289986 0.4426916 -2.8677084 1.022192 -0.1658707 0.5017898 1.4396012 0.583385 0.13921161 -0.8867509 -0.8450765 -0.56289715 0.2731479 -0.5357566 -1.4640036 1.1475807 -1.2652378 0.5951939 0.11173314 1.4756565 -1.1599427 -0.22063123 0.10278166 -1.0533031 0.8910817 1.2203553 -0.381301 -0.451089
66 -0.7049348 0.52758276 -2.5033143 1.7411011 -0.85565513 1.2326407 -1.0683187 -0.08637865 -0.28698885 -2.2707891 2.240714 0.18635827 -1.2158788 0.651875 -0.74113566 0.73037577 -0.3260942 0.56360775 0.95331556 -1.0637885 -0.5958643 -1.5766432 0.23671903 0.050711274 -0.85237515 -0.8256725 -1.2782549 -0.06706198 -0.009536605 1.9698334 -0.25189942 1.4981574 -0.06288278 1.6643046 1.6160866 -0.36819363 0.49439245 1.0826577 -1.9653872 0.47794142 0.7277643 0.5239028 1.3578762 -2.3292089 0.09494599 1.6534386 1.6842488 0.23603736 -0.35293165 -1.0099958 -1.0326576 -1.249088 -0.37323034 -1.6423782 -1.4223369 -0.8496461 0.67182845 -0.033265192 0.3216004 2.4268928 1.1304071 -0.22108476 -0.3681758 -1.8093413 -0.6051839 -0.47793764 -0.42632064 0.58358884 0.58984494 -1.4499147 0.5277672 0.61751807 -1.4900267 1.6936456 1.038037 -1.9726806 0.52447516 -0.031928826 0.888361 -0.891076 1.229181 -1.9418094 -0.42759332 1.5589174 0.55778384 1.2924848 -0.28993812 -0.39950147 -0.885357 2.397964 0.34384322 -2.07572 0.9276589 -2.3501174 -1.6466054 -0.049805537 -1.4245731 -0.7692037 -2.1291547 -0.6252867
67 -0.13595127 -1.673679 0.6468964 0.35160685 -1.7955673 1.4596044 1.365223 -0.67924696 0.6109299 1.1606472 -0.19152403 1.6115801 0.119216666 0.42472377 -0.86287445 -0.7181924 -0.0689771 0.92796075 0.21838209 1.2765833 -0.15586549 -1.0670885 0.9435203 -0.45230344 -1.2181277 0.66155976 0.34916365 -0.12539816 -1.0237999 -0.026177645 1.1498208 -0.7350931 -1.252286 0.028075272 1.3792714 -1.1059849 -2.5773807 -0.14591932 0.75286067 -0.49230364 2.1626575 -0.11240892 1.5605123 -0.20224752 0.7342031 1.2662201 -1.1330082 -0.4055449 -0.41644248 1.3896412 -2.3427014 -0.034678433 0.37318438 1.3065115 -1.3227528 1.3243128 0.9081181 -0.27737126 1.3165048 -1.3043624 0.12360521 0.4508336 0.2403573 -0.13932393 -0.8326898 0.77324283 2.276522 -0.15633962 0.047303755 1.5262595 1.1292329 0.34781793 0.95893615 -1.1888186 1.1458813 -1.0081096 1.3378934 -1.9824632 -2.5950875 0.22864129 -0.8515279 1.8562039 0.795165 0.8656802 -0.22188568 -1.3381109 0.8392174 0.87039894 0.54791397 -0.6279006 -1.8920686 -0.12495332 -1.2044728 0.8687205 0.13637964 -0.2158279 0.4744093 0.2216984 -1.0786479 1.7198907
68 -1.0135869 -1.1373185 -0.39846328 0.97640777 0.15714473 -0.35123613 1.6522355 1.3468854 -1.544453 0.9957318 0.076464824 -0.685519 0.21206503 -0.73677087 1.2428906 -1.0268043 1.6027344 0.1759079 -0.4105241 -0.9192902 1.0275484 0.71354717 -1.2978371 1.7155335 0.20322543 0.67287534 0.2951982 -0.4615067 1.2427539 0.88790065 -1.5868521 0.6262057 -0.8983724 1.503894 -0.0026077211 -0.6202133 0.2927062 -1.221129 -1.8690984 0.45266455 -0.17041218 -0.37605894 -0.3284493 -1.4351275 -0.68863 -1.3483623 0.8689771 -1.4685327 -0.015572302 -0.84953755 1.3576918 -1.0227543 1.4358321 0.39164966 0.07574399 -0.5798757 -1.1502472 0.4817379 -0.9325195 1.3385234 0.6338978 0.086514585 -0.6348039 -1.0227445 1.1197013 1.300806 -0.6857462 -0.75198364 0.503756 -0.59403384 -1.6813327 -1.8782889 -1.3792311 -0.3040587 -1.6556531 -0.44842827 0.41783664 -1.2448775 0.51918304 1.2404262 -0.28427404 -1.1951904 1.6152806 -0.09296309 -1.7763019 0.15444547 -1.913467 -0.6324552 0.28295776 -0.6582591 0.5700655 2.417494 -1.5864298 0.88039345 0.11126729 1.7088326 -0.1002904 0.0735663 -1.8306051 -0.1611191
69 -1.1503973 -0.7160559 -0.4249778 -0.09370781 -1.307913 0.9059543 -2.0881019 0.46685308 -0.45997182 -2.0645797 -1.2969972 -0.022122188 -0.980051 0.623071 -0.5346239 -0.37615657 -0.5118778 0.354644 2.0307248 1.0994239 -0.9618273 -1.5047351 0.7665279 1.8695844 1.5774577 -1.5151424 0.20728043 0.19171028 0.58610463 0.41243592 0.6225923 1.3338213 0.2402709 0.02383795 -0.7160901 0.55438435 0.39409375 0.48012465 0.29441118 -0.15692069 -1.6923724 -0.27219397 -0.02938281 -0.32282254 2.44175 1.1012489 -1.2905308 1.34074 2.0913491 0.33466637 -1.5969704 1.0417745 -1.4548614 1.2816103 0.029509705 -1.9364197 0.69719744 -1.4014605 0.003829806 0.7065623 1.09561 -0.37441307 1.4286196 0.5057405 1.0118827 0.963923 -0.8318967 -0.16384017 0.7032484 1.1311753 0.20428658 -2.0120976 -0.78633213 -1.883792 -2.2840421 0.96110874 0.06284534 0.6990644 -0.66017133 -0.49164686 0.11760877 0.21748209 -1.2064488 -0.531939 0.41330397 -0.2823376 -1.9526094 1.3779346 -2.024142 0.32456452 1.3188773 -0.3348228 -2.4041626 -0.63095266 0.24694689 0.29335088 -0.9047814 -1.4082869 -0.5861942 0.051528323
70 -0.42043748 -0.1335017 2.16021 -0.643821 -0.8637239 -0.85009587 -0.9646051 0.15296109 -0.5720615 -0.37500924 0.07501464 -0.041603867 0.8650007 -1.1502911 0.74670494 -1.868276 -0.9231657 0.8039801 0.4186956 0.07251482 -1.2952142 1.4704981 0.64593935 0.10820592 0.55232894 0.3651457 0.05728947 0.15760949 -0.6554908 0.64819384 -0.09839025 -0.5391695 -0.14600231 0.19971013 -0.07236442 -1.064819 0.34442076 -0.6601117 -0.050574683 -1.0142844 -0.22377802 0.0656851 2.5472398 -1.5997834 0.40271115 -0.32568848 -0.64337677 1.1390793 -0.07319435 0.87588155 -0.04148366 1.895491 0.41395053 0.27649865 0.037468877 -0.06679087 1.4719837 -1.1794484 0.888673 -0.23457117 -0.98435843 0.14512567 -0.15191984 1.3783286 0.73409224 -0.59431434 -0.24371286 -0.49041602 0.6998826 0.9360791 -0.9677234 0.8390796 -0.27704397 -0.408942 -2.4721758 -0.13186908 1.4559367 0.8313289 -0.77423674 -0.7188994 -0.08435437 1.0937189 -0.5531183 1.523173 -1.2011303 -0.7299144 -0.6823412 0.7230213 -0.06402933 -0.62868893 -1.5081561 -0.6278974 -1.2588949 -0.92821085 0.17845947 0.65558475 0.48617142 -0.030383974 1.9128572 1.2919517
71 -1.5088528 -0.7104785 0.088104814 -0.39976195 -2.5180619 0.9421714 -0.32466894 1.5456151 0.25372607 1.1690984 1.3518018 -0.1416335 1.0175549 -0.70272565 -0.039329384 0.2310134 -1.0494478 1.0688212 1.3776304 0.90531975 -0.41253963 -0.3360247 -0.8275418 -3.4368217 -1.5097487 -0.41258076 0.9219493 0.55270016 0.586281 -0.5912763 -0.9358999 -0.2747323 -0.4838685 0.7947078 -0.6227704 0.22075543 0.06039023 0.1263752 -0.26859736 -1.7988052 0.77002156 0.53595996 0.91518265 -0.42538106 0.043869242 -1.0173479 -0.13590102 1.6608397 2.079802 -0.2501878 0.73531467 0.53518474 1.2086153 -0.5950757 0.20813212 0.29090557 -0.68111366 -0.8027565 0.1329236 -1.1248358 -1.5631665 -1.0726293 -1.066901 0.81877595 -0.022369381 0.14981422 -0.7141204 -0.13545726 -0.09271661 0.52227527 0.1858732 -1.4506755 -2.294108 0.65445024 0.92553306 -0.74573696 -0.5753267 -0.83226675 -1.0224636 -0.46762607 0.35986713 -0.28885615 0.04647724 -1.5340644 0.255324 0.00178158 0.034294784 -0.108566284 3.3590283 -0.41998085 -0.13381632 0.8020271 0.44113335 -0.0045983493 0.97085494 -0.6153498 0.12562124 0.9942041 0.8051534 0.42360443
72 1.9129807 1.716333 -0.54155326 0.17217301 0.26742196 -1.0216718 0.053831488 2.4577289 -1.1754354 -0.45516145 -2.1315465 -1.1736372 -0.5678912 -0.50744426 0.38810036 1.6525362 0.32862812 -0.73943526 1.15847 -0.8389717 1.2879015 -0.012471536 -1.1640464 0.054339003 1.1959085 0.26938426 1.2636853 -0.43458128 0.62910783 0.8099842 0.74295 -0.76322746 0.14109012 0.4817405 0.22036412 0.2801143 0.31699216 0.003411899 -0.29893744 -0.30397302 0.678819 0.08359623 1.4031184 1.3229804 -0.026923655 -0.34633964 -0.82096344 0.005183731 -1.6246816 0.71446633 0.06314321 0.36163348 -0.13775565 -0.95629734 -0.0636119 -1.4730948 -1.9027747 -1.380551 -0.5711945 -0.86375606 0.7407922 0.37648344 0.7103955 -2.2133126 -1.2832707 1.8938524 1.2471335 -0.10333094 1.1267122 -0.19402479 0.6240817 -2.2423425 1.2282326 -1.7326117 0.81352484 -0.31771874 -1.7670937 2.8163564 0.66240615 -1.4137956 0.12931956 -0.06801875 0.4733717 0.9417583 -0.24367347 -0.093096904 -0.1367534 2.0112312 2.0606387 -0.9606131 0.8073542 -1.0204548 -1.8252172 1.7940311 0.48405898 -0.5044437 0.17637143 -0.9211923 1.9149243 -1.0390724
73 -1.3761075 -1.409211 0.36445767 -0.8893091 0.35720113 -0.055176858 0.40299246 1.4478862 0.023913128 -0.67170054 0.52964205 -0.12112645 1.2346921 0.57416505 0.54210377 -1.5026628 0.021769129 -0.19592564 -0.2568956 -2.0397732 0.017495183 1.3727198 0.3491199 -0.7630065 1.3069663 0.47674248 -0.8221398 -0.14996998 -1.2769011 0.77743536 0.8506849 0.4621602 -1.5988147 -0.34308204 -2.1204963 -0.49338937 1.195692 1.1914585 1.7517452 1.21849 -1.0083703 0.9425096 1.8081243 -0.049812287 -0.9410909 -0.2718729 -1.0453298 1.8929485 0.01619864 0.16875625 0.855402 -0.68268436 0.4136191 0.7063184 0.13685073 -0.7725671 1.7862388 -0.5481357 -0.57687354 0.025873829 1.0784853 0.6318097 0.56434166 0.6115959 0.08985177 -0.68575996 0.48810273 -0.2949938 1.5203488 -1.9105945 1.44528 -1.3214376 1.3775421 -1.1917038 0.6214778 -0.09409782 -1.2133535 -2.030909 0.5501566 -1.1715283 -0.22926146 -1.638603 -1.2818335 -0.3188327 -3.151567 -2.8198853 1.2920952 -1.2617321 0.047100745 -2.2460659 0.021924863 -0.096489266 -0.9311911 -1.9306701 -1.6675146 -0.7245784 0.9849393 -0.16507435 -1.0062598 -2.1765246
74 -1.2613554 -0.93411845 -2.0272355 -0.34976748 -0.2468223 0.12413424 1.1257049 -0.067741096 -0.6762524 1.0563977 0.032502994 0.5509138 -0.80771005 -0.48414633 -1.0820582 -0.40605795 -0.026331436 -0.7606075 -0.43374053 -0.6886047 -1.0792228 -0.8684776 -0.68836385 -1.4916192 1.6197824 1.4822395 -1.9743814 -1.3624791 -0.54628605 -0.29768026 -1.844326 0.9011056 -2.1353228 -0.6672769 -0.92424715 0.26406047 0.66908246 -0.50446784 2.0553124 -1.8437263 1.4058764 0.13701333 0.24130054 0.21509062 0.85985035 0.22225899 0.75426537 0.6443034 -1.0242834 1.1693988 -0.76881707 0.6183196 -0.25425076 -0.40940738 -0.18906516 2.3641346 0.11730163 2.4667008 1.781906 -1.039018 -1.0466986 0.059503432 -0.47951102 -0.283084 -0.98509926 -1.9945375 0.0076183574 0.45432657 -1.1868064 -0.12875251 0.45341572 0.6130863 -1.0905052 -1.1239028 -0.8304545 -1.0900009 0.06489949 -0.0784059 1.0254472 0.19883603 -0.15316482 -1.9512035 -0.20551147 0.68115675 -2.9043705 0.93478143 0.03813326 -0.045223136 0.30535388 0.079680584 0.68121237 -0.0001186081 1.3407134 -0.36828706 -1.3626554 -1.8498619 0.38273016 0.57358265 2.666045 0.10667067
75 0.37215915 -0.5252422 -0.5494522 -1.6529579 -0.6030497 -0.29234138 -0.69064665 0.26568115 0.5929053 -0.83446926 0.15725763 0.80103153 0.69307506 -0.6605039 1.9620098 1.1308072 0.7507682 1.0008864 -2.1013288 0.45266473 0.16264252 -0.15160415 -0.24156193 -0.7467819 0.43623462 0.5249126 0.57463634 0.9583473 -1.3632368 0.58977836 -1.0386719 -0.31773525 -0.13467771 0.21226272 0.28098083 0.45972216 1.0046589 -1.0460207 -2.1608913 1.2806021 1.379051 -0.9654036 -1.2776546 -1.0916097 0.54001796 -0.7053728 -0.17945528 -1.3955278 1.292159 0.7548544 -0.5938728 -1.4766737 -0.33668694 0.31212795 0.24898861 -1.4675245 -0.38300928 -0.13486992 -0.30405167 -0.1898946 -0.10019063 1.6409947 -0.4348696 -0.6089596 -0.3910668 -0.3801424 0.21244459 -1.4994783 -0.00419872 0.10677576 -0.4338212 0.81806225 0.6715781 0.55956596 -0.3745291 1.0174326 -0.0061581694 3.2491417 0.02659429 1.3842748 0.52506775 1.1250502 -2.4345617 -3.2364254 -1.7855039 0.33032432 0.1551306 0.19275965 1.0665455 1.3044513 0.29351726 -1.3310962 -0.642079 -1.3993531 -1.1001786 -0.29925683 0.16941214 -1.1758054 0.09512888 -1.0063052
76 -1.0008734 -0.455672 -0.0968981 1.1819788 -0.7384519 0.5737163 0.36454046 -1.4620878 1.4306675 -1.3234576 -0.5845473 0.41298103 -0.6343026 -0.20727429 -1.5147915 0.6211762 0.14494976 -1.0070983 1.5739487 0.06541768 1.4461764 -1.0323793 0.45113748 0.89422256 1.3213007 -0.6401471 0.2511284 0.5906486 0.6114242 0.42658493 -0.64698166 -0.55550545 1.4627525 1.5646422 -0.67127997 -0.11885011 0.622063 0.9651215 -0.16703121 -0.20558587 -1.0754529 0.6898799 0.23120572 -0.2904926 0.45079494 -0.5800847 0.054338273 -0.5395192 1.1797593 0.5021765 2.0085864 0.75059843 0.47887126 -1.0103272 0.02774021 -0.95063466 0.9399423 -0.05028327 -1.8098091 -0.16205911 -0.67297536 0.84236324 0.79682136 1.8135599 -1.6921965 0.441699 0.60044163 0.10619492 -2.1577847 1.0718328 -2.8060272 -1.3728529 1.6244755 1.1653835 -1.2586426 0.009283283 0.7943632 -1.6692784 1.1833935 -0.50771195 0.6649268 -0.65058476 0.40770414 -2.319003 -1.2764516 1.8820161 -0.28527912 0.18517126 -0.3077477 1.7101915 -1.1111239 0.6177583 -0.51869184 -0.6760988 0.491406 -0.8197084 0.4092263 -0.33443928 1.1046499 1.9521307
77 -0.9624092 -0.11021776 0.14262387 -0.20631847 -1.7739726 -0.21296649 1.0023183 0.48838198 0.7377997 -1.9464763 -2.04425 -0.37369338 0.853681 -1.6124585 -1.2971107 -0.3480057 0.73671323 -0.5076042 0.9045154 -0.49834615 1.1920122 -0.54677397 -0.059551585 -0.7543808 0.13777167 0.3432919 1.2986592 -0.29418218 1.5050098 -0.589298 -1.6054611 -0.7053498 0.6393034 -2.121682 0.34726837 0.46074578 0.55722207 -2.3655727 -0.37843627 0.28396517 0.27594972 -0.76912737 -1.1719713 1.2939295 0.28552103 1.0078827 0.07792822 0.25768304 -1.0682278 -1.6515505 0.80228305 0.054692537 -1.930077 -0.94537586 -1.5605388 1.2034727 0.2212395 -0.804378 0.8193609 -0.9232906 -0.9705037 -0.89535964 0.6693705 -0.93308973 -0.033059027 1.157936 0.38967976 -0.24146926 -1.672439 -0.6958319 0.038061924 -1.2573365 -0.6503633 -0.05859553 -0.72858584 -0.043229584 0.69333106 -1.0731316 0.07554708 0.17851265 0.47940305 -1.808046 0.112482235 0.5557062 -1.0815811 -0.45278287 1.9997233 1.2722511 0.97440606 -1.0472171 -1.3856336 -0.93036 -0.17291196 -0.5941677 0.6448079 -1.5131494 0.11768953 -0.7473473 -0.9303882 0.24915509
78 -0.025171183 0.2609209 1.154298 -0.7457002 0.09470248 -0.07636425 -0.27425072 -2.4337096 0.4946966 -1.4929227 -1.1809449 -0.55607736 0.4999629 -0.068770185 -0.07332744 0.7734948 -1.3429542 0.73349565 -0.5216404 -0.84540564 0.5710937 -1.9780672 -0.6219922 -2.2390432 1.9624715 -0.3075486 -0.28709638 -0.55867773 -0.123370215 -0.7497887 0.10502887 -0.4497523 -0.55321044 -1.3125609 0.25421 0.53812015 2.409145 0.35088426 0.16421337 1.2095884 -1.3501527 0.39219576 -0.7236462 -0.39787862 1.0509608 0.64025074 -0.09987592 -1.6404128 0.583427 -1.5028898 1.6904055 -0.8536851 -0.106590606 0.12111345 -0.37109736 -0.46527103 -1.1958199 0.31380326 0.53480875 2.2208462 0.40693325 1.4962289 0.057626963 -0.93630165 -1.976068 0.10547619 0.29415727 -0.64370084 0.7746858 -0.4715623 -0.18953824 0.03554386 0.06587707 1.465327 -0.9201854 -0.6472459 -0.8203548 0.42763618 -0.48238325 1.3678533 -0.044005938 -1.3859448 -0.5441532 0.37544024 1.2596354 0.97565037 -0.17063893 -0.040041316 0.68975294 -0.42490184 0.66050756 0.6044746 -0.8467176 -0.47190708 0.5663337 1.2800846 -0.970911 -1.7274917 0.45998928 -0.6225692
79 -0.12485278 0.41297796 -1.2933742 0.6322506 0.12553573 0.25393146 -0.095079884 1.8140413 1.2580729 0.4252658 -0.85837317 0.19967471 2.5823169 -0.18440564 -1.3198674 -0.9597347 0.6184878 -0.08267916 0.4283296 0.42229208 0.47822276 -1.7504473 -0.26436162 -0.8375459 -0.59828115 0.6441775 0.5814747 1.1352948 0.36730516 -3.2764804 -1.9896259 -0.47724673 -0.11383536 0.90955263 -0.42554906 -0.7036229 0.8138942 0.019498004 2.3391962 -0.8399897 0.8310563 0.9614511 1.2921361 0.14897218 -1.5969085 1.0750605 0.5546214 0.550809 -0.7214639 -1.2515285 0.24630886 1.647977 0.33359292 -1.537605 -0.05560318 1.4217707 0.9980051 -0.93031555 -2.925867 -0.7884233 -0.17686631 -0.49670509 -0.53332496 -0.13202219 1.5013336 -1.4436282 -0.96769965 2.032499 1.6840433 0.7566226 0.25850657 -0.8784392 0.14766166 -0.50685775 1.2676837 0.5162504 0.54162294 -0.18177983 2.8968074 1.1050578 2.4876895 -2.1167 -0.016633568 0.075881936 0.010961681 -0.7614143 1.2624928 -0.07606423 0.7526134 -1.361436 -0.78666466 0.4289972 0.7828986 0.41938183 1.4547019 1.0566657 0.726104 0.3863826 -1.1690817 0.010631444
80 -0.03839943 -2.3990412 -0.18865967 -0.7585826 -1.3826063 -0.19777448 1.2130139 1.547401 0.2608144 0.8345399 -0.35649598 0.029995842 0.5341259 1.3099624 -0.096051596 0.6463451 -1.2176777 -0.5983309 0.8134892 -1.4325391 -0.94924116 1.5277084 -0.6276419 -1.0964835 -0.33225873 -0.21206252 -0.22277515 0.16484728 0.41283756 -1.6932544 -0.17649405 -1.2582921 0.30379978 -0.101602115 -0.6663961 0.82939106 0.369283 0.3649343 -1.3935289 -0.31008625 -0.90250933 0.15508927 0.6367432 -0.79812384 1.1783475 0.22314478 1.018938 -1.1467592 1.8316035 -0.15707225 1.7671711 0.24570568 -0.6871179 0.25951862 1.7103865 -0.21217866 -0.7578125 0.8649214 -1.4410102 -0.87114257 0.5147825 0.29326832 -1.1307935 -1.5508407 1.1461376 0.35563606 -0.29516366 -0.6336494 1.8644292 -0.5244039 0.69315594 0.092535935 1.6051008 -0.026101168 0.6149653 -0.81140333 2.400706 0.5158573 0.003964529 0.5645261 0.75891 -0.7878402 -1.0385354 -0.20810355 -0.7993025 -0.42258546 -0.5136449 -1.0442464 2.278379 -0.17405885 -1.412384 0.554136 -0.46700472 -1.1715158 0.23342857 -3.0159535 0.4664486 0.24626395 0.20793067 1.3379555
81 -1.9183719 -0.7103718 -0.13602601 0.8951888 0.46639693 -1.2707684 1.2952156 1.6128641 2.1908147 0.117170334 0.7247942 -2.5048895 -1.0555428 0.1636571 1.8770099 1.3438807 -0.33053017 0.85880226 0.35638255 0.19106306 0.48558104 1.5833806 0.6776534 0.36089745 0.2839896 -0.18555818 1.93485 -1.1699338 1.711222 -0.33058047 0.3391139 -0.67741823 -1.7403835 0.51526916 0.23046218 -0.31391066 -1.7026889 0.81200665 -1.4699178 -0.08174669 1.6430101 -0.50115436 0.45924932 0.30696416 0.5683565 -1.1448948 0.8438127 -0.11232306 -0.04512734 -0.4623315 -2.3385944 0.92521024 -0.37174416 0.9074925 0.78568184 -0.9076215 0.4415196 0.09764096 -0.90736693 -2.3808339 1.0021616 -2.7211199 -0.48579982 1.2966882 0.05534842 0.118614495 0.19516763 -1.736721 0.5904886 -0.6643149 -0.83488053 0.5490487 1.0728078 -0.12533176 1.3603917 -0.08822531 -0.42345008 0.41985556 1.3838115 -1.5392252 0.21608241 0.24416666 1.4947082 -1.0207884 1.2679687 -1.4615332 -1.1309415 -0.016953824 1.5477761 -1.5906299 0.85725254 0.16122346 0.009557594 -1.5825032 -1.7958387 1.8388522 -2.6176643 1.4537537 -1.4464018 -0.18188275
82 -0.92998314 1.051365 0.29565337 0.37804413 0.9859164 -0.22371812 1.7436712 -0.12298051 0.8561174 0.27431366 0.9176387 0.39500892 0.87519664 -0.61973965 -0.9113474 -1.6350179 0.48275638 0.87316835 1.5400705 -1.1623118 0.7554879 0.9601645 1.2761546 0.8264914 0.9251185 -0.59348524 0.651659 1.1451707 -0.1282119 0.54989684 -0.877771 0.61153275 -1.5692823 0.65069616 0.016753392 -2.1813202 -0.48792073 0.5617214 -0.60655916 1.329268 -0.9517018 1.4816719 0.11547393 1.4307754 -2.4066002 0.562438 1.5622905 1.1843256 0.8832972 -0.2860238 -0.38057002 0.36167872 0.06794055 -1.4256136 0.09831146 -2.2261806 2.3732462 -0.3773255 -1.1461049 1.3583597 0.93866754 1.6112785 0.88000125 0.21060158 0.60032886 -1.6949611 0.8095588 -0.045546748 1.2931173 -1.791535 -1.2406211 -0.40102595 -1.3901945 -0.6317 -0.07629339 0.15462214 -1.6316943 1.1810303 0.091731206 -0.3255712 -0.72810924 1.2573748 -0.46928325 -0.70194715 1.26841 -1.1078995 1.3213804 1.859105 1.0251408 -0.5801579 -0.63880837 -0.1123435 0.9356958 0.5980723 0.16612542 -1.8856214 -0.26133013 -0.53332424 -1.5813526 2.2170615
83 0.78724265 0.01898708 0.1089164 -0.347647 1.4949521 2.197831 -1.4982115 -0.061789032 1.2933995 0.15662694 -0.14147383 0.3097544 0.8862934 -0.78904754 1.0470465 1.0635219 0.35839656 0.32372242 0.7008129 0.4779703 -1.7198915 0.34233487 0.94423616 -0.29874778 -0.96070343 -0.360369 -0.7357229 -0.78709584 -0.7043511 -0.54859483 -0.13489774 1.0160079 0.21659161 0.2572353 -0.5698188 2.5662408 1.0260504 0.058272563 -0.5025479 0.36813465 0.8120691 0.7815296 -0.12091194 2.1347353 -1.0398225 1.4386312 1.3707244 -1.2758949 -1.1185948 0.24630524 -0.68166524 0.4423688 -0.35699797 -0.4364881 1.2325485 -0.35669267 0.54519784 -0.0391714 -1.1191052 -1.4407984 -0.26227945 -2.1760433 1.4679899 -0.11977545 1.2435427 0.42389944 -0.7277032 -0.08417603 0.35065994 0.4373345 -1.4045953 0.61224616 1.0698041 -0.57388556 -0.22589721 2.481553 -0.682489 1.0155617 0.44889775 -0.68393344 -0.42189276 0.17670979 -0.54881513 0.70401555 -0.10367735 -0.35745084 -0.76555794 0.89558876 1.6196896 0.22821617 0.0048323544 -0.12719643 0.5913196 -0.2692025 0.8447316 -0.122247286 -2.1779723 1.4247051 0.02995455 -0.6789562
84 -0.6073587 -0.25115693 -0.12434684 -0.8115408 0.42873624 0.483769 1.8881947 -0.3702418 -1.0809615 -1.1847043 0.49679524 -0.6341921 -1.3633848 0.04021908 -0.46604276 -1.4881232 -1.7869534 0.9010025 1.3015094 0.17675054 1.7124002 0.40026692 -0.78906167 -1.2680421 0.74719775 -0.7542728 -0.124041244 0.31343475 0.27481243 1.4217019 -1.2554289 0.597603 -0.5076534 0.29744348 -0.62852865 0.29907942 0.24850829 -0.39421976 -0.7222096 0.4985348 0.18580152 1.6924107 -0.2801864 -0.9243964 0.17630054 -1.6691294 0.7361668 -0.50744927 1.4786974 -0.20951809 -0.6615614 0.17913814 1.3737923 -0.6645364 1.113104 1.0313358 0.29497355 1.004206 1.8957986 1.3558922 -0.8175979 -0.829603 -1.0172322 0.30219343 0.54184186 -2.0125945 0.3432472 -0.46074522 -0.8340114 -0.12149019 1.1937888 -0.926888 -1.167759 0.03246045 -0.35096988 -1.7423862 -0.86186516 -0.86948806 -0.569184 0.45359048 -0.37109417 1.1303685 -1.0475228 0.67658216 -0.8537173 -0.18429178 0.76672536 1.5340761 0.32617468 0.60770375 1.2774781 -0.4261123 1.2803801 -1.0386131 -0.48561877 -1.1029055 -0.29509106 0.99561846 0.37275177 -0.26965228
85 -0.7523339 -0.3435719 0.3250865 1.2199452 1.8616751 0.34719282 -0.49596426 1.1594342 0.53748775 0.53139585 -1.5018506 -1.3390009 -0.102864355 -2.2177386 -0.06255443 -1.4685216 0.11004084 -0.2077389 -1.8559599 1.4288611 -1.5221274 2.161341 -1.5874083 0.18366405 -1.2479779 1.4546237 -0.6886967 0.070234604 1.2509792 0.28829274 0.6793337 1.3937997 -0.17284253 -0.60792613 -1.0851175 -0.48825562 -0.20395485 -0.3579513 2.447606 -0.7354663 -0.22672659 -1.3026835 0.5527677 -0.36614984 -0.37681836 0.59071016 0.3649242 0.23635104 -1.5698675 0.106636785 1.5639672 0.8029098 2.0349011 1.0578542 -0.8095393 0.15367909 0.064536445 -0.40024424 -1.9666227 0.6616813 0.2318183 1.2351092 0.19419473 0.8389657 0.99927014 -0.45347756 0.092234805 -0.50092894 1.447293 0.29692587 -1.4109317 -1.3729788 0.043633036 -0.8923038 -1.4342896 1.2838157 0.64003485 0.6724213 0.12905921 -0.98820746 1.3758744 1.8590001 0.4419701 -0.9474922 -0.004759757 -1.0513817 -2.0016336 -2.0258863 0.59400946 0.0033139565 0.15236378 0.31593865 1.2800326 0.7834406 -1.2033793 -0.54050875 1.6660124 0.5742687 0.53913957 -0.38616547
86 0.53855747 0.18695931 -0.029558431 -0.44889534 -0.657444 -0.5471023 0.50250924 0.30018455 -0.8317962 0.99909115 1.3789636 -1.5858374 0.3950578 -0.26571408 0.8254156 -0.40937367 -0.63289475 1.1544987 -0.3840286 -0.15125573 -1.6458722 1.1236943 1.347473 -0.61241394 0.5083057 -0.6634373 0.59358025 -0.9577001 -0.1726016 -0.4114846 1.84513 1.6199943 -0.091755964 -0.508264 0.3970976 0.99150014 1.692074 0.792656 -1.5140407 1.157413 1.3964587 0.26534647 0.10710559 -0.9701046 0.81502146 0.45866036 -0.564622 0.58962595 0.22654888 0.82829696 0.0002766918 2.340143 0.47893715 -2.6977117 0.058350537 0.98112655 -0.1023235 -0.96491176 -0.114721134 1.1890393 -1.0791031 -1.1623806 0.069227435 0.5799793 0.5771987 0.076735325 0.57419705 0.13033135 -1.2931671 1.7046397 -1.9740585 -0.88340175 0.101733 -0.90197784 0.29577428 -0.22067639 0.10865687 -0.027092274 -0.5949351 -0.8441629 -0.17925146 -1.5819867 1.0858274 -0.1931391 0.79821527 0.643149 -0.59473187 0.5231999 0.033208963 -0.941592 0.7910436 -0.87106067 0.8367646 1.4263592 0.3973573 0.3172554 0.739302 -1.3034995 0.6321469 -1.8694528
87 -1.0930783 -2.139386 -0.77132183 -0.6866267 1.167969 1.0525254 -0.5578565 0.9532452 1.1131841 -1.0709207 -0.58987004 0.19068757 -0.51223123 0.02861887 1.3191608 0.4572325 0.5188755 -0.9899903 0.8513342 -0.4629143 2.57679 1.3611904 0.6755821 0.41407356 -0.3863995 -0.12846288 -0.102600515 0.42622817 -0.028441636 0.6838104 0.25473028 -0.28626823 0.39118618 0.39134845 1.0518754 0.41004273 -1.7742623 0.32261038 1.4421855 -0.35554975 -1.6066537 -0.7955366 1.3079838 -0.43995684 0.47081432 1.2434778 -0.8990361 -1.2377601 0.19178256 1.5130132 0.029241517 0.3406713 -0.8754518 0.41667297 0.40137693 -1.0205843 0.33097655 0.5179634 0.04195282 -0.7399222 -0.21544182 0.427115 0.32926193 -1.9509965 0.51948273 0.039083295 -1.0762732 1.6760764 -1.0131537 -1.9377972 -1.2707883 -0.3585552 -0.62104034 -0.65918785 1.1654208 0.7303809 -0.52505726 -1.3547577 -1.4111898 1.4120716 -1.8173871 -1.0291142 0.055870123 1.4104354 -0.8499127 -0.2530448 -1.0263293 -0.5777335 -1.3455089 -0.26339638 -0.74512005 0.992105 -0.8346876 1.9353175 1.2621974 -1.6199466 -0.31170142 -0.71499765 -0.19725946 2.0915062
88 -0.0083934665 0.4246913 0.29781476 0.08857639 -0.29946804 -0.7773936 -0.69001615 0.023406586 1.4059135 1.1932434 0.008719408 -0.22349474 -0.14158459 0.41170612 -0.5406599 -0.49596322 0.42627203 0.8632722 0.49717948 0.07225222 0.7539754 -0.18878135 -0.9718328 0.80562437 -0.9201414 1.3210005 0.72060794 -0.59147435 0.29901528 -0.86740357 0.2209293 -1.2649732 0.421004 0.99617416 1.2513067 -1.1855881 -1.0539647 0.45915633 -1.5704293 -1.016469 0.19658573 0.6096415 -0.67851025 0.5568208 -1.2170097 -1.252339 0.11885372 1.6278462 0.41986933 1.3817441 -0.33462533 0.6468444 -0.17349444 -1.5776315 -1.6671474 0.14950106 2.0120149 -1.8523839 1.0978935 0.078913145 0.60353076 -0.6741693 -1.2821803 0.99974835 0.05933395 0.009026673 1.9508799 0.08043256 -0.019079695 0.40067586 -0.53402454 -1.8461839 -0.26031363 0.32294536 -1.0175828 1.7321528 -0.014356367 -1.2896339 -0.91695416 -0.46079373 -0.5497685 -2.0909784 -0.75639 -0.15908265 0.25089735 1.0011095 -0.42272413 0.4194429 -0.46423525 0.057054058 3.3140755 -0.11882078 -1.2924007 -2.622739 0.4973147 -0.6604673 -1.1944813 0.77036506 -0.5991282 0.42792526
89 0.69111955 0.71235365 -0.5791691 1.1127064 1.5160599 0.35107985 -0.2464569 -0.86875093 1.2740581 0.9967954 1.7357731 0.33037177 0.10645603 -1.7042515 1.0193084 1.327516 -0.7763671 0.03201138 0.58684033 0.7721641 -0.6709645 1.2500036 0.20607036 -0.38001752 0.6861363 0.09092575 1.406977 -1.0941756 0.59621817 -0.71579874 0.27098823 1.8828424 -0.064189896 -0.67367387 0.490218 -0.17840128 0.74010605 -0.5969029 -1.3082691 -0.5279026 0.0145602375 1.4228188 -0.14416228 -0.42020282 -1.2788422 -1.0677922 -1.3521638 1.4335897 0.06390183 -0.15719785 1.4222206 -0.22511014 -0.39099476 -0.05323103 -0.86325806 -1.7334076 1.3664455 1.8908732 1.591784 -0.5206849 0.6942474 0.6188729 -1.0956013 2.1142328 1.1698432 -0.0038896725 -1.4335715 0.58710426 -0.2938665 -0.39865854 -0.29153842 -2.593718 -1.3108045 -0.20037378 -1.2617886 0.60910624 -1.1104527 -0.26710874 -0.73850816 0.3802136 -0.59611773 -1.6915325 -0.42530736 0.5635993 1.4203057 -1.0590799 0.47666478 1.4898198 -0.44758123 0.5842991 -1.3914654 -0.16209802 -1.0609555 -0.5184537 -1.2250351 -0.7165915 -0.78255826 -0.9712629 0.28024465 -0.27612963
90 0.7016856 -0.3599132 -0.22719608 -2.013505 -0.7621795 0.5134373 0.6533863 1.6099806 -1.1511182 0.47530216 -0.8375031 -0.42626578 1.4267474 0.2705867 0.06359044 -0.3015373 0.18118642 0.49546513 0.30656794 -0.7945549 0.61847097 -1.1898316 -1.94635 0.5440401 0.1971938 0.9234546 0.47936335 -0.50200987 0.37143457 -0.10201376 0.73171383 0.8650496 -0.21376932 1.5481104 0.26134095 2.3650432 1.020006 -1.0974544 0.09959189 0.3998149 -1.7014855 0.47450322 -1.7773477 0.33465305 -2.0112207 1.135534 -0.43369955 -0.7292833 -0.42636693 0.6761994 0.052665252 -1.2516397 -2.0102372 1.0577716 1.28416 -1.803236 0.68950254 -0.8769824 0.49234763 1.8255879 -1.2303073 -1.7396454 0.01097841 0.86342394 -1.912436 1.0781829 -0.7069305 -0.41301927 -1.2364901 0.8442909 0.6560038 1.2858449 1.2426897 -2.4917033 0.7263601 0.39531848 0.9804294 -1.1681577 -1.9863684 1.3328693 0.57238585 1.825679 0.27718434 -0.5102996 -0.029042259 -0.23858644 0.6467122 -0.22800238 0.4749073 -0.43368202 -0.7969738 0.053267278 1.4133996 -1.7155085 -2.39216 0.3395481 -0.7749083 0.38010943 1.0764312 0.11165321
