100 100
0 0.7886669 -1.2472284 0.44389355 -0.95560926 0.058058813 -0.5100422 -1.0666701 0.47661817 -0.87797874 1.6422246 -0.22968511 0.87481046 0.8295232 1.1033915 0.49737823 1.7499882 0.44086146 -0.35102957 -0.57088524 -0.35270122 0.13270655 0.88039684 -0.46736774 -1.8211832 -0.29161748 0.68829954 1.5960803 0.19918332 -1.4729321 0.54674625 -0.2966172 -0.359038 -0.24132505 -1.2465572 -0.894352 -0.19052851 -0.6571943 1.4750954 2.0181675 0.15216726 -0.22026566 -0.8549482 0.57142067 0.035204187 -1.2666461 0.1022547 -0.3477062 -0.77809584 0.7139117 0.287646 -0.53370273 0.12549096 0.31970182 0.44422275 -1.0120162 -1.0077744 -1.453853 -0.9288279 0.756182 -0.65356845 -0.59475076 -1.0586916 0.43347546 0.43474123 -0.42695242 -0.1673073 -0.8277321 0.48576203 -0.4803533 -0.77736145 -0.8895275 0.68900955 -0.6885606 0.6137226 0.37724653 0.44563037 -0.33907598 -2.0819626 1.2004819 -1.7259185 1.0997422 0.78981054 2.2701154 -1.1380975 -0.27090523 -1.1548413 0.45459607 -0.69850916 0.76247156 0.7876784 0.5618762 0.4442458 1.8015286 0.6932268 -0.7131284 -1.39188 -0.9130019 0.06160003 1.2526219 -0.43778342
1 -0.051216826 -0.79282236 -0.74778646 -1.1585281 0.051116463 -0.71864116 -0.9254429 1.9143901 0.10535928 1.1969824 0.08642492 0.5279852 -1.3160075 -1.1938826 0.39333412 -2.2420704 0.8532731 0.6693232 -0.96165866 0.45291972 0.69949216 -0.49451837 0.40300608 -0.41654903 -0.7641945 0.8857797 -0.94439656 -0.6290249 1.7542583 -0.8673238 0.7298817 -0.97986853 0.47884658 -1.8819027 -1.2848611 -0.15097821 0.38008586 0.097946495 -0.49896067 1.5488039 -1.2782007 1.1075817 -0.77629995 -0.098349765 -0.2732464 0.7540549 0.25704 -0.62305963 2.015386 0.13333277 -0.21806532 1.7289501 -0.2196623 -0.5512742 0.1759534 -0.8101041 0.03126232 0.6241618 -0.23449378 0.17442746 0.5206749 1.1737956 0.35245264 -0.47269797 -1.665047 0.21901433 0.31156904 0.16318889 0.3187285 -0.67239505 1.0438726 0.68844473 -0.9651121 0.25832093 0.85359967 -0.27294374 0.4314842 -0.61550516 -1.6514649 -0.7471074 0.28626937 0.76658446 0.4227784 -0.40131885 -1.6241295 -1.0592377 0.8094811 -0.5888317 0.73333544 -0.5968824 0.67708445 -0.12313947 -0.4773672 0.37573653 -0.1082892 -0.116736755 -1.2859145 -0.3609 0.026779365 -0.4818403
2 -0.93468624 0.18200143 -1.4148291 0.07391569 -0.91003025 -0.14666416 -0.6756829 -0.67930275 0.3789568 0.3944848 -0.30173662 -0.1513486 -0.12225063 0.020558001 -0.23385166 0.5280867 -0.54730403 -1.9136465 1.4821017 0.12577823 -0.8119211 0.10652349 1.7791688 0.062441666 0.71923685 1.1963439 0.121673405 2.4991586 -1.3870194 0.49279884 0.0035718612 1.0716485 -1.2866887 1.3488991 0.9378178 -0.115593754 -0.9024691 -1.196072 0.34209424 -0.72163856 0.32875225 0.58940214 0.7254559 -0.32000223 0.32460046 -1.212147 1.5053957 -0.5810659 0.0004833696 0.618233 -1.0764548 0.89082754 0.3426538 0.56604856 -0.43491614 0.7545347 0.8573424 0.13752337 0.48159832 -0.1665274 1.6848164 -1.683027 -1.5194427 -0.28815457 0.9541099 0.63812923 -0.008790285 -0.6521768 0.7535916 0.8506156 0.015423034 -1.20183 1.7336253 1.6876323 -0.33297893 -0.67185503 -0.13637832 -0.6644736 0.70655817 0.38427398 1.6339812 0.8562811 -0.10332284 0.41673973 -0.7729595 1.0255077 -1.3625394 0.7072318 1.8243053 0.24232072 0.4888764 0.27664706 0.47680154 -1.7360612 0.733591 1.0040994 -1.5155271 1.6615926 -0.89109343 -0.47108626
3 -0.09934796 -0.73883766 0.7110879 0.117674515 0.6059267 0.04188417 -0.94264907 2.5673628 -0.6116297 0.46378008 -1.2232246 -0.7446382 -0.18239905 -0.28222853 -0.043776784 -0.1731264 0.8867859 0.45805845 0.7918279 0.28753585 -0.13883363 -0.7048061 0.78492 -0.06873493 -0.12458018 -0.9107202 -0.15509209 0.32489967 1.2306585 0.6657614 0.9900413 -0.68171275 0.3257835 -1.3597479 -0.2947991 -0.6104278 -0.67798316 1.306608 -1.0203933 0.5626284 -0.3866661 0.35949573 0.37329972 1.1927543 -0.9135755 -1.8738488 -0.38728493 0.12750496 -0.4827346 -2.5894527 -1.2185982 2.4445558 -1.3188127 -0.32684034 -0.722544 -1.4606638 -1.8714961 -0.28763986 -0.673793 -0.9028273 -0.8035985 1.5936 1.6741314 -0.3319795 1.2297901 0.269329 -0.50533044 -0.18148671 -0.0614739 0.02616789 0.5923644 0.16552724 0.8908379 0.51358175 1.4212785 -0.2929098 0.37573427 -1.3204069 -0.5770657 -0.56654435 0.85091674 -1.177556 -0.09233836 0.29549488 0.022020975 -1.4644526 0.34012532 0.733937 -0.8433405 0.35989758 -0.92398816 -0.80047864 -1.6892987 1.2834678 -2.3777323 -0.31981915 0.6078112 -0.9610391 -0.75660074 -0.25416997
4 -0.44990313 1.1311241 -0.22042158 -0.6375426 0.39243564 0.176697 -0.19190201 0.8234578 0.14580101 -0.01524849 0.88468677 -0.8729321 -1.3275888 -1.2028939 1.0175116 -0.14627805 -0.19203468 0.331067 0.23918305 1.8547547 0.4348383 1.0853367 1.0707861 -0.4368302 -0.17225404 -0.53993344 0.02552319 -0.3034236 -0.40558118 -0.043796152 0.78806037 -0.46037307 -0.13522816 -1.2338612 -1.6621945 0.00941597 -0.024751002 -0.35298452 -0.84432864 -0.067734 0.5590162 0.52681553 -0.97154284 1.5481778 1.4492549 -0.60648596 0.50610757 -0.37127867 1.2757037 -0.068854816 0.7861855 -0.05780156 1.2487211 0.37795696 -0.5568301 -0.5007365 -1.0376934 -0.20707738 -1.0872284 -0.14223032 0.5930001 -1.2590913 0.14568296 0.9210095 0.28212965 0.19753063 -1.1201094 0.012176708 -0.62908584 -1.8982757 0.11415881 -1.5129869 0.35215074 2.9483151 0.43321157 -0.83476335 -1.5861149 0.19454108 0.9327105 0.53414154 -0.53215003 0.20293857 1.18354 0.4868484 1.3833638 1.5417424 -0.34651378 -1.1741862 0.6897184 0.5166073 1.7764211 -0.18661842 0.47399953 -1.2674319 1.7135426 1.4861498 0.24582896 -1.6056336 1.3789947 1.1936291
5 -0.72227997 -0.21096808 -1.9343662 -0.053953853 -0.6609158 -0.2542217 0.3595507 0.29569462 0.036588058 0.62345374 0.5603934 0.7810947 0.5603463 -1.1551967 0.48168167 1.0717978 -0.14241375 -0.4192884 -0.5149576 -0.6347928 -0.8488844 -0.042846218 1.5922805 -0.9520809 -0.64458966 1.2465243 -1.9744985 -0.92272323 -0.2754592 2.2599888 0.6416172 -0.8346283 -0.06460678 0.22944362 0.26465252 -0.14228378 -0.102838784 -0.29662004 1.6834136 -0.33900264 1.1146604 1.6403723 -0.39901736 0.38010785 1.9173608 0.44526443 0.19044842 0.76731074 1.2003345 0.16130327 0.333948 0.20522079 0.7734229 -1.5835239 -0.35253134 0.35068685 1.0552466 -0.6612269 1.277967 0.8600185 1.9554112 2.0865467 0.57619613 -0.12608749 0.77109957 0.658546 -0.3169179 -2.052736 -0.14727579 -0.50059235 -1.3147781 0.766726 0.18747789 0.44619617 -1.2485397 -1.2257143 -1.0274477 -0.061609205 0.027271537 -1.3246828 -0.25695992 0.33207366 0.9341677 -0.28931892 -0.6526686 -0.34027863 1.5155573 -0.48555228 -0.37729543 -0.11514732 0.26057363 -1.3932333 0.83901453 0.4072648 1.6247944 -0.44795075 0.45956576 1.365167 0.39393842 -0.09011598
6 -0.23228876 -0.48021904 0.17767969 -0.9042277 -0.54326683 2.2114854 0.58232325 2.1741734 0.29201904 -0.6126432 0.056277264 -0.03279313 -2.167272 -0.12819125 1.4647007 0.8761261 -1.2406542 -0.9199233 -1.5364374 0.022856396 -0.03332079 0.20027545 1.0560105 -1.123131 1.6981757 0.44159245 -1.16791 1.373097 0.5188998 -1.4192736 -1.9799635 0.63269186 -0.3963165 -0.290873 -0.48107204 1.7215285 0.3341384 -0.9049907 -1.4840522 0.39215356 1.2363749 -0.6853117 1.5362159 -1.0453525 -0.5584546 1.1655711 -0.06746387 -0.4506778 0.10774474 0.36556935 -0.41843095 -0.72095406 0.18721567 -2.3151197 -1.4425399 0.6646968 0.15282112 -0.8269282 1.329053 0.90870637 -0.25217527 -0.9662255 -0.61930925 0.9717314 -0.7816234 -1.4303014 1.292364 -1.8788987 -1.0641185 -0.13663502 0.55260384 0.6991627 0.6169136 -0.797041 -1.7278315 1.065448 0.6729069 -0.30464315 0.10165598 0.43985677 0.19656593 -1.3115742 -0.039880414 1.4998752 0.4070905 0.17560713 -0.97117084 1.2873255 -1.3311982 -0.8986397 1.8370867 0.19191931 0.9806482 -1.3849328 1.0725323 -1.7780117 0.6129899 -0.60938823 0.4191219 -0.030995244
7 0.30496925 -0.057964765 -0.030871192 0.062285542 0.72835994 0.27500188 -0.9773629 1.5458376 -1.2002558 -0.08422805 0.56237864 -0.08749548 -1.0494325 -1.1954561 0.81369317 0.12769024 0.6001435 1.6050842 0.19176465 0.14947921 -0.7874354 1.7984507 -0.0011094691 0.63314915 1.037687 -0.011698511 -2.19239 -0.9559893 -0.12136449 2.0244763 0.7847056 0.38258576 0.6818858 -2.5476062 -0.67563117 -0.45078856 -0.5560942 0.043645494 0.27088937 -1.0424123 -0.23736092 -1.0162821 -0.4186687 -0.5013723 -0.41386893 -1.2081743 0.9321739 0.82001954 -0.044882704 0.12748906 1.429692 1.3795233 0.04584292 -0.23865983 0.78340274 -1.2397405 -0.60736716 -2.8068292 0.54068124 -1.7190864 0.991076 0.33671328 -0.10677643 -1.4966152 0.10980975 -0.7704939 0.45949474 0.09598461 0.9447006 -1.5564796 -1.0459087 -0.8594525 -1.0309678 0.55022866 1.2232069 -1.1365358 0.74055165 -0.7249505 0.50489867 -0.17128778 -0.64485914 0.94862247 0.3820615 -0.4852539 0.6958328 -0.5199352 0.31222412 -0.3019381 -0.28012827 0.8537814 0.9434596 0.10185297 -1.3347048 1.0102783 0.5474884 0.22064573 -1.0212511 0.5870644 -0.88636315 -0.8318653
8 1.2408031 -0.40934488 0.4310315 1.0687728 0.6738554 1.3212558 -0.07241554 -1.9426559 -1.6633289 1.0342584 -0.013356778 -0.3517004 0.22980626 0.2956159 0.41876894 -0.17004919 0.50408804 -1.1417719 0.16749421 -0.7557955 -1.5203164 -0.6908177 -0.2754293 1.1649152 1.8766255 0.81966275 -1.3848073 -0.6346496 -0.20639622 0.3636989 -0.7313956 1.1784675 -0.296835 -1.6066362 0.595346 -1.5321653 -1.3208052 -0.96877414 0.9250951 -0.06955346 0.48170674 -0.5495028 0.5705171 -0.5644472 0.6336397 0.44154838 1.1618371 -1.1129556 1.423445 0.23750077 1.8720474 0.07805293 -0.5835526 -0.86973023 -0.39314383 0.7381036 -0.43263382 0.25308982 0.09608025 -1.4954592 -1.468259 1.7297615 0.7070991 -0.25168073 -0.68565685 0.7855173 -0.9983823 -0.9110473 -0.04087202 -0.38211197 -0.12293752 0.6228909 -1.9164927 -0.116815835 -0.599195 0.10668238 -0.122058004 -0.26816118 -0.03132515 0.67062455 -0.1754726 -0.019210491 0.15288787 0.4557157 0.5374833 -0.24631456 2.4304569 -1.8578796 -0.010051233 0.24205971 1.2666956 0.60729766 0.7551216 1.2760324 -0.48609996 -0.5005663 -0.20554382 0.62310696 -1.8585553 -1.0015336
9 0.59792644 -0.58900434 0.12353863 1.6379099 -1.3578253 -2.0483134 -0.22007859 0.19263159 0.39550737 0.42261243 -1.732174 0.5173793 -0.46365145 0.30847266 0.77414554 1.5371516 -1.1579087 1.0430186 0.03941408 0.79735565 0.39281347 0.31255126 0.7493261 0.49015427 -0.47494194 0.05954667 -0.9255211 0.66300255 -0.48984736 -0.997548 1.6156821 0.96356183 -0.73909134 -0.9434396 1.8897533 0.77336377 0.39770475 -0.31029984 0.64486015 -0.28257868 0.3078796 -0.124760054 0.19685438 -0.78677297 0.5680442 -0.12031591 0.33117217 -1.7957174 1.0171012 -0.7868218 -0.61567175 1.3517557 0.46290082 0.4341825 -0.42152733 -0.23205402 1.6055851 0.5035451 -0.009404291 -0.51565766 1.0950611 0.07661857 -0.74372065 1.1929418 0.34983227 -0.46709788 0.1382881 1.2978618 -0.042449635 0.48515636 -1.4080069 -1.6654959 0.54122096 -0.40456426 -0.32036164 0.8437798 -0.55830413 -0.70437586 -0.48899725 -0.39990586 -0.5677554 -0.6316454 -0.5286717 0.07671313 0.6500079 0.59683084 2.4336045 -0.006542047 0.11279581 1.5346205 -1.6023257 -1.1004936 0.16471282 0.9070906 0.41577902 0.36493838 0.36732283 -0.86449844 0.21720707 -0.4324982
10 -2.0098994 -0.066099174 -0.6695639 0.4494152 -0.19389848 0.016456697 -0.70901984 0.91318196 0.023443442 -1.3310293 0.21619897 -0.46784034 0.47231588 -1.5042286 -1.7313938 0.4701099 0.6596023 0.40313414 -1.545321 0.6205651 0.6561954 0.8188611 0.31640399 -1.3941145 1.5574083 -1.104458 -1.2261167 0.4368644 -0.096614264 1.3602555 0.4393662 1.935556 -1.3924562 1.1153625 0.46527535 1.0210215 -1.3274235 0.59798306 -1.2288679 0.23281504 -2.1450274 0.97514015 -0.6975628 -0.18347874 0.6361762 0.1233807 2.4051735 -0.26803824 -1.9743348 -0.8946125 0.9334614 -1.0618352 0.070510335 -1.4434013 0.28507495 -1.3114295 0.24108984 -0.5257208 0.12833887 -0.43600386 1.5572292 -0.20821336 -0.46292078 -0.5111313 0.14417301 -1.2155602 0.43287286 -1.225292 0.029648462 -0.31619346 1.004084 0.08791531 -0.63171643 -0.5566468 -0.9477789 0.31129277 0.80598587 0.21261322 -0.735183 -0.8321176 -0.7647563 0.7777269 0.21613678 -0.15886128 -0.3869726 -2.587596 -0.35017383 -0.51282835 -1.8280021 -1.0226351 -0.71698153 -0.95204043 0.12787677 0.17391218 -0.52887213 0.210363 -0.18277635 -0.70786804 0.7730791 0.119926825
11 0.28804684 0.28048244 -1.4445565 0.45352095 1.2263998 -0.83882993 -1.5373772 -0.8406363 -1.0519977 1.8102714 0.1451256 1.6385221 -0.90571564 -0.42478135 -0.3485377 0.06879931 -0.99779594 -1.0667362 0.86870986 0.010517287 0.3243104 -0.1455774 2.5891519 -1.9315271 -1.0424503 -0.4371838 -0.42009816 -0.40371475 2.035052 1.396714 -1.9741935 -0.03942132 1.1475129 -1.1191987 0.64119756 -0.9095242 -0.6146318 0.1407992 -1.5552135 -0.7027473 0.13586178 -1.2815248 0.5731701 0.5908411 1.7464632 -0.35532445 0.3355857 0.0970511 -0.8697158 0.37502787 -0.13540807 1.28995 1.1008271 0.09801944 -0.3800704 -1.020123 -1.4845549 0.25932777 -2.0111969 0.577839 0.60213774 -0.24403016 0.8264207 1.1992993 -0.46710616 -0.5819018 -0.22639602 -0.13966145 -0.42905828 1.390151 -0.14592184 0.46802363 0.7626833 1.1309881 0.93743366 -0.37946364 1.702139 0.039585207 -0.051490445 -0.50856924 0.75693697 -0.37643635 0.9709809 -0.36712345 0.20461777 0.17038558 0.19819738 0.14353763 -0.9992164 -0.09863759 -1.7025583 -1.1546977 -0.8709036 -1.2027408 0.88008285 1.4204911 1.0070567 1.3977884 0.75629234 -0.68065244
12 0.9502216 0.3750198 -0.53320843 -0.5134151 0.18928082 -0.66493404 1.7978482 1.3466947 -0.5544558 0.5100973 -0.36833224 2.1046746 1.6627587 -0.29961666 -0.63890374 -1.5047315 0.069913626 -0.45729673 0.38565794 0.85352224 1.1746054 0.5739592 0.6494103 0.032123946 0.8284429 0.5040538 -0.5435189 -0.2538997 -1.4967933 -1.0660839 -0.6097577 0.59393674 0.5771151 -0.66624093 -0.0617556 -0.93933976 -0.6389417 -0.3587252 0.26668423 0.17622252 -0.30153286 -0.7584418 -1.2481711 1.0802914 1.3339051 0.9942519 0.16908798 -0.7402598 1.0308057 0.0011359203 -0.9836246 -1.5824474 1.5403007 1.1824943 0.17560954 1.5860158 -0.5528185 -0.6327169 1.1653001 -0.35916296 -1.227316 0.8443634 1.7084296 -2.5461988 0.54564685 -1.5182493 0.3494565 0.56651634 0.7451304 0.6019758 0.26043484 -1.0041503 0.4095329 -0.008483558 -0.08421858 1.0113122 -0.12926371 -0.53187746 -0.7962882 0.91379046 -0.053046294 -2.260323 -1.1290114 0.6443493 1.412894 -0.2827092 1.235 -0.11978258 0.68199116 0.048037842 0.15690109 0.39089194 -0.28717887 1.3846247 -0.17349525 -0.5850813 -1.3491925 0.065846354 0.872334 0.11313732
13 -0.026497988 0.121267304 0.35548365 -0.23316538 -1.0831748 0.9694401 1.2522454 -1.0044696 0.5635166 -0.27082208 0.66742533 -0.5588424 2.3527358 -1.3267425 -0.5773043 1.8808681 -0.94807076 1.02368 -0.8730104 -0.29918465 0.6211107 0.511764 1.1304435 0.5585519 0.4834374 -0.11584959 0.018889042 -0.08728724 -0.5431044 0.039727964 -2.025006 0.7617505 -0.27269873 1.2450832 -0.49089345 -0.14455199 -1.0038896 -0.80075514 -0.16792396 -1.4437909 0.23127672 -0.9935932 0.6060668 0.4564093 -0.6882563 1.2380122 -1.3851328 0.9027192 -0.0576928 -0.19172376 0.33069652 -0.5036091 0.093958974 0.07328372 0.8392012 -1.4087734 -0.7108974 0.7491668 -0.40718782 0.11078241 0.20917931 1.1035058 -0.55645615 0.42949766 -1.2168448 -0.323788 -1.0678132 1.6468583 0.031861242 -0.5541275 0.014628538 0.6246506 -0.037729036 1.0580982 0.88253766 0.11819902 0.41150907 1.4283488 0.8460878 0.80702436 -0.80777204 -0.43846616 1.205311 0.8356596 1.9780372 -1.1061009 -0.23348404 -1.422847 1.6418052 1.1057374 -0.75251466 -0.37713537 -0.6549842 1.4245417 -0.9892577 0.38178334 -1.1816258 0.4801045 1.3648447 1.7942767
14 0.6674251 -0.17868058 -1.967731 -0.45788723 0.9316393 -0.36414406 0.07811175 0.12677169 -0.17414315 1.3106728 -1.1117045 2.110748 0.37753278 0.030857125 -0.25940672 2.1512058 2.181858 0.019681374 0.07366039 -2.0467715 1.915764 0.33383957 -1.7904932 -0.5334637 1.6923198 -0.033218227 0.8263011 -1.0993246 -0.5068711 0.12206517 -0.1240611 -0.664356 -0.33024296 -0.4392488 0.38699913 -0.6668238 -2.768608 -2.1749413 0.42270225 0.24454935 0.8035003 0.16271992 -1.253248 -0.99110997 -0.3769989 0.7883353 0.33953452 -0.8921207 0.64244366 0.19469038 -0.07414671 1.1964848 1.1108469 1.1157144 0.5136527 1.464695 -0.5989848 -0.53183156 -0.829317 0.934459 0.45792282 -0.30579227 -1.2603507 1.3081352 0.3423621 -0.31991372 0.81974405 1.0340137 -1.1023223 -0.22641885 0.8087465 -0.9768965 -0.6661267 -0.06783135 -1.4520216 0.77327585 1.0269088 -0.27553123 -1.0693498 -0.6802258 0.6666926 -1.3425255 0.65984577 -0.05600307 0.75694287 0.17046264 0.53521794 0.7641791 0.123205386 -1.1672727 0.03980567 1.1574358 -0.002436045 0.24412219 -0.53491867 1.2091016 -0.46007386 -1.6932573 0.91495967 -1.5868475
15 0.03134383 1.6338147 1.2785349 3.1782026 2.889382 -0.30489668 -0.8260799 -0.03947716 -0.25868684 -0.77046645 -1.0976024 -0.09017707 0.036504213 -0.28814262 -0.37438518 0.5395577 -0.49841544 0.77934384 2.285303 0.6574905 -0.19288884 -0.042390298 0.3613735 -2.7043288 0.51700395 -0.9100925 1.4721849 0.8089882 1.0896401 0.714443 1.3393177 -1.8733455 0.7644058 -1.0263655 0.7760585 0.6614893 -1.1655886 1.702012 0.39940584 0.02291209 -1.2410808 -0.35858345 -0.2685087 -1.0800573 0.7236159 -0.30985957 -1.3817524 0.85731107 0.020665156 0.7560799 0.61041415 -0.27073383 -0.34410962 -0.49890468 1.8420889 0.15535784 -0.4825503 0.4782325 0.9377188 0.3382496 0.93810445 0.54633015 -0.5004535 -0.71130186 1.2907223 -0.02090227 1.0664253 0.9804349 0.081926316 -0.25106314 1.7836733 0.61396354 -0.07347812 0.40848428 -0.68172497 -0.49593994 -1.5454189 0.12128137 0.20045076 -0.32519057 -0.02993616 -0.5308197 0.57870495 0.22827803 -0.34214723 0.26975763 -1.3972795 -0.25932065 0.070568696 -0.799017 2.2672737 1.2409081 -1.1486796 0.53812754 -0.5586877 -0.007030345 0.16560823 -0.5837251 1.7873895 -1.3913096
16 -0.28505927 0.57644314 -0.11795228 0.65903646 -0.31662074 0.7698167 -0.2689312 -1.1872425 0.16133955 0.12458279 -1.8011082 0.6518593 0.31009856 -0.6573645 -1.366788 -0.0057035373 0.853764 -0.86660326 2.0962102 -0.019727947 0.41141263 0.29126784 0.7774349 0.01974064 0.9067727 -0.009652463 0.56506366 -0.16363612 0.34462893 1.2125928 2.4033182 1.5901488 -0.7853984 0.27439427 -0.20483959 0.18205933 0.78802955 0.59908205 0.4273312 -0.43816063 -1.469239 -0.5325642 -0.98027843 -0.21843344 0.54351074 -0.28365317 -0.7380465 -1.2217604 0.08985313 0.33242604 1.0431815 -0.46658435 -0.122115016 0.82404226 1.0913213 -0.16841032 -1.3973681 0.62755436 2.4001718 -0.73715365 -1.1446761 1.2642707 -0.3829706 1.293062 0.5804485 1.3418131 1.3191603 -1.3438982 -1.7899832 -0.29335356 -0.13338748 -0.94855946 2.342252 0.8794624 -0.43030882 -0.5779873 -1.4443749 0.23180807 1.1828431 0.49912745 -1.3787197 0.16718554 1.9626268 -0.40199274 -1.2325187 -0.9007963 -1.2813071 0.26271045 2.3293066 -1.8252128 0.46362486 0.06961914 0.050274666 -1.1650076 0.18905355 -1.4346673 0.36692145 -0.21968627 0.0021736796 -0.59542865
17 0.78866184 -0.61087495 -0.4857114 0.25607023 -0.9241717 -1.5629742 -0.7920948 -0.2785771 1.6974981 0.5061914 1.1825925 1.3276404 -0.62966174 -1.2112061 1.2802304 -0.71326274 -0.30416682 2.6825657 0.97519404 1.2270048 -1.9037002 2.2589169 0.8685498 1.2271479 0.38023636 -1.135431 1.0848842 -0.95986265 -0.2220052 -0.93673474 -1.4681689 -1.6789254 0.18428145 -0.89040303 1.5589951 -0.8031577 -1.6131043 -0.0121169025 0.362 0.8707693 1.2441771 0.95914143 0.5009069 1.9817499 -0.33679384 0.4596821 0.24701625 1.1501342 -0.11339819 1.8568605 0.06702177 -0.01499133 0.93197143 0.46315277 1.1903797 1.2974368 -0.029067291 -0.32484758 0.6424752 -1.7896286 0.40768075 0.6846417 0.3789443 -0.57951266 0.59514976 -0.28443733 0.17753468 -0.7725443 -0.4226362 -0.2585057 0.42656532 0.99875945 -0.5577167 0.38184366 0.6368557 0.67575556 -1.2052708 0.040108237 -2.514415 1.6347783 -2.2197697 -0.7445041 1.8603512 -2.1504498 -0.5339996 -1.300137 -0.1490525 -0.14419629 -1.3518537 -0.43615305 0.45189506 -2.0499718 0.31528538 -2.329513 0.8886051 -0.13568024 -0.3041339 -0.7938866 -0.41058376 -1.237339
18 -0.36417443 -0.4030501 0.6463273 0.71118474 0.9600293 -0.37003896 0.3716197 -1.2904547 -0.21618082 1.2731966 -1.2827737 -0.61492175 -0.7759401 -0.94353807 0.64805955 -1.1505958 -0.59036183 0.64517796 -0.24802898 1.1827457 1.6858209 -0.7205375 -0.45954043 -0.13740623 -1.2865628 -1.2977844 -0.83361274 -1.1502072 -1.312675 -0.38017392 0.10403206 1.16978 -0.35139963 -0.5509637 -0.80950266 1.0114754 -0.1778753 -1.853102 -0.6285848 -0.3805261 0.45354173 0.46306124 -0.36304775 -0.85501456 -0.72019404 -0.7024457 -0.07976675 0.9170216 -0.20889577 -1.8701442 2.1760757 1.4632926 0.85182774 -1.0634013 0.4708527 1.5214394 -1.301575 1.0406204 0.77575195 0.23780786 0.6385185 0.37950942 3.768745 -1.9619228 0.7956933 0.27238 -0.89598614 0.69735086 -0.20889135 -0.98232293 -0.8571117 -1.4193099 1.0629685 -0.3308009 0.17771532 -0.5844997 -0.66552144 -1.4873568 0.30253312 0.9600461 0.77871263 -0.93366766 0.3287859 0.8806743 0.83755165 0.16977863 2.6663702 -0.017177783 -1.6430581 1.2110224 0.19225226 0.931507 1.1903921 -0.88831127 -0.09714028 -1.2122872 0.37777758 -0.52708787 0.49328926 -0.44355077
19 -2.173386 0.41551065 0.9351287 -2.3370955 0.41718647 0.088341445 -0.53879815 0.025923617 -0.18304245 -1.4506505 0.80380577 0.6871682 -0.81193805 -1.2637987 0.056421798 0.27966893 1.0089003 0.14015138 -0.41548365 1.2937446 1.1071671 0.10337189 -0.078315414 -0.41609666 1.5107344 -0.47936 -0.4000789 0.34985277 -0.48284173 1.6222064 -1.19559 -1.1653361 -1.5814375 -1.06444 1.5144004 -0.66535354 -0.11505802 -0.092999235 0.6788759 0.97742224 1.1542455 0.36405814 -0.7108521 -1.0251985 -0.122201234 1.3280034 -0.12791926 1.3349059 -1.5104539 0.46530986 -0.91563356 -0.61628133 -0.94665223 -0.065912575 1.0688224 -0.6940324 -1.3761797 -0.17824157 -0.91454655 0.89531016 -1.369793 -0.65300626 -0.27575225 1.1423333 -0.63366824 -0.56032884 2.9598646 -1.6871078 -0.74527454 -0.003623527 0.5181453 -0.44610032 -0.17353624 0.45433256 -0.5257958 0.18369474 0.24621756 -0.37612543 -1.7970525 -1.4785495 -1.6396265 -1.1875074 0.39493918 -0.17732638 0.31828892 0.29752606 1.2995596 0.46789077 0.032097664 -0.2186829 -0.45939234 -1.2973723 -0.52920794 -0.14898533 -1.2636992 1.6363173 -0.4144739 -0.36673024 0.20791976 0.20448329
20 0.1422336 -2.041856 2.4205666 0.90782696 -1.3038018 -0.28542006 -0.38138774 0.07093426 0.10484006 1.1232753 0.6978915 -2.3145332 1.0537969 0.39817056 -0.70558274 -0.2502895 -0.95166343 -1.375409 1.0341927 0.69860035 -0.67980886 0.12478563 1.4438962 1.5154011 -1.3005862 0.9486869 1.1602432 -0.40717018 0.11871293 -0.69009537 -0.18118306 0.47253817 -0.3756701 0.32528532 1.0888797 1.3958992 0.11396932 -1.4584559 -0.8032839 0.22557802 -0.6969796 -0.13262883 -0.3309859 0.20555139 -0.41626146 -2.0067656 -0.9133739 -0.3066746 -0.0944775 -0.28584248 1.0237502 -0.5827826 -0.58094686 0.41093364 -0.5829871 0.14643745 -0.39448646 0.09601143 -1.2466792 0.74895847 -0.31161758 2.9290955 1.1776711 -1.0462772 0.36204752 0.4043257 0.4705113 -1.5667003 -0.5588286 -1.4688412 0.23893878 -1.674649 -1.1108382 -0.941864 2.7474787 0.5889994 0.6069158 0.18203613 -0.6464032 1.8241137 -0.18547735 0.2883434 -1.8822461 0.686423 -1.4852186 0.43045828 -0.31888995 -0.4635472 -1.2752548 -0.5039488 0.62961304 0.06268309 0.046283808 -0.22741607 0.5298372 -0.056678113 -0.7125278 1.9103662 1.169845 0.50747013
21 0.7646175 0.10411414 -0.4071798 -0.8858126 0.045400128 -0.33279067 0.4644571 1.7708298 -0.5477792 0.010589293 0.16195093 1.583832 1.9125141 0.4802411 -0.4115529 -1.0596417 -0.37504545 -0.86202705 -0.40225932 -1.3324021 -0.64004385 -0.50090724 0.038422793 -0.3752662 -1.4925709 0.40730986 0.05035644 0.20455536 -0.03642541 0.9262329 0.1460839 0.549471 -1.1874292 -1.640764 2.1484473 -1.8527745 -0.07145323 -0.96669745 -1.0967338 0.36679965 -1.1962789 1.2774597 0.35868472 1.2038357 0.7495674 -0.50614595 -1.2595165 0.022367632 -1.088166 -0.24945241 -0.26059487 1.0075809 -0.74125594 -0.6109959 -0.39725843 -0.91796875 0.3275457 -1.9861948 0.07402458 -0.797508 -0.3624528 -0.25573134 0.85921174 1.2193829 1.8394004 -1.6100085 0.16591135 -2.156529 2.3710225 -1.1647438 0.2200883 0.54283255 0.98411816 0.10412818 -0.23209296 -2.5794497 0.39102957 -0.7926593 1.289622 -0.7547197 0.82296383 0.6574939 0.6619775 0.7799714 -1.2117718 0.61750275 -1.3792036 1.1186501 -0.85592395 -0.13344063 -0.33084285 0.92190796 1.3857397 1.2658237 -0.7862059 -0.04975158 -2.6313822 0.5358068 2.2198439 0.2946725
22 -0.041039757 -0.08678641 1.4824226 -0.999949 -2.2258344 -0.42121047 -1.4269438 -1.7825608 0.4818616 0.8148308 -1.561356 0.69132 -0.3851977 1.2032497 0.056308523 -0.44524375 0.60865355 -0.22623889 0.2321377 -2.1048405 -0.2008637 -0.08919551 -0.32215783 -0.97869456 1.2142698 0.121875174 -0.56955355 0.18707739 -0.30488932 -0.81073546 0.69291407 0.45692137 1.2756351 1.8509778 1.2857552 -0.037007827 0.537 0.2633468 -0.5912152 0.10269968 1.1398474 0.9918184 -0.3402607 0.541051 0.23513395 1.1007336 -0.9932275 -0.25779548 -0.813988 -0.88110024 0.7892056 -0.20726542 0.28216982 0.36511022 -0.0567015 0.66806585 1.3934712 0.47732502 -3.1857688 1.6280648 -0.40827462 -1.8602209 -0.5835527 0.4554226 0.041949194 -0.49002042 -0.1399059 0.48340124 0.27381736 -1.0218059 2.0062418 0.94476914 -0.683606 0.8403042 0.38867322 0.3414579 -0.47089684 0.3543728 -0.40206075 1.0412643 -0.02515696 0.8385952 0.37757015 0.12950738 1.3387768 0.94005895 0.89123833 -0.48437637 0.788892 1.0277405 -1.4541342 0.30871284 -0.7879033 -0.056744095 -0.60888034 -0.023259996 0.8644627 0.5903227 -0.51795286 -0.6122644
23 -1.0290192 -0.59838927 0.39377296 0.21070972 0.012400939 0.9084657 0.34359178 -0.15017882 -0.10973057 1.2686622 0.7847312 -0.96564007 -0.113402925 -1.8461212 1.6793891 -2.0343854 -0.72165614 0.062068675 1.4901088 -0.6407229 0.4753471 -1.2091472 0.1901615 -2.0324922 1.0086757 -0.46554607 0.9258573 0.91026354 0.7049589 -0.30221495 -1.8121934 0.5309121 -0.059006516 -1.0068641 1.0067632 -0.43593317 -0.29294595 -0.12259317 0.52490675 -1.2422861 0.56766325 0.9001758 -0.116814464 -0.21820287 -0.9600551 -0.32996625 -0.28187656 2.2223082 -0.0077248565 -0.28852075 -0.1476634 -1.508618 0.47439265 1.971553 -0.38152307 0.5660185 -0.92844766 1.321076 -0.5918298 -0.32770064 0.5421042 -0.8594461 -1.7354969 -0.007338047 -0.9722877 0.10107055 0.08445384 -2.1099257 1.2808781 1.3844393 0.23746936 -2.3761497 1.5215232 -0.016521862 1.5697489 0.51404065 2.8558583 1.1220745 -0.24742065 -0.30312058 -1.0669552 0.19603948 -0.8588174 -3.0714524 1.4079683 0.47734895 -0.36739555 0.1568887 -0.07203959 1.5738719 2.2038817 -1.5678564 -0.79791874 -0.0136324605 -1.1488606 0.081637494 -0.049311914 -1.7020845 0.047242288 0.41289148
24 -1.0476767 -0.43720788 0.86699265 -1.4966342 -1.5684032 2.780671 1.0244982 0.2634218 -0.9981238 0.31461442 -1.070029 -1.2556962 -1.5992787 0.17766538 1.280827 0.44577488 0.081769146 -0.2534302 -1.4573048 -0.76417774 0.99658614 -0.7121663 -0.8526487 0.2761111 2.3967319 -0.65632915 0.9925826 0.59408027 1.1217115 0.7139704 -1.2772223 -0.11576262 -0.45468897 0.25091285 -0.48678985 -0.23579292 0.40010318 0.92300767 -0.5691455 -0.44130528 -0.4682761 0.17938575 0.59532684 -0.5700113 -0.54318243 -0.9652634 0.3465865 0.9899902 -0.36958557 -0.80508035 0.29551834 0.1926774 -1.5735233 0.095551446 0.045271285 -0.87449384 -0.46158716 -1.6190418 -0.08831915 0.40230325 0.7270754 -1.3146039 -1.646375 1.4791915 -0.6867785 0.9108477 -0.5865455 0.8737031 -1.1008291 -0.7897483 1.127224 0.061582062 -1.726512 -0.07670342 0.5187526 0.92153394 0.73741245 -0.78256637 0.8451121 -1.2055718 0.29131436 1.1797885 -1.1666969 0.048745796 0.8721633 0.26493362 0.00014029202 1.432397 0.6284272 1.0615963 0.8664143 0.0028113583 -0.7481932 1.1171093 -0.009263522 -2.0936437 0.40833762 -0.08363271 -1.6169686 -0.5118764
25 -0.65785694 -0.73925334 -1.3038464 -1.4589368 1.3077024 -0.36762977 -0.19031161 0.2237502 -0.34275293 1.6355495 -2.0454142 -1.3353118 0.14133692 0.16349973 1.8267318 0.7168627 0.092823386 -0.08167243 -0.27735865 0.14098193 -0.5149076 0.58073694 -0.33116895 0.01866826 0.16909622 -0.17705052 0.09629556 -0.7579293 0.28999346 -0.033473108 -0.2329344 -0.11664751 0.04685651 -1.2901394 -1.0203758 0.7466711 0.112186596 -0.07422281 -0.29740244 -1.5452278 1.1611253 0.31619817 1.1415261 -1.0537971 -1.2694536 -0.23552467 0.5742273 0.6534105 0.46652558 -0.6259091 -0.73027426 1.0265135 0.22135115 2.034467 -0.021882933 1.402316 -0.12122758 1.930641 1.0539896 0.41015804 0.6861287 1.8948895 0.040157836 -0.78872687 -1.7980728 0.84480906 -0.25735232 0.71127343 0.2508585 -0.2062787 1.0275251 0.8555537 1.0648555 -1.0829891 -0.7537936 1.3276001 -1.5583662 -1.344477 1.8466429 -0.12204989 -0.5111871 -0.3253159 0.0021669283 0.89691764 -0.841786 -1.943353 1.0005121 -0.4583804 2.1589978 -0.3260739 0.94391036 0.499356 -2.6394222 -0.50310636 -0.76387614 -0.34069556 1.3641477 0.37405026 -0.4128816 -0.38875636
26 -0.60777795 -0.40839195 -1.5617952 1.4776453 0.10018231 0.8673086 0.32065263 -1.0582507 -0.5824822 1.3094745 -0.246668 1.1948158 -1.0145136 -0.6980653 0.042089675 -1.7566475 -0.10041839 -3.890933 0.6167063 0.3744622 0.7210274 -1.0075506 0.99160975 1.0578667 0.7047459 2.1421423 0.034752905 1.6265091 -0.8362176 0.04588833 0.95156693 0.25477308 0.120384626 0.69051087 -0.8471293 0.5568705 0.46409538 -0.71896774 -0.6848247 -0.12241056 -0.7022238 -0.30388856 0.64784634 -1.719991 0.8198126 0.609151 0.14834273 -0.8502402 1.1464498 -0.65903616 0.8077016 -1.2979517 0.07476526 0.316646 -0.05233585 1.1255352 -1.5646718 0.28388515 0.80844045 1.1980922 2.3218033 -0.8153274 -0.15236008 -1.374754 1.3120259 -1.2782689 -0.58819497 -0.22759092 -1.2365588 -0.3858009 -0.639957 0.55471176 -0.62147236 -0.24719581 0.84542936 0.8941287 1.0698745 -0.4556859 0.52221465 1.2397513 1.071896 0.5670904 -0.4320116 0.21640185 -2.2222178 2.1678681 1.8765252 0.89671 0.2790614 2.023466 -1.6556859 0.1756248 -1.0307099 -1.4356732 -0.23177592 0.8140824 0.43798247 -0.80639285 1.1735021 -0.49164388
27 1.5452496 -1.1471335 0.39845148 -0.25204256 1.7327453 -1.4023 0.24156831 -2.2625415 -1.8206905 -0.09275995 -0.5675166 -2.0284913 1.486623 -0.07629984 1.1568828 0.58645034 -0.5856521 1.7835653 -0.7179477 1.1912022 0.5179683 0.74440676 -0.58312964 -0.24545462 0.5489446 -0.16688545 0.0674938 0.87616754 -0.23239516 -0.55820024 -0.08116584 0.44413954 1.1043233 0.77721804 0.5961768 0.9687548 1.3781462 1.2818632 0.27012596 0.52010614 0.36186066 -0.9138646 -0.32747042 0.10323537 0.22222216 0.0228075 0.59628254 1.2345688 -1.4893779 0.6422862 1.9473239 0.54007155 0.49433145 -0.2005234 1.1644447 -1.470163 1.4483486 0.6233491 0.55575246 -0.13762423 1.1515119 1.0737171 0.18689057 1.0500026 -2.4571207 -0.51778054 0.46836337 0.68602467 -1.1948069 -1.3739774 -0.16412641 -0.7978681 1.4808049 2.0916317 -0.31500718 -0.3671229 0.350302 1.444362 0.18697985 0.507065 0.37579373 -0.5524964 -0.16080429 -0.40218744 1.4180207 0.14736344 -0.36549884 1.8200419 -0.14917517 -0.42353135 1.5141904 1.1226063 -0.49286506 0.5028222 0.56517243 -1.5725203 -0.95401347 0.25945032 -1.556526 -0.021047605
28 0.23341225 0.23502454 0.19948454 -0.6906889 -0.40668803 0.0039949943 0.63663036 0.11326434 0.9181106 0.6868264 -0.26956412 -0.2618396 0.033868607 0.062189978 -1.6750075 -2.5817354 1.998674 -0.8985934 -1.926733 -2.9813662 0.37004656 -0.636013 0.50217974 -0.07104614 0.9976524 0.2303983 0.1839936 -1.1713187 -0.08551115 0.23525387 -0.4384007 -1.9596484 -1.3555008 2.1792598 0.36518332 -0.30066174 1.4303725 -0.3636692 -0.98035085 0.1949447 1.0795912 0.5101399 -0.2794287 0.34746817 -0.9429385 -0.05706199 -0.28919873 -0.31808597 1.392656 1.7952945 -0.7709762 0.633896 0.57407475 -1.4484514 1.7079182 -0.29117194 1.3728768 -0.46949482 -0.6173294 1.2241374 0.7010056 -0.24215315 0.38083854 0.48119566 -0.7133484 -0.45390537 0.41430554 0.33308658 -0.55183125 0.07607909 -0.19537576 -0.81802166 0.8228266 -1.7881162 -0.5153534 -1.5945628 0.22222103 0.8564395 -0.5866446 1.3834876 -0.23287064 -0.713103 -0.09907612 1.605245 -0.9631273 0.310722 0.25198603 1.0668466 -0.23812255 0.7897339 0.5153114 0.35343152 0.6710037 1.5757322 1.6921023 -0.66664255 1.1560336 -1.0226215 -1.3089885 0.44245335
29 -1.6125084 0.027101954 2.1029968 -0.60474056 -1.6650009 1.5490906 0.37249035 -0.46834758 0.6589037 0.028530963 -0.13010639 -0.7465267 -1.7540528 0.2785045 -1.3294044 0.8261096 0.4074687 -0.64304143 1.4974886 -0.8363566 -0.656396 1.323668 -1.2425213 -0.48605472 0.12587799 -1.5186516 -0.5546798 -1.0255988 2.2729778 -1.1992325 0.14713153 0.5581165 -2.2866623 0.60513145 0.66752005 0.7678052 1.2018398 0.27649218 -0.98070097 -2.571741 -0.8250946 -1.3772863 0.30421314 1.2450613 -1.3621473 0.9562143 -1.2689513 -0.07895682 -1.6433282 -1.3371614 0.2454405 -0.34555894 -0.63898104 1.7956343 -0.6218085 -1.7931149 0.29239476 -1.1127467 1.2153902 -0.49661377 -0.8804257 -0.95701176 -1.6751289 1.3752115 -2.315547 0.28229716 0.29441568 1.1934644 -0.75953025 -0.1128313 0.21571285 0.19397876 0.29941058 0.4552251 -1.9765099 1.1447005 -0.18063772 -0.5583891 0.01504335 1.1996945 -1.6025847 0.5250467 -0.19103333 0.06422782 -1.1213626 0.82205534 0.940852 -0.08727787 0.31357217 1.2902782 -0.8811756 -0.8394595 -0.34424323 0.5033686 0.30198443 0.19353057 -0.34991667 0.77650017 0.38560286 0.79601365
30 1.9392376 0.13943481 1.1387783 0.8217401 -0.117723964 0.96227235 -0.20017672 -1.4555092 -0.93919975 -0.6153373 -0.15558654 0.07434074 -1.0812972 1.573163 -0.11899104 0.4101981 -0.5976734 -0.8840646 -0.22768645 1.1567799 -0.24405368 -0.47012728 -0.07669776 1.8993328 0.23812626 -0.93542516 2.9627519 -0.2691995 0.24744345 0.80583036 -0.29782152 -0.3033559 1.1729169 0.4076252 -1.399145 0.45686352 -1.3427527 0.9827018 -0.3385009 -0.6536108 1.3261682 -0.12275427 1.046028 -0.21591495 1.358816 -1.2998524 -0.7339282 0.79573876 -0.23063229 0.45135924 -0.39433506 -0.0043617883 -0.32668945 2.124889 -1.7235255 -0.8154719 0.7375129 -1.3675846 -0.12665795 1.3127763 -0.9543885 0.56821966 -0.52862006 1.5057918 0.44944876 -0.15809624 0.15881279 0.25809082 -0.23763765 -1.9778771 1.0671011 -0.17220943 0.6209679 -0.6201468 -0.6481544 -0.79007983 0.5929696 1.0215995 0.62022877 1.2878972 1.6039515 -1.3571148 0.64468706 1.1994213 -0.23635413 -1.5654038 1.2181565 0.015671564 -0.14319223 0.97144777 0.009486914 -0.044208307 -0.40269873 1.0000572 0.34165314 0.33695558 -1.6832783 1.4406099 0.23053394 0.25929144
31 0.5203957 -0.17003076 0.831726 0.56759274 -1.2919809 -0.91089684 -1.3739474 -0.73776084 0.83212847 -1.310886 0.21018545 2.1217992 -0.8012663 0.1396936 -0.7423543 0.4799562 -1.2887022 0.24778362 1.5866832 -0.27690426 1.1736308 1.7098143 -0.07188459 0.09508887 -0.6713902 1.1127096 0.18252774 -0.11508995 0.30377248 -1.0726097 -1.1465946 0.5801235 0.040433574 -0.9828298 -0.88125294 -1.4559829 -0.030877966 0.41789597 0.2934948 -0.13613741 0.67212474 0.7791524 0.79279983 1.066108 1.5603331 -0.67021304 0.21291728 0.8356314 0.07190055 -0.38989443 0.29129675 -0.099255666 0.10126664 -1.5726235 0.3652839 -1.2571543 0.69910234 0.24765967 1.9169148 -0.8367851 -1.5219575 -0.30685914 1.9362718 0.30316305 -0.5656825 -0.26932424 -0.88730216 0.777813 -1.0821992 1.7420636 0.5707887 -0.33437592 0.9580472 1.2295405 -0.07721044 0.39539748 0.5289977 1.2643675 1.0532348 -2.2206538 -1.3452529 -0.053980786 1.7609563 -0.74580353 0.6908363 0.5471512 0.6134924 -1.0296621 -0.9654346 -0.6227069 -0.6738386 -0.78389454 -0.09749418 0.03962712 1.0581985 -0.6456413 1.257078 -1.1788405 -1.0256289 0.491932
32 -0.8256455 0.20155938 -1.0570296 0.11271838 -0.845951 -0.69840884 -0.2534877 -0.2258323 0.5370137 -0.12360382 0.81149197 0.10169315 0.82853925 -0.44621164 1.2161659 0.791332 -0.7441531 0.42834592 -1.1074291 0.4740245 -0.1735121 -1.1453671 0.3204568 -0.1618939 -0.12940747 1.2397928 -1.419539 -0.17521101 -0.46020865 0.97765905 0.6322886 -0.17352466 -1.2857131 -0.4632654 0.4177133 -0.49969897 1.3000789 -0.5238405 0.3674067 0.33291534 -0.14243446 0.576969 -0.8011702 -1.9935814 0.50209546 -0.13004744 0.43006477 -0.8886566 -0.13243948 -0.5593949 -1.924279 -0.28655043 2.5661364 1.6351542 -0.38287804 -0.89991885 1.5190831 0.025366979 0.8247574 0.52100945 3.11294 0.67346936 1.1769578 -0.2716496 1.3563771 1.2845473 1.389502 0.60543305 -0.61484426 0.47845915 0.08372933 0.28686887 -1.7170463 -0.44269204 1.069967 0.23468995 0.23177917 -1.4672086 0.35937446 0.7808084 -0.79726434 0.63063204 -0.5658846 0.22722873 -0.09617095 -0.74431384 -1.5398767 -0.26575622 0.13958661 0.87072 0.18725336 -0.43562087 1.1879814 0.79914635 -2.416163 -0.7286919 1.1977495 -1.6002579 0.9102125 -1.5237812
33 0.39256662 -1.0393265 0.85255754 -0.8081503 -1.2209787 -0.8856654 0.15711355 -0.57490975 -1.0395745 -0.18217365 -1.1464806 1.7102673 -0.14136915 -0.081094466 0.7502551 0.92111164 1.188565 0.21381178 -0.63294846 1.0883753 0.24069044 1.5101478 0.56081647 0.44540957 -1.2377946 -0.2836955 -1.162302 -1.0887204 -0.95609665 -0.8448976 0.21366167 0.052256715 0.5423597 0.44875824 -0.04746532 -0.7995173 -0.46773222 0.16533093 0.34999815 0.4479931 2.053674 0.56924987 0.48168108 -0.5186438 -0.8284802 0.77667224 0.29371879 1.5121076 0.79102695 0.52985847 -0.11057328 -1.56607 -1.7495764 0.86701334 -0.9455408 -0.33682954 0.99504846 -1.938495 0.27024162 0.5906667 0.64886695 0.607023 1.4654839 0.5096267 -0.9299676 0.8214626 -0.7686075 -1.0220246 -0.40452495 -2.1045437 -1.1841942 -1.4599247 -0.39269137 -0.655553 -0.611382 1.2955406 0.11283277 2.0368319 0.7321761 0.6754021 -0.9457403 -0.99907994 -0.24130276 0.47333744 0.25537643 -1.1069481 -0.99778277 0.66545814 -0.08532263 0.97860646 1.0115536 -0.49078858 -0.77429795 1.7815166 -0.0960025 -0.5814937 1.4351497 -0.73558253 -0.5266722 -0.23962314
34 2.1014588 -1.3483772 0.48248982 2.8915012 -0.66426605 -0.9935749 2.2037964 -0.94430816 0.06758563 0.37870336 1.0244963 0.99557173 -0.37704086 -1.1093503 1.5098157 -0.91630673 0.49698484 -0.57626057 -0.020490993 -1.8031474 -0.5439272 -0.13815325 -0.3425004 -0.31649008 0.016055519 1.8993287 0.22224723 0.03978013 -2.1150885 1.7595192 -0.4371357 -0.68227875 -0.12835677 0.55400985 -0.8724626 -1.0888845 0.22110777 -0.06100714 1.2572713 1.0941516 0.5997377 -0.28524706 0.07455571 1.784831 -0.12810153 0.764276 0.37558186 0.31171104 -0.563018 -0.08215307 1.5478987 -0.45869753 -0.29070386 0.47187224 -1.6601019 -0.16968986 -0.098855235 0.13303344 -0.10916284 0.04526881 -1.573868 1.8147967 -0.941654 -0.38497204 -0.23090322 -0.44682658 -1.0272498 -0.79348665 0.35393998 -0.391908 0.085716166 -0.4964371 -0.8128628 0.47475016 0.16421771 2.9291952 0.68859684 0.5706515 -0.53149235 1.2891355 1.7762177 -0.80148166 -1.219454 -0.4706102 -1.2555658 -1.2636514 0.24448799 -1.4379474 -0.8311215 -0.12006912 -0.060431756 0.5110032 0.46301496 -0.96906495 -0.12448604 1.3527533 0.5407198 -0.32784528 0.87619305 -1.4305017
35 1.0523578 -0.780282 0.44280252 0.5029069 1.1394649 -1.3818403 -0.1466301 0.049681924 -0.5539024 -0.02895621 -0.88098276 1.9273604 -0.38902694 -1.170215 -0.061843347 0.94083047 0.23244715 -0.7230972 -1.3237936 1.7244061 -1.1788763 -0.92077315 0.859172 0.47648865 -0.66626006 -0.81843084 0.29589114 1.3903981 -0.9355552 -0.7543632 1.7487134 -0.05017801 -0.5715744 1.0030895 -0.5545697 1.2410321 -0.47672912 -0.3276075 -0.5534435 -0.2970755 0.47450122 -2.2419188 0.6014849 -0.90830463 0.70845896 -1.1711469 0.40035835 1.0577918 -0.77930623 -0.35522678 0.5550571 1.3477572 -0.011535296 -0.89106107 1.0515325 0.1946935 0.96272105 -0.18837099 -0.5976378 0.43838164 1.134192 0.7603993 1.2833766 -0.24923548 0.3735229 -0.8246707 -1.9783299 1.0182148 -0.52361554 0.06376995 -0.26473466 1.1644548 -0.2035123 -0.519878 -0.0031220356 -1.0504591 0.6200089 -0.64021933 -0.70878947 -2.509123 -1.2463361 -2.8722146 -1.2208464 -1.0708339 -0.4627273 0.57615054 -0.90450335 -0.6717005 -0.63150275 1.6673404 -0.06222973 -0.0679907 1.8734853 0.58735776 0.44270533 0.61134684 0.34026146 -0.89649713 -0.26661164 0.7715981
36 -1.6935078 -0.5521662 -0.008384186 0.39644364 0.20461972 1.0420864 1.451804 0.2452483 -0.07989635 0.393185 -1.102634 1.6806169 0.37318203 -0.37905347 -0.100974515 -0.25232038 -0.35134983 -1.2162015 -0.37281403 -0.04098608 -1.3249993 1.1701065 0.22428066 0.19843432 1.7575909 -1.956205 1.3021575 0.51624864 -1.423665 0.11905495 -0.6483048 0.37898272 -0.61934274 -0.0904019 1.2440318 0.078185864 -1.2555182 -1.8580604 -0.853194 -1.0680448 0.445665 0.8673244 0.9471544 -0.9090637 -0.24245566 -1.2146881 -0.9762959 1.9016211 0.20136434 -0.42369345 -0.25845876 0.3123974 0.42868078 0.5745886 0.27825615 -1.0376346 -0.6765125 0.73614275 -0.11671843 -0.32714543 -1.3744568 0.86238676 1.225213 -0.1270694 2.0422738 -0.5581187 1.0791689 -0.2632171 -0.21802483 1.151443 -0.94385433 0.44473553 -1.7761066 1.1985136 0.13256206 0.15070395 -0.9838475 -1.4075234 -2.1651998 0.9981782 -0.36114806 -0.55292 -0.5654193 -0.056044504 1.7887155 0.21072288 0.24346694 -0.3531118 2.3086815 0.102619514 -0.4121114 -2.7568846 -0.15752338 0.66017103 0.3763368 -0.031537462 1.2791847 -0.73397595 0.8671546 0.24591985
37 -0.7683967 -0.246746 -2.3408735 1.0204738 -2.4918556 -0.0006526151 1.7540888 -0.24673297 1.1263764 -0.2877915 -1.9145449 -1.0499467 -0.5866345 0.38871035 1.7688439 1.7758362 -0.7843096 -0.7149362 0.9285847 -0.86145914 0.34640962 2.0733232 0.5947458 0.22338474 -0.5296646 1.4280593 0.40379757 0.0048719817 1.0958636 1.2762588 -0.5063594 0.18583496 0.03990804 0.9215506 -1.3668121 -0.892309 -1.164209 -1.1938139 -0.7373367 0.16158378 -1.0050979 -1.3417156 -0.42772558 0.6043258 2.1269655 -1.9174874 -0.40989757 -0.04240057 -2.1975317 -0.82278216 -0.33288035 -0.26489452 1.4883902 0.7287596 -1.846073 -0.34427238 0.4456542 0.552302 -1.9116178 1.4857231 -0.036318123 -0.2895615 -1.0373657 -0.16830154 -0.33329636 1.6390616 2.0204864 1.1861292 -1.1885327 -0.36001098 -0.22150993 0.7059202 1.7646165 -1.0646554 1.9465269 -0.364259 -0.18326251 -0.7202419 -0.6823922 1.1530972 -0.19642784 -1.4565024 1.053588 1.3045827 0.35739022 0.11733829 -1.0977055 -0.4798685 0.1843347 1.1183499 0.62316626 0.7209975 -0.32406756 0.8406255 -0.6446269 -1.0213339 -0.9420672 0.4202963 0.56322384 0.7010892
38 -1.2300242 0.97064024 0.22206219 0.36956427 0.48514828 0.31901714 1.6932007 -1.935581 1.3084371 0.9702623 1.320955 -0.0067229527 -1.0207542 -0.16017452 -0.65240055 0.24761131 -0.89230835 0.74861026 1.1607465 0.688061 -0.7474168 0.7594946 -0.5532054 0.48260957 0.776508 0.01610983 0.09419189 0.2646835 1.4359959 0.11129025 1.2815645 0.124427035 -1.5637059 -1.4394867 0.43483177 1.1951141 0.72416013 0.8550899 0.7137495 -0.13330337 -0.1106836 0.6932311 0.61452705 0.7033199 -1.133102 0.60187393 -1.0234592 1.0012773 -0.114645824 2.2836266 -0.7581524 -2.5210993 -2.4668784 2.0912666 -0.9464048 -0.34267408 1.0228744 0.22089817 -0.28271782 1.617468 -0.18610984 0.47565123 -1.4469311 0.33075345 1.0578748 0.44213247 -0.39416403 1.853198 0.38943633 1.794775 0.08996572 -0.478039 -2.322745 -0.3853621 0.029081335 0.4022259 0.33476147 1.064394 0.039119903 -0.5013874 2.0524569 2.293871 -0.58672744 -0.49077755 1.3074044 0.10902562 0.077776074 -1.175244 -0.9280269 1.7142012 1.9255122 -0.44127756 -0.32960397 0.24702092 0.09866142 -0.886199 -0.3171689 -0.2119837 -0.6905637 2.2501216
39 -1.7115349 0.7798176 0.6825945 -0.9652878 0.99640524 -0.5276689 0.8334017 -0.18829407 1.0524085 0.28608888 0.8146507 0.72964084 -0.18031289 -0.7922822 -0.2990074 0.61741465 0.9321199 2.471584 -0.37946624 -2.2092738 0.50506127 0.1482111 -0.61529994 0.7455713 -0.22335462 -1.2972336 1.0178206 0.34215415 1.3482587 0.18650362 -0.6659502 0.54307246 -0.043807294 1.5763228 -0.14194725 0.13337627 0.90111727 0.7314299 -0.20786966 -0.14246114 1.032105 0.40643713 0.7952934 -0.8681635 -0.07699409 -1.0604728 0.471277 -0.92433995 2.0134306 1.0467476 1.4455041 0.6634344 -0.12956764 0.0013600064 -0.48972327 0.73424166 -0.899082 -0.2828449 -0.3495106 -1.2132835 -1.4797627 -0.24252585 0.56267154 2.3811038 -0.44522122 0.10794363 -0.8938003 0.6365201 -1.9559044 0.23034492 -1.0022507 -0.58735335 -0.50241095 1.1995267 0.73444897 0.52853674 0.41719326 0.26464456 -0.15001892 0.31434572 -0.33993644 -1.2542477 -0.63449156 -0.3369815 1.4018493 1.0146275 -2.2336264 -1.5399283 0.59558845 0.40975276 0.6456541 -0.48297086 0.5989002 0.12484572 -0.32479513 -2.6767857 1.2660309 -0.9028152 0.9295773 -2.0304196
40 -0.26502088 0.63971 0.8459043 0.524713 1.0783623 -0.018981908 -0.7711459 -1.0836221 0.9568008 -1.8107349 0.78212434 -2.0147007 -1.2784526 0.66315657 0.060769446 -0.13351534 -0.81540257 0.8463839 0.6781402 -0.020167284 0.22724847 0.43060842 -1.1942626 0.33796853 0.7104428 0.7954705 2.2896457 0.12502201 -0.16207126 1.7925029 0.05022331 0.3349933 -0.6182767 0.21653074 -0.22156222 0.5807059 0.22125992 -1.1037668 -0.34703505 -0.63931745 -1.1977116 -0.23074543 -0.75968283 -0.8337552 -0.768485 1.5652055 0.3031265 2.1703455 -0.33467606 0.33878973 -0.5813826 0.411106 1.6171478 -0.5337367 0.22186159 0.8184998 0.55213565 -0.48872495 1.1550326 -0.12874545 1.2504802 1.2629395 0.3083293 -2.0829303 -0.222663 1.2558782 -1.8162293 -0.9127963 -0.85169375 -0.60309917 -2.0927598 -1.2143611 1.6895827 -0.09641525 0.994423 -0.28556257 -1.0151951 -0.00941921 1.830419 1.5268614 -0.2718518 1.1529064 -0.018823681 -0.6166062 -0.23248085 -1.5096464 -0.606087 1.4017329 -0.92803735 0.4111932 -0.8720727 0.28517437 0.3735307 1.9880602 1.5702705 0.79881 1.2758346 -2.3118122 1.2619965 0.377466
41 -1.7656728 -0.66137797 1.1005536 -0.0085442355 -0.9880136 1.184486 -0.12221584 -1.3028766 -0.62381357 -2.8101728 -0.8691368 1.5777613 2.8080974 -0.8663681 1.1647185 0.8657436 -0.27490962 -1.0405498 0.61987376 -0.21762252 -1.3260497 -1.2255673 0.28495285 -0.4361872 -1.9475435 -1.0509686 0.47909278 0.0936672 0.514076 -0.7176031 -0.111527145 -0.93322915 0.30221376 0.15755285 -0.35057166 1.0893893 -1.2589703 0.5864814 -0.63172174 -1.195342 -0.8377107 -0.29385543 -0.431352 0.8345913 0.35133553 -0.5597074 -0.98896426 0.56850445 1.9039682 1.3748298 -2.0436945 0.9485615 -0.36059228 -1.0501484 -0.13954486 -2.1987453 -0.15434057 -0.19815984 0.67127454 -3.263168 1.1681755 0.33628795 0.6663837 0.9365334 -1.4427154 -1.546135 0.11511198 -2.0129657 0.65046215 -0.9027172 0.045642555 -0.55744964 1.1668332 0.9588169 0.34472606 -0.7936005 0.6969872 -0.98275673 -0.5408443 -0.8171046 -0.54826367 -0.39238238 1.4646652 -0.59301317 -1.441847 0.37988862 -0.030413585 0.31031978 0.20758416 -1.0468018 0.4189271 -0.51310724 1.5077156 0.61184484 -0.43599936 -1.5660406 0.9019951 -0.12562887 0.71931636 -1.1942219
42 1.4810073 -0.10573533 0.19287539 0.6439426 2.3536284 1.6847202 -0.62078744 -1.7506794 -0.78385496 -0.37804362 0.94029325 -0.06807439 -1.3749107 -1.135308 -2.2306743 -0.5818918 -0.12024505 0.31466603 1.6759064 -0.6439546 -0.98696274 0.26179126 -0.517326 -0.9582931 -0.45365962 -0.297786 1.2356766 0.67149884 -1.9630251 -1.0253752 -0.43635023 0.4520739 -1.0470831 1.1220421 0.1400587 0.11815321 -0.7216008 -1.2748772 -1.6221032 -0.15590744 -0.95551854 -0.44332564 0.12270042 0.17695655 -0.950004 -0.39608055 -0.83696264 1.321606 -0.22521186 -1.452737 -0.94057345 -1.0040466 0.037308455 -0.2397619 -0.98033154 0.32120854 -0.21647145 0.042659156 -0.27146187 -0.21507888 1.5166023 1.5396991 -2.1032894 -0.24138555 0.9327464 2.4159684 1.7640083 1.1145636 1.0329548 1.4054984 0.07164901 -1.4209269 -2.9453075 1.5336311 0.55067444 0.49138165 0.15778413 0.3728 -0.9388849 -0.5267818 0.3953582 -1.2723299 1.0327128 0.8097662 2.2719302 0.7031943 1.3956385 -0.3449522 0.79066056 0.5794544 -0.31407514 2.1117766 -0.5459724 0.83013785 0.05495632 0.39330155 -0.12748238 0.16785094 0.6907598 0.09846247
43 1.1173108 0.6985112 -0.47982755 -0.72469014 0.50867397 -0.23599502 -0.05567293 -0.09780087 -0.44977307 -2.7220142 -0.25183082 -1.3916165 -0.7006259 -0.03170128 -0.6070456 2.5359306 0.108170725 -0.21974948 0.09360491 -1.0077987 -0.23231158 -1.0113031 1.1136751 1.1184515 0.3156403 0.12800713 2.0422032 0.21312186 1.3021449 -1.6238966 0.2615043 0.54558355 0.10347639 0.99702615 -1.8662026 0.74732834 0.82138395 1.2467717 -1.2813157 1.0477467 0.0406782 1.3191596 -0.4399913 1.1880766 0.6652849 0.21185198 1.5990646 0.5722901 0.3478528 -0.79101396 0.3554096 0.28323433 -0.93046516 0.9708039 -1.212456 0.257326 -0.08417743 0.6511966 0.975781 1.7262577 -0.66845053 0.5613142 0.23932068 0.3879434 0.2975015 -0.115763314 0.60434157 1.0637727 0.45670986 -2.095311 0.6480766 -0.6179905 1.219741 0.6141986 1.3194602 -0.6900832 -0.085561365 -0.3283171 -0.29236 0.4305858 0.93468475 -0.522168 -0.24231175 0.9830002 0.7048927 -1.139474 -1.1165991 -1.5985413 -0.15160441 -0.2687827 -0.034036558 0.2625354 -0.8272292 0.104698144 0.18225358 -0.13348456 2.2391982 1.412124 0.19447722 -0.9767286
44 -1.7346696 1.966577 1.5705513 -0.043726966 0.28498966 -0.035589598 0.14327812 0.40473667 -0.032664225 0.29528138 0.28689745 1.2168535 -0.57963294 1.2222699 0.12956233 -0.4017173 -0.8749737 0.8052319 1.0090672 -1.3133645 -0.26370454 1.1581191 -0.56576866 -3.076581 0.011682568 -1.1251684 0.38985282 -1.5196276 -0.57678944 1.6479203 -1.3871167 -0.00064356084 0.5879335 -1.8736936 -0.88415515 0.28777236 1.1722164 -0.5727932 -0.24346952 0.8600017 0.13050777 0.383128 0.5558046 0.14996745 0.44998738 -0.9254016 -1.1750289 0.55206054 -0.8820197 0.42302322 0.8615368 -0.66212857 -1.0437735 -0.015961798 0.4366992 0.17725594 0.102923475 0.6608735 -0.23952684 -0.15043406 1.8209584 0.17542017 -1.9551418 -0.2775241 1.4706504 -0.5402056 -0.13568045 -0.033519074 0.9411343 -1.4993906 2.2262366 0.022861103 1.2713668 -2.1047027 1.07597 -0.1431962 0.071037345 0.2255691 0.63141936 -0.42817432 -1.4643159 1.2505293 0.013787516 0.906891 0.75030696 1.0496635 -1.2841198 1.0803069 1.395696 -0.05963246 -1.1399709 1.6155167 0.23016474 -0.6523267 1.0123626 0.8534521 0.80738527 -1.0447152 0.36397874 -0.2750095
45 -3.0395823 0.9479677 -0.24876493 0.28669688 1.0313739 0.6883948 -0.31506336 0.556015 -0.45881256 0.37884355 0.06953946 1.1845312 0.27815667 0.03334275 1.501211 0.10137445 -2.805996 0.442567 -1.5072739 0.018825796 -1.7903696 -0.18381192 -0.657599 -0.92193353 0.25686702 -0.36402747 -0.22305197 -1.9888828 0.6797071 0.5674002 -1.0360285 0.36853322 0.43727905 1.0848261 1.0838807 -0.08622529 -2.0627923 -0.52856916 -0.31821164 -1.345373 -0.28358853 0.84999865 -0.052583445 0.4681789 -1.1806359 1.4521666 1.3213902 0.37572697 -0.5665648 1.9618913 -0.57361853 0.53383803 -0.17577039 -0.37314004 2.0764506 -0.8514774 -0.5777264 -0.4139545 0.95890415 1.1297957 0.30384043 0.8214443 -1.7073058 -0.6770561 -0.8127467 -1.2296958 1.2113026 -1.2710007 0.25071216 0.18187061 -0.20422274 -1.15091 1.4402622 0.8648159 1.4662579 0.31820568 1.2329427 0.9333714 1.7034395 0.41998163 -0.34952492 0.6418763 0.85504687 0.77295864 -0.19955999 2.225574 2.9217463 0.3210473 0.8448567 -0.39226708 1.3696494 0.47998706 0.48941517 -1.1735011 -0.20252116 0.24546872 -1.7182288 0.10948617 -1.8105403 0.90779096
46 1.1987108 0.18197405 -0.94114834 -0.86763996 0.6136171 1.0568628 0.20871963 -0.24077651 0.2647469 0.86844397 -0.3019998 -0.22563496 -0.6640721 0.3677891 -0.7335394 -0.62869215 -0.50143534 -1.3407967 1.5675973 -0.33008802 -0.67077065 1.2225432 -0.88095325 -0.36114419 1.3079087 -0.0033776858 1.7028892 -1.6550742 -0.60808456 0.28786033 -1.3127276 -0.03863264 0.11947373 -1.4093796 1.582886 -1.095915 -0.27051216 -1.0394905 -0.8071389 -0.39728764 0.3403556 0.53051174 0.816157 1.7207463 -1.9271772 0.6284797 1.1276606 -0.5781004 0.7068882 -0.20562145 0.7434815 -0.7169166 -0.7921675 0.2693817 2.407645 -0.625491 0.72990245 1.0748832 0.5378987 1.462264 0.41420358 0.5408997 -0.98606074 2.2584105 -0.72517276 0.64806896 1.2664553 -0.53300434 0.17261776 -0.18827914 -1.4272531 -1.6897612 -0.6346941 -0.14538383 0.6157616 -1.7883039 0.14815155 -1.4409114 -1.2810495 0.25765955 0.19428386 -0.013962632 0.58949494 1.0812489 -0.411867 0.52779967 -1.2811757 -0.085947655 0.13177942 -1.044822 0.28747633 0.90147877 0.14968581 -0.5666117 0.41284707 0.19643514 0.84301746 -1.0572522 1.833383 0.24956982
47 0.5802764 0.30153412 0.12506832 1.3204867 -0.1421887 0.52877194 0.052968536 0.34994623 0.08535822 -0.23464702 -1.9061598 -1.6975803 -0.9204469 0.96017313 -1.7047482 -0.274603 -0.29338437 2.8860629 1.1588168 0.83584005 -0.24231039 1.7209094 0.7510373 0.37198606 0.2309081 -0.3267528 -1.0906854 0.368343 -0.052417092 -1.7438017 1.291791 0.27892977 -2.148323 -0.1990163 0.17486843 0.44881424 -0.41423774 -1.4042196 0.19741645 1.1418192 -1.2365339 1.2376547 -0.9206709 -1.0312027 -0.17658015 0.9194327 0.3432815 0.6516737 -1.1112071 -0.7061656 0.5941083 -0.028455032 0.022120224 0.9563187 0.5749184 1.243312 1.1443515 1.055293 -0.8640286 0.22728087 -0.2777885 1.681416 0.93343747 0.89778775 0.66946965 -1.4539908 0.06844096 1.3255222 0.9436476 0.27376217 -1.4908437 0.9059351 -0.9843297 0.018200425 -0.46009132 -1.1681434 0.25889376 1.4095662 -0.010669345 0.92404735 2.0490553 -0.094566174 -1.6351527 0.5413078 1.1390169 0.9365515 -0.5231777 -0.4149361 1.0771043 0.78874993 1.2586296 -1.8773283 -1.3356414 0.7154403 -0.7874499 0.26745006 -0.1737136 0.64549273 0.59397227 0.25928548
48 -0.117169924 0.16966654 0.42441905 -0.067396134 1.6851248 0.91387606 0.35831678 -0.57734233 0.46262038 0.10539589 0.13157089 0.37494603 2.261737 1.2979989 0.2560527 1.613672 -0.6142926 -0.8651273 1.806236 1.0571765 -0.096370496 0.1488346 -0.2556458 1.9234443 0.30593747 -0.56681645 0.620461 -0.7315845 -0.38088027 0.4353188 0.92915046 0.4170781 -0.12790924 -1.2955257 -0.29158288 0.10513677 0.4553164 0.057882804 0.2904617 0.54444796 0.9263288 -1.5927783 -0.28308555 -0.4817186 -2.1679063 -0.8119041 1.4966184 0.58027846 -0.22513339 -0.6219996 -0.026250668 0.7516431 0.86229587 1.3122122 -0.28695297 -0.82455045 0.56354165 2.1943269 -0.9637032 -0.62866884 0.63143986 -0.7700179 0.13006024 -0.1297704 0.054939352 -0.46578366 -1.2575159 -0.50830054 0.46061924 0.09951967 0.07832642 -0.36936828 0.37270105 -0.5806025 -1.1535766 -1.1472487 0.61101437 2.0148559 -0.05416056 0.9607151 1.7005253 0.12995824 -1.6861621 -1.0234646 0.036367673 -0.58615863 -1.4415525 0.031055426 -1.8512484 -0.8767845 -0.73422587 0.031480186 1.3514217 -1.2778084 -1.4764569 -1.4487717 -1.2241262 0.83850914 -1.0097227 -0.041039888
49 1.4519093 -0.8151066 0.9968466 0.066633634 1.2528397 1.6306262 0.6441945 0.6520144 -1.6884576 1.3123617 0.9808267 -0.4588357 0.80454177 1.1548829 -1.8083448 -2.0861542 -0.006638333 0.9296667 0.12088331 -0.5307116 1.1740206 -1.129559 -0.63162875 0.14697522 -0.56310016 0.09448431 1.0761123 0.68569195 -0.63543236 0.57189333 -1.0163225 -0.20759986 0.36869872 -0.962818 0.16427162 1.0183506 0.71620667 -0.7516466 -0.015231391 -0.36492726 1.5534521 -0.35752237 1.4690481 -0.2086953 -0.8038372 -0.62290114 0.8721431 0.49784687 1.1692209 0.79231316 -0.29417917 0.97793245 -0.046355076 -0.2909604 -1.752781 -1.3498528 0.67292523 -1.3056847 0.04008921 -1.0739634 -1.4716008 0.8907848 0.046294745 0.8082121 0.17764951 0.13055746 0.024764387 1.9270808 -2.0312116 -0.71243095 1.3912041 0.15231702 -2.0514297 -0.21565346 0.5857443 -0.16823253 -0.706021 0.68475056 -1.1881161 -0.7690783 -0.040867027 0.71778893 0.10391315 -0.099843815 0.9056605 1.450937 -1.8045428 1.0911478 0.49614397 -0.2528999 -0.35315123 -0.17400217 1.5794616 0.06537054 0.6735459 0.74102205 0.4327196 0.34516492 0.9098586 1.5844692
50 0.29912668 -1.4951618 1.2125096 -0.8769742 0.42461345 -0.75185895 0.42442736 -0.6636098 -0.5631373 -2.0221238 -0.2525003 -0.1648651 -0.92796576 0.4162107 0.85415375 1.5976405 0.7457198 -0.35631004 0.45542946 1.0005445 -0.51221085 1.8484316 1.2684243 -0.55806476 -0.66986686 -0.96229404 -0.34629008 0.69849026 0.34173536 -1.1104865 0.41259706 -0.25976065 0.8126011 1.2913636 -0.7944145 1.4118694 -0.60078126 -0.28542304 0.46015283 0.8713199 0.59745735 1.5345106 0.92007905 -0.35848776 -0.12002522 -0.932508 1.0678434 -1.3252548 -0.87768567 -0.3370943 -1.9521608 -0.6325324 -0.996049 0.4465989 -0.50108343 -0.41975537 0.020700157 0.48014098 -1.4625939 -0.78049517 -0.85367733 -1.6523123 -0.37690035 0.60756147 -1.0540242 0.6629962 0.10646632 0.075761564 -0.24513625 -0.24548718 -0.38229474 0.13382751 -1.67814 -0.26434785 -0.8315736 -0.82721 0.78401846 0.052742787 1.1176689 0.23342146 0.077359065 0.65745986 -1.5311483 -0.08348314 -1.9713221 0.15568002 -3.0268922 1.747489 -0.32694936 0.7821986 0.4610238 0.7101525 0.884666 1.5052444 -0.73364776 -2.8041806 1.0196241 -0.75038 1.4294078 0.74510443
51 0.44762966 -0.22379138 -0.09629871 0.5014302 -0.4794579 -0.7987868 0.23873314 -0.021263212 -0.7405275 -0.15279439 -1.1320084 0.67305845 1.1580117 -0.5649105 -0.114453726 -0.30731437 -0.13162604 -0.41696855 0.5929022 -0.25177735 1.0462004 -1.1289699 -0.03490281 -0.118858665 0.65056 -0.7807447 -0.23105973 -1.0988686 -0.31650925 0.50302196 0.16373211 -0.045249928 -1.8978287 0.45571566 0.46674386 -0.39883667 0.19634052 0.56006265 0.25357336 0.9605751 -0.06528409 -0.38384348 -0.8403164 1.4102694 0.009617804 -0.5505948 -0.4249369 -0.78328496 0.3918094 -1.590441 0.54211587 -0.87057996 -0.20739682 1.5291239 -0.23273523 0.6860099 -0.47968963 -0.6188174 0.034901157 0.21984214 0.5206857 -1.4305712 -0.52129024 -0.3750491 -1.4869863 -0.26718283 0.41901278 -1.1596699 -0.48424163 1.6784475 0.7616264 -0.123148285 0.7548006 -0.6563536 -0.2150297 -0.07985323 0.5399948 -0.123565964 1.4491037 0.6808039 1.4056165 -0.62373674 -1.1098999 0.38116157 0.993041 -0.44301268 1.9554096 1.1840729 -0.076135784 0.5250066 2.5029185 -0.15062486 -0.46348897 2.1789463 -1.113092 0.10898404 -0.71318805 0.08948126 -1.1516364 -0.38697493
52 -0.09489537 0.4099063 -1.0332682 -0.88179547 0.8069431 -1.0368817 -1.012487 0.9963476 -0.34211907 0.24254613 -1.6574107 0.027950121 0.77703464 0.10410691 -0.19085322 0.31619832 -0.4207704 0.79387236 0.25725496 -0.6792786 -0.3030524 0.043757252 -0.09446583 -0.23218365 -0.64659625 -0.45629922 0.5734678 0.2415407 -0.36404842 1.3090392 0.14220461 -0.042173583 0.6408956 -0.8517159 0.39187706 -0.026452173 -0.39399728 -0.10520092 -0.10316954 0.741699 -0.31001022 1.6310877 -2.5410717 1.2539057 1.2023172 0.6474066 -0.6724984 -0.8029293 -2.1779819 0.38732392 0.110650755 0.13655229 0.14783488 -0.13470748 0.6259882 -0.6619385 1.480283 0.06532468 0.31477702 -1.2986019 -0.78839004 1.5950556 -0.21884003 -1.5599666 1.3326688 0.005405245 0.75718355 -0.04665931 0.74242663 1.0711839 -0.23468077 -0.29145452 -1.0201969 0.5353903 -1.2826612 -0.010631926 -0.32008076 -0.6685704 -1.5591503 -1.0957342 -0.49282685 0.043243866 -1.2666081 1.7278082 -0.66201484 1.0196759 -0.82670975 0.08091673 -0.3617576 0.011489859 0.30084231 0.3046954 0.44289798 -0.23363887 0.8673109 1.7848421 -0.64918697 -0.8599628 -0.11285125 0.55224794
53 -0.71937805 1.2419323 -0.69276625 1.6508354 -0.50568104 -0.69990045 0.4623084 0.016652046 1.8113695 0.45176962 -0.45716655 -1.3137965 -1.1423408 -1.0189456 -0.09019931 -1.4856899 -0.02382594 1.4228516 0.4797158 -0.5422406 0.19529773 -0.05916952 0.033018135 -2.1070821 -1.2724329 -0.8956637 -0.7863182 1.2195219 -0.12368359 0.15699558 -0.25687554 -1.498486 -0.508538 1.8783059 -0.12417 0.94847226 -0.0602899 0.17141214 -0.26221788 0.37309197 2.1540656 0.4459273 1.8090317 -0.41397697 -0.4018517 0.60659903 1.5867118 0.083262146 -0.06633991 0.04757925 0.31827015 0.75358474 1.1323527 1.1007308 -0.10427393 0.7376568 0.14260398 -0.71724695 -0.70996284 0.14735352 -0.33045602 0.067332245 1.2061712 -0.52366626 0.63900924 -0.5367394 1.8823316 -0.78096086 1.3884057 0.38690645 -0.75217193 -1.8789182 1.1402677 1.1556274 -0.5578417 0.7176942 0.6838472 -0.79580534 -0.9050897 -1.533401 -0.31639135 -0.1682266 -1.2439803 0.9668033 0.8067148 0.5297852 -0.0023968664 0.3191049 -0.24037723 0.979865 1.2804245 0.57407147 0.24599394 -0.30100274 -0.40911663 -0.44422632 -1.555483 -1.244601 1.6168865 -1.3146069
54 -0.97240484 -0.41128656 0.22652194 -0.72794324 -1.3898294 -0.43181506 -2.1108096 0.560509 -0.327482 0.123924084 -0.28192163 0.595782 0.30471027 2.3919194 -1.4594878 -0.7971815 0.3004557 -0.13189343 -1.6965325 1.0192164 -0.6540795 0.7563168 0.0008958927 1.4191164 0.3776944 -1.0646158 -1.0017791 -1.0247202 -0.19778246 -0.39754248 0.024076987 -0.035690457 0.56479746 -0.059828654 -0.04890683 -0.034996524 0.6174994 0.0050556944 -1.1541976 0.9104286 -0.67905474 -1.6716133 0.6819261 -1.4220668 0.0788996 -2.078179 0.6718985 0.009492895 1.6431395 0.38814124 -0.66661364 -0.18329903 -0.11918367 -1.2176931 0.7075513 -0.42862207 -0.58885515 -0.6598678 -0.7003905 -0.96713823 1.5507085 1.3097717 0.8855262 -1.0592357 -0.67513376 -1.6081096 0.15496147 0.36262882 -0.5308708 -0.9452008 0.16906187 -0.3816022 -0.93264145 0.17845312 2.360063 1.6781734 0.087863676 -1.3818325 -0.97855425 -0.48521724 0.47248432 1.1386994 0.79125214 0.9259222 -0.5596707 -0.5499123 0.34966806 1.9582084 -0.4795175 0.8781321 0.32154727 0.181486 -0.9729248 -0.9161329 -0.81167006 -0.19816272 0.6616137 -0.88291806 0.6420591 0.2510087
55 -2.081643 -0.1965024 -0.61890405 -1.1482344 1.4581859 -0.31120768 0.5001544 -1.8371267 1.0492721 0.7009685 -0.5630039 -1.4173396 0.5975575 0.38515395 -0.8606154 0.007016278 1.4167982 -0.38535464 0.0029684878 0.8955249 -1.7681583 1.0869535 -0.23817429 -0.05029716 -1.1466414 0.08943527 -0.8105435 -0.6652931 0.17562714 1.0345942 0.13376124 0.70425826 0.7264797 -0.15671173 -0.3475831 -1.124058 1.8531964 -0.39346793 -0.023354264 1.0949634 -1.1401186 1.1462864 0.02015675 0.09796698 -1.613701 0.531597 0.067676485 0.20834446 -1.4219294 -0.863727 1.4705036 -0.92425907 -0.9856086 -1.1476623 -0.5355897 -0.057106756 1.6761457 -2.9075844 0.12362741 0.04885699 -1.00672 0.48678246 -1.5859822 -1.1139157 0.7474598 -0.066222735 1.2110873 -1.1626617 0.6827397 -0.7052687 -0.64953846 -2.2619474 0.6223969 -0.60808414 0.89973545 -0.15946825 -0.2917642 0.45894817 -0.5367094 -0.4240078 -1.2561321 0.49364817 0.6609123 -0.67113423 -2.091842 0.1142731 0.31920084 0.25399464 0.8641178 -1.3873979 1.222712 0.92348486 -0.63783824 -1.0001649 -0.8885225 0.27995494 -0.5331953 -0.24307364 1.4048648 -0.041456398
56 0.2307889 -1.077438 1.0219196 0.27147546 -0.14296138 0.51238513 -0.65388566 2.1575787 0.5553955 1.1735065 -2.2970138 0.74682355 -1.7082905 -1.2612758 -1.9508195 -1.15095 0.35626408 -0.35491407 0.13084945 -0.59382945 0.776346 0.021719327 0.58990544 1.0983039 -1.6751026 -1.8076321 0.16331665 1.8013425 -1.4811953 0.2510268 -0.031220553 0.3878225 0.900409 1.1741154 -1.1578753 1.7881472 1.3089348 0.23390947 -0.2766801 1.6714637 1.4483527 0.65008444 -1.5919211 -0.46841654 -0.45780802 0.31108096 -0.4883506 0.28530023 -0.5622547 0.9492512 -0.49471098 0.3452069 -0.26225773 0.33163947 -0.8842247 -0.7362045 0.03837545 0.09062412 0.60625094 -1.3819127 0.68563956 0.3200866 1.5427114 -0.695306 0.20854026 1.1444062 0.6579322 -0.63521135 1.2496235 0.43240514 -0.43003446 -1.2899363 -0.2871538 1.1044863 1.1526166 0.60210973 -0.7748534 -2.0062551 0.42964977 -1.6387701 0.46218178 -0.10100173 -3.1151993 1.4666708 -0.84294444 1.7629999 0.51725286 0.6338162 -1.5691495 -0.9568339 0.6660079 0.6795158 0.78885406 0.3521049 -0.53368527 0.9083946 0.20816964 -1.8681544 -0.81106895 1.3627326
57 0.5523722 1.1578357 -0.24739082 -0.12837435 1.4885654 1.0723056 -0.5149034 -1.027177 -2.2930527 -0.39681855 1.7588565 1.138565 0.21107094 0.1976131 0.6725263 -1.7587662 -0.7590004 0.024102787 0.5582852 0.01889495 0.5990243 -0.903415 0.022620287 0.5528037 -1.245719 0.655156 -1.2089949 0.21165487 0.8769663 -1.0469064 0.26142278 0.0751381 -0.36557314 -1.0777365 0.78277093 0.82909757 -0.32191178 0.46872666 0.8724457 -1.0321628 0.23479575 -1.0195466 -1.0966756 -0.01568188 -0.17442021 1.172919 0.67730284 0.15139471 -0.7063042 -0.15352663 0.53496116 0.41033173 0.050388116 0.1681945 0.30281687 -1.0521313 -2.5516086 -0.53984064 0.14065035 1.7724204 -0.653616 0.18142165 -0.5563924 0.7375402 0.89569956 0.92247885 0.017550314 -1.15967 0.13945584 0.2674898 0.78035206 -1.1427914 0.77379847 0.9574028 0.215825 -0.7672397 -0.048621386 0.6389495 -0.691174 -0.87458766 0.35231075 0.13115169 0.26841378 0.7749796 1.1590765 2.2234068 -0.7218165 1.0551614 0.9986849 1.0491207 -0.050773386 0.28293276 0.29850098 -0.13648662 0.1591249 -0.22032908 0.88258475 -0.19640087 0.07857094 -0.53146774
58 -0.3353246 -1.1112591 0.64797235 1.590989 0.26848587 -0.915278 1.3782067 0.15284663 1.8465583 -1.3738394 0.008577176 1.604175 -0.6762144 0.53205264 1.4797629 2.0530577 0.22030032 -0.6698512 -0.94030637 -0.22596067 0.31656104 -1.4331832 -1.2667724 0.1871161 -0.41212228 -0.501824 -0.6298948 -0.5977394 2.3396204 -1.7573526 -0.92627424 -0.9649222 0.5948093 -0.58902705 -1.6482935 1.2703706 -0.35389665 -0.7799372 1.3035047 0.088874884 -1.4044318 -0.39987698 -0.18537924 0.31383485 1.4836092 -1.0692565 -0.15682939 -1.290476 0.031172818 -0.35756332 -1.5562531 1.5469599 -0.27832013 1.2570999 -0.8814267 -0.7124913 0.30026516 1.2085593 0.37131268 -0.97610384 -0.84975046 0.8645148 0.25905722 1.4247108 0.87470263 -1.3257036 -2.0354915 -0.044983868 -0.021296795 -1.4428314 2.0514555 1.8317188 0.48193198 1.8477578 2.403348 -0.5135173 0.36028326 2.5594354 0.2475039 1.2065566 1.2149953 0.49202654 0.36314628 0.703409 -1.4969884 -0.29926634 -0.21883163 0.850298 1.6001256 -0.5988216 -0.15228674 0.56306386 0.8694935 0.36306477 -0.71316624 -1.4810319 -0.41809267 1.2936075 0.17361869 -1.5677727
59 -0.044460338 0.483967 -0.18941416 0.858359 0.118354246 -1.2282451 0.33704025 0.2677319 0.13028008 -0.17451827 0.7899883 0.98029363 -0.24701545 1.0316606 -0.5440479 -0.3975972 0.14666991 2.1132734 -0.31271005 0.4711611 -0.61649394 -0.2237861 -0.30141982 1.2501166 0.30104396 -0.43670237 -1.1283443 0.029614355 -0.7415675 2.1714158 -0.24999769 0.111634955 0.17227155 -0.7843213 -0.5372805 0.42676976 0.58956844 3.215673 0.46050826 -0.7410443 -0.74381435 -0.24662127 -0.6706963 -0.62230104 -0.07295305 -1.1223202 -0.4966888 0.45012036 -0.16799505 -1.5097529 -0.5412451 -0.30292946 -0.10445679 -1.2528464 1.5156313 0.6209033 -1.6326101 1.353198 -0.8469037 -0.7413491 -0.8123672 -0.24555066 -2.169499 0.3897825 1.10675 -1.3636609 -0.82279336 1.8360856 0.25439164 1.2107651 -1.0006372 -2.0097516 0.6958321 0.43971133 0.30346626 0.76840943 0.45642164 1.201041 -0.12757628 -1.190316 -2.209585 1.3156756 -0.8011086 0.920015 0.83823484 -0.20293877 0.5453839 -0.18661402 -1.004114 1.02568 0.64690804 0.73603195 -2.7290666 -0.26902893 0.7633349 0.98227036 0.22135939 2.364277 -0.0064717988 0.9998308
60 -0.5058621 -1.510254 -0.67121077 -0.29396757 -1.1198237 0.3671132 1.5647405 0.32379234 -0.3925682 -1.8836402 0.32175946 0.9375074 1.0693501 0.98191816 -1.7162235 1.2778422 0.18975073 0.74395674 -0.8309476 0.36706153 1.4748343 -1.9685256 -0.8130913 0.3711291 -0.015808266 -0.84464324 -0.31659636 1.5236931 0.6008091 -0.10783527 -0.36092675 -0.28632176 0.4084991 -0.5336219 -0.6100554 0.42972538 0.5988729 -0.42792004 0.034238387 0.74445575 1.8138314 1.0721327 1.8278264 -1.8576132 0.062375136 -1.818634 0.37331003 1.131927 -0.8910482 -0.11304159 -0.64321274 0.27386937 -0.15551104 -0.94667554 -0.37072992 1.2052729 0.3971476 -0.15939924 -0.09345636 -1.4149079 0.675619 1.1270198 -2.398563 0.22028753 -1.0764052 -0.80442977 0.16070531 -1.5185983 1.9916878 0.872666 0.43315887 1.9839555 -2.6345186 0.24913424 -0.88764983 -0.889617 -0.34629762 0.2338226 -1.6499317 2.0516498 0.5286364 0.16887617 0.9785855 0.27867886 0.9360014 0.6300404 -0.5543226 0.06590662 -0.02516069 -1.1707886 0.28652245 -1.247838 -0.06334611 -1.3891926 -1.1214089 1.1885437 -0.052131947 -0.9421196 -0.12209657 2.438217
61 0.57957435 2.6802616 0.21757828 -0.618096 3.0179439 1.3124546 -0.15147592 -0.24770243 0.2048129 -0.56564385 -0.5636884 0.41406813 -0.030188678 -0.95914936 2.8532665 -0.35037205 -0.37162998 -3.1709104 -0.7140987 0.58517206 0.9582308 0.7942584 -1.4825852 0.08518667 0.3254478 -0.69513136 -1.2215317 -1.259791 -1.3829829 0.36655575 0.32478508 0.37971103 2.041657 -0.8397172 1.1968406 0.16807787 1.0256115 0.8423152 -0.65269 -0.31474334 -0.17933564 -0.25413346 1.203548 0.53436416 0.32063434 0.25327164 0.10290575 0.7039135 1.1868004 -0.1975281 -0.73849416 -2.2848039 -1.2158775 0.019594401 0.3698134 -0.23862277 -0.07593859 0.79253423 -0.42669472 -0.8896774 0.98278815 -1.4001082 -0.46949473 -0.7213536 1.6876476 1.078785 -1.7110279 -0.2743812 1.4015521 -0.7718797 1.0531508 -1.0063119 -0.25471878 1.8729243 -0.46199495 0.28465742 -0.06725776 -1.1258994 -1.6565336 -0.9251222 1.2044028 0.08998753 0.4851086 0.38526234 0.5815499 -1.3649422 1.3953681 -0.9736487 -0.20597413 -1.7446415 0.65113306 -0.53672093 -0.03429844 -1.0830361 1.8351523 -0.20799667 0.044911344 -1.1378957 -0.65906364 -0.13191608
62 -1.2291957 -1.1339461 -0.1795383 -1.1928314 -0.6562864 0.047425095 -0.0962519 1.2913743 0.25004634 -0.32305962 1.1711292 0.26852944 -1.2084898 -1.5547441 1.3770207 -0.094996005 1.0590352 1.3382444 1.1357073 0.4276401 0.8436812 1.5284624 -0.09977373 1.5237043 -2.321774 -0.14787044 -0.6311879 -1.21534 -0.22911225 -0.33799878 0.7886706 0.6052155 -0.66947186 0.24557824 -0.13509949 -0.5399018 -0.31139946 -0.88937277 0.6856828 -1.2911733 0.025591621 0.8340755 0.7163679 -0.19159222 -2.1091254 -0.53320485 -0.29381043 0.6649409 -1.4344772 -0.5569774 -0.48744014 -0.050522294 -0.87074476 -1.3094083 0.538458 0.97542655 0.6172402 0.52512753 0.018255055 0.29621518 -0.3222338 1.4786036 -0.5027804 0.6503461 -0.6595343 -1.4059871 -0.49994925 0.69258296 0.0040956605 0.4958471 -0.6063996 -0.96274024 0.7215938 -1.0889286 1.630789 0.00035890454 -1.3719815 0.20130399 -1.4430965 -0.52013886 0.88854903 -0.2056552 -1.0751331 0.35589108 0.8078148 0.28551686 0.12262879 -0.19461386 0.6618646 -0.16157964 -0.50144 -0.9639463 1.3135428 0.42308378 -0.12742905 -0.15291016 -1.8397776 -1.1895405 0.6417793 -0.5469767
63 -1.3652921 0.19035748 1.0696158 0.2788387 -0.21843907 -3.1673055 -0.23572397 1.3777562 -0.98769253 -2.756965 -0.60643643 -0.121385805 -0.37236923 -0.7611574 0.1287503 0.27849683 -0.35216722 -1.1317704 -0.33837286 0.87203455 -0.22699659 -1.148871 0.9576729 -0.107559256 0.31485346 -1.7098409 1.5358565 0.7460999 1.9885949 0.13958459 0.88689315 0.6915041 0.6570251 -0.41296858 0.32847416 0.3265882 0.20825027 1.4812098 -1.2857381 -0.7715229 1.306913 -0.18606734 0.8304901 -0.7730804 0.26480538 0.023232061 1.0122354 0.11139134 -0.4774888 -0.16484535 0.32404187 0.5604463 0.29433605 -1.0847268 -0.19633865 1.6012614 0.24617364 -0.25724027 2.0091336 -0.823984 0.314676 1.1009128 -0.066539355 -2.5554163 -0.9777101 -0.65649855 -0.31843427 -1.2411819 0.17305821 0.2581741 -1.1330004 -0.13103564 0.20331849 0.21062505 0.023128226 0.76615775 1.1624614 0.7843277 -0.011058695 0.93673164 2.3091707 2.234954 0.67178386 0.059216477 0.81172127 -1.3609116 0.09633658 -0.2249562 -0.5038725 -0.01010232 -1.6830274 0.21108273 -0.90730625 -0.36348143 1.1668687 -0.6804598 -0.18812722 -1.4820434 -0.6711 -0.65905225
64 0.3675787 -1.0431278 -0.85351795 0.8446346 0.46223292 1.072977 -1.0560502 -0.5450272 0.046530485 -0.20000729 -1.7193108 -2.5164158 -0.97864735 -0.67819923 0.93293875 -0.20208657 -0.39706776 -0.7862663 0.22511227 1.8773304 1.045421 -0.19809446 1.1230204 1.7025093 -0.5896271 1.4872012 1.1689656 -1.3485167 0.4774003 2.1411278 -0.78643304 -0.29455012 0.7796313 -0.5555144 -1.2791936 -0.8775587 -1.3086014 0.024386743 1.0087388 0.7674091 -2.007235 0.8244131 0.10027357 -0.6463062 1.0947754 0.117087394 -0.3340638 -0.74270123 -0.3367332 -1.394975 -0.49894342 -0.83833337 1.0876948 0.60144323 0.4068936 -1.8891169 1.4899223 -0.26363328 -0.09709883 -1.3924168 -1.4000854 -0.7450742 -0.16386871 1.3317335 -1.4336246 -1.769832 0.049780965 -1.7525994 -0.33617458 -0.028865676 0.17299774 1.0845774 -0.82380515 1.1519964 1.2179823 -1.212862 -0.41995102 0.10527619 -0.7726922 1.3517525 1.0739219 -0.8874196 0.7683222 -0.62728876 1.470809 0.6366787 0.09963309 0.135184 0.4856324 1.8929493 0.1823886 0.26683348 -1.1241984 -2.359047 1.1183791 -0.1298612 0.4901481 0.6667358 0.97243077 1.6261499
65 1.6079677 -0.65709066 -0.595272 -0.16647781 0.12057945 -0.8459233 -1.0441749 -0.81454015 0.9878769 1.3724333 -0.015534878 -1.1660504 -0.8824745 0.2602099 0.24351172 1.014203 -1.8384305 0.8135696 0.77996993 -0.66251063 0.1362732 -0.68595207 -0.56962 0.26960054 0.29325178 -0.12606569 -1.1064626 -0.10771942 0.3260494 -0.68546736 -0.66635484 1.173496 0.8307746 0.21292974 -0.5934258 -0.14599311 0.105221905 1.0046618 1.4980778 0.41886067 1.0145591 -0.34826678 0.35479963 1.5627216 0.6268524 2.0423133 0.23092486 0.5647064 1.4932781 -0.035906333 -0.29423928 0.70289 -0.87249327 0.8350707 0.9925227 0.53683656 1.9913169 -0.8958764 -0.81508976 2.18652 -0.35248142 -0.9540304 -0.5716185 1.3673773 0.96169674 -0.8605228 0.067587964 0.65824884 0.67915463 -1.6389648 -1.077507 0.22217627 0.026058346 -1.6268475 0.53862184 1.5690314 0.3363754 0.85243267 0.49645573 0.7808019 -1.0145283 0.8944923 0.29459754 -1.3469094 -0.03820593 -1.5551025 0.91805404 -0.81849396 1.4978778 0.9192971 0.17965716 0.35246992 0.0029887022 1.5653186 -0.9021138 0.08833531 -0.34064955 -0.26290977 -0.12219172 0.90977573
66 -0.031335957 0.08762615 0.38832033 -2.0123446 -1.3460298 -0.6544733 0.5715404 1.3939595 0.93813217 -0.43542582 2.491233 -0.58691126 -0.11303039 0.01359317 -0.20988463 0.10324017 -1.5129237 1.1049542 0.9341037 0.20627162 0.8781893 0.30884618 -1.0815725 -0.304246 -0.17860837 -0.8748031 1.0978465 1.9611819 -0.44711855 -0.52776694 -0.6389687 0.6570569 0.316879 -0.49665684 -1.1568434 1.1393417 -2.2203414 -1.4540869 -0.37905067 0.9576884 -1.0048155 -1.2934813 -0.7460502 -0.074382246 1.0032454 -0.6327178 -0.4952967 0.6403788 0.5382109 1.167681 -0.8588635 -1.1228857 1.3642391 -0.25399977 -0.9284019 0.3057182 0.12936482 0.06194487 -1.7475013 -1.0909142 -2.60504 -0.20453957 0.10385072 -1.7558945 -0.34870324 1.3852054 -0.7050553 -0.97736794 2.395772 1.2816622 0.7616447 0.36384916 1.1855826 -0.75922954 0.28584495 1.0868404 0.030801523 -1.229836 -1.2016829 -0.31576675 -0.23818745 -0.1655777 0.20406188 0.6420299 -0.5766559 -1.3784992 -0.19712095 0.72225624 -1.1689618 -0.27133882 -0.0914952 0.61804754 -0.31776688 0.14022514 -0.47214642 -0.38152772 -0.97601855 -1.3012745 0.29308692 1.6695745
67 -0.2378747 -0.7265741 0.5051608 0.60809004 -0.08853682 -0.35799888 -0.29341918 0.12983844 0.06669837 -0.49919805 -0.3622608 -1.1914023 -0.5945328 0.932146 -0.5077216 0.27737385 -0.48394093 0.82541585 0.9375025 -0.74614096 0.6447621 -0.5192522 -0.33021212 -0.6997442 1.0179437 -1.3680824 -0.35722843 -2.3933172 -1.1737677 -1.240382 0.14782584 0.08227701 1.2624698 0.673573 0.2453027 1.7862892 -1.1364928 0.88932836 -0.042737044 0.6803331 1.1421776 -3.4203303 1.0408536 -0.59873694 2.1739724 -0.46980932 0.5275691 -1.1512543 -1.0174884 0.10932625 0.8232134 -1.3209962 -0.4251038 -0.09453419 -1.5157372 -0.0036564257 -0.51130944 0.92538863 0.6341016 -1.8023885 -0.6966673 -0.8200028 -0.11375748 -2.727906 1.8463112 -0.9129638 0.28680056 -0.22588286 0.41063797 -1.4483433 0.12504223 0.031522647 -0.3638018 -0.8420925 -0.4801341 -0.12557055 -1.2601299 -0.15919524 -0.44343492 1.320725 1.1038804 -0.25909662 -0.00883892 -1.0639039 -0.92054707 0.4526251 -1.8293633 -2.6443937 0.24008815 1.5545175 -1.6256454 1.3126916 -0.33450553 -1.01879 -0.84897 0.42683944 -0.9665645 -2.1421208 -0.47695744 -0.8729349
68 1.1990441 -0.9349627 -0.69843096 -0.33927086 -0.14970994 1.380416 0.2191752 0.9407852 1.2592247 -0.15256092 -2.4039798 0.47571623 -1.0110366 0.46783623 -1.2612953 -1.3409376 -0.48256072 0.0018072062 0.48785567 -1.6451006 0.043750476 0.9624488 -0.08169009 -0.7182618 -1.5852157 1.6509358 -0.2017508 0.74533904 -0.10397074 1.1858131 0.72240037 -1.29114 0.17426337 -0.7604247 1.1899058 0.9456941 0.4622703 -0.21715438 1.3659402 1.6182778 1.1858197 2.0309424 -0.0021938966 1.1954508 -2.8659027 1.3234262 0.38221478 0.498006 -0.19660525 -0.50006944 -0.30483344 -0.4103569 0.69785523 -1.6344342 1.3385789 -0.40669695 -0.102020904 -1.7834097 0.72130954 -0.04160403 -1.2803698 0.5174786 0.25003567 -1.3169571 -0.018699143 0.047768764 -1.405499 0.8266986 1.1917436 -0.9935179 -0.36630476 1.4014457 1.0636541 -0.106236584 2.042915 2.0224516 1.0210112 -0.17775996 -0.5802453 0.9358651 -1.2177619 -1.2285562 -1.0111958 0.19256452 -0.8781405 0.96023524 0.32468078 -0.33282036 -0.24469528 0.46527675 1.2777997 -0.9309157 -1.0072879 -1.0248332 -1.4975654 2.0254881 0.6849118 0.6799122 0.20358886 -0.9816658
69 -0.9179925 -1.7403724 0.7451207 -0.15657458 -1.4558264 2.1018713 -0.06628507 0.037380118 0.6601677 -0.34582388 0.58007675 0.45895442 0.43216634 0.2621553 0.115274645 0.19844852 -0.21893711 -0.575574 0.6763064 0.15649985 -0.5572505 0.19047573 0.6212232 1.654431 -0.9037538 0.09636344 0.21993634 0.73526454 0.4747374 -1.6578723 -2.0530412 -0.12786126 0.21116017 0.40467894 0.0026756003 -2.3577626 0.3164002 -0.6326778 0.55169827 0.012172872 0.13073483 0.020718534 -0.82153744 -0.51543057 -1.0392576 1.456247 -1.2431996 0.37142023 -0.22398046 -0.74703467 0.7824632 -0.70477813 -1.0850264 1.9609729 1.9247963 1.2615824 1.2534107 -0.45438328 0.80988413 0.13697879 -1.5852526 0.5316924 0.32030204 -1.3993063 -0.9161844 -0.3256126 -1.1317823 -1.2139742 0.67273617 -0.3464793 -0.83272177 1.5800261 2.230372 0.8927054 0.045818027 -1.1697879 0.56973 -1.3868784 0.16881675 -0.55095255 -1.0907146 -3.3776534 0.3545905 1.407733 0.49647576 -1.9163921 0.12990883 0.03035458 0.27606237 -0.65259534 1.4380543 -0.14805126 0.24884248 -1.567605 -0.7470194 -0.16670966 1.5575964 0.5300393 -1.5419366 0.9858619
70 -0.6479921 0.022413079 0.28024572 -1.4396846 -1.0448347 -0.69439054 -0.7569215 1.3807411 -0.12695496 1.6284394 0.36478 -2.4452758 -0.92592233 -0.058024984 -0.6921271 0.46881136 0.85572594 0.08841059 -0.39427733 1.1120197 -0.21422157 0.15640637 1.8693291 -0.025700623 -1.3030849 0.91392297 0.028831674 0.9568511 0.21980678 -0.5937005 1.4208101 0.9250637 -0.5993763 -0.5285642 -0.40524647 -0.40212083 -0.49357313 -0.19192503 1.6476256 -0.10779801 0.76952374 3.8278685 -0.03849099 -1.4621162 -1.9576106 -0.24842694 0.07972587 0.47204566 -0.32343885 -1.6769116 -1.0276878 1.0876428 -0.3226347 -1.2435732 0.60644937 0.6789544 1.225897 0.29978216 0.3167366 -1.6994137 1.051411 -1.2084646 1.8128732 0.6997837 -0.513564 -0.26649508 0.36109367 0.0049401247 0.26621887 0.5377106 -0.19402544 -1.4948995 -0.1821235 1.3858886 0.39474332 -0.07978699 -0.43401027 -1.9502901 -2.8122766 1.6435777 -1.1537166 -1.312862 -2.5779257 1.3008806 -0.32296306 -0.59162766 0.045442756 -1.5450797 0.46369448 -0.434504 -0.98033726 1.0446075 -0.29596287 0.7281131 0.65205324 1.0281664 -0.38414818 -1.6280829 0.8893716 1.0617274
71 0.47751153 0.29532972 -0.8245778 -0.37391523 -1.1448591 -0.055151667 -0.0030981223 0.46732804 1.9043633 0.22687407 1.3148595 -0.8744359 2.41552 -0.300884 -0.25952432 -0.5411538 0.44272676 0.06501104 0.8931555 0.1417533 2.0550964 1.6797203 1.1102213 -0.27296337 -0.031958126 0.47916532 -0.8341182 -1.6387982 2.0866578 1.1409339 -1.3659811 -0.85181004 -0.9770341 0.0066241296 1.0042255 0.60166514 0.48716304 -2.017997 -0.93898463 -2.0395029 0.59897125 -0.6215897 -1.0606841 0.849037 0.13508983 -0.90956193 0.7234882 -1.0414381 -0.47755015 0.8894816 0.4863323 -0.5203117 -0.45800433 -0.15427288 -0.37184894 0.45246723 -2.044312 -1.2665206 1.1814749 0.2790346 -2.0304792 0.2617973 -0.06561575 1.2088733 -0.8133835 0.7044418 -1.4011748 0.18713307 0.04328408 -0.03728921 -0.96706444 0.6593027 0.54076505 -0.44222185 2.3878455 1.1029471 0.087049656 0.31183255 0.03575348 -0.7469553 2.500817 0.80421436 -0.03385283 0.19329694 2.9603677 -1.6385381 -0.24933271 -0.0271475 -0.7738088 0.7614882 0.8085106 -0.21996164 -2.8054035 -1.6130122 2.7071886 -0.25080332 -0.12613857 1.07155 0.643189 0.71955013
72 0.3594359 1.9600656 -0.98416716 -2.1706614 -0.73325765 0.32795727 0.07470757 -0.85141 0.019775601 -0.8019195 -1.7357208 -1.4560447 1.2134726 -0.8289452 -0.5765667 -2.2040193 -0.79646564 -1.4068764 -2.0640383 0.7265035 -0.6818787 0.21388626 0.6643102 -2.5345984 0.8853529 1.3550308 -1.2615118 0.61466503 1.4829078 0.6546707 -0.43894276 -0.83745307 -0.43489584 0.93697494 1.3532006 0.40897068 0.22248153 -0.6359492 1.180149 -0.24530025 -0.866743 -0.02302459 0.2158377 0.05065523 1.1216118 -0.43445393 0.31114364 0.27911827 0.60004354 0.721945 0.45652747 -0.488967 2.4160867 -0.83322346 1.0279315 -0.51762843 0.920327 0.8012186 -0.12383525 0.085929796 0.4488375 -0.83189297 0.06381548 -1.8607912 -1.2449157 -0.59441155 0.6359381 0.7485846 0.29959425 -1.1617502 0.79429567 1.395842 -0.4766966 0.7031301 -1.6204758 -0.5005183 1.0948337 -1.184403 0.52178687 -1.4852854 -0.2252698 -0.16994865 0.64836806 0.89762646 -0.5474037 -0.9735941 1.2688408 0.2334391 0.31478408 0.2737397 0.46638757 -1.5467787 0.47815278 -0.19351217 0.5002315 -0.9225004 0.12990825 0.8008192 0.7901863 1.0487909
73 -1.4915259 0.24705496 -0.7898628 -0.07522116 -0.53007805 0.9613894 0.2940122 -1.8066007 0.8565716 -1.2003019 0.72324294 -1.0992252 0.5598366 -1.3330157 -1.960785 -1.5385041 -1.3625263 -1.8359133 -0.22253571 -2.4006863 -1.3297452 -0.6460959 -1.8715003 0.27213103 -0.21700816 -2.01863 -2.1262023 -1.367976 -0.40903684 0.7519385 1.4905998 -0.7036259 0.89054894 0.68378997 0.5603625 -1.0614171 1.7427498 -0.6635415 1.7163681 -0.47184467 0.4339263 -0.24440055 -1.0731392 0.5792749 -0.39493528 2.4542763 -1.2854168 -0.13132855 1.3539369 -1.5443702 1.1667169 -0.63732135 0.456223 -0.40062603 1.5800017 1.7395954 1.6364912 1.4695828 0.9515246 0.107716575 -0.41822872 1.5160607 -1.078429 2.501103 -0.26364452 -2.165212 -0.4384264 0.41482598 -0.41302896 -1.1417129 1.157454 -0.37958804 0.04629851 1.9012016 -0.66039723 0.23109692 -0.813733 -1.6284568 1.206555 0.872411 -0.9590739 -0.825132 -0.33879232 -0.34915823 -0.86744887 -1.4660412 0.6480781 -1.597633 0.03354192 -1.4977437 -1.2430792 -1.1426424 0.5898421 -0.5278617 0.42603138 -0.5807649 0.3600542 -0.80568355 -0.72044814 0.22909683
74 1.2347727 -0.43780762 2.2316663 0.8603906 0.38452515 2.1532516 -0.20359814 -0.55108356 1.3330265 0.45583048 1.3065199 0.98884887 -0.45946795 -0.67893845 1.9555414 -1.4002795 -0.13769747 0.08624515 -0.55719745 -1.4811666 -0.99384916 0.32536733 -0.38556722 -1.080556 -0.19851059 1.4643844 -0.09106869 -0.2879235 0.3626712 -1.5301726 -1.0231923 -0.4727096 1.0099798 1.603899 0.59008265 -0.7939518 1.4861896 0.58591115 -1.4112611 -0.9210516 -0.70619774 0.6590627 0.16177186 -1.9720176 0.8597231 -1.1451268 -0.034564868 1.1693408 1.2033191 0.40851954 1.7385592 0.38420808 -1.3106024 0.6610681 0.8701533 0.06400807 -0.63531405 1.2219956 -0.20269497 -2.6744812 0.5955337 -0.23284625 1.8816448 -0.47327965 0.5845042 0.5873349 -1.564715 0.771815 0.15346147 -0.6550964 -0.35244602 0.7399186 0.38208982 -0.5131623 -1.1807228 1.9815464 -0.5099466 -0.04439733 0.9851365 0.6324201 1.0234623 -0.47215548 0.17210566 0.48684853 -1.124376 0.2884838 0.23624209 0.8107866 -0.077273354 0.52260983 0.34605378 -0.046321824 -1.2302463 1.5596422 -0.6187555 -1.6302367 -0.63095134 1.0045834 -0.8600067 0.7090108
75 -0.07957944 -0.9448637 -0.30658713 1.1131542 -1.7097944 0.25925705 0.16237643 0.20801708 0.84545064 0.52036285 1.4351505 -0.141329 0.46907562 0.344098 -0.5622509 -0.9412937 1.2300699 -0.51808614 0.05517037 0.88486636 1.3111165 0.13053128 -0.23664883 0.9640232 -0.38293648 -0.023843553 0.5433677 -0.67829555 -0.8970091 1.8445123 -0.70023745 -0.4847205 0.73695374 1.1063385 -0.333886 -1.7372777 -1.1303757 0.9918465 -0.7593879 1.5819609 -0.46542966 0.8180958 0.5717108 -0.08342238 -0.8026735 1.8543531 -0.35257614 0.5010377 -1.0719002 0.4916484 2.0018606 -1.0373883 -0.6159964 -0.47521627 -1.104832 -1.1922672 -0.13114439 -0.573564 -1.6150903 0.963305 -2.860359 0.98555434 1.8078364 -0.027362242 -0.2464377 0.6625689 0.13903385 0.6787598 0.7259047 0.61719126 1.0868523 0.26685986 -0.23880994 0.63915586 1.0722102 0.04708788 -1.3271002 -0.4552195 -0.5688922 -1.9684712 -0.6965331 -0.6354746 -2.6896362 -0.6760369 -0.7153061 -0.46787208 0.6531409 0.8030292 -1.013034 0.17283499 -2.2343366 0.5281257 -2.076441 -0.40809226 1.3720049 -0.40958545 -0.20204505 -0.932897 -0.19563282 0.9480352
76 0.11849463 0.7987005 -1.8254272 0.066363595 -1.0242529 0.309038 -0.77876514 1.0579883 -0.049120147 1.5468346 1.0870495 1.0350614 1.5471207 -0.564689 -0.7891819 0.6765398 0.6343715 0.42319065 -1.0294414 0.005038615 1.2180802 1.702588 2.226197 1.3537755 1.1093851 -0.2541875 0.5644461 -1.4828323 0.7465369 0.41503793 -0.9723178 -0.53681546 0.3367321 -0.49138942 2.233084 -1.1050242 0.30108234 -0.91576916 0.22615726 1.7087165 -0.57379746 0.41707668 1.342689 -0.09436823 0.023460606 0.54862094 -1.7293578 -0.6141221 -1.1248735 -2.038359 -0.033660017 -2.8095975 0.018137408 -1.3527143 -1.9055587 -0.81842417 -0.26874042 -1.1887316 1.1531521 -1.4221048 0.48933566 -0.49861 -0.73449606 -0.20960756 1.2160686 -0.0897965 -0.9497669 1.1796844 0.6259303 -1.0149893 -1.20694 0.05448203 1.0183787 -0.42854118 -0.30855164 0.9170388 -0.19526976 -1.2641039 -0.9076006 3.1216402 0.20035441 1.058256 -1.1691492 0.90459424 0.6842761 2.1806324 -1.8255274 -0.6289312 0.8396919 0.08026958 1.1703818 0.8485365 -2.2103784 0.881096 0.48480368 -0.64288175 -0.88060737 -0.35296896 -0.3277073 0.62085587
77 -1.0719064 -0.81132865 0.26573557 0.16968013 -1.9043559 -0.05887994 2.4852161 -0.625432 -1.4656811 -0.51211333 0.6637473 1.3899275 -0.5494288 0.5011291 -0.0597961 1.4819794 0.65646374 1.3463211 -0.05067813 -0.5062892 -0.60009295 0.80406964 -0.8627433 0.71622163 0.3979332 -1.1507801 -0.3475151 0.367386 -3.0915422 -0.23408115 0.16131887 1.1505464 1.349655 0.6940902 1.2565846 1.4286362 -0.27947032 -1.2683216 0.35000786 0.27346447 0.019760668 0.32102805 -0.8044873 0.88642216 -0.65276706 -1.6867926 0.2464942 0.08129246 0.74644995 -0.05903362 -0.56832117 1.1725621 -1.3118374 0.07000062 -1.5897655 0.5552033 -0.21952565 -2.1241255 -0.5641035 0.397985 0.25725186 -0.4918372 -1.2063584 -0.46062335 0.3456242 0.4212513 1.7044193 0.063127965 0.6208262 0.362588 0.85159296 -0.21955305 0.08082259 -0.6527093 0.7792046 0.70559585 1.4897945 -0.66555655 0.93778324 0.67170155 0.12069799 0.58682865 1.5306789 -0.95706785 -0.56108 2.294143 0.9690126 -1.0283825 -0.72157544 0.11211723 1.0142334 1.7706519 -1.0948032 0.12623419 0.5657951 0.82896405 -0.71361256 -1.483323 -1.9727904 1.8940959
78 1.2953521 0.002921775 1.3234286 -1.1724906 -0.55960256 -0.9209256 1.5134257 0.6436842 0.96674764 -0.65413344 -0.4710681 0.31413645 -1.9201066 0.35738087 0.7377235 0.6404549 0.9348408 0.8583493 -0.47200337 0.64689445 0.75280327 -0.072673626 -0.1463638 0.47180986 0.7642233 1.6413178 -0.9790892 1.3773068 -1.6842567 -0.28066078 -0.6684823 0.8018131 -1.4892493 0.48725736 1.7635484 1.2519995 -1.8833487 2.5267336 -0.88977575 -0.74338037 -1.0894268 -0.89184815 0.44502243 -0.490098 -0.30195782 -0.88208145 1.798172 1.0975533 -0.809548 1.0678595 0.53202176 -0.7839635 -0.3275748 1.9239976 -0.7995168 -0.6359512 0.30860916 -1.06781 0.40311646 -1.889899 -0.52431506 0.428328 -0.22502998 0.2638252 -0.7381267 0.7316295 -1.7271329 0.20447503 0.4089065 0.16424197 -0.7288412 -0.66306275 0.10375319 1.0693197 -0.31245244 -0.04382758 0.6760304 1.1239812 -0.579042 -0.7274778 0.012614055 1.2948694 -0.97949445 -0.29544228 -0.5326526 -0.19886002 -0.72494864 -0.7186455 -0.28503636 0.8789606 -2.1622758 2.1386287 2.42541 -1.8744737 0.15928446 -0.22650552 0.9660365 0.16468354 0.8726044 -1.6364629
79 -0.801625 -1.5022653 0.51444167 -1.2635399 -0.38394207 1.3435605 -0.31729403 0.18840154 -0.41408038 1.9239203 1.2866975 0.9969602 0.08311803 0.5165853 -0.72475255 -1.8251667 -1.2613707 0.6453211 1.3638 -0.9077666 0.9534707 -1.6603776 1.8910569 -0.35541221 -0.39500856 1.1527802 -0.031152446 -1.1013602 -0.24358581 -0.7521707 0.9848299 -0.07426941 -0.33389091 -1.5340674 0.314348 0.95173943 0.21606357 1.3449786 0.7650122 0.09898883 0.2349952 -1.6813085 -0.59241456 0.36807325 -0.12758711 1.1286747 -0.28953642 1.0832705 0.09297167 0.8222794 -1.1265675 -1.4914303 -0.503924 -0.85628927 1.7280864 0.2568565 0.3280624 0.86071134 0.8328368 0.20772216 -0.5654087 -1.2751002 0.9069969 -1.3863243 0.06795645 -1.4849983 1.513381 0.8549351 -0.19476092 -0.19022156 -0.0495264 0.85100365 -0.7311812 -1.0198975 -0.53161824 1.203449 0.33170307 -0.8693021 -0.22433582 0.710814 -0.76458174 -0.21796043 -0.95501715 -0.38903627 -1.0703402 -1.9044766 1.1147405 -0.86021566 2.1046305 0.30489028 -0.7423807 0.6195049 -0.7422201 -0.45472783 1.3340682 0.55285686 -0.9888505 -0.083519794 0.052263066 -0.27913418
80 -0.12237675 0.3382386 0.40890643 -0.114637405 -1.1332217 0.66798013 -0.19185804 -1.6427908 0.05981427 1.7032804 -0.36865225 -0.75959194 0.6660347 1.0142313 -0.17406571 0.012140729 -0.013455184 1.5520685 -0.5769748 0.7637131 1.1774473 0.93242276 1.947717 -0.63423944 0.23595211 1.2719561 0.94283926 -0.73188746 0.66852975 0.16544855 2.3843288 0.976797 -1.1019043 -0.18372054 1.064624 -1.6159979 0.80931944 0.21510358 -0.5043751 0.5127054 0.5170502 -0.21251768 -0.615578 -1.1422648 -0.43007672 -0.4421634 -0.96952724 0.74818206 0.17193739 0.8233674 -0.051003158 -1.4801114 0.9567403 -0.2959872 -1.3632668 -0.17318447 -0.61281693 -0.12181584 1.173989 -0.89837545 0.78570014 -1.7273134 1.293068 0.35982788 -0.32399526 0.62419057 0.1604697 0.7220704 0.86124045 -0.62907094 -0.33942205 0.48921108 -0.18888828 -1.1255139 1.4159061 -0.116946824 -0.629348 0.4490757 -1.3013523 0.094189376 -1.0420227 0.3307132 -1.4283792 -1.6989332 -1.2790482 1.8334167 0.04323759 1.267823 -1.0253551 1.227249 -0.2649944 -0.18795083 -0.17495368 -0.5409592 -1.5545563 1.3677866 -1.4528804 0.08878511 1.0439695 0.30872756
81 0.9396402 1.3504909 1.2974533 0.90857744 0.74572545 0.5108635 1.6810101 0.8083156 -0.8172504 0.35382354 -1.5430386 -1.5047569 0.12688476 -1.0922488 -0.5788905 0.32894206 0.62777275 1.5115005 0.63788474 -0.96477664 1.0069233 -0.08070952 0.2198569 -0.18864211 0.23985955 0.550773 1.7788379 1.8430262 -1.9975984 0.5790832 0.92409855 -1.2883533 0.13789 -1.5674622 0.6011369 1.3640366 -0.43660718 -1.9004774 -0.7456803 -0.56123966 -0.020088062 -0.8684361 0.6627081 -1.4468453 0.017216941 -0.14914648 0.8351238 -0.5458583 2.3107936 2.142232 -0.6830447 -0.27727935 0.69885737 -0.7766926 -2.6067476 0.13000281 -0.60966223 0.80435836 0.55899006 2.025849 1.1192142 0.7333436 -0.17541668 -0.91082025 -0.35363615 -0.23217867 -0.93279654 0.9879292 1.4708487 0.7709895 0.23050638 0.24604495 -1.3526821 -1.0270903 -0.07950285 -0.32821342 -1.0387292 -2.0734298 0.343689 -0.18414441 0.22997507 0.5491974 -0.53461117 -1.1629907 0.12386338 -1.5642946 0.35808647 0.25773007 0.8360641 -0.6971617 -1.8849555 -0.423181 2.1275833 1.2502459 1.7814833 -0.4840393 -0.83426726 -0.7607432 0.23421092 -0.84657127
82 0.6307088 -0.065458655 0.952897 -0.9518701 -0.5045441 0.06447458 -0.9691856 1.1505425 0.8127335 2.383836 0.64481604 0.4174555 -0.58649546 0.41827297 -0.8686798 -0.96272683 1.0139806 0.6968963 -0.32056224 0.40490046 0.21925046 0.0469161 -1.6222484 -0.68233305 -1.0004461 0.33112597 -0.68351924 0.011564729 0.4655307 1.7149683 -0.6817581 -2.6866112 1.0702832 -1.7325546 -0.6866042 -1.5393525 -0.13473368 -0.70319015 -0.0035363943 -0.64021516 0.16282244 -0.70033294 0.6300855 1.4483892 -1.0647776 0.11634834 -1.0651722 1.2573411 -0.14219062 -0.030423177 0.33672613 -0.69318616 -0.006530033 0.23732239 -1.91827 1.025594 1.9996232 1.0866731 1.0735533 0.9746416 0.4741585 0.8952481 -0.25170407 -0.60505235 0.63530993 1.8182945 -0.9469416 0.5947384 0.5808597 -0.6344657 -0.34477675 0.008901311 0.99477893 -0.8067558 -0.6558918 -0.9971382 0.31162578 1.9459457 1.0208094 -0.7778417 1.0733429 -1.671508 -0.24892673 0.94677067 0.90376467 2.1447868 1.638464 0.38048792 0.39744073 1.3085785 -1.328424 -0.49978763 -1.2013704 0.03647712 0.48204163 1.4662772 -0.39688483 -1.1055949 -2.6129537 1.3539441
83 1.5740806 -0.3172025 -0.9207704 0.007596748 -0.74044734 -0.3692174 0.45860606 -1.1741285 -0.7224111 -1.3251468 -1.5210626 -0.46825603 0.11558986 0.51186085 0.80976033 -0.1679606 0.7324054 0.5226016 0.059928227 -1.4635745 -1.1623358 0.88871706 0.8337503 0.07272696 -0.20604739 1.0234001 0.37181962 0.32357815 0.75330544 -0.37262186 1.9658763 -1.1405643 2.3287604 1.2527857 0.3027228 -0.44883126 0.5505152 -1.7155346 -0.555895 0.32124624 -1.0919096 1.0356518 -1.619258 -0.54665005 -0.16795468 -2.7413602 -1.260338 -0.68838274 0.17475313 -0.69917375 0.5701184 -0.5376951 2.1378765 1.03343 0.89981586 0.9870776 -1.8104774 1.3211824 -0.888607 0.19949605 -1.6647596 -0.6808998 0.9240022 2.0778384 0.7957636 -0.6738412 0.6736135 0.8323777 -0.33528307 -0.2902093 -0.6457291 -0.85614276 0.3426033 0.5042376 -0.596 0.035903756 -1.3685871 0.22407378 -0.72897685 1.1971365 0.5159757 0.117294125 0.24560937 0.002154134 -0.010257907 -0.20409393 0.11306474 -1.0725766 -0.06773779 -0.68946373 0.6577998 -0.60355335 -0.4959496 1.3369654 -2.0606008 -2.9584324 -0.79618853 -0.2933489 1.0467335 0.30056202
84 0.3696532 0.86599493 0.9395488 -1.0789975 0.42311993 -0.7945723 -1.2418474 1.7459521 -0.9238375 -1.0538973 -0.6141438 0.13827464 -0.16711089 2.5842319 -0.17329225 -0.11662517 -1.5933319 1.3190717 -0.013146366 0.36436617 -0.30432823 -1.0956733 -0.5229091 -1.5242612 0.6330773 -0.2621533 -0.15581952 0.49351197 -0.11940749 0.7207504 -0.103191085 0.7396535 -0.1424913 0.73197764 0.11659536 0.8561282 -0.41446164 -0.55658245 -0.098670036 -0.86047065 -0.16572644 0.865553 -0.33634168 0.7057213 2.282893 0.810953 0.031440448 -0.75633526 0.03496466 -0.57110316 -0.8999987 -0.7092686 1.0177802 0.97079027 -1.6536403 -2.204258 -1.383218 0.15506041 -0.9726858 -1.1520684 0.79663014 0.5612171 0.49402153 0.31065506 0.63652486 1.6175663 0.19386882 0.033771783 0.24933638 0.66989845 -1.3432336 0.23401558 0.977676 -0.54598904 0.52862644 -0.31466064 -0.71165955 -0.8646068 0.86644065 -0.08567238 -2.1711597 -0.648096 -1.7461833 0.47849968 -1.0592529 -1.0168525 0.56708544 0.7353028 -0.31071082 -0.8289789 -1.5092022 0.32809108 0.36330795 0.1326102 0.035922315 -0.28526035 0.18995169 0.058417995 -0.96815586 2.3512652
85 -0.14909804 0.8979504 -0.24114206 -0.6451545 -0.6942525 1.1278653 -0.15877278 0.19599748 0.6629043 0.079052225 1.9774708 -1.7081466 -0.8912649 1.245663 -1.3108072 -1.2171209 1.1550281 1.9082772 0.87795866 -0.33592367 0.5010933 -0.91246104 -1.1807615 -0.6522413 -0.4913674 1.1678711 0.9512448 0.5592941 -0.46591914 0.22361588 -0.5719305 -0.12553252 0.5806298 0.3533131 0.2617821 -0.081455976 -0.14915022 -0.7793088 -0.028857036 -0.48238343 -0.32443333 0.44173557 0.10249909 2.217276 -2.5723457 -0.5582368 -0.13507345 -0.020403612 -0.8578054 0.51641643 -0.9475939 0.845406 -0.92408735 0.4626673 0.0039267642 -0.8987091 -0.4424949 -0.2964134 -0.07125526 -0.7657043 -0.70687646 -1.1795957 -1.0909001 -0.4739883 0.9164665 0.10865424 1.286441 1.0574224 0.70031375 1.0207366 -0.633481 0.557259 0.046143413 -0.054456715 -0.38553208 -2.2585924 -0.9837672 0.9179482 -1.1437865 0.36600196 -1.4599279 -0.13049997 0.28113016 0.45251635 0.92822576 -1.7792398 -1.4283899 0.14367732 0.2246816 0.1692243 0.22119218 -1.1790073 -1.8577632 -1.4416215 0.3710101 0.34478775 0.59841955 1.2553685 -0.8680601 -0.15147246
86 1.1972003 -0.4229175 -0.7885894 0.07994253 1.6948634 2.1661606 0.8706144 -0.10333936 -0.0070403665 0.30499288 -0.14501084 0.03241225 -0.74746424 0.054811735 1.1487563 0.0024579142 1.3013203 -0.5817588 0.18858527 -0.39654708 -0.4254684 -1.3029315 0.5851308 0.8346986 -1.5349147 0.4428581 -2.6105242 2.366512 1.2864537 -1.1458004 1.0111796 0.6862569 -0.5802498 1.9205554 0.40071818 -1.8778964 -1.1741122 -1.4379785 -0.59979653 0.5860899 1.0380288 -1.6093949 1.9337949 -0.9334422 0.08421517 0.5364523 -0.33191115 -0.4123451 0.5121932 1.3416698 -0.35472682 -0.37464833 0.43653494 0.3217245 1.3217112 0.64796776 -0.507947 0.11647161 -0.58348536 -0.2219257 0.5348845 -0.30146796 0.4695822 -0.2852162 0.045966562 -0.11037676 -1.5291065 0.31919459 -1.6333735 -0.7590648 0.5327112 -1.9639645 -0.2690618 0.72563577 -0.58585596 2.1043398 1.2244596 -0.02658487 -1.0766633 0.51918525 1.3284153 1.1555822 -0.83836854 0.7798505 0.8181996 -0.49965015 -0.7635927 0.9851553 -0.15400584 0.8586094 0.08425541 0.5198842 1.0822284 0.117163084 -0.45838904 0.061306957 -0.44465536 -0.08967618 1.0667379 0.90817744
87 -0.1314617 0.3056027 -1.0728871 1.2290998 0.36952567 -0.41948646 0.00079761917 0.5445177 0.5154402 -1.9287207 1.2195694 -1.0308582 -1.5547976 0.032878123 -0.31513137 -0.6301273 -0.047454275 -1.482722 -1.1898326 0.41878995 1.770049 -0.0076252194 -0.1657058 0.40381518 1.2066845 -0.37353116 -0.327587 0.69626784 1.4437598 -1.0008737 -1.1605521 1.3045766 0.98518497 -0.40460896 -0.5328538 1.3353293 -1.1455747 0.26358244 0.27308282 0.3938739 -1.1146114 0.15203857 1.0888964 -0.82706183 -0.47391433 -0.5462378 1.2502745 0.046327483 -0.67782694 0.7455296 0.05108821 -2.016539 1.8585541 -0.23283747 -0.31305808 -0.17575358 -0.4281598 0.9969305 -1.4082181 -0.7684726 -1.1953511 0.3523861 -0.5336395 -2.6846454 0.42686355 0.48254177 0.24182391 -0.6767861 1.0299383 0.6349201 0.46698937 0.4814311 0.91809124 0.024740046 -0.74903333 -1.831363 -0.5231595 0.40189222 0.9369728 0.16281475 1.3051682 -0.9137034 -0.29438916 1.2321371 2.259322 -0.63561153 -0.56663275 -0.5974538 0.76615584 -0.009878813 -1.1420918 1.3943206 -1.376974 -0.958479 0.38930237 -1.4691558 -0.25441906 0.5614898 -1.0845585 -1.485806
88 -0.05876579 -0.65568805 -1.7977266 -0.27609628 -0.29480088 0.71259326 0.9687187 0.6695947 1.7056804 -0.63825595 0.13744164 0.16957 0.9768898 0.4369247 -0.17829391 -0.11952181 1.4136897 0.32420233 -0.10314009 0.2359082 -0.8558093 0.5141292 -0.6059891 0.93161154 -0.41079882 -0.66012657 1.3486629 -1.0171465 0.17727873 0.5484128 0.5906778 0.9799056 -2.7886345 0.5160443 -0.5618867 1.919716 -0.47743896 0.75317323 -0.93079907 -0.7584802 -0.47281393 0.43060637 -0.47962612 0.17746241 0.31857914 2.028667 -1.0557364 -0.038253717 0.21680324 -2.2516227 -1.4736671 -0.007408022 -0.62576866 -1.2350836 2.1705396 -0.34961018 -0.66223973 -0.27921757 -0.33974662 0.18854015 -1.3395351 1.6301196 -0.1208719 -1.6211346 0.68985647 -0.3698765 0.65148026 0.004419907 0.9413055 0.5266767 1.6167396 0.45909724 0.074207425 -1.3972894 0.32471815 0.88093704 -0.39662692 -0.7889524 -0.5782958 -0.07063926 0.23991348 -0.076337144 -0.3793543 0.49340037 -0.976207 -0.86657304 -0.18129706 -0.6963287 0.20342419 1.7902575 0.03858083 0.32854888 0.60413206 0.5706317 -0.59151626 -0.60558105 0.87086195 0.39196905 -0.20562218 1.3896292
89 0.107272826 0.044858575 0.4692056 -0.4325551 -0.0028335876 0.7899843 -0.09251509 -0.98288274 0.070498124 2.0619073 0.87888026 -0.89380836 2.1175904 -0.5271124 0.8914827 1.3359458 0.27932063 -1.4229012 -0.2218292 -0.33954912 -0.33732486 0.3153118 -0.6985077 0.9553477 2.1955445 2.5497534 0.6635378 -0.4139671 0.021057693 0.75446516 1.8218693 0.5606167 -0.9741754 0.73126566 0.35681543 0.68453896 -0.7225405 0.051710155 -0.7508016 0.5448883 -1.5430404 1.6085733 -1.3477378 0.6926838 0.8711363 -1.1981015 0.75165343 0.36796343 0.39201817 0.8076964 0.44093534 0.9244344 0.2118109 0.94221276 0.22494163 -0.32546648 1.3136657 0.48140213 -1.6034633 -0.20411545 -0.8022511 0.69792503 0.044943012 -0.83425856 -0.3599118 -0.057179544 -0.7568457 -0.21491142 -0.73287094 -1.191612 -1.0408728 0.6340847 0.41105336 0.8723797 -1.7278917 0.78742534 1.185896 -0.11439629 -0.5209275 0.6405035 -0.59668475 -2.6777427 -0.15841542 -0.14902416 1.5481913 -0.029223545 -0.4810944 -0.19429843 2.3261194 -0.033569664 1.7011385 -2.0015838 -0.13210894 -1.4317443 -1.3976543 -1.9008732 0.47436947 -1.1346315 -0.4409165 -0.48445925
90 0.10635989 -0.0972808 1.2182884 -0.63357896 0.3236177 -1.9933589 -0.09850914 -1.1769685 -0.5744797 0.34659702 0.8547737 -1.54441 -1.0150132 1.1676787 0.98802644 -0.05712944 -0.21392424 -0.8327666 0.9051373 2.9315345 1.167596 -1.5301793 -1.1228458 -0.4550421 -0.3642928 -0.7724355 -0.095904544 -1.1748447 -1.9772925 0.0332504 1.360449 -1.0139692 1.4511187 0.5289923 0.11841327 0.051739257 0.29073152 0.8180585 1.1696041 -0.21737665 -0.47567543 -0.1487345 -0.3147756 -0.030462869 -1.2329093 0.0637086 -0.63261557 0.4301565 -1.1470834 -0.06973186 1.7249177 0.3900817 2.1040921 0.83653086 -0.37934303 -0.049701396 1.375786 0.8219802 0.6048611 0.53468776 -0.8350429 0.5693882 -2.2981105 0.70756155 -1.0537007 -0.58455354 -1.212614 -1.8171393 0.03379533 0.0012572643 -0.8376503 -1.5200251 -0.08069459 1.6913223 -0.04293154 -1.0444251 0.6601925 0.04157858 -0.20743357 -0.36989653 0.5981692 0.52418065 -0.051074244 0.34324142 1.0315925 -0.73582447 1.2286711 -0.32679707 1.4267018 1.4439698 0.28653884 -2.1340253 -0.98334944 0.43104213 -0.008072708 -1.5864023 -0.15826803 0.8896489 0.383397 2.471692
