100 100
0 -0.4503943 0.1157742 -1.0917222 0.028726343 -1.9594673 0.26357475 0.65403503 1.0180601 -0.13619584 -0.7228577 -0.32754335 -0.16205922 0.8903312 1.2713673 -0.5307912 0.24232852 -0.8702433 0.06135535 -0.8189465 0.58156747 0.97740424 0.20561826 0.08497309 -1.198757 -1.259554 -0.2909768 1.0606271 0.9334354 1.2004768 -0.7262296 -0.61250407 -1.6850721 0.6845524 -1.0084851 -0.4600574 0.7245297 2.0141861 -0.6668612 -1.4553804 0.38837096 0.08602062 2.838282 -0.0790501 -0.657157 -0.26611957 -0.31007177 0.39774352 -1.8347956 1.3141898 -0.5362431 -0.50300545 -0.094775535 -0.322369 0.94572335 -0.9809215 -1.0456161 -0.73614055 -0.2648992 -0.060365416 0.049556334 -1.9517539 0.17428523 1.0120746 -1.2256413 -0.29882413 -1.2406791 -0.8880683 1.5409521 -0.71574664 -0.35402936 0.4923013 -1.0418577 1.6498637 -0.3057732 -0.33849335 -0.1728637 -0.34270015 -0.037695885 -1.378737 0.6467547 -1.5355463 -0.5773227 -0.90715986 0.8411801 -1.768984 -0.82408357 -1.1115252 -0.6435335 -1.2442672 -0.17076264 1.5662651 0.6074492 -0.039152917 1.0213871 0.61340654 -0.18538764 1.915201 0.447038 -1.9583147 -0.122418955
1 -0.53690785 -0.18136193 -0.37799183 1.1892614 -1.2718991 -0.22136676 -0.19110547 -1.4677405 0.6537422 1.7236077 -0.32573476 0.17155857 -0.9145296 -0.7164466 -0.4881615 -1.3355668 0.42117482 1.7285243 -1.1137328 -0.33850303 -0.5781717 -0.6440473 0.57389486 -0.62277377 0.75465894 -0.911076 -2.212085 -0.31513005 -0.59295964 -0.14947107 -0.7664834 -0.8542185 0.75383925 1.4788437 -1.2140269 1.9109089 -0.5559807 0.9239278 0.17268583 -0.24740368 -1.2810614 1.4242615 0.26314422 0.025666857 -0.25223726 -0.288482 -0.36112985 -2.9778054 1.8129718 0.063191175 -0.50737816 -0.8420528 0.4126597 0.14304909 0.023400884 -0.21102221 -1.5668694 1.7738243 -0.42569932 0.9652622 -1.2682719 0.45126125 1.2551168 1.9037634 0.53202623 0.3876799 -0.074266665 0.4123035 0.30432814 -0.96339387 0.5919485 -0.32758257 -1.1256337 -0.13072242 -0.7676711 0.44467962 0.3717134 -1.1328193 0.9558217 -1.4802281 -1.0540762 0.36380064 -0.0464461 -1.8262255 -1.598966 0.6600574 1.7395722 1.5705514 -1.6679704 0.062371712 0.06162125 -0.16632617 0.13332799 -0.11392284 -1.0825033 0.8489766 0.42096445 -1.435148 -0.11223756 0.13100219
2 0.62924093 -1.389316 0.9185021 0.6436936 2.1643636 3.5406547 -0.35333925 -0.47095445 -0.7343039 -2.43916 0.8652491 2.3987596 1.9495981 -0.8235989 -0.98536396 0.15429719 0.8899436 0.95721763 0.37567696 -0.014503366 0.17773023 1.0221835 0.84754556 0.5533103 0.6269943 0.8106211 0.03942908 -1.8658509 1.7111906 0.6581546 0.3870932 -0.7685508 1.5267118 -0.756412 -0.38533506 -0.5887799 1.4033045 -0.16857727 2.1891103 -0.47005486 -0.3239453 -2.5836966 -1.6545831 1.400597 -0.7906499 1.2693281 0.5872585 0.6041911 0.12651527 0.0609262 -0.35010147 -0.3749349 -0.4645055 -0.41333652 1.4668658 1.6292286 0.36880636 -0.09412696 0.15717752 0.73131984 -0.35527956 -0.712591 -1.6563864 0.4817618 0.10764114 0.80910206 -2.1026027 1.4301856 0.09273854 -0.28594097 -1.7202693 -0.40240985 -0.18708225 1.3157617 0.92379135 0.011390123 -0.8458923 1.4821595 0.9083496 -1.4372348 -0.55777526 0.016753828 -0.2374893 0.8073861 0.6763951 -2.3062983 0.027987909 -0.7397057 -1.6718471 0.75597954 -1.6919242 -0.3572728 0.43864167 0.9800946 -0.37157446 -0.06275724 0.2750655 0.062623195 -0.18217875 1.328143
3 0.47277224 -0.4013555 0.5821548 1.7004571 -0.09876309 -0.38579488 -0.55212456 -0.47706857 -1.0538825 -0.6656453 -0.07193424 -1.7144545 -0.4056723 0.99588454 1.386595 0.28670093 -1.3586257 0.24222067 1.1012815 0.21275556 0.82941806 0.86376125 -0.1253798 -0.6925314 0.45775494 -0.09742084 0.01138635 1.3930038 0.7950835 -0.55661196 0.5024326 0.74641967 -0.76336855 -0.40025115 1.5953131 0.17673458 -1.2857097 -2.051269 0.07234448 0.31171483 -0.7834729 0.24769828 -0.7818406 -0.5808459 -1.0479957 0.34002212 -0.8462553 0.8053952 0.66360587 -0.91174567 -1.2324716 1.0268241 -2.2333915 0.1784059 -2.0486188 1.2982495 -0.2609798 -1.7337165 0.52723205 -1.1295635 -0.14353137 1.4717269 -0.90813833 0.51516163 1.2101468 0.83410865 1.0443022 -1.3202392 -0.22798319 1.0206227 -0.20945378 1.0595585 0.0018137813 1.3377428 -0.17392702 0.84354496 0.8693498 -0.5010164 0.20683146 0.17428955 1.4367913 0.112767205 0.71897864 -1.055629 -1.5381572 1.2130519 0.47590035 -0.9909096 -0.603103 1.4512906 0.7142549 1.0670098 1.2638797 2.4148521 0.10600315 1.0942371 1.0073048 -1.0931289 -0.49198347 0.2155813
4 -0.65916556 1.1465417 -0.026810884 -0.1594713 0.52711475 0.45233455 -0.40217975 0.51847434 -1.30057 0.73122543 -0.66814536 -0.761925 -0.85744464 -0.48155358 2.0721052 -1.3165413 1.0628725 -0.3258064 -1.2873801 1.0187756 -1.3313245 -0.79095787 0.90172005 -0.46983963 -1.1573662 0.8165632 -0.81773746 -0.9084696 -0.018140411 -1.572667 -0.1834495 -0.2555575 0.38541833 0.24686672 0.9082866 0.528375 -1.0725477 -1.176313 -1.7309543 -1.1248127 0.40000737 1.6930854 1.3806672 -1.0626321 1.6686246 0.49732468 0.64477575 1.4561144 2.226517 0.81282216 0.6101704 -1.8261503 0.5800489 -1.691997 -0.43454412 1.0343704 -0.69156563 -0.44321653 -0.034135878 -1.1127478 -0.28294718 -1.2238266 -0.50075656 0.8160205 -0.5928778 0.289567 1.3011438 -0.3087416 1.2632056 -0.9267061 0.63533705 1.4527733 1.2008262 -0.6043304 1.196885 1.2875509 -0.549142 1.102766 0.5717241 -0.7141534 -1.0733963 0.27652478 -1.1399432 -0.046365928 0.8620998 0.14295997 0.45921907 -0.68170255 -1.2224793 0.093068615 0.03410315 1.6997284 -1.5767227 -0.19812948 -1.7763848 -1.6250355 -1.3316671 1.1546868 -0.7228918 0.5367221
5 -0.18365508 1.9628329 0.618481 0.45810094 -1.5005113 1.2518107 -0.47526112 -0.15098038 0.35275742 0.030439774 0.117387176 2.067017 0.08055179 1.2154076 -0.28380036 0.79445946 1.3839225 0.16099244 1.1047443 -0.2578905 -2.0023274 0.016105166 1.2026634 -1.1459805 2.1695354 -1.5020208 -0.15054952 1.3426582 1.0514041 -0.577978 -0.24141699 1.2318915 1.5938076 -1.1542449 -1.2790363 -0.16388108 -2.0190392 0.6302453 -1.6942912 -2.4061666 1.0633587 -1.6342003 0.61842644 0.06526657 -0.6935338 -0.22423176 1.0592753 0.9209363 2.0585296 0.19751875 -0.27633655 1.4712619 0.6394941 -0.3051985 -0.53285784 -0.6661645 0.42043397 -0.03877982 -0.78199255 1.2009596 0.7796507 2.0670676 -0.7382005 1.8671684 -1.2507885 -0.7563632 -0.61706734 -1.0051472 1.2760895 0.0829904 0.6502113 -0.6066176 -0.031636626 -0.44115278 -0.9388318 -0.014308146 0.9517712 -0.4549346 2.188568 -0.938475 0.2406837 0.4339958 -0.962406 -0.09063042 -0.7588275 -1.154085 0.46240124 -0.82666296 0.21397164 -0.87919915 -0.63861525 -0.2830592 -0.3334294 0.24314171 -0.343981 -1.1114942 0.06051632 -1.5167444 0.9315064 -1.2349896
6 0.44751224 -0.7385003 -0.77173513 0.5422661 -1.2745007 1.1230773 -1.7641816 0.626185 -2.0441415 1.3198254 -0.19768648 0.57020235 0.58950144 -1.8157427 -0.97958916 0.4219841 1.8361019 1.7047503 0.43130183 0.18023118 -0.4299937 0.09468476 -0.690034 -0.08919636 -1.4869401 1.24428 -1.0330044 -1.1977853 -0.6662679 1.2691039 0.1272291 -0.3149393 -0.47339857 -0.34754878 0.12166525 0.6448369 0.80968124 -0.58908564 1.5353222 0.09770263 -0.5183776 0.25395155 -0.6610089 0.66774946 -0.5579784 0.082176924 1.0829718 -0.23459485 1.4492539 -0.14275931 0.009901071 0.6071524 0.038591888 -0.9929122 1.5013666 -0.25327277 -0.12612757 -0.30568275 -0.50775 -0.5193295 0.3855046 -0.62164634 -0.92486095 1.640974 0.014998314 0.15231678 0.67350346 -0.058191597 -0.12047826 -0.91484827 -1.5337558 -0.32002747 0.9896704 -1.0365279 0.87321264 -0.4465868 0.24172343 -0.26149213 -0.93140703 0.64633983 -1.051832 1.1756333 0.5219772 0.6441911 -1.3319726 -0.22446078 -0.17493302 -0.17411001 -0.15348998 -0.1696709 0.6838539 0.18937108 -1.1227791 -0.5198391 0.23050077 0.40972108 2.3196218 0.17257427 -1.0320642 -1.088408
7 -0.4276132 0.23371701 0.21546634 0.31546047 -0.13264608 -0.6576654 -2.40049 0.49237737 -0.38945886 1.863945 -0.97019446 -0.56659687 -1.050195 0.06610356 0.5019237 -1.5268651 0.5555599 0.9775803 0.4024636 0.18386883 0.48803353 0.5429701 -2.0689065 0.023791168 0.87806183 0.5585068 0.7030299 -0.6341987 0.58311546 0.6449588 1.4196587 -0.38761026 0.84346586 -0.1868216 1.876955 0.0007478037 0.7605895 1.7477978 -0.23017003 -0.42624685 -1.343694 -0.23071854 -0.94152373 1.213474 -1.3750795 -0.5778239 -1.0445466 -0.7344606 1.5905598 -0.85783917 -0.6369197 -0.7662758 1.2625532 -0.16559944 -1.6413245 0.40609348 -0.5799983 -1.6992121 0.92139125 2.5908208 -0.7400313 0.9758093 0.5869353 0.15126291 0.8314213 0.15623921 1.1470438 0.749551 0.71156853 -0.42014393 0.7938646 1.2628872 0.0052063526 0.19807012 -0.08761745 0.39949694 0.13662557 -0.6496505 -2.8614929 -2.1143596 -0.3251309 1.6545304 -0.6326091 0.7032308 0.8460076 2.5489779 0.14924908 -0.35434055 -1.6049798 0.14934455 -1.8898124 0.9889844 -1.1875105 0.15171741 0.04638357 0.7627153 0.48200876 -1.3492061 0.855823 1.8548156
8 -0.75512356 -0.07341206 1.1017689 -1.8243052 0.26378265 -1.4695084 0.213116 0.8266028 0.1023106 0.76730007 -1.308278 -1.0407493 0.30108878 0.76761097 -0.12354001 1.4463928 0.606736 -1.395639 -1.0061877 -0.5511086 -1.1377109 -1.3496555 0.43134126 -0.11239107 -0.22262792 -0.19026116 -0.26078132 -1.154579 0.81341815 -0.4745296 0.09407425 0.996013 -0.39655805 -0.062219918 0.7208543 0.24588598 -0.8975952 1.0526559 -0.8596125 -0.4436218 -0.67067844 0.80193275 -0.5620297 -1.0857627 0.6974095 -0.35166 -2.8287616 -0.43102533 -0.3405408 0.16722706 0.6173469 0.3654092 -0.3538843 1.2838813 0.28501022 2.8171227 0.9533852 -0.12786801 -0.48485923 -0.35053524 -0.9234967 3.48653 0.35555843 -1.6805562 1.3163064 -1.9515469 0.191045 0.55433834 -0.7437808 -0.40906885 0.53885466 -0.9997752 -0.6917678 -1.2199867 1.1112604 -0.7782524 0.010505022 0.44666418 -0.6830109 -0.22409692 -2.566343 0.44477138 -0.16139796 0.8317158 -1.3871454 -0.5819746 -0.72968 -0.5465178 0.23488918 -1.5831089 -1.8268374 -0.37158027 0.950392 1.5534701 0.7560682 0.6028337 -0.23738189 -0.33629057 -0.38832012 -0.6933706
9 1.3434979 1.4956104 1.4192252 0.57139593 1.131685 -1.0229588 1.4401027 0.31169075 -0.42046058 -0.22596486 0.9767293 1.494394 1.1025252 0.9007459 -0.14258677 -0.22493392 0.80720335 0.99826723 -1.2659646 0.14477679 -1.5406141 -0.47164464 0.033830985 -0.6384729 0.3660214 1.2091159 0.08654934 -0.6625871 -0.17524418 0.7598465 0.78333485 0.3071143 1.8175102 -2.0775533 -1.1609288 -1.6502758 -1.6053194 0.82102305 -0.23200478 0.2273375 -1.564447 2.3467734 -0.15625027 -1.3289053 -1.0261232 2.279288 0.75033545 -0.91055167 -0.93068147 0.077545844 -0.36336622 0.87025166 -0.08568487 -0.62928545 -0.053468823 -0.66864246 0.92436975 -1.0566236 0.6786477 -0.7123239 1.7172933 -0.2440814 -0.7356778 -2.1558611 -0.66843903 1.2242943 0.30305424 0.18241009 -0.7174469 -2.2524464 -0.72025585 0.108014084 -0.3653856 0.466728 1.7964189 1.4476535 -0.07834501 1.1207635 -0.20513341 -0.86796683 -0.578938 -0.4829941 1.5151657 -2.51502 0.40441406 -0.4607743 1.2071145 1.1843827 1.2521665 0.24452916 -0.1795608 1.5065919 0.44278502 -0.7092581 1.1274636 -0.16359927 -0.23492032 -1.2326349 -0.12539297 -1.3380162
10 1.0802718 -0.5255576 0.031236663 1.8365893 -1.1949061 1.5089887 -0.20582178 1.2232472 0.31372648 1.3096852 0.7776283 -0.3434409 -1.5192069 0.124449715 1.2041599 -0.28841814 1.4904995 0.63425785 -0.22057448 -0.3834443 -0.17143819 1.2521609 -0.7946753 0.9152858 -0.58514214 -1.3383228 -0.39131162 0.4927846 -1.5722072 -2.0692625 0.82143867 -0.0297294 0.46936014 0.8587628 1.2037946 0.0014646034 -1.4269016 1.0305321 0.14306906 0.57853824 -0.28256723 -0.7897451 -0.0414248 1.914647 0.26600307 0.97212535 0.27567896 0.6817993 -0.008730896 0.9486074 -0.33450225 2.0354033 0.66649944 1.1218187 0.28639024 -0.10155157 -0.7461774 -0.9557881 1.8039509 -0.4505558 2.3758981 0.2600442 -0.87036496 -0.76127553 -2.196562 1.5001154 0.9705106 0.40648597 0.19807054 1.4601818 1.1074343 -0.28520718 0.5104759 -0.009271964 1.0088377 0.17531237 -0.41464606 1.2787197 1.5585923 0.07453312 -0.293623 -1.7611252 -0.30222845 -0.8147046 -2.5751495 -1.1362655 0.7922177 0.168912 -0.20769995 0.08783342 1.8366834 -1.2518821 -0.7206928 2.2391598 -0.3753903 0.87218124 -0.34450036 1.7851512 0.7699056 0.011607199
11 1.7801543 1.5766933 -0.57274663 0.13921483 -1.165622 -0.7047146 1.464969 0.43255666 -0.3385119 -1.1293154 1.9754361 -1.1225594 -1.4094061 -0.69493186 -0.3614373 -0.30537057 0.051329162 -0.56748843 -0.69937706 -0.3799078 0.15792158 -1.8499749 -0.6956765 -0.041326426 -1.4566916 -1.7606889 0.9276094 -1.2534647 -0.27449107 0.35997868 -0.23183389 -0.86992437 1.1810834 1.2700503 -1.8664559 0.056515574 -0.007971904 0.5206273 1.0501783 -0.68802303 0.0244911 -0.61347663 1.1181438 -0.012492868 -1.354463 1.8302197 0.71808285 -0.91511893 -1.4792992 0.41155526 -0.18530904 0.58141816 -1.0451367 -1.6896638 -0.35038275 1.1696504 0.867667 0.7144185 0.46747154 2.3744435 -0.42420658 -0.98150384 -0.25521424 -0.7614516 1.7444267 0.5944779 -1.6095281 0.95079124 1.0730819 0.42957908 0.69466424 -0.1926329 0.614043 -0.5395202 -0.19552986 0.7699692 -0.3344683 -1.2088715 0.49558288 -0.15605754 0.070319906 0.12905455 0.15859504 0.44276616 -1.2387036 -0.008591967 -0.46948832 -1.106901 -1.2693455 0.19521053 0.16500482 0.37256193 0.36469617 -1.0526545 -1.2350229 1.058707 0.6116408 0.3066657 -2.331365 -0.51227283
12 -0.8789076 0.54254967 -0.3801976 1.5081329 -0.38505197 -1.9800224 0.50433826 0.76023114 -0.22249429 0.99887866 1.4975162 0.570182 0.5078046 0.2195373 -2.1089485 -0.7779504 -0.1888976 -1.6814511 -0.15828024 -1.5990977 0.69069314 0.60870904 0.6107592 -0.22551645 -0.32264817 0.83380836 -0.31738544 -0.26390284 0.27368712 0.29975918 -0.5351881 0.04288227 -0.12928645 0.038415063 0.33264342 -1.2793014 -0.9687348 2.0345867 0.41000566 -1.1491423 -1.4692783 -0.06722169 -0.76292336 0.8202569 0.37139347 -0.96809864 -1.188294 -0.376866 0.8937109 -0.027966196 1.8942925 0.7592415 -0.289737 -1.4192669 2.2132661 0.024692426 1.4974055 0.3209934 -1.2468717 -0.63594574 -1.0721934 -0.7453127 1.5641469 1.4775239 0.012278177 0.502384 0.71160746 -0.09827396 -0.42774212 -1.3705442 -1.1618046 -0.6418273 0.092435986 0.29081935 -0.09179352 -6.2098996e-05 1.4344691 -0.6139884 0.9463192 2.3218393 1.9071649 0.9259539 0.05957073 -0.65607524 0.51405156 0.6375675 -0.9230461 -0.73189837 0.9829884 0.5548017 -0.9802992 1.1010242 -0.4924949 -1.585827 0.37951478 0.20039807 2.0045307 0.0688643 -0.9418407 -0.084055334
13 0.04264074 0.29586688 0.28386977 -0.037202787 -1.1190318 0.7194267 -1.5777484 -0.38441262 -0.13037507 -0.9050508 -0.15433852 2.7723866 1.3947988 -0.60847986 -1.022285 1.2809674 1.5916014 0.11607697 1.0087715 0.39153707 0.9547094 -0.41947004 -0.06633069 -0.5274023 -0.8298793 -1.1593195 1.0429221 -1.0667803 -1.8170065 -0.7263217 -0.218301 -0.93913525 0.5719031 0.3649412 -1.1556301 -0.74656856 1.1164504 1.4353026 0.8087693 -0.3758645 1.7951839 0.48036587 -1.3637713 -0.019172471 -0.40007377 -0.9123166 -0.55581254 -1.3227783 0.8221888 0.46249893 -1.1631076 0.6504135 0.10854877 -0.050633363 -1.287805 0.7990375 1.6466035 0.7773902 -0.019198941 0.1621013 -0.117335424 0.62453365 0.4877413 1.7409889 0.41134351 0.35209095 0.11311566 -0.6578847 0.91421425 -0.54389834 0.6495763 0.23868221 -0.8009102 0.8502426 0.3940368 -0.40960324 0.31770676 -0.6368278 -1.6612049 1.3498596 1.1464932 0.45657426 -0.79381186 -1.8543557 -0.7121804 -0.7306947 -0.8717101 1.9695388 1.2468985 -1.1733447 0.51651925 0.25871053 2.7296402 -0.12662262 -0.6644853 -0.51115596 0.27330387 -1.0190289 -0.021560587 -1.7161797
14 0.3685018 0.73111916 -1.7200135 1.0786664 0.5314163 -0.5014116 -0.64309883 -0.10832923 0.5927933 1.8746383 -0.56984097 -0.088779576 -1.2472503 0.52857393 0.27437666 1.3859982 1.0297494 0.74388963 -0.6057675 0.15197146 1.565963 0.7391316 0.7363564 0.0005938117 -0.87295324 -0.95277625 0.3583386 0.13230094 0.96947247 0.54398507 0.12181288 -0.17941467 0.44113445 -0.45439875 -1.2067707 0.014249221 -0.9147837 -0.26434162 2.4239852 0.5822527 1.1354828 -0.8789674 -1.0747333 -0.6112213 0.0631579 -0.77050066 0.1804077 -1.4435786 0.193946 -0.5840604 0.30509877 -0.7933771 -1.2288994 -0.13081159 0.019234197 0.39617062 0.022194229 -0.65897536 0.7145777 1.1492084 -0.16157903 -0.012359302 1.6371577 0.44245857 1.2608018 0.15999423 1.0267189 0.015553831 -0.6634098 -1.2856433 0.7668448 1.0526203 -0.3534247 -1.6114559 -0.34510377 -0.010002436 0.15144424 0.5453627 1.2414894 0.6709458 0.3331724 -0.06823656 0.74998546 -0.97385746 0.6872713 -2.1433752 0.9419677 -0.09587582 0.6031905 2.1450346 -0.8876576 -0.08371379 0.5570359 1.1388972 -0.09486926 0.058509737 -0.19800425 0.37626818 0.4335941 0.8828296
15 -0.50690794 -0.7298801 -0.7100405 -0.8578513 -1.199112 1.1433059 -0.19323477 -0.21237428 -0.09444428 -1.2280135 -0.6608687 0.32220346 0.8426556 -0.25754777 2.056806 0.9181678 0.34666649 -1.0034907 2.4409194 -1.2636178 -0.6095467 -1.7478592 0.72730184 -1.5411949 1.5816735 0.41927186 -0.3806219 0.3792402 2.3475745 2.6212864 0.16234 1.4468621 -0.13643517 0.32145834 -0.011129462 0.50478387 1.4778391 0.09713791 0.59809524 -0.78941923 0.43759286 0.4672723 0.41144487 0.93092006 1.7932979 1.4680175 0.0934965 -0.93458056 -0.6197505 -0.5272344 -0.91526175 -0.54478025 0.33921686 -1.9015477 0.64383346 1.829957 -2.0224435 0.0045203543 1.8698759 0.56181437 -0.40210295 -0.047209166 -1.2436761 -0.90014136 -0.9066423 -0.012288072 0.02995641 0.5382084 0.48054576 -0.41927868 0.9036332 0.6530191 -0.012604449 -1.0061413 0.15007429 -0.37932336 1.3826566 2.472865 -1.0900503 -0.06706304 -1.0568238 -0.28251874 -0.9321318 -0.33051518 0.9607743 -2.0204468 0.3124763 1.4349695 -1.3206458 0.11196565 -2.133435 -0.52046937 -0.028631069 -0.46277067 0.31587607 1.733525 -1.1286677 -0.4619844 -0.6995073 -1.484404
16 0.4634805 0.5746173 0.036545243 1.2940273 1.1375349 0.36509183 -0.87441593 0.05740814 0.68727803 -0.22064857 1.7632637 -0.0010252949 0.5855504 1.0412661 -0.29352617 0.69920456 0.49116233 -0.4601687 0.4744315 -0.67321783 1.6282107 -2.4328876 -0.28229427 -1.217708 -0.06908257 0.5640112 2.3494792 0.808397 -0.50024176 0.69245404 1.0624533 -0.19906999 0.8751421 1.0053712 0.1525151 -0.020574827 -2.4642868 -1.4730673 0.6416921 0.026268732 -1.82823 0.061389163 0.9297872 0.35040423 0.682905 0.07068486 -0.25918645 -1.8254796 0.15152177 0.46465105 1.0706292 0.6133893 -0.00418322 -0.11926413 -0.488311 -0.6170278 0.37087148 1.280137 0.7648116 -0.4918331 -0.02606531 -0.48101872 -0.823212 2.9610388 0.9734816 0.35118908 -0.49174288 1.1494359 0.18351755 1.362238 0.38738474 1.1947815 0.7137736 0.97979075 -0.5121712 -0.36080083 -0.14642785 1.6827173 1.5225443 0.8955075 0.036321703 0.8456078 0.56930995 0.34414986 -0.8006889 0.6217345 -0.6337081 -0.8453503 0.12430494 0.9048674 0.3240242 -1.5313858 -0.27295777 0.84114164 0.15067211 0.29739246 0.0095299175 -1.2850621 0.5001441 -0.36430418
17 1.0299811 0.38669845 -0.87332076 -1.1609702 0.9916225 1.1967317 2.1985772 0.7272379 -0.67255557 -0.26585585 0.9147557 1.9539472 -0.95076305 -1.7063825 -0.011068015 -1.0961447 -0.35385385 -0.18189889 0.07051576 0.8880324 -0.23482583 -0.74850804 0.2082622 -0.36074013 1.131295 0.8031045 -0.1830927 0.19034535 -1.123942 0.09250349 0.7867639 0.013789718 -0.12333495 -1.1967499 -0.33762452 1.4033743 -0.23013923 1.0696425 0.4541145 0.5517832 0.24486001 -0.19810392 2.3998764 1.4431705 1.5853081 0.071077205 -0.8840151 1.226202 1.3307391 1.8785614 0.036525074 -1.5032299 0.475736 0.8260327 0.111205995 -1.0159677 0.42084974 0.4552353 -0.49254456 0.1740798 0.45363694 -0.5854976 2.9758267 0.35275632 0.91105074 0.28993383 0.78570974 0.17485973 0.26279604 0.12164254 0.96224844 0.39397293 0.9328492 0.115025364 0.2724137 -1.0345984 0.35532197 2.630915 -1.6770253 -0.25615275 -0.7348188 0.7700597 2.9731126 0.9952141 -1.2294322 0.362406 0.7783145 -0.28357315 0.99289286 -0.38530812 -1.7137656 3.112223 -1.0489612 -0.83935434 0.39196962 0.6472227 -0.029793108 -0.106782205 0.24099952 -0.8388563
18 -0.35306546 -1.0234884 3.1226227 0.75191236 -1.8362647 1.6432759 2.1438682 0.019904952 0.006682895 2.3651047 -0.8572721 0.38386658 0.7621851 1.311484 1.0608739 -0.96803486 -0.31649104 0.9301649 -0.06718899 -0.34005657 0.43126857 -2.756841 0.46146846 0.770911 -1.9296454 0.031740647 -0.7726607 0.17682305 -1.3128598 -1.1031287 0.29839033 -1.0011777 -0.5138368 0.9092846 0.28356317 0.63513595 -0.5376636 -1.4299252 1.0724684 2.2596807 1.1421716 -0.31332514 0.40319687 -0.3463775 0.8502979 -1.2803072 -0.5783283 -1.141457 3.2425015 0.42238092 -0.45850524 -1.1361647 0.09698438 0.7096283 -0.18061653 0.6971978 0.24442188 0.75357753 -0.26240024 -1.314087 -1.5670735 -0.12781587 0.35101047 0.32829374 -0.48533407 0.4345014 0.91252077 0.12460148 0.07274643 -1.5413733 0.36588794 -0.054233186 1.0369233 2.0183399 1.0401125 0.47658965 1.6741816 0.267505 0.041693367 0.19463569 -0.3753088 -0.015569978 -0.36565202 0.9058089 -0.35232547 -0.09605333 0.7496232 -0.09437385 0.0542437 -0.9148211 -1.5060912 -0.08287337 -0.51804125 -0.07474458 1.6554669 -1.0648779 -1.6877631 -0.27632743 -0.8347007 0.23971573
19 0.62565476 -0.019842654 -0.7775867 0.8020714 -1.9402561 1.8409212 -0.17641346 0.4092117 1.173588 -0.063311875 1.3588333 -1.3164433 1.0753127 0.31050667 -0.97621363 -0.55338615 -0.40254557 1.2150438 -0.4745972 -0.16503446 -1.3946804 0.5699755 0.57723635 0.8094181 -0.62580687 -0.22141922 -1.2862035 -1.4751269 0.67526275 1.0482717 3.1618052 1.2191987 0.14298123 -0.44954696 2.0891776 1.4752084 -0.23190452 0.9458169 -0.69681054 -0.43822396 -0.48015574 2.2503042 -0.20974046 1.4499673 1.2791507 0.7890328 1.6697521 -0.9237728 -0.2917157 -0.3389543 0.51580596 -0.21822667 -1.0768573 -0.32679445 0.80615294 1.1949369 -0.10727555 0.29822206 0.022420473 -0.35642493 0.23328783 -0.12631752 0.6380402 0.016804745 -0.69940764 0.65795296 -0.32996416 -1.9281462 0.020777984 -1.7522532 0.4249393 -0.6437921 1.3780112 1.9050783 -1.178312 0.38751483 -0.6663882 -1.0899731 0.198572 -1.0874442 -0.63830364 -0.8921814 -0.72137356 -0.7337413 1.3042372 1.0047932 -0.8347481 0.33172518 -1.2040389 0.2461892 -0.65842533 2.3125465 -0.2708741 -1.1890417 -0.36212605 0.16963017 1.0048853 0.47492817 -0.106915 -0.6625778
20 -0.5362962 -0.054403394 -1.0985607 -0.04299864 1.4784737 0.30882075 1.656427 0.11378882 0.0047414913 -0.7908962 -0.5172887 -0.59465337 0.10496721 0.7412622 0.67135215 0.19596633 -1.1278967 -1.4138519 0.7650748 1.3750464 -1.4026423 0.17864662 -1.0499519 -0.26698953 0.7298157 -1.0023177 1.371835 -0.19087508 0.88333285 1.3421484 1.1076307 1.8251975 0.1925767 -2.3492348 1.1002427 1.4120984 1.6318505 0.19433667 0.8582853 -0.38230953 -2.5254688 0.030541036 -0.16929755 0.6588346 -1.7253498 0.2725791 -1.5710558 0.86508113 -0.048939846 -1.2481931 -0.31658098 1.1540482 -0.13843678 -0.18647946 -0.42515692 0.01089086 0.9747477 -0.3102262 -0.13219136 -0.15352693 0.19512257 -0.74749386 -0.12780169 3.2433968 0.29565972 1.559781 0.60749465 1.5025021 -1.1188761 0.72757345 -0.94047886 0.93570226 -1.066589 0.7093827 -0.4151076 0.6316256 0.1749876 0.33152965 0.66181904 0.3961491 1.090781 -0.6895013 0.018100593 0.4195215 1.7030584 -1.5685841 0.03112208 -0.6054973 -1.6364231 -1.0364798 2.1022608 0.06565813 -0.24382852 -0.8536617 -0.5702057 -0.47485542 -1.0265676 -1.4004339 1.9685725 0.47973594
21 -0.28469455 0.58209777 -0.58498186 -0.21744625 0.8857668 -0.055739984 0.34114912 0.2966487 0.28447717 -0.15539044 0.44925898 0.40455416 -1.1966591 -0.24890713 0.6785711 0.021568445 0.6212336 0.18297255 -0.643193 -0.5473129 -0.6441812 1.3959453 -0.70624423 0.040173855 1.3134154 -0.038439497 0.7856719 1.4624823 1.746984 0.76258564 -0.18070768 -0.92146665 0.44857726 -0.16928478 0.967285 0.2077548 0.5660308 -1.3929359 0.8515446 2.0482566 0.27333608 1.0011573 -0.48957133 0.87201345 1.6645739 0.88954496 -0.789824 0.25672075 0.74053615 0.2781039 0.97817296 0.0032544942 -1.2937052 -0.9479042 0.13846251 0.21134289 0.8512264 0.07880681 -1.9797413 -0.14941181 1.4722347 2.0813909 0.97861606 -0.6669791 0.10695481 -0.9494002 1.3667388 -0.7632791 0.05661971 1.485891 -0.6512875 2.0368483 1.835193 -0.67252356 -2.4369853 -1.5394776 -0.922308 -1.5821553 -0.09519721 -0.10731907 -1.6306998 -2.1438198 0.41448727 -0.824475 -2.9071412 1.0723308 -0.6072984 -0.061251473 -1.220183 0.10174427 -0.5831944 0.5436496 0.9617141 1.8011403 1.0025153 -0.42628142 0.2511983 -0.29491648 -0.5137138 0.59105444
22 -1.189838 0.38739493 1.2157935 -0.5882297 0.9601073 -0.89815277 -0.43051544 -1.0349689 -0.8928026 0.43833396 -0.8060166 -1.3255748 -0.25589195 -0.39888632 -0.6475338 1.0720232 -0.33279142 -1.6989181 1.1260996 0.44220063 0.4351715 -0.8063388 0.168424 0.51053554 0.75632894 0.5391802 0.6807534 0.57362837 -0.43399087 -0.86006445 1.229626 -1.2345335 -0.14310782 -1.6947049 1.2413735 1.9023455 -0.14262967 -1.0463554 -0.7217425 0.99883866 -0.6895599 -1.1401246 0.299241 0.110422306 0.40720063 0.11210939 1.4270163 -0.18866086 -0.6748684 -0.7778836 1.3503137 1.1043063 -0.10172344 -0.1311736 -0.48896453 -0.20467034 1.6199363 -0.23816605 0.95850056 0.38625616 0.04004756 0.8224243 0.020554505 -0.5434352 -0.03453559 1.357101 1.3057389 -0.23276854 -2.6635613 -0.39739725 -0.9968496 0.022518279 -0.10653793 0.24171773 0.043592904 0.84275895 -1.0330163 -0.3199208 -2.229198 -0.18725565 1.5936776 1.0648148 -0.5501335 1.6247635 0.3128611 1.9068395 0.4419085 -0.33584812 0.5494888 -0.07930687 -0.09714529 -0.6862895 1.7251023 -0.92832625 -0.0040961998 -0.98461276 -0.78905773 0.6934143 0.36616778 -2.1013713
23 -0.49201357 0.23628247 -1.1889757 0.018126773 0.9064507 0.33254337 0.17430775 1.4776686 0.8534673 -0.06510368 1.9605036 0.21146075 -0.38863543 -1.4659475 -0.07587476 0.75553596 -0.11792948 -0.070668034 1.2882216 -1.6318939 -0.33241206 -0.0035901337 0.13811165 -0.25266823 0.55826217 -0.015039584 1.6556643 0.99212056 1.8504397 0.20940593 0.9355338 0.50628465 2.612197 -0.5149067 0.08369032 0.9811802 -0.15240099 -0.06813353 -1.3605978 0.4563982 0.6298605 -0.6913266 -0.66625 1.9014584 3.7693405 2.5368817 0.76680154 -0.71939707 -1.1887394 1.2659844 1.4000351 -0.23745792 2.1823218 0.79391885 1.2889409 0.32065102 1.3823429 0.5221433 0.3361533 -0.33561498 -1.8936589 0.4243581 -0.5537606 0.43724638 -0.45138285 2.069773 -0.16729699 0.5351859 -1.370409 -0.36172214 1.9908066 -1.0972997 -1.0720977 -0.29990435 1.851514 0.8018533 2.0839653 -0.11153963 -0.094125405 0.6260203 1.3701878 0.9496966 0.39278367 -0.3198998 -0.6054603 -0.49599725 -1.5314339 -0.57011354 -0.5616712 0.06257237 1.0703517 -1.7251838 -0.96582043 -0.79774326 -1.3018742 -0.8951907 -1.9376181 0.1797139 -0.71865606 -1.9945227
24 -0.59169424 -1.2247567 -1.4608238 1.906008 -0.316444 2.3322916 1.2163881 -0.9273037 -0.75074863 0.6057088 -0.4650467 1.4784769 -0.06049549 -0.86433905 0.970109 -0.4702258 -0.7537686 -0.4590463 2.2163465 1.2411873 -1.2475893 0.891022 -0.27307555 0.33600605 -1.2382389 0.18574084 -0.058497462 -0.79470986 -1.1906737 0.9332229 0.6512502 -0.06976596 0.5951762 -0.8930317 -0.67464554 -0.6917441 -0.18822452 0.36671346 0.20228553 0.19745798 -1.5448025 0.70730674 -0.86868626 0.057817727 -1.6802883 -0.33492693 -0.20967801 -1.6726247 -0.35013402 -1.2487842 -0.21711914 -0.31280726 -1.4626573 0.7666802 -0.48446733 -0.336066 1.4767332 0.068213426 -2.1467204 -0.7366833 0.7896603 1.365319 -0.27797478 -0.28841722 -1.8840479 3.2825515 -0.31252512 -0.5714343 -0.7179581 -0.8052233 -0.43943036 -0.59106046 0.24242024 0.4829736 -0.23132253 -0.18098982 -1.21575 -0.12990095 0.34073362 -0.82534295 0.13881741 0.0823588 -0.14707983 -0.4481372 -0.064642645 -0.6262862 0.12036492 0.9998069 -0.7562488 0.2160511 1.6552098 0.54553723 0.8214607 -0.54623985 1.3050876 0.10157462 -1.5039288 -0.46865693 0.48038894 1.4065065
25 0.9836819 1.2464553 0.7855765 -0.45182544 0.6322297 -0.9793468 -0.40546522 1.0408323 -0.20652695 1.410498 0.9139743 -2.6067677 -0.21650423 0.72295374 0.14838564 -0.043428577 -0.013309108 2.1719143 -0.4289989 1.1188929 -1.411356 -1.563661 -1.4174069 -0.5108508 0.56721634 0.32255134 -0.96385646 0.8782761 1.0591364 1.0730631 1.3213595 0.5581628 2.2588205 0.9207117 -1.532377 0.44551754 0.62494695 0.13114388 0.6485071 0.34424484 -0.22510462 -1.2126135 -0.9825993 -0.19095345 -0.91871876 -1.5509351 -1.5027565 -0.24599932 0.28848082 2.5214934 1.6867632 1.854208 -0.38394403 0.25665766 -0.54319274 -1.0763499 -0.7310714 -0.4879995 -0.73437035 0.8922718 1.4293767 0.9697303 0.99797004 -0.026520588 -0.083669566 0.741006 0.64672244 0.51363176 -0.15659039 -0.87307197 0.43935278 2.3617277 -0.38593113 -0.39592314 1.237616 -0.7614246 0.15275058 -0.9107862 -1.6619751 0.90046865 -1.2643118 -0.053352214 -0.3403234 0.99969757 -0.6267941 0.006478216 -0.94747984 -0.09586026 1.3429089 0.39078274 -0.9520818 1.3963543 -0.3829839 -0.6780575 -1.0449657 -0.4394033 0.49876583 0.31242478 2.0796332 -1.4398966
26 -0.58889955 0.2250182 0.6211763 0.32150003 -0.9465366 -1.0287895 1.0380142 -0.1612948 0.19906761 1.7103262 0.12547126 -0.59726727 0.358226 1.4109381 -1.3131355 -0.6446642 -0.27694434 0.49534523 -2.0601377 0.07562107 -0.64800537 0.646068 -0.9824783 2.040286 0.2584859 0.9255305 -0.70866627 1.6311507 1.0621222 0.7326496 -0.08956863 2.0404851 1.1602358 -1.889657 -1.2666335 0.6625561 1.9320008 -0.5773745 -0.37062207 -1.0864407 0.53706867 -0.13736331 -0.562008 -0.33133855 0.597923 0.69693476 0.32589626 0.1962274 0.7120493 -1.6135727 -0.79947543 -0.087712474 -0.6200964 -0.6161131 1.0633012 -0.6423485 0.8371263 1.7096014 1.3498386 0.5214893 -0.7175819 2.0040293 -1.3272372 -0.5597522 -1.4423481 1.3485737 1.4106971 -0.48346183 -2.068871 0.10668539 0.4292747 -0.12036847 2.452081 -1.5986185 0.044405147 2.1408613 -0.29539245 0.37502038 0.15432888 -0.26748133 -1.0199302 0.31699613 -0.17135137 -0.3117479 -0.5911602 0.4688405 0.39324954 1.836517 0.80318004 0.07648717 -0.8074119 -0.19160748 -2.5205 0.014995616 -0.57317454 1.8199424 1.3855066 -0.5519932 0.2184098 0.4151922
27 0.6817015 -0.15466711 0.73856634 -0.00051863585 -0.5310144 1.6465361 0.49155718 -0.68232334 0.1699738 -1.3320345 -1.2671099 0.25534463 -0.61730325 0.37707108 0.5954562 0.8766165 1.5981061 0.44705918 0.31041172 -0.644519 0.7545548 0.24100327 -0.21804997 -1.3443757 0.039274905 -0.16958646 1.0385234 -0.9256288 -1.5680954 1.0863396 0.18271253 0.4356405 -0.08438695 -0.33817077 -0.061181415 -0.43295738 -0.6841001 1.6430727 -0.08993282 0.42086446 2.184435 1.8061808 0.26280454 1.4122412 1.7722131 -0.98880047 -0.11291399 0.25441274 1.5098646 0.06902715 0.16730048 -0.33918363 1.6224685 -2.235343 -0.46348116 -1.0419242 -2.097911 -1.1088551 -0.22591893 1.6051744 -1.1426414 0.5652267 -0.024354741 0.90132606 1.1305312 -1.105984 -0.573254 -1.8346187 -0.20538245 -1.4518056 0.7720236 -0.8306435 -0.5794743 0.8450994 -0.4119992 -0.033898138 1.2933209 -0.660232 -0.78588015 -0.5128972 0.8051219 -1.4057837 1.0482302 0.022000795 0.40044883 -0.5365474 0.065569974 1.6627228 -0.35499156 -1.2525908 1.7928766 0.7368698 -0.05664981 -0.40368885 -0.19133133 -1.2925999 0.12822022 0.37676874 -0.87227833 0.16842867
28 0.77632 -0.027905477 1.0627565 -1.0486696 -1.1881942 -0.21409053 0.33929056 -0.06968885 2.1701715 -0.028883213 0.980592 2.8216178 2.5403047 0.66393465 0.7824588 0.7833135 -0.5322691 0.20955117 -0.98567486 0.90140027 -0.29104087 0.48992 0.71787703 0.069150425 -0.37722802 -0.5347838 -0.99061596 -0.4734182 -1.539086 0.56911165 -0.7458607 -0.90086144 -0.25471607 -0.82592165 0.42558193 0.73837256 -0.01774966 -1.4653692 1.0117639 1.3178335 0.18221395 0.29732257 -0.063860066 -0.18289499 -0.6307232 0.64234227 -0.23292 -0.078122295 0.6425283 -1.2674977 -0.2723689 0.43660012 -0.8841246 -0.5249314 -0.60737836 0.59377444 -1.8876961 0.80057865 -2.0521984 0.3256233 0.09817282 -1.1681778 -0.90576136 2.0807483 -1.8151983 0.382475 -0.8090213 -1.5674125 0.45861956 0.5217758 -0.99547005 -0.21688822 1.8238205 -0.5845082 -0.72343415 0.39038262 0.16869406 1.5652431 -1.4054765 0.008074167 -0.3289653 0.68336976 0.69039756 -0.27954236 -1.7721136 0.63545495 -0.3166465 0.094400816 -1.6229101 -0.8586622 0.52523917 -0.5686607 -0.6803669 -1.0263894 0.3786771 -1.1894895 -1.22281 -1.1092348 0.102106206 0.251289
29 0.7244033 -0.9976285 -2.0540674 -0.9724586 0.024542162 0.7327652 0.033893343 0.5701413 -0.5110806 -0.94138247 -0.23134138 0.7295445 -1.4702324 0.72194135 0.028281758 -0.80834347 -0.25929266 0.17360483 2.0517352 0.4499291 0.8968367 0.044934526 0.28756243 -1.1117034 -0.14448006 -0.67293316 -0.7521003 -0.08388316 0.09075945 -0.43822563 0.71974576 -1.0523014 -0.75455433 0.6177034 0.9433794 1.3393556 0.01645117 1.4043429 0.5999726 -1.2686446 -0.6829519 0.56159014 0.58227605 -0.18410943 -1.3708255 0.89711344 0.26641458 0.35543913 0.18082796 1.0527986 -1.3842927 0.030560875 0.69506 2.0599563 -0.47702357 -0.18987365 -0.13608772 -0.82153493 -0.8685931 1.0590466 0.57877177 1.1604719 -2.0251565 0.31888804 -1.3785154 1.5317907 -1.0607016 -0.36093366 -0.09881913 2.0932863 0.5402873 2.0296783 -1.1682489 1.5545057 -0.224576 2.4531384 -0.52044195 0.17925015 -1.0271407 0.8444259 2.2461317 1.3385981 2.2391562 0.0029712503 1.0079703 0.47818795 -1.4088954 0.74988806 -0.0879597 -0.6876463 0.7308519 0.41011566 0.8755582 -1.456155 -0.14380409 -1.0764717 -1.6101998 -1.1898129 -1.0274597 -0.63089234
30 -1.1182851 0.52648693 -0.48778176 0.46892154 -0.77254575 -0.9285113 1.0936286 0.18214798 0.01597922 -0.54948205 0.33499599 -0.16713414 -0.063053705 0.26995227 0.07006851 1.5153875 -0.28105766 0.17144836 1.7560236 -0.14279589 -0.77634907 0.13282453 -0.0724769 -0.55371195 -1.5172129 -0.015453639 -0.28506792 0.9671751 1.0116324 1.974127 -1.4530125 -0.2735768 1.6227458 1.4448498 1.6329265 0.87615454 1.4870868 1.7459273 0.12007528 1.7930206 0.19353783 -0.68969625 1.311163 -0.5222876 0.74541634 1.0675623 -0.07610018 -0.25803363 -2.1118774 0.2621933 0.18767065 2.1788504 0.7387481 -0.2942302 0.7523096 -1.7353489 -0.08690183 -1.0267223 0.6447095 1.2728845 -0.8661643 0.9967918 -0.066527806 -0.19759777 0.58197993 -0.12037883 -1.2042255 0.68755996 -0.35825574 0.6472544 -0.3284336 0.32158828 0.45419586 1.0087309 -0.51609415 0.3957648 -0.505182 1.0866338 -0.48160163 0.18306634 -0.34685144 1.3201872 0.50922245 1.2003771 0.43764165 -1.8932952 -1.0763863 0.5174307 1.0277364 -0.85160434 -0.036077537 1.391818 0.5438299 0.64931774 -1.1367501 -0.7499228 -0.28145808 0.9152184 0.48355153 -0.13406809
31 0.20911436 0.12377592 1.2441926 -1.3399475 -2.5968926 0.30893198 0.0473696 -0.04852878 1.078391 0.004638488 -0.6147019 1.6273392 -0.43247348 -0.14505653 0.5256638 1.2276915 1.1381221 0.68085366 0.08182143 -0.6670311 0.54600537 -0.306426 -1.3803853 0.6662188 0.96175927 -0.82634693 0.46965674 1.4821272 0.3617019 1.0723953 0.84717 -0.050013103 0.42878947 -1.8467504 0.36618447 0.30362785 -0.24063279 0.9019612 0.2194698 2.5952842 -0.08114853 -0.6559479 2.0467818 -1.0067037 0.8607553 2.135927 -0.91560715 -0.77266115 0.05579803 -0.98831046 0.13691118 -0.29126477 1.7939155 1.4940242 -0.8309693 0.25452355 -0.12056118 -1.2625693 -0.2676029 -0.630641 -0.558954 1.7150836 -0.6310414 0.20877315 -0.4245747 -0.6732413 0.5829839 -2.152786 -0.12662446 0.56859267 -0.6902485 0.18652265 0.7979347 -0.085209645 0.56812066 0.44525272 0.66463965 -1.5692769 -0.25991988 0.6259552 -0.41058478 -1.2133983 -0.227577 0.21537626 -0.0019616573 0.10730048 0.08059423 0.1307456 0.63188905 0.3115382 -0.2765637 -1.9172649 0.42449957 0.044898853 0.63629687 -0.3563729 0.005052992 -0.121498175 0.17025997 0.6575585
32 0.6026621 -0.6800795 -0.95270276 1.2687129 -1.4055243 0.6978304 0.8140891 1.3706837 -1.3028063 -0.570973 0.58406216 0.7880402 1.6453397 0.7924169 0.21613666 1.2489766 2.995412 -1.4128546 0.82907933 0.595306 -3.2023196 -0.4306427 0.7724249 -0.64923483 -0.15283684 -1.3884685 1.0263771 -0.25857195 -0.027749347 -1.1795714 -2.3167658 -0.8470705 -1.40561 0.5458872 -1.3621755 0.946074 -0.550316 0.5062465 -0.76787823 -0.6697164 -0.3533524 -0.37366578 0.27105755 0.89755845 0.17335851 -1.4034858 -0.6287805 -0.38493326 0.43187222 -0.421449 -0.36865246 0.33115077 -0.74860495 -0.38736454 2.2277143 0.51519763 0.16062364 1.3311377 -0.68416667 -1.1426828 0.36585015 -1.5242202 0.71782666 1.0390673 -1.5339129 0.27862957 -1.9961752 -0.5802942 0.97502226 -1.8104783 0.058896273 -0.9729478 -0.56420654 -0.94202214 -1.185547 0.7755992 1.8860289 -0.003992942 0.851182 0.5686829 -1.6292328 0.5159875 0.9096339 -2.8075526 0.008275602 1.2274622 0.849221 1.2159163 0.08835139 2.5302365 0.3178751 0.7598471 -0.4850327 0.80831724 -0.17706522 -1.3939407 -1.2147177 1.0111685 -0.7246574 0.13948743
33 2.129491 -0.638825 -0.5673236 0.1918473 -2.2384787 1.3175677 -0.22162035 -0.17185685 -0.3415605 1.147642 -1.338727 -0.3190147 0.3327264 0.14620577 0.1641747 0.15548213 -1.2986494 1.58533 -0.4639808 -0.044816863 -0.9581548 0.20976669 0.40421793 0.22602667 0.69970715 1.1412799 -0.27286348 -1.5473033 1.2576094 -0.13874805 0.89659387 1.2457538 -0.31507504 -1.127883 -0.41287503 -0.37972856 -1.924995 -1.2016766 -0.22198252 -0.81379026 -0.16330914 -0.5417662 -0.862003 -0.58766913 -1.9143934 0.17855158 0.82559246 -1.9219189 -0.19179341 0.89900553 0.48151338 -0.7413877 1.0276592 2.184135 1.1461701 0.2588662 -0.86042356 -0.3981787 0.9828047 -0.87987393 0.6249124 0.30260098 0.68548304 -1.2849114 0.56130165 0.45802826 0.6849001 -0.748827 0.2702951 0.9647117 1.4223022 -0.3305241 1.7788857 0.77974653 -0.6680433 0.25807762 0.051807355 -0.64300054 -1.3942398 1.1085862 0.45926738 -1.9973776 -1.1508504 -0.94403535 -1.0087773 -0.7832249 1.5559719 -0.71799713 -0.4702382 -1.0459007 0.55547607 0.20990811 -1.2337486 -0.2863058 0.31393775 -0.027435206 0.6369207 0.11758046 2.1586833 0.20308094
34 -0.18926722 0.32625815 0.9532256 -2.696311 -0.47647396 2.2843952 -1.211452 0.13011788 0.9966241 0.7715527 0.15715975 0.16230583 0.38509783 -0.14453211 -0.6131954 1.5253105 0.5936702 -0.6452398 -0.35873836 -0.55281574 0.17982796 1.2953926 0.4124489 -1.4837724 0.77701056 0.10221124 1.3598062 0.7433498 1.1466736 0.1756349 -0.63644075 -1.0996777 0.5528812 2.309536 -0.42315367 -1.1112136 -0.39136782 1.6536003 -1.5831946 -1.4093535 0.26063612 0.34668356 -0.61747247 -0.2778548 0.49783844 0.2533016 0.17411448 -0.20683192 1.1135885 0.4795177 0.5690142 -0.71618104 -1.34187 -0.4769855 -1.448849 1.5893577 0.9208276 0.11172081 -2.615514 -1.4063563 -1.2893692 0.7471527 0.058301453 -0.6854132 0.97738683 -0.35860458 1.6217016 -0.48082656 0.18664588 0.7671718 -1.3898785 -1.1821482 0.22294097 -2.0361235 -2.102554 0.49976748 -0.9577418 -0.11801315 1.0425975 -0.28315303 -1.5155159 0.37737286 -0.027829304 1.370794 0.5400353 -1.9743258 1.6323396 -0.47725135 -1.311593 -0.3165484 -0.84126365 0.37446037 1.0456319 1.5734594 0.13540918 1.1291828 0.64624435 -1.58574 -0.668737 -1.075476
35 0.9454376 0.4442162 -0.27913114 -0.6131797 -1.3227218 -0.19842349 -0.41625637 0.8530623 -0.815156 0.26350018 -0.57499236 -1.2385111 0.12784372 -1.3201193 0.5266207 0.77606994 0.490526 1.4760644 -1.9236118 1.2604976 -1.5704788 0.8012743 -1.9249288 -0.06799266 0.9756977 -1.8972563 0.107921325 0.07158493 -1.3691154 0.02957248 -0.55931956 -0.31847066 -1.672814 0.6386073 0.5035765 0.24804717 1.1807768 1.6671286 -1.2305044 -0.20718941 0.022104966 0.1349968 -0.3121137 1.3844302 -0.96417654 0.21667269 -0.7261483 -0.59044266 -1.416374 -1.0646691 -0.8769395 1.9860064 1.1197914 0.0066727917 0.94270897 0.4167303 -1.1520458 0.063411795 0.102446884 0.49518108 0.4026709 -1.1646838 2.2707996 -0.29468986 -1.0737936 2.565097 -0.39397207 -0.34031582 0.3429128 -1.7874221 -1.4016633 1.1036066 -1.0039862 -0.064969175 2.9680793 1.3359522 -0.30471224 0.3098169 0.91571766 0.8328578 0.2451249 0.74743307 2.8785913 -0.7895125 1.0232121 -0.13007584 -0.7925682 1.1617266 0.5417896 -0.9755808 -0.4451764 -0.4614578 1.021164 -0.17827825 0.6819162 -0.23172958 0.0080918055 -2.0111477 -0.36676908 -0.77095485
36 0.49184796 1.4577913 -2.0268059 -0.66990936 0.39719433 -0.45862946 1.1765537 1.4185034 1.6263463 0.3134435 -0.029025331 -1.5259919 1.6950388 -0.4143015 -1.2078545 0.013596429 -1.3447762 0.35618666 0.5314335 -1.284821 2.0610704 0.10748522 -0.76957375 1.6830915 0.46771213 0.9960512 1.438197 0.04170876 -0.047486864 -0.8358721 -1.6931174 0.23282123 -0.830252 0.97347987 0.65647674 -0.56910425 -0.76773137 0.4140049 -0.434311 1.5998396 -0.09162392 2.1238642 -0.09804386 -0.9044988 2.2554524 1.2012776 0.39711103 -0.14329891 -0.1410558 1.9786896 1.0765122 0.6636383 0.7541904 -0.7086075 1.2912419 0.09870424 0.24364227 0.5540862 -0.3216613 0.3900452 -1.5642347 -1.7796388 0.31882352 0.32765254 0.57946527 0.64241207 1.9348638 2.6180973 0.2399364 -0.19566913 -0.004587492 0.61281043 0.47100732 1.3265533 -0.9250664 0.003405264 0.55718166 -0.9654776 -0.553218 -0.8069845 -0.224144 -0.07994007 -1.4785414 -0.19883059 0.52887845 1.7236166 -2.0660522 -0.3172733 -1.2766869 0.7055213 0.39439663 -0.08247482 -0.24554095 -0.6292441 -1.8217384 -0.44626573 0.36712435 0.32211435 -0.3845664 -0.39069843
37 -0.3614403 0.07753488 -0.8005055 -1.0982906 -0.14792301 1.6967866 -0.81968546 -0.44788507 -0.6399318 -0.2921255 -0.33524543 1.632955 -0.29937512 -0.9192223 -1.8544399 0.7220027 -0.4639683 -0.7490925 -0.31854767 -0.5606699 -0.3623227 -0.39476544 0.56955904 0.7233078 0.1050693 -1.6632615 0.19396709 -0.7519351 -1.5921775 0.2472258 0.9349189 -1.8184525 1.3598591 0.6510535 -0.29951987 1.0129399 0.28180254 1.1992252 -1.1616695 -0.2115697 -1.0737268 1.4252385 -2.5416667 0.13102795 0.2448141 1.9553928 -0.7479145 0.17532226 1.1326395 1.4855045 0.51509786 -0.80587816 0.6901941 0.86372304 -0.8987958 0.3898944 -0.74749386 -0.13894352 0.58582944 1.4005109 0.0073061706 0.24326096 0.4411067 -0.38030204 0.5198493 1.094967 0.47238135 0.8729348 -1.2282115 2.1117065 -0.96993226 -1.4045434 0.75518495 1.531549 -0.59544426 -0.003310698 -0.34195158 -1.0506269 1.5424607 -0.85956436 -0.6473153 -2.218626 0.062447883 -0.27931207 0.5778121 -0.35363725 -0.4813764 1.06325 -0.12664315 0.19051081 -1.1011443 0.14972134 -1.557467 -0.68572956 0.45599967 -0.61678934 0.7323386 -0.70837253 -1.1826218 1.222443
38 -1.0224015 -1.6441166 2.1409202 -1.12126 -1.2023522 -0.66006297 -0.74827486 -0.47060823 0.25164694 0.06821303 0.20897932 -0.6977091 0.9557 -1.9323347 0.5565922 -0.9287689 0.9998002 0.6732719 0.959736 -0.69973505 0.12327622 0.27538133 -0.8304067 0.6944941 0.42756134 0.12130166 0.7034486 0.46377894 0.119539365 -1.5035669 -0.017231528 -1.1739275 0.0077068377 -0.10133616 -0.365084 0.6051959 -1.2894688 0.84773314 -0.21450448 0.44902074 -0.08409784 0.9744987 0.34943223 0.64504164 0.100243755 -0.32429898 -0.27188507 -0.15388621 0.46584663 0.53707653 -1.3282102 0.4269896 0.70875084 0.18320024 -1.2023399 -0.93339795 0.48128593 1.6303133 -1.2952495 0.4577926 0.73272467 0.76873076 -0.40148538 0.5251924 -0.5444323 0.9069704 -0.9117855 -0.21326533 0.99220973 2.1973274 0.7039909 0.9860086 -0.2582318 1.5688627 -1.5686784 -1.0913024 1.120587 -1.5992141 0.08236093 -0.029598964 0.417654 -0.3551613 1.0963457 0.9506178 0.2774803 -0.44064724 -0.33678052 -1.4400859 -0.94027376 1.4434309 -1.707695 1.309065 0.23173912 0.43648505 -1.4115132 1.1572914 -0.5429339 -0.14044935 1.1096392 -0.8304804
39 -1.699821 -0.5164467 -0.5458841 -0.9643888 0.18660437 0.17627713 -1.558894 -0.54883623 2.2475564 -0.19785005 -0.67549855 -1.0536848 -0.65781826 -2.7504184 -1.8853866 -0.48469308 -0.92443085 0.770892 0.6333726 1.5340723 1.3643711 0.031712435 0.81382865 0.08199417 1.135937 -1.0217808 -0.382117 0.15169 1.1792158 1.3915477 -0.73402274 -1.2957363 0.87945026 0.15467104 0.22033331 0.78953034 -0.59383005 -0.10137932 -1.0936242 1.6191812 -0.67267513 -0.36561432 -0.2197711 -1.2272525 -0.40587723 -0.37520438 -1.4241695 -1.1578133 1.3852471 -0.49608368 -1.1220874 -0.13561183 -2.1464407 -1.1226662 0.9531112 -0.49112663 0.7203013 -0.16628967 -1.3593135 -0.77220225 0.73130065 0.005108849 1.2693603 -0.49987382 -0.575273 -2.2780163 -0.124377914 -0.026586091 -0.9863886 2.3944886 -0.19907059 -0.43792304 -1.6365632 -0.46044832 0.67461765 -0.22314735 -0.30772743 0.8825041 0.8065008 0.1913968 0.72774583 -0.86877245 0.59253114 1.0296252 0.53118676 0.7499941 0.04239333 0.38316873 -0.4937909 0.28661036 1.0509076 -0.8192788 0.18948989 -0.008985627 0.5400189 1.3285786 -0.084538944 -0.88821936 1.0205271 -0.2064543
40 0.89611024 -1.175894 -0.8789292 -0.75148267 0.5612849 0.043042947 0.020307781 0.4953425 -0.41760427 0.2867359 0.7571936 0.34767896 1.3829895 -0.88937837 -1.6045436 0.3748535 0.9410795 1.1786267 0.20219311 -1.0904844 0.20542407 1.0293667 0.732236 0.50012743 0.54779255 -0.12047 -0.26563165 0.2816184 -0.15973364 0.14275718 1.8721564 0.47061518 -0.07055782 0.9813195 -0.4591092 -0.4054503 -1.1884792 -1.1290106 -0.8850236 0.9454798 -2.046204 -0.093520604 -2.672305 0.86422026 0.4009533 0.6839683 1.8367596 0.37419453 -0.9514458 0.97415656 -0.98948264 2.7412827 0.74334663 -0.46054864 -0.4096721 -0.21141326 -2.0131218 0.0058001117 -0.34698874 -0.19656801 -0.29725474 -0.10601531 -2.1557338 0.3346744 -1.0100365 1.4507056 0.70204055 -0.1224564 -1.0056413 0.81988764 0.32393524 -0.7797811 -1.1708518 -0.55655015 0.31265017 0.9714817 -0.1499323 -1.710054 -0.06764177 0.6031376 -0.046105776 -1.4351574 -1.0978514 1.1154631 -0.6248793 -0.46516624 0.94092643 0.06780154 -0.6444933 0.41561675 1.3946664 -0.7818378 -0.2813805 0.18101697 0.29177436 -1.3085288 0.1741356 -0.78396016 0.7162592 1.1963087
41 0.5078587 -1.5484236 -1.1252848 0.5263301 -1.602075 0.10707086 0.13256367 -0.4682956 0.45816192 0.15800154 -1.5081913 0.3209941 0.94425905 0.28761706 0.73183715 -0.92326915 -0.6697271 -0.33150843 0.9062786 -0.088562615 -0.47997442 0.4325422 -1.9040943 0.30359918 0.8435382 0.79830086 0.14979471 -0.49889657 0.022896348 -0.6045433 0.7324585 -0.87518644 1.3634971 0.20431267 1.9291987 -0.56436557 0.17210491 0.5249051 -0.9777372 -0.7150107 0.5111396 0.56807756 -1.4901484 -0.33915532 0.050867427 -1.5932671 1.7336756 -1.0706589 2.0327191 2.3251905 -1.6252735 1.6544157 0.9843504 -0.004375809 0.8970213 0.82115585 -0.37884146 0.7496523 -0.30599073 -0.01782451 2.1740677 -0.9564588 -0.8476109 -0.79248714 -0.1300222 -0.6040149 -1.3688248 -0.7916217 -0.8845813 1.2447617 -0.72395027 0.69086766 1.0249846 1.6802895 -1.5075142 0.87640077 -0.42801732 0.21822536 -0.53313863 -0.57278377 -0.8473187 -0.9703807 -0.19157934 -0.6613203 0.67933273 -0.5034008 0.6636869 0.7768538 -1.352876 -0.31408152 -0.5006957 0.23554155 0.20273928 -0.65959215 -0.4594843 -0.22513591 0.54802924 0.36992672 1.334913 0.32903862
42 -0.3924499 -1.5113928 0.0021395884 -0.5900303 -1.2258015 -0.24828398 -0.91274965 0.6705204 -3.1587007 0.2627737 -2.3303304 0.20416074 -1.420454 -0.25532186 -0.1677407 1.6310048 1.8854576 -0.57498837 0.7604136 0.06657094 -0.24184373 -0.8227572 0.1257432 -0.9246357 0.8619605 0.4604047 2.6383286 0.43063357 0.5266683 -0.34953776 0.94564563 -1.0864035 0.96291554 -0.557717 1.355526 -1.0255897 0.28685942 -1.5043589 -0.62349695 -0.4191791 0.730849 -0.12307156 -1.0204275 -2.336366 0.15811121 -0.51549774 -0.5767625 -0.81292105 0.634992 0.71840495 1.6181914 0.72240496 1.0590891 0.33534825 -2.0632296 1.0625882 0.5282902 0.66566753 1.4554375 -0.5150938 0.89936537 1.1830319 -1.7316813 -0.007535344 0.15085697 2.1785622 -0.7454584 -0.3406747 -0.3920539 -0.3184304 -0.04717008 -0.91533995 0.5825541 -0.8258085 -0.026896952 1.190106 1.0564284 -1.1381527 1.3051922 0.05164421 -1.4638306 -0.21855034 0.7721394 -0.40282005 -0.28561828 -2.027022 0.85709393 0.2558887 1.2496052 -1.5913149 2.0560663 1.174933 0.36603916 -0.21866931 -0.021591777 -0.9955534 0.8336131 0.85619754 -1.3008087 0.24201006
43 -0.31223425 1.1300298 0.0155225815 -0.24535011 -0.64207864 -0.5141376 0.037185855 -1.0499798 0.49383065 -0.15267953 -1.3177198 -1.1334138 1.4631588 1.2837672 2.622677 1.9870442 -0.9508436 -0.722403 -0.13009797 -0.12673575 0.8411814 -3.0224035 0.3233241 0.069507554 -0.2290122 0.81854194 0.75223076 0.869008 -1.019958 -0.56198674 -1.8926237 0.45933223 2.8666382 0.20888425 -0.218304 0.39570802 1.0760678 0.11947091 -0.96216184 -1.0192254 1.5482221 0.54794484 -1.0234274 -0.5800693 -0.17058429 -0.42537907 1.7410501 -1.0569608 -0.63129556 -0.2396257 0.35785645 0.23995365 -1.071557 1.2579435 0.97918874 2.1308584 0.30955923 -0.79537135 0.24299808 1.2426617 -0.39283442 -1.7597003 0.6646315 1.9909339 0.21755171 0.63758975 -0.53960514 -1.3963704 -1.2970828 1.2471273 0.10186809 -1.0521176 1.37849 0.1900339 0.53609496 -0.035631612 0.303273 -1.201329 0.8737233 0.27074066 -0.12913637 1.482891 0.7554091 0.08997792 -0.7456478 -0.105819225 -0.00553157 0.7614562 0.8927564 0.7215781 0.043778364 0.37293333 1.2100469 -1.4232022 0.020018678 0.51836914 0.7336729 -0.11904676 -1.1877086 0.8232588
44 -0.67642206 -0.49687874 -0.079606965 -1.2020713 -0.543154 -0.5413711 -0.0038909463 0.7456626 0.35333845 0.8905805 1.3243148 0.44050667 -0.8547585 -1.332946 1.0745025 0.19767714 -0.6081471 2.2351787 -0.7078821 -1.7053039 -0.026478224 -0.5541906 -0.2080063 0.36226115 -0.15421425 -0.7682484 0.5039919 -1.1393913 0.13818964 -0.64871496 2.121738 -0.42106783 0.73087794 -0.28504297 0.63736373 -0.700556 0.31048462 -1.2741491 -0.46688932 0.09869526 1.1562154 2.513337 -0.2886476 0.09320097 0.42584202 -0.35383213 0.2918277 0.56251967 0.50761974 -0.78608304 -1.2058465 -2.0267198 2.9712706 -0.38746795 0.03182216 -0.4905763 0.7386267 -1.3045286 0.51356685 -1.7351074 0.68507075 0.30073652 0.27117386 0.41093773 -0.07444447 0.20756583 -0.41533238 -0.20627037 0.08178029 -0.4174817 0.15655288 -0.024665277 1.8238621 -1.3212813 -0.86299354 -1.6539136 -0.56719804 -0.37704533 -0.3025603 1.2396834 -0.587677 0.22252741 0.28831527 -0.7304687 0.7526199 1.243176 1.985283 0.3743278 0.477938 -0.38762578 1.0037876 0.7444105 1.7199898 -0.8876984 1.1449516 0.21585846 0.3312617 -0.96968997 0.86922467 0.8464769
45 -0.36014745 -1.2886118 0.064144604 0.11805741 0.24458374 0.16487254 1.3336924 0.56032956 -0.7110734 -0.021551779 -0.24324279 -0.53909725 -0.2884919 0.42597955 -0.19843115 0.8764848 -0.6887853 -0.96856666 0.08292748 0.07981401 1.0528452 0.29244018 0.2633522 1.3030508 -0.1110828 -0.98411685 0.898041 0.23995656 0.11440581 -0.47997487 -0.102661595 -0.717176 -0.19092733 -1.6235927 -2.2416394 0.14477329 -0.25915122 -0.0022899022 -1.5449252 -0.4005066 -1.1695131 0.7426155 0.40455326 -1.1142197 -1.794966 0.37315643 -0.66401035 0.013408823 1.305563 0.29526487 0.90999746 0.22958112 0.7173452 -0.022660863 -0.6960359 -0.45791465 0.5931747 1.8793842 0.77691853 -0.29571423 0.01275446 -0.0763841 -1.294613 -1.2016668 -0.6703753 1.6237422 -1.812813 0.60597986 0.75758475 -0.5238079 -0.004158701 -0.2279714 0.80478734 0.02241427 -0.98518205 -0.38740218 -0.6265539 -0.65195614 -0.15015425 -0.19871105 -0.35687122 -1.8074416 1.1196713 0.6044869 -0.8911514 0.37540033 -0.8439758 0.9427781 0.4812311 1.1221111 0.5117949 0.16066715 -0.6612171 0.21644413 -0.13881658 0.9765827 -0.83189195 0.4023372 2.0326571 -0.27353278
46 1.940712 -1.1600689 -0.749644 -0.6813203 1.2146637 1.7659317 1.0087018 -0.024323072 1.6571249 0.5971972 -2.1882248 0.14696787 1.3740654 -0.15880933 1.3135478 0.9668282 -0.9385145 1.0422925 0.32044184 -0.97950506 -0.077642836 -0.50165343 0.313815 0.5800311 1.1787919 -0.53801894 1.4584007 -1.1581377 0.16229554 1.8041737 1.4187083 -0.8615126 -0.09012634 0.97227705 0.08117084 0.32454064 -2.0158346 0.17540154 -1.4315797 -0.19828172 -0.23408344 -0.2567045 0.2655602 0.36774918 -1.0779421 0.0046079042 -0.7140258 -0.46379626 -0.8748946 -0.4086915 0.978953 0.83194727 1.8588307 0.061553765 -0.90587556 0.13220806 0.92821413 -1.1739342 1.2029747 1.5923473 0.79136646 -0.17763162 -1.1839651 -0.8307346 -0.5817427 1.2963536 -0.5240867 0.019497292 -0.97488254 -1.0211116 -0.31631058 -2.1630719 0.9845077 -0.46320638 -0.14605717 0.6616513 -1.0917552 0.43126518 0.028384237 -1.4378238 -0.22377752 0.148626 -0.5414981 -0.6144 -2.0334907 0.5333575 -0.5498229 1.0574783 -0.5457343 1.3958318 -0.013704338 -0.5561095 -0.4946601 1.5300282 0.41400307 0.36539158 0.42671266 0.09368621 -0.20591655 -0.22525649
47 0.9715824 0.7478087 -0.6706027 -0.101236254 -1.2653462 -0.2408583 0.40767536 -3.1717067 0.9926254 0.43202844 0.63193554 1.3541269 -1.1333812 1.8123119 0.11468728 1.4008585 -0.44704613 -0.41046214 -1.0837613 2.1420672 2.098961 0.7184425 -0.38310048 0.73715895 -0.89509195 1.3864081 1.1631552 -0.17472358 0.27009076 0.2349012 -1.8616579 0.59854263 0.18625705 -0.20685463 -0.8835618 0.5219146 -0.31695366 -0.98654467 -0.27362403 1.015642 0.34747523 -0.06890358 -1.205556 -1.7009813 0.12671821 -0.047969285 -0.38956428 -0.26884627 0.73021 -0.1331314 -0.89186263 -1.270976 -0.39477256 0.803956 1.1665853 -0.19668838 0.6841593 -0.5430165 0.27796507 0.2114931 2.4968243 -0.46683434 -0.6552665 0.4022681 -0.43384352 1.6964941 0.18165044 -0.7619144 0.05392933 0.34142607 -0.34992805 1.1619098 -1.2397264 0.18456331 -0.079302974 -0.55338734 2.4808538 0.34221572 -0.6633912 0.8248258 0.1663051 0.78826237 0.79361725 -0.17669685 -0.20473829 -0.983319 0.8951013 0.21901657 -0.6084175 1.1319846 -0.51032585 1.4565996 -0.11501787 0.085680015 -1.659127 1.0389382 -0.6433486 -0.37723392 -0.3041858 0.029770814
48 -1.1770787 -1.0728338 0.030696247 0.48211738 -0.118822515 0.53661335 -0.47222748 0.80505633 -0.53426117 -1.5959086 0.34766537 1.0261015 1.1271105 1.0876602 0.7396276 1.3417081 0.9251436 -0.4579809 -0.05422524 0.33149004 0.2252245 1.6988714 -1.6970537 -0.2663298 1.1140684 0.67044073 -0.9089044 0.11111459 0.67887205 -1.3069134 -0.104177564 -1.2867372 -1.0285951 -0.63178605 -0.4298985 0.31997347 -0.3544365 -0.7416299 1.2927238 -0.07715122 0.0020037373 0.68962854 -0.35106838 0.45879862 -0.2564532 2.08841 -1.209502 -1.051824 1.5527015 -1.8087806 0.6070873 -0.028358491 0.39221492 0.66991407 0.005497968 0.986142 -0.7403928 -0.045312118 0.47925955 1.0111158 0.6232465 0.1280453 -1.6644998 -1.7174219 -0.49118024 1.274236 -0.3072921 0.29424176 1.2290106 0.16934317 0.25009245 -0.08908573 -1.670255 -1.4111567 0.8559314 -0.40668896 -0.8700505 -0.9760757 -0.097899064 0.23210248 0.7626826 -0.866945 -0.109813474 0.29270598 0.36712873 0.7366786 1.2869674 2.0747156 0.08006003 -0.7892434 -0.54725635 1.3853643 -0.54172826 1.0318098 -0.2970377 0.31133327 -2.0657556 0.8552594 -0.14108436 0.61347115
49 -1.1762302 1.2689008 1.1869615 1.2882074 -0.15022053 1.6644952 1.0401993 0.22620416 -0.3651708 1.6126593 -2.0641072 -2.3771677 0.43875515 -0.8063588 0.2923676 -0.54499406 0.51841515 2.2783856 0.060985956 -1.3496282 0.17939608 -0.27909416 0.19308163 -0.2253665 -0.6903335 -1.4115318 1.0296273 0.63930655 -1.032227 -1.3772488 0.3423712 0.7364861 -1.3297436 1.3300452 0.021103613 0.19709152 -1.1715233 -1.2030625 0.3346671 -1.6802962 -1.6988009 1.2188386 -0.1250448 -0.99906653 1.0708737 -0.050696112 -0.70740116 0.6785421 0.08293183 2.3527877 0.67155236 -0.16932517 0.6112153 -2.0138123 -0.40213257 1.7530162 -1.0673268 -0.5548599 1.7718853 -1.8292218 0.72826064 1.5566202 0.040841974 0.42983326 -0.4061997 2.011383 -0.75095797 -1.6483701 0.120679975 0.064932145 -0.019039482 0.25607648 -0.85082614 0.8899261 0.022218945 1.870633 0.01946917 -0.3471195 -0.33574018 0.30888206 -1.838593 -0.42614505 -0.28019747 -0.14862703 0.0027540007 1.2649895 -0.15631291 0.43761352 -0.8476386 0.18373026 0.6815289 0.5048254 -2.7951908 0.14382882 0.76149356 -3.1092048 -0.9205364 -1.7506453 -0.18071662 0.7557021
50 1.3437369 0.22890241 0.9829279 0.03145976 0.07439536 0.9756857 1.4937044 -2.1412086 -0.7632058 0.8269641 1.2392561 0.8259871 -1.3750857 0.86250824 -0.14786415 -0.330477 -0.4625553 0.9510088 0.36391082 0.72711235 0.69378644 1.2420869 -0.34424838 -0.3732578 -1.2528765 -0.5478639 0.82703453 1.0937535 1.2240441 -1.151027 0.5609897 -0.7901119 -0.08841617 1.7953203 -0.059400927 -0.92985266 0.25006598 -0.26239502 2.093835 0.679475 0.21817504 -0.25319532 -2.4493208 -0.7260968 1.4377812 -1.0262133 0.27253446 1.0445784 -1.7948009 0.21981838 -0.5607914 -0.44998962 0.20538731 0.5006482 0.8221804 -0.057766754 -1.0089159 1.5455759 -1.3925449 1.2717694 1.1640207 -0.8394244 -2.1927524 0.49121857 -0.40118954 2.0934958 -2.1116176 -0.7866607 -0.6498204 -0.088097736 0.42407116 0.3668607 -0.9082279 0.30164352 -0.24014609 -2.9522536 1.6540012 -0.3725577 0.7154278 -0.516139 -1.2871077 -0.22105514 0.10324205 0.63733673 -0.062620774 -0.71521676 -0.6481483 0.6389542 -0.9231732 0.16302803 -0.37575188 0.09319278 -0.09658098 0.20495914 0.3409161 -0.67909205 -1.8589509 0.5150117 0.9772835 0.12406072
51 -1.3996032 -1.5324559 -0.8291408 1.3216938 -1.3793423 1.0375369 0.20827918 -0.76786226 -2.6680195 1.1890073 -1.1310301 -2.5001686 -1.6289873 0.57919055 0.54151326 0.9993983 0.030922871 -0.69255626 1.7556789 0.40656626 -0.30395803 0.050783202 0.56539357 0.108609006 0.062344942 -0.024700472 -1.008576 -0.072681226 -0.5575979 -1.9657416 1.7562169 -1.2729585 0.30976266 0.320885 -0.5350953 1.9061152 -0.60918486 0.26929092 1.3920562 -0.5470197 0.51136863 0.5406023 0.5944594 1.0843061 0.13673177 -0.7257481 1.192705 0.017041398 1.3323041 0.0840847 -0.48050225 -1.5790914 0.518535 0.5584354 -2.1376996 -0.4180991 0.97505796 -0.36311835 -0.72759235 1.6494738 -0.78167534 0.62325954 -0.42147642 0.42174253 -1.0238289 -0.8986033 -0.5408348 1.7849896 1.1865791 0.17635226 -1.0178216 -0.22798905 -0.6167164 -2.0092041 -0.19644524 0.3291009 -0.8573608 1.0858998 0.3224874 -1.2051604 0.20937158 1.2825037 -0.43722725 -0.615831 -0.52440554 0.06406215 1.1341224 1.1823487 -1.6798973 -1.0509449 -0.07083395 0.28768703 -1.5560893 -0.8429215 0.3069595 -1.5336448 -0.24864079 -1.0994046 -0.33798888 -2.0332353
52 -0.69741434 0.120743826 1.2571969 1.4939656 -0.40717956 -1.2175257 0.04709885 -0.69082606 1.8746735 0.5529381 0.5774068 0.96232665 0.063406534 -1.9392624 2.2244496 -1.6214763 0.45925704 1.1804553 0.17997359 -1.0150579 -0.024931949 0.74073344 1.6616468 0.8766126 -2.0562963 -1.2015154 0.6549295 0.7511766 -0.8429698 -0.24626605 -0.6514376 -0.14047599 0.12915114 1.6939081 -0.7858059 0.55420643 0.37429997 -0.973408 -1.4301515 1.4060409 -1.1596346 -1.5593951 -0.26692477 -0.27093464 0.6024765 0.61746794 0.31772828 -1.4225085 -0.47762862 0.5661636 -0.14473696 2.1225736 -0.35585296 -1.639551 0.8449648 0.5206621 0.63307947 0.6262774 -0.7418292 0.59872013 0.813057 -1.1675897 -0.37992492 0.36435536 1.6590497 0.15390109 -1.3687942 0.3978233 0.83604693 0.5412751 0.34456968 -1.1879725 -1.9846244 -0.45978975 0.45664874 -0.56468517 -0.0008143129 0.7710522 -0.22420718 -1.5310115 0.6740642 -1.331395 -1.2386158 0.9244539 -0.09100383 -1.447647 0.85062665 -2.1963472 -0.80122614 -0.07990551 -0.3434165 0.52186114 -0.22126499 -1.3864132 0.7248351 1.6790671 0.12324949 1.616379 -0.17550312 1.9201634
53 0.20583284 0.043868087 -0.26894557 0.5763294 1.213404 -0.56149805 -0.12634572 -1.1555061 1.4567461 -0.45346627 0.033352587 0.43694448 0.32288837 1.6262078 1.6656181 0.10226122 -1.4941182 -0.1049518 0.79875326 -0.55982614 -1.7385508 -0.8063109 0.027286204 0.41688684 -1.5395882 0.96370655 -0.30325654 1.1369711 0.8345453 -1.7728058 0.90791893 0.16201593 0.33110532 0.44082084 -1.3252757 0.13623448 -0.9433376 -0.10948202 1.1776663 0.057068285 -1.3786107 -1.1787484 0.006403389 1.7299476 1.9622065 -0.120962515 0.10529171 1.7793199 0.7468858 0.21681991 0.33894554 0.55806327 0.46790758 0.08289336 -1.5384266 1.7983314 -2.2207346 -0.63739693 2.185383 0.24760327 0.4068672 0.8916058 0.08351854 0.8031653 0.06307863 -1.5597091 1.0589277 -0.5965002 1.2654439 0.056272704 0.28029698 0.5898684 0.645556 0.2392419 -2.7397995 0.2623918 -0.17927493 -0.48700586 0.9718818 -0.55876493 -0.15773158 -0.528141 -0.4310518 0.7895696 1.0247775 2.7618434 -0.34368145 0.18457791 -1.2120466 -0.55569696 0.27678016 0.86485445 -0.86753666 1.0678773 -0.15174745 -1.2278634 -1.1649165 0.2641833 -0.26999727 2.1867738
54 1.1500266 0.7653655 0.68413347 1.284911 -0.06566395 -0.07419945 1.3746544 0.16308565 -0.8333361 0.71934825 -0.31018245 2.098678 0.49066058 2.0881023 -0.09558419 -1.3055356 0.71148753 0.19800068 0.36699912 -0.14047083 0.61077005 0.29267022 -0.6150239 0.52072906 -0.4419719 -0.21910754 1.371366 0.49963176 0.3520341 -1.2704189 -0.94271785 0.19569503 -1.24108 -0.8562022 0.35613373 -0.14863752 0.7811953 -1.0566565 -0.51755255 0.44475585 0.1778314 1.8953402 0.4996316 -0.42296833 0.84215546 -1.0089346 -0.09870969 0.34012562 -1.2902484 0.62271374 0.9555504 0.5112251 1.3630089 0.7203526 -0.1515208 -1.7143989 0.22579312 -0.56753224 -0.075942636 0.5718756 -1.2382185 0.4801339 0.14628741 0.22398478 1.1851187 -0.39566422 -0.62842107 0.8413576 0.9110288 0.55055547 -0.948358 -0.4940365 -1.7213856 1.0615938 -2.3187754 -0.12959425 -2.342821 0.37029636 -0.32656294 2.3748531 -0.068518594 1.6951146 0.49284413 1.3381945 0.5288172 -2.1807108 -1.2545311 0.6946661 -0.62458503 0.40851068 1.568406 1.5955226 -0.17966264 0.86508346 -0.5576955 -0.23019789 1.0057319 -0.5211665 0.14950073 -1.0963914
55 -0.78833485 -0.5863629 1.1469065 0.6426338 -1.9298325 0.5378587 1.2147095 0.037143476 -0.1907213 -0.65993994 1.7302415 2.4803085 -2.6103678 -0.0026131098 0.22513478 -0.4540472 0.67230725 -0.027577994 0.9056484 0.12897114 0.038606327 -0.41781574 -1.3374647 0.2198011 -0.22437888 -0.23300473 0.574091 0.84778416 0.5470398 -1.0770681 0.6799665 -0.87157965 -0.12238108 -1.1628337 -0.65172666 -0.8158688 1.31148 0.6454479 0.9351334 0.46192312 -0.7256005 0.948371 1.6191783 -1.1185485 -1.9214432 0.016433824 1.5929638 0.8051495 -1.2518605 0.65159523 -2.0768347 0.20514342 0.22856879 0.08460376 -1.0284492 0.9524502 -1.0385848 -0.62172896 -0.43535402 -1.1650898 0.10287811 -0.6756294 -0.6845335 -0.1585857 -0.04884352 -0.26486555 -0.9218128 -0.71407855 0.86102283 -0.7856726 0.55616647 -0.02388503 -0.79226726 -1.2678028 1.0484927 -1.5568838 -0.9487802 0.2960492 0.12883213 -1.9783615 -0.5594592 2.882086 0.19971749 1.004196 -0.27520236 -0.6207859 -1.086794 -0.7899453 1.3535093 1.553339 -0.050924145 -0.7228507 0.34340584 0.12327367 0.5147371 -1.6096855 -0.36773 0.091864735 0.708649 0.8603749
56 0.6590082 0.97284 0.7645684 1.1918707 -0.57255834 0.38053125 0.15458405 -0.32239318 0.3365453 -0.4794366 -1.3169104 1.069948 0.4119507 -0.18776569 1.1319293 1.710572 1.1081179 -1.8931975 0.2605948 -0.52712375 0.6447426 1.7791772 -2.443711 -1.0667856 0.67027825 -1.3671265 -0.3390462 1.01021 -1.7372247 2.3273392 -1.690775 1.9853346 1.1675527 -0.69444025 -1.0978451 0.02819614 -0.9778101 -0.22401464 1.4338735 -0.09443545 0.36426413 0.19190729 -0.8161546 0.8203803 1.0942776 -0.8728471 -0.15687545 -1.030017 -0.7299691 -1.0648296 -0.69194406 -1.1212379 -0.17491075 0.30303726 -1.5651907 0.6818751 0.22077137 -0.87140656 -0.5077876 -1.1389866 0.3562545 -0.45264998 0.6189904 0.9640334 1.8491843 1.2346718 0.72036433 0.47091553 1.9054707 0.8231448 -0.17565666 -1.9417446 -0.4972017 -0.7573119 -0.24417998 -0.9312799 0.7561237 -0.042931776 0.39560226 -0.4543201 1.8829132 -0.5740868 -0.9809717 1.1072509 -0.32216597 0.6418308 0.53895056 0.7374273 1.0680791 1.5904016 0.20092843 -1.9461298 1.0648187 0.89887685 0.7873479 0.013762957 2.0236006 1.6029251 0.30075175 -0.48773658
57 0.5750435 -0.43712512 1.504246 0.8220143 0.26245457 -0.3078976 0.54750264 0.9059888 -0.6948561 -0.8408631 2.1959116 -1.4693543 -0.6249224 -0.26152956 1.2385701 0.18472113 0.62927663 -0.13221222 -2.425174 1.3603909 -0.5724587 -0.61879754 -0.08628214 -0.8062547 0.9302639 1.495725 -0.013563923 0.31202716 -0.8213587 1.3307672 -0.24390812 -0.83535093 -1.5187497 0.3699369 -0.69861937 -1.581449 1.073105 -0.18884124 1.047868 1.5490371 0.9161607 -0.27035752 0.39296144 0.7781291 -0.9280742 0.24807009 -0.7084627 0.85310614 1.508301 -0.844203 -0.59769744 -0.8089348 -1.2936643 0.34599322 -1.1423478 -0.3480672 -0.8130376 0.11324616 -1.0067704 0.38657606 1.7989509 0.39732563 0.03899593 -0.72721165 -0.37486804 -0.3189431 -0.3739687 -1.1870298 -0.14617988 1.2837274 -0.96164036 0.5499196 0.9738437 0.0543766 0.46265092 -0.5175703 -0.8382349 -0.5150548 -0.65828043 0.29735595 1.2727685 1.0968446 0.018296057 0.68022096 0.26767465 0.24563342 0.9017703 -1.1048573 -1.3304332 -0.65459985 -0.051511552 0.33747375 2.166332 0.10845387 -0.025327135 1.5026429 0.9828313 0.06829705 0.9441886 0.2213791
58 -0.35666218 -2.051707 -1.5484008 0.71272004 1.2213736 0.32408264 -0.7654215 -0.65874255 -0.085869834 -0.31650904 0.4374684 -1.0678976 0.817166 0.807905 -1.2984898 -0.17669687 0.6137737 -0.6021262 -1.1891611 1.0092481 1.4600279 -1.3574535 0.66464543 0.09849555 -0.7410334 0.89229685 -1.3314551 0.85427344 -0.6077999 0.14293434 0.21257515 -0.21784166 1.0512242 -0.8480743 -2.2631311 -0.85533017 -0.26678818 1.0321981 -0.42316923 1.8656397 -0.037946608 0.6434624 1.0480494 0.71600336 -0.0787425 -0.88032776 1.2292933 0.7874538 1.4428642 0.56475246 -0.6199247 0.5860529 -1.02869 0.3124302 1.2598072 -0.40676683 -1.5166994 1.702395 -0.07608857 0.13760604 -1.0520993 0.39331812 -1.5921428 1.1094787 0.07351468 0.46483207 0.7125281 -0.27754816 -0.78400785 -1.9250312 0.4331078 -1.063904 0.78003776 -1.0848361 -0.13049561 0.56031656 0.3203815 -0.21949953 1.007279 0.66575366 1.156775 -1.2419738 -2.3768492 -0.67619187 -0.66957617 2.5167687 0.04291205 0.17504111 -0.5235106 -0.028189473 -0.19450213 0.2340296 -0.09113167 0.8017155 0.63789696 0.4670336 -0.48243585 0.39772812 0.18134303 0.597103
59 0.28893167 0.36941695 -0.60996205 0.3518443 1.2050459 -0.21837156 -0.4126885 -1.5942088 0.25358164 -0.0019031338 0.4399513 0.8326512 -1.1668844 1.9595349 0.52446896 0.5523024 -0.692868 -0.43955365 0.5322166 1.513693 -0.076608464 -0.12493013 -1.0230091 0.44079715 -1.4189368 -0.24786067 0.29593092 0.31156266 -2.161289 -0.7798223 -0.54124117 0.3504092 1.0065488 -1.2398705 0.82725525 0.31142783 -1.1602448 -0.39252016 -0.5788542 2.0994685 0.41207597 0.66774 1.2596992 -2.37628 -1.6154038 -0.729732 0.39335153 0.8968637 0.13230957 0.017324964 2.0443916 -0.527182 0.34340453 0.33852494 -1.3229954 -1.3629044 0.24608654 1.281419 0.015689543 1.0600774 0.47552028 1.595848 0.05396933 0.27161202 -0.05230475 -0.25439772 -0.5101584 -0.7420726 -0.7359322 -1.4123477 0.10453912 -1.8383696 1.5263585 0.17425446 0.8500426 0.33764246 1.6198233 -1.2542424 -1.9673798 0.11606513 -0.52927166 0.79758227 0.7571977 -0.6465456 0.53925633 1.401706 0.8608313 1.4689423 1.2745684 0.23983227 0.1179553 -1.190942 -0.26787102 0.36433333 0.13694204 0.65043646 -1.5728797 -0.5424875 1.1402526 -0.97396886
60 2.3142362 0.52134544 0.9967765 0.51765186 0.39629698 1.6523546 0.97729194 0.94663984 -1.3058386 -0.49212536 -1.1348089 0.5125022 0.08412593 -0.9057925 0.07362226 0.92361856 0.3768499 1.5425632 0.93976676 0.6499223 -0.404015 -1.5028659 1.9892367 1.0240952 -0.9738514 2.101896 -1.195577 0.20266022 -0.79173243 -1.3806983 2.1969085 -0.27397034 -0.20265548 0.4567151 -0.40176502 -0.5207116 -0.6262892 0.2919818 0.67383075 -1.9173901 -0.6764384 1.4297168 0.29964897 1.7176534 -1.0935103 1.54299 -0.03293632 0.27964506 0.28425264 0.718021 0.95793647 1.0788677 -0.013529794 -0.8686525 0.56210023 -1.423708 2.1296492 1.6405697 2.5988765 -0.919299 -0.95493793 -0.7221042 0.6455526 -0.64593583 1.7297748 0.07864575 0.46318442 -1.637024 -0.75687563 -0.07298937 -0.36519533 -1.8028449 -1.3734161 -1.2740687 0.2561508 -0.415036 -0.68937355 -2.444948 -0.39472 -2.5066783 2.8591077 0.4055273 -0.020341856 0.40293556 0.70437163 -0.63012165 0.42655152 -3.4910612 -0.5030451 -0.80304843 0.61290956 -1.1376379 1.235607 1.3715832 0.5498536 -0.94565547 -0.40506065 -0.6643562 -1.4914998 0.3680281
61 -0.63467616 -0.13905396 -0.26519954 0.8475814 1.5545396 1.3826303 0.8275273 -0.7710043 -0.051759537 0.14115267 -0.3035383 -1.4948337 0.5686623 1.728902 0.31310454 -0.37881708 0.22412267 -1.0121874 0.46440187 1.3577995 -2.5414402 0.8581254 -0.26772013 -0.6466279 0.8091727 -0.20667826 -0.32929072 0.105549775 -0.05094163 -1.256489 0.57438475 1.8139858 -0.6621839 1.014814 -0.28865024 0.5050914 0.30224663 0.7586441 0.4903969 1.5437276 1.2893244 0.54616046 -1.8409309 -0.23792838 -0.11360149 0.36513242 0.9672195 -0.2617927 0.54287773 -0.5123704 0.037914727 -1.2259969 -0.85727066 2.2859504 0.0044641607 0.11364105 -0.008232678 -2.548884 1.5230632 0.14883444 0.9161833 1.3069237 0.14400075 -2.2503622 0.13200395 2.6827857 -0.9691577 -0.20795439 -0.55337507 -0.46102437 -0.5043629 1.0875199 0.20070751 -1.1428835 0.8923671 -0.08580169 0.07452978 -0.24907789 0.20229843 0.20605919 -0.6048565 0.3472616 0.92113125 -0.4962093 1.2394202 -0.57967764 1.2560588 0.83703417 -1.6220479 0.25380233 -1.0543047 -0.66950387 -0.1359744 1.6016374 0.47399533 -1.7104574 0.14794447 2.2948897 -0.98601216 0.2712747
62 1.1076883 0.05615516 0.19357993 -0.6911723 -0.54758424 -0.77023506 -0.5682527 1.5220462 0.18055761 0.3865469 0.5873151 -0.8166056 1.6452616 -0.15229286 0.45618105 0.7332812 0.45806214 -1.2186285 -1.4408978 0.28802156 -0.7410015 -0.67405313 -0.83402115 -1.2743037 -0.14074588 0.5999845 0.050587032 -0.2048052 2.0121586 -0.33464172 -1.570811 -1.170724 0.7696512 -0.2817549 -0.5755635 -0.57503855 -1.7927122 -2.546694 -0.91592073 -1.3913572 -0.23926286 0.5418004 -1.3661356 0.73763156 0.4947811 -1.2250172 -0.8523582 -1.9586073 -0.9471097 0.43419167 -1.4827625 1.1666671 0.89668465 -1.0871425 -0.79075605 1.8897296 -0.9388171 -1.2821809 0.12636255 -2.0818489 0.7638216 1.2647717 -0.17865255 0.043550942 -0.23427776 -0.029251708 -0.05310596 0.76849663 0.37033367 0.7417331 -1.7104528 -0.3771125 -0.6925366 0.3312992 -0.8592853 0.9919538 -2.072599 -3.164602 1.0136571 0.20320182 0.65619165 1.7800308 -0.7619852 0.23291442 -1.6365914 0.69157916 0.9656798 -1.265147 -2.0202146 -0.9859409 1.7375088 1.6878232 1.1863352 0.86119944 0.22954328 1.4448856 -1.0000914 0.18370323 -0.43827906 0.00823319
63 -1.0869353 -0.75861126 -0.39934486 -0.2935142 0.54701084 -0.5501306 -0.6939942 -0.86876386 1.1402076 -0.44879645 2.3407915 0.89075035 0.96771836 -1.455693 -1.0574243 0.64640605 -1.1254866 0.07748528 -1.6858995 -2.388467 1.7342671 0.4336856 0.9637921 0.011208569 0.09709003 -1.1078944 -1.0768163 0.033627186 -0.6808211 0.7093203 0.43363103 -0.8845699 0.08166779 -0.21599488 -0.19591664 0.8057331 0.45880866 -0.6358053 -1.7969049 0.8924568 0.16949776 -0.93022794 -1.4749236 -0.9519313 -2.2857754 -1.3588208 -0.62962747 0.9684745 -1.1541479 0.2915771 -0.48947668 1.5650042 0.26578867 0.4148615 -1.1346047 0.36722887 1.9371002 -0.5806508 -0.75934124 0.34984952 -1.5725138 0.47267178 0.33675322 0.18833452 0.8849394 1.2689544 -0.43450975 0.49210328 -0.76158154 -0.20023163 -0.17587058 0.7997769 -0.49883893 0.60103995 -0.92540616 1.2385868 -1.1206224 -0.74631804 0.20939204 -0.16269986 0.6340505 -0.6147344 -0.8209059 -0.6686911 -1.4637411 -0.7921433 -0.44813383 0.19227281 -0.38846433 0.20872046 -0.32386842 -0.8919449 1.1758754 0.39787918 -0.34864578 -1.7784917 -1.32044 0.024987673 -0.32599974 0.79876834
64 1.5301042 0.5961978 0.1908218 -0.0078005907 -1.1971847 -0.22854538 1.0595096 -0.42467064 0.9016291 0.79615206 -1.4660188 -0.8598475 1.3844391 -0.104258925 0.38721538 0.53980863 -1.5321047 -0.34517726 1.0064181 -0.51092625 0.41038102 -2.255398 -0.000776515 0.7912987 0.2906726 -1.3623717 0.71853167 -1.5795927 -0.97527796 -0.18426879 -1.0720847 0.0038682471 -0.6955768 -0.14361867 -2.3367922 -1.6000414 -0.977183 0.030782705 0.5653625 0.15925395 -0.18047687 -0.3400539 1.8336997 0.4191289 -0.5614267 0.24848656 -0.6679751 1.1073074 -0.6893065 0.049277622 0.2868012 -1.0491819 0.6091593 -0.18439762 0.27274305 0.86154205 -1.8624434 0.89639807 -0.050581444 -0.2379098 -0.86223257 -0.52188355 -0.93791753 -0.30969396 0.4359748 -0.57239807 0.24660042 -0.49488157 1.7112468 -1.0691203 1.685839 0.81629795 0.09186523 0.7160553 0.8544732 -1.6796333 -0.7492045 -2.0643208 -1.5659431 2.3580322 -2.0305812 -0.05351896 -1.3344231 1.335205 0.7875525 -0.15956342 -1.447558 -0.13486283 0.4302052 -0.6308771 0.20486726 0.5304402 0.71531564 0.045559317 0.557716 0.6145079 -0.4442521 0.9823026 -1.7335693 -1.792896
65 0.68123263 -0.047431305 0.8109193 0.8970651 -0.7762011 -0.19994695 -2.5111282 -0.57001007 -0.5183246 0.035987765 0.18006606 0.1561955 0.32602748 0.19731146 -1.6549047 0.20667522 1.1142455 0.4954147 0.41315603 -0.3012745 -0.3565064 -1.5476346 -0.086988285 0.45340157 0.37548554 0.3082061 0.69177276 0.46467718 -1.5453736 1.30754 2.531416 -0.42031673 0.38636258 0.36364758 -0.29032218 -1.2733103 0.91119415 0.9282614 -0.75657123 1.247037 -0.5069995 0.95714843 -0.57036114 -1.3856598 0.42877814 0.22188847 -0.7097458 -0.39947325 0.9822851 -0.34946012 -0.4410511 1.3364162 -0.8433784 1.9402035 0.13712122 -1.108019 0.6978945 -0.16518116 0.55816275 -0.0929639 0.66664433 -0.19974594 -0.2898413 -1.594755 -0.53248054 -0.7639707 -2.3552666 -0.2840235 0.71638304 0.25386977 -0.52951163 0.15268844 -0.9257087 0.5245717 0.50877863 -1.2074802 -1.9936938 0.7648519 -0.6495444 0.9466382 -0.301057 0.3387834 0.645967 0.3116299 -0.2658587 -0.46102113 -0.8575326 -0.2759193 0.04119319 0.40357298 0.6613857 -0.66532916 1.2040776 -1.2153823 -1.2820228 1.1144028 -2.408102 0.16657822 1.5125332 0.9416196
66 0.46930432 -0.40515056 -0.3537253 0.6122595 -0.24394412 0.63001555 -0.10062118 -1.2786471 0.61808354 0.76577914 -1.9058485 0.70800793 1.4251229 1.9782735 2.079173 -1.3669722 0.5931311 1.1749356 1.4892228 -1.168054 -0.16831592 1.1147211 1.5549656 0.64890856 0.25457102 0.6226788 0.09250302 0.5187232 -0.32491967 -0.10436458 -1.1092224 -0.27703092 -0.38915458 -1.278231 -2.129397 1.3129356 0.026415426 1.7936132 -0.50953263 1.6126301 3.3668149 0.96510065 0.153363 -0.84950274 0.33222392 -1.9608666 -0.76080924 -0.66946435 -0.5907615 0.25878906 -0.3138421 -0.3427473 0.34904385 -0.7307671 1.3316556 0.5011601 0.49506444 0.5882925 -0.49037978 -0.38230506 -1.6818328 -0.58683926 0.40277588 -1.0926892 0.6318062 -0.16993596 0.20080891 -1.8141001 1.1887909 -0.41145223 -0.39505783 1.580707 -0.9432315 -0.7618618 0.7606786 0.33688292 -2.2320259 -0.42495835 0.2745341 -0.18911043 0.7495017 1.4970795 -0.9722358 -0.09481243 1.1911246 0.355602 2.2623081 1.1369677 0.8276927 0.8108007 -1.1974461 0.35384604 -0.36544415 0.69168013 -0.5653651 -1.8113543 0.4350924 0.69287854 -0.48259962 -0.025608497
67 -1.8131561 0.8430176 -0.9665084 -0.0030758718 0.28676596 0.017406238 -1.057955 0.7394096 0.5522494 -0.084293306 -0.8170553 -0.61022675 -0.052998092 0.57340527 0.6324762 -0.77222013 0.30867088 -0.64470965 -0.7360975 1.1991062 -1.5647789 0.46441087 2.5878966 -0.84192204 -1.0319155 -0.26676443 0.7930209 0.011910217 0.023744756 0.45053548 -0.21982974 -0.5166147 -0.7241958 2.1542413 0.81162184 -0.6175521 1.0157894 0.8478082 1.3353592 1.4469835 -1.066441 0.19646287 -0.0314476 0.19209248 -0.75235546 -1.4963543 -0.09872486 -2.6613064 1.0618484 0.40253267 -1.1402876 0.20721948 1.2976394 -0.7256009 -0.63257945 -1.0116855 -0.13613728 0.058362737 -1.0403376 0.30798665 1.6120815 0.22192806 0.70256835 2.12306 -0.9842373 -0.14934099 -0.9672646 -2.0891316 -1.7025678 0.17115152 -0.35318246 0.2684692 0.35866433 0.039835054 0.93805283 -0.24091469 1.218466 0.417853 0.8717343 0.52349657 0.44218808 -0.63173676 0.612119 1.003221 -1.3467504 -0.92439127 0.061895415 1.5897 -0.926214 0.9450813 1.3115157 2.4306684 -0.4967385 0.21151711 2.7325144 0.82474405 -1.4711872 -2.6141148 -0.37347573 0.54468423
68 0.19698961 -1.2759691 2.200896 -0.5250354 -0.9294848 -0.11815872 -0.06855719 0.12171703 -0.08193393 -1.7839285 -2.4020586 0.26991028 -0.69851315 0.64843845 -0.6924152 1.7474769 1.1302857 0.8829236 -0.013166031 1.1926576 1.4200445 -1.1424271 -0.49827012 0.3008981 0.6375833 -0.17507423 -0.0841326 0.3417933 -0.92304546 1.323337 -2.4820716 -0.16034608 0.9133333 -0.32616425 -0.54796773 0.56475455 1.1611825 1.7021198 0.86088496 1.8753976 0.10828715 -1.017767 0.70001477 -1.7944139 -0.85782367 1.6423024 -0.21838532 0.810379 0.33131635 0.10054524 1.419527 0.3453642 0.34604552 -0.65633374 -0.09062846 -0.8171279 0.5214102 -0.45311671 -0.86952156 0.6983245 0.34077632 2.6855173 -0.8775012 -1.5924947 0.51067156 -0.8725777 0.89816475 -0.50287545 0.9832609 1.2921106 0.95115376 -0.10079234 -0.09119846 0.5368332 -1.0645432 0.20577286 1.19931 0.92306775 -1.2877753 -0.9092604 -1.057275 -0.72514105 1.2495128 -0.032661337 0.12915511 -1.5218978 -1.1195549 1.1025616 -1.7461159 -0.5413701 -0.67273736 -0.42342603 -1.772029 -0.046424687 -0.31244853 1.0798497 1.484926 2.958477 -0.38775972 0.61376864
69 0.88015074 1.291674 0.91546714 -2.1982248 -0.2575961 1.2611432 -0.6326516 -1.5021899 0.23849809 -0.47947806 -0.21124737 2.483194 0.72729516 0.72045434 -2.5236444 1.1300112 0.26536816 0.1383954 0.060948163 -0.5629192 0.27440557 -1.0547833 0.27954528 -0.7889923 -0.4767421 -0.5002938 0.74061316 -0.44843015 0.37752512 -0.5136953 2.0005832 0.86218107 1.3576552 -0.6924309 1.2668813 0.9643206 -0.27518603 1.2944213 -1.1430352 0.04850017 1.3002152 0.25667468 2.0393863 2.7586482 -0.27851215 0.5084892 -0.37409577 -0.6059412 -0.017586526 0.5720421 -0.11529275 0.99003214 0.4678723 -0.61175 0.9028534 -1.6768287 1.0312842 0.7828841 0.47975665 -0.7951353 -2.107051 -0.15458755 -0.19794454 0.33426178 0.8891265 -0.30842638 -0.005735571 -2.0156312 -1.1310866 -0.098259576 0.5640467 1.0665032 -0.50447816 -2.0754108 0.60426 0.82228386 -0.2524927 0.63481283 0.7381676 0.12505578 -0.6812827 -2.7256632 -0.49164835 0.21169227 0.07199816 -0.044456393 -0.13190691 -0.750533 -0.51235014 0.1503437 1.1830798 2.7819545 -0.5374566 1.6577295 0.036777206 0.5483834 -0.6623123 0.5422375 1.1090754 0.09898122
70 -1.2486147 0.46488637 -1.0626538 1.7161751 -0.4881695 -0.42019692 -0.3375778 0.8598736 -0.51817805 0.72097164 -0.759316 -0.3814835 1.2253894 -0.46213672 0.3375414 0.05591253 -0.09028935 -0.58045024 -0.5957922 -0.3517277 2.2199082 0.46249402 -0.39536455 -1.7695425 0.99328923 -0.46102777 -0.19602779 0.76331985 1.1361641 0.46128532 1.0420482 0.11756023 -0.57662404 0.51960707 0.64961874 2.8804126 -0.6097147 -0.1336795 2.0204744 1.9154534 -1.8110236 0.008351774 0.2535607 -2.4895256 -1.0632766 0.119377285 1.1784283 0.31925312 0.32960415 0.57243365 0.72968227 -0.1302825 -0.2627411 -0.5129899 0.9813956 0.6541988 0.41988492 -1.1848744 0.30497634 -1.6438787 0.18125631 0.7341002 0.4068393 0.15932845 0.041544322 -0.37262136 -0.9877097 -0.9532009 -0.58325857 0.34361896 0.08705835 -0.81560594 -1.7201178 -1.5374357 1.3986083 -1.3159703 -0.53078914 0.20349878 -0.6788923 -0.21646401 -0.16507682 -0.2019983 -0.5717697 1.9914914 0.8672248 0.11660998 -0.87941426 -0.5684382 0.4974352 0.6149245 0.8762156 0.6441135 -1.4823056 0.3474256 0.3149884 0.015113513 0.7816538 -0.88008845 0.6547874 0.9008669
71 0.29684436 -0.5487136 0.65396583 -0.6472541 0.7687049 1.5435996 1.5810496 -0.46406922 0.28333277 1.9057293 1.731277 -0.34010357 -0.42023033 0.7969929 0.12516998 -1.8027325 -0.20777035 0.81336015 -0.7712194 -0.56628513 0.62328225 -0.41612887 -0.4401435 -1.6573168 0.4974913 -0.33508512 -0.3294057 0.5735746 -0.49478158 -0.5765961 0.7906991 1.966099 -0.034181543 -0.9073987 0.6814603 0.15084198 -1.6475644 -0.9383926 -1.0351124 -0.068900436 -0.85521173 0.83601665 0.41674784 -0.09341169 1.7587198 -0.99179953 -0.7770282 1.040409 1.4367963 0.33482754 -0.99585176 -0.5497293 0.55509794 -0.01761433 0.051950462 0.20293081 1.3624424 -1.2010834 0.5790835 -2.1435838 1.1098893 -0.5515419 -0.19277608 1.3994606 -1.9900981 -0.41916063 -0.85692245 1.02506 0.07973649 -1.9503074 0.14487292 1.356588 -1.1039329 2.067941 0.37125984 -0.8301962 -1.442819 -1.7101862 1.7755014 0.296176 -0.06401569 -0.47712466 -0.50156206 0.8927526 -1.2545247 1.4673767 0.12666665 0.24390641 -1.0078775 -1.1512339 2.0330396 -0.107932046 0.19408934 -0.48266485 -1.0651785 0.58586246 -0.5536217 0.6276166 0.15553868 -2.2941566
72 0.6664245 -1.2341739 -1.665995 0.2657529 1.0284396 -0.85031307 0.5984661 -0.19945447 0.20778023 0.049178004 -1.8483796 -0.9203775 -0.006695322 -1.7228329 1.0017294 -0.9558711 1.1004096 -0.09376737 0.3759764 1.353144 -1.6583654 -1.4076312 1.0799303 0.5511985 0.18287721 0.45942682 1.0310298 -0.20420732 0.9752602 -0.6962035 0.38544333 -0.9214763 -1.7752545 -0.3191125 -1.6868902 1.1640906 0.12382808 -0.24976067 -0.24348989 -0.10300358 -0.9370208 -0.90247506 -0.8012015 1.73006 -0.7316979 -1.6507788 0.9479908 1.8956792 -1.3877045 0.69176936 0.44841388 0.58037317 2.3637712 0.94707435 -0.6861167 0.8256566 -0.58971846 -0.37046212 0.0074158087 -0.26889977 0.5351804 -0.21595915 0.70532364 1.4672265 -0.6673327 -0.5709924 0.0091615785 -1.1221125 0.30093396 -0.060690682 -1.2945398 0.6834916 0.27749112 0.559979 1.7692133 -0.14666493 -0.52285254 -0.91716397 0.3280957 -0.7290874 -1.4607748 1.2674385 0.11626575 0.009843876 -1.4213209 -0.55271286 1.1521647 0.1394345 0.38762686 0.05543151 -0.6483426 -0.80351293 0.8324724 0.7771595 0.59285575 1.2645202 1.6055276 0.2076304 0.32004866 -1.36706
73 2.1468527 -0.7494146 1.1359009 1.6532421 -1.5915666 -1.5462389 -0.0755624 0.2889284 1.4142833 1.056141 0.9819409 0.3645919 0.60352206 -0.6409396 0.16777109 0.657513 -1.2694227 1.0507975 -1.0483341 -0.8474484 1.1223143 -0.29736096 -0.12594672 -0.31959996 -1.0032454 0.79469746 -0.11203926 1.0859717 0.15452176 -0.27722228 -0.46831217 -1.8832756 -0.25636104 -0.5651261 1.3790101 0.11195376 1.0439233 0.54279566 2.6718295 -1.432438 -1.3147068 0.3726257 1.0901173 0.91898423 0.36656326 -0.14831044 -0.9865521 0.1297401 -0.32859308 -0.29825816 -0.2467484 -0.9844201 0.4461559 -0.2780412 -0.009556122 -0.49176022 0.03214527 -0.22661193 0.21363993 -0.018354425 -1.3680248 -0.39739713 0.46920425 1.4425615 0.44483063 -0.9273588 0.10990383 -0.6662534 -0.55653924 0.33463553 1.3396525 0.7258414 1.193881 0.84952384 -1.136069 0.17019056 2.0688317 -0.9819454 0.7261047 -1.8537428 0.65310395 -0.22462295 0.7750055 -0.32469752 0.15450008 -1.2318356 -0.76399964 -0.3658597 -1.7350235 0.8657682 0.15787561 0.8334304 0.51097196 -0.48896447 0.30985594 -0.34835565 -0.8927967 0.75302273 0.73878306 -1.152991
74 0.55503297 -1.2927179 1.8236719 -0.62368435 0.021398297 -1.0761172 0.0125732515 1.705114 -0.1267858 -0.00089962414 0.26739788 -0.9993361 -1.0964078 0.43262577 -0.43429956 -1.0956572 -1.0187832 0.9064576 -0.16990522 -0.9153467 0.6823979 -1.1461052 -0.051342953 -0.14717996 -2.5369074 1.1480204 -1.1796427 -0.46526173 1.9126757 -1.8605763 -1.7746998 1.0036123 -0.46873364 0.46447197 0.22583492 -2.4303598 -1.050942 -0.30806738 1.6792997 -0.76463264 -1.1735845 -0.99828726 0.017449548 0.28847992 0.0662036 -1.1814061 -0.02670945 -1.3925674 -0.62022156 -0.9157394 1.7770443 -0.16612916 -0.10136921 -1.4512755 1.151195 -0.7527928 -0.51880246 0.56634986 -0.82635826 -0.37594372 0.45818093 0.17786963 -0.057667144 1.5356903 0.5459226 0.59971905 -0.4039001 -0.31763205 0.23824508 0.60070735 0.9053386 -0.15097445 1.03522 0.8120869 0.20596816 0.19255501 0.08126926 1.0876739 1.2570128 0.42986706 -1.1146939 -0.19461215 -0.59195745 0.44062126 -1.4516826 -0.43348923 -1.7648153 0.34520605 0.24035057 -0.67172444 -1.2959752 -2.6430573 0.35722473 -0.42824146 -0.4859469 0.1750971 0.5395833 -0.18219075 0.38623542 -0.019976493
75 1.2730598 -0.93832636 0.20264918 -0.5352849 1.4147671 0.2521619 -0.47767755 -0.36866432 -0.20230772 -0.6670283 0.21048334 0.9909353 0.6511526 0.58316773 -1.467601 -0.91260725 -0.5143218 -0.1325935 0.38746598 1.4222959 -0.45890534 -0.8545309 0.0054644644 0.94427425 -0.39849365 -0.72903264 -0.064485446 1.0115407 1.4725212 1.8337455 -0.45266622 0.04818134 -0.16968706 0.9027917 -0.7604376 1.0089837 -0.1163149 0.3529155 0.17258723 1.1074814 -0.721377 0.12611684 0.73722935 -0.31025833 -1.3874552 0.29364812 -0.84437144 0.44732645 -0.6179758 -1.0253018 0.8015923 2.087809 -1.8240261 -0.267586 -0.95959604 -0.49963266 0.409727 0.21994576 0.5641823 0.97121984 0.35381424 0.72590405 -0.615529 -1.3777541 0.1138805 0.16515467 -0.07912495 0.73581266 0.64194125 0.368534 1.7303094 0.21631059 1.8181744 -0.3699314 -1.5034528 -0.28491345 -1.5769095 -0.6896408 1.2620454 -1.376613 0.66906446 -0.03509166 -1.6045916 0.39933 -0.24084505 2.1117332 1.0426388 -0.8091694 1.7622052 -0.8935923 1.7208403 -0.020742845 0.5218594 0.76103294 -0.33861828 0.10866615 -0.6339374 -1.6684242 -0.54318243 -0.29241994
76 0.6652275 -0.459698 -0.52323014 -0.6875489 0.55876476 -0.41511744 0.83568114 -1.8405695 0.37947097 0.47356516 -1.7202135 -1.3087144 0.9709257 -0.039864395 -2.4004545 -1.2303118 -0.6830646 -0.653935 2.2162952 0.33783087 -1.0611452 1.2466614 -0.8958386 0.5534762 0.5238856 -0.11148369 -0.73814845 0.83748823 1.3166602 1.1832693 -0.81483245 -0.2329157 -1.4182999 0.6239195 -0.61327827 0.5430556 1.2369612 -0.623884 0.3726411 -0.39158055 0.2427243 -0.60101694 1.2445142 1.5107785 0.4668731 0.09910827 -0.89384866 -1.7369969 1.6044366 1.1690819 -1.4266299 -0.5993514 0.3658474 0.16224864 -0.7303801 0.8795633 -0.7043453 -0.9201937 -0.7554227 0.5567622 -0.112260856 -0.41027656 0.85557365 1.9605446 -0.24715461 -1.0591578 0.38944808 0.37711644 0.2319683 -0.4296411 1.151542 0.8868628 -1.213771 -0.6142499 -1.0562434 0.32901257 0.3073507 -0.50632995 -1.4145756 0.2364162 -1.1848423 0.25283012 -0.61613894 -1.0642209 1.1344213 -0.6002233 -1.2826436 1.1506684 0.31826925 1.8468956 -1.5092182 0.0436413 0.10449201 -0.66299665 -0.89342916 0.4306401 -0.41446638 0.7226705 0.03896352 1.6341052
77 0.9187721 0.9758999 -0.47663435 0.72737485 0.121125154 -1.1204865 -0.0056924797 0.8060778 -1.244517 -1.0999669 -0.47361627 0.94289577 0.80541074 -0.658981 0.7986843 1.2125378 0.48364434 -0.47959554 -0.6287826 -0.20312692 -0.58304375 1.1928787 -2.3097575 -0.15927486 -1.7360201 -1.3083162 -1.1885469 1.5480239 0.41320238 1.3478261 0.34712565 -1.550305 0.36143106 0.7385674 -0.87609106 0.25943732 0.36670288 -1.1201837 -2.0708585 1.1325903 0.67604136 1.6519536 -0.9978055 0.23770292 1.8612473 2.576428 -2.0772052 2.5827725 0.97516006 0.5280096 0.8673189 -0.10745982 -0.8795098 -1.1305044 0.36195675 -1.3720696 0.19011624 0.6840449 1.069984 0.593507 -0.1280029 0.2771216 0.84547263 0.5602065 -0.45879224 2.2522845 -0.7773022 0.10038739 0.91347605 0.5836991 -1.0546114 0.8432845 -0.960976 -0.0043212785 -0.7892609 -0.20757236 1.1939821 0.46391222 -1.4274021 -0.36149296 0.17616871 0.53923714 -0.41402894 -0.47410455 0.41265908 -0.46299613 -1.6337922 0.93638617 0.37191334 -2.9978437 2.316521 1.8642884 0.9838422 0.8066313 0.93788236 -1.2127255 0.45801443 0.24173732 0.88307786 -0.63030773
78 1.4387418 -0.3140572 0.9501797 0.675013 0.25020745 1.2653815 -1.9517785 -0.90797704 -0.09371593 -0.44741705 0.02466711 -0.81026095 -3.1687202 -0.5968192 1.1727504 0.70502883 1.3628424 0.72615445 1.5919088 3.4366505 0.3836567 -1.9060111 0.49740925 -0.36640435 -1.1925272 -1.2141659 2.5672948 0.74867004 -0.45723802 0.26126462 -0.4373568 -0.24289219 -0.5403307 -0.022296892 -0.5469086 0.12031678 1.3619913 1.8181043 -1.6327863 0.26002878 2.542141 -0.28290147 -0.4535417 -1.8708968 0.29034334 0.052198566 0.19218324 -0.29874802 -0.051811974 -0.5599456 -1.1822246 -1.1761218 -1.3951018 -0.48270535 -1.213539 0.1400733 0.98911536 -0.81157523 -0.3866633 1.2118622 0.20448217 -1.1072719 1.0488625 0.20464444 -1.0946954 -1.7375016 -1.1808999 -0.31710923 1.2899348 1.9608946 0.51550114 -0.86648256 1.1754569 -0.55532116 -0.5013954 -0.17218632 -0.9681403 -0.5351736 0.01958873 -0.2974514 0.28329074 -0.60348123 -0.8842832 0.2339562 -0.9090642 0.20220181 0.7343394 0.48252305 0.31182718 -1.8629583 1.1140258 0.21627228 -0.48693895 1.130871 -0.74663854 -0.17649929 0.40669724 -0.5401346 0.5345772 -1.1960195
79 -0.17723945 0.22208296 -0.056411326 0.3159065 -0.08198036 0.5466335 0.87092876 -2.0710206 -0.53638273 -0.20700425 -0.7480203 0.054472785 -0.5013746 -0.27950475 0.56391215 1.1975849 0.354264 1.1297147 -0.52678746 0.5961154 -0.20794313 0.20568235 -0.8332585 -0.11113519 -0.033124935 -0.016749687 1.6216415 0.83614045 -0.33140966 -1.568888 1.8242962 0.69988394 0.12082859 -1.0794717 -0.587178 -0.23461983 0.40923133 1.3307781 -0.7002094 -0.91367143 0.29389203 0.5982462 0.89020073 -0.63631564 0.086692914 -0.4888293 -0.58731127 1.2536197 -0.0977988 0.7103093 0.5492153 -0.78924036 0.5866308 0.24669516 -0.17132647 -1.0625063 0.56159145 -1.228008 -0.28239822 -0.12858945 -0.05749545 1.8563591 -1.2075583 2.5067213 0.6359261 1.5358738 -0.2634444 0.10382372 1.3132403 0.3921276 -1.379672 1.0882944 1.1624365 0.7355403 1.3065519 0.7943402 -0.6481485 0.9676514 -0.25240278 0.4359986 -0.66315454 0.24235189 -0.24760929 0.19131516 -1.78738 -1.9715259 -1.1601899 0.2672705 0.06446841 -0.9792894 0.22578625 0.24632335 1.2777479 1.555791 0.5341176 -0.61252064 -0.111906596 -0.4540661 -0.8112263 -2.1877072
80 0.7748323 2.5851653 -0.9891785 -1.2483224 -0.50032717 -2.19356 1.1059955 -0.9791084 0.777657 -1.4526857 1.0967231 -0.77489483 1.2319132 0.33318746 -1.2434834 1.4697183 0.47754592 0.008676371 -1.3463306 0.18369184 -1.069199 0.81695294 0.15773356 -0.2172819 1.0636634 1.0173936 -0.83403563 0.7630386 -0.3377689 -0.6371462 0.99635077 -0.90969384 -0.6645779 0.86159676 -0.6778511 -0.1756996 -0.59991956 0.78170794 0.10450807 0.12319048 -1.1550034 0.17569011 1.0743837 0.3644091 0.57064265 1.5899168 -0.601423 2.250878 -2.6758027 -0.88299334 0.014204474 -0.003289801 -0.97580165 -0.58987284 -1.3312219 -1.2526472 -0.020913664 0.09745265 -0.40233707 0.28032222 -0.8241537 0.19901255 -0.9706441 0.13647123 0.06274445 -0.650136 0.3057775 1.4505571 -0.4703781 -1.0756613 -0.49675778 -0.8321852 1.6795149 0.06355562 0.06539949 -1.2228261 0.6098941 -0.70656216 -0.3026613 0.13564053 -2.011717 -0.71997267 0.27279413 0.7442921 -0.02360134 0.6433507 0.7216311 -1.5945568 -1.5138255 0.64830774 0.0643595 -0.97073126 0.701882 0.4026979 0.376996 -0.5704311 -0.81337607 1.2232505 0.3617894 1.0347817
81 0.83560884 -0.52194256 -0.20270172 -1.1736166 -0.9913483 0.30122793 0.73734295 -1.1888205 0.45155647 -0.24528007 -0.23636192 -0.058302894 0.40883034 -0.18019202 0.10999726 -1.820513 -0.710723 0.47260326 1.643401 -1.329367 -1.0033957 0.6126356 -1.7301475 -0.5108624 -0.18281591 -0.33259037 0.62597144 -0.9950947 1.4154984 -0.15008752 0.063495815 -0.2117031 -1.2346116 -1.3716421 -0.7402214 0.668476 -2.635731 -1.3665904 1.0290761 -0.9895318 1.4597429 0.50665134 0.14351492 -0.28990382 1.043993 -0.09144737 1.9861354 -1.1338809 1.1855588 -0.48232692 -0.23515871 -1.1319599 -1.2277251 -0.19067368 0.30179533 -0.7527677 -0.8488485 0.7812501 -0.4405092 0.8165946 -1.871774 -0.35331026 -1.376514 -0.1964748 -0.79773885 -0.43650034 0.949299 0.076860644 -0.641747 0.14392169 0.06282224 -2.1442523 0.57879096 0.34082502 1.7682679 -0.6657901 0.25757766 0.08995412 -1.14409 1.5276026 -0.8412881 -0.44212392 0.88355833 -1.6796904 0.74561447 -0.544138 -0.5528249 0.10033082 -1.0632501 1.3705992 -1.7310059 0.81157845 -0.7203304 -0.19005372 1.3880322 -0.5468023 0.20112316 -0.39590517 1.0366273 -0.67977655
82 0.13337982 -1.736101 0.015185818 0.27281225 -0.79827195 -0.5902104 -0.08770367 0.534619 -0.95666856 -1.0524921 -0.9354995 3.1701505 -1.6682773 0.119064145 1.9806844 1.1876822 -0.45794472 1.1322128 -1.199615 0.3237592 -2.0432782 0.14323646 1.2373574 1.2847207 -0.59951234 0.37457612 -1.4268789 -0.4564667 0.26079875 0.6281447 0.7235008 -0.7639433 0.5557548 -0.20233777 1.9263258 0.13372084 1.2621835 -0.76080537 1.1383885 1.0474094 -0.077173464 -0.9458572 -0.22388835 1.51479 0.632765 -0.82347244 -1.8680519 0.7771937 -0.20073079 -0.5598044 0.061569702 -0.1126753 -0.31871605 -0.34092948 0.7730839 2.5122297 1.6135565 1.3813347 -0.43747047 0.79533356 0.28684205 -0.61573637 0.9765711 -1.4938151 -0.49724886 0.45312846 1.5721947 0.397809 0.60727906 -0.3594229 0.41237438 -0.2976236 -0.12742583 0.09679395 -0.5858592 -0.3586556 1.6946374 -0.01598411 0.4046582 1.0380036 1.1927565 0.30232102 -1.5518045 -0.5428143 -0.7400336 0.75558484 0.5178167 -0.19414759 0.972242 -0.4459719 -0.37901548 1.3716699 0.13655198 -0.33265588 0.4609427 -0.48940668 -0.61348337 0.5857671 0.06410839 0.44364756
83 0.62117386 -1.8269944 1.7113746 -0.49010536 -0.18800126 -1.074278 2.4308095 1.0395436 1.5350118 0.5791642 1.6116573 0.33027807 -0.66709864 2.7557464 -1.3802946 -0.30151653 0.3089399 -0.655247 -0.5163323 -0.28744608 0.51126766 0.010159799 1.0251442 -0.40339792 0.85165507 0.4222351 -0.7179451 1.1123328 0.525114 -2.2079208 -0.06447731 1.87484 -0.31448972 -0.68305784 0.7744502 0.060260814 0.5900939 0.3309557 0.96971387 1.9508892 -0.048363157 -1.4407973 0.74864954 0.71110076 -1.2908218 0.43888834 -1.1787612 0.38099045 -0.5994248 -2.1192462 -0.20350671 0.257182 1.3352852 -1.2399398 -0.8311989 -0.3045228 2.1864598 -0.8067911 -0.31009638 0.9087943 0.19885951 -1.5843406 0.6313281 -0.7887073 -2.1800952 -1.6513369 1.1093723 -0.63248026 -0.98858774 0.14517638 0.12058744 1.1407139 -0.94883883 0.93185824 -0.12292932 -1.4438062 -1.6143454 0.46152046 0.2526148 0.16959272 -1.8005598 0.05066033 1.4995769 -1.0356269 0.27342892 -2.4171228 0.2634219 1.385908 -1.4321282 -0.2683748 -1.334233 0.5743241 -0.37810755 1.9560984 -0.5277837 0.5685858 0.1955779 1.6065639 -1.1550479 -1.8841369
84 0.77849346 -2.0260482 -0.7467954 -0.06146292 1.5489773 -0.8726146 -0.07742069 0.8223806 1.1476339 1.3778465 -1.0251156 -0.51361877 0.0952002 0.09103448 0.52215695 -0.97749966 0.07822094 0.4157825 -0.75031877 -0.7332068 1.0583768 0.795937 -0.44999635 -2.0405898 0.959587 1.1322672 0.61218536 1.2245345 -1.3066909 -0.5049031 -0.43247047 -0.28440967 0.12820649 0.49225813 0.07621049 -0.23624584 -1.1808604 1.6157556 0.17950794 0.9703537 -0.5255345 0.700433 -0.74316055 -1.1281174 -1.4026623 -0.4402415 -0.38784012 1.3476741 0.42599413 -0.996596 1.2625324 -0.28689685 0.35629433 0.4481131 -0.06601574 2.647324 1.7328153 0.108812235 -1.3702111 -0.25608316 0.07849267 0.90327525 1.3297255 1.8338083 -0.2005201 -0.15313551 1.7464055 0.7073685 -2.0587697 -1.2767421 -0.19299313 0.6906801 1.1697658 -2.3038616 -0.6991968 -0.52500695 0.2762864 0.23086485 1.2499124 -0.03688231 -0.98228776 0.2456278 -1.4351645 2.8138232 0.05534493 -0.36490965 -0.32093462 -0.15927276 -0.53579617 -1.6732948 -1.1447569 0.8966359 -0.82003146 1.5346619 -1.2976584 -2.204474 -0.9314308 0.23430288 0.40006515 0.138624
85 1.4229137 0.44381905 -0.53713727 -1.9517199 0.009078 -0.56798124 -1.0852921 -0.78154206 0.43397772 -2.3287878 0.8405171 -0.75677055 1.0589882 -0.12502888 -0.40382555 0.92875844 -0.06355027 -0.81527126 0.62602556 0.36292088 0.43119758 -0.91752297 0.61937886 1.9905932 -0.29608607 1.1098609 0.91550493 -1.1511158 -1.0012978 1.2439106 -0.26680833 -1.2999256 -0.61705226 0.017388323 0.7302196 -0.89057356 -0.64064306 0.2676685 1.395162 -1.1122178 1.2477311 -1.064138 0.14123714 0.8581909 1.1413481 1.108493 -0.031345606 1.5648489 -0.25195912 -1.3419956 1.0918124 -1.3938531 1.8423057 0.126783 0.36676133 1.3651348 -0.09430403 0.5131111 0.7106109 -0.91547287 1.6730742 -0.04392931 0.015716389 -0.46729067 0.32290384 1.2946457 0.3371307 0.77643543 1.1867437 -1.0034186 -1.1743749 -0.0404075 -0.7958049 0.00084849447 -0.74453527 -1.057102 1.034911 1.0588864 1.4940124 -0.74793106 0.08473965 0.3454565 0.33385 -0.037486922 -0.94583744 0.92719996 -1.7263534 -1.2988755 -0.41998705 1.0606533 -0.016785428 -0.7391198 1.4931298 -0.5915379 -0.55309933 -0.5542967 -0.7759327 -0.10537021 1.7962623 0.51909924
86 -1.010783 -0.7882 0.5358768 -0.25849003 0.07089198 -0.5790516 1.0984848 -0.0878562 -0.6128304 -1.3918393 -0.153418 -1.5503036 -1.2872595 -0.70036733 0.617739 0.3602838 0.74043924 0.12199271 -0.46826285 1.5390482 0.7883984 0.6236951 0.12599081 -0.49283212 -1.0226914 -1.3493713 0.17764783 0.5248322 0.44771898 -1.3991195 0.6997348 1.1019149 -1.4611466 1.8057449 -1.1639892 0.76111495 -0.12952332 1.159005 0.6289133 0.30151868 -0.29800823 -1.0131687 0.073512256 1.4812514 1.03437 0.37284496 1.0958952 -0.8494404 -0.8098931 0.41125348 -0.9900468 -0.058782615 -0.90508145 0.87246805 0.28665593 0.916764 0.17967314 -0.660959 0.2777033 -0.70621884 -0.5648021 0.48953986 0.8782753 -0.56954145 -0.2004757 -0.53914773 -1.1232806 -0.9999247 0.04919866 -0.29839724 1.2743165 0.4949363 -1.9771852 -2.1935256 0.3496335 -0.4792706 0.7162088 0.07067257 -0.18147144 -0.77154636 0.35392445 -0.9101159 1.1612867 -0.8084387 0.08559127 0.76720655 1.3145066 0.79042816 1.023761 0.61724734 -0.6928671 0.23131758 0.23835783 -1.9686018 1.7195308 0.035526514 -1.044311 2.6066175 -1.5384792 1.0707018
87 2.2106755 -1.5176913 0.77346 0.36409214 -0.089339666 -0.42497897 0.18693633 -1.8794897 -1.0049428 -0.5308216 -0.24240871 0.7927461 -1.6078069 -0.33986515 -0.56401014 -0.7121717 0.08899087 0.6934105 -0.49355933 -0.71417856 -0.4463713 -0.3642539 1.3589883 -0.48446843 0.076162785 -0.26884514 -0.3250639 -1.0545874 -1.1376624 0.78820515 1.3881651 0.0073511098 0.50744045 1.7467037 -0.62960184 0.39373302 -0.35713032 1.3960241 -0.44486153 0.3308575 -0.30260527 -0.7873043 0.4509033 -0.96317273 1.8868865 0.9238999 0.28547704 -1.3493196 0.50652754 0.005865726 -0.66070014 -0.85617834 -0.7637256 1.2646177 -0.19089393 -0.7586011 -0.3704525 2.4705124 1.9890885 0.011157896 -1.1375062 0.8014779 -0.47069693 -1.0677165 -0.4227852 -0.3504904 -0.1786165 0.47948977 2.888814 0.6986235 0.4078812 0.77557945 0.6006318 0.6436138 -0.37611455 0.5988095 -0.26338345 1.3840485 0.020787679 -0.09806178 -1.2164791 0.22398067 1.2953583 -0.9578955 -0.013056312 0.029751454 -1.089562 -1.8025687 -2.29089 0.5724018 2.3695452 0.08063288 -0.5140496 0.08258465 -0.7500464 -0.43469378 -0.45288646 -0.6223489 0.05922397 0.26804122
88 0.3593862 0.75285095 0.521674 0.1197297 0.23044191 -1.2315099 -1.7074236 -1.2504169 -0.8003303 1.0469711 -1.2351437 -0.75049466 0.74411786 -0.31037202 1.3689103 0.15085402 2.4125354 -2.794642 -1.3392748 -1.7905233 0.100711286 0.11034868 1.0441474 0.71794426 -0.0070491666 0.45990065 0.34151065 -0.43852633 0.5876557 0.7372927 0.35743925 -1.7925122 0.6079254 1.7545875 2.1863499 -0.14826423 0.8818209 0.11040968 0.8055646 0.18207602 -1.2702812 -1.3592205 0.48962057 -0.4719903 -1.3379357 -1.2261815 0.522391 1.4993008 0.7879964 1.3028319 -0.33822042 -0.7536625 1.1881346 -0.09556215 -2.2000277 1.1913382 0.90004784 -0.9229898 0.23626818 0.6315004 1.2692231 0.2612513 -0.10706722 0.14644793 -1.1333878 1.1219766 -1.0292296 -1.1445509 -0.05258206 -0.33524182 0.15996966 -0.018043073 0.3094131 1.1575091 -0.24398285 -0.53060985 -1.2943125 0.031253688 1.4481338 2.0722036 0.065109506 0.08752933 0.0064360923 1.4850855 -0.94741154 -0.48863187 0.6969834 0.4495091 0.42430377 0.050735448 -0.42786062 0.30778047 -0.72945946 0.4243653 -1.0113295 -0.29013872 -0.4305532 -1.1479231 0.60877967 1.8197173
89 -1.7341821 0.2146658 0.113877855 -1.0206859 0.9236053 -0.7520802 0.082901165 -0.27437273 1.3673347 -0.9409897 0.023015002 -0.7219333 -0.6565465 0.24444574 0.39560145 -1.5633096 1.4324577 2.3211362 2.3521435 0.9657513 2.253284 0.8183603 -1.5333053 1.6046251 -0.30718657 0.7068333 -0.5527879 -0.5352793 -0.1906101 -0.61742413 0.57199717 -0.0007580533 -0.05061876 0.8369908 0.9555602 0.351816 -0.28196713 -0.6655354 -0.7489014 1.174687 0.50900954 1.7116314 1.6130282 -0.46800414 0.049205236 -1.0877867 -0.6821277 -2.2782614 0.5316045 0.5224454 0.13631213 0.4736175 -1.8374295 -0.5895806 1.1554439 0.7185023 1.1736217 1.0105438 -0.0023805352 0.27985287 2.1567862 0.029761072 -0.1368505 -0.6102085 -0.2818296 0.8659877 0.5720292 0.25328988 -0.34879577 0.10215487 1.2438302 0.33010948 -0.00055443816 -0.6487336 -0.2545046 0.52469593 0.13654505 1.0111325 0.54181546 -1.7219785 0.018968027 -0.0054547847 -0.9430648 -0.7428727 0.8077344 0.5731021 -0.12792489 -0.33357096 0.79358166 -1.4324435 -0.74210846 -2.026567 1.0188445 0.14327337 -1.4213617 -0.31135073 -1.7774147 -1.0117965 -0.9064384 -0.53601205
90 1.6607631 -1.5623114 -0.030361863 0.0012340087 -0.378654 0.9938351 -1.48235 0.3672802 -1.2741736 0.16975686 -0.19151169 -0.24835621 -0.24123491 -0.31454945 0.4476399 -1.7631733 -1.0576386 -1.708249 -0.3859934 -0.07727971 -1.301529 -0.28196904 -0.21775475 0.5444267 0.98801076 -0.8410723 1.8979536 -0.44961208 -1.5140967 -0.34895638 0.37116462 -0.646519 0.25901958 0.17971537 -0.6728937 -1.034899 0.36708716 -0.12507828 0.42304176 -1.0287054 0.3892414 0.6190514 0.34731826 0.9316669 1.0508875 0.5608557 -2.5065613 1.8198737 1.5436653 0.79062384 0.388361 1.3423455 1.4670647 -0.25216374 0.3196781 -1.2653238 0.3191882 -0.2924425 -1.1883883 2.7317846 0.284606 0.4911756 0.7388159 -1.557316 -1.3291566 1.8999555 -0.51046044 0.40912494 1.6399188 -0.7410968 -1.3519797 0.06591698 -0.3788462 -0.21598779 -0.24070436 -1.3584584 1.2213467 -0.12572125 1.7346355 1.4632833 -0.40123224 -0.9141782 -0.7033219 -1.1203494 -0.3316075 -1.6722898 1.6738837 -0.060356334 0.30591747 -1.5154563 -0.5654108 0.20336531 -1.325772 -0.99541116 -0.11151126 -0.3045357 0.6370862 0.6395376 0.89286786 -0.3837789
